// Neural Network File Format by Kyle Julian, Stanford 2016
6,4,9,25,
4,25,25,25,25,25,9,
0,
-8000.000000,-100.000000,-100.000000,0.000000
8000.000000,100.000000,100.000000,40.000000
0.000000,0.000000,0.000000,20.000000,-4.647677
16000.000000,200.000000,200.000000,40.000000,22.514692
1.42922e+00,3.87969e-01,1.46493e-02,8.83936e-03,
2.32542e+00,-5.62516e-02,2.16323e-02,-7.09194e-01,
2.86192e+00,-4.56020e-01,5.91770e-01,-2.37100e-01,
-3.44613e+00,-1.13422e-01,5.85938e-02,-1.05573e-01,
1.41083e+00,-3.58100e-01,6.33724e-01,2.61751e-01,
-3.35850e-01,7.84855e-01,-7.51382e-01,2.81157e-02,
4.34235e+00,5.97839e-02,-1.37138e-01,-1.10985e-01,
2.26654e+00,-9.96443e-02,5.80605e-02,-7.35814e-01,
2.16903e+00,-9.96975e-02,4.58455e-02,-5.67874e-01,
1.39331e+00,1.13377e-02,-1.60931e-02,-2.85829e-01,
3.12623e-02,-1.70393e-01,-6.48002e-01,-1.40330e-02,
-3.24251e+00,1.84063e-01,-7.91044e-02,-5.55982e-01,
-6.70076e-02,1.20891e+00,-7.23175e-02,1.80911e-03,
-2.69924e+00,3.29425e-01,-1.86177e-01,2.34369e-01,
-1.02296e+00,-5.80487e-01,6.10945e-01,-2.11509e-02,
1.69609e+00,-2.08421e-01,7.32544e-01,-1.08452e-01,
-2.52698e+00,5.11938e-02,1.73608e-01,-1.29673e-01,
-2.75217e+00,3.04665e-01,-1.95677e-01,-1.88155e-02,
-2.71317e-01,-1.00524e-01,1.06549e-01,5.33818e-01,
1.93186e-01,-1.05300e+00,2.82288e-01,2.34538e-01,
1.03610e+00,3.11358e-02,-1.71311e-01,5.47360e-01,
2.20666e-01,1.02434e+00,-2.20442e-03,-2.13974e-03,
2.18102e-01,1.86176e-01,-1.87418e-02,7.79121e-02,
-2.88717e+00,1.67917e-01,-8.93936e-02,-3.77062e-01,
-2.18784e+00,8.74473e-04,1.84771e-01,-7.44206e-01,
2.55599e-01,
-1.20562e-01,
1.30112e-01,
6.44856e-02,
1.02326e-01,
-6.99159e-02,
1.72442e-02,
-3.36906e-01,
1.14565e-02,
1.97179e-01,
3.08081e-01,
-2.19819e-02,
-1.83559e-01,
-1.27762e-03,
-1.33487e-01,
1.03971e-01,
-2.03617e-01,
2.09510e-01,
2.17956e-01,
-1.19330e-01,
2.09136e-01,
1.26534e-01,
-2.53987e-01,
1.07157e-01,
-1.80536e-01,
6.48153e-01,1.37763e-01,3.60765e-01,4.80040e-01,-2.59866e-01,-3.91600e-01,-5.27640e-01,-3.22953e-01,-7.45117e-02,4.31411e-01,-2.51402e-01,-4.89113e-01,-1.19543e+00,1.76820e-01,-5.51846e-01,-5.56552e-02,6.99126e-01,-5.46873e-01,2.86086e-01,-1.65129e-01,1.25509e-02,9.67213e-01,4.60861e-02,-6.09153e-02,-4.76577e-01,
-7.58796e-02,-1.69305e-01,2.05917e-01,-4.31465e-02,3.17019e-01,1.63482e-01,-3.21248e-01,-5.46726e-01,-2.78630e-01,-2.47354e-02,1.17052e-02,-2.00542e-01,-1.57653e-01,-1.09091e+00,-3.77345e-02,7.82806e-02,2.09441e+00,1.31876e-02,-1.72061e-01,6.70493e-01,3.05230e-01,4.31969e-02,-2.46207e-01,-3.61182e-01,-2.41936e-01,
-2.06500e-01,7.58506e-02,-8.84327e-02,6.59161e-01,-8.55870e-01,-1.76798e-01,-1.08706e+00,-1.23921e+00,1.09788e+00,-2.21984e-01,1.21811e-01,-1.91738e-01,5.68761e-01,1.94078e-01,3.09089e-01,3.17048e-01,-3.86131e-02,-3.17590e-01,-3.14215e-01,-2.74242e-01,2.25615e-01,-2.18312e-03,3.22816e-01,1.00587e-01,5.64890e-01,
-2.85196e-02,2.98202e-01,1.47664e-01,3.03140e-01,-1.57084e-02,-5.00259e-01,-2.43165e-01,-4.50977e-01,3.77846e-01,1.05527e-01,-2.65347e-01,3.59671e-01,-5.91599e-01,-3.47787e-01,-6.72596e-01,-2.94739e-01,3.89666e-01,-2.71229e-01,8.14687e-02,-1.37657e-01,2.97289e-01,1.17279e+00,-2.39806e-01,-9.10101e-02,7.90376e-02,
-2.52967e-02,-5.01350e-01,-9.28815e-01,6.71481e-01,-3.00624e-01,-5.86989e-02,1.53704e-01,-2.38334e-01,-2.56648e-01,3.96902e-01,3.81296e-01,4.61694e-01,2.69364e-01,-6.41986e-01,-7.49973e-01,-6.73074e-01,3.38944e-02,2.22170e-01,-2.67255e-01,-7.46002e-01,6.93055e-01,2.29316e-01,5.68417e-02,3.24820e-01,2.88565e-01,
-4.99710e-01,-3.82340e-01,-9.80806e-02,1.22014e-01,-5.88940e-01,1.19746e-01,-1.30065e-01,-7.86784e-01,-4.25366e-01,2.47216e-02,5.78345e-01,6.75430e-01,-1.68264e+00,-7.20894e-01,1.27564e-01,-1.06017e+00,3.57189e-01,-1.17586e-01,-1.14524e-01,-3.66320e-01,5.52474e-01,5.11604e-02,-2.29843e-01,6.25259e-01,4.83074e-01,
-1.87893e-01,1.78574e-01,1.88894e-01,-1.89565e-02,-7.98413e-02,-1.60751e-01,-1.36596e-01,2.45322e-01,4.44630e-01,-2.68007e-01,2.17462e-02,-5.06387e-01,-1.12478e-01,-2.43327e-02,-1.38920e-01,4.26260e-01,2.95615e-01,-2.16987e-01,7.46420e-02,-2.74378e-01,-3.04290e-01,-4.95754e-01,1.79107e-01,1.89758e-01,-4.59301e-01,
-2.38786e-01,-2.64802e-01,-8.31939e-01,-1.49703e-01,-3.70024e-01,1.57838e+00,-4.13827e-01,-1.35526e+00,7.01191e-01,4.12689e-01,-1.35192e+00,1.09251e-01,-1.11005e+00,1.17824e-01,2.73151e-01,-1.78754e-01,-6.45267e-02,3.13607e-01,2.99697e-01,-8.00622e-01,-6.54178e-02,5.37776e-02,2.54949e-01,-1.39234e-01,3.58349e-01,
6.65989e-01,2.13056e-02,2.15561e-02,-1.08015e+00,1.62327e-02,-1.80865e-02,-7.38008e-01,9.82674e-02,4.42384e-02,1.02781e+00,2.52302e-01,-6.73926e-02,1.87785e-02,-8.24540e-02,1.06739e-01,-4.35334e-02,1.22618e-01,-7.34607e-01,-1.10925e-01,-2.86566e-02,-1.24812e-02,5.84229e-03,1.09494e-01,-6.10235e-01,1.14221e-02,
-2.73756e-01,-1.96462e-01,2.96720e-01,-3.95971e-01,1.44793e-01,-4.40821e-01,-2.20511e-01,-1.87976e-01,-4.04470e-02,-2.12468e-02,-9.46455e-03,-6.95798e-01,-4.29211e-02,3.70617e-01,1.76866e-01,5.02353e-01,-1.20301e-01,1.04590e+00,-2.97204e-02,-5.35232e-01,-3.06054e-01,4.01192e-01,-2.45462e-01,-4.51096e-02,-4.21866e-02,
1.91271e-01,1.36725e-01,-1.75032e-02,5.70993e-01,-2.17707e-01,-3.90362e-01,4.06392e-01,-1.23638e+00,2.50907e-02,2.49134e-01,-3.45376e-01,-6.12089e-01,1.39001e-02,1.73431e-02,6.90479e-01,-1.31530e-01,4.61207e-01,-1.97249e-01,-1.07563e+00,6.09283e-02,4.88866e-01,-1.62621e-01,-3.16592e-01,1.21612e-01,3.04662e-01,
6.84582e-01,4.08394e-02,-4.01966e-01,7.30241e-03,-4.46251e-01,-9.75586e-03,-1.52694e-01,9.08148e-02,-1.58994e-01,9.05194e-03,-3.68199e-01,-6.79110e-02,1.89747e-01,9.84277e-02,-3.35449e-01,-2.71800e-01,9.96976e-01,8.08072e-01,-2.08352e-01,2.59084e-01,2.85608e-01,-2.47568e-01,5.59106e-03,-3.24216e-01,3.87378e-01,
2.20219e-01,-4.37181e-01,3.51184e-01,9.58805e-01,1.09722e-01,6.16051e-01,7.28478e-01,-5.54588e-02,-1.12158e-01,1.90218e-02,-1.62139e-01,3.89930e-02,-1.25452e+00,-4.77339e-01,-1.76365e-01,-2.33753e-01,-3.45363e-02,-2.18867e-01,-1.87184e-01,-4.25212e-03,3.57017e-01,1.15050e+00,1.31689e-01,-2.51130e-01,-3.36790e-01,
4.33271e-01,1.18189e-01,6.83945e-01,2.82167e-01,-4.89322e-01,-7.16315e-01,1.80190e+00,-3.01554e-01,1.56990e-01,-5.37170e-02,1.79056e-01,-2.85665e-01,5.12024e-02,1.90434e-01,3.80091e-01,1.43406e-01,-8.98710e-01,-8.30358e-01,4.83180e-01,-2.54472e-01,9.21223e-02,2.33553e-02,-1.41253e-01,1.28006e-01,-1.25410e-01,
-1.67563e-01,-2.07771e-01,6.04222e-02,5.93478e-01,2.05058e-02,3.45053e-01,-5.63563e-01,1.91810e+00,1.79439e-02,4.52521e-01,2.64123e-02,-2.81942e-01,-3.99557e-01,-8.99918e-01,8.54000e-01,-2.86324e-01,1.99108e-01,5.82146e-02,5.59693e-01,-3.60078e-01,2.14230e-01,3.98808e-01,-1.00084e-01,-5.21715e-01,5.11365e-01,
-3.30040e-01,-4.90178e-01,-2.42518e-01,3.27070e-02,-7.40539e-02,-6.30587e-01,-1.64931e-01,-3.93872e-01,-1.18327e-01,1.43287e-01,9.16732e-01,5.30264e-01,3.15040e-01,-1.63022e-01,8.58376e-02,-3.17364e-01,4.11221e-02,1.76118e-01,-6.81030e-01,5.29895e-01,2.64243e-01,4.73800e-01,8.68243e-03,2.89853e-01,-2.05084e-01,
2.20836e-01,-1.21938e-01,-1.68348e-01,-1.44709e-01,2.87398e-01,-2.91296e-01,-2.93032e-02,1.68892e-01,-2.73363e-01,-1.16740e-01,2.74776e-01,-1.32081e-01,2.35738e-01,-1.57648e-01,-2.22180e-01,-9.76785e-02,2.90489e-01,4.64253e-02,1.75034e-02,1.14727e-01,-2.80193e-01,-1.13013e-01,3.41578e-02,2.30328e-02,-2.70503e-01,
-4.13103e-01,5.00539e-01,2.82622e-01,-1.10647e-01,-2.13756e-01,4.60143e-01,7.07907e-01,-7.62247e-01,1.49373e-01,-1.57972e-01,5.56744e-01,1.26113e-01,2.60439e-01,-4.71461e-01,1.87387e-01,-3.54343e-01,-3.86239e-01,2.56278e-02,3.96268e-03,-6.30468e-01,1.40338e-01,2.95644e-02,1.04539e-01,8.63891e-01,3.69902e-01,
3.03286e-01,-2.25326e-01,-3.46784e-02,-2.33232e-01,9.14563e-02,1.18040e-01,-1.26739e-01,4.19142e-01,-1.98974e-01,-3.23652e-01,7.79258e-02,-6.68632e-01,7.66897e-02,6.14843e-01,4.71041e-01,-1.50574e-01,-5.71080e-02,3.02498e-01,2.74386e-02,-1.87023e-01,1.25656e-01,-1.13989e-01,-2.66939e-04,-3.04007e-01,-2.59761e-01,
-2.86896e-01,3.29472e-01,-2.77310e-01,1.99319e-01,8.38408e-01,8.19602e-01,3.69255e-01,-4.21421e-01,7.04417e-01,-2.11306e-02,-3.97644e-01,-7.69430e-02,-6.95316e-02,3.62782e-01,-4.48484e-01,5.12048e-01,-2.20986e-01,-3.59498e-01,-6.70889e-02,9.84015e-02,-4.81504e-01,1.58819e-01,2.93211e-01,-2.36067e-01,-3.50912e-01,
-2.13080e-01,-5.63046e-01,-5.11237e-01,4.20339e-01,-5.14586e-01,2.87605e-01,-2.07026e-01,-6.09407e-01,-5.74770e-01,-3.10357e-01,4.27331e-01,8.99994e-01,5.34895e-01,-8.79387e-01,-3.94170e-01,-5.09173e-01,-4.75645e-01,-3.18939e-03,-5.65828e-01,2.22860e-01,7.34995e-01,-3.32809e-02,1.51149e-01,6.43977e-01,6.03177e-01,
-6.15914e-01,-1.15392e-01,4.98240e-02,-8.47936e-03,-3.59693e-01,-8.33897e-01,3.25886e-01,4.17727e-01,2.70001e-01,-5.68578e-02,4.72409e-01,-3.03110e-01,-4.99690e-01,1.26057e-01,5.32509e-01,-4.63926e-02,-7.63676e-01,-3.76514e-01,3.65297e-01,1.03224e+00,-1.24347e-01,1.17494e+00,1.98983e-01,4.59187e-01,4.03711e-01,
-4.05020e-01,7.57291e-01,3.70350e-01,-4.25827e-01,-6.59278e-01,4.40702e-01,2.07625e-01,-5.43236e-01,5.47639e-01,-6.88782e-01,-1.27411e-01,7.62757e-01,-1.43489e-01,5.56748e-01,-4.98723e-01,-1.02579e+00,-3.06119e+00,7.93515e-02,5.43876e-01,-9.07769e-02,2.26182e-01,-3.93081e-01,2.27738e-01,9.85693e-01,2.05662e-02,
-5.32865e-01,-2.48397e-01,5.05932e-01,5.67138e-01,9.20701e-02,7.59859e-03,-1.20810e+00,6.94176e-01,7.89911e-01,-2.71041e-01,1.69060e-02,2.00325e-01,-3.41257e-01,-2.42915e-01,-6.19596e-01,-2.16982e-02,-5.39413e-01,5.35817e-01,-1.24757e+00,3.53150e-01,1.25797e+00,1.05161e-01,-1.26366e-01,5.46282e-01,5.48333e-01,
-4.16481e-01,7.67333e-01,1.50242e+00,-2.08283e-01,-2.05765e-01,-3.70818e-01,1.95255e-02,-5.90076e-01,2.77485e-01,-3.70328e-01,1.02336e-01,-4.14680e-01,-1.85866e-01,-8.40560e-02,-4.64678e-01,-5.00801e-02,-1.03500e+00,-3.79283e-01,-3.41409e-01,6.66965e-01,-2.34936e-01,6.34016e-01,3.18000e-01,-8.60506e-02,-3.76697e-01,
-2.79878e-01,
2.92318e-01,
1.66916e-01,
1.90187e-01,
-1.32350e-01,
1.62517e-01,
5.06546e-01,
5.98249e-02,
3.00275e-01,
1.86843e-01,
2.77935e-01,
2.65921e-01,
-1.19771e-01,
-1.70963e-01,
-2.48069e-02,
8.22095e-02,
-2.56505e-01,
5.77635e-02,
4.02310e-01,
2.74464e-01,
7.03208e-02,
-6.81645e-02,
-9.18703e-02,
-2.99222e-01,
-2.54812e-02,
1.44362e-01,6.85440e-01,4.03923e-01,4.01939e-01,3.89154e-01,2.61682e-01,-5.67049e-01,-6.53213e-01,-3.20017e-01,-1.54268e-01,-2.59903e-01,2.42498e-01,-4.04024e-01,-2.21572e-01,-7.98414e-01,-2.54964e-02,7.62444e-02,9.86746e-01,4.18421e-01,-5.35295e-01,1.37071e-01,-2.40862e-01,-4.63808e-01,2.08619e-01,-1.01508e+00,
3.45099e-01,4.66562e-02,-1.77975e-01,4.20174e-01,1.45959e-01,-5.91816e-01,3.74651e-01,-5.69696e-01,1.16050e-01,-1.30154e-01,-2.57962e-01,-6.63809e-01,-6.84725e-02,2.14228e-01,1.34195e-01,-5.08109e-01,-4.85550e-02,1.17722e-01,-8.30086e-02,3.14398e-01,-2.26243e-01,1.85541e-01,1.13858e+00,-1.01426e+00,4.15645e-01,
4.71900e-02,2.92146e-01,6.56565e-02,-5.13288e-01,7.51228e-01,-2.75163e-02,-1.67404e-02,-1.42890e+00,2.34887e-01,9.08735e-02,2.26273e-01,6.88337e-01,2.27391e-01,-1.06908e-01,3.74261e-01,-1.42391e-01,-4.40178e-02,1.33028e-01,1.18675e-01,2.41265e-02,-2.68483e-01,-7.47903e-02,3.57914e-01,9.62076e-02,1.93429e-01,
-3.37981e-01,1.66521e-01,2.73110e-01,-2.40673e-01,1.53656e-01,2.09643e-02,-6.07280e-02,3.07640e-01,2.35696e-01,2.30629e-02,-3.37862e-01,-2.24214e-01,-7.24301e-02,-3.23876e-01,-9.19788e-02,-2.60922e-01,-2.03486e-01,-3.70823e-01,3.38452e-02,-1.16812e-01,2.51057e-01,-2.58594e-01,-3.18642e-01,-2.97734e-01,-3.75976e-01,
2.68035e-01,2.28455e-01,1.29259e-01,-3.55552e-01,-3.33021e-01,-3.23837e-01,7.80496e-02,2.63591e-01,-1.42783e-01,-2.51011e-01,-2.91811e-01,1.51618e-01,-3.48672e-01,-3.07020e-02,1.19696e-01,1.85307e-01,3.25266e-01,1.66381e-01,1.06592e-01,-4.41772e-02,2.52138e-01,-1.25871e-01,-7.78912e-02,-1.12589e-01,2.68137e-02,
-3.49093e-01,1.31161e-01,9.47160e-01,1.06224e-01,-4.13140e-01,-1.51504e-02,2.36935e-01,-1.31439e+00,3.45199e-01,-4.42112e-01,-5.47342e-01,2.47121e-01,3.73044e-01,3.75246e-01,-1.60284e-01,2.76463e-01,3.32174e-01,-2.31469e-01,-9.61522e-01,-1.21585e-01,-5.98103e-01,-2.95186e-01,-3.18435e-01,-3.79476e-01,4.02250e-01,
-2.06502e+00,-5.11411e-01,9.30268e-01,1.32634e-01,-1.51562e-01,-3.08228e-01,-4.99506e-02,1.14868e+00,-4.49693e-01,-3.82798e-01,7.77604e-01,-6.62987e-01,5.24256e-01,-1.18038e+00,1.04642e-01,-2.21154e-01,-2.87051e-01,5.76355e-01,-1.30087e-02,-9.20513e-03,-2.82567e-01,1.61082e-01,-6.77362e-03,1.38847e-01,3.60232e-01,
-5.71697e-01,-1.69488e-01,-3.25542e-01,1.04060e-01,5.48665e-01,-3.76943e-01,4.24268e-02,-2.12612e-02,-1.93540e-01,3.89026e-01,3.10453e-01,2.03221e-02,5.40387e-01,-3.51292e-01,-2.56062e-01,2.77791e-01,1.60591e-01,-1.45176e-01,-5.46628e-02,-8.08847e-01,-6.18529e-01,2.29688e-01,6.33431e-01,8.77557e-01,6.19754e-01,
1.48955e-01,3.25146e-01,-7.89307e-01,4.20982e-03,8.11037e-02,-5.49204e-02,1.30271e-01,2.67265e-01,-2.61118e-03,-4.97454e-03,-2.35292e-01,-5.48805e-01,-4.64563e-01,5.54419e-01,3.98874e-02,-2.07622e-01,-8.96766e-02,-1.32008e-01,-5.51275e-03,3.83000e-02,3.38540e-01,-2.04989e-01,1.14057e-02,-7.97224e-01,-2.86146e-02,
1.05009e+00,1.40806e-01,1.59619e-02,-3.47894e-01,7.36156e-01,-1.39383e-01,1.76300e-01,-2.62396e-01,-2.20601e+01,-4.29828e-01,1.78422e-01,6.40129e-02,-5.74600e-01,1.06041e+00,-3.50033e-01,-1.39752e-01,-1.45854e-01,2.08115e-01,1.78212e-01,-5.74659e-02,-4.52132e-01,2.81805e-01,-8.99058e-03,1.63174e-01,-6.47075e-01,
-8.40767e-02,2.34751e-02,2.05054e-01,-1.20896e-01,-1.13181e-01,-2.73685e-01,-2.70384e-01,-7.63579e-02,-1.76139e-01,3.65573e-01,2.19212e-02,8.99475e-02,-1.72848e-01,-3.13421e-02,5.33219e-02,3.18952e-01,-3.06248e-01,2.35818e-01,5.67255e-01,-1.90640e-01,5.68827e-01,4.94064e-01,-1.72673e-01,-3.46920e-01,2.28121e-01,
3.80867e-02,2.94222e-01,-3.99745e-01,-1.20425e-01,2.54083e-01,-1.07940e-01,-7.03330e-02,6.39637e-02,-3.61576e-04,3.94611e-01,-3.85641e-01,2.61648e-01,1.54943e-01,-1.25992e-03,2.52430e-01,-1.44863e-01,2.69536e-02,-3.27367e-01,3.81412e-01,-2.72210e-01,4.87150e-02,3.70749e-02,8.35662e-02,1.30402e-01,2.51139e-01,
-2.40638e-01,-3.32600e-01,2.93371e-01,-3.60580e-01,5.20404e-02,-1.12400e-01,-4.93525e-02,-2.59175e-01,-1.96021e-01,5.28266e-02,9.10812e-02,-3.88792e-02,-3.00081e-01,-8.96007e-02,-1.52131e-01,-1.97041e-01,-1.22704e-01,6.23899e-02,-2.90096e-02,8.63943e-02,1.47815e-01,5.76287e-02,-9.18971e-02,-6.40987e-02,1.30053e-01,
4.21066e-01,4.42121e-02,2.10911e-01,5.38648e-01,3.51190e-02,7.50631e-01,5.30323e-01,-4.36516e-01,-2.08090e-01,5.26822e-02,1.65105e-01,2.89453e-02,7.17062e-01,-4.97882e-01,-1.75690e-01,-3.97089e-01,2.39243e-01,2.82093e-01,-2.42846e-02,-9.73467e-02,3.79650e-01,1.11244e-01,-3.64898e-01,-7.45702e-02,-3.64376e-02,
8.40443e-02,-3.59130e-01,4.46266e-01,3.02226e-01,6.39880e-02,-6.63602e-01,-7.04987e-01,2.66524e-01,2.21200e-01,-2.64772e-01,-3.65085e-02,-2.55657e-02,8.53757e-01,6.38835e-01,1.02077e-01,2.24779e-03,1.23773e-01,2.78078e-02,-1.72793e-01,1.03163e-01,1.09494e-01,1.81956e-01,3.61180e-02,-3.24836e-01,6.23731e-02,
1.09254e-01,-1.28918e-01,1.52336e-01,-1.06233e-01,-2.51739e-01,-1.25968e+00,-5.34202e-01,-8.74609e-01,6.64764e-01,-2.18330e-01,-2.54212e-01,5.72611e-01,5.07007e-01,-5.81841e-02,4.09576e-01,8.60236e-02,2.55616e-01,-3.71924e-01,-3.08246e-01,3.68931e-01,6.78204e-01,1.78812e-01,8.31782e-01,-1.58632e-01,2.69747e-01,
-5.79222e-01,-2.28404e-01,4.67711e-01,5.98881e-01,-7.58201e-03,5.69599e-02,-3.04098e-01,-1.30351e-01,-1.35413e-01,-4.73923e-01,2.49111e-01,3.25261e-02,-5.51719e-01,-3.20707e-01,-3.13674e-01,7.78913e-01,2.11621e-01,6.87500e-01,1.88427e-01,-4.20030e-01,-1.78697e-01,-3.10067e-01,-8.41654e-02,5.18045e-02,-1.28681e+00,
1.91485e-01,2.73517e-01,-1.34667e-02,1.03351e-01,1.61769e-01,1.84099e-01,2.14636e-01,-1.56556e-01,-3.63500e-01,-1.35298e-01,2.43049e-01,4.84021e-02,5.89811e-02,7.57129e-01,-3.87419e-02,-1.95964e-01,-1.59116e-01,1.65983e-01,5.57495e-01,3.98310e-01,-1.17221e-01,1.85113e-01,-3.49719e-01,-2.72274e-01,-3.75713e-02,
-1.40701e+00,-6.27821e-01,4.81203e-01,5.15409e-02,-1.99995e-01,-1.80036e-01,1.49296e-02,2.46232e-01,-6.57553e-02,3.64401e-01,6.29429e-01,-3.71096e-01,6.50630e-01,-1.66788e+00,-3.83358e-01,5.37762e-01,1.53326e-02,-1.25902e-01,4.10918e-02,-9.47065e-01,1.80801e-01,-3.17107e-01,3.54157e-01,6.35477e-01,-5.13757e-01,
2.31663e-01,-6.42035e-02,-2.52650e-02,-4.60255e-01,8.29038e-02,8.74878e-02,-6.49035e-01,9.93627e-01,2.60096e-02,-4.72199e-01,1.09946e-02,5.78001e-02,2.54716e-01,1.06635e+00,-9.25253e-02,-4.00942e-01,-1.60108e-01,1.06730e-01,5.19100e-02,3.83634e-01,-3.39111e-01,2.12356e-02,-4.13227e-01,-2.00735e+00,-9.93659e-02,
-2.75920e-01,-3.53570e-01,5.03967e-01,-2.06161e-01,-1.73774e-01,2.11959e-01,-1.26812e+00,-3.81021e-01,-3.71755e-01,4.51488e-01,-9.91263e-01,-2.68730e-01,-2.07404e-01,-2.44780e+00,1.25728e+00,5.61240e-01,-1.07479e-01,-2.36981e-01,-1.50114e-01,3.79355e-01,-2.96810e-01,-8.96849e-01,-1.05025e-01,6.77094e-01,1.35787e-01,
-4.36906e-01,6.05673e-01,1.59735e-02,-1.73107e-01,5.88327e-01,-2.17690e-01,-3.86831e-02,5.37656e-01,-3.23167e-02,-3.70504e-01,-3.25458e-01,-3.46940e-01,2.07684e-01,-3.05333e-01,3.69417e-01,5.69465e-01,3.68270e-02,1.32310e-02,1.72610e-01,-1.55880e-02,-4.03882e-01,4.79745e-01,1.66511e-01,1.65455e-01,9.46542e-01,
5.28057e-01,1.66004e-02,-1.27379e-01,3.76998e-02,-3.17935e-01,1.01370e+00,-1.26603e-01,3.97171e-02,1.51683e-02,-1.25709e-01,-1.31314e-01,-5.82489e-01,1.76137e-01,1.36525e-01,1.04555e-01,-1.16064e-01,-1.50353e-01,-6.41621e-02,-2.63146e-01,7.63030e-02,-7.86846e-01,2.45311e-01,-1.11254e-01,-5.80528e-02,1.66843e-01,
-1.69714e-02,-9.70510e-02,1.09573e-01,3.30835e-01,-6.54355e-01,-6.70173e-01,8.91813e-02,9.84574e-02,2.41353e-01,1.37075e-01,1.32204e-01,-2.47969e-03,1.24375e-01,-2.50790e-01,2.48270e-01,4.60097e-01,-1.59361e-01,5.73217e-01,-5.97291e-01,1.28318e-01,-5.41032e-01,6.03416e-02,5.20865e-01,-6.13015e-01,2.09760e-01,
7.00032e-01,1.67110e-02,3.23667e-01,-3.15811e-01,2.17274e-01,-9.75191e-02,1.10536e-01,-2.94496e-01,-1.91505e-01,7.95470e-01,-6.12362e-01,1.32452e-01,1.15163e-01,4.07731e-01,-9.77973e-02,-7.52067e-01,-1.94285e-01,-1.17570e-01,3.41583e-01,-6.22610e-03,7.60342e-01,5.30057e-01,-2.43415e-01,6.10659e-01,5.19736e-01,
-3.01178e-01,
-3.09975e-02,
-3.32508e-01,
-6.23682e-02,
-3.40034e-01,
-1.79753e-01,
-4.01427e-01,
1.87712e-01,
3.33192e-01,
2.97317e-01,
-6.95354e-02,
4.92223e-01,
-3.62759e-01,
-1.44772e-01,
4.19579e-03,
-3.16223e-01,
7.85268e-02,
-1.65925e-01,
-5.87278e-02,
-2.54944e-01,
5.82088e-02,
3.88663e-02,
4.96175e-01,
3.60935e-02,
-7.49909e-01,
-4.29170e-01,-1.30775e-01,3.92141e-02,7.34793e-03,1.24482e-01,-4.55241e-02,-3.48553e-01,1.69408e-02,5.50139e-01,5.36622e-01,8.09719e-02,-2.65763e-01,2.36203e-01,2.87051e-01,8.03850e-01,-1.52257e-01,3.50336e-01,-3.30590e-01,-3.28924e-01,-4.12494e-01,-1.41320e-02,5.70728e-02,-5.15990e-01,-1.20062e-01,1.88520e-01,
-7.71137e-02,1.52316e-01,2.65807e-01,9.05475e-02,-3.14335e-01,1.92872e-01,-4.16993e-02,-7.94752e-01,-1.01228e+00,6.87281e-01,-3.09923e-01,5.55428e-02,-1.27330e-01,-2.03063e-01,5.80144e-01,-6.63375e-01,-2.33131e-01,-3.35237e-02,6.91351e-01,-5.12527e-01,-1.34659e-01,1.32674e-01,4.17232e-01,-1.46840e-01,2.82731e-01,
7.85156e-02,-4.16061e-02,-4.35049e-01,2.52086e-01,2.98133e-01,3.65718e-01,-5.35961e-01,-4.09298e-01,-3.75224e-01,8.09115e-03,-9.28675e-02,5.50054e-01,2.00269e-01,1.38771e-01,-2.56351e-01,2.78111e-01,2.41184e-02,1.79248e-01,3.80561e-01,1.91618e-01,-8.84180e-02,2.51185e-01,-1.99247e-02,3.50431e-01,-1.89863e-01,
3.26228e-01,3.53008e-01,-4.08131e-01,1.40369e-01,-1.36784e-01,-1.70518e-01,-1.19004e-02,-2.23239e-01,-3.97647e-01,-2.73665e-01,-3.94970e-01,-2.68071e-01,-6.56106e-02,-2.91968e-02,3.21234e-02,1.16644e-01,-9.92779e-01,1.44969e-01,4.59705e-01,-8.52901e-02,1.26838e+00,3.23462e-01,-1.58948e-03,-1.37147e-01,-7.54291e-02,
5.03620e-02,-2.89015e-01,-2.03716e-01,-3.25201e-01,1.74806e-01,-7.36637e-02,-3.43904e-01,-5.17784e-02,2.51055e-01,1.56867e-01,-3.20819e-01,-2.34134e-01,-2.59131e-02,5.65909e-02,-2.40920e-01,2.97443e-01,-1.98823e-01,-2.76666e-01,-2.70288e-01,2.69050e-01,-1.32003e-01,7.00638e-02,-9.41328e-02,1.63813e-01,1.28913e-01,
-9.41013e-02,2.19751e-01,-4.08228e-02,2.75332e-01,1.68732e-01,-1.88913e-01,-3.09814e-01,2.75724e-01,-3.12860e-01,-4.61390e-01,-1.75996e-02,1.73007e-01,1.54101e-01,4.53834e-01,-6.48503e-01,-1.92885e-02,-1.42790e-01,-3.83435e-01,-1.43695e-01,8.44326e-01,-2.81938e-01,-1.27355e-02,-3.09600e-01,1.85489e-01,7.04630e-02,
2.70019e-01,2.38473e-01,4.28002e-01,1.49545e-01,2.58766e-01,-2.77394e-01,4.23792e-01,-1.36492e-01,-2.19500e-01,9.32355e-01,-6.55611e-01,-1.00191e-01,1.87955e-02,7.04176e-03,5.43160e-01,1.55614e-01,-1.57188e-01,1.02245e+00,1.00862e-01,-1.20539e+00,-1.03205e+01,-6.72263e-02,2.83066e-02,-1.03499e-01,-8.91362e-01,
-4.63438e-01,3.57406e-02,2.02643e-01,3.20102e-01,1.01282e-01,7.01547e-02,6.05262e-01,1.17524e-01,-5.65885e-02,-2.01377e-02,-1.96717e-01,9.13699e-02,1.43589e-01,1.11818e-01,8.93552e-01,-8.64072e-01,4.39410e-01,2.61868e-01,-9.23716e-02,-8.75217e-01,4.71217e-01,6.69529e-02,-1.58985e-01,-3.24666e-01,1.11656e-01,
-8.06297e-01,1.38860e-01,3.08959e-02,-3.00602e-01,-5.18180e-02,1.54033e-01,-1.05558e-01,-4.40134e-01,-1.56244e-01,1.48591e+00,1.80182e-02,-2.02778e-01,1.25183e-01,2.73563e-01,3.68852e-02,-2.45046e-01,4.13312e-01,1.56250e-01,1.33210e-04,-1.01219e-01,2.70643e-01,2.31478e-01,-2.74736e-01,-4.06095e-01,6.10835e-02,
-7.58548e-01,-9.69578e-02,2.62169e-01,-3.50098e-02,-2.86695e-01,-1.06108e+00,5.16277e-02,-1.01894e-01,1.07559e-01,7.79260e-02,1.81441e-01,3.82067e-02,-2.98227e-01,2.96996e-01,-1.74624e-01,7.27264e-02,8.55704e-01,-4.79927e-02,-2.61311e-01,2.69082e-01,4.54170e-01,-1.73285e-01,7.79776e-02,-2.90172e-01,2.01506e-01,
-5.07884e-01,-2.29778e-01,3.04990e-01,-6.89321e-02,9.90899e-02,4.93377e-02,-1.97267e-01,1.32965e-01,2.16285e-01,7.31987e-01,4.04383e-01,-3.69712e-01,-3.13475e-01,7.32527e-02,1.49214e-01,-4.82391e-02,7.25892e-01,-3.05580e-01,-2.60986e-01,1.44807e-01,-8.36000e-01,9.57066e-01,4.09865e-01,-1.72588e-01,3.40839e-01,
-5.22875e-01,2.38270e-01,2.53242e-01,-1.57121e-01,1.65448e-01,-8.65128e-02,7.01829e-01,1.15449e-01,-2.82690e-01,9.91721e-01,-3.30120e-03,4.35020e-01,-2.23922e-01,3.79255e-01,7.17912e-01,-7.19567e-01,3.14261e-01,-7.46965e-02,-1.13241e-01,-4.10408e-01,1.35188e-01,2.09531e-01,-2.43696e-01,7.94510e-02,2.35424e-01,
6.55468e-02,-1.04713e+00,-2.74726e-01,4.71812e-02,-4.67184e-02,-6.30870e-01,1.35682e-01,-3.23235e-01,-1.51451e-01,5.68246e-01,-8.36764e-01,2.62243e-01,3.89306e-02,3.68081e-01,-3.56135e-01,3.57608e-01,-6.89634e-02,4.66879e-01,-7.18825e-01,4.28447e-01,-8.84827e-02,4.09895e-01,-9.30921e-02,3.12903e-01,6.37532e-02,
5.38860e-01,-4.66159e-02,-1.70909e-01,6.59274e-02,-3.16242e-01,-6.78900e-01,2.19472e-01,3.51888e-01,-3.49483e+00,-3.89915e+00,-3.44184e-01,3.95144e-01,-3.15363e-02,-6.59013e-01,8.71927e-01,-7.98780e-01,1.42687e-01,-6.35568e-01,-3.37283e-01,2.41863e-02,6.69801e-01,-2.48948e-01,-2.03161e+00,4.84092e-01,-3.27674e-01,
-4.08987e-01,-6.70810e-01,4.60709e-01,1.74054e-02,1.14977e-01,-5.63875e-01,-2.78699e-01,-1.07732e-01,2.75003e-01,-1.99585e-02,1.09753e-02,-2.73616e-01,1.62681e-01,7.43130e-02,1.18393e-01,-1.11713e-01,5.98264e-01,1.28024e-01,-2.73262e-01,-8.13415e-02,-5.82409e-02,-9.99810e-02,5.27973e-01,2.07027e-01,1.31543e-01,
-2.79695e-01,-1.08660e-02,-1.33370e-01,2.39031e-03,2.76224e-01,-2.61374e-01,1.23909e-01,1.29332e-01,-2.01990e-01,-5.73169e-02,1.10956e-01,-4.94612e-01,7.90450e-02,1.16475e-01,1.12968e-02,-4.14626e-02,9.43570e-02,-7.64560e-02,-1.32823e-01,-3.95482e-02,4.31301e-01,-5.15314e-02,4.86939e-02,-1.20546e-01,3.94305e-02,
-1.98832e-01,1.71641e-01,1.65406e-01,6.62725e-02,1.02884e-01,1.21957e-01,5.40561e-02,1.96259e-01,-4.28315e-01,2.82695e-01,-1.70108e-01,2.80101e-01,-4.96170e-02,1.94502e-01,1.17601e-01,-7.38048e-01,6.10998e-03,-3.31637e-01,-1.63259e-01,1.92449e-01,-3.81990e-01,2.65818e-01,4.92860e-02,5.51433e-02,1.66025e-01,
-4.39474e-02,4.44753e-02,3.17986e-01,7.42613e-02,-7.52334e-02,1.93778e-01,-2.61654e-02,1.68499e-01,2.67835e-01,-7.15292e-01,1.88980e-01,1.47564e-01,-2.23427e-01,4.01062e-01,-3.32809e-01,1.05531e-01,1.33789e-01,-3.14673e-01,5.36601e-02,4.00460e-01,-2.07928e-01,-8.90899e-02,-1.24035e-01,3.15289e-02,-6.98839e-02,
3.37505e-02,2.02172e-03,1.48395e-01,-2.06019e-01,2.71615e-01,-2.78127e-01,1.64892e-01,-8.26905e-02,3.36739e-01,-4.43224e-02,-2.86736e-01,-2.92891e-01,-2.68071e-01,-1.63821e-01,-2.12805e-01,1.24241e-01,-1.93159e-01,-5.70674e-02,-3.03395e-01,-1.47514e-01,1.50478e-01,8.31812e-02,-8.52761e-02,-6.87453e-02,2.20222e-01,
7.55226e-01,1.55465e-01,4.09188e-02,2.14982e-01,-2.73040e-01,2.68493e-01,2.58602e-01,-7.10663e-02,2.53857e-01,2.10985e-01,3.19406e-01,-1.64160e-01,1.58573e-01,-4.30273e-01,1.35271e-02,3.38190e-01,-6.73177e-01,1.02391e-01,4.81022e-01,-3.61159e-01,-3.64517e-01,9.51206e-02,5.39742e-01,-1.13863e-01,-1.92389e-01,
-7.47078e-01,-7.51170e-01,5.49346e-02,-1.40245e-01,-3.15223e-01,-9.90429e-02,-8.99231e-02,2.11934e-01,1.40621e-02,-1.53485e-01,-3.62317e-01,-4.80252e-01,5.58949e-02,3.81089e-01,-1.33354e-01,-5.44402e-02,3.27732e-01,-2.91484e-01,-4.80913e-01,3.22143e-01,-2.58119e-01,1.18464e-01,-1.05653e-01,6.17983e-01,6.66468e-01,
-1.70888e-01,4.81875e-02,1.35152e-01,-7.04954e-02,-2.74644e-01,5.09687e-02,3.07609e-01,-3.05181e-01,-3.35562e-01,2.47374e-01,-3.00444e-01,2.83961e-01,-2.14395e-01,-5.78094e-03,-2.61745e-01,-6.90344e-02,-3.44085e-01,-9.93545e-02,2.59795e-01,-2.58830e-01,-2.04472e-01,-2.05434e-01,2.16770e-01,9.66455e-02,7.38905e-02,
-2.37804e-01,2.30399e-01,2.21557e-01,2.27653e-01,-1.62913e-01,-3.77608e-01,4.86104e-01,-8.00459e-02,2.33884e-01,9.40158e-02,2.28390e-01,-9.34736e-02,-2.75432e-01,1.46378e-01,-4.81668e-02,-2.10894e-01,1.94847e-01,-2.36679e-01,-8.86824e-02,3.62918e-01,2.04685e-01,1.14921e-01,6.03193e-03,-1.57685e-01,7.52975e-02,
-3.75209e-01,4.08097e-02,3.50517e-01,-3.46745e-02,2.13190e-01,-1.07003e+00,-1.49122e-01,-1.33046e-01,6.12437e-01,4.16439e-01,2.04370e-01,1.58044e-01,-2.09114e-01,3.65288e-01,1.48858e-01,1.34714e-02,5.28043e-01,-1.94263e-01,-4.39803e-02,1.31701e-01,2.64042e-01,-8.98000e-02,-6.60865e-01,-4.23412e-02,-2.99098e-01,
3.08518e-01,-6.34032e-01,-3.74670e-01,-3.21946e-01,-3.03819e-01,-7.94271e-01,-7.63677e-02,4.63886e-02,1.62251e-01,1.73349e-01,-8.75916e-01,4.98242e-01,-7.98144e-02,-1.29146e-01,2.23895e-02,-2.08748e-01,2.18757e-01,-2.88987e-01,-1.57742e-01,-2.74732e-01,-2.41638e-01,1.66231e-01,-3.83597e-01,1.62536e-01,-1.20200e-01,
3.07511e-01,
3.29328e-01,
-2.48044e-01,
3.21983e-01,
-2.76241e-01,
3.78705e-01,
-6.91259e-01,
-4.00185e-02,
3.13908e-01,
-3.52280e-02,
-2.60547e-01,
-4.42088e-01,
-1.14333e-01,
-1.82218e-01,
5.96162e-02,
5.48438e-01,
1.66584e-01,
1.03387e-01,
-2.91057e-01,
4.05084e-02,
5.59997e-01,
-3.18605e-01,
3.37131e-02,
-1.86440e-01,
1.22625e-01,
-3.21589e-01,2.03444e-01,-2.07033e-01,-2.33358e-01,-1.27903e-02,2.12685e-01,7.90654e-02,-3.42473e-01,-9.47917e-02,-1.16493e-02,-4.62418e-01,-9.35881e-02,-2.51222e-02,2.35803e-01,-1.52238e-01,-2.89045e-01,-6.46502e-02,-1.46599e-01,-1.58994e-01,-1.11561e-01,8.42229e-02,-1.40329e-01,-1.01508e-01,-3.11478e-02,2.22864e-01,
-1.49435e-02,-3.67443e-01,3.65037e-02,-9.29213e-03,3.23631e-01,7.55473e-02,-1.74056e-01,-3.65790e-02,1.74609e-01,1.22311e-01,-2.78145e-02,-3.36114e-02,2.41952e-01,-3.01482e-01,-2.16056e-01,-1.29139e-02,7.92666e-02,-8.66097e-02,-2.62675e-01,-8.27393e-03,-1.67862e-01,3.04369e-01,-6.59921e-02,2.19698e-01,1.91513e-02,
2.29985e-01,8.55405e-02,3.05763e-01,-8.30939e-02,3.04662e-01,1.79046e-01,-2.86269e-01,1.33124e-01,-4.04429e-02,-2.44572e-01,-1.29676e-02,1.76524e-01,2.06489e-01,1.60639e+00,4.94935e-02,8.44018e-02,-1.42442e-01,-1.48016e-01,2.64537e-01,2.46401e-03,-1.14247e-01,2.94459e-03,-2.10482e-01,1.97000e-01,-2.28735e-01,
2.44604e-01,-3.39662e-02,-8.22715e-02,-3.18203e-01,-2.22928e-01,2.00683e-01,-2.25369e-02,-9.85657e-02,2.60792e-01,2.28325e-01,-1.40494e-01,7.86602e-03,-7.54459e-02,-4.86919e-02,5.91437e-02,3.66665e-01,1.91765e-01,-1.86549e-01,1.83552e-01,3.68226e-01,3.18258e-01,1.19669e-01,7.59488e-02,-2.34697e-03,-1.65195e-01,
-6.77507e-02,-2.06646e-01,1.70318e-01,-1.48800e-01,-1.45676e-01,1.01523e-01,4.57580e-02,-4.33631e-01,-2.68653e-01,-3.64433e-01,-7.59065e-01,7.83380e-01,-2.08457e-01,-5.86470e-01,5.04298e-01,-2.57601e-01,-1.11598e-01,-7.09646e-01,2.78424e-01,-3.24002e-01,3.46862e-01,-2.06271e-01,-2.18362e-01,-8.44807e-01,4.45286e-01,
-6.51288e-02,3.06644e-01,1.61922e-02,-7.00639e-02,-1.08397e-01,8.34858e-02,1.69584e-01,1.88967e-01,-1.67836e-01,-1.78371e-01,1.61702e-02,1.04377e-02,-8.92854e-02,-1.62155e-01,1.26166e-01,-1.52983e-01,-4.28280e-02,-6.19777e-02,1.19338e-01,1.33622e-01,-1.21739e-01,1.39639e-01,1.05636e-01,4.04948e-02,1.42424e-01,
-3.33253e-02,2.37561e-01,-1.34793e-01,-2.70236e-02,-1.56109e-01,2.85900e-02,3.13176e-01,-3.23407e-02,1.28972e-01,-1.61991e-02,4.62959e-02,4.85662e-02,3.14897e-01,3.12149e-01,-3.68630e-01,1.38578e-01,-3.20243e-01,2.16468e-01,1.86446e-01,1.08076e-01,-4.17975e-02,2.52433e-01,-2.77143e-01,-1.45740e-01,-2.89853e-01,
-3.62270e-01,3.99975e-02,2.14592e-01,-1.65871e-01,-6.24880e-03,-1.72039e-01,2.89265e-01,-2.93149e-01,9.12374e-02,1.85968e-01,-1.19982e-01,-2.74609e-03,1.11111e-01,-5.29977e-02,-1.87759e-02,-3.26741e-01,6.06198e-02,-2.34247e-01,-3.22827e-01,-1.40309e-01,1.03659e-01,2.21101e-01,-3.46804e-01,-5.44361e-02,-2.93882e-01,
-7.71794e-01,5.64400e-01,-1.33939e-01,-4.72582e-01,-5.39299e-02,-2.19510e-01,-2.23578e-01,-2.29479e-01,2.16719e-01,2.56459e-01,-8.38268e-03,-2.96921e-01,-2.29913e-01,2.19828e-01,3.78231e-01,4.95450e-02,2.88760e-01,2.10142e-01,-2.64607e-01,1.16554e-01,-1.78020e-01,2.93868e-01,2.40195e-01,-1.35986e-01,8.70009e-02,
-1.27188e-01,3.07422e-01,-2.52017e-01,-1.17870e-01,1.92379e-01,-3.11706e-01,2.22032e-01,-3.58807e-01,6.76556e-02,-2.97991e-01,-9.62225e-02,1.79772e-01,-2.18714e-01,-3.08130e-01,1.02950e-01,3.73514e-01,4.08101e-03,2.32965e-01,7.59862e-02,-1.89686e-01,1.40407e-01,-1.16419e-01,1.24585e-01,-6.88127e-02,-2.01342e-03,
4.06775e-01,5.31587e-02,-7.79981e-01,4.05198e-01,-4.90910e-02,-1.78758e-01,3.12172e-01,-3.12707e-01,2.70759e-01,8.69177e-02,3.26397e-02,-1.60389e-01,-1.85729e-01,3.18511e-01,6.94715e-02,-9.14172e-02,1.16192e-01,5.95298e-01,2.89642e-01,1.08378e-01,5.82223e-01,5.68218e-02,-1.84654e-01,-8.19647e-01,-4.27596e-01,
1.47901e-01,-1.75662e-02,-4.14601e-01,-2.97002e-01,-1.76744e-01,1.19186e-01,2.30255e-01,1.57351e-01,6.74498e-02,-7.64807e-01,4.07733e-02,-4.52285e-01,-1.05122e-01,-1.02363e-01,-1.35349e-01,1.40390e-01,5.60487e-02,-3.90792e-01,1.52401e-01,3.21881e-01,6.89778e-01,-2.17354e-01,-3.97219e-02,2.96772e-01,-1.30885e-01,
-2.00526e-01,1.67303e-01,-1.63477e-02,-5.25509e-01,6.25374e-02,-2.36677e-01,9.25464e-02,6.29891e-02,1.62995e-01,-2.13316e-01,8.79193e-02,-2.37416e-01,3.09130e-02,7.07243e-01,3.20703e-01,2.78130e-01,3.26350e-01,2.44491e-01,-2.78294e-01,-1.65156e-01,-3.72264e-01,2.19609e-02,-4.80414e-01,-1.29806e-01,-2.13458e-01,
1.42783e-02,5.45238e-02,-1.71718e-01,3.90850e-02,-7.88938e-02,-1.55445e-02,3.95198e-02,-1.76990e-01,-3.85303e-02,-2.75469e-01,-5.90057e-03,-9.84097e-02,-1.07620e-01,1.93149e-01,3.00116e-01,6.06111e-01,2.71351e-01,-1.59137e-01,1.55577e-02,-9.71806e-02,3.20581e-01,-8.20965e-02,-3.16955e-01,-8.50048e-03,-8.86123e-02,
-2.79292e-01,-2.21814e-01,2.81337e-02,1.67125e-01,1.11481e-01,3.28364e-01,5.61418e-02,4.18094e-01,-1.17516e-02,9.83804e-02,1.39100e-01,-5.89440e-02,4.59614e-01,-7.64106e-02,-1.28125e-01,-2.91388e-01,-2.44561e-02,-3.60416e-01,-1.50056e-01,-8.69738e-02,-9.39478e-01,1.58157e-01,-2.52311e-01,4.41192e-01,3.34550e-01,
2.29602e-01,1.34237e-01,-4.14684e-01,-3.14996e-01,3.23096e-02,6.52569e-01,2.05359e-01,-4.44391e-01,5.76729e-01,1.60462e-02,-2.02248e+01,-1.41060e-01,1.72543e-01,-7.12624e+00,-1.34801e-01,-3.34373e-01,-2.98707e-01,-5.02397e-01,-1.70278e-01,1.98292e-01,1.70171e-02,1.98839e-01,-8.00911e-02,2.45898e-01,-1.99443e-01,
-9.40109e-02,2.18702e-01,1.14914e-01,-4.88526e-02,-3.10348e-01,-2.98885e-01,-2.64192e-01,5.52003e-02,-6.22926e-02,2.38241e-01,-1.39217e-02,-3.36224e-01,7.95302e-03,5.31492e-01,1.24712e-01,8.97507e-03,3.93766e-01,3.64205e-01,8.29399e-02,-1.32177e-01,-1.12408e-01,1.39030e-01,-1.05739e-02,-2.84596e-01,-1.88321e-01,
3.61932e-01,-4.71322e-01,1.13173e-01,7.60902e-01,8.20813e-02,-2.05353e-01,-2.90343e+00,7.33086e-01,-5.29309e-02,-8.48897e-02,2.35951e-01,-6.19370e-01,7.42144e-01,-2.32834e-01,2.18754e-01,2.60660e-01,-3.89288e-02,1.19977e-01,2.41656e-01,-3.33120e-01,2.12362e-01,-1.77546e-01,-3.76146e-01,1.26181e-01,2.47638e-01,
-1.00049e-01,-1.76979e-01,-7.21314e-01,-7.46095e-01,-3.32705e-01,9.67800e-01,3.73923e-01,2.20758e-01,-5.68809e-02,-7.27751e-01,-2.22772e-01,2.36951e-01,2.74363e-01,-5.74400e-01,-2.24380e-01,-3.29312e-01,1.68567e-01,-1.60898e+00,-2.25036e-01,5.13420e-01,3.00043e-01,1.29013e-01,-3.91326e-01,-6.44100e-01,4.25096e-01,
3.73509e-02,-2.26607e-01,2.48722e-01,-9.12117e-02,-1.60254e-01,-1.60534e-01,-1.88735e-03,-4.25527e-01,2.78393e-01,-8.76059e-01,-1.89596e-01,4.65395e-01,-1.41439e-01,-5.05401e-02,5.02320e-01,5.07828e-01,1.69118e-01,7.88873e-02,2.11340e-01,-7.70786e-02,2.29649e-01,1.89508e-01,-1.92000e-01,1.97727e-01,1.21708e-01,
-1.70361e-01,-2.32981e-01,-3.41725e-01,-3.07173e-01,2.43517e-01,-3.21470e-01,2.84156e-01,-3.19742e-01,-1.62515e-01,-7.07230e-01,-9.62410e-01,1.82604e-01,5.41924e-02,-1.59748e-04,-2.06502e-01,-2.26824e-01,7.04758e-01,-1.08827e+00,-1.30245e-01,-3.18964e-01,8.26887e-01,1.13296e-01,-2.87058e-01,-3.75651e-01,1.99587e-01,
1.77090e-01,1.70208e-01,-5.88576e-02,-4.34824e-01,-1.80557e-01,-3.02705e-01,-1.24235e+01,-3.93240e-02,-7.18570e-02,-4.12824e-02,4.59264e-02,9.14630e-02,3.62607e-02,1.37253e+00,-8.02600e-02,1.06192e-01,8.63570e-04,3.29083e-02,-3.28030e-01,-2.07856e-01,-7.23639e-02,-1.95160e-01,-1.42046e-01,-3.79076e-02,-2.28339e-01,
2.38202e-02,3.45637e-01,-1.16128e-01,-2.62783e-01,-3.06081e-01,-3.02450e-01,-1.50766e-01,-2.89657e-01,2.95698e-01,2.32761e-01,-1.34679e-01,-5.19756e-02,2.72105e-02,9.30045e-01,-1.07563e-02,-1.24979e-02,1.73780e-01,3.26586e-01,-1.21448e-01,1.52590e-01,5.24596e-02,-2.29900e-02,2.68014e-01,-4.09801e-01,4.19150e-02,
-2.92836e-01,-1.02698e-01,1.75734e-01,3.83032e-01,-1.43253e-01,-2.74212e-01,-1.38744e-01,-4.41229e-01,-2.59431e-01,-7.52699e-02,1.72251e-02,4.08702e-02,-3.18134e-01,-3.17952e-01,-7.00245e-02,-3.54360e-01,2.37243e-02,-8.82085e-02,-1.31205e-01,-2.91478e-01,-3.07024e-01,3.10324e-01,2.41955e-01,4.65158e-02,2.18915e-01,
-3.11733e-01,2.05667e-02,2.11400e-01,-2.68630e-01,2.44330e-01,-1.60150e-01,-3.24101e-01,-3.18374e-01,1.54118e-02,-2.58991e-01,-4.59569e-02,-1.37948e-01,2.41892e-01,-1.93640e-01,-5.07053e-02,2.07684e-01,-1.82912e-01,-2.10035e-01,2.64384e-01,-1.15795e-01,2.62454e-01,-5.33595e-02,-2.91826e-01,7.04397e-02,-5.79570e-02,
-2.15710e-02,
3.21510e-01,
4.52658e-02,
-1.12469e-01,
1.23157e-01,
2.19968e-01,
-3.46737e-01,
-2.86509e-02,
8.27397e-04,
2.01813e-01,
-2.53889e-01,
-9.78915e-02,
5.27841e-02,
1.41954e-01,
8.28005e-02,
5.00978e-02,
6.15291e-02,
-6.20848e-01,
1.13127e-01,
-1.43581e-01,
4.39518e-01,
1.99331e-01,
-1.61866e-02,
-4.14131e-01,
-2.05098e-01,
3.67718e-01,1.63636e-01,5.46802e-03,6.46570e-03,-1.88102e-01,1.60035e-01,2.76747e-01,-1.78354e-01,4.54838e-03,2.49661e-03,-3.17412e-01,-6.94068e-02,4.89083e-02,-1.06877e-01,-5.88540e-02,-1.53751e-02,-3.61663e-03,-3.17552e-01,3.23333e-02,-5.41080e-03,-2.94545e-02,-1.53606e-03,-2.13925e-02,-5.17703e-01,-2.09188e-01,
5.22979e-01,2.40228e-02,-5.61392e-02,-1.21031e-01,1.53111e-01,2.37108e-02,5.93473e-02,3.79590e-01,-2.17938e-02,-1.27782e-01,-2.78887e-01,1.43178e-01,5.19474e-02,-3.11250e-02,-5.92577e-02,-2.82566e-01,5.58224e-02,-1.17881e-01,-2.44761e-02,-2.68192e-01,-5.33302e-02,-8.55761e-03,-3.52478e-02,1.20090e-01,-3.68104e-01,
4.10006e-01,1.40845e-01,-2.11385e-02,-1.45622e-01,-5.97351e-02,-1.77534e-01,3.77948e-01,-3.99251e-01,9.57651e-02,-5.12012e-03,-1.78970e-01,-1.14675e-01,3.09089e-03,-8.26160e-02,-3.31525e-02,-1.92778e-03,-5.41019e-02,-1.60926e-01,8.49737e-02,-1.36567e-01,2.32238e-03,6.86632e-03,4.86004e-02,2.45958e-01,2.60493e-01,
-3.63258e-02,4.30055e-02,-4.98251e-02,-9.57700e-02,2.81079e-02,4.76066e-02,5.35334e-02,-3.56338e-01,-3.68010e-02,-4.15639e-02,-1.98582e-01,-6.97445e-02,1.97767e-02,-8.68481e-02,-4.96506e-02,8.88474e-03,7.26499e-02,-8.32935e-02,-2.76744e-02,-1.75979e-01,5.34260e-02,6.19544e-03,-3.10018e-02,3.08963e-01,1.39539e-01,
1.56673e-01,2.38997e-01,-2.63572e-02,-7.57859e-02,-9.57397e-02,8.08367e-02,-2.53549e-01,-4.10086e-01,-8.96150e-03,-1.80636e-03,-1.85537e-01,-1.32328e-01,-4.13214e-02,-4.63229e-02,-5.38399e-02,-2.66146e-02,1.17351e-01,-8.22995e-03,3.20369e-02,-1.16220e-01,-1.26649e-03,1.54160e-01,4.60197e-02,5.53382e-01,3.37491e-01,
-1.30307e-01,7.18713e-02,-3.57234e-02,-1.64321e-01,1.23371e-01,5.70046e-02,-1.61089e-01,-3.62837e-02,-4.79649e-02,4.91198e-02,-1.91285e-01,-7.77339e-02,1.49956e-02,-7.21565e-02,-6.63262e-02,1.31509e-01,6.32802e-02,-7.34676e-02,-1.49209e-01,-1.65079e-01,1.65364e-01,-1.08953e-03,-1.62591e-02,8.81269e-01,4.09196e-02,
4.91065e-01,2.27671e-01,-7.93304e-02,-4.80158e-02,-5.17957e-02,9.68638e-02,-3.51479e-01,-1.00677e-01,-3.10832e-02,7.35480e-03,-1.53443e-01,-1.45705e-01,-7.61581e-03,-6.59285e-02,-4.43212e-02,-3.77931e-02,9.03732e-02,-1.14468e-01,2.69700e-02,-1.46360e-01,9.86827e-03,9.31469e-02,5.10923e-02,2.32579e-01,-2.27152e-01,
4.87910e-01,7.58392e-02,-4.55893e-02,-9.19287e-02,2.19584e-02,7.84627e-02,5.57192e-02,3.40516e-01,-4.24537e-02,-2.20206e-02,-2.28692e-01,-3.67421e-02,1.80321e-02,-8.99027e-02,-5.26229e-02,9.14836e-02,8.05247e-02,-6.54963e-02,-3.90050e-02,-1.56855e-01,5.37203e-02,8.71565e-03,-2.46487e-02,3.21042e-01,1.78759e-01,
2.55157e-02,1.93858e-01,-1.02749e-01,7.11142e-02,-7.75271e-02,1.71158e-01,-5.79781e-02,-2.47597e-01,-1.52681e-01,7.40719e-03,-9.73144e-02,-2.50909e-01,4.70571e-02,-6.65888e-02,-1.36954e-02,-1.76308e-02,2.21808e-01,1.08342e-02,4.66005e-02,-1.45783e-01,-4.79932e-02,-5.74318e-03,1.20683e-01,1.14885e-01,-4.04745e-01,
1.10233e-01,
1.98428e-01,
2.01786e-01,
-2.66333e-01,
7.99094e-02,
1.71972e-01,
-3.61816e-01,
-2.87028e-01,
4.64867e-02,
