// Neural Network File Format by Kyle Julian, Stanford 2016
6,4,9,25,
4,25,25,25,25,25,9,
0,
-8000.000000,-100.000000,-100.000000,0.000000
8000.000000,100.000000,100.000000,40.000000
0.000000,0.000000,0.000000,20.000000,-4.647677
16000.000000,200.000000,200.000000,40.000000,22.514692
-9.01795e-01,3.24250e-01,-2.03716e-01,-5.99444e-01,
-1.46677e+00,1.08273e-01,-5.37879e-01,-1.62450e-01,
-2.01182e+00,-2.90636e-01,-7.06443e-01,2.70359e-01,
-3.72060e+00,2.64371e-01,-2.70434e-01,-7.21988e-01,
-2.86614e-01,1.52317e-01,-2.40526e-05,-5.91546e-01,
-4.53759e-02,1.86062e-02,3.38302e-01,-2.63582e-02,
9.04581e-02,-1.19318e+00,2.75165e-02,-1.10374e-02,
-5.15250e+00,1.23253e-01,-1.42360e-01,-3.16682e-01,
-2.50120e+00,3.98440e-01,-5.64183e-01,1.91994e-01,
-7.83036e-01,4.95050e-01,-3.13007e-01,6.51995e-02,
4.35218e-01,4.57870e-01,5.12543e-02,9.27608e-02,
2.29931e+00,-3.23194e-01,2.58954e-01,-6.72281e-01,
1.88075e+00,1.39046e-01,-1.98665e-01,-1.35251e+00,
1.80099e+00,-8.61794e-03,3.80540e-03,5.20888e-01,
4.68822e-01,1.10326e+00,4.77166e-02,4.30409e-02,
-8.26338e-02,3.28227e-01,1.41305e-03,-9.19262e-03,
-4.65775e+00,4.91453e-03,-5.69221e-05,5.80112e-03,
-6.30374e-01,-2.89255e-01,2.22268e-01,1.64820e-01,
-3.00719e-01,-3.73930e-01,3.05610e-01,3.76280e-02,
-3.06126e+00,1.68381e-01,-1.75998e-01,-1.17568e+00,
-2.41678e+00,6.46640e-01,-1.14649e-01,9.54859e-02,
-2.89226e-01,3.05141e-01,-4.69259e-01,2.55643e-01,
-4.20476e-01,-5.07214e-01,-4.87437e-02,-1.31284e-02,
6.20018e+00,-2.09233e-02,-1.06689e-02,2.51938e-04,
1.16926e+00,4.76589e-01,3.02022e-01,1.16415e-02,
4.69256e-02,
8.56149e-02,
1.05764e-01,
-2.02534e-02,
3.56714e-01,
1.40462e-01,
1.95788e-02,
-8.69091e-02,
1.73047e-01,
2.15954e-01,
2.80678e-01,
6.52769e-03,
-5.62940e-01,
1.13442e-01,
-2.34895e-01,
-3.34374e-01,
2.05597e-01,
2.42021e-01,
5.97139e-02,
-4.34341e-01,
2.61328e-02,
1.25097e-01,
2.39581e-01,
2.72101e-01,
1.25098e-01,
2.68719e-01,2.77378e-01,-1.59392e-01,3.80478e-01,6.66239e-01,1.14368e-01,4.38987e-01,-9.45906e-01,-7.17448e-01,3.17430e-01,-3.29067e-01,7.96526e-01,-9.70058e-02,5.76188e-01,-1.93495e-01,-2.88746e-01,1.85766e+00,-4.08258e-01,5.29447e-01,2.53854e-01,3.29660e-01,-6.03561e-02,2.01410e-01,3.17510e-01,3.87521e-01,
-5.64705e-02,6.13042e-01,-3.28121e-01,-1.66412e-01,-3.46106e-01,-4.16270e-01,1.38678e-01,-1.06792e+00,-2.21519e-02,8.28504e-02,1.99196e-01,-1.40745e-01,-2.36222e+00,-3.43986e-01,-1.16568e-01,-2.67962e-02,1.19085e+00,3.01870e-02,-2.57121e-01,-1.23753e+00,-2.29611e-02,1.38815e-01,-2.59503e-01,3.31031e-01,1.33879e-01,
6.37284e-01,1.09391e-01,-1.65667e-01,1.59675e+00,7.48928e-01,2.13901e-01,3.94901e-01,3.81089e-01,-6.21839e-01,4.07052e-01,-4.13128e-02,6.56941e-01,-3.10897e-01,7.68775e-01,5.43630e-02,-3.26347e-01,-2.61397e+00,-4.84713e-02,-2.33603e-02,-1.21168e+00,-5.12329e-01,-8.06925e-01,2.50745e-01,-1.72019e-01,-4.59043e-02,
-1.41320e-01,1.31701e+00,4.94120e-03,9.77084e-01,1.84472e-01,-9.95348e-02,-1.06068e+00,-6.80113e-01,-6.31212e-01,4.85947e-02,-6.44474e-01,3.87140e-01,1.41296e+00,8.12295e-01,9.94635e-01,2.20252e-02,4.09989e-01,-2.36851e-01,5.31496e-01,-7.52312e-01,-3.76204e-01,-9.09451e-02,4.00592e-01,2.03066e-01,-5.38791e-01,
1.00496e+00,-3.92489e-01,-3.14407e-01,-7.21979e-01,-9.27903e-02,-1.36422e-01,-1.95089e+00,1.10142e-01,-1.77337e-01,1.04790e+00,6.46888e-01,-2.75430e-02,2.26857e-01,-8.15700e-01,-6.65349e-01,1.70059e-01,-5.35173e-01,4.11197e-01,1.79950e+00,2.23845e-02,1.23006e-01,1.06356e-01,5.31338e-01,4.30628e-01,1.55125e-01,
-3.05917e-02,-5.08979e-01,-1.45488e-02,-1.88010e-01,3.37919e-02,-4.43952e-01,-1.32306e-01,-4.99572e-01,3.31989e-01,7.55995e-01,-3.17412e-01,-3.45221e-01,1.28695e+00,-6.05250e-01,6.63563e-02,-2.08370e-01,2.99816e-01,9.58254e-01,-1.87014e-01,-3.96909e-01,3.37451e-01,1.76419e-01,1.41951e-02,-5.30632e-01,1.64515e-01,
3.66882e-01,-4.19434e-01,1.79622e-01,2.69737e-01,-4.33755e-01,4.67490e-01,4.48930e-01,-7.28407e-01,-8.98339e-02,-5.77830e-01,1.43283e-01,-1.48284e-01,6.29471e-01,-2.67149e-01,-1.60033e+00,-1.16204e-01,-1.03942e-01,-1.27961e-02,4.45565e-01,2.49090e-01,2.04723e-01,-8.02499e-01,4.04561e-02,5.88467e-02,-9.85430e-01,
7.47743e-01,3.80011e-01,4.14265e-01,-1.31857e+00,-2.89775e-01,-7.42501e-01,-4.73896e-01,6.45971e-01,-4.67475e-01,1.94242e-01,3.50565e-01,-3.43141e-01,-4.50181e-01,-4.22543e-01,7.23235e-01,-8.01789e-02,1.43406e-01,5.80099e-01,1.18922e-02,6.37446e-01,-7.33688e-01,-2.45445e-01,-1.16441e-01,-1.94441e-03,-7.18598e-01,
-7.57206e-02,7.39326e-01,-2.00769e-01,-5.20281e-01,3.02150e-03,9.20505e-01,1.37333e-01,1.59960e-01,-3.84611e-01,1.24757e-01,-4.98220e-01,8.64215e-01,1.21913e-01,-1.06712e-01,-2.95509e-01,2.57863e-01,2.80383e-01,2.85939e-01,-7.04309e-01,-1.38697e+00,-5.86296e-01,-4.06010e-01,-9.44479e-02,4.07486e-02,1.30342e+00,
-4.01380e-01,7.06045e-01,-1.73141e-01,6.33752e-02,3.51160e-01,-3.28230e-01,-1.65692e-01,-4.49403e+00,-2.00184e-01,-2.32321e-01,5.51421e-01,6.76811e-01,1.14724e+00,3.25545e-01,1.66660e-01,-1.92494e-01,-3.65308e+00,7.86960e-01,-5.22116e-01,7.47912e-01,5.24225e-01,1.59581e-01,2.76293e-01,5.51932e-01,-1.01646e-01,
2.58739e-01,-1.02200e+00,2.21320e+00,5.24630e-02,-2.46456e-01,1.72053e-01,-1.57550e+01,-7.43192e+00,-4.61987e-01,-9.20403e-01,-5.72830e-01,-2.92441e-01,1.99971e-01,-5.38621e-01,9.90587e-01,-2.40433e-02,-9.70132e+00,1.00509e+00,-1.50024e+00,-2.48847e-01,-2.95321e+00,-2.05821e-01,1.51799e+00,3.60917e-01,-6.02685e-01,
5.70240e-01,9.88396e-01,-1.01557e-02,-3.96034e-01,7.22714e-01,3.32483e-01,2.31605e-01,-1.83227e+00,-1.21521e+00,6.09356e-01,2.24046e-02,6.68282e-01,-2.30858e-01,1.43882e-01,-1.57392e-01,-2.91776e-01,3.11446e-02,-9.48702e-01,-1.96381e-01,-4.83203e-01,7.18621e-02,-8.88511e-01,2.68246e-01,2.78879e-01,-1.62569e-01,
3.35660e-01,-4.55847e-02,-3.17357e-01,-8.17232e-02,-1.55536e-01,-2.97203e-02,2.21229e-03,-2.50734e-01,1.56028e-01,-3.39281e-01,-3.17359e-01,3.40120e-02,-3.32991e-02,1.37230e-01,3.04144e-01,-2.01522e-01,-8.63660e-02,-6.12111e-02,-1.99343e-01,-1.74446e-01,-1.79889e-01,-2.03754e-01,-3.07978e-01,-5.58145e-02,-7.10321e-02,
-5.19713e-01,-6.42164e-01,2.33890e-01,3.07681e-01,3.37955e-01,-4.43146e-01,-1.12146e+00,1.19507e-01,-3.49424e-01,-1.92031e-01,-1.39048e+00,2.78371e-01,-2.65879e+00,9.05030e-01,8.86934e-01,2.03304e-01,2.15056e-01,2.86280e-01,6.96950e-01,-4.17286e-01,-6.31655e-01,-2.93072e-01,5.67943e-01,-7.04717e+00,-7.67143e-01,
-2.86113e-01,2.45733e-01,-4.24456e-01,3.70441e-01,1.26701e-01,-4.23011e-01,-4.79093e-01,1.27029e-01,-2.35986e-02,-4.16998e-01,-4.29553e-01,-1.55402e-01,-6.50366e-01,9.10072e-01,3.48672e-02,1.12038e-01,8.95687e-01,1.05848e-01,-8.61583e-01,3.19450e-01,6.91796e-01,-7.86975e-01,-1.42401e-02,-1.98843e+01,-9.10055e-01,
1.32217e-01,1.77550e-02,-2.38360e-01,-9.49851e-02,5.07863e-02,-1.76722e-01,3.05976e-02,-2.42682e-01,1.59238e-01,-1.53572e-01,-1.98390e-01,7.74785e-02,2.13188e-01,-3.58513e-02,2.88696e-01,-3.95058e-02,1.16465e-01,4.65169e-02,-9.81745e-02,-3.09475e-02,4.31686e-01,-2.26780e-02,1.29510e-01,3.38258e+00,-3.32916e-01,
-3.52894e-01,8.02731e-01,3.05982e-01,9.08273e-02,2.79491e-01,5.24326e-01,3.28362e-01,6.63624e-01,-7.60206e-02,5.62764e-01,-3.08277e-01,-6.39389e-01,3.91257e-01,5.99995e-01,1.74908e-01,-2.33013e-01,8.11867e-02,-5.54503e-02,-5.36795e-01,6.31776e-01,2.47213e-01,7.32949e-01,-1.01154e+00,-2.04711e-01,-1.05750e+00,
1.58952e-02,-5.25780e-01,2.20695e-01,1.78231e-01,-3.45619e-01,-3.28493e-01,-1.81751e-01,-8.15611e-01,-8.65468e-01,2.64831e-01,-4.58148e-01,-4.98218e-01,2.64240e+00,-2.67740e-01,-1.10144e-02,-1.33862e-01,2.45456e-01,5.63351e-02,-3.97623e-02,-3.07492e+00,-1.51807e-01,2.08922e-01,-1.07358e-02,9.44797e-01,2.42694e-01,
2.67328e-01,1.85196e-01,-5.11349e-02,3.71743e-01,4.03673e-01,6.73750e-02,1.48522e-01,5.92239e-01,4.40082e-01,5.01420e-01,-2.06778e-02,-2.79863e-01,-2.35175e-01,1.01217e+00,-3.89242e-01,-1.89801e-01,3.34206e-01,-6.12757e-01,3.16015e-02,7.32298e-01,1.84786e-01,-2.05214e-01,-3.49142e-01,-6.01416e-01,-3.31204e-01,
6.45777e-01,-1.54513e-03,-4.86538e-01,3.00969e-01,2.64830e-01,-2.35268e-01,8.31328e-01,-9.67493e-01,-1.93159e-01,5.97273e-01,5.64648e-01,4.54612e-01,-3.70603e-01,-1.68986e-01,-6.28348e-01,3.09800e-01,4.02791e-01,2.21034e-01,3.41249e-01,-1.13400e+00,2.33279e-01,-2.19128e-01,2.86113e-01,7.50704e-02,-3.70909e-01,
-4.36787e-01,3.68486e-01,4.90792e-01,-4.35865e-01,7.81435e-01,1.32734e-02,8.09670e-01,5.17741e-02,3.87854e-01,1.46932e-01,5.61181e-01,1.44020e-02,-1.34822e+00,4.74221e-01,-3.99975e-01,-3.43325e-01,1.25608e-01,-5.74447e-01,-1.75343e-01,4.84489e-01,-5.52437e-02,4.62917e-01,-1.02687e+00,1.07245e-01,7.32181e-02,
1.33851e-01,-1.74371e-01,-3.45128e-01,-4.85847e-01,-8.95180e-01,1.28489e+00,4.10209e-01,-6.47899e-02,-6.88136e-01,2.24595e-01,4.48687e-01,9.77835e-01,3.37575e-01,-2.21373e-01,-1.00483e+00,-1.09671e-01,3.59743e-02,1.20431e-01,5.06614e-01,-7.35013e-01,5.28258e-01,-9.63849e-01,5.79499e-01,5.60914e-01,6.97014e-01,
8.85428e-01,9.04272e-02,-3.38781e-01,-1.97399e-01,-5.40172e-01,1.42210e+00,7.08034e-01,-1.16037e+00,-7.27135e-01,-5.11236e-01,3.26029e-01,5.01590e-01,-2.82586e-01,-1.27696e+00,3.12216e-01,5.53984e-02,-6.96842e-01,9.39667e-01,-3.20381e-01,7.61350e-02,-8.78145e-01,-7.27679e-01,1.20970e-01,6.92175e-01,-7.24044e-01,
1.34961e-01,3.18805e-01,3.25198e-02,9.18972e-01,5.43886e-01,1.93366e-01,1.43384e-02,-5.74308e-01,4.83295e-01,1.13125e+00,-1.87310e-01,4.28247e-01,-3.49667e-01,-3.87793e-01,3.64915e-01,2.44525e-01,8.25851e-02,2.27331e-01,-3.99689e-02,-2.18768e+00,2.73547e-02,-2.74756e-01,-1.11097e-01,-3.79563e-01,-3.29100e-01,
5.00247e-01,-8.54877e-01,1.05387e+00,5.70217e-01,7.19212e-01,2.01561e-01,-9.42731e-01,-8.22424e-01,-6.28670e-01,1.18870e-01,5.16704e-02,-3.14858e-01,9.40288e-01,-5.62951e-01,-1.07916e+00,2.51428e-01,2.70901e-01,2.62564e-01,-1.37977e-01,-3.09404e-01,2.73586e-01,2.08147e-02,-3.72266e-01,2.22171e-01,3.83589e-01,
-2.34267e-01,
2.67774e-01,
-3.74154e-02,
7.62933e-02,
-5.00878e-02,
2.59993e-01,
2.20779e-01,
4.63861e-01,
-2.04759e-02,
1.04667e-01,
4.32377e-01,
-5.53584e-01,
6.42915e-02,
2.09394e-01,
1.51373e-01,
3.97560e-02,
-6.11544e-02,
4.92303e-01,
4.21717e-01,
-2.35444e-01,
-6.22680e-02,
-1.44648e-01,
4.77078e-02,
-2.23074e-01,
2.22783e-01,
-4.73082e-01,6.88987e-01,1.30559e-01,1.81686e-01,3.30506e-01,-3.81705e-01,8.64951e-01,-1.43588e-01,-6.35924e-01,4.63139e-01,3.00534e-01,1.79881e-01,2.21243e-01,4.08296e-01,-3.33371e-01,-6.63741e-02,-1.64287e-02,-1.45512e-01,4.77649e-01,-5.63458e-02,2.18790e-01,8.77349e-01,-3.59087e-01,-7.25554e-02,3.54674e-01,
2.35364e-01,1.10440e-01,-1.82106e-01,4.44227e-01,-7.35906e-02,3.63549e-01,4.57198e-01,1.05561e-03,-3.47793e-01,1.11664e+00,1.01465e-01,-2.06605e+00,-1.66225e-01,1.58057e-01,-3.32664e-01,-3.53285e+00,-1.05104e-01,-1.03115e+00,1.87600e-01,1.13161e-02,-1.45711e-01,-5.13843e-01,6.16112e-01,-1.24255e-01,-5.35104e-01,
-2.00428e-01,-6.93114e-01,5.33559e-02,1.52711e-01,-2.48416e-01,5.36331e-01,-8.03697e-01,2.43230e-01,-5.91944e-02,-1.79961e-01,1.49865e-01,-1.96973e-01,-1.48490e-01,-8.18844e-01,-2.49624e-01,1.58428e-01,-1.78486e-01,-4.35604e-01,-1.48048e-01,8.00801e-01,-1.51095e-01,7.11686e-01,-8.31012e-01,-6.57362e-01,2.32720e-01,
-6.36176e-01,2.74216e-02,4.43168e-01,3.51110e-01,-1.18441e+00,-2.22963e-01,6.05639e-02,6.36462e-01,5.14572e-01,-2.11868e-01,1.61240e+00,-1.18872e-01,4.13557e-02,-5.85654e-01,-1.44405e+00,2.99788e-01,-5.73333e-01,-5.09641e-01,1.06026e-01,-2.64509e-01,-6.23681e-01,-1.92922e-02,-1.81624e-02,-1.41090e-01,3.42698e-01,
-5.17922e-01,-3.84409e-01,-2.94267e-01,1.99801e-01,1.55713e-01,5.52913e-01,1.31075e-01,-1.40053e+00,-4.33625e-01,-3.82459e-01,-3.91486e+00,-3.98290e-02,-1.78932e-01,9.49751e-01,-1.51049e-02,-3.29228e-01,4.29487e-02,4.26309e-01,-2.91173e-01,8.78528e-01,-1.90536e-01,7.20108e-01,-1.60650e-01,-4.30980e-01,2.42226e-01,
-6.57016e-02,-1.40942e-01,-7.48476e-01,1.00702e+00,-7.55233e-02,7.49543e-01,4.74929e-01,2.34007e-02,6.43024e-02,-4.22967e-01,5.70086e-01,-1.74670e-01,3.82515e-02,7.11510e-01,4.81684e-01,2.25161e-01,-4.28011e-01,-8.55101e-01,-4.35394e-01,4.05855e-01,-2.15103e-01,5.78273e-02,-2.00616e-01,-1.61920e-01,4.78527e-01,
5.75023e-01,-1.12615e-01,-9.43607e-01,5.26793e-01,-1.34844e-01,1.64253e-02,3.61785e-01,1.31440e-01,-1.34741e-01,-5.30780e-01,-3.07390e-02,-2.84774e-01,1.74750e-01,3.75897e-01,-6.62747e-01,-4.15467e-02,-1.60271e-01,-4.10747e-01,3.98115e-01,2.22998e-01,2.63542e-01,3.91580e-01,2.36976e-02,2.81762e-01,3.33155e-01,
-5.45575e-01,7.87626e-01,-1.03944e+01,1.23678e+00,-1.39117e+00,-3.20629e-02,2.57817e-01,1.17005e+00,1.34860e+00,-1.47036e-01,2.12436e-01,2.69999e-01,9.00478e-02,8.78735e-01,1.09069e+00,-2.19381e+00,1.37427e-01,1.74691e+00,-5.45576e-01,3.99692e-01,-3.69311e-01,1.17948e+00,-8.49777e-01,-1.36629e-01,-8.05817e-01,
8.65914e-02,-4.80362e-01,2.18908e-01,2.92041e-01,9.21139e-02,4.39994e-01,3.56456e-01,1.66002e-01,-4.13681e-01,-3.04879e-01,1.32915e-01,1.90034e-01,9.45854e-02,4.44030e-01,-2.78117e-01,1.21869e-01,-1.01284e-01,-3.38349e-01,-6.69583e-01,-2.96405e-01,-3.04807e-01,2.13170e-01,5.83368e-01,-6.12306e-02,2.30290e-01,
-4.14359e-01,-4.68512e-01,3.39499e-01,3.10393e-01,8.72628e-01,-3.69065e-01,1.30773e+00,-5.56058e-01,5.14582e-01,-5.73571e-01,4.04749e-01,1.15479e+00,2.40244e-01,-6.65173e-02,-4.44500e-01,1.90425e-01,4.78799e-01,-5.15526e-01,-5.81140e-01,2.59363e-01,2.12548e-01,3.01254e-01,3.33317e-01,-4.50870e-01,1.78977e-01,
1.16645e-01,-3.60290e-01,-5.52178e-01,-7.38351e-02,3.14162e-02,-3.12022e-01,4.85422e-02,1.19727e-01,6.83936e-01,1.16896e-01,-1.72124e-02,2.71791e-01,-1.70467e-01,-2.66255e-01,-3.06357e-01,2.45846e-01,6.44219e-01,-5.96738e-01,-5.37672e-01,5.05778e-01,-9.58456e-01,-2.25932e-01,-3.35043e-01,-3.78713e-02,1.35758e-01,
-8.84871e-01,-1.22104e-01,5.58355e-01,1.29719e+00,1.00648e+00,6.12123e-01,1.68564e+00,-4.00774e-01,5.89659e-01,-5.44774e-01,7.57111e-01,-2.13437e+00,-1.96563e-01,-2.46856e-01,9.94888e-01,-4.27549e-01,-5.82442e-01,-1.09028e+00,-1.82344e-01,-8.33413e-02,9.55945e-01,-1.99318e-01,-2.32850e-01,-2.48200e-01,-4.90144e-02,
1.51597e-02,-7.01020e-01,1.92997e+00,5.38654e-01,-4.07232e-01,8.46845e-01,1.17221e-01,-1.06963e-01,9.54859e-01,-1.41800e+00,4.21867e-01,3.78648e-02,2.60409e-01,-4.27594e-01,-4.29567e-01,5.80762e-01,5.00141e-01,-1.03352e+00,-3.26888e-03,3.39127e-01,-2.08517e-02,-2.51685e-01,-1.25598e+00,-2.60755e-01,-6.93955e-02,
5.04644e-01,-8.53566e-01,3.51445e-01,2.15252e-01,4.32640e-01,-3.61476e-01,-2.89061e-01,3.74768e-01,2.26294e-01,-1.23528e-01,-2.73278e-01,2.08625e-01,-2.56361e-01,6.78782e-01,-3.89224e-01,1.79164e-01,-5.59892e-02,-6.09809e-01,1.96834e-02,3.48203e-01,1.09781e-01,-3.81277e-01,1.21609e-01,5.15836e-01,2.75483e-01,
1.70486e-01,-8.92425e-01,-1.88266e-01,7.28841e-02,-3.90998e-01,6.99612e-02,-1.56753e-01,1.64253e-01,-3.38416e-02,-4.24132e-02,2.84622e-02,-2.85206e-01,-6.71235e-02,1.36820e-01,1.06411e+00,1.76172e-01,-8.56954e-01,-3.27298e-01,-5.22255e-01,1.28771e+00,5.03041e-01,-8.80249e-01,-3.52962e-01,8.56118e-01,7.51098e-01,
1.23382e-01,-3.23776e-01,3.18293e-02,1.38071e-01,5.81203e-02,3.06722e-03,-4.24271e-01,1.89873e-01,3.21050e-01,-3.52586e-01,2.61503e-01,-7.33428e-04,2.19091e-01,-2.78493e-01,7.74965e-02,3.24030e-01,-7.69059e-01,-3.93176e-01,4.27468e-01,2.11261e-01,2.17394e-01,-7.42130e-01,-7.96050e-01,3.89276e-01,4.14444e-01,
1.39978e-01,-1.87497e-01,3.79430e-01,-4.67796e-01,-6.65590e-01,-4.89751e-02,-4.24746e-01,5.20156e-01,-6.75290e-01,-2.08799e-01,-1.08851e-01,-2.73893e-01,-1.17086e-01,1.84637e-01,3.49010e-01,1.60669e-01,-2.53619e-01,-8.94943e-02,-1.88567e-01,9.02455e-01,2.46856e-01,-4.65680e-01,-1.21543e+00,6.26297e-01,2.10914e-01,
-1.46869e-02,-1.82864e-01,-9.73714e-02,2.62355e-02,1.74314e-01,-3.59119e-01,2.27834e-01,-3.39594e-01,2.14791e-01,-2.98602e-01,-1.44552e-01,2.35188e-01,1.24412e-01,-2.17943e-01,-1.61723e-01,-3.44937e-01,-8.64753e-02,-1.43871e-01,-9.91055e-02,5.86318e-03,-9.78735e-02,5.45426e-02,1.23335e-01,-2.55788e-01,-2.61457e-01,
1.63528e-01,-2.09279e-01,3.47672e-01,-2.66898e-01,2.93680e-03,2.03731e-01,2.23139e-01,9.44195e-02,3.15465e-01,6.49901e-02,4.24552e-02,1.20315e+00,-2.71211e-01,-1.24768e-01,6.46567e-01,9.45752e-02,1.47556e-01,-3.28043e-01,-8.45734e-01,3.02113e-01,8.03129e-02,2.40992e-01,2.44523e-01,-2.76843e-02,4.45566e-01,
-4.12290e-01,-3.96445e-01,-1.77943e-01,2.39344e-01,1.01802e+00,7.98201e-01,1.03717e+00,-1.91541e-01,-2.79396e-01,4.61075e-03,-1.05659e+00,1.93085e-01,-7.48809e-02,-5.85264e+00,5.64983e-02,1.90284e-01,-9.40394e-02,-3.21697e-01,5.59922e-02,1.51589e-01,4.13705e-01,5.41911e-01,-1.14642e-01,-3.15256e-01,2.55100e-01,
1.75603e-02,-1.20808e-01,-3.25238e-01,1.13774e+00,2.31000e-01,-5.95324e-01,7.58489e-01,2.64739e-01,-9.32480e-01,-3.99469e-01,-7.58118e-02,-3.36004e-01,1.52212e-01,-1.04923e-01,4.88205e-01,-9.52324e-02,-7.40432e-01,-2.45591e-01,7.52674e-02,-7.25102e-02,1.02760e+00,1.73862e-01,6.95864e-01,4.14512e-01,3.33403e-01,
-7.05443e-01,-5.97664e-01,4.40747e-02,1.83325e-01,-1.36484e-01,1.15174e+00,-2.54667e-01,-1.83698e-01,3.08142e-02,2.90335e-01,1.22767e-01,9.77703e-01,-2.14879e-01,-1.03532e-01,4.40003e-01,1.34951e-01,-2.64579e-01,-3.93057e-01,-6.07205e-01,8.48039e-02,3.83820e-01,5.36310e-01,1.50418e-01,-2.83921e-01,3.15746e-01,
-6.52044e-01,-8.23852e-01,1.52598e-01,-5.81536e-01,3.05935e-01,2.41889e-01,5.15743e-01,1.08559e+00,6.01229e-01,-5.94358e-02,-4.14800e-01,-2.79213e-01,1.96236e-01,2.89358e-01,1.22402e-01,2.74326e-01,1.45513e-01,2.11330e-02,2.04730e-01,6.75057e-01,-3.19383e-01,-7.17299e-01,-4.02390e-01,2.36907e-01,-1.60782e-01,
1.22795e+00,-2.73773e-01,-1.06259e+00,5.91213e-01,9.68032e-02,4.36049e-01,6.05732e-01,3.46361e-02,1.57483e-01,-8.80365e-01,-1.85410e-01,7.47944e-02,1.01364e-01,1.47298e+00,-1.17261e+00,1.34066e-01,-1.84014e-01,-2.58906e-01,4.82338e-01,8.89311e-02,-1.06558e-01,4.42238e-02,-2.95024e-01,1.10847e-01,1.77568e-01,
-2.00404e-01,8.60988e-02,-2.12581e-01,-4.03233e-01,8.55586e-02,2.22507e-01,-1.91265e+00,-5.66951e-01,-6.98708e-01,-2.40736e-02,-9.91793e-01,4.34311e-01,3.11472e-01,-6.45525e-01,-5.56048e-01,2.50987e-01,6.54005e-01,-3.38592e-01,2.14075e-01,3.98540e-01,-6.85813e-01,3.00995e-01,2.82340e-01,9.11091e-02,4.95060e-02,
-4.75470e-01,
1.62586e-01,
5.51260e-01,
8.93884e-01,
5.15556e-01,
6.34938e-01,
2.81884e-01,
-3.73190e-01,
9.34480e-01,
4.15820e-01,
8.43173e-01,
8.50040e-02,
-1.62467e-01,
1.90722e-01,
-1.44432e-01,
-2.80224e-01,
4.70233e-01,
-1.76039e-01,
2.17211e-01,
-3.28725e-01,
1.63260e-01,
2.51513e-01,
1.61929e-01,
4.47947e-01,
4.59783e-01,
-3.18150e-01,2.77599e-01,2.72692e-01,9.19049e-02,9.93893e-03,2.36551e-01,-2.63019e-01,-3.31686e-01,1.21902e-01,2.65379e-02,2.18251e-01,-1.04604e-01,2.04021e-01,-1.94485e-01,-2.66049e-03,-2.55910e-01,-2.34297e-02,1.15640e-01,-3.11481e-01,-6.82696e-03,-3.81183e-01,-3.46245e-01,-1.62843e-01,1.18546e-01,-8.15177e-02,
3.78289e-01,-1.51529e-01,-1.43316e-01,7.22256e-02,2.16420e-01,3.06834e-01,-1.46686e-02,-6.03568e-02,3.63056e-01,2.29043e-01,-6.35448e-01,-2.42358e-01,-2.19606e-01,1.59516e-01,-1.03488e-01,-4.81189e-02,-3.14002e-01,1.91185e-01,1.25524e-01,-9.10806e-02,-1.12554e-01,-2.00109e-01,-2.42865e-01,-1.53579e-01,-1.31565e-01,
-6.20650e-02,1.44289e-01,-5.50206e-02,-5.35128e-02,9.40969e-02,2.56117e-02,2.64533e-01,-2.51628e-01,-7.98216e-02,-6.67263e-02,1.27429e-01,3.15885e-01,-2.96360e-01,1.75534e-01,-2.67587e-01,1.04168e-01,-2.57159e-01,-5.81726e-03,3.30161e-02,-2.52502e-01,-2.95627e-01,-3.05641e-01,-1.35640e-02,-1.48354e-01,-2.48818e-01,
5.43069e-01,-7.27084e-01,-1.15129e-01,9.35949e-03,-4.30551e-01,-1.17070e-01,-2.69857e-01,1.18577e-01,-6.94754e-02,7.10572e-01,-2.25838e-01,-1.43969e-01,-2.31415e-02,7.65143e-02,2.70436e-02,-1.40966e-03,6.73252e-02,2.48931e-01,-4.61742e-01,2.21932e-02,-3.44135e-01,-2.23146e-01,2.94857e-02,3.44354e-01,-8.22925e-01,
1.90905e-01,3.72280e-01,1.24030e-01,1.59433e-02,-4.16897e-02,9.19172e-02,-7.97973e-01,-2.61999e-01,-5.35691e-02,-1.40622e-02,-4.38601e-02,-4.17838e-01,3.48975e-01,4.32399e-01,-2.26996e-02,-3.52256e-01,-1.03456e-01,-1.23660e-01,-2.95849e-01,-3.96060e-01,2.82243e-01,8.93552e-02,-9.44236e-03,5.34461e-01,3.39705e-01,
4.68408e-02,1.22493e+00,-5.25872e-02,5.25198e-01,-1.75077e-01,-6.67676e-02,1.13340e+00,-7.78504e-02,-4.90696e-01,-1.47939e-01,2.67344e-01,-9.70111e-01,8.52139e-02,2.38083e-01,4.08528e-01,-6.78059e-01,3.53156e-01,2.46911e-01,2.52202e-02,5.55909e-01,-8.29212e-02,6.70988e-03,-2.47588e-01,-7.10074e-01,-1.10183e-01,
-2.97820e-01,-2.26998e+00,4.15168e-01,-4.28984e-01,-7.81347e-02,1.84964e-01,-9.57960e-01,-1.00734e+00,6.93336e-02,-2.15239e-01,-1.84905e-01,-1.53120e+00,2.90880e-01,-6.12545e-02,-1.17184e-01,2.95759e-01,-4.67789e-01,-1.00875e-01,1.03672e-01,-1.30997e-01,5.45937e-01,-6.43499e-02,-2.10817e-01,3.91354e-01,4.41715e-01,
2.14851e-01,3.86520e-01,-3.63570e-01,-1.77742e-01,-7.97982e-02,7.79030e-02,-9.21273e-01,-2.03757e-01,5.56549e-01,-2.76451e-01,1.01642e-01,5.97476e-01,-9.71033e-02,1.77356e-01,-1.06581e-02,2.33956e-01,-1.68244e-01,2.52062e-02,9.86841e-02,-5.47676e-01,-5.86060e-01,-3.52503e-01,4.53462e-02,5.73803e-01,-1.39135e-01,
6.09966e-02,1.53766e-01,-3.19403e-01,5.20870e-01,5.71073e-01,1.74361e-02,5.58391e-01,-1.66030e-01,3.73668e-01,-4.35145e-01,1.96005e-01,-4.47065e-01,5.64745e-01,7.78086e-01,-8.81205e-02,5.73567e-02,3.90729e-02,-1.52626e-01,-5.31095e-01,1.86411e-01,-5.27677e-01,1.46277e-01,-8.51671e-02,-3.62661e-01,5.23474e-02,
6.09072e-02,-5.21216e-02,-2.98318e-01,1.48937e-01,2.31531e-01,-2.41262e-01,-2.28377e-02,4.93281e-02,-2.24347e-01,-2.86061e-01,9.14441e-02,6.59964e-01,3.66348e-02,5.46472e-01,8.12955e-01,6.82020e-02,1.24687e-01,3.01213e-01,3.83453e-01,5.78808e-02,3.26703e-01,-4.06101e-01,-2.58469e-01,-5.36324e-02,-6.17390e-02,
1.51625e-01,2.48809e-01,7.13219e-02,-2.06932e-02,8.65935e-02,-1.91163e-01,1.14548e-01,3.79426e-02,4.60254e-03,-9.72655e-02,-1.24512e-01,-2.74878e-01,-1.34828e-01,-1.69168e-01,2.05120e-02,-2.01734e-01,-1.03977e-01,4.38061e-02,-2.61882e-01,-1.92400e-01,-2.56075e-01,1.50773e-01,-2.03466e-01,-3.65412e-01,-2.33689e-01,
5.45344e-01,-3.53418e-01,-5.22443e-01,3.32804e-01,-4.12848e-01,-9.71107e-02,-2.05556e-01,4.85223e-02,-3.08059e-01,-1.21986e+00,-3.69838e-01,2.40844e-01,2.69359e-01,9.45447e-02,8.41141e-01,4.11504e-01,3.15664e-01,-3.35800e-01,-2.21171e-01,6.71749e-02,5.44147e-01,-9.46292e-02,2.71053e-02,2.37194e-01,-6.47563e-02,
4.66348e-01,3.16815e-01,3.96063e-02,-3.38865e-01,3.32839e-01,5.13209e-01,1.24714e-01,3.09813e-01,4.05551e-01,2.08757e-02,4.43225e-01,-6.59154e-01,1.40231e-01,-2.16234e-01,-1.86557e-01,2.87206e-01,1.07207e-01,2.63846e-01,-2.20232e-01,-4.85325e-01,-9.46617e-02,3.83945e-01,-1.38945e-01,-3.63175e-01,-3.98265e-01,
-1.72297e-01,-4.85971e-02,-1.22339e-01,-1.77695e-01,2.94275e-01,2.49134e-01,2.96772e-01,4.37281e-01,-4.38485e-01,-2.69232e-02,6.03621e-01,-2.57806e-01,2.19836e-01,-2.40561e-01,6.23163e-02,3.15311e-01,-1.96950e-02,6.34287e-02,-1.36666e-01,-1.24419e-01,-2.62008e-01,-5.44036e-01,1.03156e-01,-3.93257e-01,-1.13713e-01,
4.55540e-01,8.57659e-01,5.90836e-01,-1.30418e+00,-6.99308e-02,4.33026e-01,6.11813e-01,-1.54155e-01,3.81510e-01,-2.58884e-02,-4.37831e-01,-1.24151e-01,1.97566e-01,-4.25690e-02,-5.42099e-03,4.73801e-01,-1.97936e-01,1.36527e-01,2.45220e-01,-1.34294e+00,-3.89272e-01,1.97662e-01,7.12304e-01,-7.03298e-01,-2.42317e-01,
1.26309e-01,-3.45974e-01,-3.21793e-02,2.42128e-02,-6.88782e-02,3.74454e-02,1.55765e-01,-2.38294e-02,-3.10755e-01,1.18875e-01,-3.20187e-01,-4.57826e-01,3.88389e-01,2.19634e-01,3.25290e-01,4.32000e-01,-4.69646e-01,1.32655e-01,2.87004e-02,-1.45221e-01,2.07330e-02,-3.28337e-01,2.96700e-01,-3.97830e-02,2.18860e-01,
-3.91978e-01,1.09173e+00,8.76954e-01,-1.41173e-01,6.95004e-02,-5.32070e-01,6.37366e-01,5.76205e-01,-5.86566e-01,-2.78126e+00,-3.90690e-01,6.07989e-01,-1.39993e-01,-6.79048e-01,2.17911e-01,2.43034e-01,5.07637e-01,-7.51815e-02,-6.48148e-01,1.58733e-01,3.27955e-01,2.62330e-01,8.68885e-02,-4.78461e-01,-1.13207e-01,
2.77979e-01,-5.18119e-01,-5.47629e-01,2.31162e-01,1.98564e-01,1.49364e-01,-7.33933e-01,-1.23259e-02,-4.77715e-01,-4.07408e-01,9.68895e-01,-6.39004e+00,4.62002e-01,1.45880e-01,1.81524e+00,-3.53810e-01,-1.63501e+00,-2.30358e-01,5.05367e-01,1.92338e-01,-1.25641e-01,-3.86982e-01,-6.49866e-01,-1.09684e-01,3.20434e-02,
5.68415e-01,-1.82600e-01,-1.35270e-01,4.51887e-02,1.80742e-02,2.97666e-01,-2.80148e-01,-3.18226e-01,-1.52509e-01,-2.53868e-02,1.24529e-01,-2.07218e-01,4.77918e-01,5.31845e-01,5.13283e-01,2.91396e-01,8.73528e-02,-1.84223e-01,-8.22453e-02,-1.78922e-01,5.91183e-02,-1.69092e-01,-1.53963e-01,9.45158e-02,-1.14007e-01,
-9.63923e-02,-9.78968e-01,-2.23566e-01,-3.16592e-01,3.10500e-01,7.94605e-01,-1.00925e+00,6.04543e-01,5.33983e-01,-1.01985e-01,1.18018e-02,-9.45937e-01,1.64157e+00,-1.02770e+00,-1.56030e-01,4.14326e-01,2.93407e-01,1.44600e-01,5.00662e-01,2.49639e-01,-7.02265e-02,-1.52996e-01,-3.01133e-01,4.28980e-02,1.83777e-01,
4.29571e-01,-5.85851e-01,3.22510e-01,-6.25960e-01,3.11747e-01,-1.15335e+00,-5.88699e-02,5.45779e-02,-7.16500e-02,-3.19392e-01,-1.77744e-01,-2.91879e+00,-7.58327e-02,5.96813e-01,-1.08314e-02,5.24122e-01,-1.09478e+00,1.61167e-01,-8.49020e-02,5.85582e-01,4.87282e-01,2.38555e-01,3.81947e-01,-1.96003e+00,-1.72465e-02,
1.56957e-01,2.90726e-02,1.97934e-02,3.16221e-01,-7.97976e-01,-6.50272e-02,2.41951e-01,-7.84695e-01,-5.68033e-01,-7.62386e-01,-4.01716e-01,1.16842e-01,2.12571e-01,3.84246e-01,4.18691e-01,1.33173e-01,2.48945e-02,7.01962e-02,-1.00899e+00,-9.53725e-02,3.26049e-01,-3.10139e-02,1.51202e-01,-2.17323e-01,2.56973e-01,
4.01485e-01,1.81096e-01,3.95760e-01,-2.37983e-02,-1.28027e-01,-2.48694e-01,-5.83063e-02,2.06489e-01,-7.67913e-01,-1.10220e-01,-5.44355e-01,-6.89917e-02,2.60006e-01,-2.17082e-02,3.57013e-01,5.34917e-01,1.64149e-02,1.21279e-01,-5.73929e-01,-1.14456e-01,4.41449e-01,3.89754e-01,3.37826e-01,2.83117e-01,-1.45593e-02,
4.98298e-02,1.43433e-01,8.69520e-02,2.02256e-01,4.82495e-01,-8.43175e-02,1.03206e-01,3.18957e-01,3.91960e-01,-3.72614e-01,-6.39499e-02,-5.19264e-01,1.88544e-01,2.50200e-01,2.46776e-01,-1.17536e-01,1.66852e-01,2.54649e-02,5.29879e-01,1.83527e-01,-7.39061e-02,-8.89315e-01,-6.49532e-01,-1.95103e-01,2.14637e-01,
2.26052e-01,1.04657e+00,2.00797e-01,7.39905e-02,-4.54326e-01,7.11686e-01,-3.35782e-01,-2.40246e-01,-4.31605e-01,6.57131e-01,-4.16727e-01,-3.94267e-01,4.61727e-01,-4.29140e-01,1.51432e-01,1.42128e-01,-4.30052e-02,7.35970e-02,2.50017e-01,2.44290e-01,4.15900e-01,-3.12674e-01,1.21724e-01,-2.70204e-02,1.21685e-01,
-3.80440e-01,
4.81659e-01,
-3.51427e-01,
4.71718e-01,
-9.15255e-03,
-1.27492e-01,
7.94862e-01,
3.29084e-01,
-1.96383e-01,
2.81736e-01,
2.06931e-02,
-1.21250e-01,
2.81518e-01,
7.71410e-01,
5.38383e-01,
4.04764e-01,
-2.94587e-03,
-2.74373e-01,
2.17509e-02,
-1.17626e-01,
-2.27359e-01,
-6.21537e-02,
-3.59430e-01,
1.11479e-01,
-1.76426e-01,
7.54320e-02,4.75669e-01,9.91320e-02,-8.87523e-02,-2.04095e-01,1.01086e-01,-1.67566e-01,1.75630e-01,-1.61730e-01,-3.67687e-01,1.92171e-01,-2.03677e-02,-4.73249e-01,3.76599e-01,2.87331e-02,-1.62031e-01,-4.06463e-01,1.09991e-01,-8.87383e-02,-3.64472e-01,-1.08038e-01,2.61343e-01,3.66799e-01,1.14871e-01,3.17914e-02,
-5.25845e-02,-1.75117e-01,-1.83270e-01,-3.12352e-01,8.07384e-02,-1.08252e-01,-2.95742e-02,-1.28562e-01,-6.93975e-02,1.28102e-01,2.96806e-01,1.12367e-01,-3.95161e-02,-3.32325e-02,-1.99264e-01,-2.80842e-01,-2.42848e-01,3.06467e-01,-3.37245e-01,-1.74088e-01,-4.69446e-02,-3.26283e-01,2.68360e-01,2.10540e-01,1.77095e-01,
1.71544e-01,4.49445e-01,1.40300e-01,-7.65646e-02,-3.03431e-01,-3.24942e-01,-5.13736e-03,-2.29240e-02,3.03189e-01,-6.69004e-01,-2.45087e-01,4.29757e-01,-1.54050e-01,-2.30752e-02,4.52387e-01,-3.75726e-01,2.02164e-01,-1.75406e+01,-3.44070e-02,-2.50917e-01,-8.25539e-03,1.01877e-01,8.14411e-01,-1.79167e-01,-2.29846e-01,
-2.85569e-01,-2.53978e-01,-4.42342e-02,1.72952e-01,-1.54206e-02,-9.19442e-02,1.89802e-02,9.03215e-02,-9.57448e-02,2.07869e-01,3.20862e-01,-5.13883e-01,-1.49128e-02,-2.81052e-01,9.85602e-02,9.98871e-02,1.39795e-01,-1.29395e-01,3.76426e-01,5.46202e-02,3.19519e-01,4.72884e-01,-4.98425e-01,2.24650e-01,7.50078e-02,
-2.02763e-01,1.97926e-01,2.37221e-01,1.03288e-01,-1.92577e-01,2.49119e-02,-1.09314e-01,-1.34263e-01,1.07078e-01,1.39201e-01,-8.92070e-02,-2.71106e-01,7.11174e-02,5.64694e-03,-9.66150e-03,1.50209e-01,3.51277e-02,1.55303e-01,1.17961e-02,-7.06308e-02,1.30602e+00,-2.30778e-01,2.45757e-01,2.50509e-01,1.96389e-01,
-6.75763e-02,5.16736e-02,1.93292e-01,1.23590e-01,1.62155e-01,1.52192e-03,2.86542e-03,-4.45878e-01,-3.53071e-01,-2.79280e-01,-2.07154e-01,-1.88800e-01,-1.87150e-01,-4.21547e-01,-4.99481e-02,-1.30439e-01,-1.04167e-01,-2.30348e-01,-1.26588e-01,-9.70728e-02,-1.86384e-01,2.07842e-01,1.65222e-01,-2.57168e-01,3.40885e-02,
2.22519e-01,1.32789e-01,2.89077e-01,-9.53022e-04,-1.23362e-01,-2.24746e-01,-7.93353e-02,-4.65767e-02,-7.38878e-02,-3.19388e-02,2.49992e-01,-2.36926e-01,-2.33367e-02,-2.39393e-02,6.69959e-03,1.49329e-01,-1.33662e-01,2.03256e-01,-5.71994e-02,-1.14434e-01,6.27379e-01,1.95487e-01,1.54927e-01,2.91814e-01,1.16077e-01,
1.56265e-02,-1.64241e-03,8.39254e-03,1.63202e-01,-4.01264e-01,-1.81150e-01,-7.87567e-03,4.98896e-02,1.04263e-01,-1.16952e-01,-2.35827e-01,-2.63636e-01,-3.28385e-01,-1.36674e-01,-3.44206e-01,-1.05048e-01,-5.51247e-02,1.05654e-01,2.40018e-01,-5.78108e-02,6.35639e-02,7.66000e-01,-2.84691e-01,1.70700e-01,-1.84549e-01,
-4.05393e-02,-4.06241e-01,-2.83627e-01,1.27069e-01,1.48386e-01,1.50091e-01,-1.30505e-02,-1.61748e-01,2.41170e-01,4.16953e-01,3.21757e-01,-9.32826e-02,8.24135e-02,-3.22622e-01,4.81591e-02,2.17070e-01,1.90567e-01,-4.63537e-01,3.11788e-01,3.05353e-01,8.05652e-02,-6.28756e-01,-5.08769e-01,1.72996e-02,5.23247e-02,
-1.91020e-01,5.88746e-02,2.86587e-01,-8.34800e-02,6.40648e-02,-1.49741e-01,1.26319e-03,2.61218e-01,3.80513e-02,-3.51936e-01,1.63631e-01,4.80608e-01,3.66899e-01,-2.41838e-01,-1.42202e-01,2.57167e-01,4.16860e-01,-2.43491e-01,3.11543e-01,-8.28982e-02,-3.69750e+00,-3.93863e-01,-1.27385e-01,-2.93053e-01,-1.24750e-01,
-4.30912e-02,-2.95887e-01,-2.27349e-01,5.08311e-02,-9.98164e-02,-2.20115e-01,-4.33949e-01,7.83736e-02,6.01795e-02,-1.87974e-01,1.17740e-01,-3.39498e-02,-2.83990e-01,-2.49239e-01,3.29926e-02,-4.66870e-01,2.37603e-01,-2.01027e-01,-2.99603e-01,6.22901e-02,2.56403e-01,1.89952e-01,-2.95475e-02,1.62853e-01,-4.06223e-01,
1.70767e-01,-2.53747e-01,1.86138e-01,9.96822e-02,-3.17897e-01,2.87769e-01,1.62540e-02,-1.61367e-01,2.71474e-02,-1.80629e-01,-2.38838e-01,2.84255e-01,5.47108e-02,1.63395e-01,1.01569e-01,-1.09089e-01,1.30971e-01,-1.55006e-01,-1.25549e-01,-3.43581e-01,-2.51359e-02,-3.17936e-01,7.84968e-02,-1.80729e-02,-2.07434e-01,
1.13227e-01,-4.00178e-01,-5.08425e-02,2.20658e-01,-3.32435e-02,2.34131e-01,1.69690e-01,-3.46406e-01,4.92772e-01,-1.05906e-01,2.90261e-01,2.54959e-01,5.41328e-02,-2.11024e-01,2.26734e-01,-2.67466e-01,-1.33324e-02,-1.75406e+00,-1.65378e-01,9.36941e-02,1.65073e-01,-2.79593e-01,4.06447e-02,-1.34174e-01,-3.81243e-02,
-1.22716e-01,2.53655e-01,2.43903e-01,-1.86974e-01,-1.49814e-01,-3.29798e-03,-2.30153e-02,1.64289e-01,-2.56984e-01,-2.05417e-01,1.40175e-01,-4.87479e-02,1.16879e-01,2.82506e-01,-7.91466e-02,4.99711e-02,-8.32845e-02,3.83091e-01,-1.77480e-01,-1.62891e-01,1.08652e-01,1.72586e-01,5.42322e-01,-5.66644e-02,-6.74894e-02,
-3.19954e-01,-6.40895e-02,-3.34476e-01,-1.89073e-01,1.58232e-01,8.63783e-02,1.94628e-02,8.64786e-02,-1.55801e-01,-1.62607e-01,3.03655e-01,1.93299e-01,-1.53350e-01,-1.74912e-01,1.70686e-02,9.29950e-02,-1.82723e-01,1.00123e-01,-1.09003e-01,-1.03143e-02,-2.20366e-01,-1.68766e-01,2.02893e-01,-4.23970e-01,-7.16354e-01,
2.18512e-01,-1.95147e-01,-2.65255e-01,2.68167e-01,-5.98811e-03,1.35528e-02,-4.92273e+00,1.18666e-01,-1.29000e-01,-1.09923e-02,2.53192e-01,-3.94405e-01,7.30391e-02,-1.63959e-01,-1.09020e-01,1.63094e-02,4.23376e-02,-2.21626e+01,1.90700e-01,-1.69883e-01,-1.09862e+01,7.24740e-01,-4.39319e-01,2.29423e-01,1.57320e-01,
1.07868e-01,-1.95828e-01,6.75863e-02,1.20514e-01,1.58545e-01,-3.60153e-03,5.02013e-02,-1.92129e-01,-2.16368e-01,-2.35136e-01,-2.97358e-01,-6.28642e-02,6.41659e-02,-2.23199e-01,2.54900e-01,-7.25807e-02,1.83908e-02,-6.48097e-02,-3.56079e-01,1.65883e-01,-8.27112e-04,2.75310e-01,-3.54186e-02,5.69776e-02,1.73972e-01,
1.81074e-02,1.25659e-01,-3.14014e-01,-4.15600e-02,-1.24918e-01,2.01283e-01,8.93862e-02,-3.44048e-01,-5.72868e-02,-5.63424e-01,1.77729e-01,6.42173e-02,-9.40537e-02,1.03044e-01,2.19088e-01,-2.15016e-01,2.05613e-01,4.65013e-01,-4.50562e-01,4.82258e-02,-4.46501e-02,-2.17771e-01,4.36558e-01,1.90927e-02,-3.79215e-01,
-2.10382e-01,-8.19302e-02,1.90375e-01,-3.01788e-02,-1.37496e-01,1.03803e-01,2.60625e-01,-1.15231e-01,1.26918e-01,-2.03400e-01,1.55203e-01,-7.66342e-02,1.54236e-01,-1.26107e-02,1.85247e-01,1.69526e-01,1.14995e-01,1.12229e-01,-4.54641e-01,2.06304e-01,2.86685e-02,6.50152e-03,2.51161e-01,-1.97614e-01,-2.99140e-01,
1.56436e-01,1.03560e-01,-5.21876e-02,-3.17661e-01,8.46726e-02,-1.55080e-01,2.05179e-01,5.40723e-01,5.04380e-02,-2.22543e-01,-1.72858e-01,7.01361e-01,3.37096e-01,-4.98359e-02,-2.68175e-01,-2.22595e-01,2.04521e-01,-2.35686e-01,6.43151e-02,-4.23900e-01,4.29008e-01,-1.00240e-01,-1.52702e-01,-6.15053e-01,-2.39047e-01,
-1.77444e-01,-4.10948e-01,-3.09301e-01,1.83266e-01,-2.86877e-01,1.27031e-01,3.68182e-01,-2.47916e-01,-4.43278e-02,-1.11591e-01,-2.68080e-01,-2.44619e-01,-1.27361e-01,-3.84818e-02,3.87628e-04,-3.57634e-01,-2.03069e-01,1.94613e-01,-3.54359e-03,-8.27238e-02,3.21664e-01,-1.96584e-01,1.50864e-01,-4.04015e-01,8.94098e-02,
-1.75996e-01,5.78020e-02,-8.36767e-02,7.43328e-03,2.04809e-02,5.59078e-02,-2.01129e-01,5.35711e-02,1.74237e-02,-1.63345e-01,5.22351e-02,9.49907e-02,-2.00795e-01,-1.04574e-01,3.77476e-01,-3.08393e-02,8.02413e-02,6.49982e-02,9.86308e-02,2.52127e-02,-9.80384e-02,-4.21929e-01,3.86966e-01,1.56441e-01,-1.73466e-01,
8.96260e-02,-1.01262e-01,-6.65470e-02,1.03946e-01,-1.32270e-01,2.89443e-01,-3.68533e-01,7.81532e-02,-4.19442e-01,1.85691e-01,-4.12162e-02,1.85807e-01,2.79981e-01,1.12333e-01,-1.28230e-02,1.28912e-01,2.16939e-01,-2.92137e-01,-4.11202e-01,1.03786e-01,2.14915e-01,-2.60939e-01,8.63083e-02,-1.63765e-01,3.88640e-01,
2.84623e-01,-4.17332e-01,-7.52731e-02,-3.37365e-01,-2.01431e-01,-1.94731e-01,-2.14208e-01,-5.80201e-02,-3.13514e-01,1.61650e-01,1.16825e-02,-3.30084e-01,1.32594e-01,1.97188e-01,-1.29168e-01,-2.96679e-02,-2.80090e-02,-1.07801e-01,-2.17999e-01,1.16851e-01,-2.60207e-01,-1.03525e-01,1.47072e-01,6.79252e-03,-3.55134e-01,
-4.51157e-02,2.48007e-02,-2.76033e-01,8.11319e-02,-1.57532e-01,-1.91905e-01,-1.00187e-01,-9.73597e-02,1.19320e-01,3.08532e-02,-2.06951e-01,1.01473e-01,-2.25254e-03,-7.29988e-02,1.91307e-01,-4.95517e-03,3.07866e-01,-1.46582e-01,-3.97084e-01,1.38004e-01,4.55026e-01,-3.60144e-01,2.34618e-01,-1.30714e-02,-3.85856e-01,
2.83445e-01,
-2.93007e-01,
1.17803e-01,
1.56144e-01,
4.69168e-02,
-4.68192e-02,
-9.94829e-03,
3.08386e-01,
2.02609e-01,
-1.82934e-02,
6.81211e-02,
-3.15517e-01,
-1.17129e-01,
3.05217e-01,
-3.54292e-01,
1.27328e-01,
-4.05619e-01,
-3.45515e-01,
-4.25261e-01,
-4.97451e-02,
-3.74942e-01,
1.73899e-01,
-7.82503e-01,
-2.03163e-01,
-3.36482e-01,
-6.32903e-02,-2.22742e-01,-3.09411e-02,-5.69384e-02,6.00463e-02,-3.20695e-01,-5.83084e-02,-6.86685e-03,-1.58306e-01,-6.19410e-03,-2.08252e-01,-9.09412e-02,2.60064e-02,-9.44706e-02,7.88759e-02,3.18052e-02,-2.05597e-01,-4.38777e-01,-4.09489e-01,-4.19275e-03,-3.95852e-01,5.15877e-02,-2.60358e-01,2.10430e-01,-8.62114e-01,
-5.77244e-02,5.01695e-01,-4.31501e-02,-6.01229e-02,2.08970e-02,1.21718e-01,4.79183e-03,1.24263e-01,-1.40257e-01,6.62328e-03,5.45440e-01,8.41931e-01,6.01462e-02,-1.08145e-01,3.67919e-01,-5.85057e-02,3.93774e-01,1.15354e+00,6.40510e-01,-1.12900e-02,3.99359e-01,-6.54566e-02,9.12823e-01,-3.51063e-01,6.62153e-01,
-4.67835e-02,6.81225e-01,-2.00651e-02,-6.68607e-02,-1.66237e-01,5.82065e-01,3.12335e-01,-3.18795e-03,-9.45073e-02,-1.60389e-02,9.98384e-01,4.09852e-01,-3.05059e-02,-1.00006e-01,-1.53332e-02,1.85024e-03,5.27222e-01,1.28231e+00,9.87091e-01,-1.58136e-02,1.64814e+00,4.12197e-02,9.31528e-01,1.39741e-01,1.62780e+00,
-4.07609e-02,5.21830e-01,-2.60573e-02,1.31213e-01,-1.85633e-02,3.70180e-02,-9.34192e-03,-4.12893e-02,-2.19240e-01,1.17142e-03,1.23547e+00,7.26830e-01,1.21334e-01,-1.14836e-01,2.14579e-01,-2.43406e-01,2.32921e-01,1.99550e+00,1.07919e+00,2.29700e-02,2.39262e-01,-3.86654e-02,8.45703e-01,-1.90107e-01,2.00058e+00,
-2.89143e-02,4.32796e-01,-4.81513e-02,-9.97373e-02,-1.05889e-01,4.58286e-01,2.22499e-01,5.59934e-02,-7.63053e-02,1.55373e-01,6.81935e-01,7.87540e-01,1.90262e-02,-6.50045e-02,1.84520e-01,3.58353e-02,5.99616e-01,1.59781e+00,1.23687e+00,-1.05252e-01,1.36269e+00,7.80702e-03,7.09868e-01,-5.63614e-03,2.13791e+00,
-4.54607e-02,5.41997e-01,-2.61854e-02,-4.67479e-04,1.66309e-03,2.10897e-01,1.60449e-02,3.21931e-02,-1.63107e-01,2.30620e-02,9.28234e-01,5.21907e-01,9.59106e-02,-9.87097e-02,2.52211e-01,-9.91515e-02,3.06178e-01,1.29584e+00,6.95591e-01,-8.33389e-03,6.13757e-01,-5.13814e-02,5.71237e-01,1.63117e-01,9.10067e-01,
-4.60349e-02,2.37144e-01,-3.29850e-02,-6.20329e-02,-1.05963e-01,4.77382e-01,2.11288e-01,1.25883e-02,-1.07974e-01,4.15728e-02,8.58775e-01,6.35882e-01,1.59256e-02,-7.61104e-02,1.41033e-01,4.41062e-03,4.46893e-01,1.11613e+00,9.68740e-01,-4.89036e-02,1.08594e+00,3.04244e-02,7.55335e-01,3.18467e-01,1.35354e+00,
-4.25129e-02,5.28507e-01,-2.81244e-02,2.03791e-02,9.40343e-03,2.13832e-01,-1.31746e-02,1.80645e-02,-1.81384e-01,1.97663e-02,8.48160e-01,5.19925e-01,5.14346e-02,-1.05091e-01,1.27009e-01,-1.24199e-01,2.96334e-01,1.42295e+00,8.99220e-01,1.15918e-03,4.18986e-01,-2.80927e-02,5.18781e-01,-3.82952e-01,8.21435e-01,
-5.08234e-02,3.69950e-01,-3.49137e-02,-6.17475e-02,-9.17063e-02,5.78591e-01,1.91793e-01,9.51471e-03,-1.15446e-01,5.76801e-02,7.82567e-01,5.99924e-01,1.02031e-02,-8.18902e-02,1.69630e-01,9.24460e-03,3.62271e-01,1.09477e+00,9.04280e-01,-5.83243e-02,1.09461e+00,3.04863e-02,7.30940e-01,-8.27118e-02,1.02522e+00,
2.77350e-01,
2.56333e-01,
2.67444e-01,
2.75167e-01,
2.39531e-01,
-1.84395e-01,
-1.89343e-01,
-1.81479e-01,
-1.86669e-01,
