// Neural Network File Format by Kyle Julian, Stanford 2016
6,4,9,25,
4,25,25,25,25,25,9,
0,
-8000.000000,-100.000000,-100.000000,0.000000
8000.000000,100.000000,100.000000,40.000000
0.000000,0.000000,0.000000,20.000000,-4.647677
16000.000000,200.000000,200.000000,40.000000,22.514692
-8.32889e-01,3.35792e-01,-1.78571e-01,-5.78271e-01,
-1.47612e+00,1.07287e-01,-5.46799e-01,-1.45423e-01,
-2.16038e+00,-3.03209e-01,-7.44080e-01,2.92986e-01,
-3.80305e+00,2.60942e-01,-2.51031e-01,-7.46119e-01,
-3.38535e-01,1.47178e-01,-3.21911e-03,-5.91552e-01,
5.35633e-03,1.21341e-02,3.79841e-01,-3.63651e-02,
1.04347e-01,-1.21965e+00,3.20347e-02,-1.25026e-02,
-5.62208e+00,1.42362e-01,-1.59259e-01,-3.40757e-01,
-2.48672e+00,4.04451e-01,-5.74367e-01,1.95082e-01,
-8.21955e-01,5.00485e-01,-3.24471e-01,1.20198e-01,
3.18166e-01,4.96493e-01,4.48855e-02,4.69400e-02,
2.38835e+00,-3.16964e-01,2.48342e-01,-7.17975e-01,
2.09883e+00,1.47336e-01,-2.13126e-01,-1.42430e+00,
1.71958e+00,-1.65474e-02,7.93266e-03,4.92687e-01,
4.56203e-01,1.16091e+00,4.28103e-02,6.46441e-02,
-8.26338e-02,3.28227e-01,1.41305e-03,-9.19262e-03,
-4.86063e+00,7.14078e-03,-2.87902e-03,2.68791e-03,
-4.61322e-01,-3.27642e-01,2.80489e-01,1.35096e-01,
-1.63011e-01,-4.09386e-01,3.66267e-01,1.38976e-02,
-3.28159e+00,1.90282e-01,-1.95278e-01,-1.20521e+00,
-2.43648e+00,6.66561e-01,-1.35412e-01,8.53449e-02,
7.26193e-02,2.69397e-01,-4.33728e-01,2.80392e-01,
-4.76654e-01,-5.22408e-01,-6.34065e-02,-1.28878e-02,
6.33406e+00,-2.64610e-02,-1.00002e-02,-2.68427e-03,
1.07931e+00,5.28230e-01,2.79888e-01,1.49371e-02,
5.12450e-02,
8.28549e-02,
1.13833e-01,
-2.52640e-02,
3.55530e-01,
1.52718e-01,
1.76433e-02,
-9.69944e-02,
1.73172e-01,
2.38917e-01,
2.80702e-01,
1.26427e-02,
-5.92396e-01,
1.05557e-01,
-2.39381e-01,
-3.34374e-01,
2.16380e-01,
2.24545e-01,
5.80772e-02,
-4.37591e-01,
2.03686e-02,
1.35281e-01,
2.49574e-01,
2.79366e-01,
1.39567e-01,
2.86596e-01,1.31827e-01,-5.48767e-02,3.00335e-01,7.20260e-01,3.95727e-01,4.14502e-01,-7.78778e-01,-7.89649e-01,1.85950e-01,-3.70526e-01,1.00791e+00,2.48563e-01,5.16046e-01,-3.00537e-01,-2.88746e-01,1.72263e+00,-4.24428e-01,6.22880e-01,2.75145e-01,4.88599e-01,-6.21490e-02,1.24196e-01,3.49587e-01,4.35835e-01,
5.07116e-02,5.72738e-01,-2.90710e-01,1.07940e-03,-5.02800e-01,-5.49442e-01,6.40830e-02,-1.12991e+00,-1.44081e-01,1.32572e-01,1.16951e-01,-1.62271e-01,-2.11569e+00,-4.48168e-01,-6.63471e-02,-2.67962e-02,1.23436e+00,1.61696e-01,-1.53656e-01,-1.34674e+00,-1.14977e-02,1.02336e-01,-3.15315e-01,3.77561e-01,1.70441e-01,
7.10352e-01,1.85714e-01,-1.64459e-01,1.50428e+00,7.97821e-01,2.96514e-01,4.62765e-01,3.31648e-01,-7.22129e-01,5.22494e-01,6.26609e-02,7.80468e-01,-4.31820e-01,9.99097e-01,5.29020e-02,-3.26347e-01,-2.66005e+00,-1.95716e-01,-2.38996e-03,-9.82375e-01,-4.57653e-01,-8.39769e-01,3.58375e-01,-2.01691e-01,-1.76227e-01,
-1.35871e-01,1.51557e+00,-7.88742e-02,9.94612e-01,2.72343e-01,-2.87685e-01,-9.70907e-01,-6.92486e-01,-5.73335e-01,5.96218e-03,-6.50227e-01,3.57448e-01,1.15390e+00,9.75755e-01,9.47827e-01,2.20252e-02,4.44189e-01,-3.51373e-01,3.87587e-01,-7.59361e-01,-3.17114e-01,-3.10133e-01,4.18469e-01,2.64663e-01,-5.92541e-01,
1.00742e+00,-5.64332e-01,-3.28256e-01,-7.18629e-01,-1.25107e-01,-1.73271e-02,-2.06298e+00,1.99171e-01,-1.30896e-01,1.29691e+00,7.50614e-01,3.25056e-02,1.58063e-01,-8.78204e-01,-7.85066e-01,1.70059e-01,-6.22226e-01,3.36633e-01,1.82140e+00,3.76061e-03,1.18405e-01,7.13865e-02,5.27773e-01,4.70008e-01,1.85478e-01,
-7.72595e-02,-6.80611e-01,3.09822e-02,3.30359e-02,1.90276e-02,-4.32594e-01,-1.05460e-01,-4.14196e-01,4.11407e-01,6.77411e-01,-2.93205e-01,-3.07783e-01,1.21332e+00,-6.95606e-01,4.78713e-02,-2.08370e-01,2.24027e-01,9.10256e-01,-4.17301e-01,-3.89957e-01,3.95880e-01,1.84997e-01,-3.99955e-02,-5.56128e-01,1.53626e-01,
1.81851e-01,-4.60352e-01,-3.29089e-02,4.59456e-01,-3.98549e-01,5.78916e-01,6.11263e-01,-8.71479e-01,3.30922e-02,-4.61815e-01,7.17295e-02,-1.54760e-01,4.43539e-01,-1.91657e-01,-1.60033e+00,-1.16204e-01,-1.06545e-01,-8.72426e-02,3.32652e-01,1.82135e-01,5.41784e-01,-6.63642e-01,6.48406e-02,7.04396e-02,-1.12420e+00,
6.19189e-01,5.16879e-01,4.81179e-01,-1.33920e+00,-1.94009e-01,-7.35781e-01,-4.99742e-01,7.11183e-01,-6.62031e-01,2.13530e-01,3.80429e-01,-3.83984e-01,-4.93105e-01,-3.83025e-01,8.09309e-01,-8.01789e-02,1.73994e-01,5.89373e-01,-7.48083e-02,8.22292e-01,-9.11574e-01,-1.64337e-01,-1.37166e-01,-7.92260e-02,-7.43504e-01,
-1.76391e-01,6.96383e-01,-1.63115e-01,-5.40266e-01,1.02030e-01,1.02105e+00,1.89640e-01,2.27510e-01,-3.76928e-01,2.34226e-02,-5.13947e-01,9.85130e-01,5.37439e-03,-2.34277e-02,-4.18112e-01,2.57863e-01,2.54756e-01,3.03639e-01,-7.73927e-01,-1.46000e+00,-5.92048e-01,-3.79363e-01,-9.44914e-02,2.95882e-02,1.41332e+00,
-4.95015e-01,8.03078e-01,-1.66488e-01,1.60062e-02,3.70665e-01,-2.08378e-01,-1.96825e-01,-4.11636e+00,-1.48234e-01,-3.02497e-01,5.66703e-01,6.24523e-01,1.48900e+00,3.40038e-01,7.32182e-03,-1.92494e-01,-4.05346e+00,1.01435e+00,-4.64500e-01,3.54670e-01,7.15099e-01,1.93313e-01,2.80020e-01,6.77565e-01,-7.73140e-02,
3.61858e-01,-1.35182e+00,2.52398e+00,6.86844e-02,-3.36006e-01,4.01705e-02,-1.88533e+01,-7.43192e+00,-6.02714e-01,-9.18578e-01,-4.89740e-01,-3.13300e-01,1.06334e-01,-6.54522e-01,8.01050e-01,-2.40433e-02,-1.01613e+01,9.99488e-01,-1.45837e+00,-2.44717e-01,-3.14584e+00,-1.99987e-01,1.60350e+00,3.45364e-01,-5.55512e-01,
6.44361e-01,8.97806e-01,-3.01117e-02,-4.92813e-01,7.84063e-01,3.82010e-01,3.17507e-01,-1.86928e+00,-1.25057e+00,4.97074e-01,1.38670e-01,6.97542e-01,-3.54114e-01,-1.99095e-01,-1.96414e-01,-2.91776e-01,1.27376e-01,-8.64951e-01,-2.91768e-01,-3.52570e-01,2.87175e-02,-8.92866e-01,2.82175e-01,5.11027e-01,-1.94724e-01,
3.35660e-01,-4.55847e-02,-3.17357e-01,-8.17232e-02,-1.55536e-01,-2.97203e-02,2.21229e-03,-2.50734e-01,1.56028e-01,-3.39281e-01,-3.17359e-01,3.40120e-02,-3.32991e-02,1.37230e-01,3.04144e-01,-2.01522e-01,-8.63660e-02,-6.12111e-02,-1.99343e-01,-1.74446e-01,-1.79889e-01,-2.03754e-01,-3.07978e-01,-5.58145e-02,-7.10321e-02,
-5.64055e-01,-9.37374e-01,1.10160e-01,4.43350e-01,5.16761e-01,-5.26040e-01,-1.04353e+00,1.20484e-01,-4.00346e-01,-2.68404e-01,-1.42921e+00,2.10731e-01,-3.53203e+00,1.14241e+00,8.86934e-01,2.03304e-01,1.87384e-01,2.35486e-01,7.67601e-01,-5.32045e-01,-4.34685e-01,4.45437e-02,7.03226e-01,-1.07898e+01,-1.01526e+00,
-3.29356e-01,2.88527e-01,-5.32008e-01,5.67508e-01,1.42722e-01,-4.59672e-01,-5.30380e-01,2.66469e-02,1.27820e-01,-4.74913e-01,-4.21894e-01,-3.09493e-01,-4.67253e-01,1.02922e+00,-9.83752e-02,1.12038e-01,9.81017e-01,3.45988e-02,-6.77279e-01,3.79607e-01,5.92198e-01,-6.02560e-01,5.64859e-03,-1.74642e+01,-6.97358e-01,
8.72180e-02,1.00954e-01,-2.19428e-01,-1.61149e-02,1.08930e-01,-5.45161e-02,8.94741e-02,-3.19691e-01,1.75244e-01,-1.73991e-01,-2.04234e-01,6.96228e-02,1.10207e-01,3.47647e-02,2.10990e-01,-3.95058e-02,1.11380e-01,-6.85038e-03,-8.76656e-02,-5.13091e-02,5.23159e-01,-2.38125e-02,5.70528e-02,3.63455e+00,-3.47923e-01,
-2.68086e-01,7.10712e-01,2.87401e-01,1.98612e-01,3.26387e-01,3.12648e-01,4.72809e-01,6.49389e-01,-1.17731e-01,7.10243e-01,-3.17790e-01,-7.45835e-01,1.86978e-01,5.58959e-01,1.60098e-01,-2.33013e-01,9.55187e-02,-1.95813e-01,-7.23686e-01,7.80931e-01,1.13336e-01,7.90546e-01,-1.15579e+00,-3.12889e-01,-1.05091e+00,
5.91337e-02,-6.12539e-01,2.56336e-01,3.37371e-02,-3.67994e-01,-3.55350e-01,-1.93910e-01,-5.96704e-01,-8.97687e-01,2.59619e-01,-5.49947e-01,-3.28345e-01,2.42510e+00,-4.26424e-01,5.59152e-02,-1.33862e-01,2.96856e-01,-5.37042e-02,-4.05094e-01,-3.02324e+00,-3.01352e-01,1.14461e-01,-5.69651e-02,9.26953e-01,2.93780e-01,
2.65392e-01,2.11712e-01,-7.76270e-02,5.63203e-01,4.40774e-01,1.08713e-01,1.63937e-01,5.94547e-01,4.24948e-01,5.69271e-01,-9.70054e-02,-2.03248e-01,-2.44075e-01,1.15043e+00,-4.85078e-01,-1.89801e-01,3.30357e-01,-7.13615e-01,1.90029e-01,9.02764e-01,3.38727e-01,-1.40287e-01,-4.40945e-01,-6.29514e-01,-2.41610e-01,
6.17417e-01,1.21108e-02,-4.08824e-01,3.71538e-01,3.09029e-01,-2.20602e-01,9.33052e-01,-1.02361e+00,-1.74622e-01,6.42544e-01,7.11716e-01,4.42580e-01,-4.46382e-01,-2.03515e-01,-7.60921e-01,3.09800e-01,3.65515e-01,3.04947e-01,3.76998e-01,-1.41449e+00,3.64678e-01,-2.14847e-01,1.86551e-01,1.11270e-01,-3.69011e-01,
-3.53250e-01,1.91073e-01,4.86628e-01,-6.41775e-01,7.87629e-01,-4.22507e-02,9.54757e-01,1.46655e-01,3.79900e-01,2.32796e-01,6.25335e-01,4.00745e-03,-1.30050e+00,4.48440e-01,-4.75778e-01,-3.43325e-01,1.54706e-01,-6.64599e-01,-8.38496e-02,6.52500e-01,-8.37211e-02,5.42715e-01,-1.10889e+00,1.40890e-01,1.56581e-01,
-7.24648e-02,-2.56959e-02,-2.99460e-01,-5.16046e-01,-1.03878e+00,1.47438e+00,5.02506e-01,-3.99732e-02,-6.77871e-01,1.48998e-01,4.89078e-01,1.09670e+00,4.41188e-01,-2.19668e-01,-9.90427e-01,-1.09671e-01,-1.76763e-02,-4.59431e-02,5.48866e-01,-7.40920e-01,4.51459e-01,-1.05075e+00,5.76577e-01,5.35338e-01,7.72777e-01,
1.00064e+00,2.47001e-02,-2.94581e-01,-2.10371e-01,-5.58572e-01,1.31959e+00,7.29469e-01,-1.14109e+00,-8.90143e-01,-3.95480e-01,2.51993e-01,3.27576e-01,-2.24446e-01,-1.39129e+00,2.52901e-01,5.53984e-02,-7.41166e-01,1.05311e+00,-3.37563e-01,2.35264e-01,-8.18463e-01,-6.26510e-01,1.91454e-01,7.39275e-01,-7.45455e-01,
5.04490e-02,1.39851e-01,-1.18044e-02,9.50822e-01,5.83580e-01,2.14156e-01,1.59089e-01,-6.20130e-01,5.30008e-01,1.32311e+00,-1.08515e-01,4.07666e-01,-3.72861e-01,-5.61622e-01,2.60263e-01,2.44525e-01,1.76273e-01,6.33108e-02,-2.11542e-01,-2.27756e+00,7.11778e-02,-4.20195e-01,-5.20711e-02,-3.28934e-01,-3.96928e-01,
5.71434e-01,-1.11901e+00,1.13648e+00,4.94317e-01,6.96903e-01,3.25071e-02,-9.80662e-01,-9.47052e-01,-7.04217e-01,2.32469e-01,1.32852e-01,-8.70674e-02,9.85236e-01,-7.14421e-01,-9.18034e-01,2.51428e-01,5.70478e-01,2.15270e-01,-2.67303e-01,-1.16246e-01,7.66751e-02,1.43190e-01,-3.99519e-01,2.78817e-01,4.37895e-01,
-2.09347e-01,
3.28290e-01,
-9.00086e-02,
1.19707e-01,
-4.88877e-02,
3.25104e-01,
2.23569e-01,
5.24436e-01,
-9.34728e-02,
1.23126e-01,
5.34820e-01,
-7.06120e-01,
6.42915e-02,
2.05256e-01,
1.19461e-01,
1.22079e-02,
2.51661e-02,
5.98089e-01,
4.06616e-01,
-3.28023e-01,
-6.28126e-02,
-1.03313e-01,
5.06030e-02,
-2.70220e-01,
2.13198e-01,
-5.12323e-01,6.91391e-01,9.88718e-02,9.65243e-02,3.15775e-01,-5.22368e-01,6.28212e-01,-9.47271e-02,-8.27181e-01,3.66581e-01,2.42776e-01,3.40831e-01,2.21243e-01,5.83625e-01,-2.16652e-01,-7.07319e-03,-1.99721e-02,-2.87513e-01,4.43845e-01,-2.16192e-03,1.64500e-01,9.59915e-01,-3.74263e-01,-3.99438e-02,4.82093e-01,
2.56433e-01,1.13989e-01,-1.14322e-01,3.67095e-01,-1.40237e-01,2.01348e-01,3.15971e-01,3.32450e-02,-3.41140e-01,1.11664e+00,1.01465e-01,-2.06605e+00,-1.66225e-01,4.78026e-02,-3.67998e-01,-3.71343e+00,-1.06218e-01,-1.05672e+00,1.35025e-01,3.58011e-02,1.11196e-01,-4.73456e-01,7.15636e-01,-5.64197e-02,-5.14268e-01,
-1.39211e-01,-7.12346e-01,-2.14036e-02,2.20085e-02,-2.92069e-01,5.41933e-01,-1.22738e+00,1.55446e-01,-3.18866e-01,-1.67985e-01,1.74736e-01,-1.79094e-01,-1.48490e-01,-6.87746e-01,-2.68462e-01,1.52831e-01,-1.04897e-01,-3.62409e-01,-2.00090e-01,9.17467e-01,-3.00459e-01,8.29542e-01,-7.84066e-01,-7.23695e-01,2.29170e-01,
-6.99324e-01,-3.48298e-02,4.29101e-01,7.66920e-02,-1.19473e+00,-3.29472e-01,1.71329e-01,5.90213e-01,7.78816e-01,-1.44296e-01,1.59979e+00,-1.40010e-03,4.13557e-02,-7.51448e-01,-1.51000e+00,3.07897e-01,-5.85180e-01,-4.10073e-01,2.24785e-01,-3.08804e-01,-7.24315e-01,-8.51466e-02,-1.10189e-01,-1.56302e-01,4.55868e-01,
-4.05609e-01,-4.76224e-01,-2.55443e-01,3.42878e-02,2.33629e-01,6.38922e-01,2.83001e-01,-1.42692e+00,-5.83347e-01,-3.99786e-01,-4.56302e+00,5.86787e-02,-1.78932e-01,7.93233e-01,1.64674e-02,-3.13159e-01,9.25033e-03,5.16349e-01,-3.01267e-01,8.63644e-01,-4.44333e-01,7.86619e-01,-2.56306e-01,-5.25445e-01,2.38597e-01,
4.10996e-02,-2.81915e-01,-8.82020e-01,1.01233e+00,5.28563e-02,7.74574e-01,4.55035e-01,-6.22461e-02,-6.64584e-02,-4.11044e-01,5.25465e-01,-1.21246e-01,3.82515e-02,8.77621e-01,2.87536e-01,2.26878e-01,-4.71643e-01,-9.56039e-01,-4.42083e-01,4.29093e-01,-3.41791e-01,5.86498e-02,-1.95879e-01,-2.24906e-01,5.29723e-01,
5.28042e-01,-9.76976e-02,-9.46333e-01,6.49098e-01,-1.34405e-01,-1.02200e-01,3.59564e-01,1.95635e-01,-1.95138e-01,-5.62479e-01,-1.04986e-02,-1.32170e-01,1.74750e-01,2.88501e-01,-6.45177e-01,-4.72562e-02,-1.92395e-01,-3.67660e-01,3.97792e-01,2.00490e-01,3.15502e-01,4.43666e-01,-2.35017e-02,2.85537e-01,3.18935e-01,
-6.18730e-01,1.03134e+00,-1.36161e+01,1.24774e+00,-1.58030e+00,-2.84976e-02,1.85998e-01,1.54803e+00,1.62249e+00,-1.47036e-01,2.12436e-01,2.69999e-01,9.00478e-02,1.10040e+00,1.18565e+00,-2.43168e+00,4.16766e-01,2.17843e+00,-8.42479e-01,4.83809e-01,-5.38207e-01,1.47391e+00,-1.02011e+00,-3.58514e-01,-7.91188e-01,
5.48983e-02,-4.56973e-01,1.80704e-01,1.37778e-01,6.51924e-02,4.30445e-01,4.91799e-01,1.64309e-01,-3.95112e-01,-2.35124e-01,5.60359e-02,3.48944e-01,9.45854e-02,2.77404e-01,-2.46402e-01,1.44065e-01,-8.11557e-02,-3.33174e-01,-6.07253e-01,-3.16327e-01,-4.18016e-01,2.15524e-01,6.53087e-01,-3.96821e-02,2.67483e-01,
-4.19310e-01,-5.31222e-01,4.56954e-01,3.48042e-01,8.07985e-01,-3.47792e-01,1.34524e+00,-5.51879e-01,5.50931e-01,-5.80055e-01,4.01726e-01,1.12413e+00,2.40244e-01,-3.88028e-02,-2.21437e-01,1.44221e-01,5.36318e-01,-4.03881e-01,-5.64550e-01,1.95392e-01,1.03831e-01,3.52090e-01,3.48345e-01,-5.11425e-01,2.50592e-01,
3.03670e-01,-4.72518e-01,-5.76328e-01,-1.01791e-01,9.12245e-02,-3.81029e-01,-8.48601e-02,1.52055e-01,4.63221e-01,8.04941e-02,-6.45369e-02,4.83537e-01,-1.70467e-01,-1.84919e-01,-3.69905e-01,2.51190e-01,4.67259e-01,-6.22382e-01,-5.40015e-01,2.37301e-01,-9.45353e-01,-2.54861e-01,-2.65784e-01,5.80212e-02,9.42465e-02,
-8.01390e-01,-8.30569e-02,6.24300e-01,1.37649e+00,9.84124e-01,4.14658e-01,1.78561e+00,-3.21587e-01,6.78034e-01,-4.40393e-01,3.79751e-01,-2.30787e+00,-1.96563e-01,-4.03349e-01,1.07153e+00,-5.67312e-01,-8.39927e-01,-1.00563e+00,-2.33897e-01,-4.28161e-01,1.09869e+00,-3.12473e-01,-2.68451e-01,-7.92789e-02,2.13082e-02,
-1.51616e-02,-7.11157e-01,2.05969e+00,6.87020e-01,-3.92860e-01,1.03762e+00,2.64694e-01,-9.55706e-02,1.08752e+00,-1.35286e+00,5.06146e-01,-2.12920e-01,2.60409e-01,-1.91521e-01,-3.11537e-01,5.61517e-01,3.42232e-01,-1.09201e+00,-8.17681e-02,1.05214e-01,-4.41580e-02,-3.29036e-01,-1.24978e+00,-3.10907e-01,5.27363e-02,
4.99689e-01,-9.29201e-01,3.96242e-01,1.53712e-01,3.89205e-01,-3.19543e-01,-3.87567e-01,4.68063e-01,1.76697e-01,-6.15584e-02,-2.43797e-01,8.99703e-02,-2.56361e-01,4.26540e-01,-4.09557e-01,1.85073e-01,1.79457e-01,-7.06009e-01,-9.82735e-02,4.18922e-01,-2.29119e-02,-4.00726e-01,1.25171e-01,4.51868e-01,2.58588e-01,
2.18802e-01,-1.11082e+00,-2.62326e-01,1.41340e-01,-3.63055e-01,-1.42757e-03,-1.44641e-01,1.07263e-01,1.61979e-01,1.30677e-02,-2.58301e-02,-3.94037e-01,-6.71235e-02,1.06826e-01,1.04937e+00,1.54656e-01,-1.12638e+00,-2.57401e-01,-4.45457e-01,1.43186e+00,3.94180e-01,-9.98578e-01,-4.88400e-01,8.99784e-01,6.14311e-01,
1.20453e-01,-3.09320e-01,4.59851e-02,-1.93025e-02,-1.83690e-02,5.14011e-02,-5.94756e-01,1.95452e-01,5.93584e-01,-3.10588e-01,2.60066e-01,-5.84690e-02,2.19091e-01,-1.71012e-01,-2.12330e-02,2.77120e-01,-8.51763e-01,-2.13346e-01,5.43150e-01,2.90801e-01,1.80556e-01,-9.20856e-01,-7.15399e-01,3.75358e-01,3.77826e-01,
1.03459e-01,-3.70601e-01,3.40351e-01,-4.48508e-01,-5.99543e-01,-4.45267e-02,-5.97601e-01,4.13795e-01,-5.16553e-01,-2.40215e-01,-1.38553e-01,-3.54261e-01,-1.17086e-01,4.28136e-01,5.13509e-01,1.77858e-01,-4.09523e-01,-5.74637e-02,-1.85327e-01,1.14212e+00,2.53376e-01,-5.35006e-01,-1.29206e+00,5.18665e-01,1.71415e-01,
-1.46869e-02,-1.82864e-01,-9.73714e-02,2.62355e-02,1.74314e-01,-3.59119e-01,2.27834e-01,-3.39594e-01,2.14791e-01,-2.98602e-01,-1.44552e-01,2.35188e-01,1.24412e-01,-2.17943e-01,-1.61723e-01,-3.44937e-01,-8.64753e-02,-1.43871e-01,-9.91055e-02,5.86318e-03,-9.78735e-02,5.45426e-02,1.23335e-01,-2.55788e-01,-2.61457e-01,
1.77360e-01,-2.63532e-01,2.85272e-01,-2.36670e-01,2.61137e-03,1.94855e-01,2.34092e-01,1.21056e-01,5.01896e-01,8.71756e-02,1.13760e-02,1.20184e+00,-2.71211e-01,-1.51711e-01,8.51904e-01,8.99951e-02,8.58613e-02,-3.91702e-01,-8.86850e-01,4.36595e-01,1.39555e-01,2.83737e-01,2.31809e-01,-2.11137e-02,4.56962e-01,
-3.68615e-01,-2.80246e-01,-1.75552e-01,2.61717e-01,1.08028e+00,7.43446e-01,1.12612e+00,-8.58206e-02,-4.62669e-01,8.08878e-02,-9.56488e-01,2.31881e-01,-7.48809e-02,-4.28083e+00,4.41060e-02,1.51118e-01,-4.92295e-02,-3.53162e-01,3.87903e-02,1.16386e-01,2.74468e-01,6.36612e-01,-1.35783e-01,-3.39140e-01,2.80051e-01,
2.62203e-03,-1.19258e-01,-2.09004e-01,1.24027e+00,1.73597e-01,-7.11254e-01,7.00489e-01,3.05752e-01,-9.25536e-01,-4.12156e-01,-3.59235e-03,-4.20291e-01,1.52212e-01,-1.97650e-01,4.12078e-01,-1.44769e-01,-8.58532e-01,-2.13812e-01,1.68434e-01,-8.28950e-02,1.14483e+00,2.19213e-01,6.87952e-01,3.69850e-01,4.22965e-01,
-7.05019e-01,-6.44746e-01,4.17293e-02,1.86631e-01,-8.31054e-04,1.15473e+00,-2.45060e-01,-1.72969e-01,3.63617e-02,3.40268e-01,5.95892e-02,8.97187e-01,-2.14879e-01,1.51128e-01,3.48766e-01,1.53362e-01,-9.84450e-02,-5.36020e-01,-6.10749e-01,-7.62550e-02,2.32999e-01,7.06348e-01,1.76603e-01,-3.67089e-01,3.29637e-01,
-6.14659e-01,-1.04683e+00,1.81528e-01,-6.04751e-01,2.66227e-01,3.47114e-01,6.30610e-01,1.10111e+00,5.34523e-01,2.79025e-02,-3.78441e-01,-9.59620e-02,1.96236e-01,1.59538e-01,1.55609e-01,2.09875e-01,9.87951e-02,3.50926e-02,3.64009e-02,6.03200e-01,-2.67346e-01,-7.28286e-01,-4.33249e-01,2.50826e-01,-1.43572e-01,
1.35710e+00,-2.85299e-01,-1.12201e+00,6.75687e-01,1.19209e-01,4.57731e-01,5.83848e-01,2.39952e-01,4.05632e-02,-9.84784e-01,-1.23024e-01,7.55366e-02,1.01364e-01,1.52961e+00,-1.34858e+00,1.07933e-01,-3.89245e-02,-2.18359e-01,4.05038e-01,1.08178e-01,-7.40759e-02,8.68287e-02,-4.34204e-01,1.37698e-01,3.71651e-02,
-2.60479e-01,1.16237e-01,-5.70236e-01,-4.76281e-01,1.00453e-02,-2.81653e-02,-2.00956e+00,-6.24016e-01,-4.52067e-01,1.14943e-01,-1.29042e+00,3.05057e-01,3.11472e-01,-4.02362e-01,-4.98796e-01,2.99597e-01,4.99850e-01,-4.21664e-01,4.19079e-01,7.81815e-01,-8.39507e-01,3.02252e-02,4.38761e-01,2.93963e-01,5.11511e-02,
-4.82913e-01,
1.98640e-01,
7.09342e-01,
9.84473e-01,
6.23655e-01,
7.17895e-01,
2.80975e-01,
-5.15723e-01,
9.74940e-01,
4.24112e-01,
9.35773e-01,
8.65298e-02,
-1.73955e-01,
2.45686e-01,
-8.46624e-02,
-3.72804e-01,
5.80656e-01,
-1.76039e-01,
1.69793e-01,
-3.96834e-01,
1.05470e-01,
3.42004e-01,
3.44815e-01,
5.79049e-01,
4.54901e-01,
-3.26207e-01,2.77599e-01,2.67408e-01,8.47505e-02,4.11489e-03,2.31426e-01,-2.67963e-01,-3.41171e-01,1.16469e-01,1.90415e-02,2.12312e-01,-1.04604e-01,2.04021e-01,-2.01792e-01,-2.66049e-03,-2.55910e-01,-3.20057e-02,1.15640e-01,-3.17996e-01,-1.28896e-02,-3.89730e-01,-3.55098e-01,-1.62843e-01,1.14050e-01,-8.80166e-02,
4.00210e-01,-1.56521e-01,-8.79308e-02,8.25045e-02,1.75978e-01,2.20163e-01,-1.45382e-01,-5.70987e-02,3.90311e-01,4.03618e-02,-5.83163e-01,-1.49602e-01,-2.54272e-01,1.55270e-01,-9.25210e-02,-1.65671e-02,-2.43808e-01,1.91185e-01,2.00037e-01,-8.04137e-02,-1.15399e-01,-1.79367e-01,-3.24813e-01,-4.39908e-02,-1.59092e-01,
-6.20650e-02,1.44289e-01,-5.50206e-02,-5.35128e-02,9.40969e-02,2.56117e-02,2.64533e-01,-2.51628e-01,-7.98216e-02,-6.67263e-02,1.27429e-01,3.15885e-01,-2.96360e-01,1.75534e-01,-2.67587e-01,1.04168e-01,-2.57159e-01,-5.81726e-03,3.30161e-02,-2.52502e-01,-2.95627e-01,-3.05641e-01,-1.35640e-02,-1.48354e-01,-2.48818e-01,
5.13968e-01,-7.94659e-01,-2.47729e-01,-9.06809e-03,-5.55626e-01,-7.69225e-02,-3.55412e-01,-1.07225e-02,-1.19022e-02,5.51525e-01,5.01636e-04,-3.45460e-01,-5.60977e-02,6.84067e-02,5.29407e-02,1.97910e-02,9.18645e-02,2.48931e-01,-4.06119e-01,1.60554e-01,-1.83382e-01,-2.57066e-01,3.35451e-02,3.41491e-01,-6.69478e-01,
2.46656e-01,1.30285e-01,6.73379e-02,5.37455e-02,-1.62137e-01,7.22943e-02,-8.33873e-01,1.93897e-01,-1.56688e-01,6.81160e-02,-4.23368e-02,-4.82340e-01,4.30835e-01,4.47590e-01,6.00008e-02,-2.79813e-01,-1.58258e-01,-1.23660e-01,-3.32173e-01,-3.98028e-01,2.93555e-01,1.88247e-01,-2.74718e-02,5.75560e-01,3.39177e-01,
9.78350e-03,1.57087e+00,-1.37076e-01,5.39855e-01,-2.38477e-01,-1.64055e-01,1.32647e+00,-2.08753e-01,-4.30869e-01,-2.30166e-01,2.52355e-01,-1.17491e+00,1.31974e-01,2.23636e-01,3.43429e-01,-6.22883e-01,3.53248e-01,2.46911e-01,1.16048e-01,5.91816e-01,-1.43187e-01,-6.03072e-03,-2.42537e-01,-6.84586e-01,-1.50528e-01,
-1.15389e-01,-2.28888e+00,4.32181e-01,-5.39106e-01,-3.16701e-01,2.71893e-01,-1.01571e+00,-1.01919e+00,1.26823e-01,-3.18468e-01,-1.39003e-01,-1.65082e+00,3.80209e-01,-1.96838e-01,-2.67833e-01,5.60012e-01,-5.35204e-01,-1.00875e-01,3.12311e-01,-7.89741e-02,4.94527e-01,-2.42971e-01,-2.97761e-01,3.63078e-01,3.42577e-01,
1.90621e-01,3.24317e-01,-3.49456e-01,-7.92082e-02,-2.51820e-02,1.83303e-01,-1.08051e+00,-1.30100e-01,5.38791e-01,-3.26408e-01,9.88400e-02,6.74375e-01,-6.51843e-02,2.29892e-01,8.65638e-02,2.00055e-01,-1.24094e-01,2.52062e-02,6.23664e-02,-4.23895e-01,-6.68837e-01,-3.37360e-01,-1.00036e-01,5.10686e-01,-2.34197e-01,
2.42580e-02,1.13849e-01,-2.91843e-01,5.52231e-01,5.21032e-01,1.83795e-02,7.52766e-01,-2.05926e-01,2.28979e-01,-4.02395e-01,1.21656e-01,-2.89193e-01,6.94397e-01,7.99541e-01,9.27657e-02,7.91401e-02,7.47935e-02,-1.52626e-01,-4.49677e-01,2.22044e-01,-5.49833e-01,1.47156e-01,-1.96379e-01,-3.76869e-01,5.92946e-02,
1.61663e-01,-1.26710e-02,-3.12234e-01,1.98683e-01,2.40129e-01,-2.74393e-01,-3.77325e-02,-2.25942e-02,-8.16623e-02,-3.43411e-01,1.37536e-02,6.42662e-01,-9.14481e-02,5.91362e-01,7.76502e-01,4.92803e-02,1.07923e-01,3.01213e-01,4.14842e-01,7.37598e-02,2.79369e-01,-4.62715e-01,-2.14404e-01,-4.70668e-02,-4.96950e-02,
1.51625e-01,2.48809e-01,7.13219e-02,-2.06932e-02,8.65935e-02,-1.91163e-01,1.14548e-01,3.79426e-02,4.60254e-03,-9.72655e-02,-1.24512e-01,-2.74878e-01,-1.34828e-01,-1.69168e-01,2.05120e-02,-2.01734e-01,-1.03977e-01,4.38061e-02,-2.61882e-01,-1.92400e-01,-2.56075e-01,1.50773e-01,-2.03466e-01,-3.65412e-01,-2.33689e-01,
6.58683e-01,-1.91774e-01,-4.26595e-01,2.96372e-01,-4.19241e-01,-1.70260e-01,-3.40244e-01,-1.35026e-02,-2.25474e-01,-1.17585e+00,-3.71163e-01,1.96429e-01,2.53930e-01,5.81274e-02,8.26880e-01,3.89299e-01,2.62818e-01,-3.35800e-01,-2.11046e-01,4.51051e-03,6.59040e-01,-1.77302e-01,9.06339e-02,2.79015e-01,8.08084e-02,
4.21729e-01,7.17907e-02,-6.30857e-02,-3.72359e-01,4.01042e-01,4.36008e-01,2.59544e-01,1.44368e-01,4.61139e-01,-3.42440e-02,3.71977e-01,-6.18554e-01,1.35421e-01,-1.74451e-01,-5.80274e-02,1.79907e-01,1.91524e-01,2.63846e-01,-2.57260e-01,-4.75594e-01,-1.32322e-01,3.88085e-01,-7.65299e-02,-3.97263e-01,-3.94506e-01,
-2.20685e-01,-3.13979e-01,-2.76349e-01,-1.37363e-01,2.80780e-01,1.46461e-01,5.26286e-01,4.41658e-01,-4.35823e-01,3.47667e-02,6.76359e-01,-1.28136e-01,1.74155e-01,-2.08382e-01,4.81038e-02,1.85642e-01,7.56027e-02,6.34287e-02,-1.83922e-01,-2.82886e-02,-2.57244e-01,-4.40603e-01,4.11524e-02,-4.94562e-01,-2.03539e-01,
7.55189e-01,7.72571e-01,5.48206e-01,-1.31405e+00,-1.75251e-01,5.48999e-01,6.29671e-01,-1.58602e-01,2.96570e-01,-1.36181e-01,-4.37934e-01,-3.37535e-02,2.13883e-01,7.28411e-02,4.60642e-02,3.80907e-01,-2.09780e-01,1.36527e-01,2.56171e-01,-1.37465e+00,-4.30063e-01,1.41316e-01,6.74429e-01,-6.84626e-01,-3.79283e-01,
2.14361e-01,-4.41215e-01,-8.86367e-02,4.34525e-02,-9.50883e-02,1.26565e-01,1.63216e-01,-8.64543e-03,-3.14937e-01,3.75811e-02,-2.24555e-01,-5.00853e-01,4.42991e-01,2.18626e-01,2.45976e-01,5.57099e-01,-4.43717e-01,1.32655e-01,9.93381e-02,-1.18515e-01,-3.67569e-03,-3.36905e-01,1.81368e-01,-7.76006e-02,1.95406e-01,
-3.92125e-01,1.04829e+00,7.75020e-01,-1.39563e-01,-1.34173e-01,-5.37849e-01,9.47442e-01,1.73016e-01,-4.77176e-01,-1.55366e+00,-2.34597e-01,6.17254e-01,-1.06058e-01,-6.06388e-01,1.09177e-01,1.30506e-01,4.94019e-01,-7.51815e-02,-5.83540e-01,1.02282e-01,2.97470e-01,5.01449e-01,2.04135e-01,-5.06393e-01,-7.60611e-02,
3.11961e-01,-5.18119e-01,-4.08287e-01,2.69201e-01,-2.44870e-01,1.06833e-01,-4.36953e-01,-1.23259e-02,-4.05192e-01,-4.81841e-01,9.58515e-01,-4.80200e+00,3.96769e-01,1.29053e-01,1.91560e+00,-3.04902e-01,-1.83955e+00,-2.30358e-01,6.33757e-01,2.24393e-01,-1.34986e-01,-6.21047e-01,-7.62860e-01,-3.24962e-01,6.03892e-02,
6.29141e-01,-1.77167e-01,-1.55800e-01,8.86896e-03,2.01353e-02,2.14392e-01,-3.36537e-01,-1.99609e-01,-1.11569e-01,-4.90325e-02,1.79274e-01,-1.58379e-01,4.22755e-01,5.07601e-01,6.08273e-01,3.10864e-01,7.30196e-02,-1.84223e-01,-6.39942e-02,-1.89525e-01,1.03691e-01,-1.67527e-01,-1.39675e-01,1.18413e-01,-1.21108e-01,
-1.72356e-01,-1.68628e+00,1.25036e-01,-4.06618e-01,-1.15967e-01,8.07440e-01,-7.09843e-01,7.89810e-01,4.65789e-01,3.08887e-02,7.04922e-02,-7.58028e-01,1.62334e+00,-1.35698e+00,-2.73070e-01,2.95900e-01,5.38547e-01,1.44600e-01,5.66648e-01,1.88415e-01,1.24610e-01,-2.75784e-01,-3.93751e-01,-2.63707e-01,2.54995e-01,
2.86121e-01,-5.85851e-01,3.41938e-01,-6.96408e-01,7.75157e-01,-1.07535e+00,-6.53467e-02,5.45779e-02,-2.71596e-01,-3.10296e-01,-1.49969e-01,-2.03855e+00,-6.53925e-03,6.63961e-01,1.61792e-01,4.32005e-01,-1.05076e+00,1.61167e-01,-1.17635e-01,6.02915e-01,5.09252e-01,3.82503e-01,2.97432e-01,-1.97849e+00,-1.74773e-01,
1.85252e-01,1.62524e-01,1.06666e-03,3.56676e-01,-8.19864e-01,-8.99605e-02,2.86238e-01,-4.53977e-01,-5.46556e-01,-8.50068e-01,-3.17964e-01,4.11851e-02,2.29389e-01,3.12257e-01,4.14034e-01,1.42044e-01,-4.32953e-03,7.01962e-02,-9.73860e-01,-1.02827e-02,3.37190e-01,-7.59656e-02,1.50661e-01,-1.85753e-01,1.76101e-01,
3.86020e-01,3.02017e-01,4.29894e-01,-1.20764e-02,-2.06145e-01,-1.67706e-01,-2.58503e-02,1.36005e-01,-8.40847e-01,-1.96593e-01,-4.45757e-01,-1.04838e-01,2.30516e-01,1.71971e-02,3.38157e-01,5.17667e-01,9.89402e-03,1.21279e-01,-5.50268e-01,-4.34712e-02,5.04004e-01,4.07853e-01,3.78317e-01,2.08209e-01,2.90696e-02,
2.28389e-01,-7.08738e-02,1.57957e-02,1.21249e-01,5.07838e-01,-1.41381e-01,6.07191e-03,2.94582e-01,4.36585e-01,-2.58364e-01,-1.62447e-01,-4.25704e-01,3.00074e-01,4.01225e-01,3.48135e-01,-1.75212e-01,2.10033e-01,2.54649e-02,1.93960e-01,6.64862e-02,-1.26481e-01,-6.93737e-01,-6.99053e-01,-9.46527e-02,2.26259e-01,
7.71006e-02,1.31737e+00,3.12198e-01,3.63857e-02,-5.54101e-01,5.16566e-01,-3.48763e-01,1.30112e-01,-4.71847e-01,6.12867e-01,-2.79905e-01,-3.60599e-01,4.75392e-01,-6.07692e-01,1.53111e-01,2.46175e-01,-8.38529e-02,7.35970e-02,3.58336e-01,2.92484e-01,5.29994e-01,-3.05467e-01,1.49948e-01,-5.44867e-02,8.99621e-02,
-3.85530e-01,
4.62238e-01,
-3.51427e-01,
3.47419e-01,
1.70741e-02,
-1.32102e-01,
9.23422e-01,
4.50779e-01,
-2.15721e-01,
2.89589e-01,
2.06931e-02,
-1.84486e-01,
3.16107e-01,
9.08088e-01,
6.89840e-01,
4.72484e-01,
-2.06693e-01,
-1.96465e-01,
4.02347e-02,
-4.51851e-02,
-2.11497e-01,
-5.26417e-02,
-4.83527e-01,
2.13588e-01,
-6.50979e-02,
8.47170e-02,4.20765e-01,9.91320e-02,-5.13980e-02,-2.10489e-01,1.00771e-01,-1.42118e-01,5.92255e-02,-1.65818e-01,-3.18881e-01,1.92171e-01,8.86689e-04,-4.05049e-01,2.95339e-01,8.92413e-02,-9.94674e-02,-3.71279e-01,1.13690e-01,-5.86950e-02,-2.76313e-01,-9.14633e-02,1.74093e-01,3.27254e-01,1.26053e-01,-3.20324e-02,
-5.25845e-02,-1.83166e-01,-1.83270e-01,-3.12352e-01,7.20157e-02,-1.15695e-01,-3.83000e-02,-1.35461e-01,-7.73167e-02,1.20158e-01,2.96806e-01,1.12367e-01,-4.75690e-02,-3.32325e-02,-1.99264e-01,-2.89213e-01,-2.42848e-01,2.98676e-01,-3.45597e-01,-1.74088e-01,-4.69446e-02,-3.26283e-01,2.68360e-01,2.02694e-01,1.77095e-01,
1.80538e-01,4.23713e-01,1.40300e-01,3.87615e-02,-2.65364e-01,-3.02292e-01,4.28579e-02,-8.21944e-03,3.57845e-01,-5.05059e-01,-2.45087e-01,4.22649e-01,-1.19251e-01,-1.15427e-01,4.10777e-01,-2.64731e-01,1.65291e-01,-2.07665e+01,-1.63532e-01,-2.02061e-01,-5.08096e-02,1.08975e-01,5.81584e-01,-1.80631e-01,-1.65349e-01,
-2.76226e-01,-3.32404e-01,-4.42342e-02,1.38186e-01,-9.56423e-04,-5.89480e-02,4.03924e-02,7.12915e-02,-9.49723e-02,2.29704e-01,3.20862e-01,-5.18361e-01,1.29136e-02,-3.26135e-01,9.16817e-02,1.01398e-01,1.63708e-01,-2.04013e-01,3.57563e-01,9.16017e-02,7.51409e-02,4.85173e-01,-5.07322e-01,1.41225e-01,6.88961e-02,
-1.93316e-01,2.03621e-01,2.37221e-01,1.06979e-01,-1.41575e-01,2.82545e-02,-1.10439e-01,-8.51423e-02,5.98107e-02,1.23212e-01,-8.92070e-02,-2.91402e-01,1.10872e-01,6.23123e-03,-4.59056e-02,2.11216e-01,4.68293e-02,7.96181e-02,1.35440e-02,-6.99542e-02,9.87861e-01,-1.93739e-01,1.96553e-01,2.21469e-01,2.05311e-01,
-6.75763e-02,3.64882e-02,1.93292e-01,1.07390e-01,1.54846e-01,1.30010e-03,1.10584e-02,-4.51103e-01,-3.53071e-01,-2.77168e-01,-2.07154e-01,-2.07728e-01,-2.07016e-01,-3.90991e-01,-4.99481e-02,-1.38385e-01,-1.04167e-01,-2.30888e-01,-1.48601e-01,-1.02923e-01,-1.78865e-01,2.07842e-01,1.73783e-01,-2.53064e-01,1.46473e-02,
2.13059e-01,1.48667e-01,2.89077e-01,4.23589e-04,-1.31040e-01,-2.48010e-01,-7.33528e-02,-4.17466e-02,-7.42901e-02,-2.95558e-02,2.49992e-01,-2.48379e-01,-3.44625e-02,-4.89813e-02,-6.37976e-03,1.33474e-01,-1.68996e-01,1.50237e-01,-5.39622e-02,-9.00938e-02,4.95333e-01,1.57537e-01,1.83341e-01,2.92221e-01,1.28280e-01,
2.33307e-02,-5.07157e-02,8.39254e-03,1.35925e-01,-3.67675e-01,-1.59564e-01,2.38692e-02,-4.07164e-02,1.08721e-01,-2.55386e-02,-2.35827e-01,-2.75919e-01,-2.26458e-01,-1.93865e-01,-2.91639e-01,-5.08684e-02,-1.99181e-02,4.02998e-02,1.85240e-01,-5.14490e-02,3.78467e-02,7.14707e-01,-3.17286e-01,5.83215e-02,-1.47472e-01,
-3.11526e-02,-4.21380e-01,-2.83627e-01,1.12397e-01,1.52887e-01,1.38722e-01,1.64209e-02,-9.00369e-02,2.33796e-01,4.35695e-01,3.21757e-01,-1.34953e-01,1.20951e-01,-3.13291e-01,-6.47362e-02,1.75226e-01,2.52528e-01,-4.47418e-01,2.74593e-01,3.44065e-01,9.77074e-02,-5.21615e-01,-5.05428e-01,-2.98043e-03,5.90841e-02,
-1.91020e-01,9.85732e-02,2.86587e-01,-4.67796e-02,5.87609e-02,-1.13120e-01,-1.94150e-02,2.83877e-01,5.04532e-02,-4.05493e-01,1.63631e-01,5.34571e-01,4.22511e-01,-3.88513e-01,-1.85841e-01,3.00903e-01,4.94254e-01,-3.52194e-01,3.74416e-01,-1.47838e-01,-4.50611e+00,-4.04189e-01,-1.96589e-01,-3.84658e-01,-1.10075e-01,
-4.30912e-02,-1.43358e-01,-2.27349e-01,6.58985e-02,-8.66217e-02,-1.97119e-01,-4.33949e-01,1.19151e-01,9.32220e-02,-2.64696e-01,1.17740e-01,4.24274e-02,-2.28169e-01,-3.65405e-01,2.05789e-02,-4.03147e-01,2.78459e-01,-2.01027e-01,-2.81066e-01,4.76084e-02,2.56403e-01,1.76693e-01,2.66297e-02,2.72012e-01,-2.37071e-01,
1.70767e-01,-2.53747e-01,1.86138e-01,1.35073e-01,-3.22708e-01,2.83671e-01,1.62540e-02,-1.06735e-01,2.47722e-02,-1.84178e-01,-2.38838e-01,2.80630e-01,1.09399e-01,1.59475e-01,9.71552e-02,-1.03188e-01,1.27184e-01,-1.55006e-01,-1.25549e-01,-3.43581e-01,-2.51359e-02,-3.20339e-01,7.47131e-02,-2.01555e-02,-2.11565e-01,
1.13227e-01,-7.72587e-01,-5.08425e-02,2.22438e-01,-1.23939e-01,2.54577e-01,2.40603e-01,-3.77862e-01,6.93142e-01,1.01408e-01,2.90261e-01,4.19643e-01,1.23343e-01,-8.82419e-02,2.42212e-01,-2.71899e-01,-3.94636e-02,-5.79582e-01,-5.34659e-01,8.85302e-02,1.87547e-01,-5.93183e-01,1.06320e-01,-1.59022e-01,-1.23652e-01,
-1.13315e-01,2.47230e-01,2.43903e-01,-1.50955e-01,-1.15427e-01,-1.44324e-02,-2.83941e-02,8.75984e-02,-2.27748e-01,-2.19314e-01,1.40175e-01,-1.81565e-02,6.40550e-02,2.86305e-01,-2.83551e-03,6.76918e-02,-1.44362e-01,3.55099e-01,-1.38285e-01,-2.54587e-01,1.09682e-01,1.42795e-01,4.64827e-01,-3.40845e-02,-1.82490e-02,
-3.19954e-01,-6.40895e-02,-3.34476e-01,-1.89482e-01,1.56845e-01,8.46808e-02,1.94628e-02,8.50161e-02,-1.58129e-01,-1.63993e-01,3.03655e-01,1.91874e-01,-1.53350e-01,-1.74912e-01,1.70686e-02,9.30808e-02,-1.43748e-01,1.00123e-01,-1.11702e-01,-1.03143e-02,-2.20366e-01,-1.69587e-01,2.02176e-01,-4.27947e-01,-7.25546e-01,
2.18512e-01,-2.07893e-01,-2.65255e-01,2.12589e-01,-8.24914e-03,-3.70116e-02,-4.70995e+00,9.73845e-02,-1.26575e-01,-6.70475e-03,2.53192e-01,-4.12326e-01,1.22677e-01,-1.82643e-01,-1.10600e-01,-2.73956e-03,9.80756e-02,-2.87818e+01,1.60744e-01,-9.67910e-02,-1.14499e+01,6.98004e-01,-3.41106e-01,1.96209e-01,1.68978e-01,
1.07868e-01,-2.03150e-01,6.75863e-02,1.20514e-01,1.48382e-01,-7.51049e-03,4.22761e-02,-1.92129e-01,-2.16368e-01,-2.48865e-01,-2.97358e-01,-6.28642e-02,6.08943e-02,-2.23199e-01,2.54900e-01,-7.25807e-02,1.83908e-02,-7.82435e-02,-3.67648e-01,1.57489e-01,-8.27112e-04,2.75310e-01,-3.54186e-02,7.70567e-02,1.65685e-01,
1.81074e-02,1.25659e-01,-3.14014e-01,-4.15600e-02,-1.29395e-01,1.96866e-01,8.93862e-02,-3.36768e-01,-6.19782e-02,-5.67962e-01,1.77729e-01,5.97021e-02,-9.40537e-02,9.85543e-02,2.14649e-01,-2.19539e-01,2.01191e-01,4.65013e-01,-4.50562e-01,4.82258e-02,-4.46501e-02,-2.22277e-01,4.32094e-01,9.56408e-03,-3.83696e-01,
-2.10382e-01,-8.19302e-02,1.90375e-01,-3.01788e-02,-1.43170e-01,9.81340e-02,2.54942e-01,-1.15231e-01,1.21254e-01,-2.09089e-01,1.55203e-01,-8.23018e-02,1.54236e-01,-1.82951e-02,1.79516e-01,1.63869e-01,1.09310e-01,1.12229e-01,-4.60371e-01,2.06304e-01,2.86685e-02,8.39354e-04,2.45494e-01,-2.03335e-01,-2.99140e-01,
1.56436e-01,1.41270e-01,-5.21876e-02,-3.00310e-01,1.13120e-01,-1.52036e-01,1.68838e-01,4.88752e-01,5.14167e-02,-2.87684e-01,-1.72858e-01,7.42928e-01,2.77448e-01,-1.26068e-01,-2.97108e-01,-2.35674e-01,2.51801e-01,8.46852e-02,1.72063e-01,-3.99067e-01,3.98825e-01,-6.16161e-02,-2.36781e-01,-6.04420e-01,-1.84971e-01,
-1.77444e-01,-4.28479e-01,-3.09301e-01,1.61533e-01,-3.54426e-01,1.03960e-01,3.46513e-01,-2.93089e-01,-4.56432e-02,-1.34125e-01,-2.68080e-01,-2.44619e-01,-1.14836e-01,-3.84818e-02,3.87628e-04,-3.85083e-01,-2.03069e-01,1.71819e-01,-2.68560e-02,-8.27238e-02,2.96242e-01,-1.96584e-01,1.50864e-01,-4.09798e-01,6.51694e-02,
-1.85241e-01,1.02716e-01,-8.36767e-02,-5.60860e-02,-5.71164e-02,1.62672e-01,-1.95882e-01,-5.42720e-02,8.06678e-02,-1.29293e-01,5.22351e-02,1.21228e-01,-1.76813e-01,-1.05106e-01,3.14442e-01,3.56648e-02,4.47616e-02,-5.21739e-02,7.50049e-02,6.09084e-02,-3.64977e-02,-6.82320e-01,4.55461e-01,6.24259e-02,-2.02816e-01,
8.96260e-02,-1.30739e-01,-6.65470e-02,7.43842e-02,-1.41799e-01,2.79913e-01,-3.90160e-01,7.81532e-02,-4.19442e-01,1.46451e-01,-4.12162e-02,1.76277e-01,2.50462e-01,1.02803e-01,-2.23526e-02,1.19383e-01,2.07410e-01,-3.21678e-01,-4.50736e-01,7.43066e-02,2.14915e-01,-2.70469e-01,7.67788e-02,-1.63765e-01,3.49647e-01,
2.84623e-01,-4.27646e-01,-7.52731e-02,-3.38364e-01,-2.01431e-01,-1.94731e-01,-2.14208e-01,-6.76203e-02,-3.13514e-01,1.55522e-01,1.16825e-02,-3.30084e-01,1.21928e-01,1.86433e-01,-1.39696e-01,-3.25922e-02,-2.80090e-02,-1.07801e-01,-2.17999e-01,1.05847e-01,-2.60207e-01,-1.03525e-01,1.47072e-01,-3.97798e-03,-3.55134e-01,
-4.51157e-02,2.48007e-02,-2.76033e-01,8.11319e-02,-1.57532e-01,-1.91905e-01,-1.00187e-01,-9.73597e-02,1.19320e-01,3.08532e-02,-2.06951e-01,1.01473e-01,-2.25254e-03,-7.29988e-02,1.91307e-01,-4.95517e-03,3.07866e-01,-1.46582e-01,-3.97084e-01,1.38004e-01,4.55026e-01,-3.60144e-01,2.34618e-01,-1.30714e-02,-3.85856e-01,
2.83933e-01,
-3.01128e-01,
4.57559e-02,
1.57369e-01,
3.12955e-02,
-5.91659e-02,
-3.20762e-03,
3.16323e-01,
1.95289e-01,
-1.70699e-02,
-4.11709e-02,
-3.19406e-01,
-1.92532e-01,
3.20482e-01,
-3.55410e-01,
1.54702e-01,
-4.13492e-01,
-3.49937e-01,
-4.30922e-01,
-4.88411e-02,
-3.95848e-01,
1.87214e-01,
-8.21533e-01,
-2.14011e-01,
-3.36482e-01,
-6.75557e-02,-2.40930e-01,-2.84152e-02,-4.14749e-02,5.20162e-02,-3.56053e-01,-4.69901e-02,-8.26473e-03,-1.57481e-01,-5.07534e-03,-2.70773e-01,-9.64909e-02,2.39856e-02,-1.04212e-01,6.68521e-02,3.34083e-02,-1.68630e-01,-4.29673e-01,-3.99973e-01,-5.28305e-03,-3.10421e-01,2.93827e-02,-2.74930e-01,2.08995e-01,-8.62114e-01,
-4.98471e-02,4.74642e-01,-4.13816e-02,-6.70945e-02,2.54615e-02,3.32853e-02,-1.86844e-04,1.24814e-01,-1.26912e-01,6.51800e-03,6.52144e-01,8.34912e-01,3.95380e-02,-1.21307e-01,4.15700e-01,-6.55168e-02,3.31077e-01,1.15758e+00,6.31044e-01,-1.28677e-02,3.28409e-01,-8.44246e-02,8.65362e-01,-3.46938e-01,6.62153e-01,
-4.52667e-02,6.97858e-01,-1.79575e-02,-5.27539e-02,-1.68295e-01,6.52944e-01,2.78091e-01,-1.01018e-02,-8.99867e-02,-8.30674e-03,8.41430e-01,4.12850e-01,-4.17945e-02,-1.02591e-01,-3.10793e-02,-3.23221e-03,5.26679e-01,1.27497e+00,9.77606e-01,-1.68999e-02,1.73737e+00,1.56206e-02,9.20905e-01,1.44816e-01,1.62780e+00,
-3.78897e-02,5.11923e-01,-1.91374e-02,1.05791e-01,9.27096e-03,-1.06297e-01,-5.54119e-03,-3.71292e-02,-1.97570e-01,-4.08283e-04,1.25480e+00,7.18445e-01,8.92691e-02,-1.20351e-01,2.55666e-01,-2.26173e-01,3.15439e-01,1.97716e+00,1.06968e+00,1.35871e-02,1.23240e-01,-7.67445e-02,8.40515e-01,-1.87889e-01,2.00058e+00,
-2.92968e-02,4.47121e-01,-4.38170e-02,-8.77712e-02,-1.12724e-01,4.49946e-01,2.06972e-01,4.82772e-02,-7.60839e-02,1.28465e-01,6.31101e-01,7.91810e-01,1.53227e-02,-7.69407e-02,2.23772e-01,2.30398e-02,5.57931e-01,1.59177e+00,1.22738e+00,-1.01108e-01,1.29099e+00,-1.09874e-02,7.05096e-01,3.01135e-04,2.13791e+00,
-4.59706e-02,5.36497e-01,-2.28210e-02,-1.00440e-02,1.32353e-02,1.54063e-01,7.04494e-03,3.30513e-02,-1.48895e-01,1.63745e-02,9.22501e-01,5.13574e-01,6.37711e-02,-1.05311e-01,2.92975e-01,-1.10969e-01,3.05498e-01,1.28745e+00,6.86102e-01,-7.23624e-03,5.52783e-01,-7.54936e-02,5.43853e-01,1.64723e-01,9.10067e-01,
-4.85569e-02,2.50353e-01,-2.99984e-02,-5.13014e-02,-1.06709e-01,5.17295e-01,1.87983e-01,4.34085e-03,-1.06926e-01,4.56282e-02,7.68384e-01,6.37535e-01,6.30097e-03,-8.72292e-02,1.74953e-01,8.82064e-03,4.41670e-01,1.10930e+00,9.59246e-01,-5.14513e-02,1.09513e+00,-2.02765e-03,7.40768e-01,3.22634e-01,1.35354e+00,
-4.40516e-02,5.22593e-01,-1.85336e-02,1.06803e-02,2.18655e-02,1.45965e-01,-1.41390e-02,1.87398e-02,-1.65057e-01,1.49150e-02,8.63892e-01,5.13621e-01,1.30784e-02,-1.08614e-01,1.61307e-01,-1.27116e-01,3.44005e-01,1.40455e+00,8.89719e-01,-6.31202e-03,4.22589e-01,-5.32641e-02,5.11541e-01,-3.80910e-01,8.21435e-01,
-4.92042e-02,3.82344e-01,-3.52061e-02,-5.00155e-02,-9.51536e-02,5.74818e-01,1.72989e-01,4.30739e-03,-1.12894e-01,5.39648e-02,6.69877e-01,6.02639e-01,1.44289e-02,-9.21379e-02,2.06219e-01,1.01967e-02,3.53034e-01,1.09801e+00,8.94787e-01,-5.28090e-02,1.07960e+00,3.26529e-04,7.14928e-01,-7.78891e-02,1.02522e+00,
2.84066e-01,
2.59409e-01,
2.70160e-01,
2.80618e-01,
2.44636e-01,
-1.80330e-01,
-1.87218e-01,
-1.77125e-01,
-1.84637e-01,
