// Neural Network File Format by Kyle Julian, Stanford 2016
6,4,9,25,
4,25,25,25,25,25,9,
0,
-8000.000000,-100.000000,-100.000000,0.000000
8000.000000,100.000000,100.000000,40.000000
0.000000,0.000000,0.000000,20.000000,-4.647677
16000.000000,200.000000,200.000000,40.000000,22.514692
3.39686e+00,-5.42335e-02,-5.92928e-02,-2.43738e-02,
2.54780e+00,-2.62430e-01,3.06642e-01,-2.36545e-01,
2.10483e+00,5.46395e-01,2.41630e-01,1.84434e-01,
4.95682e-01,1.38977e-01,4.78156e-02,1.66317e-01,
-8.37090e-01,-5.16619e-01,-2.28266e-01,7.21808e-02,
-2.37031e+00,-4.00071e-02,1.49371e-01,-6.97496e-01,
2.90877e+00,-3.45644e-02,4.30297e-02,-3.14267e-01,
1.62326e+00,-3.16822e-01,4.63382e-01,3.61713e-01,
-1.35962e+00,9.46419e-01,1.58643e-01,6.75892e-02,
-1.20835e+00,7.16896e-01,-2.92864e-01,-1.93615e-02,
-2.56720e-01,6.15450e-01,3.67615e-02,1.68281e-01,
6.67205e-01,-5.05786e-02,1.10465e-01,6.73182e-01,
-5.81813e-01,-9.54433e-02,2.52099e-02,4.40161e-01,
2.91391e+00,1.11367e-01,-1.38303e-01,-4.92634e-01,
-1.16856e+00,2.10893e-01,-4.16498e-01,3.24486e-01,
-1.50349e+00,-6.13181e-01,5.20349e-01,7.39470e-03,
-1.75826e-01,8.57109e-02,-2.44687e-01,-4.49081e-02,
-1.23602e+00,3.07160e-01,-2.53234e-01,3.75165e-01,
1.78578e+00,-2.74468e-01,4.38941e-01,2.44570e-02,
-2.35690e-02,-1.50834e-02,3.18870e-02,5.66459e-01,
3.43288e+00,2.23556e-01,-3.75291e-01,6.72230e-02,
-2.82084e+00,1.16115e-01,3.87847e-02,-5.76344e-01,
1.01107e+00,-2.14235e-01,6.05273e-02,-4.67126e-01,
-3.40524e+00,-1.58678e-01,1.99861e-01,-6.24148e-02,
-2.19776e-01,-8.05656e-01,6.83518e-02,3.58876e-03,
1.93779e-01,
-4.65146e-02,
-9.09910e-02,
1.37026e-01,
1.65385e-01,
-2.39503e-01,
6.48417e-02,
1.66700e-01,
3.79779e-02,
3.12300e-01,
1.84596e-01,
3.77681e-01,
-1.09265e-02,
-9.36709e-02,
2.44126e-01,
-1.56618e-01,
-3.36108e-01,
-7.54611e-02,
1.57924e-01,
8.10449e-02,
-1.61561e-01,
-4.18305e-02,
-5.79731e-03,
1.91804e-01,
1.02525e-01,
6.69458e-02,-1.90468e+00,1.02521e-01,1.82405e-01,-8.23043e-01,8.17710e-01,-3.96074e-01,-6.01306e-01,4.69020e-01,3.96767e-01,-2.89248e-01,-2.43969e-01,1.80122e-01,2.59067e-02,4.16624e-01,-5.80890e-01,2.32248e-01,2.80403e-01,-6.57266e-01,1.59267e-01,7.05289e-01,2.63839e-01,-3.46970e-01,-4.29771e-01,1.15335e+00,
4.23110e-01,-6.29796e-01,-3.00622e-01,7.62653e-02,2.02140e-01,-1.65352e-01,-2.79715e-01,-4.14166e-01,8.02818e-01,-2.02791e-02,-3.51621e-01,-2.75175e-02,-4.07936e-01,-5.46283e-01,3.42352e-01,-1.34423e-01,1.55449e-01,-3.27641e-02,3.16457e-02,-1.15211e-02,-1.73944e-01,-8.72704e-02,2.59449e-01,6.56196e-02,-5.15820e-01,
9.43868e-02,1.64474e-01,7.79871e-02,1.46838e-01,4.60413e-01,2.28694e-01,5.21122e-01,-5.01014e-01,-3.92179e-01,-4.68867e-01,5.20415e-01,-8.12876e-02,-3.72570e-01,-7.32033e-01,-1.21219e-01,-4.70380e-01,1.82113e-01,2.15438e-01,1.90178e-01,7.70297e-02,6.88977e-01,2.96283e-02,1.95909e-01,4.17473e-01,-4.44070e-01,
-5.80968e-02,4.38119e-01,8.37258e-02,2.46561e-01,2.06736e-01,-7.31602e-01,7.89965e-02,4.77016e-01,-1.48262e-01,2.24365e-01,5.82457e-02,6.69269e-01,-1.79186e-01,1.16414e-01,9.47610e-02,-6.84805e-02,-1.63616e-01,-8.14493e-02,-1.89167e-01,-5.94159e-01,-8.15802e-01,-4.46293e-01,-3.50136e-01,2.73280e-01,-6.96966e-02,
-2.09302e-02,-2.99170e-01,3.98708e-01,3.77313e-02,-2.45633e-03,5.45462e-01,-2.29596e-01,-4.68428e-01,-3.92394e-01,5.82159e-01,2.15180e-01,-1.54019e-01,-4.85509e-01,-9.45863e-01,5.31619e-01,3.73315e-02,6.98133e-02,-3.18240e-01,-7.86962e-01,6.12366e-01,6.99279e-01,8.08348e-01,-1.17708e-01,-3.36879e-01,3.36909e-01,
8.81825e-01,5.87666e-01,-3.78648e-01,-1.00732e-01,9.94497e-02,3.76763e-01,4.47415e-01,2.95257e-01,1.48706e-01,-4.80230e-01,3.46217e-01,5.05004e-01,-3.48698e-01,3.16776e-01,-2.70991e-01,1.27136e-01,3.13137e-01,-1.25371e-01,-5.99658e-02,-2.34668e-01,-5.71048e-01,-4.73671e-03,-1.53834e-01,-9.15419e-02,-2.98063e-01,
-1.15551e-01,-8.17022e-01,2.38383e-01,3.17246e-01,3.61647e-01,-6.23138e-01,-1.77257e-01,-4.94793e-01,-3.16378e-01,3.12036e-01,-1.50719e-01,-1.52253e-01,8.06960e-01,-3.01476e-01,3.11110e-01,-3.51827e-01,2.46016e-01,9.60102e-02,-4.22986e-01,-5.67251e-01,4.60961e-01,3.86038e-01,-5.34606e-01,-3.52611e-01,2.96378e-01,
5.29596e-01,-1.21876e-01,9.06223e-02,9.29391e-02,2.77751e-01,-3.80545e-01,1.88233e-01,2.28827e-01,-1.60633e-01,-5.44122e-01,3.51368e-01,5.66023e-01,3.33082e-01,5.60053e-01,-4.41863e-01,-3.78395e-01,1.67082e-01,-4.29274e-01,4.47862e-01,-1.33389e-01,6.84619e-01,1.47309e-02,1.84955e-01,5.01936e-01,-2.82032e-01,
9.53413e-02,5.85889e-01,6.92697e-02,2.92714e-01,3.38836e-01,-7.71184e-01,5.67389e-01,-1.88736e-01,-2.48553e-01,1.49881e-01,3.39956e-01,-4.54108e-01,9.88427e-01,3.86529e-01,-3.14811e-01,-3.74587e-01,3.85696e-02,2.45803e-01,4.01248e-01,2.49911e-01,-2.74918e-01,2.34514e-01,6.41041e-01,-5.41679e-01,-1.60639e-01,
2.46327e-01,-1.80824e-01,1.08662e-01,-6.42816e-01,2.85906e-01,-6.12850e-01,2.79860e-01,8.43851e-01,-1.15299e-02,1.03660e-01,-9.98074e-02,-4.57924e-01,-6.48715e-03,-3.31276e-02,1.13382e-01,-5.31734e-01,1.08884e-01,3.12421e-01,-6.72167e-01,5.99689e-02,-2.16154e-01,6.60650e-01,1.70359e-01,-1.42753e-01,-1.00435e-01,
-9.48572e-02,-1.33011e-01,-1.27795e-02,2.07663e-01,-5.90212e-01,-3.67430e-01,8.77130e-01,2.00379e-01,-6.15868e-01,5.57315e-01,5.38229e-01,1.68127e-01,-3.05045e-01,2.08912e-01,-6.47965e-02,1.72852e-01,-1.87764e-01,2.98826e-01,6.02011e-01,-2.43792e-01,3.07283e-01,-1.43503e-01,5.62947e-02,2.55011e-01,3.12377e-01,
4.01414e-01,8.14032e-01,-4.00981e-02,2.39440e-02,2.03867e-01,-8.52916e-01,4.43441e-01,-8.06135e-03,1.11853e-02,-2.07324e-01,-8.47925e-03,4.07092e-01,-3.03637e-01,1.64343e-01,-1.40913e-01,2.22401e-01,-1.31151e-01,6.71124e-02,5.43187e-01,-7.54370e-02,8.20343e-01,-1.49506e-01,1.67226e-01,5.51445e-01,-6.12601e-01,
-8.78077e-02,-2.24368e-01,4.40724e-01,-3.47540e-01,3.02090e-01,-6.03062e-01,4.30251e-01,7.21092e-02,-1.77426e-01,-1.77533e-01,1.09922e-02,9.03422e-02,4.48944e-01,-4.29930e-01,-2.54248e-01,6.81070e-01,-3.37359e-01,1.43892e-02,-4.94994e-01,-2.04363e-01,-2.85045e-03,1.78705e-01,2.56176e-01,-4.77762e-01,-7.47475e-01,
-3.79766e-01,-7.46516e-02,-5.25443e-01,-3.17468e-01,-1.18962e-01,2.66313e-01,-4.68580e-01,2.62401e-01,2.74004e-01,-9.81704e-02,2.29002e-01,-5.38432e-01,-3.73694e-02,-6.72339e-01,2.40342e-01,-3.36693e-01,-2.75795e-01,1.13596e-02,1.35782e-03,3.86107e-01,7.30742e-01,1.38713e-01,7.90406e-02,7.01099e-01,-1.48797e-02,
-2.72008e+00,2.87591e-02,-9.13569e-02,-3.66327e-01,2.41307e-01,3.03391e-01,-1.16063e+00,-7.95649e-02,-4.35072e-02,1.22011e-01,-1.70003e-02,-2.35132e-01,-7.38068e-02,-6.77219e-02,5.73925e-01,-3.21003e-01,6.64048e-02,-9.09075e-02,-7.88290e-02,2.29592e-01,1.27975e-01,7.44211e-02,2.52218e-01,1.01478e+00,1.73695e-02,
-6.08175e-01,9.19603e-03,-1.45142e-01,6.34891e-01,-3.88193e-02,4.94859e-01,3.18523e-01,-2.60886e-01,1.31319e-01,2.21408e-01,1.41170e-01,1.04210e-01,1.43347e-01,1.71239e-01,2.09441e-01,-3.37328e-01,4.89516e-02,3.62455e-02,-9.29091e-02,-1.35648e-02,5.53518e-02,-3.75770e-01,-2.31701e-01,6.03042e-01,1.04393e-01,
4.95623e-01,1.18562e-01,-2.37382e-02,-1.15310e-01,-6.34195e-02,-7.86058e-01,-1.28584e-02,7.85096e-02,6.97705e-01,-2.43627e-01,3.08299e-02,-5.67087e-01,4.64629e-01,-1.48464e-02,-4.50496e-01,-1.45938e-01,2.67349e-02,-7.60863e-01,2.44419e-01,6.99327e-01,-2.61723e-01,4.03510e-01,4.77845e-03,1.01511e-01,2.82573e-01,
3.17430e-01,-1.81749e-01,7.67048e-01,7.85383e-02,1.15543e-01,-2.47224e-01,-2.57719e-01,-2.78513e-01,-4.86443e-01,-9.79494e-02,-9.42322e-02,-4.49419e-01,-1.07969e-02,4.18989e-01,3.84551e-01,1.08724e-01,-1.17252e-01,4.90084e-01,-6.91809e-02,-2.24330e-02,-5.37551e-02,2.13721e-01,-1.35181e-01,-7.67795e-02,-1.51230e-01,
1.05469e-01,7.96253e-01,-4.84566e-01,3.50040e-01,3.11380e-01,9.70062e-01,-1.09538e-02,6.87329e-02,3.74378e-01,-7.46422e-01,4.82063e-01,3.84211e-01,-3.21268e-01,2.65780e-01,4.02277e-01,-1.08530e-01,6.32255e-02,2.31334e-01,-2.29018e-02,-4.44990e-01,-6.78117e-02,-7.23580e-01,-9.64722e-02,-4.07570e-02,-1.17261e-01,
-5.19249e-01,2.03900e-01,2.86960e-01,-7.91542e-03,-4.91176e-01,-8.71247e-01,3.02799e-01,2.25857e-01,-1.25874e-01,-3.78187e-01,2.04339e-01,-7.60226e-02,2.69915e-02,-2.70158e-02,-3.04566e-01,6.40426e-01,-1.94051e-01,2.86629e-01,8.21865e-03,-1.24180e-01,1.03761e+00,-4.72885e-01,1.04824e-01,6.58013e-01,1.99807e-01,
-6.32201e-01,-1.96722e-01,1.17083e+00,3.59737e-01,2.88111e-01,2.43909e-01,9.06984e-02,-5.50971e-01,-1.36359e+00,1.95897e-01,3.95721e-01,-3.35338e-01,6.89818e-02,7.17725e-02,2.25413e-01,8.19167e-01,1.52256e-01,-3.96219e-01,1.32734e-01,4.24295e-01,-5.39560e-01,4.40917e-01,9.98475e-02,-1.38582e-01,1.35451e-01,
1.72087e-01,8.25138e-02,6.51825e-02,-4.11190e-01,4.45674e-02,-5.56160e-02,-6.43363e-01,2.90258e-01,9.17707e-03,-3.53982e-01,1.22570e-01,-8.10727e-02,-1.70698e-01,4.63104e-01,1.10796e-01,-5.25882e-02,-2.63478e-01,-7.78910e-02,-6.06079e-01,-1.28219e-01,8.08084e-02,-2.64663e-01,-1.77078e-01,8.88819e-01,-4.90746e-01,
1.66772e-01,-8.86960e-01,1.63539e-01,2.61782e-01,6.08175e-01,8.43008e-01,-2.41642e-01,-6.96524e-01,-1.68901e-01,4.64890e-01,-4.55426e-01,-9.02617e-02,-1.49058e-01,-5.94449e-01,8.14980e-01,-4.12566e-01,8.11844e-02,-4.53266e-01,1.03063e-01,5.02915e-02,7.90542e-01,6.70528e-01,-2.38137e-01,3.04158e-02,-4.32865e-02,
2.94756e-01,-5.40749e-01,4.27931e-02,-4.90788e-01,4.37938e-01,-4.48299e-01,-5.30159e-01,7.71225e-02,-1.19625e-01,-3.79651e-01,-5.29888e-02,3.55886e-01,-1.62659e-01,-2.87127e-03,-2.05631e-01,2.29191e-01,3.02209e-01,-6.07473e-01,1.54444e-01,-1.84327e-01,5.92660e-01,-2.37222e-02,7.60875e-01,6.27466e-01,-8.54317e-01,
-2.87225e-01,-9.40200e-01,-1.30185e+00,8.46004e-02,-2.40254e-01,-8.82255e-02,3.51391e-01,-6.74583e-03,5.16757e-01,3.98074e-01,4.59881e-01,-5.55486e-02,3.23185e-01,5.46080e-01,-1.99843e-02,-6.25101e-01,-1.64124e-01,-2.94980e-01,2.26594e-02,-1.69691e-01,-6.30614e-02,1.85510e-01,5.46589e-02,6.83573e-03,-3.40824e-02,
-2.00579e-01,
3.04885e-01,
2.54826e-01,
-2.73680e-02,
-6.91762e-02,
4.47212e-02,
2.35306e-01,
-1.30302e-01,
-2.62120e-01,
1.60557e-01,
-3.20282e-01,
-4.17578e-01,
4.19248e-01,
2.21510e-01,
-3.40820e-01,
9.30280e-02,
1.72497e-01,
3.55810e-01,
-3.64325e-02,
2.85625e-01,
2.24594e-01,
3.10001e-01,
-2.20763e-01,
4.27357e-02,
-2.18310e-01,
-2.24933e-01,4.72200e-01,-4.90829e-01,-6.05049e-02,4.10427e-01,-2.00938e-01,-6.52442e-01,3.71041e-02,2.95045e-01,1.84257e-01,-1.72524e-01,3.32353e-02,-2.79631e-01,-4.57144e-01,1.02455e-01,-1.03879e-01,8.28877e-02,7.55835e-02,2.13356e-01,2.45726e-01,4.15901e-03,-2.04069e-02,2.47527e-01,7.24858e-02,-1.06451e-01,
3.97990e-01,3.81901e-01,5.96708e-03,-2.14384e-01,-5.53213e-02,3.18659e-01,1.21024e-01,2.16244e-01,5.45626e-02,1.89794e-01,-1.00719e-01,-3.17228e-01,-2.52537e-01,2.67941e-01,4.09415e-01,-3.10038e-01,-3.53539e-01,-1.96441e-01,1.63439e-01,3.20890e-01,1.29008e-01,-4.65688e-02,4.43305e-01,-2.57414e-01,2.48615e-01,
-1.89031e-01,-5.33715e-02,-2.39388e-01,-3.08739e-01,6.68146e-01,1.56869e-01,3.34363e-01,9.37333e-03,-2.30786e-01,-2.09808e-01,3.97858e-02,1.78963e-01,7.92521e-02,1.83870e-01,-1.58891e-01,2.38072e-01,-3.81864e-02,4.80226e-01,7.42738e-02,-2.19427e-01,8.19553e-02,-2.83301e-01,3.89440e-01,-1.84042e-01,8.10310e-01,
4.07276e-01,-7.75338e-02,7.61383e-02,-1.71154e-01,-2.53464e-01,-2.33862e-01,-9.39227e-02,1.99757e-01,4.17316e-01,5.10763e-01,2.44168e-01,-2.72968e-01,3.53867e-01,-5.68538e-01,7.66767e-02,-6.35217e-01,6.23100e-01,-1.27341e-01,7.24807e-02,-1.13922e-01,1.56706e-01,-1.09276e-01,1.56631e-01,-1.55824e-01,2.30745e-01,
-2.25848e-01,1.74223e-01,1.55768e-01,6.40408e-01,2.94618e-01,-2.76759e-01,2.08654e-01,1.97259e-01,-1.23045e-01,-5.11588e-02,3.14659e-02,9.49967e-02,-4.05247e-01,7.66516e-02,2.94938e-01,-1.72617e-01,-1.17175e-01,-3.18545e-01,-8.86401e-02,-1.43203e-01,-9.14029e-02,1.65977e-01,-1.82276e-01,2.99080e-02,-7.02442e-02,
-8.11964e-02,-8.00302e-01,-2.62999e-01,-1.23379e-02,-3.30754e+00,-7.54350e-01,2.05430e-02,9.88777e-02,-7.79286e-01,3.48840e-01,-5.45111e-02,-2.04396e-02,-1.44215e-01,-6.32980e-02,-8.00559e-01,3.62635e-01,-6.48006e-01,-2.40252e-03,-1.30268e-01,2.95187e-01,1.03149e+00,5.13302e-01,-8.85966e-02,3.57499e-01,-3.95981e-01,
-8.50408e-01,6.10563e-02,8.99600e-02,1.02062e-01,5.83007e-01,5.56182e-02,2.22916e-01,-5.93891e-01,-5.25693e-01,-2.03643e-01,1.74077e-01,8.39108e-01,-1.25639e-01,3.75635e-01,2.96354e-01,-3.27267e-01,4.19138e-01,4.20874e-01,1.21388e-01,-6.87547e-01,2.47826e-01,-9.72895e-02,-9.33584e-01,-2.94263e-02,8.14093e-01,
5.14073e-01,1.62647e-01,2.36904e-02,1.65624e-02,2.29012e-01,-2.54544e-01,7.02683e-02,5.78373e-01,-1.17913e-01,-1.75647e-01,-5.21173e-01,-4.19555e-01,2.22454e-01,1.24595e-01,2.44276e-01,-1.57165e-01,2.52856e-01,5.09412e-01,-5.35665e-02,2.89375e-01,3.37717e-01,-5.78021e-02,-1.73098e-01,3.72892e-02,-4.53468e-01,
5.69771e-02,-1.34847e-01,-2.22872e-01,2.75765e-01,-9.26322e-01,4.54994e-01,3.13517e-02,2.22589e-01,5.87700e-02,3.96894e-01,-8.40539e-01,5.01069e-02,1.89720e-01,1.79961e-01,-6.74528e-01,-3.79784e-02,-1.71274e-01,-2.91265e-01,-1.63869e-01,2.55643e-01,2.90750e-02,-2.85119e-01,7.45906e-01,-3.04088e-01,-1.02432e-01,
-2.98218e-01,1.99722e-01,4.16767e-01,-3.39980e-01,-4.27006e-02,-6.52348e-02,-2.83928e-01,2.61274e-01,2.26061e-01,-2.67584e-02,-2.37088e-01,-4.20299e-01,-1.01702e-01,-2.78951e-02,7.69930e-02,-1.36481e-01,9.27929e-02,5.22269e-01,-1.41348e-01,4.33737e-01,-3.40599e-01,-3.94435e-01,-2.55296e-01,3.69357e-02,2.52600e-01,
4.70108e-01,5.45146e-01,-1.88128e-01,1.78339e-02,-5.25838e-01,-5.45533e-01,-2.02561e-01,3.40180e-01,-6.77364e-01,3.23210e-01,-4.95520e-01,-7.91796e-01,-2.46115e-01,-4.17759e-02,-4.32754e-01,3.98485e-01,4.28526e-01,3.48356e-01,-5.27725e-01,-5.82478e-02,4.36967e-01,1.38460e-01,4.75281e-01,-6.62962e-01,-5.45191e-01,
1.81314e-01,1.54806e-01,8.25350e-02,4.33868e-01,4.06185e-01,1.71077e-01,-2.07403e-03,1.70106e-01,-1.00031e+00,-1.92858e-01,1.97027e-01,-2.22013e-01,1.84011e-01,2.31440e-01,-5.71887e-01,4.60485e-02,-1.42536e-01,-1.28358e-01,6.39132e-03,3.04510e-01,5.67120e-01,-3.12666e-01,2.78321e-01,-4.40094e-02,1.51913e-01,
-3.50365e-01,-4.50616e-01,9.08931e-02,2.33734e-01,1.00162e-01,2.36949e-01,-4.45490e-01,-2.18357e-01,1.16220e-01,-2.22140e-01,-4.74381e-01,2.89668e-01,9.31243e-02,6.71491e-02,-6.77448e-02,-4.05997e-01,2.10424e-01,3.55446e-01,-6.51999e-02,-7.93292e-02,-4.44258e-02,4.46636e-01,6.33205e-03,-2.22977e-01,-5.69530e-02,
3.36012e-01,-1.75528e-02,1.38099e-01,-1.68708e-01,1.03684e+00,3.85720e-02,-1.53130e-01,2.45611e-01,-2.36962e-01,3.69017e-01,-7.23524e-01,-3.91397e-01,-3.68195e-01,-3.93163e-01,-1.94801e-02,5.53010e-02,-1.86009e-01,2.53425e-01,5.34138e-01,5.77561e-01,1.69737e-01,-9.03293e-02,5.19840e-02,-1.64474e-02,3.20610e-01,
-4.56744e-02,1.85698e-02,2.79808e-01,-1.58334e-01,2.57629e-02,-2.19816e-01,-2.71435e-01,-3.23380e-01,-2.22935e-01,-2.78301e-01,1.44309e-01,-1.94776e-01,-2.03457e-01,6.08490e-02,-3.09455e-01,8.18475e-02,6.60528e-02,-1.70032e-01,-1.33357e-01,-3.66075e-02,2.55938e-01,-3.40908e-01,-2.00001e-02,-1.79668e-01,-2.20052e-01,
3.64417e-01,-2.12667e-01,1.71805e-02,2.29642e-02,3.19027e-01,1.02335e-01,-1.34123e-01,-3.15939e-02,7.62095e-01,-9.54499e-02,4.21892e-02,-2.90066e-01,-9.34271e-02,-9.34209e-01,1.92108e-01,4.26727e-02,6.06603e-02,7.90991e-02,2.32274e-01,4.33188e-01,-4.21554e-01,7.96126e-01,-1.18541e-01,5.39061e-02,-7.61839e-02,
4.56938e-02,1.06358e-01,-3.08983e-02,8.72947e-03,3.22319e-01,4.26639e-01,2.90228e-01,-2.21511e-02,-2.85872e-01,1.43889e-01,1.27170e-01,1.05686e-01,1.68092e-01,2.93868e-01,-1.24977e-01,2.95761e-01,-1.98821e-01,-2.58359e-01,-7.22926e-01,5.63344e-02,-5.50256e-02,-6.78080e-01,-1.65765e-01,-2.48888e-02,-7.68796e-01,
7.37548e-01,-4.57710e-01,3.29148e-01,2.14686e-01,-3.81753e-01,1.46901e-01,3.49144e-01,2.54148e-01,-5.85457e-02,7.07513e-01,1.62770e-01,-7.21539e-01,3.08194e-01,1.58339e-01,-2.40199e-01,-1.43694e-01,1.82228e-01,1.98106e-02,6.93853e-01,-2.52298e-01,3.03795e-01,2.22752e-01,-1.84397e-03,3.44537e-01,5.65805e-01,
-7.02415e-01,2.74550e-01,3.18362e-01,1.32522e-01,-9.22108e-01,5.60232e-01,-3.84327e-01,3.65117e-01,2.86249e-01,-1.53684e-01,5.61167e-01,-1.00197e+00,-3.88400e-01,5.04731e-02,1.81070e-01,9.61136e-02,-8.08756e-02,-1.19612e-01,-4.69057e-01,2.40373e-03,3.09497e-01,-3.21737e-02,-1.34198e+00,1.72313e-01,-3.51795e-01,
4.71580e-02,-2.92147e-01,-1.97326e-01,5.18500e-02,-5.08844e-02,-6.80628e-02,-1.15127e-01,-1.86451e-01,-2.93154e-01,2.94890e-01,-2.12054e-01,7.94777e-03,2.18858e-01,-3.25046e-01,-1.40396e-01,-6.66105e-02,-1.81124e-01,3.20606e-03,2.32731e-01,-2.98870e-01,2.45838e-01,2.65893e-01,2.24546e-01,7.88690e-02,1.72211e-01,
2.99617e-01,1.91734e-01,4.95053e-01,-5.33764e-01,-6.14500e-01,1.89643e-01,-3.62179e-01,-1.42822e-02,-1.15803e-01,3.91255e-01,3.46540e-01,-3.66679e-01,-3.42764e-01,-3.22695e-01,-2.73244e-02,-6.96325e-02,-2.56018e-02,-1.36185e-01,-2.70530e-01,2.48966e-01,1.82009e-01,1.25444e-01,-4.98482e-01,-1.50936e-01,-5.42574e-02,
2.96346e-01,2.00496e-01,3.71751e-01,2.77099e-01,-3.08116e-01,-2.01493e-01,1.78305e-01,-1.26930e-01,-3.85125e-01,3.59496e-01,-6.31535e-01,6.90962e-01,5.39896e-01,1.87619e-01,-1.89955e+01,3.25258e-01,-8.28002e-01,-1.28399e-03,5.86931e-02,-7.19117e-01,7.69455e-03,-8.28181e-02,1.24012e-01,1.09631e+00,7.02764e-02,
-2.63053e-01,5.39285e-02,-7.85911e-01,2.23110e-01,5.34057e-03,-1.30331e-01,1.70630e-01,-7.00631e-01,-3.04666e-01,6.46726e-01,-4.23063e-01,1.32953e+00,8.85671e-02,3.04837e-01,3.68546e-02,-1.06941e-01,-4.04115e-01,8.08369e-02,-3.79718e-02,-5.72707e-01,2.85123e-01,-8.83533e-01,-2.80543e-01,8.16067e-01,2.37576e-01,
4.29572e-01,-2.34482e-01,4.06201e-01,-3.37248e-01,-4.42135e-01,-4.14840e-01,-5.43237e-02,1.01000e-02,-2.59209e-01,1.82221e-01,-5.66717e-02,3.27426e-02,-2.80750e-01,-8.50142e-01,1.17161e-02,7.85755e-01,-1.06187e-01,-4.40077e-01,-4.15032e-01,1.29544e-01,1.58041e-01,3.76480e-01,2.37426e-02,1.90044e-01,-3.55279e-01,
-3.92608e-01,4.12874e-01,3.78384e-01,-3.63973e-02,-2.68307e-01,1.09828e-01,-3.89293e-02,-1.26204e+00,-2.38292e-01,4.19411e-01,-3.25309e-01,3.54534e-01,-3.64684e-01,-4.66880e-02,-1.77579e-01,8.72182e-02,-9.17734e-02,1.95736e-01,1.90905e-01,2.81069e-01,2.28560e-01,9.36010e-02,-6.46582e-01,-1.05645e-01,-1.90203e-01,
2.73616e-01,
-4.23867e-02,
1.35708e-01,
1.31027e-01,
1.92768e-01,
-4.91306e-01,
2.93336e-02,
4.01030e-02,
1.43834e-01,
2.32776e-01,
-2.67268e-01,
-1.96168e-01,
3.09076e-01,
-1.39769e-01,
-2.50919e-01,
1.04517e-01,
1.05236e-01,
-7.02922e-02,
-2.51854e-01,
-2.44228e-01,
2.41387e-01,
-2.13631e-01,
3.90678e-01,
4.29747e-01,
8.98110e-02,
3.96546e-01,-3.59519e-01,-2.67753e-01,4.62104e-02,-6.98540e-01,-1.66767e+00,-1.39740e-01,-3.50912e-01,-4.19443e-01,1.55358e-01,3.57319e-01,-3.44607e-01,-3.82645e-01,1.56362e-01,1.67965e-02,-1.27805e+00,-1.28559e-01,3.56778e-01,1.93148e-01,5.63994e-02,9.68537e-02,1.38862e-01,-4.49881e-01,9.32089e-02,-6.70862e-02,
-3.81532e-01,-3.05110e-01,-5.99632e-03,-3.31100e-01,-7.14412e-02,7.60105e-02,-1.31464e-01,-2.52565e-01,2.90624e-03,2.66840e-01,2.30271e-01,6.41767e-03,-6.30631e-02,2.39771e-01,-1.05302e-01,-2.10161e-01,-9.86662e-03,-2.34908e-01,2.81710e-01,1.71694e-01,-3.49705e-01,-1.50772e-01,2.60188e-01,2.84619e-01,5.96053e-02,
1.65450e-01,-2.70967e-02,1.05796e-01,-1.42763e-01,-3.03562e-01,1.10754e+00,2.72615e-01,2.24634e-01,-5.88388e-02,1.49355e-02,-1.58563e-01,-1.60940e-01,-3.18534e-01,-1.87855e-01,-2.85317e-01,-2.04209e-01,9.53756e-02,6.00431e-02,7.51043e-02,1.97372e-01,2.33618e-02,-1.64502e-01,-2.34718e-01,5.04509e-02,3.13117e-01,
-1.23937e-01,-3.82014e-01,6.89254e-02,-1.78991e-01,3.93667e-01,7.54862e-01,-1.47474e-01,-4.18179e-01,-1.15915e-01,-2.60896e-01,4.29796e-01,-4.57541e-01,-4.40849e-01,5.02152e-01,1.74027e-02,-3.44056e-01,1.02023e-01,1.76452e-01,-1.96212e-01,5.49183e-02,-3.98526e-01,-6.20336e-01,-2.69964e-01,3.07313e-02,-1.76701e-01,
1.40155e-01,-1.55370e-01,4.12010e-01,8.76607e-03,-5.12669e-01,4.15448e+00,4.31374e-01,5.12288e-01,3.45524e-01,-2.09608e-01,-9.08686e-02,-3.53475e-01,-1.49476e-01,-3.32392e-01,-2.90117e-02,-2.58383e-01,-1.18684e-01,8.86383e-02,-6.06235e-01,-3.79697e-01,1.90014e-01,-3.90000e-01,-3.88970e-01,3.99377e-01,4.23583e-01,
2.05162e-01,2.00587e-01,-3.47129e-02,1.94208e-01,-2.56261e-01,-5.69186e-01,1.64728e-02,1.99526e-01,-3.72257e-01,1.19659e-01,-6.30993e-02,6.25857e-02,2.15186e-01,-4.30984e-01,-1.49936e-01,-1.10522e-01,4.11489e-02,3.74303e-01,-2.45117e-01,-2.44693e-01,7.26849e-01,2.43493e-01,-6.30938e-02,2.98351e-01,1.60214e-01,
-1.53629e-01,2.17932e-01,1.70346e-01,-4.85398e-02,-4.84882e-02,2.03842e+00,3.62429e-01,1.32943e-01,3.58078e-02,-8.05719e-02,2.62413e-01,3.46992e-01,-1.79569e-01,-4.93238e-01,-1.58146e-01,-4.79991e-02,1.88012e-01,2.01604e-01,9.70000e-02,3.78849e-02,-1.37238e-01,-5.53597e-01,2.51137e-02,6.40955e-01,1.65385e-01,
1.60382e-01,-5.31559e-01,1.56084e-02,2.29165e-01,1.79221e-02,1.94580e-01,1.38854e-01,-1.08882e-01,-3.35416e-03,-1.61125e-01,-4.88846e-01,-3.94198e-01,-1.18481e-01,1.95759e-01,-1.77610e-01,-8.12285e-02,1.07266e-01,-5.76901e-02,2.42870e-01,1.87883e-01,2.67240e-01,-2.08871e-01,-3.59339e-01,8.25025e-02,-2.62258e-01,
-2.28810e-01,-4.34276e-01,4.73270e-01,1.54928e-02,-9.91877e-02,2.79841e-01,-1.37496e-01,-2.16318e-01,8.40405e-02,1.17190e-01,-1.04125e+00,7.63136e-02,-3.58394e-01,3.05085e-01,-1.27738e-01,1.10948e-01,3.01979e-01,1.74526e-01,2.75182e-01,-2.46176e-01,-2.89602e-02,-1.74121e+00,-8.75744e-01,-1.28141e+00,1.00377e+00,
3.67347e-01,-1.05371e-01,3.05340e-01,-1.04466e-02,-2.34134e-01,1.16226e+00,7.21019e-01,-1.25277e-01,-2.78589e-01,-4.39800e-01,4.66286e-01,3.85000e-02,-1.93031e-01,-7.42764e-01,2.87657e-01,-6.83962e-02,7.11663e-02,5.16837e-01,-1.56903e+00,-2.57619e-01,-1.61375e-01,-7.60213e-01,-2.08407e-01,6.74117e-01,-8.55849e-04,
-2.48898e-02,1.87752e-01,-1.26922e-01,-6.35039e-02,-5.90695e-02,3.31993e-01,-3.56898e-01,1.75314e-02,-7.10313e-01,-1.11579e-01,-2.29514e-01,6.96616e-03,1.14029e-01,-2.64103e-01,2.66288e-01,2.67880e-02,1.71580e-02,3.90056e-01,-3.97211e-01,2.41367e-01,-1.59212e-01,4.32214e-02,-1.64216e-01,-3.06347e-01,-2.20390e-03,
-1.25786e-01,-1.17037e-01,-4.25088e-02,3.31522e-01,-1.15104e-01,1.46147e+00,8.01726e-02,-5.63078e-02,-2.37335e-01,3.67208e-01,1.61403e-01,-3.57520e-01,2.81506e-01,7.69414e-02,1.65704e-01,-4.19503e-01,3.02702e-01,1.32189e-01,-3.01344e-01,3.56406e-01,2.14607e-02,-1.11358e-01,3.08327e-02,3.21826e-01,1.45571e-01,
1.86695e-02,-3.91257e-01,3.25125e-02,1.64635e-01,1.60214e-01,-5.64688e-01,-1.26225e-01,9.78924e-02,-6.52632e-01,3.27354e-01,-9.00788e-01,1.55086e-01,7.55948e-02,9.01544e-02,3.16537e-01,1.32365e-01,2.22894e-01,5.54852e-01,-1.93086e-01,-6.99846e-02,1.49541e-01,-1.25616e-01,-1.47597e+00,-1.29830e-01,-5.12985e-02,
-5.17633e-01,3.72603e-01,-1.65071e-01,-2.09160e-02,-7.81022e-02,-8.34623e+00,2.40781e-01,-7.33296e-02,-3.99331e-02,1.87832e-01,2.23287e-01,1.60169e-01,3.87365e-01,4.18923e-02,-9.23827e-02,7.00142e-02,-4.44806e-01,-3.01112e-02,3.04668e-01,1.78465e-01,1.16739e-01,5.44633e-01,2.69506e-01,3.93471e-01,3.57938e-01,
-4.51969e-01,-1.47946e+00,-4.75794e+00,2.19373e-01,6.63748e-02,-5.73190e-01,-2.78077e+00,6.41517e-02,-2.51694e-01,-5.73452e-01,8.09853e-02,1.75247e-01,5.68016e-02,8.24424e-01,2.54553e-01,6.99527e-01,-2.83592e-01,1.84459e-01,1.43303e-01,1.82473e-01,1.10692e-01,6.43524e-02,-1.28868e-01,-4.67084e-01,7.28708e-01,
1.21941e-01,-2.41374e-01,-5.23245e-01,5.40879e-01,9.37863e-02,1.57501e-01,4.83682e-01,1.30404e-01,4.10758e-01,-1.66062e-01,-5.09606e-01,-1.53385e-01,2.56694e-01,6.67159e-01,1.57084e-01,-6.15511e-02,3.02352e-01,-1.60983e-01,4.46618e-01,-8.10098e-02,2.29972e-01,1.91208e-01,-1.04536e+00,-1.20190e-01,-1.55446e-01,
2.23425e-01,8.90141e-02,-2.15624e-01,2.78977e-01,1.18578e-01,-1.31220e-01,-2.67826e-01,-2.68494e-01,-1.21327e-01,2.57233e-01,-6.87881e-01,1.91111e-01,1.74767e-01,1.01397e-01,-2.42942e-01,5.04515e-02,1.13020e-01,1.45839e-01,2.47123e-02,2.76383e-01,3.25166e-01,-1.40516e-01,1.92146e-01,7.46706e-02,-3.64420e-01,
-6.57027e-01,-1.14371e-02,-2.52479e-01,5.19436e-01,7.26999e-02,5.66075e-02,1.33316e-01,-5.57207e-01,4.98562e-01,6.70296e-01,4.06592e-01,-1.82980e-01,-2.65731e-01,2.38834e-01,-2.84108e-01,-1.93641e-01,-1.25080e-01,-5.15062e-01,-1.89024e-01,-2.95229e-01,6.36575e-02,-3.12832e-01,1.48458e-01,5.62713e-02,-7.39901e-02,
-2.41967e-01,-3.79000e-02,2.74431e-01,2.23568e-01,4.43459e-01,5.60201e-01,2.72030e-01,9.48099e-02,5.93626e-01,-3.73464e-01,2.53087e-01,2.62267e-01,7.92087e-02,5.29295e-02,1.92184e-01,4.89665e-01,-9.27897e-04,-3.65444e-01,2.74602e-01,-2.81644e-01,2.92895e-01,6.59610e-02,-7.70623e-02,-2.57221e-01,-6.45309e-02,
1.41670e-02,-2.00215e-01,-5.40312e-01,2.87622e-01,2.83627e-01,1.31942e-01,1.91223e-01,-1.46651e-01,2.78712e-01,-6.94675e-02,-3.46455e+00,3.11259e-01,1.94769e-01,3.45418e-01,2.34706e-01,3.45011e-01,4.57007e-01,1.36563e-01,9.61754e-02,2.74627e-01,-2.30879e-01,7.74695e-03,-3.36492e-01,-3.98734e-01,2.67317e-01,
-4.06655e-01,-2.29888e-01,3.54149e-01,1.45093e+00,4.24542e-01,1.19008e+00,2.92921e-01,-4.46470e-02,-2.65605e+00,-8.00429e-01,2.79485e-01,-3.32728e-02,1.09875e-01,2.79161e-01,5.73199e-02,-3.19764e+00,1.24668e+00,-2.12773e-01,-4.24657e-01,-1.68490e-01,1.49621e+00,-4.06151e-01,-2.54874e-01,2.56715e-01,-5.66624e-01,
3.11321e-01,6.92593e-02,-1.94348e-01,-2.26665e-01,-7.69702e-02,-3.19293e-01,-1.11946e-01,-1.04264e-01,-9.72289e-02,2.79095e-01,2.20459e-01,1.17841e-01,-2.13874e-01,-3.38821e-01,-2.43940e-01,-2.30781e-01,3.15791e-01,-1.79183e-01,2.91413e-01,2.19591e-01,9.28138e-02,-2.73336e-01,-2.89861e-01,-3.32874e-01,-1.56500e-02,
-1.70940e-01,-3.62103e-02,1.25725e-01,6.68997e-03,-2.18460e-01,-3.17947e-01,1.33040e-01,-2.61084e-01,-1.27801e-01,1.54172e-01,2.29819e-01,3.47883e-02,5.69067e-02,-9.14141e-02,2.41095e-02,-3.07576e-01,-2.34662e-01,2.13044e-02,9.43838e-02,3.05723e-01,-2.98800e-01,-1.28365e-01,-2.94313e-01,-1.93913e-01,1.27456e-01,
-2.10160e-01,6.46782e-02,-4.41675e-01,1.32273e-02,-2.21186e-03,2.40327e+00,7.43560e-01,5.73868e-01,1.30420e-02,-7.56606e-02,2.45307e-02,-1.04733e-02,-2.73942e-01,3.67987e-01,2.44534e-03,-1.34184e-01,-5.46696e-01,2.41404e-01,-4.25119e-01,4.06123e-01,3.65218e-01,-1.32518e+00,-7.42989e-01,-2.66697e-01,6.03250e-02,
1.02361e-01,1.09631e-01,1.56863e-01,-1.95940e-01,2.59683e-01,-2.90009e-01,6.86486e-02,1.52193e-01,1.15388e-02,-2.41574e-01,1.31837e-01,2.74618e-01,3.47476e-01,-3.60440e-01,-2.07540e-01,2.61340e-01,1.02887e-01,1.75040e-01,-1.42701e-01,1.18662e-01,-1.90298e-01,2.73803e-01,-6.94597e-02,4.61636e-02,2.60658e-02,
3.24725e-01,
-3.63722e-02,
2.32032e-01,
1.54867e-01,
-2.30613e-02,
2.77734e-02,
-3.74041e-01,
3.21221e-01,
-7.69257e-02,
-2.82098e-01,
3.11507e-01,
7.06181e-02,
-2.44224e-01,
-2.71570e-01,
-5.02829e-02,
-6.87372e-02,
-1.65978e-01,
2.20211e-01,
-4.04110e-01,
-2.89456e-01,
-6.31330e-01,
-2.58982e-01,
-1.72474e-01,
-7.09086e-02,
-2.33108e-02,
-2.83493e-01,4.77403e-02,-3.44277e-02,2.72122e-02,-2.14012e-01,1.11183e-01,2.76600e-01,1.78321e-01,-1.09990e-01,-7.76196e-02,4.66165e-03,1.46401e-01,2.76367e-02,-9.76139e-02,1.02460e-01,-7.48568e-03,-3.28341e-02,1.90953e-01,6.88576e-02,1.08596e-02,-7.95629e-02,-9.25900e-02,-1.54206e-01,-2.03983e-01,1.11703e-01,
7.80367e-01,3.26069e-02,-7.71996e-02,-1.30523e-01,-6.57512e-02,2.13418e-01,-3.27082e-01,-2.54937e-01,-1.24741e-01,1.28781e-01,1.28656e-01,1.16353e-01,-2.74829e-01,1.99977e-02,1.60016e-01,8.37850e-02,8.93482e-02,-2.37411e-01,1.97884e-01,1.84365e-01,2.84264e-02,3.14500e-01,9.52047e-02,2.61703e-01,-1.64610e-01,
-9.42517e-03,-2.46171e-01,2.43848e-01,-4.10756e-01,-1.43177e-01,-4.80232e-02,1.08418e-01,-8.60262e-02,7.60217e-02,-6.85280e-02,-5.30923e-02,-1.97059e-01,-3.10851e-01,-1.20799e-01,3.07555e-01,1.18228e-01,4.19359e-01,-4.10371e-02,4.89516e-02,6.66369e-02,-1.51652e-01,2.74801e-01,-7.05374e-02,-5.23533e-02,1.55045e-01,
-1.14761e+00,-1.73890e-01,-3.34295e-01,-2.57264e-01,6.25429e-02,1.68966e-01,-1.56241e-01,2.04088e-01,-2.27982e+00,7.54536e-01,6.84986e-02,-3.71137e-01,-1.93294e-01,-7.45214e-02,-2.65147e-01,1.75767e-01,-3.09442e-01,2.63588e-01,-1.52116e-01,1.94127e-01,-3.81648e-01,-1.87483e-01,1.21071e-01,-3.93661e-01,-2.20353e-02,
1.21987e-01,-3.91822e-02,-9.34762e-02,2.35908e-01,-3.43141e-02,-1.08426e-01,-2.78954e-01,2.80052e-01,1.52391e-01,-1.14312e-01,-1.60282e-01,1.07150e-02,2.35157e-01,-3.84587e-01,-2.22596e-01,1.08557e-01,-2.72251e-01,8.61424e-02,-1.16613e-01,-3.04020e-02,7.88916e-02,-9.35735e-02,-1.28945e-01,-2.13471e-01,-3.43435e-01,
-1.81886e-01,-1.08563e-01,5.16851e-02,-4.07970e-02,-2.57097e-01,-2.57286e-03,1.64565e-01,-3.22147e-01,4.92570e-02,-3.02143e-01,-2.26661e-01,3.05570e-01,-2.31587e-01,4.05724e-02,2.88885e-01,2.63819e-01,-1.94922e-01,-2.11935e-01,2.60803e-02,1.95055e-01,-2.16779e-01,-3.28023e-01,3.22967e-01,-3.01771e-01,-3.29616e-01,
3.38130e-01,7.33209e-02,-1.75553e-01,3.07023e-01,-2.18854e-01,-9.92762e-02,1.13837e-01,2.81111e-01,-5.20505e-02,-8.06428e-02,7.71480e-02,-3.66247e-01,2.34551e-01,1.97232e-01,-3.12252e-01,1.13298e-01,-2.73199e-01,4.74144e-02,2.14645e-01,-1.17966e-01,-2.30340e-01,-2.53665e-01,1.98241e-01,-3.77950e-01,-1.16378e-01,
-7.85320e-02,-3.05096e-02,1.82114e-01,-1.32554e-01,-2.77675e-01,-3.42098e-01,-2.34413e-01,1.58826e-01,4.94649e-03,1.42237e-01,-7.69867e-02,-7.15589e-02,-8.82175e-02,1.42282e-01,-1.78754e-01,7.78251e-02,1.00248e-01,1.07487e-01,7.56125e-02,-7.51782e-02,9.11100e-03,-2.14134e-01,2.47437e-01,3.03904e-01,-2.85258e-01,
1.21915e-01,2.29857e-01,4.72458e-02,-3.49036e-01,2.07823e-01,-4.49829e-01,-1.68054e-01,-6.90353e-02,-2.73753e-01,-2.64083e-01,-6.61869e-02,-2.21022e-01,1.61638e-01,9.81333e-04,5.73290e-02,-3.06006e-01,7.59200e-02,1.04968e-01,1.30269e-02,-7.48593e-02,-1.53285e-01,-2.36380e-01,-1.24293e-01,-1.40640e-03,-3.76493e-01,
5.82730e-01,-3.82532e-01,8.05392e-04,-2.15229e-01,2.16884e-01,3.66308e-02,-3.61574e-01,-1.18264e-01,7.88341e-03,1.59991e-01,2.92379e-02,-1.53699e-02,-4.36278e-02,1.22112e-01,-1.46984e-01,-4.53039e-02,-1.71628e-01,-8.14310e-02,2.12981e-02,1.29767e-01,1.66020e-01,3.33734e-01,1.01923e-01,2.83381e-01,-2.87182e-01,
5.41131e-01,1.29404e-01,-2.21643e-01,-2.90552e-01,3.80032e-01,3.80360e-01,-4.61269e-02,-4.52586e-01,-1.58093e-01,-3.51916e-01,5.77776e-01,1.25966e-01,-6.05043e-01,-2.75449e-02,9.83616e-01,-1.29547e+00,-4.53428e-01,-1.13499e+00,2.95211e-01,1.94788e-01,-4.19318e-01,1.65377e-01,-7.48749e-02,-2.90129e-01,-2.30886e-01,
2.21827e-01,2.63701e-01,-3.18445e-02,-2.21351e-02,-2.26368e-01,-2.99115e-01,1.97320e-01,2.31214e-01,2.63502e-01,2.07554e-01,1.74488e-01,1.53890e-01,1.26908e-01,1.14965e-01,-5.29735e-02,-1.04615e-01,-2.24745e-01,-2.23618e-02,-1.25700e-01,2.84464e-01,2.86573e-01,-5.72283e-02,-1.22535e-01,-3.09552e-01,-1.71781e-01,
6.90128e-02,4.68219e-02,-3.91189e-01,-2.61253e+00,-1.25322e+00,-1.12179e-02,-8.03218e-01,1.95480e-01,-1.09104e-01,5.68218e-01,-8.66523e-02,-4.18388e-02,6.27260e-01,-1.18461e-01,-2.90103e-01,3.44411e-01,3.85512e-01,-2.96317e-01,4.99262e-01,-4.48622e-01,-3.02480e+00,-3.41103e-01,8.55778e-02,3.67570e-01,2.41543e-01,
4.29243e-01,-2.10902e-01,1.37353e-01,3.24161e-01,6.79069e-01,2.54868e-01,4.06499e-01,-1.46387e-01,1.16275e-01,5.37668e-01,-1.26633e-02,3.02200e-01,-1.18510e-01,-2.59532e-01,-1.57119e-02,1.09645e-01,-3.18076e-01,4.67994e-01,-9.34066e-02,2.27755e-01,4.80410e-01,2.95250e-01,-1.61861e-01,5.06700e-01,-1.37124e-01,
4.64078e-01,1.93945e-01,5.91752e-02,-3.33213e-01,2.64926e-01,4.41124e-01,-3.73441e-01,2.56152e-01,-1.97583e-02,-5.88985e-01,-3.59510e-01,1.10952e-01,9.05336e-02,-5.28754e-02,-4.24286e-02,-3.18336e-01,-5.19259e-01,-5.27431e-02,2.32740e-01,6.82104e-01,6.86558e-01,-2.82597e-01,3.03681e-01,-1.83447e-01,-6.81962e-01,
3.92669e-02,-9.85681e-02,-8.24810e-01,7.57773e-01,-3.80375e-01,3.18695e-01,-1.96348e-01,2.30867e-02,6.19108e-02,1.98413e-01,-3.28845e-01,4.33904e-01,5.24463e-01,-5.02617e-01,-2.35396e-01,1.36718e-01,-1.32670e-01,1.50925e-01,2.99411e-01,1.02267e-02,1.27877e-01,3.27051e-01,-3.79936e-02,-1.52883e-01,-1.80489e-01,
-4.36104e-03,-7.39950e-02,5.67180e-03,7.74398e-02,1.66498e-01,2.66003e-02,2.97677e-01,-7.86539e-02,1.94489e-01,-2.11536e-01,2.82624e-01,8.91435e-02,3.38784e-01,4.57559e-02,-6.30853e-01,1.40699e-01,-1.78913e-01,3.10173e-03,-1.73443e-02,1.66172e-01,3.53061e-02,-4.99334e-02,-2.10611e-01,-5.75103e-01,5.01752e-02,
5.46250e-02,1.38232e-01,9.53423e-05,-2.88519e+00,4.33520e-01,3.19583e-01,-4.55198e-01,-2.71784e-01,-1.26350e+00,-3.63718e-01,5.61115e-01,2.10518e-01,2.01496e-01,4.26852e-02,-5.95006e-02,-9.00856e-01,-1.06136e+00,-4.20269e-02,5.14422e-02,-4.13912e-01,4.12939e-01,2.26975e-01,1.02108e-01,-3.14728e-01,-3.30666e-03,
-6.17569e-01,-1.74889e-01,-1.05139e-01,4.11478e-01,-2.79161e-02,-1.44035e-01,-3.03453e-01,1.22982e-01,5.67810e-02,2.97778e-02,1.22702e-01,-1.40963e-01,3.29607e-01,-8.84001e-02,-3.53323e-01,2.11444e-01,-1.53779e-01,2.09423e-01,-1.11628e-03,-2.32032e-01,2.07303e-01,-2.32129e-01,2.92458e-01,1.80184e-01,-4.09460e-04,
-2.38105e-01,2.04995e-01,8.76469e-02,-1.02873e-01,8.28111e-02,1.22259e-01,-2.15569e-01,2.32736e-02,1.79953e-01,-4.61817e-04,2.69274e-01,1.30163e-01,6.16268e-01,5.87070e-02,-6.70967e-01,2.69243e-01,-4.89433e-01,4.26381e-01,2.23021e-01,1.84809e-01,-1.53638e-01,-1.06222e-02,1.27822e-01,-1.27187e-01,-2.82353e-01,
-2.24488e-01,2.66479e-01,5.23101e-02,8.35486e-02,3.34933e-01,-1.71147e-01,-2.63175e-01,-3.13578e-01,-6.17379e-02,2.38080e-01,6.43281e-02,-5.91050e-02,-7.86452e-01,9.39777e-02,3.84260e-01,5.72651e-02,1.60180e-02,-3.99758e-01,-1.19162e-01,-6.51386e-02,1.68704e-01,-1.55112e-02,5.03926e-02,4.49505e-01,-4.80004e-02,
2.05613e-01,3.25089e-01,3.69706e-01,1.01167e-01,9.69156e-02,-2.60823e-01,1.77187e-01,-1.85982e-01,1.18134e-01,6.29972e-02,1.54408e-02,2.78375e-01,-1.13795e-01,1.18516e-01,-1.94937e-01,2.34181e-01,8.02736e-02,-3.09054e-01,-1.58030e-01,-2.47975e-01,3.94596e-02,-2.75081e-01,-1.17690e-01,-6.35398e-02,2.92900e-01,
1.47245e-01,2.54595e-01,7.00308e-02,-1.01084e+00,-2.05591e-02,-6.28387e-01,-8.06852e-01,7.07421e-02,8.51634e-01,8.82492e-01,-2.10497e-01,-4.08865e-02,-9.37004e-01,6.91159e-01,-1.55336e-01,-1.89079e+00,-2.72535e-01,5.69968e-01,-3.40046e+00,1.25095e+00,2.01467e-01,-2.78028e-01,-1.96698e-01,5.21486e-02,-3.98622e-01,
-3.09079e-01,3.77376e-02,-4.41744e-02,2.17272e-02,7.18245e-01,-2.69679e-01,-1.14035e-01,-2.92343e-01,-1.12437e-01,3.31052e-01,-1.22316e-01,-4.80410e-02,-3.16254e-02,2.52346e-01,1.73135e-03,-2.70878e-01,3.11941e-01,-3.15548e-01,-3.88304e-01,-2.36225e-02,6.10376e-02,2.09233e-01,-1.85305e-01,3.67331e-01,1.12934e-01,
-2.32397e-01,-2.34096e-01,2.81875e-01,-4.31191e-01,6.62038e-02,3.27725e-02,2.76359e-02,2.46851e-01,-1.95354e+00,-1.08615e-01,-7.06031e-02,-2.94274e-01,2.20799e-01,-2.34695e-01,-5.01874e-01,-2.94140e-02,-3.09700e-01,2.12840e-02,-1.94900e-01,1.46169e-01,2.90434e-01,1.52079e-01,1.63357e-01,-1.52361e-01,2.04877e-01,
2.87348e-01,
1.30941e-01,
2.25679e-01,
3.55753e-02,
-2.63574e-01,
-2.82465e-01,
-2.01749e-01,
-4.30898e-02,
9.68641e-02,
1.92315e-01,
-9.18582e-04,
-3.22998e-01,
-2.77923e-01,
3.42481e-02,
8.21094e-02,
-5.07034e-02,
-1.36858e-02,
-1.64797e-01,
3.67309e-01,
2.28717e-02,
6.63606e-02,
-1.61005e-01,
1.87157e-01,
1.83200e-01,
-1.86645e-02,
2.13105e-01,-5.99783e-04,3.16918e-01,-5.28964e-02,2.49201e-01,3.68085e-01,-1.25830e+00,-7.79887e-01,-3.66411e-01,-2.97798e-02,-9.07820e-02,2.91588e-02,-6.93804e-02,-1.84314e-02,-2.85606e-01,1.15187e-01,1.26171e-01,-5.32510e-02,3.37782e-01,-9.91193e-02,-1.07236e-02,3.25669e-02,-2.30695e-01,1.83751e-01,-1.11925e-02,
-5.68505e-03,2.12083e-01,6.57513e-02,3.52960e-02,1.48922e-01,3.92770e-01,4.61644e-01,1.07758e+00,2.81299e-01,1.33080e-01,7.87085e-02,-2.78012e-01,-1.73693e-01,-2.60140e-01,-2.29125e-01,2.32169e-01,-1.52134e-01,-9.93545e-02,3.73661e-01,5.78900e-02,-1.13948e-01,8.94918e-01,-9.30485e-02,1.61252e-01,5.63880e-02,
2.09094e-01,-4.38450e-02,2.33889e-01,2.90134e-02,1.90763e-01,3.63921e-01,1.27520e+00,1.10227e+00,-8.26586e-02,-3.81833e-03,3.62472e-02,-2.93891e-01,-1.09802e-01,-7.77489e-02,-1.39578e-01,3.85706e-01,-3.27841e-02,-1.13644e-01,1.38221e-01,-4.11827e-01,2.51863e-02,5.12997e-03,3.69852e-01,1.96960e-01,-8.27492e-05,
5.60140e-02,5.85841e-02,1.34469e-01,3.71463e-02,2.92416e-01,4.26941e-02,2.96073e-01,6.46440e-01,4.03810e-01,-8.77805e-03,-1.22861e-03,2.44134e-01,-1.60524e-01,-2.26250e-01,-1.50985e-01,2.18380e-01,-1.18982e-02,-2.75340e-02,2.18777e-01,-2.18292e-02,2.21810e-01,5.75399e-01,-1.32921e-02,5.90516e-02,5.15434e-02,
-6.45302e-04,1.45848e-01,1.13257e-01,2.57208e-02,1.63778e-01,-2.77915e-01,8.98660e-01,6.71432e-01,-1.03539e-01,-3.47946e-01,5.28570e-02,1.23476e-02,-1.50824e-01,-8.30347e-02,-1.88154e-01,3.07473e-01,-4.53897e-02,-7.26199e-04,1.28494e-01,-2.05800e-01,7.04164e-02,2.15132e-01,3.14562e-02,1.37246e-01,1.42105e-01,
2.16344e-01,-8.26656e-02,6.15237e-03,9.88926e-02,-1.37374e-01,7.39943e-02,1.04475e+00,1.11184e+00,-3.90848e-02,-2.91292e-02,-7.75913e-02,-1.72918e-01,-1.56262e-01,-2.86713e-01,-2.57650e-02,1.61311e-01,1.94420e-02,-1.02072e-01,-3.99716e-02,-3.68419e-03,7.30705e-01,4.52452e-01,-1.00180e-01,-1.26166e-01,8.05734e-02,
5.21588e-01,2.19838e-01,1.49430e-01,-7.23727e-02,3.90696e-01,-1.53774e-01,5.84224e-01,8.40981e-01,-3.09592e-01,2.36477e-02,4.91368e-02,-1.83385e-01,-1.91902e-01,-1.38018e-01,-2.78170e-01,2.77806e-01,7.35455e-02,2.09434e-01,2.07124e-01,-2.65097e-01,1.20267e-02,1.07019e-01,-5.25232e-02,3.27320e-01,1.98726e-01,
6.67536e-02,4.21417e-02,1.37744e-01,2.07233e-02,1.28196e-01,7.82313e-02,3.14703e-01,5.76577e-01,-4.02137e-02,-3.42126e-02,-7.02427e-03,1.77171e-01,-1.55533e-01,-2.11726e-01,-1.41600e-01,2.13034e-01,1.11259e-02,-5.59043e-02,2.03598e-01,-3.30156e-02,2.75556e-01,5.12354e-01,-2.63425e-02,3.27925e-02,7.93190e-02,
3.28072e-02,1.48666e-01,1.20335e-01,1.08693e-02,-1.32763e-01,-3.87340e-01,7.19212e-01,5.08056e-01,3.95912e-01,-3.26841e-01,5.49362e-03,-1.24890e-01,-1.49700e-01,-8.63634e-02,-2.10134e-01,2.89147e-01,-2.45583e-02,7.85090e-02,1.45894e-01,-1.84724e-01,6.68735e-02,1.88498e-01,3.22622e-02,1.61324e-01,1.43624e-01,
-1.21304e-01,
-1.98374e-03,
-1.91694e-02,
-4.11645e-01,
-3.55633e-01,
1.36509e-01,
-2.00763e-01,
-4.08840e-01,
-3.80971e-01,
