// Neural Network File Format by Kyle Julian, Stanford 2016
6,4,9,25,
4,25,25,25,25,25,9,
0,
-8000.000000,-100.000000,-100.000000,0.000000
8000.000000,100.000000,100.000000,40.000000
0.000000,0.000000,0.000000,20.000000,-4.647677
16000.000000,200.000000,200.000000,40.000000,22.514692
1.67648e-01,-1.81802e-01,2.67862e-01,-7.64436e-02,
1.76624e+00,4.81003e-01,-2.81398e-01,-9.79482e-02,
-1.49200e+00,-1.13483e-02,2.98611e-02,-8.70821e-01,
4.06190e-01,3.56999e-01,3.38826e-01,-1.87290e-01,
-3.39679e+00,1.46046e-03,3.60849e-03,-2.42184e-03,
-3.61938e+00,1.08441e-02,4.20691e-02,4.38475e-03,
1.64897e+00,8.66614e-03,-1.46534e-02,5.78139e-01,
-7.62678e-01,-1.86207e-02,-3.21971e-01,3.80062e-02,
-1.93038e+00,1.38312e-01,2.02692e-01,-4.63279e-02,
-1.47429e-02,9.01734e-03,-1.38503e-02,-2.45511e-01,
1.41891e+00,2.26688e-02,-6.10026e-02,-7.73823e-01,
2.95288e+00,-1.62249e-01,5.70196e-02,-4.96360e-01,
4.81022e-01,1.19834e+00,1.20111e-01,1.36349e-02,
-1.15297e-01,-6.07177e-01,5.93284e-01,-1.04230e-02,
2.13882e+00,-2.36677e-01,4.27920e-01,-1.70037e-01,
2.15737e+00,-1.98418e-01,3.33153e-01,5.00339e-01,
-1.49224e+00,-7.21346e-01,-1.14075e-01,-1.85956e-01,
2.85237e-01,-9.37536e-02,-3.94459e-01,-9.32608e-03,
-1.80595e+00,9.09751e-02,-1.30933e-01,-6.49159e-01,
1.46985e+00,-1.74099e-01,3.52308e-02,4.00938e-01,
-3.16623e-02,1.14574e+00,-1.56941e-02,-6.56464e-03,
2.37613e+00,9.83562e-03,-7.38649e-02,-6.08788e-01,
-1.03183e-01,-1.23927e+00,2.20179e-02,1.98668e-02,
-1.86873e+00,3.14884e-01,-4.79372e-01,-2.38143e-01,
8.70836e-02,-1.39789e+00,-1.04102e-02,7.33872e-04,
-3.62496e-01,
1.47907e-01,
-1.53670e-01,
1.92920e-01,
-1.38970e-01,
1.80855e-01,
2.42284e-01,
1.67122e-01,
1.75411e-01,
1.17939e-01,
-3.42102e-01,
-8.66969e-04,
-2.97928e-01,
-8.61385e-02,
5.24557e-02,
3.41395e-01,
-1.10929e-01,
1.94913e-01,
6.46628e-02,
8.91553e-02,
-1.94154e-01,
-2.01393e-01,
-6.44517e-02,
1.64918e-01,
7.79061e-03,
-6.17962e-02,1.73135e-01,5.77874e-01,3.32304e-01,-7.27081e+00,-1.80616e+00,-4.43763e-01,-1.72726e-02,-4.51123e-01,-3.32484e-01,-7.33479e-03,3.32033e-01,4.57329e-01,8.66750e-02,3.75568e-01,4.56139e-01,3.26976e-01,9.73878e-02,7.48950e-01,-3.07113e-01,-5.73063e-01,-2.83915e-02,3.89445e-01,-3.93326e-01,-4.11955e-01,
1.26701e-01,-2.12213e-01,1.54923e-01,1.50360e-01,2.01069e-01,-7.47771e-02,-4.33157e-03,-3.58194e-01,3.29853e-01,1.76388e-01,2.37255e-01,4.46479e-01,1.77728e-01,9.96511e-02,8.49044e-01,1.84559e-01,-8.79460e-03,-2.28774e-04,-6.38389e-02,-6.04618e-01,-4.36695e-01,7.64233e-01,2.31146e-01,-1.80813e-01,1.61738e-01,
-9.16943e-02,4.95002e-02,-1.22206e-01,-9.15478e-02,-2.09198e+01,3.96796e-01,3.96483e-02,4.93548e-03,-1.77766e-01,3.64245e-01,2.74400e-01,2.45959e-01,3.63595e-01,1.60358e-01,-1.41809e-01,-9.35448e-03,-2.82439e-01,-2.48097e-01,4.01487e-02,8.12160e-02,-4.48123e-01,-2.43544e-03,8.71692e-01,6.11990e-02,-4.89986e-01,
-2.65895e-01,-1.40458e+00,3.78486e-01,5.10446e-01,3.11164e-01,-1.58012e-01,2.02297e+00,1.79868e-01,-5.73667e-01,-3.07780e-02,-1.11966e-01,1.63232e-01,3.29593e-02,-4.96825e-01,7.89492e-01,-9.57497e-01,9.03839e-01,-5.83348e-01,1.90690e-01,-8.16307e-01,-6.90984e-01,-5.12566e+00,2.11976e-01,2.22087e-01,-2.35799e-01,
-1.59859e-01,-7.14903e-01,6.39909e-01,3.78977e-01,-6.45718e-01,3.45410e-01,-1.84313e-01,8.12904e-02,1.15945e-01,4.57968e-01,-1.25175e+00,1.16239e-01,-1.93061e-01,-7.08703e-01,4.26571e-01,5.13362e-01,5.61351e-01,-4.11860e-01,3.18180e-01,1.45262e-01,-2.70585e-01,-3.54825e-01,-2.83979e-01,-1.23842e-01,-2.84126e-02,
-2.80593e-01,7.04471e-01,-1.09577e-01,3.39350e-01,2.39669e+00,-3.67296e+00,1.80132e-02,-1.06468e+00,-8.65342e-01,1.54134e-01,1.38274e-01,1.26943e-01,5.86873e-02,-3.98357e-02,1.07496e-01,5.74486e-01,-7.34016e-01,4.06658e-01,4.76962e-02,-1.50874e-01,-2.15611e-01,-1.86731e-02,7.63155e-01,-5.13334e-02,-6.96879e-02,
-1.20572e-01,1.11560e-01,3.08552e-01,3.44134e-02,5.07815e-01,2.43893e-01,-5.64788e-02,-3.61596e-02,-8.27378e-02,2.40033e-01,-2.18133e-01,5.55176e-02,8.25693e-01,8.83017e-01,-4.97648e-01,4.47824e-02,3.14953e-01,2.84351e-01,-2.89062e-03,1.01827e-01,-7.17178e-01,-3.18391e-01,5.39252e-01,-5.21812e-01,-1.03050e+00,
-3.11435e-01,2.81669e-01,-2.88459e-01,-7.75867e-02,-3.92270e-02,6.04131e-01,5.50972e-01,4.18626e-01,7.91283e-02,4.45960e-01,-1.78538e+00,-5.71457e-01,-2.61272e-01,2.13134e-01,-1.97322e-01,-5.01691e-01,-8.34913e-01,-1.78499e-01,-1.22413e-02,-8.27082e-02,3.07034e-01,-1.56233e+00,2.76667e-01,4.21415e-01,-1.14492e-01,
1.01583e-01,-3.45913e-01,8.69304e-01,-4.09931e-02,-3.67163e-01,3.57789e-01,1.12743e+00,3.36073e-01,2.64709e-01,5.71444e-02,-8.46351e-01,4.45088e-01,1.06203e-01,1.57531e-01,3.91629e-01,-1.02596e+00,2.90528e-01,-3.98915e-01,-7.12210e-02,2.50796e-01,-1.02034e-01,-4.11053e-01,3.63084e-01,6.25680e-01,-4.40384e-01,
1.65798e-01,-1.37265e-01,-7.10510e-02,-2.37224e-01,-2.78547e-01,5.10683e-01,1.58318e-01,2.22554e-01,5.03200e-02,1.54846e-02,-1.58324e-01,-1.16619e-01,1.49315e+00,-4.51558e-01,4.18913e-01,-1.19710e-01,-1.22197e+00,4.69210e-04,1.74914e-01,-2.02234e-02,-1.61467e+00,-2.20493e-02,6.88310e-01,1.16682e-01,-5.08124e-01,
-7.18471e-02,-1.49124e-01,-2.69416e-01,4.05490e-01,2.64483e-01,-3.28364e-01,5.90942e-02,-4.26640e-01,1.30048e-01,-3.52483e-01,1.16948e+00,9.04563e-01,-2.92870e-01,3.15577e-01,7.71573e-01,7.23704e-01,6.13298e-02,-1.52271e-01,-4.21988e-01,-1.05805e+00,-1.11006e-01,7.08347e-01,9.71573e-02,-5.11991e-01,2.00832e-01,
-1.02255e-01,-9.92228e-02,-3.31413e-02,2.50926e-01,-6.36552e-01,5.70410e-01,1.33160e-01,4.16392e-01,6.86286e-02,3.84883e-02,-2.40206e-01,3.41955e-01,-5.47724e-01,-1.29027e+00,-1.55022e-01,-6.81232e-01,3.40447e-01,-2.56720e-01,-7.66942e-02,4.28720e-01,7.33930e-01,-4.90143e-01,6.35607e-01,5.02833e-01,-8.09352e-01,
-1.54026e-02,-3.78279e-01,2.88461e-01,-4.01839e-01,3.08739e-02,1.07147e-01,2.52429e-02,-1.49144e-01,-3.39934e-01,1.70516e-01,-6.94048e-01,3.77915e-02,-1.41020e-01,1.45916e-01,4.03269e-01,4.39187e-02,2.95184e-01,3.84503e-01,5.80648e-02,3.56699e-01,6.04123e-01,-1.62048e-01,-4.71267e-02,-1.59322e-01,5.02629e-01,
2.31944e-02,-5.08381e-01,3.93226e-01,5.64207e-02,-2.19269e-01,4.95845e-01,-2.81482e-01,-1.04272e-01,-4.54144e-01,-4.36412e-01,6.09591e-01,1.96460e-01,7.30050e-01,-6.43191e-03,9.03118e-02,1.29158e-01,-1.60883e-01,3.13673e-01,4.64414e-01,3.56003e-02,-4.45618e-01,-1.76534e-01,-1.25850e+00,1.75127e-02,5.65462e-01,
2.63148e-01,-9.27408e-02,-2.14054e-01,4.74904e-01,-9.16839e-01,6.35233e-01,2.74124e-02,1.59224e-01,6.76524e-01,-3.70072e-01,-1.80755e+00,-7.23372e-01,2.28311e-01,-7.62936e-01,6.50503e-02,2.63929e-01,-3.82555e-01,-2.87449e-01,9.86689e-02,-4.08635e-01,-1.01823e+00,1.42896e+00,1.24249e-01,-2.34220e-01,-9.33669e-01,
2.89117e-01,-4.24665e-01,9.32514e-01,5.40440e-01,-3.55089e-01,-4.39939e-02,-5.58015e-01,-3.01086e-01,3.62415e-01,-8.38543e-02,-6.39504e-01,5.19154e-01,-3.81265e-02,1.47739e-01,-9.54182e-01,1.24298e-01,-2.12887e-01,3.50487e-01,3.40297e-01,-2.90133e-01,1.59268e-01,-7.03432e-01,-8.92657e-02,1.74227e-01,2.29769e-01,
-2.48540e-01,-3.34509e-02,2.24368e-02,1.96200e-01,-3.35903e-01,2.18227e-01,-5.35092e-01,3.63331e-01,-2.52105e-01,-2.25632e-01,7.25324e-01,6.87345e-02,9.95367e-02,-3.05898e-01,-5.14476e-02,3.21801e-01,-3.08921e-02,-4.36521e-01,1.98553e-01,2.30100e-01,-2.74615e-01,4.21431e-01,1.38063e+00,-2.12874e-01,-8.61569e-01,
-2.38357e-01,2.95675e-01,-2.44246e-01,-3.67098e-01,-9.56684e-01,5.27667e-01,-2.13142e-01,4.19973e-01,5.37398e-01,-3.88437e-01,5.98239e-01,-3.09841e-01,3.67629e-01,-2.37189e-01,-8.57588e-01,2.44455e-01,-6.38366e-01,4.14031e-01,-3.09259e-01,-5.78674e-01,-4.74923e-02,-6.21697e-01,2.90669e-01,-9.95315e-02,-1.34065e-01,
-4.06891e-02,1.35973e-02,4.96354e-02,2.86205e-01,9.69824e-01,-5.43982e-01,2.88656e-01,-4.81308e-01,-2.21183e-01,2.55633e-01,1.17358e-01,2.30957e-01,-2.79358e-01,-2.16301e-01,6.00876e-01,3.86070e-03,1.53948e-01,3.89410e-01,-2.80814e-01,1.44228e-01,4.15752e-01,1.62772e-01,2.09364e-01,3.31535e-02,-5.67468e-01,
-5.54043e-02,-1.08992e+00,3.94020e-01,4.74151e-01,-2.61526e-01,2.10304e-01,5.50661e-01,-7.97046e-02,1.94247e-01,1.01776e-01,-8.01279e-01,-5.43607e-01,-1.04666e-01,-3.91152e-01,-2.99950e-01,-2.52191e-01,-9.12909e-02,1.42890e-01,7.07310e-01,-1.83577e-01,1.35276e-01,-5.50946e-02,-5.73254e-02,2.66129e-01,6.96094e-02,
1.58341e-01,-2.63005e-01,-9.91749e-02,1.74639e-01,2.65953e-01,-3.16217e-01,3.21974e-02,-1.44835e-01,-1.73861e-02,1.60054e-02,-2.86853e-01,-1.77781e-01,-3.30004e-01,-3.37881e-02,-2.24093e-01,-2.85700e-02,-5.40385e-02,5.74884e-02,-7.93760e-02,-2.29459e-02,2.87237e-01,7.46087e-02,2.55088e-01,-3.34388e-01,-2.44498e-01,
3.16998e-02,-1.64425e-02,-1.11221e-01,-1.15002e-01,5.99883e-01,-3.65419e-01,-1.90992e-01,-7.72635e-02,-1.32343e-01,1.04548e-01,-1.20657e+00,7.21043e-01,8.48911e-01,3.82866e-01,-4.07819e-01,1.06412e-01,3.88030e-01,3.39146e-01,2.12450e-01,-5.57160e-01,-9.25065e-01,-9.26842e-01,9.69901e-03,-2.87451e-01,-1.99511e-01,
2.12785e-02,-2.22520e-01,-4.24628e-01,4.32157e-01,4.17173e-02,-1.93407e-01,-4.05524e-01,-1.22116e-01,-4.01193e-02,-1.50385e-01,-5.09591e-01,6.76308e-01,-4.41814e-01,-2.81792e-01,2.40869e-01,6.98560e-01,-1.37018e-01,-7.63162e-01,-1.95504e-01,-3.09493e-01,6.53182e-03,3.08513e-01,4.15867e-03,4.96959e-02,1.23849e-01,
-7.91395e-02,-1.01835e-01,6.97220e-02,1.89958e-01,-4.23724e-01,8.44334e-01,4.99375e-01,3.08571e-02,4.30176e-01,1.00012e-01,3.14320e-02,-1.75272e-01,9.88266e-02,1.49119e-01,-3.51015e-01,-2.18090e-01,6.34515e-02,-2.49942e-01,3.35429e-01,-3.95485e-01,-2.28506e-01,-3.66869e-01,3.47473e-02,3.04962e-01,5.43557e-01,
-2.34915e-01,-2.70257e-01,3.05668e-01,2.67656e-01,6.91389e-01,-5.05269e-01,1.68558e-01,-1.88472e-02,-3.61898e-01,-6.34258e-02,5.14638e-01,-4.22431e-01,9.71156e-01,-1.05353e-01,2.41050e-02,-1.95812e-01,8.73526e-01,1.38446e-04,-1.54118e-01,3.19373e-01,-1.15482e+00,4.75830e-02,-5.35642e-01,1.95187e-01,-4.85280e-01,
1.45437e-01,
3.06340e-01,
4.78468e-02,
-2.79512e-01,
6.98257e-02,
-3.20337e-01,
2.48792e-01,
-5.88919e-02,
-2.12025e-01,
2.34887e-01,
2.19056e-02,
-1.14572e-03,
1.86186e-01,
3.25289e-01,
-2.29904e-01,
-1.52692e-02,
2.52183e-01,
2.35686e-01,
2.79650e-01,
-1.14641e-01,
-2.83708e-01,
3.21089e-01,
7.18512e-02,
-2.03365e-01,
3.59488e-01,
-9.28403e-02,-2.04835e-01,3.07758e-02,-6.10925e-02,5.84424e-01,1.56312e-01,-3.65950e-01,-1.79066e-01,5.98048e-01,6.51219e-02,2.53615e-01,6.10811e-01,4.25697e-02,9.39907e-02,-2.67545e-01,1.53942e-01,-2.30936e-01,5.49048e-01,6.76883e-03,3.65970e-01,3.29470e-01,3.27685e-01,-3.37933e-01,2.71423e-01,1.82291e-02,
-2.60519e-01,9.20169e-02,-1.00781e+00,9.26410e-01,7.35516e-02,2.06335e-01,-4.84718e-02,1.39565e-01,6.90510e-01,-9.27797e-02,3.04745e-02,2.95511e-01,-3.93499e-02,1.66267e-01,-3.38919e-01,3.88052e-01,3.86192e-01,-4.96945e-02,-2.44343e-01,2.74849e-01,3.34560e-01,4.66277e-01,-2.77692e-01,6.13316e-02,-1.31430e-01,
6.04774e-02,-5.01690e-01,-1.08514e-01,4.32919e-01,4.01314e-02,-3.25661e-01,1.72292e-01,5.45394e-02,1.21187e-01,-3.33332e-01,8.38982e-01,2.55749e-01,-1.28021e-01,-4.14164e-01,8.90056e-02,2.62410e-01,-3.26314e-01,-1.24204e-01,1.21499e-01,-5.56473e-03,2.05269e-01,-5.10059e-01,3.39928e-01,1.32377e-02,-4.07800e-01,
-2.03430e-01,3.86223e-01,4.12452e-01,-3.31290e+00,3.12131e-01,3.98206e-01,5.35033e-01,-2.21536e-01,-4.47413e-02,6.56380e-01,-3.70610e-01,-4.33935e-01,-6.53434e-01,4.33471e-01,-5.60248e-01,-6.43406e-02,-5.41266e-02,-4.89655e-03,-1.99018e-01,-2.54419e-01,9.11945e-02,1.25074e-01,-2.95846e-01,-8.34506e-01,-2.75748e-01,
-2.66392e-01,-2.61145e-01,9.67332e-02,8.38495e-02,9.31906e-02,-2.97925e-01,-5.03139e-02,-1.68615e-01,1.66204e-01,1.45151e-01,-2.03998e-01,-1.40717e-01,4.20257e-02,-3.20228e-01,2.61819e-01,-2.12242e-01,-1.17723e-01,-7.92601e-02,-1.23993e-01,5.11809e-02,-2.22937e-01,-2.10624e-01,-2.27740e-01,-1.17596e-01,9.19646e-03,
-2.68496e-01,-1.79633e-01,2.38070e-01,9.70038e-02,-1.03244e-01,-2.17616e-01,-3.28738e-01,-2.60333e-01,-3.42947e-01,-2.30350e-01,-1.67189e-02,-5.68999e-02,-1.13410e-01,6.33235e-02,3.25089e-01,2.75000e-01,-2.43347e-01,-9.18452e-02,-2.73183e-01,-2.80808e-01,2.17138e-01,1.95902e-02,2.90676e-01,1.94486e-01,-1.98556e-01,
5.93602e-01,-2.77929e-01,1.27232e-01,-3.04877e+00,3.85035e-01,-2.01594e-01,2.06823e-01,-1.56648e-01,-9.47442e-02,-8.72296e-02,6.97685e-01,-6.54624e-01,-8.33214e-02,-5.01365e-02,-7.22863e-01,-5.55241e-02,-2.46801e-01,2.27241e-01,-2.40362e-01,-1.98738e-01,-1.54235e-01,-3.57206e-01,2.24756e-01,3.86252e-01,2.33393e-01,
-1.85532e-01,1.49039e-01,-2.64706e+00,-4.56867e-01,2.35726e-01,-7.05936e-01,-1.86011e-01,-3.97958e-01,1.02670e-01,7.63852e-02,6.33777e-01,7.68997e-01,3.87646e-01,-3.51204e-02,-2.84406e-01,-1.65607e-01,-1.67821e-01,5.70987e-01,-6.09596e-01,-9.94525e-02,9.52746e-02,-4.81707e-01,-3.24472e-01,1.49394e-01,1.98194e-01,
4.32646e-01,2.76093e-01,-1.49842e-01,4.61751e-01,-1.15723e-01,1.54059e-01,-2.99313e-01,-2.37045e-01,1.37524e-01,6.80538e-01,-3.14773e-01,3.88662e-01,-9.82193e-02,8.40083e-02,-2.57833e-01,2.73522e-01,6.06699e-01,-1.96631e-01,2.04312e-01,-5.31067e-01,2.55182e-01,1.70694e-02,-3.92442e-01,4.06293e-01,3.59756e-01,
2.56442e-01,-4.71520e-03,-2.32190e-01,1.82311e-01,6.86325e-03,-2.16760e-01,9.73586e-02,-2.19940e-01,-1.18575e-01,2.98318e-01,-8.87346e-02,-1.59892e-01,1.43298e-01,7.53700e-02,1.75094e-01,-2.48411e-01,7.27837e-02,8.19498e-02,-2.57997e-01,1.57600e-01,-2.17339e-01,-6.93728e-02,-2.57798e-01,-3.45153e-01,-1.03735e-01,
-2.79091e-01,4.69146e-01,-1.23425e-01,-1.64641e+00,6.09816e-02,1.44292e-01,7.25321e-02,-1.79069e-01,-5.09837e-02,-9.68286e-02,-5.82465e-01,-2.33682e-02,1.13651e-03,4.82148e-01,-4.50610e-01,4.79375e-01,1.60554e-01,3.31516e-01,1.53236e-01,-5.67881e-01,3.22369e-01,-3.15513e-02,-4.05133e-01,-4.38505e-01,-7.53591e-01,
1.61068e-01,-1.02442e-01,-3.39407e-01,2.92910e-01,6.91342e-02,1.29547e-01,1.63478e-01,-3.15676e-01,-4.86648e-01,2.00969e-01,8.27621e-01,-4.26338e-01,-9.34153e-02,-4.33505e-01,-8.35682e-01,-7.68067e-01,-2.36490e-02,-1.51154e-01,-5.61710e-01,-7.65012e-02,1.05096e-01,-2.30187e-01,1.92869e-01,9.03352e-02,6.22976e-02,
2.70685e-01,4.42001e-01,-7.55410e-03,-7.95376e-01,-7.70615e-02,2.12454e-01,-2.18260e-01,3.01454e-01,-5.33746e-01,-1.88396e-01,-3.13393e-01,-9.90146e-02,-1.62446e-01,9.85011e-02,1.39034e-01,1.31021e-01,4.10117e-01,-7.98415e-01,-2.15059e-02,-3.71714e-01,-7.42486e-02,-2.72488e-01,7.68693e-01,-9.51281e-02,-3.57384e-02,
-4.51254e-01,4.75740e-01,2.32628e-01,-2.04041e-01,-6.42121e-02,4.32722e-01,5.18387e-01,4.88088e-01,1.43367e-01,-7.01704e-02,1.34960e-01,2.32300e-01,5.02969e-01,2.32138e-02,5.55904e-01,-1.52625e-01,5.62598e-01,2.72068e-01,-3.52821e-01,9.77521e-03,2.40054e-01,4.08985e-02,1.41756e-02,-8.58406e-01,-2.96669e-02,
-7.16531e-01,-9.65698e-02,3.77733e-01,-6.37563e-01,-7.31456e-01,3.67551e-01,8.88559e-02,-1.62220e-01,5.84293e-01,-2.28227e-01,-1.10264e+00,2.38580e-01,2.92815e-02,5.34285e-01,-2.40967e-01,3.25594e-01,-1.25338e-03,3.08767e-01,2.33193e-01,6.56595e-01,3.36092e-01,-1.58460e-01,-9.41007e-01,-1.81042e-02,-3.68693e-01,
7.81750e-01,-7.00275e-01,4.08967e-02,-5.14459e-01,3.52524e-01,-4.26156e-01,-1.45686e-01,-1.91754e-01,1.94207e-01,-8.71247e-01,6.67703e-02,2.95369e-03,-1.05289e-01,-5.34824e-01,3.51101e-01,-1.20560e-01,-3.29326e-01,7.88162e-02,4.14232e-01,-2.59040e-01,1.72393e-01,4.32868e-02,-7.69950e-01,4.94084e-01,-5.29057e-02,
4.54340e-01,4.77903e-01,3.15764e-01,5.36358e-01,2.23770e-02,-1.20808e-02,-9.64620e-02,-3.99009e-01,6.92577e-01,-3.89114e-01,-3.30523e-01,-2.55059e-01,-2.59282e-01,1.05242e-01,2.84574e-01,2.74969e-02,-1.08164e-01,-2.00217e-01,-3.55042e-02,1.67144e-01,-2.16227e-01,-3.96728e-01,-3.56977e-01,-4.91344e-02,3.60342e-01,
2.99981e-01,-3.78914e-01,2.49213e-03,5.27628e-01,4.09817e-01,-6.61020e-01,4.43806e-01,3.83539e-01,-6.68763e-01,-1.31812e-01,6.68168e-01,-1.72679e-01,1.32029e-01,-2.31132e-01,-2.84419e-01,1.36383e-01,8.99429e-02,3.34112e-01,3.56186e-01,-4.22557e-01,8.57098e-02,2.90643e-02,1.20461e-01,2.69160e-01,1.48388e-01,
-1.88173e-01,-1.82540e-01,-8.01428e-02,-4.59265e-02,2.36428e-01,-2.37133e-01,-3.04429e-01,2.64654e-01,6.39270e-02,-1.30193e-01,-3.35314e-01,-2.00631e-01,1.66872e-01,-1.54527e-01,2.84190e-01,1.59994e-01,-1.38142e-01,-2.84932e-01,6.29568e-02,-2.93955e-02,2.74308e-01,2.25737e-01,2.00269e-01,-3.36596e-01,-1.78366e-01,
2.62793e-01,-1.46810e-01,-1.56828e-01,-3.93030e-01,-8.90505e-02,3.57035e-01,-3.44719e-01,-1.74810e-01,-9.58390e-01,2.04669e-01,6.01623e-01,-7.45371e-02,1.44393e-01,1.66947e-01,2.61769e-01,4.20991e-01,2.66969e-01,2.07584e-01,-5.39329e-01,-8.52557e-01,-3.39161e-01,-3.59459e-01,3.90104e-02,-3.91495e-01,1.92198e-01,
5.81783e-01,1.10853e-01,3.13751e-01,7.21664e-01,5.87753e-01,-5.88342e-01,-5.37436e-01,6.71038e-01,-2.69676e-01,2.89786e-02,9.31380e-02,-3.19147e-01,2.18305e-01,2.81787e-01,-3.60994e-01,3.90698e-01,-4.50183e-01,-1.28879e-01,1.76772e-01,-3.76735e-01,3.54150e-03,-2.43319e-01,-4.74635e-01,4.70013e-01,3.85568e-01,
-2.64834e-02,-1.08880e-02,8.82232e-01,-5.77392e-01,-1.08103e-02,1.11176e-01,1.44019e-01,5.01660e-01,3.33722e-01,-6.16980e-01,-3.09529e-01,2.94940e-01,-2.72743e-02,-4.01465e-01,6.98646e-01,5.63217e-01,4.28165e-01,1.90127e-01,2.00539e-01,2.65001e-01,-1.50839e-01,-4.13683e-02,2.28177e-01,-7.18261e-01,1.15387e-01,
1.86083e-01,-6.62776e-02,-6.38301e-01,-3.72181e-01,-3.41174e-01,-3.03092e-02,6.95647e-02,2.69704e-01,-1.07789e-01,6.14730e-01,-7.84855e-03,8.51711e-02,-1.63932e-02,-4.21185e-01,6.76039e-01,1.72254e-01,3.80479e-01,1.25588e-01,3.85484e-01,5.44820e-01,-3.01372e-01,-3.37055e-01,-3.90334e-01,2.25474e-01,-4.47058e-01,
5.52545e-01,3.66013e-01,7.18304e-01,-1.74371e-01,-1.23606e-01,-1.02917e-01,1.93483e-01,-2.21725e-01,-5.20463e-02,3.49968e-01,-6.63098e-01,-1.76260e-01,-8.11070e-02,-1.33689e-01,1.59171e-01,5.73798e-01,-9.43071e-02,2.44763e-02,7.22643e-02,-1.61923e-01,2.54918e-01,3.45709e-01,-1.96450e-01,3.25175e-01,4.74826e-01,
1.69511e-01,-1.77846e-01,-1.71683e-01,2.91929e-02,-2.13696e-01,-4.98623e-02,-3.43013e-01,-3.42156e-01,-2.61834e-01,7.18909e-02,1.47823e-02,8.54347e-02,-6.39962e-02,-2.36109e-01,-3.21949e-01,2.29423e-01,1.58912e-01,-2.74857e-01,-8.31238e-02,1.68521e-01,3.07676e-01,-1.89738e-01,-1.55332e-01,-3.30135e-01,-2.65889e-01,
-5.60790e-01,
2.43414e-01,
4.12530e-01,
9.15593e-02,
-2.56570e-01,
7.13381e-02,
-1.28963e-01,
-1.86233e-01,
-1.89554e-01,
-2.96557e-01,
2.28834e-01,
3.52488e-01,
2.71961e-01,
-1.93737e-01,
2.15901e-01,
1.60964e-01,
-2.59329e-01,
-7.21607e-02,
-1.15747e-01,
2.76943e-01,
-2.02208e-01,
2.03349e-01,
2.34555e-01,
-7.83536e-02,
7.49808e-02,
-5.41235e-01,4.06760e-01,-3.61225e-01,2.17024e-01,5.53949e-02,-2.50700e-01,1.31560e-01,3.35124e-01,2.44866e-01,-3.39303e-01,8.54333e-03,4.72194e-01,-1.40216e-01,-1.21988e-01,2.57631e-01,-1.95329e-01,1.00408e-01,7.57402e-02,-8.06055e-02,-2.39255e-01,-7.59014e-02,3.63825e-01,5.34110e-02,-3.81370e-01,1.26004e-01,
-2.65049e-01,-6.18408e-02,1.94686e-01,-3.00697e-01,-2.39771e-01,-1.03687e-01,-1.36921e-02,-2.97285e-01,-9.45440e-02,-3.22215e-01,-2.52324e-01,-6.50010e-02,-2.61246e-02,-2.27502e-01,-8.14610e-02,-6.00143e-02,2.33003e-01,-3.19460e-01,-1.86942e-01,-2.86443e-01,2.70795e-01,-2.08001e-01,2.51867e-01,-8.25278e-02,-1.73878e-01,
-6.43753e-03,3.56595e-01,-2.99568e-01,2.35872e-01,-2.59636e-01,2.54012e-01,5.83185e-01,-2.86194e-02,1.45851e-01,-1.15221e-01,4.60097e-01,6.37391e-02,2.65090e-01,1.40883e-01,-4.81321e-01,1.04765e+00,-1.42828e-01,-3.05470e-01,-1.46709e-01,-4.66184e-01,-1.57143e-01,4.07090e-02,-5.59897e-02,-1.75635e-01,-3.62618e-01,
-2.38657e-01,-9.53920e-02,1.82407e-01,-3.51645e-01,-1.82871e-02,-3.06585e-01,-4.41359e-01,-5.73802e-02,2.47894e-01,2.17295e-01,2.25253e-01,2.51321e-01,-1.92964e-02,-4.63155e-01,5.34749e-02,-1.06413e-01,-1.07734e-01,3.69100e-01,1.94448e-01,-1.25374e-01,7.11959e-01,1.06575e-01,1.70620e-01,-3.25522e-01,1.18901e-01,
-4.94286e-01,-1.01371e-01,2.37689e-01,-3.32618e-02,-7.28500e-03,2.31123e-02,-8.63615e-02,5.66802e-01,3.54808e-01,-1.67418e-01,-4.61141e-02,5.12377e-01,-5.52993e-01,-1.15678e-01,2.22822e-01,3.54473e-02,2.88162e-02,-6.95373e-02,-5.23780e-02,1.99368e-01,5.41734e-01,2.54804e-02,-1.86551e-01,9.73151e-02,2.05042e-01,
-8.80123e-01,1.44573e-01,7.30491e-01,2.26323e-03,-1.55391e-01,2.53161e-01,-2.97357e-01,1.33449e-01,4.22836e-01,-2.52946e-01,2.92166e-01,-2.82999e-01,3.27994e-02,3.79553e-02,-5.43049e-03,-1.17121e+00,-4.72034e-01,-9.89548e-02,-2.86624e-01,-2.69615e-01,1.56802e-01,-2.07424e-01,-5.05719e-02,3.22527e-01,2.98176e-01,
-3.52998e-01,2.55564e-01,-2.85344e-02,-7.95373e-01,-2.35919e-01,-3.75577e-02,3.05648e-01,3.65074e-01,2.01987e-01,2.86942e-01,1.18126e-02,1.16231e-01,-2.06163e-01,-5.43441e-02,-2.11416e-01,-3.61401e-02,1.06478e-01,-2.02906e-01,9.97804e-02,-1.08778e-01,-2.22775e-01,1.76516e-01,-2.16557e-01,2.57842e-01,-1.07499e-01,
-4.59510e-01,-4.81431e-02,-3.49259e-01,-7.06302e-01,-6.09517e-04,-1.03800e-01,3.40733e-01,1.17972e-01,2.29772e-01,1.17703e-01,2.74700e-01,3.01863e-01,-3.23267e-02,-2.73537e-01,6.79078e-02,3.15218e-01,-2.09772e-01,-1.08656e-01,1.17673e-01,4.52436e-02,-1.64442e-01,1.20574e-01,-3.47695e-01,3.16537e-01,3.04619e-01,
-2.61313e-01,2.86227e-01,6.79175e-02,1.20543e-01,-2.06197e-01,-6.00275e-02,-9.67259e-02,5.18575e-02,-1.69842e-01,2.60929e-01,-2.44731e-01,-3.71663e-01,1.82244e-01,3.20147e-01,-2.63307e-01,3.12769e-02,-1.58927e-01,-2.24266e-01,2.75859e-01,8.83771e-02,-4.03409e-02,4.62379e-02,-3.04920e-01,1.91265e-01,1.42663e-01,
1.86080e-01,-1.18785e-01,-6.92432e-02,4.90645e-03,-5.81024e-02,-8.00505e-02,4.20774e-01,-5.98202e-01,1.42924e-01,2.40192e-01,7.34150e-02,-2.45904e-01,3.76705e-02,3.16032e-01,2.80625e-01,3.40118e-01,-8.06082e-03,-2.47100e-01,2.46106e-01,-2.12092e-01,-2.29076e-01,3.88773e-02,-2.33890e-01,-1.94821e-01,3.44453e-01,
1.90667e-01,-6.24224e-02,-2.62409e-01,3.19699e-01,-3.24633e-01,-1.45735e-01,-4.05879e-01,1.73772e-01,-3.51972e-01,2.26763e-01,-2.11515e-01,1.94555e-01,3.08190e-02,2.91286e-01,-7.69771e-01,-4.23897e+00,-3.91389e-01,4.46762e-01,5.84018e-02,1.73466e-01,6.38368e-01,2.98946e-01,-2.24905e-01,-1.99217e-01,2.75163e-01,
-2.35851e-01,-1.88787e-01,1.44250e-01,-8.24723e-02,-1.94162e-01,3.26451e-01,-5.60040e-02,2.19121e-01,2.55170e-01,3.32270e-01,1.22976e-01,2.16155e-01,3.47722e-01,-2.21140e-01,-2.86830e-01,-4.25680e-01,-2.77304e-01,-2.41040e-01,2.79895e-01,-3.93812e-01,2.41170e-01,2.44532e-01,-6.68474e-02,5.25277e-01,-2.98779e-01,
-4.32717e-01,2.94889e-01,5.30526e-01,6.60406e-02,-9.03246e-02,3.08307e-01,-1.75624e-02,-2.57384e-02,1.66759e-01,-1.73203e-01,5.18932e-01,2.52544e-01,-1.75276e-01,-1.70935e-01,5.71531e-02,-3.67129e-01,1.51647e-01,-5.66801e-01,8.20715e-02,-3.38324e-01,-4.21426e-01,-1.49224e-02,3.95009e-02,3.27979e-01,-3.16984e-02,
4.27432e-01,-2.56333e-01,1.18983e-01,-1.81169e-01,-1.93120e-01,2.23002e-01,3.20786e-01,7.24393e-01,-1.92017e-01,-3.10743e-01,5.52614e-02,-4.72608e-01,4.25167e-01,1.75794e-01,-3.97343e-01,7.24575e-01,-1.55138e-01,-2.05098e-01,1.33084e-01,-2.24834e-01,2.68929e-01,-2.25247e-02,2.18570e-01,1.69512e-01,2.48458e-01,
-1.67809e+00,4.70886e-01,-4.02580e-01,3.58452e-01,1.76325e-01,1.61258e-01,3.90827e-01,-9.54087e-02,1.17758e-01,-1.70465e-01,1.50049e-01,-1.09691e-01,-2.03066e-02,2.03406e-01,-4.58450e-01,-9.32005e-01,-9.43192e-01,-6.88291e-03,-2.08428e-01,-7.23954e-02,-2.92512e-01,-1.47415e-01,1.36770e-02,-3.03977e-01,-3.19796e-01,
2.52941e-01,-1.88607e-01,-1.97205e-01,-4.38516e-02,-8.10482e-02,-3.15054e-01,8.25754e-02,2.92501e-01,-1.55323e-01,1.66363e-01,8.65278e-03,4.06344e-02,-2.86997e-01,1.59466e-01,1.22177e-01,3.44788e-02,1.66885e-01,-1.41773e-01,-4.44840e-02,-2.74649e-01,1.28225e-01,-8.93855e-02,-3.17745e-01,-2.91472e-01,-8.35601e-02,
-2.70768e+00,-5.49337e-01,-2.38530e-01,-1.57339e-01,1.06340e-01,-2.10822e-01,-7.01457e-01,6.36432e-01,4.52098e-01,1.08449e-01,2.58051e-01,-2.75897e-01,6.59963e-01,-6.71276e-02,4.37583e-02,-3.23684e-01,-1.79558e-01,3.23151e-01,3.11459e-01,4.22381e-01,3.49811e-03,-1.60054e-02,-5.33470e-01,-8.27606e-02,-2.08256e-01,
-1.86929e+00,3.85300e-01,1.86987e-01,2.25286e-01,-2.19460e-01,3.11997e-01,-3.76445e-01,-1.93878e+00,2.97338e-01,3.22581e-01,1.89177e-01,-9.66645e-01,5.27212e-01,-5.14961e-01,-6.22120e-01,4.09807e-01,3.24469e-01,-2.16690e-01,1.07115e-01,-2.76156e-01,-1.12202e+00,-2.61075e-01,1.18686e-01,-1.21901e-01,-3.14881e-01,
-1.10030e+00,6.91447e-02,4.84095e-02,-3.68170e-01,1.27693e-02,-2.70310e-01,9.55201e-02,-2.46125e-01,5.59953e-01,2.59693e-01,3.97179e-01,6.63349e-01,-2.49869e-01,-7.36962e-02,-1.01368e+00,-4.52212e-01,-3.67265e-01,-3.74349e-01,2.86919e-01,-1.76548e-01,5.15414e-01,5.54610e-01,-4.56747e-01,-1.20270e-02,-2.00329e-01,
-1.60734e-01,-1.27753e-01,-2.17441e-01,3.22199e-01,3.43221e-01,-1.68763e-01,9.38817e-02,5.18499e-02,-3.03678e-01,1.81525e-01,2.28276e-01,-1.72096e-01,-2.73804e-01,-1.44654e-01,-1.36012e-01,2.36984e-02,-8.34953e-02,-2.73667e-01,3.19917e-01,9.20699e-02,-3.29534e-01,-2.20690e-01,-2.11232e-01,-6.64789e-02,2.92664e-01,
-2.60440e-01,-8.00929e-02,8.89337e-01,-3.22121e-02,2.70236e-01,2.81458e-01,-4.83806e-01,-2.58992e-01,-2.66272e-01,8.55419e-02,6.42790e-01,-3.18756e+00,4.34381e-02,-6.25995e-01,4.21925e-01,-1.26251e+00,1.12818e-01,-5.37484e-01,1.59200e-01,-7.60170e-01,-1.65022e-01,-2.60918e-01,-7.20775e-01,2.00254e-01,-3.05481e-01,
1.22768e-01,-1.33360e-01,-1.12366e-01,-2.19594e-01,3.19439e-01,2.01315e-01,-3.37752e-02,6.18318e-01,-3.30306e-01,-2.12033e-01,1.71546e-01,-1.72598e-01,5.91185e-01,1.75671e-01,9.13837e-02,9.59687e-02,-2.62107e-01,-1.62839e-02,-2.18120e-01,-1.37277e-01,3.02710e-01,-3.65548e-01,-2.36145e-01,9.87110e-02,3.57585e-02,
-2.33911e-01,7.27816e-02,-7.39637e-01,-3.54681e-02,4.98689e-02,8.50476e-02,1.00648e-01,3.72381e-01,-7.89336e-02,2.99934e-01,2.79833e-01,2.01807e-01,4.92837e-01,-5.33630e-01,-8.19790e-02,2.70948e-01,-1.43301e-01,-2.53204e-01,-8.49124e-02,4.60199e-01,7.27618e-03,6.65843e-01,-2.58414e-02,-2.01248e-01,2.99649e-01,
-2.31197e-01,-9.71865e-01,-5.30774e-02,-1.00777e-01,1.21739e-01,1.75516e-01,1.60351e-01,-2.06489e-01,3.65123e-01,1.27573e-01,-1.92010e-01,8.32290e-02,2.05522e-02,-5.55705e-01,-2.56840e-01,6.31125e-01,-5.69055e-02,6.05547e-01,2.14909e-01,-4.97265e-01,-2.45733e-01,5.14484e-01,2.90586e-01,3.59244e-01,2.31152e-01,
7.06076e-01,-2.14758e-01,-2.19072e-01,-2.29427e-01,1.84846e-01,7.88333e-02,-1.53788e-01,-2.20198e-01,-2.18949e-01,-1.18874e-01,1.62135e-01,-1.94400e-01,4.43760e-01,5.44881e-01,-1.11359e+00,-1.35051e+00,-5.92340e-01,2.62410e-01,-1.04210e-01,-6.43721e-02,1.28203e-01,-2.82138e-01,-5.34830e-01,1.34313e-01,1.66483e-01,
-1.67468e-01,
-3.36684e-01,
7.60001e-02,
-4.13233e-02,
1.50704e-01,
-4.07694e-03,
2.12077e-01,
3.10805e-01,
2.08552e-01,
2.51577e-01,
-2.26361e-01,
1.21739e-01,
-7.23898e-02,
1.51399e-01,
-1.69954e-01,
-1.93055e-01,
-1.97329e-01,
6.30376e-02,
4.96252e-03,
-2.10489e-02,
2.03839e-01,
2.73620e-01,
-7.23443e-02,
-3.59907e-01,
1.13049e-01,
6.01517e-02,-6.93033e-02,3.94234e-01,1.72113e-01,-2.48422e-01,-5.80403e-02,1.35187e-01,-2.34021e-01,-3.70866e-01,5.75605e-02,-7.89254e-01,2.30275e-01,-4.86545e-01,1.62743e-01,-2.33816e-03,2.56562e-01,-2.66130e-01,6.28288e-01,5.62579e-01,-8.32274e-02,-9.38150e-01,1.40086e-01,-3.06796e-01,2.39423e+00,1.62641e-01,
3.27041e-01,2.15306e-01,-3.62961e-01,4.06884e-02,1.98720e-02,-4.12826e-01,1.98361e-01,-2.63462e-02,-2.98223e-01,-1.19306e-01,-5.55384e-01,-1.02283e-01,-5.08233e-02,-2.17550e-01,4.66227e-01,2.16245e-01,6.21227e-01,2.67647e-01,-5.26002e-01,7.33305e-02,-3.07192e-01,-7.07645e-02,-2.89496e-01,3.25458e-01,6.79173e-01,
-2.28000e-01,-1.66613e-01,2.17731e-01,-7.60159e-02,-2.37862e-01,4.31753e-01,-2.51775e-01,-1.52763e-01,2.31779e-01,-5.40885e-02,5.68099e-01,2.11003e-01,1.35380e-01,1.33613e-01,3.04549e-02,6.03881e-02,-5.47282e-01,7.12882e-01,7.42725e-01,2.67939e-01,9.52173e-01,-5.77576e-02,2.34166e-01,-5.15209e-01,-5.87284e-01,
-9.46781e-02,7.81013e-02,4.13505e-02,1.97539e-02,1.12411e-01,-1.49229e-01,7.58894e-02,2.44266e-01,1.76260e-01,2.29196e-01,-4.50483e-02,1.26424e-01,-6.02528e-02,-4.98276e-02,-1.74788e-01,-1.11874e-01,4.09774e-02,-5.12252e-01,-5.70228e-01,-2.47395e-01,-3.47402e-01,-1.92468e-01,4.28403e-02,-2.56396e-01,5.34763e-02,
8.35940e-01,2.74806e-01,5.90066e-03,3.30935e-01,2.63550e-01,-2.65553e-02,1.76956e-01,7.02762e-01,-4.35710e-03,1.64658e-01,-2.98300e-01,1.81730e-01,3.24422e-01,-5.31509e-02,2.31274e-01,5.95978e-02,-2.15181e-02,-2.47627e-01,-5.69568e-01,1.91608e-01,-1.03547e-01,1.74949e-02,-1.66201e-01,5.87027e-02,1.82949e-01,
2.84973e-01,-2.12550e-01,-4.69374e-02,-2.09264e-01,4.31573e-02,9.52737e-02,2.21859e-01,-2.09513e-03,-5.98185e-02,-3.82768e-01,3.15414e-01,4.44545e-02,2.99952e-01,-1.64874e-01,2.40349e-01,-1.81421e-01,-2.71301e-01,-1.56573e-01,-2.22647e-01,-2.98142e-01,2.43071e-01,-4.78367e-01,-6.28229e-02,-2.29761e-01,1.68283e-01,
5.31243e-01,-1.70572e-01,-8.74239e-02,-1.70806e-01,2.16125e-01,-3.40993e-01,3.61472e-01,-7.66956e-02,-4.69512e-01,2.84065e-01,1.30409e-01,-3.40399e-01,-1.82769e-01,-5.92629e-01,2.69639e-01,4.15057e-02,1.26578e-02,2.29426e+00,-4.10820e-01,1.17546e-01,6.31259e-01,1.23704e-02,-7.48078e-01,9.66140e-01,8.00655e-02,
8.57953e-02,9.11312e-02,-8.28270e-01,2.44118e-01,-4.69966e-01,-3.61868e-01,2.84595e-01,1.85485e-01,8.93393e-02,-6.61696e-02,-2.44058e-01,-4.14378e-01,-6.98965e-01,5.45200e-01,-1.81448e+00,-4.41946e-02,-1.47372e+00,-1.31573e-01,-1.28665e+00,-1.60846e-01,-3.96616e-01,1.64244e-01,-4.09213e-01,-1.36054e+00,-3.83505e-02,
-3.67163e-01,3.56157e-02,-1.38201e-01,-4.08722e-02,9.21745e-02,4.00364e-03,3.07830e-02,9.26821e-02,4.96662e-02,4.78079e-01,-1.20368e-01,-3.64230e-02,3.68421e-01,2.72018e-01,-2.38343e-01,-1.26031e-01,2.35376e-01,-6.97587e-02,2.64770e-01,3.39827e-01,3.08552e-01,3.10369e-01,-5.14974e-01,-1.01931e+00,-1.72150e-01,
-2.64442e-01,3.78592e-02,9.13573e-02,2.72843e-01,2.29342e-01,1.48276e-01,7.81952e-02,1.96383e-01,1.66105e-02,-5.36641e-02,-1.54265e-01,-3.55750e-02,1.57958e-01,1.95428e-01,-2.73377e-01,5.52005e-02,8.59761e-02,5.67428e-01,-3.01777e-01,-7.15288e-03,-6.51677e-02,4.61603e-01,-2.39189e-01,-9.28723e-01,-6.49617e-02,
2.05763e-01,7.65234e-03,-5.82478e-01,2.00697e-01,-5.28106e-01,-8.25663e-02,3.83274e-01,1.48000e-01,3.20908e-01,-2.09148e-01,-5.15988e-01,-5.48952e-01,-2.96430e-01,2.13342e-01,-6.58205e-01,1.81148e-01,5.21447e-02,-2.80062e-02,9.04689e-01,3.29573e-01,2.63638e-01,1.14180e-01,-3.72596e-01,-2.71148e-01,8.77296e-02,
-6.63309e-01,-1.18006e-01,-1.55994e-01,-1.56840e-01,-8.03066e-02,2.62174e-02,-1.69348e-01,1.32818e-01,-1.46697e-01,5.78540e-02,-2.30621e-01,1.90056e-01,-7.34802e-02,3.97565e-01,2.32544e-01,2.11076e-01,-1.15737e-01,5.10825e-01,2.14602e-01,-1.84914e-01,-5.49350e-01,3.24230e-01,-1.97142e-01,-2.27090e+00,3.42282e-02,
2.98883e-01,-2.89964e-01,-3.07320e-01,-2.62274e-01,1.85858e-01,1.13984e-01,-1.00124e-01,1.12740e-01,5.27204e-02,-2.68210e-01,6.71133e-02,-1.78703e-01,1.93172e-01,1.91328e-01,-1.06394e-01,1.78181e-01,1.28351e-01,2.94794e-02,-1.98320e-01,-2.52222e-01,-2.24011e-01,4.38529e-02,-2.04591e-01,-9.01906e-02,-1.51817e-01,
-8.58760e-02,-3.34280e-01,-8.50803e-02,-3.34921e-01,1.85066e-01,-9.56059e-04,3.52463e-02,-2.20088e-01,-2.42975e-01,-2.23261e-01,-1.29724e-02,-3.46000e-01,-1.77808e-01,-7.48640e-02,-3.22325e-01,-1.98672e-01,-3.06021e-01,1.62192e-01,2.87397e-01,-4.79919e-02,-2.66794e-01,3.16175e-01,2.76784e-01,-8.82238e-02,-1.69560e-01,
4.34979e-01,-1.43974e-01,-6.59601e-02,8.62709e-02,1.63234e-01,-9.22680e-03,1.19369e-01,4.47039e-01,-1.02238e-01,2.10619e-01,-1.20162e-01,2.49365e-02,2.60833e-01,4.02953e-02,6.07519e-02,2.72878e-01,9.45279e-02,-1.27088e-01,-3.40436e-01,-2.11201e-01,-8.39990e-02,-8.09877e-02,-2.96517e-01,-5.51289e-02,1.57778e-01,
-5.39183e-02,3.12506e-01,-2.63300e-02,-7.55696e-02,2.07356e-02,3.09421e-02,-1.16153e-01,-6.41044e-02,1.12271e-02,1.17830e-01,-1.18376e-01,3.94098e-01,-1.98233e-01,-9.53642e-02,2.87807e-02,6.52267e-02,1.00095e-02,1.33799e-01,-9.76182e-02,-2.94847e-01,-2.63561e-01,-2.84529e-01,-2.29146e-01,1.05817e+00,1.91549e-01,
1.29077e-01,-2.67647e-01,1.18175e-01,-1.18345e-01,-7.96003e-02,2.03823e-01,-5.98308e-03,-9.50714e-02,-6.25534e-02,-2.15078e-02,5.42538e-02,-2.80267e-02,-5.27101e-03,-8.87968e-02,-5.17645e-03,-2.39789e-02,3.44481e-01,1.27302e-01,-9.58010e-02,-2.41853e-01,-4.03694e-02,1.33379e-01,-4.43949e-01,3.61280e-01,-1.41266e-01,
-1.93777e-01,-2.68022e-01,-1.03671e-01,-1.34005e-01,8.69712e-02,-3.45158e-01,-2.06408e-02,-4.01945e-02,1.12857e-01,6.61689e-02,1.45309e-01,1.77350e-01,-1.57353e-01,-3.09186e-01,-2.29205e-01,-6.34354e-02,-1.00516e-01,-2.81159e-01,-1.01236e-01,-3.22016e-01,-3.09570e-01,2.78109e-01,-3.20300e-01,-1.53868e-01,-8.20368e-02,
-6.06262e-02,2.23598e-01,2.21147e-02,4.04213e-01,2.11109e-01,-2.21906e-01,4.48090e-02,8.73182e-02,-4.20734e-02,-1.50304e-01,-2.48774e-01,-3.69502e-01,-4.19263e-03,7.18545e-02,-9.40296e-02,-2.39584e-01,-7.21592e-02,8.17256e-02,-5.90780e-02,-1.03977e-01,6.44704e-02,5.51265e-01,2.76373e-01,-1.15686e+00,3.71170e-02,
-1.75644e-01,3.09112e-01,6.22102e-03,8.07473e-03,-1.53750e-01,-8.80741e-02,-7.36965e-02,2.53950e-01,-6.83462e-01,1.94960e-01,1.30286e-01,4.34297e-01,-1.33654e-01,1.75269e-01,-1.92282e+00,-1.10654e-01,3.03329e-01,1.51964e-02,-2.07356e-01,2.07638e-01,-2.05112e-01,-6.18514e-01,-3.89693e-01,-7.00403e-01,2.55857e-01,
-1.39531e-01,1.03557e-01,2.34407e-01,-3.05510e-01,6.16820e-02,4.35779e-01,8.87897e-02,1.48501e-01,4.88985e-02,1.06916e-01,1.56795e-01,2.36056e-01,3.19819e-01,2.98533e-01,-3.19311e-01,-3.12995e-03,-6.08948e-01,8.32018e-02,1.82265e-01,-6.43904e-02,-5.24714e-01,-2.02628e-01,2.46891e-01,1.14798e+00,-1.02104e-01,
3.31675e-01,-1.35479e-01,1.59698e-02,-5.30211e-01,-5.07139e-02,2.36869e-01,-3.98481e-01,-3.98006e+00,-1.43916e-01,-6.72802e-01,3.45406e-01,7.90541e-02,-4.20288e-01,-5.21508e-01,8.97409e-01,4.62814e-02,1.71013e+00,-2.69530e-01,-5.73545e-01,-3.15611e-01,1.28980e-01,2.24555e-01,-1.71900e+00,-1.02404e-01,-2.89926e-01,
2.56965e-03,-2.29267e-01,-9.22033e-02,-2.53435e-01,-2.65134e-01,1.51725e-01,-6.51062e-02,3.27030e-01,2.36587e-01,-3.38892e-01,1.31461e-01,1.94055e-01,-2.57536e-01,-1.55694e-01,2.39879e-01,2.16010e-01,-3.12879e-01,-2.29835e-01,1.00006e-01,6.43723e-02,1.84451e-01,-9.91602e-02,3.31674e-02,3.36785e-01,-1.51380e-02,
-3.09562e-02,-1.16586e-01,9.43122e-02,3.09130e-01,-8.40020e-01,-2.78672e-02,1.80153e-01,8.01257e-02,-1.92643e+00,-1.96002e-01,-1.62440e+00,-1.16210e-01,2.59154e-01,-3.29361e-02,4.67997e-01,1.81391e-01,-7.22728e-01,-1.38359e-01,1.04719e-01,-2.97102e-01,1.52651e-01,6.95514e-02,6.90957e-01,-5.89187e+00,-4.54561e-01,
3.25783e-02,5.81004e-02,2.96323e-01,5.94939e-02,-3.79789e-01,2.07718e-02,-1.88562e-01,4.73945e-02,3.62888e-01,-3.15325e-02,-1.77845e-01,3.76827e-01,2.58273e-01,-3.48517e-02,-1.62895e-01,1.57199e-01,-4.96663e-01,-6.20865e-01,6.25976e-01,3.31734e-03,2.10540e-01,3.04851e-01,-1.47960e-01,-6.74600e-01,-5.08528e-01,
1.13593e-02,
2.59011e-01,
2.08013e-01,
8.60385e-02,
-2.67217e-01,
1.44215e-01,
-3.04762e-02,
-2.75282e-02,
3.88629e-03,
-1.58756e-02,
1.60720e-02,
4.51188e-02,
-3.79227e-01,
-2.23722e-01,
-1.57832e-01,
2.02060e-01,
1.90474e-01,
-1.61452e-01,
2.87947e-02,
4.33868e-02,
8.15423e-03,
9.31251e-02,
-3.42438e-01,
4.82842e-02,
-7.60613e-02,
1.01365e-02,-2.47523e-01,-3.02962e-01,-1.73193e-01,6.00722e-02,4.80498e-02,-4.46702e-02,5.15274e-02,-2.61262e-02,-5.44834e-02,-6.79874e-02,4.52662e-02,2.24570e-01,-3.74767e-01,-8.18182e-02,-2.18721e-02,-6.34180e-02,-3.34347e-01,-8.76535e-02,4.90954e-02,-9.07330e-02,-3.73354e-03,2.08891e-01,-8.46446e-02,-1.27761e-01,
-1.54238e-02,-2.41721e-01,-1.01104e-01,6.64925e-02,-3.18035e-02,6.46216e-03,-5.99422e-02,-2.16310e-01,8.47716e-02,-1.18605e-01,2.84575e-01,1.32124e-01,4.58463e-01,-2.31465e-01,2.24154e-01,2.43496e-01,-7.49814e-02,-1.30278e-01,1.83067e-02,-5.68107e-02,-2.38280e-01,-8.49666e-01,2.76254e-01,-1.01519e-01,-1.47818e-01,
-1.64820e-02,-1.48497e-01,-1.43741e-01,4.73098e-02,-2.86965e-02,7.48400e-02,-9.08233e-02,2.13683e-02,5.90927e-02,-1.48176e-01,-2.91221e-02,1.10878e-01,8.21827e-01,-3.81889e-01,6.58922e-02,-1.12129e-01,2.30228e-01,2.64400e-01,-3.10739e-02,-4.09355e-01,-1.46072e-01,-8.87890e-03,2.51452e-01,1.45031e-03,-1.62153e-01,
-3.52831e-02,-1.99687e-01,-1.36780e-01,-9.14962e-02,-2.48500e-01,7.09003e-03,-1.01663e-01,-6.87587e-02,2.71463e-02,-6.94340e-02,7.60809e-02,4.19550e-02,4.65223e-01,3.29827e-01,5.69002e-01,2.11793e-01,-4.93333e-02,7.98131e-03,-7.49608e-03,-4.03159e-02,-1.89403e-01,1.99457e-02,-1.22647e-01,-3.50253e-02,-1.06612e-01,
-1.07741e-01,-1.55309e-01,-1.54424e-01,-5.33744e-02,-7.54824e-02,7.00472e-02,-7.06741e-02,2.15402e-02,3.89626e-02,-4.08888e-02,2.50379e-02,4.67605e-02,3.48439e-01,-2.95485e-01,1.76404e-01,5.33939e-02,1.53224e-01,1.31375e-01,-2.52450e-02,-1.91541e-01,-1.57916e-01,-9.17558e-02,-3.50707e-01,-6.86967e-03,-1.27856e-01,
1.51450e-02,-1.71692e-01,-8.00599e-02,-6.45286e-02,-5.41072e-01,-4.01383e-02,-9.94499e-02,-1.45018e-02,-1.15486e-01,-1.63847e-02,-4.09124e-02,7.46805e-02,2.79804e-01,-2.58329e-01,1.07066e+00,1.15890e-01,1.84655e-02,1.34734e-01,-2.72910e-02,-5.00291e-02,-1.89703e-01,-2.73627e-02,-2.56348e-01,-1.77368e-02,-6.89311e-02,
-1.67033e-01,-1.99585e-01,-1.90643e-01,-1.05477e-01,-7.35559e-04,8.15556e-02,-1.70236e-02,1.03073e-01,8.85349e-02,1.78029e-01,-5.50435e-02,-2.92699e-02,2.06949e-01,-3.16951e-01,2.85025e-02,-4.55700e-02,3.98284e-03,-3.06285e-01,-2.94885e-01,1.49351e-02,-2.66839e-01,-3.12359e-02,-5.37268e-02,1.87843e-01,-7.01974e-02,
-1.34251e-02,-2.05282e-01,-1.34621e-01,-8.87779e-02,-2.58948e-01,1.75163e-02,-9.30091e-02,-5.05544e-02,1.73345e-02,-8.35066e-02,5.97233e-02,4.86666e-02,2.27555e-01,4.04184e-01,5.72051e-01,1.89922e-01,-1.69961e-02,1.73127e-01,6.42077e-03,-2.44112e-02,-1.88009e-01,-6.87096e-03,-3.56153e-01,-3.71762e-02,-1.11212e-01,
-2.04989e-01,-1.41948e-01,-1.63040e-01,-9.96933e-02,-2.10589e-03,1.89651e-01,-5.06264e-02,1.23135e-01,1.51735e-01,-1.74504e-01,-1.10566e-02,2.58752e-02,2.92915e-01,9.92363e-03,-3.52628e-03,4.07906e-01,2.50015e-01,1.75383e-01,2.28762e-01,2.24569e-02,-3.19711e-02,6.67359e-03,-2.78537e-01,-2.82944e-02,-1.51638e-01,
3.65600e-01,
2.26052e-01,
2.37291e-01,
-1.87987e-01,
-2.11357e-01,
2.57762e-01,
3.14327e-01,
-1.89504e-01,
1.12196e-01,
