// Neural Network File Format by Kyle Julian, Stanford 2016
6,4,9,25,
4,25,25,25,25,25,9,
0,
-8000.000000,-100.000000,-100.000000,0.000000
8000.000000,100.000000,100.000000,40.000000
0.000000,0.000000,0.000000,20.000000,-4.647677
16000.000000,200.000000,200.000000,40.000000,22.514692
2.63146e+00,-2.96311e-02,-3.46621e-02,5.73417e-01,
-2.79655e+00,2.00854e-01,-1.24142e-01,-4.58274e-01,
2.37733e+00,-3.80166e-02,-4.12148e-02,-6.02183e-01,
-5.23691e-01,-1.24377e-01,2.10004e-01,6.55132e-01,
-8.92336e-01,-8.09994e-02,-3.41716e-01,6.93578e-02,
-2.63066e-01,1.16607e+00,-1.00930e-02,-8.24966e-03,
1.73290e+00,-3.19847e-01,4.20261e-01,-4.09551e-01,
2.71818e+00,-2.19456e-01,2.83271e-01,-1.55224e-02,
3.10780e+00,-3.05298e-01,2.56576e-01,1.09355e-01,
-7.67760e-01,-2.73038e-01,6.10553e-02,2.13713e-01,
5.12038e-01,1.23463e+00,1.35112e-02,-2.99049e-02,
5.20769e+00,-1.62130e-03,1.15886e-03,3.49141e-03,
-2.84505e+00,3.11374e-01,-6.75883e-01,-1.37313e-01,
-1.58714e-01,1.25807e+00,-3.35224e-02,-6.66613e-02,
6.52344e-01,8.11938e-01,1.87617e-01,-6.91223e-02,
-7.26867e-01,5.05748e-01,-6.74051e-01,1.43667e-01,
-8.48461e-01,8.20340e-01,-4.59151e-01,-7.37485e-02,
1.55841e+00,-1.11581e-01,1.20567e-01,-4.30694e-01,
5.26226e-01,-6.48516e-01,-9.17979e-03,-3.54530e-01,
2.74083e+00,8.80712e-02,-1.51282e-01,-9.01757e-01,
-3.83394e+00,9.04810e-02,-1.11266e-01,-5.49904e-01,
-2.93828e+00,1.13620e-01,-4.18960e-02,-5.85495e-01,
5.76248e-01,3.87933e-03,6.38306e-01,-1.16164e-01,
3.15794e+00,-1.76360e-01,1.20144e-01,-5.54411e-01,
-1.37924e+00,1.84596e-01,-3.22803e-01,-2.74353e-01,
1.35227e-01,
7.57726e-02,
-1.18437e-01,
3.14641e-01,
1.76639e-01,
-1.53793e-01,
-2.02090e-01,
1.05135e-01,
1.66116e-01,
2.86867e-01,
1.46664e-01,
2.26644e-01,
3.61752e-02,
2.40854e-01,
2.02139e-01,
3.16854e-02,
3.15127e-01,
8.42979e-02,
-1.44265e-01,
-3.34335e-01,
-2.06634e-01,
-4.28454e-02,
2.05963e-01,
1.01058e-02,
8.61703e-02,
5.83498e-01,5.54358e-01,-5.87941e-01,-7.91658e-01,1.21983e-01,9.18491e-01,7.54760e-01,3.40083e-01,5.07463e-01,-2.10640e-01,3.50226e-02,-3.00581e-01,8.53601e-01,-6.49486e-01,-5.67994e-01,6.20965e-01,7.23447e-01,-8.58701e-02,-5.91832e-02,1.92368e-02,-7.24175e-03,5.04525e-01,-1.39637e-01,-7.14664e-01,6.42058e-01,
1.29365e+00,7.90988e-01,-8.60696e-01,-8.29279e-01,3.86422e-01,6.18508e-01,5.13195e-01,-7.74131e-01,2.88280e-01,-6.74496e-01,-1.18021e-02,-5.20011e-01,6.40352e-01,-5.04269e-01,-3.58597e-01,-1.83831e-01,7.99236e-01,-5.07237e-01,-5.05323e-01,-5.57611e-01,2.13919e-01,4.81019e-01,-7.28080e-01,-8.19688e-01,5.31288e-01,
-4.72080e-01,-8.48162e-03,-2.25021e-01,2.30460e-01,5.03891e-01,1.29830e+00,6.79489e-01,1.16811e-02,-7.07842e-01,3.69497e-01,-1.43514e-01,3.02026e-01,-7.53537e-01,3.47389e-02,-9.93445e-01,1.43064e-01,5.40531e-01,-4.17284e-01,-8.71244e-01,-5.02934e-01,-7.98432e-02,1.36189e-01,-5.67125e-01,1.90643e-01,1.04040e-01,
-2.74243e-01,-1.96884e-01,-1.19003e-01,9.65137e-02,-6.94487e-02,4.89455e-01,-5.46861e-01,5.93130e-01,3.90771e-01,3.35559e-01,-8.11470e-02,6.76272e-02,2.97258e-01,-2.52606e-01,-4.08417e-02,8.82301e-02,-3.61363e-01,2.49410e-01,2.49584e-02,-7.44690e-01,-5.05412e-01,1.30261e-01,7.54648e-01,4.81444e-01,-5.86435e-03,
4.56350e-01,1.21671e-01,-9.51090e-01,-6.35581e-01,-1.65519e-01,1.34238e-01,3.83000e-01,2.83129e-01,-6.94823e-01,4.49282e-01,3.19868e-02,-5.29071e-01,2.82937e-01,1.28059e-01,-2.82701e-01,6.17109e-02,-2.02715e-01,2.92719e-01,-8.77140e-02,-1.32874e+00,2.02131e+00,3.89770e-01,1.51426e-01,-4.21447e-01,3.98437e-01,
7.52812e-01,4.55337e-01,5.80185e-02,-1.07725e-01,-1.05797e-01,3.90618e-01,-7.26741e-01,1.10542e+00,-9.16112e-01,3.98002e-02,-1.44584e-01,-6.56148e-01,5.16291e-01,-4.17275e-01,-4.35345e-02,1.01958e+00,5.96959e-01,-5.80037e-01,2.35745e-01,2.76161e-01,1.10893e-01,7.64101e-01,-2.93321e-01,-9.68970e-01,5.62735e-01,
-3.97955e-01,-2.40310e-01,2.13968e-01,4.42338e-01,2.57012e-01,-1.66973e-01,-1.30709e+00,-7.98129e-01,1.04833e+00,4.00047e-01,-2.06891e-01,-2.86050e-01,-3.95535e-01,-2.62165e-01,5.16682e-01,-1.04946e+00,-6.97967e-01,2.37368e-01,7.54628e-02,3.09272e-01,8.59643e-01,5.02510e-02,2.40911e-01,4.53227e-01,-4.00209e-01,
-7.89488e-01,-5.82322e-01,-6.71752e-01,3.75871e-01,5.95797e-01,1.30145e-01,2.70971e-01,3.17847e-02,6.77452e-01,4.98849e-01,-9.77046e-02,1.15774e-01,6.41957e-02,1.02633e-01,1.60641e-01,3.11291e-01,2.30449e-01,-7.38623e-01,-4.70974e-01,-1.27094e+00,-5.28492e-01,-6.22740e-04,-2.08638e-01,1.57717e-01,-4.62165e-01,
-5.68142e-01,-4.25648e-02,2.78739e-01,2.60288e-01,4.68477e-01,-4.34440e-01,-3.16616e-01,3.37076e-01,-2.99177e-01,5.23832e-01,1.35980e+00,4.17287e-01,-9.05749e-01,-9.38681e-01,-1.29836e-01,-2.19621e-01,-5.16803e-01,5.39757e-01,1.14850e-01,3.99098e-01,-7.29775e-01,-3.76019e-01,4.60287e-01,4.43875e-01,1.37779e-01,
-8.15099e-01,-1.64071e-02,9.88684e-02,7.37282e-01,8.01990e-02,2.69189e-01,-2.09380e-01,-2.68997e-01,6.01982e-01,1.98254e-01,-1.71693e-01,7.49263e-01,2.30675e-01,3.30114e-01,-3.30229e-01,6.97885e-02,-1.02483e-01,-1.25664e-03,-1.43901e-01,1.46048e+00,-7.94068e-01,-8.39274e-01,2.88666e-01,-7.83501e-01,-3.99653e-01,
5.35012e-02,4.52232e-01,-2.81514e-01,-6.27363e-02,4.57603e-01,-8.41587e-01,4.05464e-01,-1.94976e-01,-2.89168e-01,3.08471e-01,1.05634e+00,3.84631e-01,-6.09059e-01,5.93236e-01,1.61675e-01,2.73210e-02,-1.63038e-02,-2.27684e-01,1.21029e-02,7.20938e-01,-1.68963e-01,-3.44255e-02,-3.80173e-02,-4.15489e-01,-1.44391e-01,
1.81321e+00,4.17921e-01,-1.47549e-01,-1.17670e+00,-1.88185e-01,2.21577e-01,-1.62873e-01,-5.67849e-01,-9.87775e-01,6.87345e-01,-5.66266e-01,-1.45733e-01,6.48271e-01,8.45402e-02,3.10348e-01,-9.69508e-02,-1.63221e-01,7.72357e-01,2.04777e-01,-1.22799e+00,8.16927e-02,9.04307e-01,6.72299e-01,2.00055e-01,-1.00992e-01,
1.02453e+00,5.79388e-01,-6.57263e-01,-8.11442e-01,3.91469e-01,-5.50987e-02,2.07246e-01,-1.30126e-01,-4.63632e-01,-1.78156e-01,-6.15950e-02,-3.17923e-01,2.78028e-01,-5.86205e-01,-4.35234e-02,2.34711e-01,6.47997e-01,-3.51548e-01,-6.08492e-01,-6.42060e-01,2.68463e-01,7.54527e-01,-8.85773e-01,-6.26565e-01,3.96420e-01,
4.25632e-03,-9.88755e-02,-9.20543e-02,4.19975e-01,-4.07935e-02,4.11346e-02,-9.42590e-01,-7.09961e-02,3.39165e-01,3.08375e-01,-8.75574e-02,-4.40660e-01,-4.30600e-01,3.16661e-01,-7.69367e-02,-4.82264e-01,7.13815e-01,-1.81400e-01,4.39692e-01,-2.54032e-01,8.36374e-01,3.28401e-01,-6.41265e-02,-1.40354e-01,1.31603e-01,
1.36041e-01,-2.58568e-01,-5.59973e-02,-6.15910e-02,7.89789e-01,-3.38247e-01,-1.62281e-01,3.48807e-01,-1.07229e-01,-4.65576e-02,-8.80469e-03,-1.48122e-01,3.85744e-01,1.07284e+00,-5.90702e-01,3.16898e-01,-9.12087e-01,8.46348e-02,3.80487e-01,2.00645e-01,1.09273e-01,2.17647e-01,2.24525e-01,-2.09778e-01,-4.93594e-02,
-6.92399e-02,5.98302e-01,-4.24728e-01,3.86969e-02,4.31364e-01,-3.14804e-01,3.49294e-01,7.76475e-02,-4.35522e-01,9.20789e-03,2.34011e-01,7.91248e-01,5.27090e-01,-1.69870e-01,7.90805e-02,-1.08670e+00,-1.99542e-01,-1.44099e-01,-3.75913e-01,4.38773e-01,4.62267e-03,-3.13025e-02,-1.27512e-01,-3.36793e-01,5.75630e-01,
4.01423e-01,-1.06958e-01,6.77037e-01,-2.56624e-01,1.88312e-01,-8.42476e-02,-9.39479e-01,2.31323e-01,1.59400e-01,-6.68287e-01,-1.34835e-02,7.11082e-01,3.75352e-01,-1.64766e-01,-8.60272e-02,-1.15262e+00,3.00199e-01,-1.73333e-01,3.98562e-01,-6.45296e-01,-1.57598e+00,8.14356e-01,4.33612e-01,3.52884e-01,-1.17022e-01,
5.72208e-01,4.24867e-01,9.42522e-03,-2.82960e-01,3.08233e-01,4.87520e-01,-4.70344e-01,5.86142e-01,-3.15604e-01,1.83628e-03,1.00414e+00,-8.35643e-01,2.77266e-01,-5.05461e-01,-9.22568e-01,-3.97209e-01,4.53609e-02,1.97768e-01,-4.08181e-01,-7.95122e-01,9.12338e-02,8.06829e-01,-7.52595e-03,4.14861e-01,3.70722e-02,
-2.78344e-01,-1.86213e-01,-2.47000e-01,-1.74029e-01,5.44229e-02,5.93446e-02,2.24546e-02,-3.38260e-01,2.09048e-01,-1.95412e-01,-2.63163e-01,8.54020e-02,-1.80009e-01,-6.46326e-02,2.29758e-01,2.79397e-01,6.84564e-02,-1.27576e-01,6.39895e-02,-3.30180e-01,1.49464e-01,-1.07378e-01,-1.05689e-01,6.44994e-02,1.91676e-01,
-1.02019e-01,-3.81794e-01,6.21365e-01,7.17813e-02,-3.74199e-01,-2.58836e-01,-1.33530e+00,1.84178e-01,1.39919e-01,-5.43405e-01,6.65700e-01,5.79016e-01,-4.64492e-01,1.12403e-01,-3.46276e-01,7.08074e-01,-8.88775e-02,5.00370e-01,1.74009e-01,1.52579e-01,3.32364e-01,-6.11096e-01,-7.41114e-01,-1.67668e-01,-2.06898e-01,
8.98052e-02,2.97236e-01,-1.66424e-01,1.25239e-01,1.06851e-01,-2.23244e+00,4.90443e-01,-7.19460e-01,1.46777e-01,1.92706e-01,1.09673e+00,-5.00290e+00,-1.99582e-01,4.70760e-01,2.03691e-01,3.88390e-01,3.84149e-01,-4.93844e-01,1.67493e-01,4.12314e-01,-1.93938e-01,2.89221e-02,3.29422e-03,-4.24838e-01,1.58603e-01,
-9.30042e-02,4.56125e-02,-1.58197e-01,1.59440e-01,3.82570e-01,-9.76570e-02,-2.75654e-03,-5.86310e-01,-3.56729e-01,3.93446e-01,-5.11742e-01,-9.31922e-01,-3.38106e-01,2.74385e-01,5.15887e-01,-7.31515e-01,5.62105e-01,1.74614e-01,5.92010e-03,-1.84278e-01,-9.07958e-01,1.66444e-01,-1.57665e-02,-1.45479e-01,4.80458e-01,
-7.68319e-01,2.45749e-02,-1.92305e-02,-5.66644e-02,5.81450e-01,8.11566e-01,1.70262e-01,7.15301e-01,-5.62414e-02,1.39553e-01,-9.44915e-01,2.76487e-01,-9.81817e-01,6.43772e-01,1.15603e-01,5.22449e-01,-2.10402e-01,5.81089e-01,-5.52299e-01,2.53450e-01,1.32357e-01,7.87726e-02,-1.63903e-01,1.62894e-02,4.86432e-01,
-2.40373e-01,1.13602e-01,-3.61421e-02,9.92729e-02,-8.31621e-02,-5.99383e-03,9.71442e-02,2.76805e-02,-6.84868e-01,7.38813e-01,2.88584e-03,-1.48608e+00,-2.42212e-02,-6.58626e-02,7.13351e-02,-2.55821e-02,9.70288e-03,-4.24243e-06,7.22769e-02,-1.77620e-01,-4.27460e-01,2.71208e-01,8.18897e-02,-7.06599e-02,2.46356e-02,
2.75841e-01,4.49963e-01,-1.35073e-01,1.93828e-01,-4.30149e-01,-5.93127e-01,-6.07613e-01,-2.09878e-01,4.70861e-02,-2.39273e-01,-6.02933e-01,-4.87362e-01,4.05916e-01,1.25867e+00,9.52050e-01,-4.24624e-01,5.84676e-01,-2.01993e-01,5.97338e-01,-8.70783e-02,-1.98812e-01,-1.87379e-02,-5.94607e-02,2.22916e-01,-5.67382e-01,
2.86366e-01,
2.98484e-01,
2.65186e-01,
1.62596e-01,
1.23914e-01,
-1.45728e-01,
-7.74223e-02,
2.12390e-01,
-2.78593e-01,
8.87216e-02,
2.97106e-02,
-3.21612e-01,
3.81678e-01,
8.51349e-02,
8.71768e-02,
1.28958e-01,
-3.09503e-01,
1.41339e-01,
-2.77278e-01,
-1.58688e-01,
3.27929e-01,
3.70566e-01,
8.40004e-02,
7.10622e-01,
-2.20845e-01,
-6.37524e-01,1.14022e+00,1.60094e-01,1.83454e-01,-2.47699e-01,1.48652e-01,-6.10763e-01,-3.15877e-01,3.74794e-02,-1.18340e-01,3.30419e-01,1.20916e-01,-7.72251e-01,-3.90552e-03,6.50144e-01,4.03285e-01,-3.28039e-01,-2.38289e-01,-1.70477e-01,2.46267e-01,4.90980e-03,-3.33813e-01,-4.13187e-01,1.75846e-01,-2.31695e-01,
-5.96061e-01,2.20022e-01,-1.53510e-01,-1.61376e-01,2.12408e-01,-4.26581e-01,-2.81763e-01,-8.60010e-02,2.56664e-01,1.04856e-01,-1.77685e+00,6.28009e-03,2.99714e-01,-3.76894e-01,2.08152e-01,1.42745e-01,-1.29766e+00,4.05008e-02,-1.18329e-01,1.11639e+00,1.45698e+00,1.30262e-01,1.65584e-02,2.53682e-01,-3.74419e-01,
4.18966e-04,9.09407e-03,-7.78125e-02,-1.42809e+00,3.92033e-01,2.38226e-01,-2.71273e-01,4.48905e-01,1.69464e+00,3.59480e-01,-1.01844e+00,-5.68812e-02,5.66856e-01,-5.41607e-01,-6.18895e-01,-4.71144e-01,-2.35453e+00,-3.27142e-01,-3.20132e-01,1.29638e+00,1.66971e-01,7.31276e-01,-9.35609e-01,2.22274e-01,-8.16136e-02,
1.05711e+00,-1.44603e+00,2.72915e-01,1.29543e-02,-1.34123e-01,7.75243e-02,2.86693e-02,-4.30788e-02,1.36332e+00,-3.48390e-01,-3.01094e-01,4.90656e-01,-3.70477e-02,2.54734e-01,-6.67449e-01,1.73832e-01,-5.67088e-01,4.89226e-01,3.24014e-01,2.23652e-01,4.20375e-02,9.36068e-02,-8.39255e-01,-9.17464e-02,3.84724e-01,
-2.42564e-02,6.11129e-02,2.55265e-01,1.33387e-01,-3.28821e-01,4.64097e-01,8.18490e-02,-2.70522e-01,4.85562e-01,-5.96383e-01,2.99009e-01,2.21611e-01,-5.62926e-01,-2.33061e-01,9.75705e-02,1.92458e-02,2.09899e-01,1.00975e-01,2.30870e-01,-6.81195e-01,-3.07673e-02,-4.98705e-01,2.34869e-02,3.30418e-01,-2.57964e-01,
-1.38609e-01,-1.59024e-01,-1.32748e-01,-2.25234e-01,1.96837e-01,3.25075e-02,-4.85326e-02,3.08160e-01,-2.49687e-02,1.56706e-01,-2.28449e-01,-1.67992e-01,-7.44770e-02,1.22476e-02,-7.27731e-03,-2.97827e-01,-2.32106e-01,9.54941e-02,-3.04591e-01,-2.40787e-01,-7.48980e-02,-2.29715e-01,-1.21687e-01,-1.17135e-01,-1.45795e-01,
1.60778e-01,-1.26811e-01,-8.28992e-02,1.34087e-01,-4.80965e-02,-1.82759e-01,-3.53547e-01,8.32939e-01,-2.41202e-02,-3.72263e-01,-7.26091e-02,7.11517e-01,5.48676e-01,-2.39103e-02,1.20585e-01,-1.03096e-01,-7.55763e-01,-4.28925e-02,-4.93436e-02,1.01280e+00,4.05630e-02,2.51747e-01,-1.79040e-01,-6.80829e-02,1.77490e-01,
1.01780e-01,-9.98320e-01,-1.65618e-01,5.09477e-01,2.18224e-01,1.34799e-01,1.20966e-01,-2.29845e-01,-5.85177e-01,8.13183e-02,-3.50022e-01,3.12056e-01,9.20832e-01,1.82127e-01,-6.31596e-01,2.00403e-01,-5.63584e-01,-5.40712e+00,-2.62881e-01,4.82909e-01,-2.95570e-01,2.45158e-01,2.41062e-01,-1.23851e+01,-5.13918e-01,
1.50499e-01,-2.94159e-01,-3.13757e-01,3.36450e-01,-1.75599e-02,-4.01725e-01,1.42221e-01,9.81014e-02,1.54863e-01,1.06670e-01,-1.84650e-01,-8.04451e-02,-3.11975e-01,-1.92408e-01,2.44057e-01,3.47870e-02,-5.47438e-01,6.68170e-01,-3.26404e-01,-7.35739e+00,2.11499e+00,-5.31084e-01,-1.80294e-01,-3.96369e-01,-1.03756e+01,
1.34684e-01,-1.06497e+00,1.23948e-01,4.55605e-01,-4.36236e-01,3.31229e-01,-1.71421e-01,-3.27973e-01,-4.93020e-01,-8.12827e-01,3.79933e-02,5.22815e-01,2.53412e-01,1.68109e-01,8.79003e-03,5.27815e-01,-6.87677e-01,-1.90445e-01,2.66455e-01,3.60568e-01,-9.64395e-02,4.74288e-01,1.67331e-01,-5.39516e-02,-5.11460e-02,
-2.89894e-01,4.59148e-01,-2.06211e-01,7.04823e-01,9.93107e-02,1.82924e-01,-8.92465e-01,2.59419e-01,8.53020e-01,-1.89910e-01,-1.17169e-01,-1.51193e-01,-3.53674e-01,2.72333e-01,5.81441e-03,1.59015e-01,-1.89358e-01,-7.54867e-03,8.52128e-02,-1.13442e-01,4.01708e-01,2.79716e-02,6.14730e-01,-6.54436e-01,6.89894e-02,
-4.96530e-02,2.38277e-01,6.92989e-01,-2.37588e-01,-2.24534e-02,-2.87381e-01,-1.45238e-01,-3.33784e-01,-8.56086e-01,-2.48963e-01,-1.22486e-01,1.61713e-01,-9.04102e-01,-1.65342e-01,1.54633e-01,-1.61309e-01,1.92545e-01,1.13464e-01,1.54051e-01,2.49719e-01,-9.66290e-02,6.60339e-02,2.27345e-01,-1.85926e-01,3.40114e-01,
1.12293e+00,-6.66347e-01,6.29464e-01,-3.37463e-01,-3.74373e-01,-5.92376e-01,-4.26401e-01,5.78858e-02,-1.58666e+00,-2.49087e-01,4.88975e-02,6.60308e-01,-1.99282e-01,5.24152e-01,-1.19546e-02,1.03776e-01,-7.29945e-01,1.65210e-01,2.69246e-01,5.17842e-02,-1.94645e-01,6.10772e-01,5.05480e-02,3.80210e-02,8.86422e-02,
1.41267e-01,-7.76513e-02,-7.21059e-01,-2.07102e-01,5.38366e+00,2.17184e-01,6.52257e-01,1.59053e-01,-2.57908e-03,-4.04294e-01,3.95531e-01,-5.01718e+00,-1.18003e-01,-1.61756e-01,2.00174e-02,-2.94061e-01,-2.27414e-01,-3.65468e-01,1.85787e-01,2.63560e-02,-4.02516e+00,1.33596e-01,-1.12424e-01,-1.69877e+01,-1.81925e-01,
1.58513e-01,4.84385e-01,3.65077e-01,4.53460e-01,-6.64374e-01,-1.46270e-01,8.44864e-01,-6.62667e-01,-6.68979e-01,-4.55990e-01,2.75734e-01,1.78337e-01,-3.18980e-01,1.85061e-01,1.65968e-01,-6.07621e-01,2.11007e-01,-4.89837e-02,2.63814e-01,-4.79106e-02,-3.09770e-01,4.43839e-01,-2.10755e-01,9.73202e-02,-8.33872e-02,
2.22712e-01,-1.07667e+00,2.51570e-01,3.78449e-01,-7.50107e-01,-8.65345e-01,-4.36043e-01,-3.44240e-01,-7.87246e-02,-3.25252e-01,-1.66195e-01,3.98127e-01,1.30257e+00,2.97709e-01,6.39726e-01,-1.04033e-01,-2.98449e-01,1.03702e-01,-2.39533e-01,1.81522e-01,-6.85947e-02,-2.54327e-01,-1.99720e-01,4.60262e-01,2.66335e-01,
-3.15821e-01,-5.85628e-02,1.46985e-01,-3.00474e-01,8.52850e-02,-2.89453e-01,5.90299e-02,-3.33692e-01,2.71895e-01,8.98539e-02,-3.75516e-01,1.08256e-01,-4.53029e-02,2.38554e-01,-1.33219e-01,6.28442e-02,-3.39572e-01,-2.35493e-01,6.41502e-02,1.82558e-01,-1.48306e-02,-2.78414e-01,-1.60587e-01,6.32990e-03,-1.35751e-01,
-6.48397e-01,-2.72764e-03,1.29089e-01,-1.43938e-01,8.51279e-01,-4.47514e-02,-1.26127e-01,-9.63374e-03,9.26972e-02,5.52184e-01,2.27975e-01,-4.76916e-01,7.47522e-02,-7.29627e-01,-5.55645e-01,-3.22729e-01,-1.67396e-03,4.00632e-01,5.86849e-02,3.65772e-01,-7.44530e-02,6.72345e-01,-2.53776e-01,3.91299e-01,2.39685e-04,
-2.35231e-01,-1.38461e+00,3.59888e-01,-4.83847e-02,2.77192e-01,3.67247e-01,4.35255e-01,-3.69736e-02,4.40586e-02,-1.25261e-02,1.06631e-01,-7.92488e-01,-2.17476e+00,-5.27684e-01,1.07725e+00,-4.37992e-01,5.99736e-01,4.01464e-01,5.05743e-02,-6.48019e-01,-3.32566e-01,3.55728e-01,2.52226e-01,-5.83659e-01,1.83611e-01,
1.17752e-01,7.13111e-01,-4.35574e-01,-3.81890e-01,-1.70070e+00,-4.05455e-01,3.01628e-01,2.30663e-01,-5.15937e-02,-3.43788e-01,1.02778e-01,1.08218e+00,-3.81914e-01,1.49964e-01,-2.13995e-01,2.09073e-01,2.93851e-01,7.95179e-01,3.32503e-01,1.60266e-01,7.35222e-01,-1.18223e+00,2.73823e-01,-5.98821e-02,2.73979e-03,
-7.96196e-02,9.10560e-02,3.90325e-01,3.79835e-01,5.76750e-01,2.29451e-01,4.95201e-01,-8.86470e-02,3.36643e-01,4.57917e-02,1.19798e-01,5.51636e-02,-1.34074e-01,-1.93481e-01,-1.55430e-01,-5.33743e-01,-2.15023e-01,-5.81329e-01,1.30170e-01,-3.66012e-01,-4.11563e-01,5.64825e-01,-6.09047e-01,3.03025e-01,-1.89247e-01,
-2.39306e-01,6.79938e-01,-1.18263e-01,1.97056e-01,1.34081e+00,-2.01558e-01,3.95016e-01,1.83166e-01,4.08645e-01,6.49807e-01,-5.84672e-02,-8.15471e-01,-2.50767e-01,-9.12811e-01,-4.80470e-01,-2.64214e-01,-2.10736e-01,-1.16876e+00,4.17956e-02,4.23280e-02,3.93277e-01,-2.52223e-01,3.06862e-01,-5.21843e-02,-1.06953e-01,
-2.80643e-01,5.96388e-01,-6.36841e-01,2.87760e-01,-1.26861e-01,-3.75015e-01,-4.68295e-02,1.84298e-03,7.55574e-01,4.84664e-02,1.09833e-01,-1.22842e-01,4.01455e-01,1.63150e-01,-2.70050e-01,-6.25276e-01,2.71099e-01,-4.53491e-01,-2.92274e-01,-1.99601e-01,2.27403e-01,-4.01107e-01,5.45424e-01,4.98486e-02,-2.72446e-01,
-1.00439e-01,-2.77453e-01,4.45301e-01,1.18409e-01,1.51536e-01,1.93052e-02,-2.40561e-01,-1.13417e-02,-3.18207e-01,5.19292e-01,-1.73465e-01,5.86024e-02,8.72517e-01,-4.16456e-02,-3.02544e-01,-2.04777e-01,1.18391e-02,3.99004e-01,3.21782e-02,-1.70314e-01,1.28955e-01,7.23311e-02,-2.66787e-01,-3.02577e-01,-6.15278e-02,
3.32665e-01,6.23323e-01,4.33645e-01,-4.05934e-01,-4.71896e-01,-1.35497e+00,1.85186e-01,-7.46048e-01,-4.17610e-01,-3.07215e-01,1.05401e-01,6.71749e-01,3.66579e-01,-4.49849e-01,-4.55518e-03,-5.54398e-01,-1.69817e+00,1.28335e-01,-2.78550e-01,-1.43765e-01,-2.36864e-01,-9.62172e-03,-8.17402e-01,5.54078e-01,1.94647e-01,
4.25569e-01,
-2.35758e-01,
-2.57767e-02,
2.96075e-02,
6.10885e-01,
-3.46176e-01,
-1.61270e-01,
-2.40203e-03,
-4.71316e-01,
5.42619e-01,
1.20358e-01,
6.25739e-01,
-8.58334e-01,
3.97940e-01,
3.10582e-01,
1.93839e-01,
3.37537e-02,
-4.10154e-01,
1.39882e-01,
1.85381e-01,
2.64505e-01,
2.54888e-01,
1.52427e-01,
3.01782e-01,
3.30995e-01,
-2.76424e-01,2.33295e-02,2.25269e-01,-7.47419e-02,1.92968e-01,-1.09150e-01,-2.71102e-02,3.00630e-01,8.90748e-02,-3.06064e-01,2.07425e-02,1.98498e-01,3.23740e-01,6.88444e-02,1.90844e-01,-3.17998e-01,-2.76764e-02,9.81250e-02,-4.49454e-02,2.25186e-01,2.76373e-01,-3.18477e-01,-1.13181e-01,-2.20534e-01,5.37004e-02,
-4.39538e-02,6.85532e-01,-4.32274e-01,-2.92325e-01,-7.07817e-02,-2.47066e-01,4.70214e-01,2.72581e-01,8.72022e-01,1.57535e-01,7.50993e-03,1.39510e-01,1.65336e-01,6.35041e-01,-2.67564e-01,-2.41432e-01,-1.57375e-01,2.11169e-01,1.42242e-01,-2.20364e-01,4.97419e-01,-7.77342e-02,2.42169e-01,2.65745e-01,-9.90487e-02,
-5.72573e-01,1.40178e+00,-1.22593e-01,-1.88965e-01,-1.43368e-01,2.75827e-01,-1.95979e-01,-3.84139e-01,-4.54196e-01,8.69669e-01,-2.72274e-01,2.66272e-01,-5.05408e-01,-5.95466e-02,8.65633e-03,-2.74498e-03,-2.70531e-01,-2.09634e-01,-1.19673e-01,-8.18022e-02,-2.18132e-01,2.29598e-01,1.54172e-01,1.18594e-01,-3.35122e-01,
1.37526e-01,-3.67289e-01,4.37324e-02,2.48890e-01,3.01040e-01,-1.51667e-01,-3.18204e-01,1.47347e-01,-3.11333e-01,5.80560e-01,-1.52512e-01,4.33259e-01,3.85999e-01,-2.00542e-01,4.47414e-02,1.56526e-01,4.43041e-02,-5.14297e-02,-2.61022e-01,8.51334e-02,-1.76672e-01,5.90331e-02,1.24781e-02,3.61418e-01,-4.74743e-01,
7.22881e-02,1.51490e-03,-4.75286e-02,3.37621e-01,4.08530e-01,2.01459e-01,-5.88601e-01,-7.37225e-02,4.53796e-01,4.60877e-01,3.54314e-02,1.69693e-02,-5.74472e-01,-7.13209e-02,5.77877e-01,3.28334e-01,6.84011e-02,4.00400e-02,3.46400e-01,6.46742e-01,-5.17003e-01,3.05386e-01,-9.16374e-01,6.88070e-02,-5.47437e-01,
-1.74607e-01,1.31765e-01,1.18705e-01,-1.67950e-01,6.05484e-01,2.31063e-01,-2.12213e-01,5.59462e-02,5.21441e-01,3.70400e-01,-1.66321e-01,1.92595e-01,-1.32733e-01,2.09628e-01,5.60870e-03,1.68656e-01,-4.54416e-02,5.53282e-01,-5.19468e-02,3.00587e-01,-2.91832e-01,-1.90857e-01,6.12695e-02,-1.14186e-01,4.64705e-01,
2.49562e-01,-5.29890e-01,9.26979e-02,-1.67820e-01,-2.35929e-01,2.26045e-01,-9.12655e-02,-1.38741e-01,8.52975e-02,6.21621e-01,-5.40549e-01,-2.27303e-02,-5.67980e-01,8.53919e-02,-3.39123e-01,4.72284e-01,-2.11273e-01,5.81245e-02,6.95184e-01,2.49001e-01,-5.48239e-02,2.40387e-01,2.76735e-01,2.72923e-01,2.18318e-01,
2.24273e-02,2.63814e-01,-1.10643e-01,1.60412e-03,-1.95908e-01,3.20767e-01,9.80704e-02,4.90338e-02,-1.89543e-01,5.90239e-02,1.43358e-01,-2.71819e-01,8.75624e-01,-8.89300e-02,-6.35591e-02,5.09935e-02,2.66990e-01,2.32578e-02,3.48054e-01,-2.68961e-01,2.33117e-01,3.18373e-01,-1.53313e-01,1.00909e-01,-1.37044e-01,
1.83018e-03,-7.56180e-01,-1.34116e-01,-2.45139e-01,-3.38416e-01,3.28011e-01,2.06020e-01,-5.69246e-01,-4.48957e+00,-3.05906e-02,7.23178e-02,3.05085e-01,-7.99462e+00,-1.12990e-01,-2.17652e-01,-1.15950e+00,2.77757e-01,-8.42638e-01,1.17161e-01,6.38471e-01,6.28558e-01,1.48149e-01,-1.41996e-01,-3.06649e-01,2.45121e-01,
-2.36367e-02,6.44801e-01,-1.91861e-01,6.08510e-03,4.98721e-01,-2.62067e-01,6.33996e-01,-2.39484e+00,7.07400e-02,-1.93489e-01,-9.41294e-02,6.82095e-01,1.34574e-01,3.55651e-01,-4.69553e-01,-4.48369e-01,-2.78052e-01,8.89498e-01,-2.01559e-01,7.54968e-01,4.05974e-01,-7.52857e-01,-1.76625e+00,-2.35846e-01,-2.12620e-01,
2.41014e-01,-4.16617e-01,2.18175e-01,-8.47133e-01,1.13585e-01,2.24455e-01,-5.51061e-02,-3.17015e-01,-5.41952e+00,3.64531e-01,-8.53430e-02,2.60776e-01,2.15049e-01,-2.70609e-01,2.29418e-01,-1.68163e-01,-8.63788e-02,7.64059e-02,-8.69198e-02,5.26667e-03,-1.45759e-01,-2.53159e-01,7.56855e-02,1.19961e-01,2.80603e-01,
-7.63312e-02,1.03728e+00,1.15712e-01,-2.43618e-01,3.10496e-01,-1.47638e-01,-3.94570e-01,-2.51108e-01,1.52018e+00,1.10531e-02,1.68197e-01,4.21175e-01,-1.99753e+00,4.57247e-01,4.00375e-01,1.09086e-01,-1.09943e-01,9.52070e-01,5.30013e-01,-1.10550e-01,2.72389e-01,-2.54912e-01,-1.63769e-01,3.46113e-01,-1.90161e-01,
4.30256e-02,8.14877e-01,2.10500e-02,1.71143e-01,6.70805e-02,-3.17219e-01,-6.32268e-02,2.79381e-01,9.54673e-01,-1.14269e-01,1.77488e-01,4.83854e-02,-7.24678e-02,-1.06947e+00,2.34552e-01,1.43741e-01,-2.04407e-01,3.05581e-01,1.57647e-01,-4.56298e-02,-4.88099e-01,9.60047e-02,-4.61943e-01,3.18108e-02,7.00373e-02,
3.42619e-01,9.70788e-01,2.32871e-01,-7.23105e-01,2.79091e-01,-1.50487e-01,-2.64005e-01,-1.89249e-01,-4.05201e+00,3.55607e-01,2.93785e-01,2.97262e-01,-6.22056e-01,5.95960e-01,5.12594e-01,-5.59569e-01,3.02865e-01,1.49392e-01,-6.02577e-01,1.55158e-01,-1.79640e-01,1.16350e-02,-2.96342e-01,-2.84774e-01,5.01068e-01,
1.81569e-01,8.21471e-01,1.63860e-01,3.44088e-01,1.68784e-01,-2.70695e-01,-6.75550e-02,4.87950e-01,1.15119e+00,-1.05831e-02,-7.22584e-02,9.69139e-02,-1.70723e-01,1.79667e+00,-1.27887e-01,2.07238e-01,9.51342e-02,1.18904e-01,-1.69366e-01,-3.01893e-01,-2.17499e-01,-5.02767e-02,3.36800e-02,-2.02057e-01,-7.12463e-02,
-3.35402e-01,-8.61066e-01,-4.36143e-01,2.64284e-02,4.37363e-01,3.05497e-01,2.96549e-01,1.64079e-01,3.11151e-01,-1.22914e-01,-7.55241e-01,2.41449e-01,1.09777e-02,2.87416e-01,-5.57631e-01,-3.25714e-01,7.99905e-02,3.48241e-01,-6.99707e+00,-2.54090e-01,1.61655e-01,-7.05130e-01,8.06789e-01,5.73448e-02,-1.92346e-01,
3.74789e-01,7.28541e-01,4.24947e-01,2.59992e-01,-4.32568e-01,3.36779e-01,3.14001e-01,-4.09204e-01,3.61301e-01,4.76268e-01,-6.36248e-01,1.64031e-01,-4.16379e-01,9.69276e-01,-6.43439e-01,1.25900e-01,1.18365e-01,-6.95279e-02,-2.61637e+00,1.35452e-01,-4.12598e-03,-6.88514e-01,1.53183e-01,-2.55693e-01,-3.37421e-02,
2.56499e-01,-3.96699e+00,-6.21901e-01,-5.31584e-01,3.39347e-01,-2.18575e-02,-2.44959e-01,1.10692e-01,1.70423e+00,-1.45278e-01,-2.55764e-01,6.79386e-02,6.39836e-01,-9.84247e-02,4.54533e-02,4.81759e-02,1.65741e-01,4.71997e-01,4.01360e-01,5.60614e-01,-1.68706e-01,5.27296e-02,6.05383e-02,3.28567e-01,-1.62137e-01,
-5.26534e-02,4.91692e-01,2.78160e-01,-7.72991e-02,3.82452e-01,7.98159e-02,-2.11468e-01,4.84164e-02,-6.13799e-01,-3.32721e-01,-2.02126e-01,9.96727e-01,-2.07338e+00,3.25531e-02,-1.55025e+00,-2.45191e-01,-2.95597e-02,-3.89127e-01,-1.13675e+00,3.80702e-01,5.08331e-01,6.71195e-03,2.10376e-01,9.51249e-02,-1.05231e-01,
-2.78176e-01,1.03707e+00,-2.16343e-01,3.21973e-01,1.06786e-02,-2.97194e-01,2.30792e-01,-5.51233e-02,1.86121e+00,1.21155e-02,-3.08322e-01,-2.65742e-01,4.62049e-01,1.20452e-01,-1.15434e-01,5.84145e-02,-3.19678e-01,-2.27874e-02,3.41829e-02,-2.07000e-02,1.06834e-02,-1.21435e-01,4.38018e-01,2.09208e-01,-2.95329e-01,
3.48349e-01,-1.39716e+00,-2.96369e-01,-2.33767e-01,-1.04317e-01,1.08434e-01,3.10376e-01,-1.04301e+00,4.40005e-01,2.21734e-01,-8.76956e-01,4.66119e-01,-1.64968e-01,2.25808e-01,-3.10253e-01,-2.55670e-01,8.88035e-02,7.75461e-01,3.97245e-01,5.82459e-01,-1.90919e-01,-1.09949e+00,-6.79277e-02,1.76055e-01,-3.72158e-01,
3.88873e-03,-7.37297e-01,3.67577e-01,6.37294e-02,-1.07431e-01,-3.15868e-01,-1.86245e-01,2.49650e-02,2.99828e+00,8.67480e-02,3.02634e-02,-1.28501e-01,-8.59352e-01,-5.99318e-01,5.33203e-02,3.74436e-01,5.94992e-02,-1.60391e-01,6.12856e-02,2.85683e-01,1.06243e-01,2.09364e-01,-3.06962e-01,-2.90430e-01,1.36460e-01,
9.66944e-03,9.41048e-02,-4.33375e-01,-3.25775e-01,2.15386e-01,-1.11286e-01,2.44068e-01,5.95885e-01,8.86702e-01,2.22048e-01,-3.95968e-02,3.42888e-01,-7.10437e-01,-6.35172e-01,-3.15796e-01,-1.45325e-01,-3.45618e-02,2.05907e-01,-1.39332e-01,1.14817e-01,1.77516e-01,-4.92386e-01,4.50649e-01,1.98680e-01,1.03578e-02,
1.31933e-01,-8.59900e-01,-1.92107e-01,-7.75182e-02,1.51303e-01,-5.56047e-02,-1.07926e-01,4.98374e-01,1.10683e+00,6.58919e-02,-1.89291e-01,-3.45221e-01,4.51364e-01,7.99423e-01,-1.85402e-02,2.74673e-01,1.13227e-02,1.56488e-01,2.92245e-01,-3.59489e-01,-3.66976e-01,4.57948e-02,1.83146e-01,4.02732e-01,-1.12121e-01,
-5.97251e-02,5.86136e-01,-1.97625e+00,2.51536e-01,4.85379e-01,-1.05249e-01,7.27810e-01,-2.87152e+00,-3.55861e-01,5.72782e-02,2.13942e-02,1.84515e-02,-8.89493e-01,-5.99414e+00,-1.41524e-01,3.17750e-01,2.94708e-01,-4.89076e-02,3.99977e-01,5.27254e-01,1.62206e-01,8.05455e-03,-9.90105e-02,-4.50317e-01,-1.88707e+00,
-3.39010e-01,
-4.50696e-01,
-1.63372e-01,
-2.36071e-01,
-3.56499e-01,
1.56525e-01,
-1.36305e-01,
-1.30153e-01,
-6.52665e-02,
-3.12151e-01,
-4.15046e-02,
-7.99432e-01,
2.99290e-01,
1.00494e-02,
2.56877e-01,
1.85039e-01,
-3.61170e-01,
-2.10260e-01,
-2.44872e-01,
1.73604e-01,
1.13284e-02,
2.12301e-01,
-2.81902e-02,
1.36968e-01,
-6.33024e-01,
-9.72626e-02,1.00250e-01,1.07397e-01,2.04979e-01,2.14393e-01,2.36328e-01,-2.63277e-01,-1.19179e-01,2.50528e-01,3.59935e-01,-1.81175e-01,2.17888e-01,2.30200e-02,-1.44273e-01,2.21636e-01,1.85417e-01,3.73992e-01,3.35605e-01,-9.98220e-02,9.78656e-02,1.54097e-03,8.61246e-02,-3.76049e-01,4.41615e-02,-2.29771e-01,
-2.32286e-01,-2.86941e-01,5.77592e-02,1.21333e-02,-1.09264e-01,3.43714e-02,2.52011e-01,2.59164e-01,-2.08876e-02,9.18245e-02,-7.18030e-03,-2.07202e-01,1.20166e-02,-2.62072e-02,3.21646e-02,-6.63367e-02,-1.11125e+00,-6.35448e-02,-2.26014e-01,2.94628e-01,-5.66977e-02,-2.59224e-01,-5.99601e-02,-3.68178e-01,5.95054e-02,
-2.25700e-01,-4.80104e-01,-2.20398e-01,1.73609e-01,-5.93323e-01,2.70541e-01,-2.09732e-01,2.17828e-01,4.09397e-01,2.36484e-01,-2.11461e-01,9.15765e-02,-6.61377e-02,-2.72916e-01,-3.00563e-02,-8.94879e-02,2.62078e-01,-1.49756e-01,-4.02687e-01,2.64305e-01,-6.80945e-02,-1.68949e-01,1.46665e-02,-4.03102e-02,-7.64487e-01,
3.10596e-01,-1.61260e-02,3.37798e-01,-4.31759e-01,-1.90648e-02,1.69898e-01,-1.85791e-01,-1.11421e-01,-2.62634e-01,-4.36468e-01,-1.87941e-01,-1.91667e-01,-3.97715e-02,1.42053e-01,2.17410e-02,-5.15129e-01,4.12905e-01,-6.59167e-02,-4.47894e-01,1.40282e-01,1.13174e-01,-6.34907e-02,-3.33127e-01,-2.97868e-01,3.30562e-02,
-3.40373e-01,-1.37176e-01,-7.55146e-02,5.58595e-01,-1.31057e+00,4.23555e-01,1.91507e-01,-1.45844e-01,-1.28529e-01,-4.27634e-01,-3.02597e-01,1.26963e-01,-2.48226e-01,-2.50232e-01,1.86151e-01,-2.78203e-01,-1.92124e-01,-4.61987e-01,2.69893e-01,-5.75375e-01,-2.27378e-01,-1.58819e-01,1.07077e-01,-6.30735e-01,5.22545e-01,
2.63134e-01,-2.12448e-01,-9.50281e-02,4.11832e-01,2.51684e-01,8.47256e-03,-6.11536e-01,-2.13508e-01,-1.22240e+00,6.74720e-02,-1.00474e-01,1.51446e-01,1.23507e-01,-2.63868e-01,-1.87727e-01,5.71043e-01,1.78309e-01,3.04346e-01,4.56794e-01,-5.36973e-01,-1.28140e-02,-9.99942e-01,-4.62844e-01,4.21278e-01,-2.94496e+00,
-1.10627e-01,3.95778e-01,4.86325e-01,1.46149e-01,2.15746e-01,-1.94183e-01,-5.09368e-01,-3.83672e-02,5.04823e-01,2.45424e-01,-7.80796e-02,-7.17419e-02,-4.15208e-01,5.06261e-01,-4.73912e-01,7.43921e-01,-3.41586e-03,8.08849e-01,1.05759e-01,-2.48085e-01,2.68254e-02,-1.64788e-01,-7.27678e-01,-2.16853e-01,1.20703e-01,
2.45348e-01,-5.06752e-01,1.93139e-01,4.17631e-01,-3.43821e-01,-4.11150e-01,6.09493e-01,2.43386e-01,5.26409e-01,2.71926e-01,6.76139e-01,1.37127e-02,3.08767e-01,-7.31361e-01,4.43866e-01,-8.28170e-01,-3.03433e-01,7.55488e-03,-1.13346e+00,1.85076e-01,-1.61969e+00,4.09546e-02,1.42115e-02,-2.28938e-01,-3.59257e-02,
2.17843e-01,5.76668e-02,1.01370e-01,6.64346e-02,4.51605e-01,1.41938e-01,9.03171e-02,-2.44108e-01,-2.74233e-02,-3.78590e-02,-7.58069e-02,-2.26241e-01,1.65586e-01,1.42694e-01,-9.26363e-02,-1.32798e-01,-1.85430e-01,-3.27687e-01,5.04201e-02,-6.84431e-02,1.12064e-02,-6.08357e-02,-1.84472e-01,2.21355e-01,3.37916e-01,
1.56051e-01,-8.06330e-02,-1.33240e-02,-6.37287e-02,3.74450e-01,1.31224e-01,-8.86526e-02,-1.29543e-01,1.57295e-01,-2.58569e-02,-2.46106e-02,-3.16745e-01,1.78883e-01,-1.13590e-01,2.65481e-01,-1.15802e-01,-2.44492e-01,-1.00960e-01,-2.98602e-01,9.09472e-02,3.21518e-01,-9.63276e-02,1.57495e-02,-4.05763e-02,-8.38065e-01,
2.60422e-01,-2.97615e-01,3.21021e-01,-1.18155e-01,1.59188e-01,3.46751e-01,-7.84393e-01,2.84478e-01,1.91881e-01,-8.79773e-01,2.58446e-01,6.03587e-02,-4.63566e-02,-2.20430e-01,4.85207e-01,5.91450e-01,1.27144e+00,3.36250e-01,3.15958e-02,-6.22339e-01,8.62488e-01,2.76407e-01,-2.06749e-01,-2.09831e-01,-2.32454e-01,
-1.20284e-01,-2.37045e-02,-2.20518e+00,-3.91092e-01,9.83065e-01,2.75389e-01,-1.47194e-01,3.53984e-02,-1.27545e-01,-7.73624e-02,7.34117e-04,-3.08603e+00,1.45651e-01,-1.20381e-01,1.39506e-01,2.88242e-01,-6.06795e-01,2.21244e-01,-4.87513e-01,-5.09093e-02,2.83418e-03,1.44463e-01,-4.65491e-01,-3.79493e-01,5.99016e-01,
-2.64377e-01,-5.06207e-01,-1.08223e+00,2.15448e-01,-4.31601e-01,-4.25976e-01,-4.62408e-01,3.84206e-01,6.85429e-01,5.84750e-01,6.69053e-01,-1.89553e+00,3.87564e-01,-3.24936e-01,3.33172e-01,7.20763e-01,-1.79569e+01,6.52080e-01,-8.76240e-01,-3.20646e-01,-1.64986e-02,-3.55168e-01,-7.70264e-02,6.38593e-01,4.13400e-01,
2.45656e-01,-2.78044e-01,1.65664e-01,2.57387e-01,-2.01470e-01,1.46784e-01,7.29198e-02,1.48366e-01,4.08507e-02,4.48528e-03,1.22599e-01,-1.10760e-01,-1.68535e-01,-2.47337e-01,7.75534e-02,7.34535e-02,-1.14833e-01,-1.02657e-01,-4.51562e-02,2.69670e-01,-1.57642e-01,-1.56285e-01,5.31627e-02,7.30932e-02,-1.21818e-01,
2.47054e-01,2.49221e-01,2.21530e-01,4.61565e-01,6.81742e-02,-1.15194e-01,2.65587e-01,-4.61065e-01,8.73874e-02,-2.65607e-02,4.86627e-01,-2.59474e-01,1.24982e-01,-4.03811e-01,1.97073e-01,-3.49862e-01,-2.25355e-01,-2.65007e-01,-2.02587e-01,6.88625e-02,9.43456e-02,4.03732e-02,-2.80413e-01,-1.98645e-02,1.45037e-01,
1.86667e-01,-5.09981e-02,-3.39508e-01,-2.87570e-01,-2.46419e-01,1.10850e-01,-2.89649e-01,1.81307e-02,-5.41029e-02,2.64085e-01,-2.10864e-01,6.93460e-01,-7.63163e-02,-3.94651e-01,6.14814e-02,-2.87987e-01,3.51130e-01,2.89055e-02,-3.54705e-01,1.70282e-02,9.10358e-02,-1.98131e-01,2.94834e-02,-2.70923e-01,-1.16535e-01,
6.16172e-02,-5.31926e-01,-2.21431e-02,-8.53243e-02,1.02826e-01,9.19185e-03,-1.48798e-01,8.17618e-02,3.20842e-01,5.21152e-01,-3.34469e-02,3.39879e-01,1.78575e-01,-1.56973e-01,1.72914e-01,1.86849e-01,5.11213e-01,-7.44298e-03,4.15223e-03,3.40327e-01,-1.52921e-01,2.41815e-01,3.00851e-01,-1.42101e-01,-2.47221e-02,
-2.17638e-01,3.30448e-04,2.63287e-01,-8.79239e-02,1.96816e-01,-1.09961e-01,-3.85906e-01,5.46414e-01,-1.26036e+00,-8.66711e-01,-4.12146e-01,3.20134e-01,6.41187e-01,4.57122e-02,5.42455e-01,6.20237e-01,6.77598e-01,3.65847e-01,-1.87744e-01,-3.68384e-01,3.95867e-01,-2.47940e-01,1.03776e-01,-2.80744e-01,-4.74474e-01,
-2.29248e-01,1.04105e-01,-9.31249e-02,-1.45898e-02,2.65516e-01,1.67796e-03,1.06921e-01,-3.26540e-01,2.54405e-01,-7.21817e-02,1.05030e-01,-8.58074e-02,-2.90462e-01,1.52674e-02,3.17815e-01,-5.03181e-02,3.92863e-02,1.93094e-01,3.89922e-03,3.55495e-02,-1.72882e-01,1.08541e-02,-1.25524e-01,1.95036e-01,-1.09737e-01,
9.74173e-02,6.51179e-03,3.65529e-01,2.31994e-01,9.17639e-01,6.64760e-02,3.13743e-01,7.40318e-02,3.75672e-02,-6.12747e-02,1.73272e-01,-4.06032e-01,2.34870e-01,2.59474e-01,6.76035e-02,3.97653e-01,-4.64892e-01,-4.04591e-02,3.86738e-01,1.32648e-03,-1.84970e-01,1.98798e-01,-6.49864e-03,6.99949e-03,3.61768e-01,
-2.78817e-01,7.62355e-02,-2.55424e-01,-1.82408e-02,1.37192e-01,-3.11121e-01,-2.36365e-01,1.82882e-02,-2.12545e-01,1.81309e-01,-2.30325e-01,-1.88000e-01,9.82627e-03,-1.82303e-01,-8.93927e-02,3.24306e-03,5.82792e-02,-9.14098e-02,-1.12237e-01,-1.54717e-01,1.09871e-01,-3.36697e-01,-4.01113e-04,-1.03482e-01,3.41883e-03,
3.11085e-01,-2.46967e-01,-1.68259e-01,3.01113e-01,2.23369e-02,-1.94243e-01,-4.47870e-01,-2.27831e-01,-1.88457e-01,1.97675e-01,-2.02971e-01,1.83980e-01,-3.70932e-01,-3.59311e-01,-3.39477e-01,4.58332e-03,3.12728e-01,-1.83081e-01,-3.58109e-01,9.85900e-02,-1.24414e-01,-3.34977e-01,-1.54197e-02,1.49553e-01,-6.35804e-02,
-1.83267e-01,-9.51851e-02,2.51753e-01,6.80529e-02,-2.53879e-01,1.27248e-01,-1.11744e-02,-2.09235e-01,1.80253e-01,-9.98396e-02,-8.36768e-02,1.83027e-01,-4.70600e-02,1.18772e-01,-5.14796e-02,5.93211e-02,-8.46783e-01,-6.02388e-02,2.06737e-01,-1.66570e-01,-5.96778e-02,-6.49781e-02,-1.11590e-01,8.32153e-02,-4.54335e-02,
-6.60288e-03,1.21727e-01,-9.85218e-02,1.75963e-01,-1.07026e-01,-1.37487e-02,-1.51959e-01,-3.00068e-01,-1.54989e-01,3.23741e-03,-1.82369e-01,2.74164e-01,6.20224e-02,6.49138e-02,6.36865e-02,1.39353e-01,-1.11099e-01,2.76140e-02,-1.94850e-01,2.38300e-02,-1.59238e-01,-2.71353e-01,-1.04040e-01,-2.50203e-01,1.09257e-01,
-3.30979e-01,5.79905e-01,-6.91872e-01,3.94752e-01,4.28451e-01,-3.68618e-02,-1.05242e+00,-1.25478e-01,7.09525e-01,-1.32714e-02,1.39491e-01,1.89843e-01,4.07068e-01,-1.71095e-01,1.42629e-01,2.45907e-01,-1.32208e-01,4.41077e-01,-3.03842e-01,-4.11427e-01,8.83447e-02,-2.05325e+00,-4.67894e-01,2.51530e-02,-5.76493e-01,
1.02672e-01,
6.65536e-02,
9.46024e-02,
2.17723e-01,
1.25459e-01,
2.24496e-01,
-5.30691e-01,
-4.93760e-01,
5.62328e-03,
1.50009e-03,
1.32416e-03,
1.66651e-01,
-2.76884e-01,
4.66427e-02,
-1.96356e-01,
3.46365e-01,
-6.69415e-02,
-1.03335e-01,
5.42512e-02,
-8.01487e-02,
-1.25803e-01,
-1.65387e-03,
1.14811e-01,
-1.29151e-01,
4.95171e-02,
6.10600e-02,6.76115e-02,-7.23192e-02,-8.60614e-03,-5.88015e-02,2.10463e-02,-2.39073e-01,2.67163e-02,-1.05265e-01,7.20661e-03,-1.14482e-03,1.90946e-03,2.99833e-02,-1.30629e-02,-9.80419e-02,-1.42679e-01,5.06065e-02,3.11025e-02,-2.67748e-02,-2.02085e-01,1.65830e-01,3.03261e-01,-2.49570e-02,-3.68218e-01,-3.55534e-02,
-8.89068e-02,-4.09609e-02,4.04086e-02,-1.12361e-01,-3.99871e-02,-6.38733e-02,9.40579e-01,1.30946e-01,-5.86067e-02,-2.51902e-02,1.20434e-02,1.60037e-01,-5.65758e-02,-1.62394e-02,-8.69173e-02,-1.11669e-01,-2.68775e-05,1.29412e-02,5.49827e-02,-1.54273e-01,9.36027e-02,-3.90809e-01,-2.25891e-02,-2.02238e-01,3.31616e-02,
-1.12902e-01,1.89870e-02,7.64046e-03,4.41983e-02,-4.67616e-02,3.30566e-02,1.74209e+00,7.90190e-02,-4.03337e-02,-8.75043e-02,-5.57741e-02,5.75929e-03,-9.27035e-02,1.97439e-02,-7.47164e-02,-1.13911e-01,1.27703e-01,-3.88819e-02,-1.43291e-01,-8.92060e-02,-3.74390e-01,-3.46454e-01,-8.38028e-02,-2.51096e-01,1.60938e-01,
-5.70912e-02,3.71569e-02,9.44813e-03,-2.05086e-02,-6.08428e-02,-6.09842e-02,1.34024e+00,9.33013e-02,-6.86195e-02,-5.69808e-02,-3.40944e-02,5.04767e-02,-7.30638e-03,-3.38419e-02,-1.42306e-01,-6.26844e-02,-1.41038e-02,-2.20029e-03,3.75519e-02,-1.14152e-01,5.52212e-02,2.43318e-01,7.15272e-03,1.93432e-01,4.71873e-02,
-5.85919e-02,1.37395e-02,-1.86591e-02,2.87528e-02,-4.46239e-02,9.27685e-05,1.60022e+00,3.95486e-02,-7.30487e-02,-6.49870e-02,-1.08432e-01,-1.21247e-03,-6.11990e-02,5.66212e-02,-7.33897e-02,-5.12364e-02,6.33436e-02,-4.75768e-02,-4.07173e-02,-1.03392e-01,-3.90160e-01,7.34596e-02,-3.92351e-02,-2.83174e-01,6.09227e-02,
-5.85135e-02,7.15807e-02,1.72825e-02,5.54933e-03,-4.98880e-02,-1.22245e-01,1.22146e+00,1.79108e-01,-3.50088e-02,-1.16849e-01,1.38642e-02,-1.11618e-02,-1.21156e-03,-7.99309e-02,-3.00874e-01,1.20037e-02,-6.11341e-02,-6.56084e-03,2.21699e-02,-3.48204e-02,-1.11151e-01,-2.83134e-01,6.46558e-02,7.93989e-02,4.53215e-02,
-7.27490e-02,-9.54832e-03,-4.24762e-02,3.09655e-02,-7.52429e-02,2.53580e-02,2.89130e+00,-4.99996e-02,-1.23565e-01,1.38601e-03,-3.01872e-01,-7.37268e-03,-6.24520e-02,1.37061e-01,6.42105e-02,-3.00973e-02,6.86480e-02,-1.02930e-01,2.72523e-02,-9.17737e-02,1.90127e-02,-3.69866e-01,4.64700e-02,3.81201e-01,-7.23294e-03,
-4.69919e-02,4.88548e-02,3.50924e-03,-1.43954e-02,-6.06892e-02,-7.23157e-02,1.21801e+00,4.93165e-02,-6.06910e-02,-4.94535e-02,-3.68270e-02,4.72525e-02,-3.30976e-03,-4.02513e-02,-1.52385e-01,-6.04322e-02,-1.21974e-02,3.79754e-03,2.63105e-02,-1.14659e-01,3.99334e-01,2.08243e-01,2.37681e-02,2.62093e-01,4.96361e-02,
-4.52254e-02,1.94812e-02,-3.60786e-02,3.07563e-02,-4.02417e-02,9.40372e-04,1.48246e+00,2.44387e-02,-7.85472e-02,-8.05750e-02,-1.12250e-01,-1.35957e-03,-4.50379e-02,6.80427e-02,-5.98714e-02,-5.55376e-02,6.13580e-02,-4.41107e-02,-2.48473e-02,-1.11286e-01,2.96735e-01,1.80538e-01,-4.17500e-02,2.05080e-01,5.14225e-02,
2.43979e-01,
2.36549e-01,
2.23020e-01,
-2.22944e-01,
-2.34879e-01,
2.10539e-01,
1.94721e-01,
-2.24655e-01,
-2.36192e-01,
