// Neural Network File Format by Kyle Julian, Stanford 2016
6,4,9,25,
4,25,25,25,25,25,9,
0,
-8000.000000,-100.000000,-100.000000,0.000000
8000.000000,100.000000,100.000000,40.000000
0.000000,0.000000,0.000000,20.000000,-4.647677
16000.000000,200.000000,200.000000,40.000000,22.514692
1.65404e+00,1.71684e-01,-2.20422e-01,6.84871e-01,
4.24233e+00,-3.87657e-04,-7.40065e-03,-1.66582e-03,
-9.77545e-01,7.01807e-01,-1.29939e-01,1.68284e-01,
-2.31345e-01,-5.48826e-01,-1.07126e-01,2.09059e-02,
-3.06388e+00,5.24997e-01,7.91714e-02,1.42163e-02,
8.64972e-02,2.69018e-01,1.55622e-01,1.83384e-02,
-4.35088e-01,-1.44715e+00,8.27608e-02,4.33835e-02,
-2.36068e+00,3.27419e-01,-4.28736e-01,3.76814e-01,
2.09624e+00,-1.22251e+00,-7.85785e-02,-2.36857e-02,
-3.96520e+00,1.09499e-01,-6.16143e-02,-2.53002e-01,
1.71567e-01,1.11216e+00,-6.50917e-03,-1.46854e-02,
-3.92885e+00,2.36737e-01,-1.04570e-01,-4.40118e-01,
1.83849e+00,2.47807e-01,-2.02790e-02,-5.57604e-02,
-1.48600e+00,3.34373e-01,-6.37082e-01,2.52305e-01,
-3.46989e+00,8.70343e-02,-2.81253e-02,-7.18655e-01,
3.97221e+00,2.56519e-02,-5.80579e-02,-1.74021e-01,
-2.10148e-01,1.03098e-02,-8.12387e-01,-8.60569e-02,
2.29446e+00,-4.51824e-01,6.22238e-01,-1.45511e-01,
1.43550e+00,-4.79372e-01,6.05966e-01,-8.98333e-03,
-2.52715e-01,1.19371e+00,-2.48754e-02,-9.64695e-03,
-1.83365e+00,1.36861e-01,3.39402e-02,5.77879e-01,
-1.93311e+00,-2.63769e-02,3.45545e-02,8.22530e-01,
-2.62231e+00,-2.87457e-01,2.50003e-01,-7.47461e-03,
5.51622e-02,-1.26859e-01,1.00596e-01,-3.74436e-01,
3.49458e+00,-1.31505e-01,1.63986e-01,-4.94018e-01,
2.73101e-01,
1.87106e-01,
2.28068e-01,
2.88801e-01,
-1.14713e-01,
-3.05651e-01,
-1.92607e-01,
2.65922e-01,
-5.92917e-02,
-2.55051e-02,
-7.14934e-03,
1.12210e-01,
2.47224e-01,
-2.07523e-03,
-1.45847e-01,
-4.41058e-02,
3.10179e-01,
1.48277e-01,
-2.80718e-02,
-2.65337e-01,
1.40552e-01,
3.83514e-01,
2.34906e-01,
1.95779e-01,
-2.04932e-01,
4.10951e-01,3.47919e-01,-9.22852e-01,7.59768e-01,6.17569e-02,2.14291e-01,-8.06092e-01,1.94961e-02,-7.56230e-02,4.95089e-01,9.95747e-01,-2.27528e-01,-4.76716e-01,8.04432e-02,-7.90863e-01,1.50496e-01,3.22474e-02,-7.19726e-01,9.61194e-01,1.81143e-01,-2.36703e-02,4.94209e-02,-9.09911e-02,-2.82067e-01,2.61943e-01,
3.93344e-02,-3.34047e-01,2.21728e-02,3.41691e-02,-5.00566e-02,-3.44002e-01,-1.10892e-01,-1.46379e-01,1.99227e-01,1.49855e-01,8.98170e-02,1.88638e-01,-2.49320e-01,2.73174e-01,-3.01483e-01,-2.47840e-01,-3.63005e-01,1.12024e-01,-3.24095e-01,-8.41125e-02,-2.72432e-01,6.42042e-02,1.80573e-01,1.67939e-01,-2.14696e-01,
1.04645e+00,-6.88051e-01,4.57720e-01,-3.81181e-01,2.84802e-01,2.14187e-01,1.16525e-02,3.67360e-01,-1.05756e-02,-1.65100e-01,-4.09189e-02,1.08606e+00,2.65972e-01,3.00648e-01,6.87618e-01,-8.46932e-01,7.17727e-01,-4.27914e-01,-3.41075e-01,-4.22681e-01,-1.14252e+00,-5.53086e-01,4.67246e-01,-4.58134e-01,-3.77153e-01,
-9.74883e-02,-1.76096e+01,-3.31107e-01,8.93238e-01,-1.15244e+00,-3.17390e-01,-1.27365e-01,6.16720e-02,-5.71349e-01,4.28063e-01,1.19623e+00,2.04391e-01,-2.23781e-01,-1.37458e-02,2.21416e-01,-9.47738e-01,4.81559e-02,-3.64777e-01,6.21606e-01,-1.18448e-01,8.58910e-02,2.34187e-01,1.19938e-01,-1.59604e-02,-1.06947e+00,
5.34200e-01,2.69034e-01,-2.45815e-01,-1.28583e-01,-3.67287e-01,1.78359e-01,2.83018e-01,-3.97974e-01,-1.94697e-01,-9.88036e-01,3.48763e-01,1.46385e+00,-3.45292e-01,-3.76603e-01,1.96173e-01,-1.49878e+00,-1.80750e-01,8.51706e-02,-5.17190e-01,-2.35709e-01,3.05116e-01,-1.21514e+00,1.55491e-01,6.80697e-01,-5.20866e-01,
3.02319e-01,-1.34145e-01,-2.34994e-01,8.76264e-02,8.36090e-01,-3.30038e-01,4.68178e-01,5.86633e-01,-5.70999e-01,4.45161e-03,1.68394e-02,8.62587e-02,4.27711e-01,-6.41431e-01,5.81957e-02,2.52225e-01,-3.58065e-02,-6.87755e-01,-1.90154e-01,1.00269e-02,-4.16446e-01,-8.49699e-01,2.40015e-01,-2.03771e-01,-9.43125e-01,
5.61308e-01,-7.02520e-01,-3.65722e-01,4.64724e-01,-5.93076e-01,1.36695e-01,-1.50280e-01,6.60112e-01,-2.47891e-01,3.40594e-01,1.67130e-01,8.30087e-01,-4.19540e-01,-6.94955e-02,8.80844e-01,-3.85941e-01,8.94053e-01,-4.87401e-01,-4.65100e-01,1.33275e+00,-6.06768e-01,-2.33575e-01,-2.16140e-01,-1.67603e-01,-1.13588e+00,
-4.36214e-01,3.53917e-01,4.14516e-01,5.06242e-02,-3.63795e-02,1.22506e-01,4.11593e-01,-3.91159e-01,-5.15888e-01,-2.02445e+00,-3.13949e-01,8.20569e-01,4.53019e-01,9.87881e-01,6.52664e-01,-3.75331e-01,4.88368e-01,-3.54192e-01,7.84258e-01,2.03488e-01,1.93053e-01,2.93931e-01,-7.25521e-01,1.83365e-01,6.04533e-01,
-1.97569e-01,-7.48805e-02,-8.66419e-02,-1.71234e-01,2.55436e-02,-5.95690e-02,1.24638e-02,-1.71746e-01,1.35260e-01,-1.83633e-03,6.14763e-02,-2.71824e-01,2.50125e-01,3.39791e-01,3.21861e-01,-2.73595e-01,-1.89028e-01,1.75830e-01,1.66207e-02,9.59320e-02,-2.19986e-02,6.29389e-03,-3.28040e-01,-1.45412e-01,1.80960e-01,
-1.37899e-01,-3.08251e-01,1.61985e-01,1.57329e-01,1.77884e-01,2.94962e-01,-3.34428e-01,-3.96267e-02,4.91030e-02,2.49463e-01,-1.06553e-01,-2.44510e-01,-3.46226e-01,-2.96752e-01,-3.08895e-01,-2.12134e-01,2.55043e-01,-1.43382e-01,-2.25873e-01,9.30462e-02,-3.07901e-01,9.06292e-03,-1.61186e-01,-1.49814e-01,-2.47394e-02,
-5.09940e-01,-3.22435e-01,-4.15330e-02,1.42141e-01,-6.16550e-01,-1.45997e-01,2.10010e-01,-3.52762e-01,9.20103e-02,-3.57690e-01,8.31736e-01,3.65999e-01,5.99176e-01,1.65048e-01,1.70706e-01,-5.41106e-01,3.54714e-01,5.46029e-01,-1.80302e-01,-5.62796e-01,3.68737e-02,-2.67590e-02,4.26430e-01,2.44723e-01,4.15358e-01,
-5.56971e-02,-8.40752e-01,-1.62839e-02,-3.63970e-01,-2.88803e-02,2.27518e-01,-2.33177e+00,-7.65225e-02,1.39120e+00,-1.67306e-01,1.08014e+00,-4.03445e-01,1.59082e-01,3.03927e-01,1.99952e-01,3.33356e-01,-1.66221e-01,4.06555e-01,-4.85917e-01,-8.67505e-01,1.68736e-01,2.25661e-02,6.65209e-01,2.13574e-01,-4.46335e-01,
1.59571e-01,-3.82742e-01,-8.59604e-02,6.00708e-01,1.92202e-01,-2.75404e-02,-7.97921e-02,6.88986e-01,-5.66970e-01,-3.02640e-01,-2.60701e-01,-4.25715e-01,-4.86954e-01,2.71448e-02,4.86291e-01,8.64041e-01,-1.51052e-01,3.08204e-01,-8.50750e-01,8.46534e-01,-5.41773e-01,5.25177e-01,3.15001e-01,3.03353e-02,-8.75431e-02,
6.28115e-01,-1.13828e+00,-9.45259e-02,4.28261e-01,2.48753e-01,9.00580e-02,-3.06822e-01,-5.23686e-01,2.75431e-01,-2.94044e-01,2.15167e-01,1.34164e-01,7.34375e-01,-1.45476e-01,7.17656e-01,3.96295e-01,7.76883e-02,6.69129e-01,-4.77843e-01,1.20657e-01,1.12642e+00,-3.93535e-01,2.90639e-01,-3.15161e-01,-3.09799e+00,
1.04064e-01,2.84440e-01,3.66451e-02,6.66163e-01,-2.61154e-02,-3.38680e-01,1.43694e-01,-4.48392e-01,-1.25832e-01,-3.86877e-01,-3.00007e-01,2.64625e-01,8.66455e-02,8.47534e-01,1.11657e-01,-6.59597e-01,1.95834e-01,5.98818e-01,-7.50679e-01,7.45806e-01,7.62621e-01,-1.44331e+00,-5.92840e-02,2.84949e-01,-2.17078e+00,
1.18988e-01,-2.27232e-01,-1.88716e-01,4.29882e-01,-6.16208e-01,1.31985e-01,-3.13297e-01,-2.66388e-01,-5.23537e-01,-1.21887e+00,6.05799e-01,-3.91250e-01,-1.41440e-01,-6.22426e-01,3.92754e-02,-2.04901e-01,-4.19604e-02,-2.08855e-01,8.95320e-02,-1.91642e-01,-3.02390e-01,9.08770e-02,6.11620e-01,1.31361e-01,7.97000e-01,
-3.30315e-01,-1.92713e-01,-3.98237e-01,1.40244e-02,2.55254e-01,1.79327e-01,1.52886e-01,-1.00880e-01,3.25260e-03,7.75975e-02,-2.03467e-01,-3.30849e-01,-2.94068e-01,-3.59428e-02,-1.35038e-01,5.38711e-02,2.02832e-01,1.04875e-01,-3.27001e-01,7.73083e-02,-4.27110e-02,1.63294e-01,-5.70574e-02,2.14392e-01,5.21536e-02,
-1.02798e-01,1.18308e+00,-3.16872e-01,-3.29868e-01,-6.00403e-01,6.99975e-02,3.94254e-01,-4.32425e-01,-2.89343e-01,1.48682e-01,5.17643e-01,1.05417e-01,2.63304e-01,-3.39962e-01,2.11900e-01,7.82295e-01,2.83911e-01,5.35796e-01,-6.29592e-01,-2.69010e-01,1.53988e-01,3.04234e-01,1.70448e-02,-2.08664e-01,3.88671e-01,
-3.50345e-01,-1.16830e-01,-5.09779e-02,-6.56987e-01,1.61277e-01,9.36140e-02,-1.06012e+00,-1.26870e-01,1.15897e+00,-2.04800e-01,-2.88873e-01,1.25975e-01,3.89456e-01,-1.40739e-01,2.52811e-02,-1.84434e-01,4.48322e-01,-2.28984e-01,3.50095e-01,1.03263e-01,1.47014e-01,9.99846e-03,9.78956e-02,-3.49599e-01,7.80016e-02,
-2.40290e-01,-4.60968e-01,9.52527e-01,2.71893e-01,-3.83135e-01,2.96679e-01,3.61936e-01,-1.08998e+00,-1.96037e-01,-1.39139e-01,-6.76807e-02,-5.35139e-01,-4.27352e-01,-9.87613e-03,-5.51092e-01,9.21821e-01,-6.19929e-01,6.45146e-01,-3.20953e-02,-5.04977e-01,3.81459e-01,6.60767e-01,-8.46810e-01,1.02163e+00,6.90305e-01,
5.69049e-01,-5.59294e-01,-3.32836e-02,-2.76604e-01,-1.16904e-01,5.09060e-02,-5.47658e-03,-4.91117e-01,1.73968e-01,1.21383e+00,-4.92947e-01,-8.82011e-02,3.20351e-01,5.31680e-02,2.26368e-01,1.46225e+00,-1.01919e-01,-6.28541e-01,6.25314e-01,1.62170e-01,6.16800e-02,-1.54744e-02,1.25392e-02,2.12402e-01,2.22718e-01,
-3.09204e-01,4.01136e-01,-2.86354e-01,6.60912e-01,9.95596e-01,-1.77110e-02,2.95517e-01,-3.92383e-01,4.27295e-02,-5.03951e-01,2.84244e-01,7.22847e-02,2.80917e-01,1.19187e+00,-5.42163e-01,-6.91292e-01,-1.10035e-01,6.09707e-01,3.01625e-01,1.23975e-01,1.15731e-01,3.52584e-01,-2.01999e+00,1.71950e-01,5.15235e-01,
-2.16941e-01,-2.58205e-01,9.77136e-03,1.50075e-01,5.02543e-01,-3.10622e-01,2.12420e-01,2.66017e-01,-4.49309e-01,-1.51276e+00,6.56592e-02,-2.63863e-01,2.75018e-01,-3.58001e-01,1.31457e-02,-3.21324e-01,2.22418e-01,-4.14469e-01,3.28050e-01,4.03893e-02,2.51465e-01,9.64599e-01,2.17929e-01,-4.80941e-01,4.95013e-01,
-6.69752e-01,4.89047e-01,2.64240e-01,2.07181e-01,-2.90343e-01,1.96760e-01,6.88906e-01,-9.03352e-01,-4.46126e-01,4.58868e-01,-2.04186e-01,-8.72079e-01,1.22961e-01,1.24613e-01,-7.73943e-01,2.48737e-01,-6.45949e-01,4.28894e-01,-1.12404e-01,2.49678e-01,4.38333e-01,4.65681e-01,-1.92274e-01,-8.16958e-03,-6.54735e-01,
8.59338e-02,-1.24327e-01,1.77659e-01,1.46796e-01,7.22468e-01,2.84377e-01,-3.70779e-01,-1.32627e-01,6.78510e-01,-7.37374e-01,4.64413e-01,-4.36098e-01,-5.95274e-01,-4.96127e-01,-2.38029e-01,3.50071e-01,-2.08204e-01,6.52418e-01,-4.88372e-01,-9.60075e-01,-2.15205e-01,2.17480e-01,4.56203e-01,2.10043e-02,5.41367e-01,
2.65658e-01,
-2.52181e-01,
-1.74259e-01,
-2.91460e-01,
1.01098e-01,
4.18022e-01,
-6.66647e-02,
-1.50778e-01,
-2.59563e-01,
-3.45512e-01,
3.52849e-01,
2.02495e-01,
-2.84523e-01,
-5.52582e-01,
2.50882e-02,
3.80579e-01,
-2.10436e-01,
-2.20701e-01,
3.09486e-01,
-9.30874e-03,
-2.80813e-02,
-2.76288e-01,
2.92911e-01,
3.57276e-01,
2.03346e-01,
-5.88615e-02,3.24948e-01,-2.84533e-01,-2.99278e-01,1.94609e-01,-2.69605e-01,-3.46129e-01,1.05743e-01,-1.72085e-01,-2.18598e-01,-2.19054e-01,-5.59210e-02,7.06983e-02,2.78818e-01,5.67498e-02,1.27624e-01,-3.37834e-01,2.04566e-01,-2.68054e-01,-3.34209e-01,-3.49789e-01,1.09176e-02,-2.29925e-01,-1.16836e-03,2.86198e-01,
2.24493e-01,-1.51810e-01,-5.80610e-01,4.08104e-01,4.05609e-01,4.38919e-01,2.70847e-02,8.20733e-01,-3.07534e-02,-2.24417e-01,1.65964e-01,-1.59145e-01,7.02960e-01,-1.15345e-01,1.95700e-01,-2.39496e-01,1.54200e-01,-4.25112e-01,2.26704e-01,-6.65966e-01,5.60709e-01,-3.13544e-01,-2.39094e-01,1.20792e+00,5.54673e-01,
-3.79112e-02,-9.19586e-02,-8.08396e-01,-1.30844e-01,-9.54549e-02,-2.37879e-01,5.60133e-01,8.35181e-02,9.75865e-02,3.07045e-01,3.21458e-01,1.85091e-01,-3.62747e-01,-2.45076e-01,1.12298e-01,3.95715e-01,3.17310e-01,-4.76397e-01,1.93355e-01,-3.30397e-01,1.18458e+00,1.32532e-01,2.21180e-01,4.75183e-01,-1.95286e-01,
3.24037e-01,1.95773e-01,6.53179e-01,-4.15870e-01,-5.15777e-01,2.07724e-01,-5.84846e-01,-9.48628e-02,2.17525e-01,-3.24581e-01,3.69114e-01,-1.85684e-01,5.94863e-02,-3.21944e-01,-2.09878e-01,3.17491e-01,3.40848e-02,3.43775e-01,-4.86778e-01,-4.82976e-01,-2.28915e-01,4.76856e-01,6.97910e-02,3.59516e-01,7.74134e-03,
-3.66225e-01,2.47499e-01,-8.36392e-01,-3.35741e-01,1.60984e-01,-3.58915e-01,-6.33575e-01,1.16907e+00,-2.94689e-01,1.25987e-01,2.58631e-01,9.58429e-02,-4.52685e-02,3.47210e-01,4.68902e-01,1.96158e-01,1.28789e-01,2.07512e-01,-1.13023e-01,-1.22779e+00,-2.67116e-01,5.14376e-01,-1.14416e-01,7.28422e-01,9.13504e-01,
-2.77261e-01,2.16583e-01,-3.33139e-01,-2.00621e-01,4.53894e-01,3.76221e-01,-1.02396e-01,3.82779e-01,3.27760e-01,-1.26696e-01,5.26202e-01,1.21783e-01,3.40407e-01,-1.34296e+00,-1.60158e-02,3.05990e-01,-1.02576e-03,6.94524e-02,4.73536e-01,-1.05200e+00,6.53514e-02,1.66308e-01,-7.72637e-01,-1.45081e-01,-1.74634e-01,
-1.18467e-01,7.45542e-02,-3.25571e-01,-8.02077e+00,-2.89707e-01,1.57071e-02,1.44302e-01,1.66987e-01,-2.72238e-01,-2.67763e-01,-2.80478e-01,-2.90678e-01,7.90528e-02,-8.79971e-02,3.15036e-02,5.60504e-02,-3.36443e-01,-9.07179e-01,2.65036e-01,2.30658e-01,1.09557e+00,7.31524e-03,-1.74345e-01,-4.15857e-02,2.28843e-01,
1.20926e-01,1.32958e-02,-5.99546e-01,-1.25328e-01,8.04307e-03,-1.45610e-01,4.64183e-02,4.90808e-01,-5.83060e-02,2.74884e-01,1.28540e-01,1.73094e-01,1.84036e-01,4.58339e-02,5.04470e-01,-5.52766e-03,2.70706e-01,-8.89088e-02,-5.78474e-02,-1.06609e+00,1.70621e-01,-4.88635e-03,-2.43922e-01,8.09818e-02,-2.01705e-01,
3.15405e-02,2.28351e-02,-1.14133e+00,2.63840e-01,-3.03119e-01,6.74360e-01,-5.54304e-01,4.11779e-01,-2.71434e-01,-3.39714e-01,6.96270e-01,-3.96956e-02,1.92002e-01,-2.48070e-01,4.47930e-01,1.84850e-01,1.59697e-01,-5.55088e-01,-1.91971e-01,-9.55712e-01,4.90524e-03,-1.77158e-02,-6.08972e-01,-5.11091e-01,-3.23354e-01,
-1.63223e-01,3.02104e-01,-6.05787e-01,-6.30124e-01,-3.41957e-01,4.37387e-01,-5.01947e-01,6.73251e-01,2.48121e-02,2.40658e-01,5.50255e-01,4.17248e-02,3.89284e-01,-6.80735e-01,3.49256e-01,5.17337e-02,3.22946e-01,-1.82795e-01,3.23518e-01,-7.52565e-01,3.26056e-01,-6.88402e-01,-4.62848e-01,6.38282e-02,8.43496e-03,
-2.17529e-01,2.49638e-01,-1.69867e-01,-3.21381e-01,7.36183e-01,-1.26288e+00,-6.68509e-02,3.32612e-01,2.69607e-01,2.17913e-01,7.19082e-02,-5.62692e-02,-1.39710e-01,1.33164e-01,-7.84572e-01,3.85446e-01,-9.23319e-02,1.59996e-01,-1.56515e-01,-7.95133e-02,3.42104e-01,1.36280e-01,-2.61256e-01,-5.06399e-02,-4.12797e-01,
-8.20028e-01,-2.53459e-01,-8.15443e-01,-3.08252e-01,-1.14453e-01,2.38279e-01,-1.38800e+00,6.44528e-01,-2.89049e-01,5.24577e-02,-1.89053e-01,3.97637e-01,3.16477e-01,4.10258e-01,3.53062e-01,1.15405e+00,9.80962e-02,1.13614e-01,1.90158e-01,-1.17442e+00,-1.01273e-01,-4.10339e-01,-6.13034e-01,4.17602e-02,7.53255e-02,
1.08015e+00,3.25854e-01,-7.82459e-01,9.87092e-01,5.43979e-01,2.21929e-02,-8.15928e-01,-2.25786e-01,9.15957e-02,1.94777e-01,1.02191e-01,-4.85205e-01,-1.32680e-02,-1.70987e-01,-2.79522e-01,9.46276e-02,-1.23563e-01,-2.02079e-01,-7.87588e-01,7.11890e-01,-2.36365e-01,7.83251e-02,-3.59226e-01,-7.89312e-01,-2.94168e-01,
6.64215e-01,-3.99005e-02,1.28612e-01,-2.49553e-01,4.75599e-01,6.58398e-02,1.43609e-01,6.71717e-01,-2.16687e-01,2.61384e-01,4.61619e-02,6.82182e-01,-4.54729e-01,-3.51244e-01,3.44097e-02,1.12134e-01,1.93020e-01,-2.60632e-01,-3.41123e-01,2.08109e-01,5.97692e-01,-4.05566e-01,1.33906e-01,-2.39579e-01,-4.36377e-01,
-9.53879e-02,3.48236e-02,-2.26417e-01,-3.04227e+00,1.00374e-01,-5.72695e-01,-4.37289e-01,1.12313e-01,1.89540e-01,-1.23582e-01,4.65782e-01,-5.53197e+00,-1.30461e-01,-9.70732e-01,5.59437e-01,3.89828e-02,-8.23547e-02,3.38750e-01,-2.87776e-01,-8.50163e-01,-1.34985e-01,4.06237e-01,1.95331e-01,2.56425e-01,3.31655e-01,
-5.15247e-01,-2.91737e-01,-4.51323e-02,-1.33631e+00,9.40002e-02,-5.21275e-02,1.82279e-01,-3.34537e-01,-3.84912e-02,2.86815e-02,8.17844e-01,1.61078e-02,1.06813e-01,-3.00500e-01,7.37315e-02,2.03157e-01,2.01592e-01,-9.98202e-01,4.35123e-02,-1.27799e-01,3.96250e-01,-1.87588e-01,4.79146e-01,-2.68668e-02,-3.04810e-01,
-3.94263e-01,-2.26943e-01,5.54492e-01,-1.01937e-01,1.14339e+00,-1.26963e-01,1.51726e-01,-6.83597e-01,-4.02072e-02,-1.84411e-01,2.40502e-01,4.15246e-02,-3.45729e-01,-5.53933e-01,2.18337e-01,-1.38302e-01,3.49435e-01,-1.34289e+00,-2.18855e-01,-9.03789e-02,5.65157e-01,-2.19595e+00,6.12269e-01,-2.49023e-01,-5.33493e-01,
-6.81787e-01,-1.32076e-01,-2.96723e-01,7.84289e-01,1.63140e-02,3.19192e-01,-1.67088e+00,-1.74626e-01,1.47341e-01,-2.59570e-02,3.61574e-01,6.77394e-01,3.35433e-01,-5.79006e-01,5.42256e-01,1.26891e-01,-1.70767e-01,5.08606e-01,-5.97154e-01,-5.67749e-01,2.85007e-02,1.61676e-02,7.39109e-02,-2.84876e-01,-4.70055e-02,
6.69222e-01,-2.11211e-01,1.03253e+00,7.97965e-01,-8.36441e-02,-2.51758e-01,-4.26449e-01,-4.56277e-01,1.76719e-01,-2.28944e-01,1.55809e-01,-7.48506e-02,-6.02561e-02,-2.99983e-01,-2.80957e-01,1.71486e-01,-9.80659e-02,-8.68350e-02,4.44465e-01,1.83949e-01,-4.20401e-01,7.61400e-01,-1.99976e-02,-8.37496e-02,1.03080e-01,
6.23151e-01,-1.79924e-01,-3.61738e-01,9.80367e-01,1.42503e-01,2.16601e-01,8.30017e-02,2.19628e-01,-3.41514e-01,-8.55313e-02,-1.43211e-01,-2.54152e-01,3.70336e-01,1.93636e-01,-1.51480e-01,9.71960e-02,-1.38241e-01,-6.38166e-01,-2.74206e-01,3.74628e-01,3.34677e-01,-4.27546e-02,-3.80417e-01,-1.34956e-01,1.20514e-01,
9.71227e-02,-2.51990e-01,-6.29159e-01,2.78845e-01,2.33665e-01,-9.37238e-02,2.62818e-01,5.89944e-01,-6.63118e-02,-3.54654e-03,6.70196e-01,-6.72769e-01,1.33285e+00,1.73289e-01,-4.71546e-01,1.03934e-01,2.45501e-01,-6.15703e-01,-1.82527e-01,1.42722e-01,-9.08100e-02,5.39340e-01,-7.17927e-01,-6.18185e-01,-1.29936e-01,
-7.22692e-01,2.86975e-01,1.67534e-01,-2.84038e-01,2.19403e-01,2.05905e-01,6.85725e-01,-3.48110e-01,-9.15445e-02,1.03805e-01,-2.02522e-01,1.56875e-01,2.53599e-01,4.82455e-03,-5.31297e-01,4.21844e-01,-1.88320e-01,5.00554e-01,-5.40463e-01,-8.26323e-01,-1.18354e+00,-4.32529e-01,2.55405e-01,8.71616e-01,-1.68487e-01,
-2.59345e-01,1.79363e-02,1.88242e-01,5.52138e-01,-1.17776e-01,1.66351e-02,2.57325e-01,-1.02447e+00,1.05823e-01,-5.06166e-02,2.95503e-01,-3.69072e-01,-7.63348e-02,-1.24279e-01,-1.55584e-01,-1.27328e-01,-9.93211e-02,2.39072e-01,1.07547e-01,9.75866e-02,-2.32290e-02,2.52830e-01,4.78021e-01,-2.71152e-01,-1.01628e-01,
-2.94895e-01,9.81923e-02,2.59417e-01,5.11168e-01,4.87946e-01,2.40559e-01,-3.82460e-01,-2.83823e-01,-2.08928e-01,2.20523e-01,1.42675e-01,4.04308e-01,2.96786e-01,9.43174e-02,7.48765e-02,-3.68265e-01,6.77040e-02,4.18391e-02,-2.91622e-01,2.66381e-01,-7.25513e-02,7.05024e-02,-6.77196e-03,-2.01893e-01,-5.42876e-01,
5.16025e-02,2.85752e-01,-2.96174e-01,3.65937e-01,9.40565e-01,4.08726e-01,-1.76048e-01,-2.80793e-01,-2.51635e-01,2.37276e-01,1.54896e-01,1.39366e-01,-4.84594e-01,-1.25602e-02,8.31181e-01,1.04777e-04,-1.73696e-01,-1.33645e-01,-2.13896e-02,-2.67047e-01,5.47005e-03,2.41074e-01,-7.82534e-02,-2.92644e-01,3.68242e-01,
-3.46844e-01,
-5.46261e-01,
-4.64648e-02,
-1.57597e-01,
-5.18902e-01,
-2.01754e-01,
6.70172e-01,
3.74487e-01,
9.73951e-02,
4.63085e-02,
-4.02243e-01,
1.21032e-01,
3.27912e-01,
-1.50592e-02,
-6.40030e-01,
-2.99694e-02,
-5.89654e-01,
3.05275e-02,
-1.78060e-01,
4.03101e-01,
-3.09330e-01,
-2.62263e-01,
-2.50787e-03,
4.58890e-01,
1.84544e-01,
-1.54410e-01,3.34501e-01,4.02978e-01,4.54356e-01,-1.01740e+00,-2.71392e-02,-3.64634e+00,7.02112e-02,9.28115e-02,-3.97014e-02,-3.63757e-01,7.00367e-01,1.08093e+00,-1.44416e+00,-1.32521e+00,7.07382e-01,-1.47791e-01,-2.61130e-01,-2.10483e-01,3.98875e-01,-1.41607e+00,2.37001e-01,3.69133e-01,-2.19640e-01,-1.27715e-01,
-2.26891e-01,6.54954e-02,-2.14124e-01,-6.18563e-02,-1.54008e+00,5.03904e-01,2.63766e-01,3.07087e-01,-1.33864e-01,-1.92391e-01,-2.04774e-02,-1.24495e+00,-2.19046e-01,3.80174e-01,5.15525e-01,3.02809e-01,-7.43796e-01,-1.23132e-02,-1.30068e+00,1.01274e-01,-4.63388e-01,1.19256e+00,-3.43680e-01,-2.70731e-01,3.09759e-01,
1.59264e-01,3.48901e-02,-3.25666e-01,7.14041e-01,2.09843e-01,1.43332e-01,5.50013e-01,-3.77746e-01,-9.58190e-02,4.32059e-01,-2.36174e-01,-5.26241e-01,-1.14073e-01,3.91007e-02,6.40840e-01,-1.95551e-01,1.60746e-01,-5.73344e-01,-6.74256e-01,-5.80851e-01,-2.88748e-01,-4.30027e-01,1.70233e-01,1.68214e-01,1.25464e-01,
-2.59005e-01,-2.04360e-01,-1.85423e-02,-2.36244e-01,3.30347e-02,-2.52892e-01,4.99427e-02,-3.31912e-01,-9.07094e-02,-1.95092e-01,4.66909e-02,1.85222e-01,-2.69308e-01,-2.61100e-01,-2.72457e-01,-2.08682e-01,-6.94857e-02,-1.43207e-01,2.47139e-01,-2.38660e-01,1.27731e-01,-1.30790e-01,-1.34090e-01,1.47709e-01,-3.05229e-01,
-1.58100e-01,-3.17263e-01,5.84762e-04,7.04743e-02,-2.06718e-01,-4.16694e-01,-7.26585e-01,2.89999e-01,-4.04846e-01,1.86730e-01,-5.36191e-02,6.19815e-01,-2.53447e-01,-1.07752e-01,-1.65928e-01,1.50599e-01,-1.30298e-01,3.12992e-01,-4.43026e-02,6.09605e-01,7.22216e-02,2.86730e-01,-2.59507e-01,-1.00993e-01,3.12640e-01,
5.72550e-03,7.16930e-02,-1.41159e-02,3.32510e-02,-1.10542e+00,8.14492e-01,-1.91271e-01,1.59607e-01,2.30167e-02,4.01509e-01,-3.93273e-01,-2.73705e-01,6.19110e-02,-1.72203e-01,4.46491e-02,2.24927e-01,-5.67599e-01,-3.35538e-01,1.55434e-01,2.24455e-01,-3.46866e-01,2.02622e-01,-1.45369e-01,5.84233e-01,1.23649e-01,
1.98043e-01,-2.15145e-01,2.55529e-01,-7.36755e-02,5.20534e-01,-1.92179e-01,8.40482e-02,3.26521e-01,8.47878e-03,-3.19057e-02,-1.86867e-01,-5.47865e-01,-9.17170e-02,4.79332e-02,-5.20709e-02,-4.70979e-02,3.91654e-01,6.42842e-01,-1.79125e-01,-4.22366e-02,7.68303e-02,3.18789e-01,1.32241e-01,-3.37967e-01,-3.34654e-02,
3.35084e-01,-1.34047e-01,-1.95401e-01,-3.77184e-01,-3.47024e-01,4.29378e-01,6.79058e-02,2.51501e-01,8.60702e-01,2.73904e-01,-1.94997e+00,-4.48678e-01,3.06866e-01,-5.66247e-02,8.31332e-02,1.09428e-01,-7.42702e-01,-4.12708e-03,-8.68657e-03,2.49256e-02,7.31592e-02,1.35089e-01,1.76448e-01,-1.08848e-01,5.77246e-01,
-8.12455e-02,-1.21166e-01,-7.98877e-03,-1.28048e-01,2.76432e-01,-1.09992e-01,-6.59698e-02,-2.99281e-01,7.02539e-03,-2.05223e-01,2.23698e-02,2.75347e-01,5.42597e-02,5.01797e-02,2.38395e-01,-2.35983e-01,3.14397e-01,-2.89578e-02,-1.26378e-01,-9.40150e-02,-1.25030e-01,-2.70021e-01,-2.48830e-01,-1.70980e-02,-3.45871e-01,
-2.68263e-01,1.37954e-01,1.81009e-01,4.87191e-01,3.01892e-01,3.41665e-01,-6.60296e-01,5.78074e-04,-9.56529e-02,4.88947e-02,-4.83029e-02,-4.58810e-01,-9.04411e-02,7.52206e-02,-4.49640e-01,-6.47290e-03,-3.02069e-01,-1.87038e-01,3.22701e-02,1.76369e-01,-5.27711e-01,1.95102e-01,1.37191e-01,-1.12846e-01,8.52392e-02,
8.84172e-02,-2.39486e-01,1.31194e-02,1.21264e-01,3.80889e-01,-7.21358e-02,2.94789e-02,4.01342e-01,2.72279e-04,6.06040e-01,2.45812e-02,5.22258e-01,-3.34116e-01,-2.34547e-01,1.67012e-01,-2.34226e-01,7.57603e-02,6.85820e-01,1.29340e-01,-8.93643e-02,2.90609e-02,2.15510e-01,-1.97611e-01,1.95022e-01,4.43317e-02,
-2.59257e-01,-4.09377e-01,-5.85073e-01,3.31941e-02,1.12855e-01,-3.53124e-01,3.70723e-01,2.71142e-01,-1.68817e-01,2.58484e-01,1.05085e-01,-2.03919e-01,-5.77119e-02,9.68758e-02,3.91044e-01,-4.23170e-01,2.06614e-01,1.84009e-01,-1.53160e-01,-1.58274e-01,2.43298e-01,1.36968e-01,7.08578e-02,5.95863e-01,-4.49994e-02,
-1.45664e-01,8.42896e-03,4.48706e-01,5.97841e-02,-3.15652e-01,9.13619e-02,-5.69269e-02,6.24557e-01,4.99412e-01,-1.05040e-01,-9.02561e-01,2.47636e-01,-6.22844e-02,-1.02055e-01,-1.21811e+00,9.09781e-02,1.26385e-01,6.26482e-02,1.48598e-01,1.75631e-01,-3.81652e-01,1.70438e-01,-1.37220e-01,5.75953e-02,-1.84270e-01,
8.10942e-02,5.68729e-02,-3.07423e-01,-3.41059e-01,6.83059e-01,1.85537e-01,8.86940e-01,-4.22864e-01,-2.50329e-01,1.40826e-01,-2.18013e-01,9.06690e-02,2.32403e-01,3.17609e-01,7.40760e-01,-2.74205e-02,-1.49687e-01,-2.12565e-02,-4.00117e-01,-8.47758e-01,-3.82212e-01,-2.11066e-01,3.31287e-01,1.06731e-01,-6.73962e-02,
2.13802e-01,-7.79703e-01,1.87984e-01,1.14570e-01,-1.71060e-01,4.18424e-01,-2.19160e+00,-2.26232e-01,-7.46474e-02,-3.92078e-02,-9.26336e-02,1.82038e-02,1.16890e-01,3.42437e-01,-2.15034e-01,-8.53826e+00,-5.44997e+00,6.71454e-02,1.68706e-01,-4.29233e-01,-2.82251e-01,-2.00628e-01,-2.43125e-01,3.67760e-01,-1.38366e-01,
-7.54831e-02,1.17645e+00,-2.87713e-01,3.07239e-01,-9.26054e-01,7.89767e-01,-3.64915e-02,2.02047e-01,2.84797e-01,1.75089e-01,1.02654e-02,-1.74334e-02,-3.78776e-01,-8.04930e-02,5.60344e-01,-6.86822e-03,-5.66341e-01,1.31068e-01,5.89963e-02,-6.61000e-01,-7.76570e-01,-4.00050e-01,7.88952e-03,-2.42866e-01,1.79104e-01,
-2.54775e-01,1.41926e-01,-1.52212e-02,9.21867e-02,8.65405e-02,7.35255e-02,2.58215e-01,-2.08678e-02,-1.80263e-01,-1.59253e-01,1.00685e-01,2.89047e-01,-8.56610e-02,2.16006e-01,1.08104e-01,-1.93576e-01,-2.02597e-01,-3.04959e-01,-2.30848e-01,-1.89359e-02,-2.82108e-01,-2.53722e-01,-2.02959e-01,-1.68816e-01,-1.62671e-01,
4.92953e-02,1.95225e-01,1.23245e-01,-4.38622e-01,-1.79558e-01,-3.86530e-01,-8.27686e-01,4.97957e-02,7.79204e-01,3.14229e-01,-5.74593e+00,-3.05085e-01,2.28128e-01,-1.97465e-01,-2.87573e+00,2.13299e-01,6.72825e-01,-2.79083e-01,8.29059e-02,-5.26074e-02,-7.62745e-02,-1.66172e-01,9.61129e-02,-5.39081e-01,-8.02978e-02,
9.45477e-02,4.05129e-03,6.61840e-01,-2.49592e-02,4.80017e-02,-3.63235e-01,6.35987e-02,2.84929e-01,3.39649e-01,7.54344e-02,-8.39548e-02,6.01710e-01,2.06720e-01,-9.83517e-01,-2.37048e-01,-4.03801e-01,7.89378e-01,6.97849e-01,-2.00335e-01,-6.78323e-02,-1.65973e-01,1.76447e-01,-1.03209e-01,-3.91710e-01,2.50227e-01,
-5.04275e-02,2.15126e-02,-4.53993e-01,8.43174e-02,3.26441e-01,-7.41347e-02,-1.77816e-01,5.40953e-02,-5.55099e-01,4.22507e-01,1.53422e-01,-1.90107e-01,-1.76088e-01,-1.46714e-01,-2.31541e-01,1.98108e-01,-8.31392e-02,-2.06545e-02,2.85921e-01,-6.78552e-02,7.31201e-02,-8.51156e-02,8.75279e-02,2.93721e-01,1.67099e-01,
1.60023e-01,-1.09393e-01,5.32132e-01,-3.85390e-01,-3.17715e-01,7.73856e-02,2.39271e-01,-1.18548e-01,-5.43881e-01,-2.93352e-02,3.82149e-01,8.99587e-01,3.17281e-01,-6.96360e-01,2.33580e-01,-7.58240e+00,-1.10032e+00,-6.74975e-02,-7.28469e-02,-4.14854e-01,-2.35275e+00,-2.80953e-02,-5.98996e-02,4.12762e-01,-2.55385e-01,
-8.15117e-02,2.44025e-01,-1.03880e-01,-1.25250e+00,-1.98033e-01,-5.52245e-02,4.76374e-01,1.52085e-01,1.18217e-01,3.08302e-02,-5.50446e-02,-1.08294e-01,-1.49157e+00,-1.00191e-01,-7.06598e-01,3.64379e-01,-1.89873e-01,-1.85017e-02,5.64314e-01,-2.30388e-01,-2.15090e-02,3.05759e-01,2.38974e-01,1.44492e-01,4.51352e-02,
-3.03209e-01,1.90043e-01,-2.53140e-01,6.48021e-01,-2.71918e-01,1.78686e-01,3.32612e-01,6.18602e-02,-2.74400e-01,-3.30334e-01,-1.77084e-01,2.62350e-01,2.51502e-01,4.70714e-02,-1.89200e-01,-3.07083e-03,-1.21005e+00,-1.63653e-01,-2.87164e-01,-1.95909e-01,3.92620e-01,-1.75135e+00,-3.71987e-01,2.13482e-01,9.37284e-01,
1.89494e-01,3.24015e-01,-3.91227e-01,5.78191e-01,-1.69285e-01,4.89409e-01,1.62313e-02,2.35650e-01,4.32581e-01,2.82759e-01,2.86457e-02,5.30543e-01,-7.24140e-01,-3.90707e-01,9.89867e-01,2.38184e-01,-2.94185e-01,5.08464e-01,2.08497e-01,3.30132e-02,2.35769e-01,7.02875e-01,-4.59729e-01,-8.36923e-02,9.39541e-02,
-2.63495e-01,-2.58317e-01,-1.09907e-01,4.38436e-01,3.76790e-01,-3.11170e-02,-2.15226e-01,1.43335e-01,7.69822e-01,1.64385e-01,-3.13237e-01,-6.33234e-01,-2.01822e-02,1.09852e-01,4.77862e-02,1.62391e-01,-7.81897e-02,-3.05355e-01,-6.25651e-01,-2.15270e-02,1.79608e-01,-1.10041e-01,3.13409e-01,-4.59953e-02,2.08817e-01,
-5.60988e-01,
-4.82569e-01,
-4.23397e-02,
-2.79146e-01,
1.51603e-01,
-1.82841e-01,
2.33567e-02,
-1.06720e-02,
-2.42667e-01,
9.80890e-03,
2.02854e-01,
1.35250e-01,
-1.59146e-01,
-2.64808e-03,
-7.58706e-02,
-3.47639e-01,
-2.74669e-01,
3.37845e-01,
-1.60171e-01,
1.18603e-01,
3.48913e-01,
-4.66583e-01,
-7.58490e-01,
-1.91810e-01,
9.69478e-02,
-3.48340e+00,2.14782e-01,-1.07288e-01,4.87327e-02,-2.71560e-01,-2.14249e-01,-3.64532e-01,-3.52712e-03,2.80014e-01,6.31643e-01,5.22346e-01,6.28943e-01,-5.65715e-01,-3.50659e-01,-1.14806e+00,-2.00094e-02,-2.64212e-01,4.71201e-01,-3.02170e-02,-8.51061e-01,-1.44827e-01,-9.66263e+00,-2.41043e+00,-1.84371e-01,-4.01800e-02,
1.14928e+00,2.30091e-01,-9.17153e-02,-8.24246e-02,-2.32565e-01,1.97533e-01,-1.17503e-01,2.56397e-02,2.53903e-01,-1.10764e-02,-3.84101e-01,1.82579e-01,8.74795e-02,-1.09815e-01,2.43682e-01,-1.33101e-01,7.18887e-02,-1.37410e-01,1.63961e-02,3.19321e-01,3.02370e-01,2.33027e-01,-4.96501e-02,-3.82164e-01,2.10140e-01,
-5.35904e+00,-3.91003e-01,-1.01965e-01,1.39428e-01,-2.24314e-01,-4.29687e-01,4.42991e-01,1.06534e-01,1.33359e-01,2.55810e-01,-5.71965e-01,3.28340e-01,3.77505e-01,-1.11453e-01,4.95856e-01,-5.29155e+00,1.01353e-02,-3.48553e-01,5.35205e-01,6.36430e-01,-4.93172e-01,-5.97158e-01,2.86421e+00,-1.90667e-01,-1.36832e-01,
1.66887e-01,-5.66252e-01,2.57759e-01,6.47390e-02,1.57694e-03,-1.95015e-01,3.19057e-02,1.73355e-01,-2.78590e-01,1.46137e-02,5.96252e-02,-2.44178e-02,-1.25008e-01,-8.32673e-02,1.36146e+00,2.07714e-03,-1.12372e-01,-6.60613e-02,7.33596e-02,-5.62594e-02,-2.83445e-02,2.09497e-01,2.38054e-01,6.40691e-02,-2.92335e-01,
-1.97073e-02,-1.67311e-01,-3.13502e-02,-3.93005e-02,-1.01079e-01,-1.97293e-01,-1.29265e-01,1.12438e-03,-2.11735e-01,1.44456e-01,-2.08137e-01,-2.26421e-01,-1.29825e-01,2.50257e-01,2.08481e-01,-1.16957e-01,-2.28903e-02,3.87538e-02,2.60770e-01,-7.98543e-02,-2.00658e-01,-1.53118e-01,-7.68412e-02,1.31468e-01,-1.02465e-02,
1.84958e-02,-6.08754e-01,-9.82006e-01,1.49043e-01,1.99543e-01,3.29451e-02,4.67013e-01,-4.24077e-01,2.29813e-01,1.35759e-02,-1.02654e+00,-1.85010e-01,-7.32939e-02,5.24151e-02,-3.28033e+00,-1.53648e+00,-1.02561e-02,-1.38589e-01,5.57257e-01,5.84556e-01,-1.84115e+00,4.34616e-02,-2.62673e-02,-1.70181e+00,-2.59053e-01,
7.69739e-01,4.22766e-02,-4.50022e-02,2.55677e-01,9.42919e-03,1.37194e-01,-3.60546e-01,1.00153e-01,-6.51202e-02,-3.66411e-02,7.24056e-02,-4.40898e-03,1.02252e-01,3.46970e-04,2.17049e-02,-2.12688e-01,3.34650e-01,8.11035e-02,-2.09680e-01,1.73399e-01,5.35435e-01,5.50475e-01,1.28741e+00,8.29160e-02,2.45874e-01,
-9.83336e-01,-5.22467e-01,3.44063e-02,2.43187e-02,4.69590e-02,-1.27324e-01,2.49613e-01,-1.66727e-01,-3.17427e-01,1.21605e-01,7.17041e-02,-1.82474e-01,-2.24990e-01,5.07486e-02,7.22222e-02,-1.68850e-02,-2.53070e-01,4.47893e-02,1.19290e-01,-9.69596e-03,1.33609e-01,-2.36311e-01,2.56803e-01,4.58947e-01,-1.78977e-01,
5.93682e-01,-4.58059e-02,-2.33292e-01,2.94224e-01,5.51994e-01,1.37037e-01,1.50754e-01,1.97030e-01,-1.67691e-01,-1.18861e-01,-3.85355e-01,3.46658e-01,1.35009e-01,-3.93632e-02,6.31608e-02,-8.39386e-01,2.36222e-01,-3.69704e-01,-2.99289e-01,7.76146e-02,-1.83747e-01,3.73467e-01,3.11105e-01,-8.38016e-02,1.56515e-01,
2.86876e-02,2.89586e-01,1.82470e-01,4.97633e-03,-4.37872e-01,-9.73168e-03,-4.08291e-01,-3.80365e-01,1.68656e-01,-5.91005e-01,-1.77355e-01,-4.39369e-01,4.52110e-02,1.92986e-01,-3.33312e-01,3.52622e-02,-1.45143e-01,-1.11495e-01,1.91595e-01,-6.13519e-01,-2.92462e-01,-2.60689e-01,-2.61803e-01,-2.12406e-02,-4.61102e-01,
-3.37349e+00,-3.38701e+00,6.10857e-01,-3.47815e-02,2.73306e-01,-1.01339e+00,1.31786e-01,-7.29295e-02,-3.41529e-01,-2.55037e-01,1.34981e-01,-2.71640e-01,2.98766e-01,3.73563e-02,-4.31596e-02,2.72014e-01,3.21424e-01,-8.91228e-02,-2.13128e-01,-5.39580e-02,-9.75633e-01,-3.09125e-02,1.64886e+00,-2.34101e-02,-6.03745e-01,
-3.15375e-01,-2.00050e-01,1.01876e-01,2.35811e-01,6.11690e-03,-9.42288e-02,1.29461e-02,-3.05373e-01,-1.14441e-02,5.60804e-02,3.91052e-02,-1.86888e-01,-2.03677e-01,-5.08108e-02,-2.93927e-01,-2.60835e-01,4.89794e-02,1.81972e-01,-3.47005e-02,-3.28305e-01,2.91448e-01,1.64019e-01,-1.86877e-02,-6.69249e-02,-2.74122e-01,
4.99657e-01,-2.13531e-02,1.35609e-01,-1.15724e-01,-8.27017e-02,-2.32537e-01,-7.95653e-02,1.60185e-01,1.14548e-01,-2.39708e-01,9.39951e-02,1.25406e-01,7.92021e-02,1.45079e-01,-3.72262e-01,1.71368e-02,9.37198e-02,-2.18755e-01,-1.01827e-01,-1.18369e-01,3.85282e-01,8.96705e-02,-3.64364e-02,-3.12833e-01,3.06643e-01,
4.07626e-01,6.48323e-02,2.65019e-01,1.49345e-01,1.57235e-01,-3.36367e-02,9.57553e-03,4.49818e-01,-1.64806e-01,-3.00458e-01,4.21555e-02,5.13150e-02,3.75065e-02,-9.52407e-02,1.38781e+00,-4.96363e-02,-3.58829e-01,-9.05184e-02,-6.07251e-01,1.25209e-01,1.08469e-01,8.87101e-02,1.45154e+00,4.49942e-01,7.85016e-03,
2.88513e-01,1.39973e-01,-2.09887e-01,-2.35604e-01,-3.43510e-01,-1.76681e-01,1.91782e-02,-2.56015e-01,-2.95847e-01,-6.76416e-02,-2.69154e-01,-7.34458e-02,-2.68528e-01,-2.02674e-01,-3.22543e-01,-2.93124e-01,1.84775e-01,-7.93629e-02,-2.48425e-01,-2.66948e-02,4.42643e-02,3.33558e-01,-1.13666e-01,8.92742e-02,-6.77561e-02,
-2.66343e-02,5.05694e-02,4.28232e-02,2.29591e-01,-2.07197e-01,-2.76213e-01,-3.05139e-02,-2.44793e-01,8.03218e-02,2.28646e-01,-2.19231e-01,-6.49331e-02,-2.04886e-01,-2.44679e-01,-9.13950e-02,-6.79002e-02,-1.87462e-01,-1.39884e-01,2.12626e-01,-1.17133e-01,1.98531e-01,3.14734e-01,1.85005e-01,1.86560e-01,2.62056e-01,
5.66111e-01,5.69823e-01,-2.25042e-01,-1.42764e-01,-2.43460e-01,3.59983e-01,1.80792e-01,7.47889e-02,7.47383e-02,3.85594e-01,-2.52032e-01,1.75812e-01,-1.20192e-01,-2.10268e-01,1.30092e+00,3.00663e-02,-8.76305e-02,-1.59383e-01,3.07370e-01,3.02977e-01,4.71408e-01,5.56610e-02,-6.92345e-01,2.39795e-01,-8.49541e-04,
-1.57732e-01,-1.61749e-01,2.59674e-01,-2.21524e-01,2.06237e-01,-2.10860e-02,1.89821e-01,1.47888e-02,-3.44912e-01,1.04304e-01,1.00650e-01,-5.59045e-03,1.80435e-01,1.48695e-01,1.40496e+00,-5.76665e-02,-2.14731e-01,-1.86810e-03,-4.72174e-02,6.93617e-02,3.69515e-01,-1.27223e-01,1.76524e-02,4.24951e-01,-2.11463e-01,
1.96622e-01,2.50620e-01,4.56263e-01,1.28246e-01,2.56044e-01,-2.50231e-01,4.52220e-02,8.29216e-01,-1.29781e-01,4.60767e-01,2.09723e-01,-2.58203e-01,-4.66636e-01,-8.55064e-01,-4.11681e-01,1.62470e-01,-1.04731e-01,-1.79999e-01,1.77514e-01,-3.79119e-01,-2.30670e-02,3.36085e-02,-1.04646e+00,-5.68852e-01,-4.00764e-01,
4.82683e-01,8.51014e-01,-2.05497e-01,1.77543e-02,3.67217e-01,5.17211e-01,-9.31917e-02,3.20411e-01,3.59609e-02,1.56468e-02,-1.06054e-01,2.16812e-01,2.28681e-01,8.73124e-02,-8.23445e-02,-8.35120e-02,-1.67761e-01,-1.84727e-01,-4.88610e-01,-6.20738e-02,-1.56389e-01,3.13594e-01,-3.67499e-02,5.48897e-02,1.86714e-01,
-9.91663e-01,-1.19065e+00,-1.41146e-01,2.82672e-01,2.06934e-01,-3.58339e-02,7.97910e-02,-2.21893e-01,-3.65314e-02,-6.30929e-02,1.61452e-01,-5.91766e-02,-3.63099e-01,-1.77854e-01,4.08088e-01,9.66268e-01,2.65619e-01,-7.80653e-02,3.93368e-01,-7.34329e-02,-1.51719e-01,6.55899e-02,6.62555e-01,-4.87799e-02,2.09564e-02,
-1.05360e-03,5.75157e-02,-2.12578e-01,4.79877e-03,-3.98809e-01,-3.67434e-01,1.26846e-01,-3.24072e-01,1.51779e-02,-1.93021e-02,-1.72535e-02,-2.25947e-01,2.07105e-01,-5.74711e-02,1.08668e-01,-8.32010e-02,-3.10629e-01,1.82644e-01,-6.32207e-02,-3.09035e-01,6.29293e-02,-3.41960e-01,-2.12214e-01,1.13143e-01,2.21260e-01,
1.45231e+00,-1.32452e-01,-2.45021e-01,1.21868e-01,1.59879e-01,2.73325e-01,-1.06967e-01,2.01372e-01,2.57282e-01,1.55613e-02,-2.14665e-01,2.65664e-01,-3.60385e-03,1.40825e-01,1.29975e-01,4.46844e-01,1.40879e-01,1.56210e-01,7.96081e-02,2.58465e-01,1.01452e-01,-1.01379e-01,6.45132e-01,-2.69692e-02,2.32304e-01,
1.06393e-01,-5.77286e-01,-3.77594e-01,-2.11584e-01,1.81037e-01,-1.98976e-01,1.73881e-01,-4.18386e-01,1.53038e-01,1.19083e-03,-7.38284e-01,4.98385e-01,6.35117e-01,5.02263e-01,-2.64190e+00,-6.98659e+00,1.29534e-01,-7.03465e-01,7.85707e-01,-7.30889e-02,1.15787e-02,4.38048e-01,3.17357e+00,-1.80378e+00,5.54088e-01,
-2.67795e-01,-1.76265e-01,2.49663e-01,-2.78608e-01,-2.88147e-01,-1.86609e-01,-3.06976e-01,-2.74000e-01,-1.34067e-01,6.98823e-03,-3.06234e-01,1.37234e-01,-2.78777e-01,-2.31386e-01,-1.52743e-01,-3.35890e-01,2.91053e-01,-3.72213e-02,-9.06566e-02,-1.58813e-01,1.91552e-01,-2.78659e-02,2.45051e-01,2.33174e-02,1.16790e-01,
-1.02420e-01,
-2.86549e-02,
-5.28357e-02,
-4.42309e-02,
-1.21878e-01,
1.64530e-02,
-2.59491e-02,
-3.46990e-03,
1.56502e-02,
5.26385e-02,
1.03236e-01,
-1.95363e-01,
1.20021e-01,
1.50854e-02,
-1.12097e-01,
-3.40302e-01,
3.88842e-02,
-3.62878e-02,
-1.45378e-01,
-3.23762e-02,
9.61724e-02,
-1.89908e-01,
1.25154e-02,
-1.45885e-01,
-1.14449e-01,
1.11761e-02,3.01208e-02,-7.68549e-02,-3.97453e-04,2.93684e-01,-5.88354e-02,-6.42451e-02,-2.22265e-02,1.80260e-01,-3.90608e-01,1.00117e-02,1.12067e-01,-2.88738e-02,-1.02471e-01,2.04871e-01,2.37805e-01,7.89760e-02,5.83975e-02,-2.67308e-02,-2.05033e-01,-9.30675e-02,-5.71708e-01,2.41533e-02,-1.48866e-02,3.75107e-01,
-1.05044e-01,2.30436e-01,2.05314e-02,-7.63575e-02,-3.44965e-01,-3.10604e-02,-1.03868e-01,5.88909e-02,1.00132e-01,6.91863e-01,-1.42299e-02,1.11613e-01,1.45796e-01,6.83417e-02,-2.89608e-01,1.08728e-01,8.21788e-02,-7.42978e-02,-6.83877e-02,-1.72967e-01,2.60559e-02,1.85076e+00,-1.50972e-01,-3.18198e-02,-4.00220e-01,
-4.23436e-01,1.82201e-01,-7.11426e-02,1.21991e-01,-3.33458e-01,5.08007e-03,-1.45958e-01,1.61067e-01,1.18984e-01,2.09471e-01,-9.73697e-03,-4.09608e-01,-8.79916e-02,-2.39634e-02,5.61932e-03,-2.71476e-01,-8.76308e-02,-1.06999e-01,1.78079e-02,-8.76010e-02,-1.02086e-01,-2.78912e-01,-1.62042e-02,-4.05699e-02,1.27371e-01,
-1.23606e-02,2.54613e-01,1.96582e-02,4.01654e-02,3.97696e-01,-8.29841e-02,-6.99669e-02,2.16723e-02,7.68997e-02,4.49199e-01,-4.65488e-02,-3.39669e-01,5.51322e-03,-1.52621e-02,2.87280e-01,-3.01613e-01,-2.05524e-02,-2.15456e-03,-7.00946e-02,-1.09597e-01,-2.03607e-02,9.00499e-01,-1.32275e-01,2.00626e-02,1.23278e-01,
-2.42464e-01,1.27464e-01,-1.39612e-02,1.31905e-01,7.63720e-02,-5.70900e-03,-5.90579e-02,1.69271e-01,1.28344e-01,4.10938e-01,-1.08740e-02,3.26203e-01,-2.17971e-02,-8.52466e-02,-3.32990e-02,8.58063e-02,-6.39409e-02,-7.85775e-02,-5.58570e-02,-7.29512e-02,-8.26335e-02,7.79792e-01,-3.95949e-02,-3.94970e-02,-1.64509e-02,
-5.16876e-03,4.34022e-01,3.43106e-02,-2.96448e-02,1.38269e-01,-1.32551e-01,-8.39989e-02,-1.05334e-01,1.87556e-02,3.95756e-01,-1.34607e-01,6.62629e-02,-1.01286e-01,1.07805e-02,3.94655e-01,-1.41232e-02,-1.36424e-01,1.04062e-01,-8.31084e-02,-5.69211e-02,2.72314e-02,-5.40954e-03,-1.95805e-01,2.14371e-02,2.22000e-01,
-2.38801e-01,1.23881e-01,-1.20529e-02,1.42472e-01,-3.35450e-01,-5.98167e-03,-5.43894e-02,1.69091e-01,1.28252e-01,5.14910e-01,-7.45948e-03,-2.81404e-01,-2.32747e-02,-8.74047e-02,-2.89039e-01,-2.09152e-01,-6.58530e-02,-8.01430e-02,-4.59879e-02,-7.19069e-02,-8.57843e-02,7.31775e-01,-4.00073e-02,-3.80645e-02,-2.47921e-01,
3.65276e-04,2.52431e-01,2.06793e-02,4.27317e-02,3.08309e-01,-9.15592e-02,-6.59676e-02,2.35087e-03,7.52670e-02,7.71961e-01,-5.35140e-02,-3.12491e-01,-1.09493e-02,-2.32241e-02,-2.63974e-01,-3.22119e-01,-3.25564e-02,1.37279e-02,-7.15496e-02,-1.14202e-01,-2.15902e-02,5.39121e-01,-1.23517e-01,2.07526e-02,4.12615e-01,
-1.14724e-02,3.46901e-02,4.22119e-02,3.55214e-01,4.07990e-01,4.35455e-02,-1.49769e-02,2.77741e-01,1.31578e-01,1.18401e+00,6.94221e-03,-3.66428e-01,9.81748e-02,-1.84158e-01,-2.91128e-01,2.74524e-01,-7.11719e-02,-1.24162e-01,-1.28535e-01,4.05617e-02,-8.38077e-02,1.78122e+00,-4.24568e-02,-7.50770e-02,-2.85718e-01,
2.08221e-01,
1.75286e-01,
2.28550e-01,
-2.37508e-01,
-2.33454e-01,
2.34622e-01,
-2.32834e-01,
-2.34660e-01,
1.93378e-01,
