// Neural Network File Format by Kyle Julian, Stanford 2016
6,4,9,25,
4,25,25,25,25,25,9,
0,
-8000.000000,-100.000000,-100.000000,0.000000
8000.000000,100.000000,100.000000,40.000000
0.000000,0.000000,0.000000,20.000000,-4.647677
16000.000000,200.000000,200.000000,40.000000,22.514692
3.01888e+00,-1.93163e-02,-6.19420e-02,7.19686e-01,
-4.22282e+00,2.37832e-01,-1.62001e-01,-5.41009e-01,
3.02159e+00,-2.22063e-02,-1.04565e-01,-8.49801e-01,
-6.96753e-01,-1.17718e-01,1.99872e-01,7.73690e-01,
-2.93666e-01,-1.49018e-01,-4.18058e-01,-6.58419e-03,
-3.08726e-01,1.55993e+00,-1.65639e-02,-1.60089e-02,
1.49202e+00,-3.62076e-01,4.03055e-01,-3.90703e-01,
3.87192e+00,-3.06846e-01,3.34369e-01,-4.21865e-02,
3.88120e+00,-3.63983e-01,3.03063e-01,9.10159e-02,
-9.19966e-01,-4.22116e-01,1.75363e-02,2.53132e-01,
4.54380e-01,1.56529e+00,-2.04228e-02,-9.51296e-03,
6.11279e+00,-3.42594e-03,1.59682e-03,6.39297e-04,
-3.28403e+00,3.68897e-01,-7.89626e-01,-1.89301e-01,
-5.57684e-02,1.34817e+00,-3.24795e-02,-4.74575e-02,
6.28927e-01,1.05159e+00,1.72568e-01,-6.93736e-02,
-8.00657e-01,5.57807e-01,-7.65490e-01,1.56591e-01,
-8.10530e-01,9.99904e-01,-5.55942e-01,-1.10045e-01,
1.84200e+00,-9.70541e-02,1.60266e-01,-4.68803e-01,
1.77663e+00,-9.37485e-01,1.64884e-01,-3.92788e-01,
3.15766e+00,9.49688e-02,-1.91265e-01,-1.15938e+00,
-4.53358e+00,7.04806e-02,-1.06161e-01,-6.77977e-01,
-3.93819e+00,1.33415e-01,-5.66414e-02,-6.28606e-01,
9.15308e-01,-4.05139e-02,7.45098e-01,-1.87162e-01,
3.75842e+00,-1.34729e-01,-3.01162e-04,-7.02458e-01,
-1.84777e+00,2.30878e-01,-3.74833e-01,-4.05490e-01,
1.85649e-01,
1.06421e-01,
-1.96373e-01,
3.72666e-01,
1.83058e-01,
-2.10783e-01,
-1.98225e-01,
1.41254e-01,
2.02898e-01,
3.67751e-01,
2.11680e-01,
2.67264e-01,
3.60082e-02,
2.71217e-01,
2.61435e-01,
4.79678e-02,
3.83094e-01,
8.30583e-02,
-1.57267e-01,
-4.45698e-01,
-2.59543e-01,
-5.51527e-02,
2.14343e-01,
-1.65645e-02,
9.68692e-02,
7.75446e-01,6.99676e-01,-5.12596e-01,-8.62549e-01,1.68986e-01,1.40248e+00,6.84744e-01,5.65901e-01,6.92398e-01,-5.03660e-01,-1.97584e-01,-7.91437e-01,8.02504e-01,-7.20272e-01,-6.10029e-01,8.82414e-01,9.50982e-01,-5.60149e-02,-3.07854e-02,-3.60502e-01,1.21915e-02,6.46243e-01,-5.81397e-01,-8.72284e-01,7.76502e-01,
1.39568e+00,7.93511e-01,-1.07156e+00,-9.28877e-01,9.67598e-01,5.58909e-01,1.20149e+00,-1.37045e+00,8.93442e-01,-1.23816e+00,6.73568e-02,-7.17473e-01,6.75380e-01,-8.11810e-01,-2.19583e-01,-1.96175e-01,8.18485e-01,-7.42778e-01,-8.30710e-01,-7.65072e-01,1.90177e-01,8.94924e-01,-1.18481e+00,-7.65880e-01,6.39050e-01,
-4.86991e-01,-1.07336e-01,-3.49570e-01,5.11967e-02,1.01752e+00,1.33037e+00,2.76610e-01,-1.32934e-01,-8.41795e-01,6.37324e-01,2.69371e-01,1.92014e-01,-1.15535e+00,-1.61118e-01,-1.25541e+00,3.79345e-01,5.61034e-01,-6.87578e-01,-1.32105e+00,-4.06588e-01,-4.25690e-01,3.95594e-01,-7.94297e-01,2.12859e-01,7.54203e-02,
-3.98956e-01,9.78691e-02,-4.63840e-01,-7.36268e-02,-7.12827e-01,5.16397e-01,2.12543e-01,6.79697e-01,5.10500e-01,5.46589e-01,-1.12584e-01,5.22679e-02,3.33491e-01,-3.61338e-01,-5.65192e-02,4.35575e-01,-3.57843e-01,5.74937e-02,-2.64810e-01,-7.23580e-01,-7.29677e-01,-1.39113e-04,5.95027e-01,5.14965e-01,-7.40745e-02,
8.71957e-01,5.46399e-01,-9.89886e-01,-7.71495e-01,-6.63110e-01,9.93149e-02,4.42971e-01,-1.21111e-01,-5.76010e-01,6.12747e-01,-2.19300e-01,-5.89987e-01,5.17908e-01,1.47391e-01,-1.67834e-01,-2.57225e-01,1.31778e-02,-1.40914e-01,1.55531e-01,-1.54904e+00,2.16965e+00,6.84420e-01,1.82073e-01,-4.81711e-01,3.32201e-01,
8.68500e-01,1.45693e-01,-3.05839e-01,-4.04206e-01,-7.87113e-01,7.41121e-01,-7.98855e-01,9.42234e-01,-3.24360e-01,8.57702e-02,-4.23817e-01,-1.36112e+00,5.63799e-01,-6.30778e-01,7.42085e-02,1.51146e+00,8.49229e-01,-8.04124e-01,-9.00904e-02,4.53865e-01,3.00745e-01,8.11410e-01,-6.94777e-01,-4.53628e-01,4.46863e-01,
-2.88167e-01,-2.51912e-01,4.47515e-01,4.60950e-01,1.24578e-01,-4.26151e-01,-1.39383e+00,-1.55951e+00,7.90445e-01,1.03687e+00,2.93493e-02,3.14952e-01,-6.17038e-01,-2.32344e-01,1.30143e-01,-1.80490e+00,-6.49096e-01,5.15835e-01,1.95050e-01,3.15151e-01,9.67564e-01,2.94644e-01,3.51597e-01,3.80834e-01,-7.35485e-01,
-1.02797e+00,-3.57441e-01,-9.01295e-01,3.15871e-01,3.96394e-01,9.46719e-02,4.79967e-01,-8.90365e-02,9.13759e-01,1.03279e+00,-1.11459e-01,2.76002e-01,1.03443e-01,3.65819e-01,4.68994e-02,5.12889e-01,2.21447e-01,-7.31259e-01,-6.97147e-01,-1.24243e+00,-5.68914e-01,-1.17756e-01,-2.52577e-01,-9.43057e-02,-7.90672e-01,
-8.91585e-01,-3.55705e-01,4.62590e-01,5.36396e-01,4.25725e-01,-3.26468e-01,-5.16276e-01,7.20469e-01,-5.46937e-01,3.53444e-01,1.57431e+00,3.67206e-01,-9.77392e-01,-1.39647e+00,1.12895e-02,-7.33279e-02,-8.54351e-01,6.44212e-01,3.70886e-01,3.48103e-01,-8.77409e-01,-3.78159e-01,5.15356e-01,5.29056e-01,-7.45411e-02,
-8.02600e-01,1.29872e-01,-7.23515e-02,1.15175e+00,-7.71612e-03,3.84900e-01,-1.87807e-01,-1.96946e-01,3.48334e-01,2.83504e-01,-3.43708e-01,1.01695e+00,2.47890e-01,5.32779e-01,-4.23984e-01,-1.42225e-01,3.75135e-02,-2.26593e-01,-2.70768e-01,1.71950e+00,-8.83650e-01,-1.00293e+00,7.10421e-02,-6.53639e-01,-6.73528e-01,
1.75729e-01,4.04416e-01,-7.20386e-01,5.18749e-02,4.21907e-01,-1.34322e+00,5.91950e-01,-1.69608e-01,-7.00866e-01,3.81336e-01,1.59083e+00,4.15017e-01,-5.95416e-01,6.01624e-01,3.13058e-01,-6.93322e-02,-7.56304e-02,-2.71940e-01,-9.15449e-02,1.28263e+00,4.42193e-02,-1.59619e-01,-1.23078e-01,-1.69618e-01,-9.89394e-02,
1.80185e+00,5.44227e-01,-5.75918e-01,-1.34652e+00,-3.05159e-01,9.09887e-02,2.16239e-01,-1.19802e+00,-1.16366e+00,9.35791e-01,-5.81784e-01,2.43861e-01,1.02029e+00,1.05894e-01,4.46927e-01,-5.76916e-01,-1.84508e-01,1.11253e+00,1.99520e-01,-1.51028e+00,4.14046e-02,9.60443e-01,7.34353e-01,7.18297e-01,7.97706e-02,
1.37857e+00,6.45684e-01,-6.98285e-01,-1.10342e+00,6.65912e-01,-3.65078e-02,5.07986e-01,-4.25953e-01,-5.78353e-01,-3.48841e-01,-2.33879e-02,-3.32361e-01,3.27746e-01,-6.69963e-01,-2.56034e-01,1.22974e-01,7.68158e-01,-7.95145e-01,-8.75170e-01,-8.78928e-01,2.58706e-01,1.20795e+00,-1.38053e+00,-7.28844e-01,6.75629e-01,
1.09671e-02,-4.97150e-01,-1.15370e-01,3.24262e-01,-7.33385e-03,-2.29690e-01,-1.10515e+00,-5.52495e-01,9.01298e-01,4.97562e-01,-2.59501e-01,-5.46367e-01,-2.60170e-01,6.47117e-01,-1.22526e-01,-8.02015e-01,9.43971e-01,-4.96872e-01,3.02302e-01,-2.95313e-01,1.95844e+00,4.62713e-01,-4.05666e-02,1.19363e-01,-6.85910e-02,
1.91192e-01,-5.78550e-01,2.72175e-01,-4.85751e-01,4.29951e-01,1.27455e-01,2.31487e-01,1.73352e-01,-3.95633e-01,6.23152e-01,-3.37559e-01,4.21311e-02,7.21901e-01,1.62231e+00,-8.01167e-01,6.06765e-01,-1.59167e+00,1.59436e-01,-1.88358e-01,-2.52348e-01,-4.33713e-01,3.16777e-01,5.23894e-01,-1.23972e-01,3.87715e-01,
-4.51349e-02,1.01783e+00,-5.85732e-01,-5.10963e-02,6.49757e-01,-3.34828e-01,7.11651e-01,-1.15276e-01,-3.41097e-01,9.42107e-02,7.11788e-01,1.01756e+00,9.55600e-01,-2.64167e-01,-3.12056e-01,-1.22506e+00,-2.13577e-01,-2.58793e-01,-4.45572e-01,7.61515e-01,-7.10289e-01,3.06194e-01,-1.24148e-01,-4.92216e-01,2.83329e-01,
9.21461e-01,-4.90267e-01,6.79975e-01,-4.67180e-01,9.81630e-01,-1.10959e-01,-5.91759e-01,1.08279e-02,-2.29496e-01,-5.46048e-01,-1.95666e-02,5.64035e-01,7.89563e-01,-2.44044e-01,1.39531e-01,-1.68535e+00,3.00787e-01,9.48174e-02,2.05050e-01,-5.57696e-01,-1.86853e+00,3.70859e-01,1.06553e+00,4.67205e-01,-3.59074e-03,
4.01479e-01,7.19239e-01,-2.88160e-01,-9.39662e-02,8.50920e-01,4.18296e-01,4.08156e-01,8.73227e-01,-7.31081e-01,-1.85251e-01,1.47343e+00,-9.40927e-01,-4.73955e-01,-2.89693e-01,-1.52449e+00,-3.11022e-01,-4.07146e-02,-6.05208e-02,-1.37001e-02,-5.06310e-01,-6.59816e-01,2.94387e-01,-6.86071e-02,8.61713e-01,-1.42119e-02,
-2.78344e-01,-1.86213e-01,-2.47000e-01,-1.74029e-01,5.44229e-02,5.93446e-02,2.24546e-02,-3.38260e-01,2.09048e-01,-1.95412e-01,-2.63163e-01,8.54020e-02,-1.80009e-01,-6.46326e-02,2.29758e-01,2.79397e-01,6.84564e-02,-1.27576e-01,6.39895e-02,-3.30180e-01,1.49464e-01,-1.07378e-01,-1.05689e-01,6.44994e-02,1.91676e-01,
-2.22319e-02,-6.35719e-01,7.32967e-01,6.59694e-02,-9.40586e-02,-9.98391e-01,-1.78879e+00,-7.21423e-02,-2.24670e-01,-1.26282e+00,8.70321e-01,7.01689e-01,-1.27265e+00,2.29023e-01,-2.90622e-01,6.42708e-01,3.31822e-01,9.35252e-02,1.03704e+00,1.58166e-01,-2.68382e+00,-7.05329e-01,-8.64130e-01,-2.66817e-02,-1.13550e-01,
1.23044e-01,2.39887e-01,-5.19044e-01,2.50992e-01,-2.34261e-02,-2.70711e+00,4.13245e-01,-7.15507e-01,-2.70793e-01,4.60709e-01,1.45424e+00,-7.58183e+00,-5.98148e-01,2.51275e-01,7.22941e-01,3.30861e-01,4.47798e-01,-2.73093e-01,3.79240e-02,1.74471e+00,7.49512e-02,-1.49777e-01,-2.41766e-01,-5.77850e-02,1.58900e-01,
-1.00073e-01,-3.17903e-01,8.53644e-02,2.84395e-01,3.54867e-01,-7.74063e-02,4.11878e-01,-7.20379e-01,-1.02956e+00,5.34293e-01,-8.17493e-01,-7.77196e-01,-4.37229e-01,1.14664e-01,9.20941e-01,-1.09186e+00,7.93933e-01,6.00688e-02,6.01480e-03,-2.34276e-01,-1.80862e-01,-2.58476e-01,1.78420e-01,-7.46825e-02,1.16375e-01,
-8.46997e-01,3.26115e-01,-9.48885e-02,-1.75369e-01,8.41054e-01,1.08125e+00,-5.40318e-03,7.69608e-01,-5.14656e-01,4.83494e-01,-8.14653e-01,4.85871e-01,-1.36067e+00,5.97625e-01,3.87478e-01,4.46870e-01,-7.40023e-03,9.00647e-01,-4.89160e-01,6.47080e-01,-2.66427e-01,9.17876e-02,-4.73738e-01,-2.30921e-01,3.35408e-01,
-5.23001e-02,8.39798e-02,-7.45225e-02,5.31702e-02,-1.37197e-01,1.72342e-02,1.60196e-01,1.82218e-01,-6.74246e-01,4.59598e-01,-3.57294e-03,-1.94457e+00,3.11543e-03,-5.97837e-02,7.36783e-02,-8.06069e-02,-3.11971e-03,1.06426e-01,2.03100e-02,-7.75031e-02,7.14874e-01,9.41607e-02,3.38676e-02,-6.48576e-02,1.02196e-01,
6.91358e-01,9.96342e-01,-6.14797e-01,7.52756e-02,-1.72031e+00,-1.05579e+00,-9.90003e-01,8.09245e-02,2.86890e-02,-3.18582e-01,-1.40711e+00,-8.73547e-01,1.23021e-01,2.41266e+00,1.15939e+00,-6.65003e-02,9.40449e-01,-1.35600e-01,1.66778e-01,4.24211e-02,-4.39483e-01,-3.24992e-01,-2.80983e-01,6.82636e-01,-4.11551e-01,
5.14617e-01,
5.51799e-01,
5.22165e-01,
2.70858e-01,
1.18944e-01,
1.99510e-01,
-2.82395e-01,
2.05441e-01,
-1.06657e-01,
1.76638e-01,
7.02151e-02,
-6.52478e-01,
6.66583e-01,
-1.57212e-02,
2.44608e-01,
3.29173e-02,
-5.44164e-01,
1.58491e-01,
-2.77278e-01,
-1.96888e-01,
6.27296e-01,
5.16880e-01,
-2.95891e-02,
1.06908e+00,
-3.31174e-01,
-6.56706e-01,8.19417e-01,1.06857e-01,8.88316e-02,-1.83153e-02,-4.01253e-01,-1.05507e+00,4.77920e-03,3.53821e-01,1.19759e-01,5.65732e-01,-1.02489e-01,-2.07609e-01,-2.96810e-02,6.79808e-01,9.59602e-02,-3.98270e-01,-2.49476e-02,-1.70477e-01,9.79524e-03,1.80944e-01,-7.22941e-01,-4.29350e-01,2.76537e-01,-2.21341e-01,
-5.20273e-01,1.56554e-01,-5.16638e-02,-2.72052e-01,2.98057e-01,-4.92203e-01,-2.62480e-01,1.18373e-01,3.98396e-01,2.57083e-02,-2.23245e+00,4.40943e-02,3.03367e-01,-3.71663e-01,2.28281e-01,2.13795e-01,-1.29766e+00,5.77109e-02,-1.18329e-01,1.11639e+00,2.14386e+00,-1.63454e-01,-2.46955e-01,1.02340e-01,-4.83029e-01,
-3.91433e-01,-1.92532e-02,3.25267e-01,-1.17801e+00,8.05053e-01,4.49143e-01,-4.89138e-01,3.62816e-01,1.21514e+00,2.64529e-01,-9.00553e-01,-2.01633e-01,6.34492e-01,-1.29346e+00,-3.03229e-01,-5.40085e-01,-6.30770e+00,-1.84478e-01,-3.20132e-01,1.23460e+00,-2.25264e-02,1.01631e+00,-2.96499e-01,1.16355e-01,4.76858e-01,
1.13451e+00,-1.48693e+00,4.73610e-01,2.52128e-01,2.54467e-02,-3.61054e-01,9.71039e-02,-5.41680e-01,9.89919e-01,-2.31021e-01,-3.87808e-01,6.39219e-01,1.70625e-01,1.75394e-01,-1.18469e+00,3.75629e-01,-6.94355e-01,8.64444e-01,3.24014e-01,2.85547e-01,-9.75915e-02,1.60889e-02,-8.16756e-01,-1.67320e-02,5.52903e-01,
4.47867e-02,2.35843e-01,3.95326e-01,-1.43541e-01,-8.25320e-03,5.00760e-01,4.94037e-01,-1.69879e-01,4.11823e-01,-5.93271e-01,4.25896e-01,3.12412e-02,-1.01629e+00,-3.40427e-01,1.09564e-01,2.26709e-02,4.36489e-01,3.01181e-01,2.30870e-01,-8.25955e-01,-4.74809e-02,-5.00776e-01,-1.91385e-02,2.51725e-01,-2.84774e-01,
-1.38609e-01,-1.59024e-01,-1.32748e-01,-2.25234e-01,1.96837e-01,3.25075e-02,-4.85326e-02,3.08160e-01,-2.49687e-02,1.56706e-01,-2.28449e-01,-1.67992e-01,-7.44770e-02,1.22476e-02,-7.27731e-03,-2.97827e-01,-2.32106e-01,9.54941e-02,-3.04591e-01,-2.40787e-01,-7.48980e-02,-2.29715e-01,-1.21687e-01,-1.17135e-01,-1.45795e-01,
3.30439e-01,4.69786e-02,-5.88823e-02,-1.02443e-01,-1.66444e-01,-2.64306e-01,-7.22026e-01,1.00810e+00,-4.89063e-02,-2.79815e-01,5.39532e-02,7.85492e-01,3.78640e-01,2.31487e-01,3.43864e-01,-4.97364e-01,-1.87853e-01,-4.22704e-03,-4.93436e-02,5.74802e-01,4.71118e-02,2.04305e-01,-2.39122e-01,2.16425e-01,1.00370e-01,
-1.41883e-01,-1.86307e+00,-1.80972e-01,8.63663e-01,2.18224e-01,1.94862e-03,-1.28735e-01,-3.83692e-01,-4.05720e-01,3.38854e-01,-6.92927e-01,1.28247e+00,1.18690e+00,-1.16071e-01,-4.68611e-01,-1.17284e-01,-9.06856e-01,2.62956e-01,-2.62881e-01,5.07144e-01,-2.95570e-01,7.67866e-01,-6.07484e-02,-3.10712e+01,-9.89222e-02,
1.29557e-01,3.10839e-01,4.63557e-02,5.63253e-01,8.46990e-02,-6.56763e-01,3.26577e-01,-2.39467e-01,-6.55823e-02,1.30016e-01,-5.23970e-01,-1.99280e-01,1.28941e-01,1.14117e-01,2.56247e-01,-2.70633e-01,-1.04524e+00,2.59614e-01,-3.26404e-01,-7.35739e+00,2.25423e+00,-8.18361e-01,7.29575e-02,-6.98915e-01,-1.67575e+01,
1.17560e-01,-1.09720e+00,8.77189e-02,4.86299e-01,-4.86317e-01,3.76360e-02,-3.04183e-01,-3.63061e-01,-4.11097e-01,-7.78996e-01,-4.32309e-03,5.64491e-01,3.70389e-01,2.50554e-01,1.85245e-01,4.11434e-01,-6.09628e-01,-1.26362e-01,2.66455e-01,1.38157e-01,3.79646e-03,3.43215e-01,2.12203e-01,-1.83441e-02,-5.80402e-02,
-3.52205e-01,9.37987e-01,-2.58132e-01,6.23116e-01,5.25187e-02,1.68421e-01,-1.08574e+00,2.63936e-01,1.06563e+00,-1.27672e-01,-1.76156e-01,-3.40762e-02,-6.51893e-01,5.85644e-01,-1.33732e-02,3.29790e-02,-1.23917e-01,3.20508e-01,8.52128e-02,-1.76595e-01,2.50045e-01,-8.36392e-02,4.62330e-01,-5.52833e-01,5.29211e-02,
7.44330e-02,1.86230e-01,7.27409e-01,-5.67053e-01,3.51186e-01,-4.10212e-01,-1.90186e-01,2.27960e-02,-6.20961e-01,-4.06449e-01,-1.33410e-01,4.72111e-02,-9.70415e-01,-3.10077e-01,4.11292e-02,-2.70626e-01,5.17097e-01,-1.63604e-01,1.54051e-01,-1.70732e-02,-8.47979e-02,-1.98063e-01,2.09687e-01,3.64719e-02,2.75029e-01,
1.62051e+00,-1.15049e+00,8.31481e-01,-5.66400e-01,-3.61425e-01,-8.99156e-01,-7.30328e-01,4.17358e-03,-2.46229e+00,-4.04182e-01,3.17999e-01,5.97627e-01,-1.14754e-01,5.76291e-01,-8.27549e-02,1.98887e-01,-7.63610e-01,4.33798e-01,2.69246e-01,1.78785e-01,-1.58527e-01,6.41255e-01,-2.76922e-02,2.68613e-01,-1.93906e-01,
1.48110e-01,-3.89197e-02,-5.21864e-01,1.31250e-01,4.83139e+00,1.27489e-01,5.86056e-01,-9.06405e-04,-3.88932e-01,-3.46097e-01,9.01568e-01,-6.04147e+00,3.66074e-03,-5.69864e-01,-2.88032e-01,-6.51951e-01,-3.20878e-01,5.29294e-01,1.85787e-01,-1.69628e-01,-4.98952e+00,1.98037e-01,-1.68968e-01,-2.75414e+01,-4.43952e-01,
4.47789e-01,3.78111e-01,1.00745e-01,3.39839e-01,-8.02218e-01,-6.89287e-02,6.17633e-01,-6.13043e-01,-9.68767e-01,-6.22478e-01,2.74047e-01,-5.17142e-03,-5.95153e-01,4.57546e-01,5.04287e-01,-6.25284e-01,3.69659e-01,2.21753e-01,2.63814e-01,-4.26155e-02,-1.72610e-01,5.70782e-01,-1.08536e-01,8.43550e-02,-1.65603e-01,
3.96383e-01,-1.60536e+00,-2.84188e-01,-1.13986e-01,-9.73565e-01,-1.05130e+00,-3.09473e-01,-1.56528e-01,1.03789e-03,-2.42364e-01,-1.01977e-01,2.06379e-01,1.71982e+00,4.32084e-01,7.53396e-01,9.33609e-02,-3.54512e-01,2.02957e-02,-2.39533e-01,3.37809e-01,4.89525e-02,-3.11568e-01,-1.00030e-01,5.67684e-01,1.49672e-01,
-3.31522e-01,-6.80671e-02,1.37526e-01,-3.26017e-01,7.57631e-02,-2.98960e-01,3.47465e-02,-3.42839e-01,2.54011e-01,7.21883e-02,-3.98539e-01,9.87484e-02,-5.48139e-02,2.29037e-01,-1.52776e-01,3.83594e-02,-3.56883e-01,-2.44952e-01,6.41502e-02,1.64823e-01,-2.43217e-02,-2.78414e-01,-1.78318e-01,-3.18158e-03,-1.35751e-01,
-1.10156e+00,1.21788e-03,3.27632e-01,1.65317e-01,1.41053e+00,1.74216e-01,-2.16553e-01,5.69775e-02,1.97688e-02,3.90693e-01,7.91197e-02,-6.50526e-01,-5.75907e-02,-1.06085e+00,-6.82398e-01,-2.00684e-01,-1.69370e-01,1.31456e+00,5.86849e-02,5.94549e-01,-1.27463e-01,1.03983e+00,-1.36640e-01,1.49887e-02,1.67156e-01,
-3.31637e-01,-2.00133e+00,2.75178e-01,-4.43778e-01,2.31342e-01,9.99968e-01,2.83360e-01,1.82457e-01,3.02859e-01,-2.21700e-01,3.17633e-01,-6.46560e-01,-3.82318e+00,-3.14484e-01,1.19083e+00,-2.81468e-01,6.55925e-01,1.18104e+00,5.05743e-02,-7.76018e-01,-4.83836e-01,-1.89185e-01,1.19016e-02,-5.71114e-01,1.24032e-01,
-1.53861e-01,9.40192e-01,-2.27618e-01,1.77623e-01,-1.75536e+00,-3.62537e-01,-1.63723e-01,3.20462e-01,-1.20614e-01,-1.21517e-01,-1.34131e-01,1.98382e+00,-4.90969e-01,-6.09059e-02,-1.11350e+00,2.99115e-01,-1.52018e-02,9.68995e-01,3.32503e-01,3.55799e-01,9.28331e-01,-1.66276e+00,3.14543e-01,6.76617e-02,-2.99351e-02,
2.16652e-02,-3.81678e-02,3.20947e-01,4.80950e-01,6.23300e-01,2.67562e-01,7.88030e-01,-1.47078e-01,3.27119e-01,1.49664e-02,2.30366e-01,-1.01816e-01,-1.80739e-01,-4.04509e-01,-1.12238e-01,-3.27960e-01,-4.44031e-01,-5.28000e-03,1.30170e-01,-2.71957e-01,-3.03850e-01,7.68421e-01,-5.36321e-01,-1.37646e-02,-1.71548e-01,
-2.41346e-01,6.99955e-01,1.52309e-01,5.07603e-01,1.50368e+00,-5.08604e-01,1.48930e-01,1.75818e-01,6.32706e-01,7.04700e-01,1.18648e-01,-1.01714e+00,-1.14640e-01,-1.28153e+00,-1.02593e-02,-7.37500e-01,1.62766e-01,-1.42418e+00,4.17956e-02,-6.03464e-01,5.79250e-01,-3.28374e-01,4.03236e-01,-4.37376e-01,-2.74285e-01,
-1.02900e-01,5.14981e-01,-4.65885e-01,4.17656e-01,-1.65824e-01,-6.12202e-01,-4.95591e-02,-9.29879e-02,6.10388e-01,1.30014e-01,2.01611e-01,-3.24412e-01,4.44998e-01,1.95916e-01,-1.32175e-01,-8.94627e-01,5.22117e-01,-2.75721e-01,-2.92274e-01,-5.14036e-01,2.86057e-01,-4.30321e-01,4.69153e-01,-3.79454e-02,-3.96751e-01,
-1.19245e-01,-6.02479e-02,3.54611e-01,2.44430e-01,5.83168e-01,1.61658e-01,-2.49600e-01,3.24525e-02,-7.59919e-02,4.74452e-01,-2.54775e-01,-1.82236e-01,7.01865e-01,-1.52482e-01,-1.00976e+00,-3.57234e-01,-2.01157e-02,6.47496e-01,3.21782e-02,-2.92421e-01,-7.01207e-02,-1.64414e-01,-7.01551e-03,1.14809e-02,-7.91678e-02,
8.31350e-01,1.38469e+00,4.33989e-01,-1.85766e-01,-7.68223e-01,-2.25339e+00,3.74524e-01,-1.01090e+00,-1.00106e+00,-1.54705e-01,2.13801e-01,1.04563e+00,1.39899e-01,-4.93397e-01,-4.12067e-02,-7.24692e-01,-2.24539e+00,2.54635e-01,-2.78550e-01,-6.98180e-03,-2.17658e-01,1.56676e-01,-9.65991e-01,8.23307e-01,2.82245e-01,
4.11976e-01,
-8.14210e-01,
-2.50956e-01,
2.54897e-01,
8.48902e-01,
-3.46176e-01,
-3.74735e-01,
6.72765e-01,
-6.54541e-01,
1.08808e+00,
4.14115e-01,
9.62592e-01,
-1.42557e+00,
4.10498e-01,
6.93491e-01,
1.97704e-01,
6.62906e-03,
-6.93809e-01,
3.47924e-01,
2.97535e-01,
2.50283e-01,
2.00495e-01,
1.47568e-01,
3.30072e-01,
-1.42448e-01,
-2.91722e-01,2.17045e-02,2.25269e-01,-1.03987e-01,1.46753e-01,-1.09150e-01,-5.86348e-02,3.00630e-01,7.57117e-02,-3.55062e-01,-5.38863e-03,1.54472e-01,2.90626e-01,6.88444e-02,1.39067e-01,-3.35249e-01,-2.76764e-02,8.50194e-02,-5.01455e-02,2.25186e-01,2.22916e-01,-3.29619e-01,-1.13181e-01,-2.54524e-01,4.56439e-02,
6.39099e-02,2.49337e-01,-2.50844e-01,-8.08673e-02,-1.17324e-01,-2.47066e-01,4.91551e-01,5.68429e-01,-3.73219e-01,-2.85889e-02,-1.38251e-01,3.21380e-01,-1.49082e-01,1.23633e+00,-5.39191e-02,-3.04448e-01,-1.58306e-01,2.66665e-01,-3.78126e-01,-6.53109e-01,2.60985e-01,3.33180e-01,-4.53189e-02,6.03024e-02,-6.70673e-02,
-5.50878e-01,1.41249e+00,-1.29972e-01,-3.39911e-01,-1.66925e-01,2.75827e-01,-1.58867e-01,-4.15251e-01,-3.32068e-01,1.02319e+00,-1.96654e-01,2.38149e-01,-3.84808e-01,4.04979e-01,-1.30910e-01,3.28904e-02,-2.70531e-01,9.96510e-03,-1.67030e-01,-1.47009e-01,-3.82195e-02,2.13592e-01,1.06211e-01,3.31071e-02,-7.84984e-02,
1.99249e-01,-9.39663e-03,6.48438e-02,1.92343e-01,1.91071e-02,-1.51667e-01,-3.80577e-01,1.43207e-01,3.38807e-01,7.58710e-01,-3.13901e-01,3.30070e-01,4.80046e-01,-7.20407e-02,2.72944e-02,2.66907e-02,4.78586e-02,-1.93654e-01,-2.02958e-01,1.15379e-01,-1.66502e-01,-2.12249e-02,2.01348e-01,3.50055e-01,-2.99379e-01,
7.45545e-02,-9.26143e-02,6.21642e-01,2.77781e-01,1.59044e-01,2.01459e-01,-6.10038e-01,5.42964e-02,4.48901e-01,7.54077e-01,8.16372e-02,-6.68499e-02,-4.98554e-01,-2.04477e-01,7.25304e-01,1.37315e-01,6.84011e-02,-2.93080e-02,1.89063e-01,4.55959e-01,-5.34524e-01,3.21614e-01,-9.26349e-01,2.29589e-01,-4.54571e-01,
4.80541e-02,3.54094e-02,2.96459e-01,-4.36813e-02,4.63081e-01,2.31063e-01,-2.18988e-01,1.86334e-01,-8.93695e-02,6.38036e-01,-4.53938e-02,3.27907e-01,-3.71694e-01,8.04230e-02,4.95716e-02,6.92867e-02,-4.55739e-02,4.03619e-01,-1.24715e-01,2.63160e-01,-1.99521e-01,-2.65525e-02,-4.49768e-02,-8.39903e-02,2.27727e-01,
2.47310e-01,-5.05775e-01,-6.05330e-02,-2.50904e-01,-3.08562e-01,2.26045e-01,-1.16876e-01,1.91766e-01,-5.63469e-01,7.79998e-01,-5.79387e-01,-1.37805e-01,-5.38827e-01,1.76236e-01,-3.01635e-01,4.35060e-01,-2.03624e-01,1.72532e-01,6.76775e-01,2.46961e-01,6.63390e-02,9.16502e-02,3.19326e-01,1.33471e-01,2.67290e-01,
-1.33803e-01,1.06800e+00,-1.16846e-01,-1.03984e-01,-1.19582e-01,3.20767e-01,1.53980e-01,3.71092e-01,-6.79928e-02,1.48625e-02,3.08261e-01,-3.09976e-01,6.24884e-01,4.45127e-01,7.18242e-02,-1.27094e-02,2.64939e-01,1.74236e-01,-1.92469e-02,-1.96140e-01,1.50658e-01,4.50693e-01,-5.22864e-01,-3.36064e-02,-1.06539e-01,
1.39309e-02,-4.53847e+00,9.43090e-01,-1.37077e-01,-5.53148e-01,3.28011e-01,-7.40681e-02,-1.53347e-01,-2.57742e+00,1.06253e-01,-2.82036e-01,6.16741e-01,-1.51679e+00,-2.55502e-02,-1.00624e-01,-1.57628e+00,2.72745e-01,-1.63722e+00,-2.29284e-01,6.76552e-01,6.07118e-01,4.24483e-01,1.45711e-02,-7.18281e-01,6.85060e-01,
-2.57023e-02,9.72898e-01,-3.04333e-01,-1.09703e-01,2.35518e-01,-2.62067e-01,7.35630e-01,-6.38421e-01,-6.15845e-01,-9.67846e-02,-1.56023e-01,7.37322e-01,-9.69182e-02,4.42953e-01,-4.35011e-01,-4.72114e-01,-2.74226e-01,5.85138e-01,-5.79956e-01,4.57528e-01,2.91861e-01,-1.06642e+00,-3.47728e+00,-2.23222e-01,3.49506e-02,
2.80425e-01,-4.78229e-01,2.30357e-01,-3.43606e-01,-5.61556e-02,2.24455e-01,-1.26834e-01,-7.49258e-02,-9.09953e-01,4.18512e-01,-1.21774e-01,-3.94898e-03,3.48181e-01,-1.75087e-01,4.21988e-01,-4.31963e-01,-8.63788e-02,-6.80066e-02,1.30624e-02,-5.48844e-03,-2.13355e-01,-1.00064e-02,9.30543e-03,1.99132e-01,7.25356e-02,
2.69219e-01,7.88692e-01,2.10247e-01,-3.54627e-01,1.95827e-01,-1.47638e-01,-6.08506e-01,4.83691e-01,2.76796e+00,2.94689e-01,3.41931e-01,-1.53554e-01,-1.81804e+00,2.80363e-01,5.32123e-01,-1.54897e-01,-1.09943e-01,4.99302e-01,1.87288e-01,3.36765e-03,-1.23194e-01,-2.23401e-01,-3.31254e-01,5.35133e-01,3.81367e-01,
6.80369e-02,1.52114e+00,2.11883e-01,2.48610e-01,5.09564e-02,-3.17219e-01,-1.58559e-01,1.47491e-01,1.50764e+00,4.49952e-02,5.64296e-02,4.29218e-02,-2.09715e-01,-7.95745e-01,1.54578e-01,3.26034e-01,-2.03589e-01,3.84169e-01,2.85437e-01,-2.89311e-02,-3.64738e-01,2.11086e-01,-5.73681e-01,2.01209e-02,1.78794e-01,
3.76123e-01,-3.92587e-01,1.14815e+00,-7.54131e-01,1.89741e-01,-1.50487e-01,-7.46549e-01,-4.95307e-02,-3.01795e+00,4.16399e-01,-6.12190e-03,4.18578e-01,-6.40468e-01,4.07053e-01,5.69960e-01,-6.15544e-01,3.06672e-01,1.45800e-01,-6.39879e-01,2.46732e-01,-1.44300e-01,-2.12852e-02,3.11332e-02,-4.15329e-01,6.64713e-01,
1.77694e-01,3.95974e-01,3.72150e-01,3.19838e-01,2.62829e-01,-2.70695e-01,-1.17581e-01,3.52436e-01,9.96057e-01,2.93869e-02,-2.39598e-01,4.01585e-03,-1.14014e-01,1.83807e+00,-9.18605e-02,2.86213e-01,9.13059e-02,1.91487e-01,-2.78846e-03,-2.37941e-01,-3.11347e-01,-9.16472e-02,1.78129e-01,-9.96924e-02,1.15405e-01,
-2.11217e-02,-4.25243e-01,-5.83779e-01,-9.62658e-02,3.47692e-01,3.05497e-01,5.22181e-01,1.60036e-01,-2.88084e-01,-1.15347e-02,-8.06615e-01,9.02494e-02,-3.39720e-01,2.47240e-01,-5.76177e-01,-3.83896e-01,8.27562e-02,4.54996e-02,-9.18651e+00,-4.79432e-02,1.11830e-01,-5.43917e-01,1.36867e+00,9.13964e-02,2.34521e-02,
1.42696e-01,1.93489e+00,1.79985e-01,6.43705e-01,-6.32570e-01,3.36779e-01,1.99236e-01,-2.66404e-02,9.27745e-01,3.43856e-01,-3.43133e-01,3.51485e-02,-5.07706e-01,1.45533e+00,-4.74835e-01,9.05198e-02,1.18365e-01,1.16703e-01,-2.09062e+01,8.41124e-02,-2.07178e-01,-1.22171e+00,-1.93597e-02,-3.08398e-01,-1.55777e-01,
4.36424e-01,-8.29084e+00,-2.49089e+00,-4.40330e-01,2.93909e-01,-2.18575e-02,-4.11974e-01,1.63924e-01,-7.92189e+00,-1.37641e-01,-3.68174e-01,1.14249e-01,4.34326e-01,-3.17990e-01,1.30330e-01,-3.14489e-03,1.57560e-01,4.95328e-01,3.66228e-01,5.23949e-01,-1.14802e-01,3.77769e-03,1.12750e-01,4.27740e-02,3.54905e-01,
-3.41939e-01,7.72218e-01,-6.89050e-02,4.85103e-03,4.33705e-01,7.98159e-02,2.37524e-02,-8.74830e-01,4.55241e-01,-3.86974e-02,-2.76976e-02,1.43307e+00,-9.33757e-01,1.68082e-01,-2.65853e+00,3.50788e-02,-2.82832e-02,-2.75877e-01,-1.04774e+00,6.17937e-01,2.39861e-01,-1.33924e-01,2.41897e-01,-1.29742e-02,2.26672e-01,
-1.60675e-01,1.33382e+00,-9.07961e-02,2.03514e-01,1.04118e-01,-2.97194e-01,2.74069e-01,-7.06742e-02,1.85425e+00,-1.27420e-01,-2.01654e-01,-1.41268e-01,1.67624e-01,1.95059e-01,-1.37263e-01,2.13086e-01,-3.23948e-01,1.25634e-01,-9.44106e-02,-3.54958e-02,1.15037e-01,4.62696e-02,1.87883e-01,6.62626e-02,-2.89235e-02,
2.10865e-01,-5.65840e+00,-2.06962e-01,-1.71031e-01,-1.96652e-01,1.08434e-01,3.63931e-01,-1.22406e+00,1.73830e+00,2.89574e-01,-9.00527e-01,1.53477e-01,1.06700e-01,4.26059e-01,-8.40950e-02,-5.21342e-01,8.88035e-02,4.09381e-01,3.28735e-02,5.82608e-01,-4.70543e-01,-1.95942e+00,-4.26636e-01,-1.92783e-01,1.03513e-02,
-7.43620e-03,-1.59317e+00,5.04690e-01,2.79611e-02,-4.59173e-02,-3.15868e-01,-6.56362e-02,1.42968e-01,2.19766e+00,2.92432e-02,3.39254e-02,-1.13682e-02,-5.94623e-01,-6.07875e-01,6.30763e-02,3.10193e-01,5.73113e-02,9.11816e-02,2.28267e-02,1.30320e-01,2.26073e-01,1.21377e-01,-1.03641e-01,-2.78603e-01,-9.86671e-03,
3.31122e-01,-2.13944e-01,-1.94248e-01,-1.96869e-01,3.26894e-02,-1.11286e-01,1.31434e-01,6.98977e-01,-1.55330e-01,3.25463e-01,-3.08739e-01,5.69361e-02,-3.08586e-01,-3.76037e-01,-2.65281e-01,2.74990e-01,-3.47149e-02,2.39185e-01,2.21290e-01,-3.84235e-02,-1.14290e-01,-3.47275e-01,5.54251e-01,1.87830e-01,1.69415e-01,
6.68207e-02,-9.52716e-01,-3.25855e-01,-1.47400e-01,1.02582e-01,-5.56047e-02,-7.23748e-02,1.73321e-01,3.15723e-01,1.37900e-01,-1.84961e-01,-2.57089e-01,5.26909e-01,8.44984e-02,-5.19371e-02,3.08969e-01,2.20196e-03,1.88055e-01,1.85522e-01,-5.82702e-02,-1.99511e-01,7.82566e-02,1.04374e-01,3.60999e-01,4.06343e-02,
2.25478e-01,6.41104e-03,-1.76525e+00,8.00428e-02,5.97553e-01,-1.05249e-01,5.62542e-01,-1.13820e+01,-5.37276e-01,7.37835e-01,-3.21416e-01,-7.72510e-02,-9.15024e-01,-1.38224e+01,-1.68133e-01,1.08806e-02,2.94708e-01,2.23340e-02,3.30294e-01,5.56493e-01,2.29046e-01,-1.15505e-01,3.28841e-01,-1.61455e-01,-1.34151e+00,
-3.92944e-01,
-3.15087e-01,
-3.67980e-01,
-1.87644e-01,
-9.18132e-01,
-1.19298e-01,
-3.25745e-02,
-1.27344e-01,
-5.33534e-03,
-5.95303e-01,
-1.73473e-01,
-9.29479e-01,
2.54857e-01,
1.01033e-01,
3.10598e-01,
-6.73062e-02,
-5.83384e-01,
-2.35437e-01,
-5.42650e-01,
2.08454e-01,
2.30527e-01,
1.66046e-01,
-4.55546e-02,
1.57273e-01,
-1.46704e+00,
-1.00326e-01,5.80169e-02,1.13827e-01,8.76593e-02,-2.26774e-02,6.50038e-02,-1.28876e-01,5.59173e-02,6.44728e-02,3.10612e-01,-2.36904e-01,1.15270e-01,1.10643e-01,-1.48593e-01,1.51046e-01,1.36207e-01,7.23513e-02,1.00499e-01,-1.94303e-01,-7.96674e-02,-6.13169e-03,1.80953e-01,-3.13995e-01,2.45991e-01,-1.05096e-01,
-2.30376e-01,-4.93722e-02,9.16801e-02,-1.97438e-03,-2.31168e-01,1.31351e-01,1.92110e-01,1.00872e-01,-5.81096e-02,-2.33838e-01,4.67451e-02,-6.65550e-01,2.92070e-02,-1.50816e-01,-2.17302e-02,1.61540e-01,-4.87068e-01,8.92249e-02,-9.88096e-01,2.00937e-01,1.22106e-01,-1.53847e-01,-1.61304e-01,-3.41783e-01,-1.61548e-01,
-2.26465e-01,1.26153e-02,-2.37248e-02,9.50011e-02,-7.68573e-01,2.07053e-01,-1.60762e-02,-3.53222e-02,2.17984e-01,2.25037e-01,-2.70770e-01,-6.17593e-02,4.12919e-02,-3.65022e-01,-3.49906e-02,1.19096e-01,-1.04809e-02,-1.14299e-01,-4.66654e-01,-2.52916e-02,-1.82507e-01,7.89390e-02,-2.71278e-01,1.07403e-01,-3.87502e-01,
3.10596e-01,-4.74614e-03,2.25900e-02,-4.55240e-01,-5.72438e-02,2.02162e-01,2.59709e-02,7.61891e-02,-1.75171e-01,-4.52162e-01,2.31123e-01,-6.86862e-01,-9.52401e-02,-4.59602e-02,2.47174e-01,-8.48677e-01,7.44320e-02,-6.13009e-02,2.71871e-01,1.28838e-01,-6.85428e-02,-1.06554e-01,-1.70520e-01,-1.37863e-01,2.59695e-01,
-3.42034e-01,9.83938e-02,-3.21603e-02,4.89147e-01,-1.14505e+00,2.69270e-01,1.01318e-01,-1.54465e-01,7.01097e-02,-3.24289e-01,-2.03197e-01,-7.92134e-03,2.51067e-01,-1.64745e-01,6.57779e-02,-2.85229e-01,9.28593e-02,-1.26868e-01,-2.67539e-01,-3.29040e-01,-4.21804e-02,2.47688e-01,-2.58851e-01,-4.64876e-01,1.49568e-01,
2.60575e-01,-1.97595e-01,2.96780e-03,2.62125e-01,9.04871e-02,1.47932e-01,-5.08305e-01,2.21099e-01,-2.00995e+00,3.16941e-01,-6.37343e-02,1.12151e-01,-1.99086e-01,-3.33652e-01,1.16097e-01,6.98126e-01,-3.40447e-01,4.37084e-01,1.89614e-01,-7.06790e-01,-4.12879e-01,-6.00631e-01,-1.19413e-02,3.51695e-01,-1.01331e+00,
-1.10627e-01,2.59718e-01,4.19935e-01,1.71210e-01,1.02153e-01,-2.36302e-01,-5.34029e-01,-1.91703e-01,4.34658e-01,1.31706e-01,-1.02244e-01,-6.27756e-02,-5.44382e-01,4.63596e-01,-4.67526e-01,6.96486e-01,4.21168e-03,7.71668e-01,-1.05976e-01,-3.15798e-01,1.85950e-02,-3.00819e-01,-9.66861e-01,-3.05136e-01,3.44921e-02,
2.48270e-01,-3.98243e-01,-9.45017e-02,6.28452e-01,-3.12260e-01,-4.90866e-01,4.64568e-01,-3.54814e-01,-3.65194e+00,-1.09091e-01,6.24417e-01,1.72972e-01,3.40820e-01,-7.59577e-01,2.85349e-01,-1.58735e-01,7.91897e-02,1.75522e-01,-4.28332e-01,-1.80519e-01,-3.69204e-01,-2.46376e-01,-3.13272e-01,-3.82588e-01,5.52276e-02,
2.24364e-01,1.77691e-02,7.20217e-02,-3.73239e-02,1.25254e-01,1.31053e-01,3.73307e-02,-1.04974e-01,4.01775e-03,-2.20809e-02,-2.17461e-02,-5.87586e-01,1.33366e-01,1.18707e-01,-1.65789e-02,-3.76661e-02,-7.74624e-02,-2.77900e-01,1.98037e-02,-1.29864e-01,-1.30632e-02,-8.31413e-02,-1.06107e-01,2.29401e-01,2.14713e-01,
1.47253e-01,-4.36808e-02,-2.32169e-01,8.93852e-04,3.76796e-01,2.50401e-01,-1.67922e-01,5.28982e-02,3.56728e-02,3.24307e-02,-2.87456e-01,-3.16749e-02,-3.73905e-02,-7.89560e-02,7.51433e-02,-1.02565e-01,-2.19965e-02,-4.44043e-02,-6.30388e-02,2.45007e-02,2.76026e-01,-1.07866e-01,1.21916e-01,-1.60554e-01,-1.06816e+00,
2.53664e-01,-2.64227e-01,3.30736e-01,-2.33598e-01,8.53388e-02,3.35481e-01,-6.14889e-01,1.63596e-01,2.66423e-02,-1.00202e+00,3.09444e-01,-8.30764e-02,-1.05077e-01,-2.25326e-01,5.14060e-01,2.07295e-01,1.48597e+00,2.94915e-01,1.73702e-01,-5.37470e-01,8.81376e-01,4.19768e-01,-1.73898e-01,-2.48094e-01,4.71045e-02,
-1.06931e-01,-1.01333e-01,-2.41447e+00,-3.80752e-01,8.09417e-01,3.00854e-01,2.38021e-02,6.75848e-02,-3.06655e-03,-3.14269e-01,9.55014e-02,-1.51168e+00,1.76838e-01,-3.20004e-01,2.05063e-01,7.22392e-01,-3.89356e-01,2.49217e-01,-2.43755e-01,-1.72234e-01,4.99225e-02,1.23357e-01,-4.17176e-01,-3.88477e-01,3.72382e-01,
-2.64513e-01,-1.23046e-01,2.50434e-01,1.06798e-01,-1.01365e+00,-4.33004e-01,-2.74307e-01,4.14678e-02,3.05102e-01,6.86913e-01,3.73850e-01,-3.82710e+00,2.38547e-01,-1.85361e-01,3.74036e-01,3.19821e-01,-1.75542e+00,4.06002e-01,-1.55691e-01,-5.61161e-01,9.17784e-03,2.13950e-01,-2.32477e-02,6.53432e-01,-3.43865e-01,
2.42191e-01,1.68665e-02,1.10658e-01,4.69352e-02,-1.56356e-01,1.60220e-01,1.29525e-02,-7.30190e-02,-7.26830e-02,-8.84958e-02,1.82843e-01,-1.42922e-01,-2.33791e-01,-2.47452e-01,1.76722e-01,-1.30070e-01,-1.06283e-01,-2.26151e-01,-2.24738e-01,1.81778e-01,-1.53653e-03,2.75100e-02,2.94231e-02,7.03332e-02,-4.38019e-02,
2.30898e-01,2.40978e-01,1.64858e-01,5.64733e-01,-2.18972e-02,-3.83529e-01,1.55923e-01,-5.47730e-01,2.41147e-02,2.32303e-02,4.86758e-01,-3.29674e-01,3.45643e-01,-2.72324e-01,2.10704e-01,-5.50181e-01,-2.21419e-01,9.93660e-02,-6.25698e-01,-3.82685e-02,8.12558e-03,7.46441e-02,-1.09993e-01,-1.01170e-01,1.84334e-01,
1.83953e-01,-1.18185e-01,-2.80155e-01,-1.38827e-01,-1.25232e-03,1.08534e-01,6.13170e-02,1.59312e-01,-9.25947e-02,1.65993e-01,-1.77284e-01,1.98963e-01,-1.64965e-01,-2.69810e-01,-3.84465e-02,-8.55563e-02,2.09527e-01,9.88697e-02,-2.55586e-01,4.67428e-02,6.04487e-02,-1.35402e-01,3.43509e-02,-2.46196e-01,2.17424e-04,
6.38734e-02,-2.69043e-01,1.43226e-01,2.67124e-01,-1.47351e-01,2.27286e-02,-6.64501e-02,5.28878e-02,1.81382e-01,1.31401e-01,-1.82118e-01,2.12510e-02,5.34752e-02,-2.41459e-01,1.21637e-02,1.25395e-01,3.35541e-02,1.24159e-01,-1.73062e-01,2.29144e-01,3.13170e-02,-9.19652e-02,1.75058e-01,-2.99018e-01,9.40078e-02,
-2.17638e-01,-3.59230e-01,-4.41817e-02,5.02339e-02,3.58129e-01,-7.97451e-02,-2.65304e-01,6.82741e-01,-1.03652e+00,-6.22134e-01,-4.57090e-01,2.14767e-01,2.14546e-01,7.33769e-02,1.35592e-01,5.61416e-01,2.22810e-01,5.23890e-01,-2.47812e-01,-3.36881e-01,2.02056e-01,-4.18993e-01,5.60239e-01,-4.73762e-01,-2.59921e-01,
-2.28333e-01,4.40167e-02,-4.67348e-02,1.24257e-02,1.25871e-01,6.93552e-02,9.79056e-03,-5.50915e-02,6.79939e-02,-6.25106e-02,-5.19163e-02,-9.17213e-02,-9.33759e-02,5.30896e-02,2.54131e-01,2.08677e-01,-4.26399e-01,2.11053e-01,1.45875e-01,-1.86055e-01,-9.62549e-02,-6.15870e-02,-1.30201e-01,1.12487e-02,-3.38320e-02,
9.12147e-02,-3.78730e-02,2.59061e-01,2.54821e-01,1.03532e+00,5.86775e-02,-2.38836e-02,-2.73206e-02,7.08215e-02,-2.19275e-02,4.09888e-02,-1.09267e-01,1.96095e-01,5.41563e-02,4.95222e-02,1.13095e-01,-1.56339e-01,-1.68480e-02,8.50058e-02,4.77544e-02,-1.90045e-02,2.45780e-02,2.54256e-02,-3.86680e-02,1.09762e-01,
-2.78817e-01,1.22149e-01,-4.39871e-02,3.10891e-01,2.19867e-01,-2.29132e-01,3.63735e-02,2.05266e-01,1.82911e-01,1.84932e-01,6.46864e-02,-1.99726e-01,8.27135e-02,-2.04628e-01,-2.99121e-01,1.33358e-01,2.39045e-01,8.04592e-02,3.70434e-01,-4.37573e-01,2.93438e-01,-9.34617e-02,9.32451e-02,-1.27110e-01,3.41883e-03,
3.11085e-01,-2.55078e-01,-1.68259e-01,2.49366e-01,2.23369e-02,-1.94243e-01,-4.74488e-01,-3.37174e-01,-1.88457e-01,1.55959e-01,-2.69173e-01,1.83980e-01,-3.83384e-01,-3.59311e-01,-3.86653e-01,2.43645e-03,2.64775e-01,-1.83081e-01,-2.05942e-01,4.56001e-02,-9.26907e-03,-3.51186e-01,-2.71144e-02,1.38740e-01,-7.80706e-02,
-1.84599e-01,4.72592e-02,5.28613e-01,-2.14415e-01,-4.48966e-02,1.88862e-01,3.05736e-02,1.08695e-02,-4.56652e-02,-4.58755e-02,-2.11469e-01,-1.46212e-01,-5.83639e-03,1.01629e-01,-2.37414e-01,4.63260e-02,2.11833e-02,-7.44342e-03,-5.54674e-02,-2.48762e-01,-2.52472e-01,-3.22867e-01,-1.54886e-01,-1.23022e-01,2.50617e-01,
-6.60288e-03,8.81850e-02,-9.33904e-02,1.61515e-01,-1.07026e-01,-1.53161e-02,-1.51632e-01,-3.37136e-01,-1.54989e-01,-4.11950e-02,-1.82369e-01,2.47366e-01,2.50448e-02,6.49138e-02,2.63913e-02,1.32314e-01,-1.49354e-01,2.76140e-02,-2.18759e-01,-8.85985e-03,-1.59238e-01,-2.73742e-01,-1.48342e-01,-2.59458e-01,1.09257e-01,
-3.30501e-01,5.41255e-01,-8.27420e-01,2.72174e-01,1.95856e-01,3.70169e-02,-8.71608e-01,5.35211e-02,4.21689e-01,-3.87445e-02,1.20142e-01,-2.92090e-01,3.53729e-01,1.30068e-01,1.26647e-01,8.10336e-03,-1.50747e-01,4.86081e-01,-4.29821e-01,-3.96129e-01,-7.93648e-03,-1.52826e+00,-5.02961e-01,1.76398e-01,2.57777e-01,
2.98517e-02,
8.79970e-02,
9.59140e-02,
5.92265e-02,
-1.14788e-01,
1.52760e-01,
-7.61523e-01,
-1.62740e-01,
-1.60408e-02,
9.42704e-02,
6.82545e-02,
1.61224e-01,
-2.22808e-01,
8.84550e-03,
-2.76208e-01,
2.51552e-01,
1.14819e-01,
8.05129e-02,
1.09298e-01,
1.23168e-02,
-4.63650e-01,
-8.13467e-02,
2.12726e-01,
-1.62206e-01,
-7.92283e-02,
6.26922e-02,2.33650e-02,-6.62814e-02,-6.89002e-03,-6.61985e-02,4.69976e-02,-2.59934e-01,-1.12624e-02,-7.97720e-02,2.10043e-02,5.20262e-03,-4.41106e-03,3.45139e-03,-5.31388e-03,-6.41223e-02,-7.36345e-02,7.42645e-02,2.25336e-02,-2.24765e-02,-1.63283e-01,-1.28657e-01,6.24025e-02,-6.75508e-03,-3.18060e-01,-1.87713e-02,
-4.20311e-02,-6.46676e-02,2.80144e-02,-6.08836e-02,-5.29402e-02,-6.27619e-02,6.00461e-01,6.08273e-02,-5.46380e-02,-2.93094e-02,5.16676e-03,8.53920e-02,-3.84328e-02,2.61987e-02,-6.29891e-02,-5.87236e-02,-6.82415e-03,9.10580e-03,-7.21862e-04,-1.30498e-01,9.17761e-01,8.24488e-01,-6.36829e-02,-1.51483e-01,2.37977e-02,
-4.40502e-02,-2.08939e-02,1.92525e-02,4.32859e-02,-5.00128e-02,1.73532e-02,1.60049e+00,3.73915e-02,-1.60215e-02,-5.32962e-02,-1.85065e-02,1.54913e-03,-6.20123e-02,-6.07709e-02,-3.50579e-02,-6.61103e-02,7.26230e-02,-1.63571e-02,-2.24419e-01,-1.09630e-01,1.86950e-03,1.42127e-01,-1.07907e-02,-2.03079e-01,1.16851e-01,
-3.01622e-02,2.08691e-02,-2.09458e-03,-3.28598e-02,-6.96160e-02,-4.33315e-02,9.48757e-01,4.15252e-02,-6.09168e-02,-2.73798e-02,-1.29965e-02,2.26476e-02,-3.33856e-03,-1.50668e-04,-7.19614e-02,-3.11724e-02,3.32014e-03,-4.80903e-03,9.63891e-03,-1.25197e-01,1.17339e+00,8.88764e-01,9.47394e-03,2.37103e-01,2.46231e-02,
-1.56126e-02,-1.19745e-02,-8.63707e-04,-3.90555e-03,-7.10723e-02,-2.71848e-03,1.34265e+00,8.75272e-03,-4.31302e-02,-5.63428e-02,-5.48552e-02,-3.70076e-03,-4.88263e-02,-2.54336e-02,-8.85415e-03,-4.64181e-02,7.32483e-02,-2.55700e-02,-1.01916e-01,-1.25849e-01,6.31564e-01,2.01231e-01,1.34134e-03,-2.42858e-01,4.05689e-02,
-3.81946e-02,5.56566e-02,2.92722e-04,-2.14911e-02,-6.22608e-02,-8.07406e-02,7.99033e-01,1.17979e-01,-1.76474e-02,-6.68196e-02,8.86542e-03,-1.41456e-02,-1.93675e-02,-4.56484e-02,-1.66872e-01,-6.35059e-03,-1.73855e-02,-1.03067e-02,2.19414e-02,-9.37139e-02,1.11024e+00,9.59264e-01,3.75130e-02,1.22298e-01,3.28032e-02,
-3.48197e-02,-2.97799e-02,-2.22203e-04,1.12157e-02,-7.70902e-02,6.07474e-03,2.69465e+00,-6.24258e-02,-6.53380e-02,-3.57359e-02,-1.92625e-01,-1.41406e-02,-4.91201e-02,6.14729e-02,7.73409e-02,-5.17554e-02,8.65084e-02,-7.14805e-02,-9.95822e-03,-1.07832e-01,1.48105e+00,-1.59979e-01,1.39534e-02,3.87591e-01,-1.84339e-03,
-3.19788e-02,2.66347e-02,3.63369e-03,-2.56137e-02,-6.51597e-02,-4.53865e-02,7.76959e-01,8.07065e-03,-6.08616e-02,-2.83777e-02,-1.43677e-02,2.24292e-02,1.96110e-03,-5.54925e-03,-7.21506e-02,-2.87736e-02,8.25626e-03,-5.01007e-03,9.78164e-03,-1.27979e-01,1.06504e+00,8.68330e-01,2.68387e-02,2.96081e-01,2.40218e-02,
-5.28358e-03,5.02220e-03,-1.16050e-02,-2.10447e-03,-7.54069e-02,4.24870e-03,1.34141e+00,-2.48999e-03,-3.85622e-02,-6.01582e-02,-5.13522e-02,-8.61380e-03,-4.23295e-02,-1.99568e-02,-6.97432e-04,-5.01032e-02,7.54505e-02,-2.90492e-02,-7.96931e-02,-1.29747e-01,7.65412e-01,1.59108e-01,-6.92439e-03,2.11746e-01,2.90123e-02,
2.19649e-01,
2.19451e-01,
2.19825e-01,
-2.34383e-01,
-2.33038e-01,
2.11643e-01,
2.04847e-01,
-2.35507e-01,
-2.34487e-01,
