// Neural Network File Format by Kyle Julian, Stanford 2016
6,4,9,25,
4,25,25,25,25,25,9,
0,
-8000.000000,-100.000000,-100.000000,0.000000
8000.000000,100.000000,100.000000,40.000000
0.000000,0.000000,0.000000,20.000000,-4.647677
16000.000000,200.000000,200.000000,40.000000,22.514692
-7.72215e-01,3.49051e-01,-2.59454e-01,-6.33255e-01,
-1.12551e+00,8.58108e-02,-5.29514e-01,-1.88789e-01,
-1.30291e+00,-2.60939e-01,-4.96350e-01,1.67130e-01,
-2.47241e+00,2.05882e-01,-1.75204e-01,-5.51675e-01,
-4.62280e-01,1.78123e-01,-1.89163e-01,-3.63523e-01,
-1.04447e-01,2.02349e-01,2.19016e-01,-5.74021e-02,
1.91716e-02,-1.00214e+00,5.76841e-03,-6.14518e-04,
-2.83621e+00,7.37840e-02,-7.71733e-02,-1.94041e-01,
-2.09592e+00,3.51520e-01,-5.21040e-01,1.48393e-01,
3.24882e-02,4.77832e-01,-2.28863e-01,4.32089e-02,
6.36865e-01,2.64424e-01,6.46449e-02,1.67106e-01,
2.10530e+00,-3.33636e-01,2.92888e-01,-5.89091e-01,
1.21635e+00,7.63925e-02,-1.13396e-01,-8.94359e-01,
1.70612e+00,-2.15353e-03,-1.41608e-02,4.41331e-01,
5.45918e-02,9.60514e-01,1.17903e-02,3.15604e-02,
-8.26338e-02,3.28227e-01,1.41305e-03,-9.19262e-03,
-3.31228e+00,9.26059e-03,-1.11742e-03,5.40914e-03,
-6.09717e-01,-2.06879e-01,4.91276e-02,2.55206e-01,
-8.81188e-01,-4.40953e-01,3.41541e-01,5.66343e-02,
-2.13776e+00,8.61581e-02,-5.84468e-02,-8.79553e-01,
-1.89554e+00,4.73585e-01,-6.54447e-02,5.47712e-02,
-5.22067e-01,2.73971e-01,-5.02244e-01,2.58459e-01,
-4.12829e-01,-2.83470e-01,-6.04954e-02,-4.03196e-03,
4.63090e+00,-2.97094e-03,-3.75435e-02,-7.85451e-03,
9.30533e-01,1.74760e-01,3.75306e-01,-5.11987e-02,
5.46536e-02,
9.42220e-02,
7.28510e-02,
-8.95540e-03,
2.83370e-01,
1.70709e-01,
1.85226e-02,
-5.02648e-02,
1.70856e-01,
2.13333e-01,
2.28766e-01,
-4.18896e-03,
-3.93329e-01,
1.14275e-01,
-2.01503e-01,
-3.34374e-01,
1.47348e-01,
2.25541e-01,
9.26447e-02,
-3.27694e-01,
2.26328e-02,
1.41162e-01,
1.42916e-01,
2.15559e-01,
8.76473e-02,
4.79022e-01,2.58584e-01,2.29819e-01,5.16489e-01,5.43782e-01,-1.01286e-01,2.28015e-01,-1.60470e-01,-5.90547e-01,4.07898e-01,-1.04341e-01,5.08922e-01,3.14446e-01,4.18294e-01,-1.22356e-01,-2.88746e-01,9.48612e-01,-1.20159e-01,1.69321e-01,1.35240e-01,-1.78340e-01,-1.47243e-01,7.38708e-02,1.48524e-01,3.72849e-01,
-2.87733e-01,3.14479e-01,-3.25976e-02,-5.34866e-01,-6.89700e-03,7.99092e-02,1.76706e-02,-2.31488e-01,2.72898e-01,2.62167e-01,3.13191e-01,-2.86013e-01,4.63527e-01,-3.51223e-01,-1.86847e-01,-2.67962e-02,4.69238e-01,3.28535e-02,-9.76578e-02,-1.00933e+00,-1.37144e-01,4.49978e-02,-2.12172e-01,1.19991e-01,-3.43946e-02,
4.13129e-01,1.46864e-02,-4.82701e-02,1.21029e+00,3.74329e-01,7.74207e-02,2.44047e-01,5.91907e-01,-2.75407e-01,2.00984e-01,-2.10118e-01,3.27892e-01,1.56983e-02,5.78100e-01,7.58106e-02,-3.26347e-01,-1.93662e+00,1.07060e-01,-8.13908e-02,-1.23359e+00,-2.72217e-01,-8.21738e-01,1.15348e-01,-1.14867e-01,6.90496e-02,
-8.27391e-02,3.84749e-01,-2.12737e-03,9.32156e-01,5.03449e-02,-4.40439e-01,-7.06379e-01,-5.42529e-01,-4.03827e-01,-8.44464e-02,-2.38083e-01,2.86345e-01,1.86799e+00,1.60335e-01,1.04805e+00,2.20252e-02,2.81179e-01,8.53220e-02,3.19355e-01,-3.64428e-01,-6.19470e-01,1.99988e-01,7.89091e-02,3.98561e-02,-2.75757e-01,
5.70859e-01,-2.28143e-01,-3.67277e-01,-7.04276e-01,2.98995e-01,-2.25776e-01,-1.03739e+00,2.32354e-01,1.44164e-01,4.55773e-01,4.89163e-01,-1.10184e-01,-1.51673e-01,-3.50880e-01,-3.67946e-01,1.70059e-01,-6.39824e-01,-1.18343e-02,1.09137e+00,-4.15494e-04,4.75571e-02,2.10422e-01,3.44946e-01,1.19486e-01,3.43800e-01,
-2.91905e-01,-1.57916e-01,4.42249e-02,-1.19804e-01,1.40217e-01,2.31268e-01,9.68380e-02,-4.64405e-01,3.78162e-01,2.51334e-01,7.58532e-02,-1.95122e-01,1.71498e+00,-5.00129e-01,-8.40539e-02,-2.08370e-01,2.17462e-01,5.40094e-01,6.36404e-02,-2.70461e-01,2.69779e-01,2.79450e-01,1.83057e-02,-4.00671e-01,2.32070e-01,
4.38565e-01,-4.64923e-01,-1.48453e-01,9.94559e-02,-3.63842e-01,-1.06466e-01,2.40092e-01,-5.87146e-01,-3.75235e-01,-5.91221e-01,-5.49396e-02,-1.71282e-01,-1.15296e+00,-5.47130e-01,5.87991e-02,-1.16204e-01,1.81498e-01,9.13380e-03,6.55740e-01,-1.13917e+00,-6.26281e-01,4.05737e-01,1.06547e-01,3.16217e-01,-8.18171e-01,
5.93716e-01,-3.74525e-02,4.94501e-01,-1.40113e-01,-5.17975e-02,-5.63795e-01,-4.70242e-01,3.02271e-01,7.95821e-02,-2.14259e-01,2.07051e-01,-2.69120e-01,5.69992e-01,-3.21570e-01,1.12715e-01,-8.01789e-02,-3.31193e-01,2.39140e-01,3.53673e-01,-4.75603e-01,-2.45579e-01,9.60224e-02,-2.99117e-01,4.73645e-02,5.26112e-02,
-1.59643e-01,2.66835e-01,-3.72156e-01,-2.25475e-01,8.42400e-02,3.30481e-01,1.79727e-01,-2.81893e-01,-3.76695e-01,7.08993e-03,-2.70365e-01,8.81501e-01,-5.59885e-02,-1.73026e-01,-1.02960e-01,2.57863e-01,2.84510e-01,2.23167e-01,-2.12204e-01,-1.19270e+00,-3.29554e-01,-3.24248e-02,-4.62962e-02,4.05663e-02,6.28095e-01,
-1.07719e-01,5.43232e-01,-7.78902e-02,-6.29772e-02,3.43137e-02,1.16574e-01,-2.21018e-02,-3.50360e+00,-4.02865e-01,2.03258e-01,3.58128e-01,7.06930e-01,8.31344e-01,-5.82685e-02,3.55423e-01,-1.92494e-01,-1.95407e+00,4.86049e-01,-4.92236e-01,5.72147e-01,-2.99033e-01,2.15503e-01,1.05143e-01,3.16974e-01,-1.68918e-02,
8.43741e-02,-2.06167e-01,1.32129e+00,-7.03983e-02,-1.20347e-01,-5.45458e-01,-6.49034e+00,-7.41242e+00,-6.01943e-02,-6.05567e-01,-4.43926e-01,-1.39328e-02,1.87877e-01,-1.79814e-01,5.86924e-01,-2.40433e-02,-3.00365e+00,6.20306e-01,-5.89025e-01,-6.98637e-01,-2.79649e+00,-1.79722e-01,3.65457e-01,1.65599e-01,2.74971e-01,
1.87741e-01,5.20495e-01,1.65298e-01,2.43083e-01,3.93265e-01,1.94286e-01,1.70439e-01,-1.44687e+00,-7.90696e-01,3.17275e-01,-1.21331e-02,7.62349e-01,5.45443e-01,-2.66638e-01,-2.10644e-02,-2.91776e-01,-5.53668e-01,-9.55459e-01,-3.24408e-01,-7.26419e-01,-1.63867e-01,-4.05563e-01,2.53377e-01,1.62779e-01,-1.21621e-01,
3.35660e-01,-4.55847e-02,-3.17357e-01,-8.17232e-02,-1.55536e-01,-2.97203e-02,2.21229e-03,-2.50734e-01,1.56028e-01,-3.39281e-01,-3.17359e-01,3.40120e-02,-3.32991e-02,1.37230e-01,3.04144e-01,-2.01522e-01,-8.63660e-02,-6.12111e-02,-1.99343e-01,-1.74446e-01,-1.79889e-01,-2.03754e-01,-3.07978e-01,-5.58145e-02,-7.10321e-02,
-3.87419e-01,-2.44602e-01,-1.42731e-02,2.24995e-01,1.63788e-01,-3.46565e-01,-4.41179e-01,2.07604e-01,-1.98101e-01,-1.12337e-01,-7.55613e-01,-4.97686e-02,1.89401e+00,5.03804e-01,1.18962e+00,2.03304e-01,1.56683e-01,1.25562e-01,4.80342e-01,-5.92818e-02,-6.81363e-01,-4.26420e-02,1.28638e-01,-4.25168e+00,-3.35096e-01,
-6.35559e-02,-3.26495e-01,2.75245e-01,1.67113e-01,2.26888e-01,3.06879e-01,-1.34270e-01,5.45828e-01,1.90383e-02,4.38647e-02,-6.75890e-01,-2.92642e-01,4.83994e-02,2.24850e-01,2.62962e-02,1.12038e-01,6.74615e-01,2.14598e-01,-1.27508e-01,-1.39366e-02,-5.02024e-02,-6.56626e-02,-2.66206e-01,-5.90342e+00,-1.95259e-01,
1.78219e-01,2.96518e-01,-2.15909e-01,-1.47808e-01,-8.14958e-02,-3.52279e-01,-1.02982e-01,-8.41621e-02,-4.56134e-02,-2.10002e-02,-1.07078e-01,3.19337e-01,8.08115e-01,4.68279e-02,2.84365e-01,-3.95058e-02,8.20572e-03,4.09372e-02,7.37279e-02,-2.14661e-01,2.68584e-01,-1.38672e-01,1.56351e-01,1.64375e+00,-4.41833e-02,
-3.91848e-01,3.95508e-01,4.38585e-01,-8.99939e-03,2.17532e-01,-6.44509e-02,8.16804e-02,6.11421e-01,1.04071e-01,5.39557e-02,5.22849e-02,2.34707e-02,5.07347e-01,4.86740e-01,-7.52168e-02,-2.33013e-01,2.41235e-02,-3.47126e-01,2.61681e-01,2.99722e-01,5.77676e-01,5.64537e-01,-7.27611e-01,-3.23100e-01,-5.12988e-01,
1.37371e-01,-2.84230e-01,1.19855e-01,2.03147e-01,-2.71703e-01,-2.96541e-01,-1.08059e-02,-5.91368e-01,-3.21739e-01,8.95482e-02,2.93581e-02,-4.48367e-01,1.76747e+00,-4.41321e-01,6.97982e-02,-1.33862e-01,-2.64475e-01,1.44733e-01,4.45960e-01,-2.01422e+00,-2.10466e-01,3.48917e-01,-2.96079e-01,8.57132e-01,9.39757e-02,
2.44298e-01,2.24589e-01,-2.09622e-01,8.87416e-03,-3.54781e-02,-5.94282e-02,3.81085e-01,3.25966e-01,3.30777e-01,3.94347e-01,-1.26762e-02,-1.28253e-01,-1.73722e-01,4.78634e-01,-2.50767e-01,-1.89801e-01,3.42327e-01,-1.32555e-01,1.07199e-01,6.51244e-01,3.24311e-01,-6.40321e-02,-2.00277e-01,-4.75762e-01,-9.50402e-02,
8.37701e-02,-9.84422e-02,-2.20120e-02,3.05036e-01,1.94896e-01,2.66070e-01,4.16702e-01,-5.31063e-01,2.70342e-01,5.93687e-01,1.94265e-01,2.25533e-01,-4.66690e-01,-5.22586e-01,-5.25693e-01,3.09800e-01,-2.42682e-01,2.12454e-02,3.59499e-01,-5.70789e-01,1.46760e-01,1.38721e-01,-7.72683e-02,9.10447e-02,-1.42364e-01,
-2.88105e-01,2.00210e-01,5.03911e-01,2.26317e-01,5.10028e-01,4.42843e-01,2.61880e-02,6.75954e-02,1.70474e-01,1.00534e-01,1.44271e-01,1.24502e-01,-5.32150e-01,4.03921e-01,-1.43094e-01,-3.43325e-01,-2.63791e-01,-2.05360e-01,1.50706e-01,2.17673e-01,1.65768e-01,4.48176e-01,-4.02674e-01,3.95402e-01,-1.77401e-01,
9.89543e-03,-2.62235e-01,-4.66647e-02,2.54555e-02,-4.76802e-01,3.93864e-01,3.38017e-01,-3.93698e-01,-5.78187e-01,3.40794e-01,2.23075e-01,5.55727e-01,-4.44548e-02,-7.79456e-02,-9.22104e-01,-1.09671e-01,9.46747e-02,3.27111e-01,1.84449e-01,-1.02716e+00,7.81380e-01,-5.71946e-01,3.19964e-01,5.55417e-01,5.16407e-01,
4.20344e-01,1.35285e-01,-4.30002e-01,-2.89476e-01,-3.36180e-01,-1.86857e-02,4.98346e-01,-1.51528e+00,-7.53550e-01,-3.53458e-01,-3.44208e-02,6.95972e-01,-3.71896e-01,-4.10405e-01,2.35199e-01,5.53984e-02,-3.08278e-01,3.22137e-01,-2.84823e-01,1.39202e-01,9.48285e-02,-6.55382e-01,3.51892e-01,1.61723e-01,-2.73766e-01,
-4.27200e-02,2.40959e-01,-7.07769e-02,3.96662e-01,4.72580e-01,1.05518e-01,-2.61860e-02,-1.08716e-01,3.20458e-01,4.57574e-01,-3.05097e-01,1.54992e-01,-1.04989e+00,-4.65357e-01,1.90401e-01,2.44525e-01,2.25849e-01,1.50510e-01,-4.14517e-02,-1.39412e+00,2.08654e-01,-1.19234e-01,-2.21282e-01,-2.27555e-01,-2.94869e-01,
4.26071e-01,-2.12890e-01,3.84509e-01,6.51069e-01,2.05140e-01,2.23280e-01,-2.34625e-01,-3.09049e-01,-3.29357e-01,9.25075e-02,-9.59364e-02,-7.80627e-01,1.66571e-01,-4.65303e-01,-5.54617e-01,2.51428e-01,-4.58415e-01,1.73396e-01,3.93477e-01,1.46779e-01,2.55027e-01,2.31081e-01,-3.23633e-01,7.37486e-01,2.12398e-01,
-2.38800e-01,
1.74278e-01,
4.55456e-02,
1.59849e-01,
-7.80006e-02,
-4.44531e-02,
1.35963e-01,
2.49319e-01,
6.17277e-02,
-5.37548e-02,
2.98519e-01,
-1.88427e-01,
6.42915e-02,
1.57454e-01,
-1.21203e-01,
1.31516e-01,
-8.56939e-02,
2.43214e-01,
2.28394e-01,
-9.97801e-02,
-1.00270e-01,
-1.69457e-01,
2.93744e-01,
-3.71135e-02,
1.46104e-01,
-3.64667e-01,5.05596e-01,1.06109e-01,6.80036e-02,2.89523e-01,-2.62038e-01,4.55476e-01,2.20793e-01,-3.27985e-01,3.43584e-01,8.46157e-01,1.07188e-02,2.21243e-01,1.01120e+00,-4.56163e-01,-7.83233e-02,1.99824e-01,-3.34643e-02,3.15973e-01,1.57330e-01,-9.36506e-03,7.65174e-01,-9.18259e-02,4.34728e-02,2.96068e-01,
2.43055e-01,-2.47568e-02,-1.40841e-01,3.50809e-01,6.98706e-02,1.02499e-01,1.66746e-01,1.81160e-01,-1.57869e-01,1.11664e+00,1.01465e-01,-2.06605e+00,-1.66225e-01,1.61506e-01,-4.97063e-01,-1.47437e+00,1.04727e-01,-5.93812e-01,3.36199e-01,-1.08055e-01,-4.85600e-01,-1.54512e-01,4.20336e-02,1.69276e-01,-4.46533e-01,
6.42038e-02,1.90285e-02,3.80415e-01,-2.39967e-01,-2.69379e-01,2.25460e-01,-2.32398e-01,3.62202e-01,-8.03025e-02,-9.92609e-03,4.00447e-02,-1.01477e-01,-1.48490e-01,-3.45466e-01,-1.54454e-01,9.08848e-02,-4.12941e-01,-2.87896e-01,-1.21646e-01,6.00752e-02,-2.11822e-01,4.82481e-01,-2.80992e-01,-3.38398e-01,1.25036e-01,
-4.22350e-01,2.44020e-01,3.77096e-01,2.59358e-01,-6.37941e-01,-5.27616e-01,-1.92736e-01,4.31715e-01,1.84655e-01,-3.10323e-01,1.07232e+00,-3.90049e-02,4.13557e-02,1.43614e+00,-1.70787e+00,2.95198e-01,-2.28675e-01,-5.64457e-01,-1.43853e-01,-3.39090e-01,-5.40380e-02,6.03170e-02,1.14778e-01,-1.98511e-02,5.72033e-03,
-4.70279e-01,-4.53560e-01,-1.00173e+00,4.39665e-01,3.45689e-01,-1.34521e-01,-4.61248e-02,-6.64402e-01,-7.72033e-02,-2.36043e-01,-3.63287e+00,-3.88539e-01,-1.78932e-01,5.63618e-01,-1.54532e-01,-2.37701e-01,1.44284e-01,-8.92008e-02,2.96291e-02,7.24262e-01,-1.97576e-01,6.01731e-01,6.71478e-02,-2.82846e-01,-1.10459e-02,
4.17614e-02,6.94464e-02,-4.77992e-01,6.00233e-01,-1.10518e-01,6.66293e-01,2.62838e-01,4.40588e-01,3.55043e-01,-6.50485e-01,5.05079e-01,-2.00984e-01,3.82515e-02,8.82568e-01,1.59034e-01,3.06153e-01,-2.42328e-01,-4.95595e-01,-3.60029e-01,5.66605e-02,9.50332e-02,-1.24854e-01,1.22610e-01,-9.70040e-02,2.55868e-01,
6.42098e-01,-4.21335e-02,-5.98621e-01,2.12205e-01,-6.76508e-02,1.44117e-01,1.08803e-01,2.86005e-02,-6.19659e-02,-6.04432e-01,-1.14701e-02,-5.02405e-01,1.74750e-01,-3.11895e-02,-3.06528e-01,-9.22142e-02,-2.18429e-01,-5.04522e-01,2.53321e-01,-2.88675e-02,3.70689e-01,3.32392e-01,1.08621e-01,1.35044e-01,2.46240e-01,
-4.66611e-01,-1.46334e-02,6.08296e-01,4.72212e-01,-1.28835e-01,1.26303e-01,2.93398e-01,3.18752e-01,8.28595e-02,-1.47036e-01,2.12436e-01,2.69999e-01,9.00478e-02,3.64693e-01,3.83391e-01,-8.02042e-01,-2.08611e-01,3.65993e-01,-2.91692e-01,5.21505e-02,-5.86858e-01,2.42995e-01,-1.84935e-01,-3.43860e-01,-7.24481e-01,
-1.59043e-01,-2.01749e-01,2.79297e-01,8.55672e-02,2.58614e-01,1.76837e-01,2.81787e-01,2.30810e-01,-6.00454e-01,-1.59546e-02,1.78652e-01,-2.41844e-01,9.45854e-02,9.84864e-02,4.31779e-02,1.46555e-01,-1.01719e-02,-2.67059e-01,-4.58229e-01,-1.21870e-01,-2.67439e-01,3.08123e-01,3.26413e-01,-2.75427e-01,7.16947e-02,
-2.55110e-01,-2.63067e-01,2.65173e-01,1.52162e-01,5.71990e-01,-1.43635e-01,7.69378e-01,2.23251e-02,6.00726e-01,-3.43040e-01,7.94001e-01,1.19043e+00,2.40244e-01,5.01287e-02,1.24321e-01,2.19527e-01,1.33197e-01,-7.58641e-01,-4.22366e-01,9.89521e-03,1.57176e-01,1.96310e-01,5.09867e-01,-3.77614e-01,3.84222e-01,
2.01515e-01,-1.27672e-01,-2.17459e-02,-1.21592e-01,-1.55589e-02,-2.19211e-01,3.54687e-01,9.62022e-02,9.46703e-01,-1.01015e-01,-1.07659e-01,6.39699e-01,-1.70467e-01,-5.29250e-01,3.04828e-01,2.66293e-01,2.58684e-02,-8.24413e-02,-1.95284e-01,1.80387e-01,-4.44450e-01,-1.83528e-01,-4.17755e-01,-1.05220e-01,8.95638e-02,
-4.55241e-01,-4.02833e-01,8.83092e-01,1.37819e-01,5.56903e-01,1.22464e-01,8.54289e-01,3.46937e-02,1.35892e-01,-6.41770e-02,2.10986e-01,-9.96263e-01,-1.96563e-01,-6.38802e+00,3.07566e-01,-5.30189e-01,-2.43958e-01,-7.77170e-01,-2.28926e-01,2.50228e-01,5.03080e-01,-7.87880e-02,-5.49279e-01,3.32043e-01,-2.20394e-01,
6.48518e-02,-6.02292e-01,1.67536e+00,6.55740e-02,-4.62287e-01,1.66559e-01,3.33604e-02,4.77890e-02,4.80108e-01,-1.55291e+00,1.38838e-01,5.42045e-01,2.60409e-01,-4.33066e-01,-2.43934e-01,6.22362e-01,8.17557e-02,-9.95439e-01,9.39317e-02,2.55664e-01,2.64818e-01,-2.30421e-02,-1.30215e+00,7.10381e-02,-3.48260e-01,
2.14548e-01,-3.73097e-01,3.80865e-01,1.19386e-01,1.21643e-01,-1.99922e-01,8.21575e-03,-9.49906e-02,1.44782e-01,1.45359e-01,-4.71281e-01,1.30817e-01,-2.56361e-01,2.20748e-01,-7.20557e-02,9.45015e-02,-2.21018e-01,-5.58511e-01,4.21507e-02,3.39709e-02,3.49574e-02,-4.14694e-01,4.91766e-02,4.41543e-01,5.36420e-01,
1.75700e-01,-4.28077e-01,-2.03260e-01,1.84567e-01,-5.44352e-01,8.38073e-02,7.75438e-02,4.37355e-01,1.83010e-01,-1.56948e-01,-1.74780e-01,-1.03019e-02,-6.71235e-02,-5.58628e-01,4.79031e-01,-1.18290e-01,-7.42833e-01,-3.26008e-01,-1.78901e-01,7.65683e-01,5.48048e-01,-4.29910e-01,1.23742e-04,6.32584e-01,6.73059e-01,
3.67078e-02,-3.71410e-01,2.76348e-01,3.16209e-01,-7.61213e-02,5.88740e-02,1.80549e-01,2.86413e-01,5.60108e-02,-2.85198e-01,9.49507e-01,-3.59886e-01,2.19091e-01,-6.12895e-01,1.79678e-01,3.23137e-03,-7.46398e-01,-3.35100e-01,2.81537e-01,8.85917e-02,5.14109e-01,-4.27782e-01,-6.57784e-01,5.45144e-01,6.56436e-01,
4.55576e-01,9.24911e-02,-1.21122e-01,-2.32112e-01,-5.18828e-01,-1.49582e-02,-4.83428e-01,-3.98027e-02,-5.78978e-01,-2.78123e-01,-4.82936e-01,-7.15286e-02,-1.17086e-01,3.45127e-01,-4.37463e-01,9.86101e-02,-4.26287e-01,6.57889e-02,8.98048e-02,1.99350e-01,9.90443e-02,-4.89744e-01,-4.05799e-01,5.79629e-01,-1.83173e-01,
-5.66980e-03,-1.82864e-01,-8.92606e-02,3.35246e-02,1.74314e-01,-3.53545e-01,2.35808e-01,-3.39594e-01,2.23692e-01,-2.98602e-01,-1.44552e-01,2.40368e-01,1.24412e-01,-2.17943e-01,-1.61723e-01,-3.36491e-01,-8.64753e-02,-1.43871e-01,-9.11469e-02,1.45271e-02,-9.22156e-02,6.34514e-02,1.32316e-01,-2.49175e-01,-2.56552e-01,
-1.52783e-01,-3.41823e-01,3.81144e-01,1.28959e-01,2.85352e-02,4.65108e-01,-1.18336e-01,-2.65681e-02,2.35251e-01,2.53756e-01,3.16311e-01,1.16097e+00,-2.71211e-01,1.22413e-01,1.78994e-01,1.22950e-01,6.12726e-03,-5.37445e-02,-2.70562e-01,3.68721e-01,-1.61003e-01,2.93519e-01,5.43324e-01,3.22448e-02,1.81034e-01,
-1.87247e-01,-5.06990e-02,1.34087e-01,3.08823e-02,8.15335e-01,4.22908e-01,7.18112e-01,1.03587e-01,-1.86020e-01,2.43692e-01,-1.37581e-01,1.68730e-01,-7.48809e-02,-3.03095e+00,-1.78624e-01,-2.91383e-02,1.02939e-03,-6.53694e-02,4.87157e-02,-3.21632e-02,5.99311e-02,5.68561e-01,3.93085e-02,-1.14539e-01,5.74830e-01,
1.22211e-01,2.73754e-01,-1.39692e-01,6.63067e-01,2.31843e-01,-1.62004e-01,2.67876e-01,1.43710e-01,-4.03109e-01,-3.38532e-01,-5.25663e-01,-3.38023e-01,1.52212e-01,6.52671e-01,3.42642e-01,-5.09209e-02,-3.43488e-01,-3.05183e-01,1.61400e-01,2.14458e-01,5.28461e-01,2.39514e-01,5.78406e-01,-3.68502e-01,5.74368e-02,
-8.49508e-01,-6.55298e-02,3.00673e-01,2.38256e-01,-1.78068e-01,6.38654e-01,-1.64799e-01,9.59158e-02,9.79010e-02,5.45638e-01,1.55296e-01,9.52343e-01,-2.14879e-01,-5.47547e-01,1.14630e-01,3.88466e-03,-4.05928e-01,-8.22083e-02,-1.85452e-01,2.46245e-01,1.06753e-01,3.79691e-01,1.68301e-01,8.28143e-03,3.53897e-01,
-3.86149e-01,-3.35937e-01,1.81650e-01,-5.64416e-02,5.05345e-01,-1.20580e-01,3.81010e-01,5.87583e-01,3.39468e-03,8.65813e-02,-1.41792e+00,-5.55323e-01,1.96236e-01,2.96984e-01,-6.00409e-03,3.24622e-01,9.12768e-02,-1.99762e-02,3.62937e-01,8.38193e-02,-3.07349e-01,-5.60218e-01,1.19636e-01,6.19552e-03,9.31764e-02,
4.95944e-01,-9.92195e-02,-6.41132e-01,2.88053e-01,-2.51436e-02,3.98691e-01,2.76870e-01,-1.21837e-01,1.04221e-01,-6.82473e-01,5.48441e-01,-2.90863e-02,1.01364e-01,-3.35917e-01,-2.45412e-01,2.14452e-01,-1.77908e-01,-3.78403e-02,3.02182e-01,-4.46723e-01,-1.80974e-01,2.26883e-01,-1.77789e-01,1.59743e-01,2.11879e-01,
9.77631e-02,-3.29165e-01,4.86908e-02,3.22083e-01,3.35685e-01,-1.94174e-01,-7.48408e-01,1.00113e-01,-3.77571e-01,-4.17918e-01,5.39915e-01,3.62603e-01,3.11472e-01,-4.10429e-01,-2.83642e-01,2.35021e-01,3.60728e-01,-2.55522e-01,2.05437e-01,1.79166e-01,-6.72317e-02,1.86850e-01,1.45919e-01,2.95248e-01,-6.94184e-02,
-4.20624e-01,
3.40713e-02,
2.52525e-01,
3.96685e-01,
3.17952e-01,
3.89020e-02,
9.93811e-02,
2.43904e-01,
5.49367e-01,
1.11355e-01,
2.31823e-01,
1.00775e-01,
1.27928e-01,
2.43449e-01,
-1.88421e-01,
-1.86472e-01,
3.93605e-01,
-1.67044e-01,
4.44194e-02,
-2.52285e-01,
-1.54527e-01,
-9.21027e-02,
-4.37676e-03,
2.57640e-01,
1.34899e-01,
-2.76199e-01,2.77599e-01,2.94366e-01,1.30032e-01,3.44419e-02,2.57101e-01,-2.43587e-01,-3.42774e-01,1.44639e-01,3.15669e-02,2.43103e-01,-1.04604e-01,2.04021e-01,-1.64342e-01,-2.66049e-03,-2.56620e-01,6.78435e-03,1.15640e-01,-2.84797e-01,2.04940e-02,-3.41092e-01,-3.26542e-01,-1.51956e-01,1.36085e-01,-5.47659e-02,
-7.65231e-02,-3.02550e-01,-7.54136e-02,2.19011e-01,6.01464e-01,1.35255e-01,1.55129e-01,4.88510e-01,2.40913e-01,7.01797e-01,-4.81174e-01,-1.75185e-01,-3.96427e-01,1.85577e-01,-2.22302e-01,6.00684e-02,-2.64269e-01,1.90851e-01,-8.87756e-02,2.21443e-02,-6.25005e-02,6.90718e-02,-1.42875e-01,-9.94850e-02,-4.29487e-02,
-6.20650e-02,1.68509e-01,-1.79431e-02,-3.96000e-02,1.23553e-01,5.46689e-02,2.91649e-01,-2.41394e-01,-5.03733e-02,-4.92472e-02,1.58230e-01,3.15885e-01,-2.65063e-01,2.02350e-01,-2.44457e-01,1.16238e-01,-2.16582e-01,-5.81726e-03,6.34925e-02,-2.45948e-01,-2.68526e-01,-3.03712e-01,-1.35640e-02,-1.21188e-01,-2.31862e-01,
3.99139e-01,-9.44400e-01,-8.61927e-02,-4.22374e-01,-2.75919e-01,-3.27160e-01,-2.79089e-01,2.53507e-01,-2.60276e-02,3.31882e-01,7.20346e-02,5.21504e-02,4.96833e-01,3.23437e-02,-5.44777e-02,3.87592e-02,1.16734e-01,2.49068e-01,-1.08520e-01,-2.27096e-01,4.04608e-01,-2.27855e-01,-3.81516e-01,2.15195e-01,-1.71132e-01,
2.35233e-01,1.34171e-01,3.84450e-02,-2.00332e-01,1.76855e-01,1.81055e-01,-3.08213e-01,-3.64692e-01,1.96841e-01,1.07144e-01,-7.34877e-02,-1.31433e-01,3.58230e-01,2.53905e-01,9.48512e-02,-1.40920e-01,2.02065e-01,-1.23529e-01,-2.21867e-01,-3.65110e-01,3.64512e-01,1.75322e-01,9.50324e-02,2.03137e-01,2.15794e-01,
4.92250e-01,8.95169e-01,-1.27273e-01,4.40367e-01,2.14508e-01,2.47832e-01,2.86767e-01,-3.01117e-01,-2.24168e-01,2.95800e-02,-1.00050e-01,1.60767e-01,5.24295e-01,2.94854e-01,3.78180e-01,-4.15086e-01,2.85529e-01,2.47192e-01,-1.83679e-01,1.17804e-01,-8.08133e-02,2.24015e-01,-1.94926e-01,-4.46627e-01,-2.90058e-01,
-5.80152e-01,-1.59591e+00,1.23483e-01,-2.59011e-01,6.69982e-03,-8.92180e-02,-5.65162e-01,-8.56960e-01,-2.80745e-04,-1.02821e-01,-2.16293e-02,-2.59560e-01,1.65425e-01,-2.64361e-02,3.32253e-02,1.37049e-01,-1.13561e-01,-1.00952e-01,1.97653e-01,1.90578e-01,2.65173e-01,-1.99419e-01,-6.52551e-02,3.24876e-01,2.55374e-01,
3.54841e-01,8.86963e-01,-1.84010e-01,6.20143e-02,-5.10343e-01,4.56968e-01,-2.24778e-01,2.01867e-01,1.79443e-01,8.64333e-02,-3.29778e-01,-8.83854e-02,-2.15969e-01,4.41330e-01,4.62051e-02,3.01350e-01,-3.37237e-01,2.52784e-02,1.04411e-01,-3.04412e-01,-2.16804e-01,-5.30425e-02,4.52807e-02,2.75578e-01,-6.11468e-02,
-2.03233e-01,2.80546e-01,-3.70173e-01,3.65819e-01,4.03196e-01,2.85100e-01,2.08893e-01,-7.42854e-01,4.70568e-01,-4.76121e-02,-1.37759e-01,-8.16486e-01,7.57485e-01,1.91726e-01,-1.69036e-02,2.96578e-01,6.70643e-02,-1.52498e-01,-1.94543e-01,1.17792e-01,-1.73909e-01,3.34303e-01,2.06566e-01,-1.51939e-01,1.95720e-01,
1.18438e-01,7.34349e-01,-4.23862e-02,5.86639e-02,7.16790e-01,-2.80048e-01,2.28736e-01,-2.50460e-02,-1.62395e-01,-8.61089e-04,2.96188e-01,5.92107e-02,2.23099e-01,2.99667e-01,6.94529e-01,2.44050e-01,-4.57027e-02,3.01564e-01,3.36760e-01,-2.26301e-01,-9.76165e-02,-2.68652e-01,1.17037e-01,-1.73306e-01,1.70607e-01,
1.94719e-01,2.48809e-01,8.02146e-02,2.23982e-02,8.65935e-02,-1.56953e-01,1.14548e-01,3.79426e-02,4.14132e-02,-6.19659e-02,-1.17601e-01,-2.74878e-01,-1.34828e-01,-1.60516e-01,2.05120e-02,-1.74644e-01,-9.13659e-02,4.38061e-02,-2.52639e-01,-1.74915e-01,-2.24729e-01,1.88315e-01,-2.03306e-01,-3.40574e-01,-2.07849e-01,
3.08131e-01,-3.82962e-01,-2.87185e-01,3.45181e-01,-1.76270e-01,-4.03136e-02,-2.08177e-02,1.55628e-01,-4.64265e-01,-6.64420e-01,-2.09264e-01,-1.79170e-01,2.30471e-01,-4.09227e-02,7.30325e-01,4.17820e-01,1.20775e-01,-3.35800e-01,1.46670e-01,2.96271e-03,4.02653e-01,1.46347e-01,-1.25650e-02,1.62021e-01,-3.33048e-01,
4.50449e-01,2.05322e-01,2.26599e-01,-1.81869e-01,1.36796e-01,3.22914e-01,-2.66934e-01,-6.02122e-01,-9.64470e-02,6.64640e-02,9.11653e-02,-7.72202e-01,1.52956e-01,-1.53351e-01,-2.20129e-01,4.31424e-01,-3.25638e-01,2.63985e-01,-3.06312e-01,-5.28070e-01,6.14653e-02,4.59244e-01,-3.81366e-01,-1.49064e-01,-5.36981e-02,
8.84995e-02,-1.83925e-02,-1.92707e-02,1.26055e-01,1.56252e-01,6.62285e-02,-2.79215e-02,-2.93725e-01,-5.40474e-01,-3.81591e-01,4.07516e-01,4.05038e-01,3.77445e-01,-4.73994e-01,-2.11812e-01,4.38224e-01,-1.43261e-01,6.34287e-02,-8.63209e-03,-2.53652e-01,-2.68404e-01,8.99507e-02,4.22359e-01,1.84835e-01,-1.39723e-01,
5.11693e-01,1.21356e+00,3.91985e-01,-9.26233e-01,1.49281e-01,1.34866e-01,3.13528e-01,-8.71481e-02,5.12304e-01,-1.05141e-01,-9.23873e-02,-4.13190e-01,8.28844e-03,2.69601e-02,-1.23866e-01,3.13249e-01,-1.40864e-01,1.36527e-01,3.25509e-01,-9.46619e-01,-6.66274e-01,4.12757e-02,2.55562e-01,-3.88432e-01,-4.35276e-02,
7.74003e-02,-3.78365e-01,-1.47741e-01,9.87907e-02,-8.32978e-02,-1.31613e-01,3.16837e-01,-2.40761e-01,-2.02588e-01,1.01415e-02,-2.47504e-01,-8.76698e-02,1.38275e-01,2.79207e-01,4.80531e-01,1.94629e-01,3.87014e-02,1.32797e-01,-1.24198e-01,1.41144e-01,-1.47876e-01,-3.11066e-02,2.35797e-01,-9.33905e-03,1.87893e-02,
3.39709e-01,6.17281e-01,2.94490e-01,-4.69546e-01,8.32940e-03,-1.39594e-01,1.42986e-01,1.40493e+00,-4.89181e-01,1.81969e-02,2.93863e-01,7.74949e-01,-1.78023e-01,-2.30369e-01,2.58400e-01,-4.03957e-02,2.35435e-01,-7.51815e-02,-1.10680e+00,8.29877e-02,-3.46794e-01,6.92688e-01,-2.03186e-01,-3.10888e-01,-7.49281e-03,
2.15011e-01,-4.50332e-01,-2.60296e-01,5.27235e-02,6.32443e-01,1.07221e-01,-4.49906e-01,9.35990e-02,1.24838e-01,-2.56130e-01,3.20911e-01,8.12000e-01,3.98251e-01,2.04741e-01,1.29774e+00,-4.72087e-01,-1.26363e+00,-2.30358e-01,1.65204e-01,-3.57733e-02,-2.40374e-01,8.45006e-02,-7.29392e-02,-2.03637e-02,-2.11889e-01,
3.12608e-01,-5.38993e-01,-2.08038e-01,1.54735e-01,1.79490e-02,2.55419e-01,2.23513e-02,-7.72285e-01,-2.01525e-01,-9.66848e-02,-8.94238e-03,-4.14068e-01,2.72556e-01,4.16114e-01,3.11438e-01,2.83015e-01,-1.48839e-01,-1.84118e-01,1.06485e-01,-8.96245e-02,-2.38257e-03,7.32319e-02,-2.12921e-01,4.87048e-02,-1.41216e-01,
-6.38889e-01,-1.24965e+00,-2.10895e-02,-5.12221e-01,5.99962e-02,-1.69516e-01,-6.11976e-01,7.59096e-01,5.58334e-01,-1.33304e-01,7.86532e-02,-9.52580e-01,6.86072e-01,-3.93901e-01,-7.68763e-02,4.15950e-01,-2.21905e-02,1.44600e-01,1.33847e-01,2.07805e-01,2.02358e-01,1.47519e-01,-3.17178e-01,3.86162e-01,1.08619e-02,
5.80332e-01,-5.85851e-01,-2.11847e-02,-3.75091e-01,1.31189e+00,-7.34611e-01,-2.01422e-01,5.45779e-02,3.96311e-01,1.54660e-01,-4.85298e-01,-4.69366e-01,-1.66195e-02,1.43369e-01,2.39481e-01,2.21428e-02,-9.48078e-01,1.61167e-01,-2.85691e-01,4.71030e-01,2.19212e-01,7.75706e-01,7.38886e-01,-1.69303e+00,-4.37435e-01,
3.80129e-01,-4.20996e-01,-2.10692e-01,3.01973e-01,6.90752e-02,4.82812e-02,1.37190e-01,-3.85557e+00,-4.18988e-01,-5.12413e-01,-4.22764e-01,-4.49797e-03,2.93419e-01,1.71515e-01,3.00436e-01,3.89852e-01,1.80701e-01,7.01962e-02,-6.48398e-01,-2.52046e-01,1.40645e-01,4.24282e-01,5.57204e-02,-3.28899e-01,1.45013e-01,
2.84595e-01,7.18907e-01,7.79729e-02,-2.46995e-01,-3.73551e-01,-1.54836e-01,9.36938e-02,-9.09691e-01,-2.76362e-01,-1.82684e-01,-1.49717e-01,-2.54770e-01,3.15452e-01,-3.40282e-02,4.06342e-02,5.85959e-01,3.33835e-01,1.21279e-01,-6.82701e-01,5.72538e-03,2.25424e-01,6.36004e-01,2.05863e-01,1.14518e-01,2.51247e-01,
-1.86542e-01,3.80044e-01,4.14542e-01,4.46253e-01,6.71503e-02,-1.41610e-01,2.12766e-01,2.79952e-01,1.64494e-02,3.73937e-01,-3.46076e-01,-8.06692e-01,5.58278e-01,2.85520e-01,3.44903e-01,5.84834e-02,-2.55871e-01,2.54818e-02,2.19120e-01,6.74937e-01,1.07016e-01,-9.61576e-01,-2.51744e-01,-1.67962e-01,-7.67950e-02,
2.55062e-01,1.10276e-02,1.13665e-01,2.27375e-02,3.46147e-01,1.92582e-01,-2.30659e-02,2.60128e-01,-9.26164e-02,7.24195e-01,-2.94977e-01,2.86290e-01,3.04069e-01,-3.18869e-01,5.87020e-01,1.61516e-01,1.13341e-01,7.36876e-02,-2.03118e-01,2.63178e-01,9.06031e-02,-2.27010e-01,1.25698e-01,-9.33277e-02,1.31413e-01,
-3.60287e-01,
1.44879e-01,
-3.22851e-01,
1.73457e-01,
-6.93897e-02,
-5.65986e-03,
1.99079e-01,
1.27981e-01,
-2.26260e-01,
1.28758e-01,
6.44849e-02,
4.43726e-02,
4.27394e-01,
3.25734e-01,
1.24804e-01,
2.34883e-01,
1.47816e-01,
-2.02713e-01,
7.45327e-02,
-1.55969e-01,
-2.55030e-01,
2.72292e-02,
-2.43355e-01,
6.61329e-02,
-6.49882e-02,
6.38867e-02,5.02956e-01,8.14643e-02,-2.71182e-01,-3.40843e-01,1.72165e-02,1.07868e-01,2.65423e-01,-5.84105e-01,-3.43285e-01,1.91450e-01,-2.60991e-01,-4.38480e-01,6.56748e-01,2.96728e-01,3.84939e-03,-4.07009e-01,4.75834e-01,6.28965e-02,-6.92144e-02,2.23702e-03,5.12950e-01,5.56291e-01,-6.22662e-02,-9.76519e-02,
-5.25845e-02,-1.58910e-01,-1.83270e-01,-3.71459e-01,8.89529e-02,-2.51343e-01,-1.17854e-02,-1.33975e-01,-6.21007e-02,1.68767e-01,2.96806e-01,1.15196e-01,-1.37810e-02,-5.45334e-02,-2.41304e-01,-2.72832e-01,-2.37384e-01,3.30239e-01,-3.07558e-01,-1.59254e-01,-7.12101e-02,-3.22580e-01,2.68796e-01,2.24378e-01,2.08165e-01,
1.44152e-01,2.23584e-01,1.40300e-01,-2.17122e-01,-6.21008e-02,-1.72811e-01,-6.96557e-04,-4.31692e-01,-1.13145e-01,-7.45529e-01,-2.48466e-01,2.32868e-01,3.03398e-01,2.26866e-01,6.30318e-01,-3.49975e-02,3.75756e-01,-4.25307e+00,9.53402e-02,1.00625e-01,-4.77735e-02,3.01817e-01,9.41157e-01,6.26715e-02,-1.27064e-02,
-3.07257e-01,-1.40901e-01,-9.49994e-02,1.33062e-01,1.20154e-01,4.88882e-02,1.25521e-01,-1.02386e-02,-2.02406e-01,3.01514e-01,3.15748e-01,-3.92624e-01,-8.95382e-02,-2.04830e-01,3.53580e-01,-1.03756e-01,-7.35530e-02,-2.35815e-01,3.41564e-01,-1.17681e-01,6.69587e-01,1.38019e-01,-5.04230e-01,3.38227e-01,2.64110e-01,
-2.26600e-01,3.07490e-01,1.78674e-01,1.12987e-01,-4.67350e-01,9.93863e-02,-2.75874e-01,-5.42388e-02,2.22827e-03,8.78142e-02,-9.35060e-02,1.06486e-01,9.53701e-02,-4.97891e-02,6.20619e-02,-1.96966e-01,1.03034e-02,1.50356e-01,6.17384e-02,5.90891e-02,1.76132e+00,-3.91501e-01,1.63900e-01,3.09374e-01,2.27059e-01,
-6.75763e-02,1.35220e-01,1.93292e-01,2.10619e-01,1.88066e-01,7.95646e-02,8.87167e-02,-4.29097e-01,-3.53516e-01,-1.78610e-01,-2.07154e-01,-1.95223e-01,-9.31386e-02,-3.82276e-01,-4.99481e-02,-1.07153e-01,-8.85987e-02,-1.87241e-01,-3.20336e-02,-5.74972e-02,-1.25884e-01,2.22859e-01,1.60737e-01,-2.22543e-01,1.12125e-01,
2.57324e-01,1.49604e-01,3.11960e-01,-4.25048e-02,-8.32546e-02,-2.66744e-01,-2.00323e-02,-1.93250e-01,-2.25092e-01,1.40742e-02,2.47928e-01,-1.67663e-01,-4.37834e-02,-5.78265e-02,1.68676e-01,-1.42857e-01,-2.55861e-02,3.00731e-01,4.72773e-03,-1.75201e-01,9.45114e-01,3.27793e-01,-3.38375e-02,3.13767e-01,1.32670e-01,
3.28351e-02,2.67242e-03,-1.24132e-02,8.06160e-02,-3.60915e-01,-2.44529e-01,2.43842e-01,-1.61397e-01,6.76930e-02,-1.54188e-01,-2.36040e-01,-2.55161e-01,-3.28562e-01,-7.31210e-02,-4.96327e-01,2.71497e-02,2.15320e-02,8.39946e-02,3.03400e-01,-2.58130e-01,-5.11304e-02,8.58314e-01,-4.13062e-01,3.98641e-02,5.65823e-03,
-5.39636e-02,-3.46754e-01,-3.37836e-01,1.47710e-01,4.69866e-02,3.43366e-01,-2.04670e-01,7.97189e-02,4.23942e-01,2.59571e-01,3.24215e-01,1.88393e-01,1.64134e-02,-2.79969e-01,-2.89710e-02,8.39771e-02,8.40673e-02,-6.04136e-01,2.79560e-01,2.48909e-01,-2.14564e-01,-7.98753e-01,-2.54786e-01,-1.01891e-02,1.60761e-01,
-1.89812e-01,2.48151e-01,3.43326e-01,2.02536e-02,1.68010e-01,-1.35106e-01,4.33474e-02,1.23679e-01,1.27253e-01,-2.12125e-01,1.70226e-01,1.46781e-01,3.02861e-01,2.07270e-01,-2.37485e-01,1.97673e-01,3.39701e-01,2.75169e-02,2.77429e-02,2.78707e-02,-6.08814e-01,3.78072e-02,4.74941e-02,-1.86722e-01,-2.20024e-01,
-4.30912e-02,-2.24400e-01,-2.27349e-01,-1.55152e-03,-2.01617e-01,-3.72793e-01,-4.37483e-01,2.98949e-02,-1.47183e-01,-1.00790e-01,1.17740e-01,-2.71977e-01,-3.75167e-01,-2.42404e-01,-1.64142e-02,-3.93295e-01,2.65608e-01,-2.01027e-01,-2.99603e-01,3.07349e-02,2.56403e-01,1.89952e-01,-1.70889e-01,1.87909e-01,-4.31990e-01,
1.70767e-01,-2.38771e-01,1.86138e-01,5.54756e-02,-2.40429e-01,3.38154e-01,4.16393e-02,-3.42017e-01,7.65540e-02,-1.27429e-01,-2.38838e-01,3.23143e-01,-3.04618e-01,2.65117e-01,2.20352e-01,-7.39196e-02,1.88164e-01,-1.55006e-01,-1.56642e-01,-3.38410e-01,-2.51359e-02,-2.72175e-01,1.17025e-01,7.97375e-02,-1.45314e-01,
1.13227e-01,-3.18612e-01,-5.08425e-02,7.70244e-02,-3.24113e-01,3.09839e-01,2.32643e-01,-2.01991e-01,3.05268e-01,-3.07373e-01,2.90261e-01,1.08084e-01,-2.84211e-01,1.64805e-01,-4.33009e-02,-3.29520e-01,1.83805e-01,-2.35486e-01,-1.77700e-01,-1.49377e-01,-2.54434e-02,-9.34930e-02,-8.53002e-04,-4.54524e-02,2.12035e-03,
-1.36758e-01,-2.33211e-01,2.22215e-01,4.30425e-02,-1.48541e-01,-1.24852e-01,8.98629e-03,1.43841e-01,-1.94325e-01,7.34624e-02,1.38456e-01,-4.80609e-01,-1.01862e-01,-2.30123e-01,3.01018e-02,-5.53804e-02,-8.00383e-02,2.79037e-02,-1.04694e-02,-3.70529e-02,8.84394e-01,3.56116e-01,1.14967e-01,5.13718e-02,2.61758e-01,
-3.19954e-01,-6.40895e-02,-3.34476e-01,-1.65602e-01,1.95337e-01,1.42505e-01,7.11389e-02,1.50242e-01,-1.20314e-01,-1.55892e-01,3.03655e-01,1.85386e-01,-1.43855e-01,-1.73824e-01,2.64135e-02,6.54181e-02,-1.05947e-01,1.00123e-01,-5.15794e-02,-1.03143e-02,-2.20366e-01,-2.12599e-01,1.55330e-01,-3.03209e-01,-2.71788e-02,
2.18512e-01,2.81020e-02,-2.05256e-01,6.55970e-01,-1.43453e-01,5.98490e-01,-2.07127e+00,-1.11812e-01,-3.11661e-01,-8.19041e-02,2.58166e-01,-3.18631e-02,-1.47091e-02,2.90742e-01,-4.82625e-02,-4.73360e-01,-3.69853e-02,-6.30205e+00,3.09409e-01,-2.18144e+00,-4.38799e+00,-4.07596e+00,-6.61232e-01,5.90051e-02,-1.70250e-01,
1.07868e-01,-9.51350e-02,6.75863e-02,8.17303e-02,-2.50889e-01,5.56473e-04,1.14923e-01,-2.15516e-01,-2.45077e-01,-1.29839e-01,-2.97358e-01,-7.62118e-02,5.73091e-02,-2.66342e-01,1.99800e-01,-1.03495e-01,-8.69299e-02,4.74893e-03,-2.79219e-01,2.96200e-01,-1.60309e-02,2.75310e-01,-6.64055e-02,-2.36174e-01,2.38837e-01,
1.81074e-02,4.80896e-02,-3.14014e-01,-3.58746e-01,-2.19188e-01,2.14628e-01,-2.45720e-01,-1.45192e-01,-7.66527e-02,-3.24916e-01,1.77729e-01,-2.23547e-01,1.39699e-01,3.94237e-01,4.52741e-02,-3.60781e-01,-6.60361e-02,4.78748e-01,-5.02866e-01,5.95170e-02,-6.15976e-02,-2.02617e-01,4.16132e-01,2.58223e-01,-5.01381e-01,
-2.10382e-01,-1.93402e-01,1.90375e-01,-8.09740e-02,-3.12157e-01,7.84650e-02,2.24121e-01,-2.44832e-01,1.92552e-01,7.62753e-02,1.55203e-01,-3.03808e-02,8.78068e-02,6.41684e-02,8.58596e-02,-2.20410e-01,-1.79665e-01,9.87764e-02,-3.12273e-01,1.44889e-01,-3.69921e-02,4.99351e-02,2.96728e-01,7.92637e-02,-1.68411e-01,
1.58383e-01,1.81625e-01,-5.21876e-02,-2.26150e-01,1.54565e-01,6.36108e-02,2.99346e-01,1.89556e-01,4.12807e-01,-4.42786e-02,-1.78917e-01,3.99071e-01,1.07708e-01,3.00419e-01,-3.58836e-01,-1.52094e-01,3.19904e-01,-6.40246e-01,1.72574e-01,1.00221e-01,-3.41317e-01,7.08373e-02,3.70714e-01,-7.38293e-01,-4.29916e-01,
-1.77444e-01,-3.61032e-01,-3.09301e-01,1.92094e-01,-1.96834e-01,1.83440e-01,-1.23410e-01,-2.91785e-01,3.91844e-02,1.74408e-02,-2.68080e-01,-2.44619e-01,-2.29675e-01,-3.35348e-01,3.87628e-04,-2.70040e-01,-2.03069e-01,3.07038e-01,1.15921e-01,-5.47575e-02,2.37663e-01,-1.96584e-01,1.50864e-01,-3.46183e-01,-2.03635e-01,
-1.57388e-01,1.54140e-01,1.05146e-03,5.26444e-02,-2.01044e-01,2.14157e-01,1.89449e-01,9.80613e-02,-1.92335e-01,-2.08400e-01,5.41367e-02,1.77921e-01,-4.38976e-01,1.51288e-01,6.43387e-01,-3.53649e-01,-1.28679e-01,1.76696e-01,2.69727e-01,-4.13890e-02,-1.27282e-01,4.00725e-01,5.18763e-01,3.58402e-02,2.55331e-01,
8.96260e-02,-7.21535e-02,-6.65470e-02,1.74900e-01,-3.13170e-01,2.67434e-02,-2.53639e-01,-4.56755e-02,-3.09357e-01,2.70776e-02,-4.12162e-02,2.01786e-01,2.87458e-01,1.17973e-01,1.70726e-01,1.04728e-03,-5.41719e-02,-2.59694e-01,-2.79225e-01,-3.31212e-01,2.05427e-01,-9.57247e-02,2.50914e-01,2.67219e-01,1.18684e-01,
2.84623e-01,-3.40081e-01,-7.52731e-02,-3.16625e-01,-1.57564e-01,-1.83566e-01,-2.05851e-01,2.92738e-02,-3.13514e-01,2.33699e-01,1.16825e-02,-3.27513e-01,2.28437e-01,2.87180e-01,-5.75082e-02,-2.35561e-02,3.40617e-02,-9.87088e-02,-2.09064e-01,1.75357e-01,-2.60207e-01,-1.03525e-01,1.47072e-01,9.12771e-02,-3.55134e-01,
-4.51157e-02,7.11795e-02,-2.76033e-01,1.31629e-01,-1.56997e-01,-1.89359e-01,-1.00187e-01,-3.77198e-02,1.32040e-01,7.56017e-02,-2.06951e-01,1.14632e-01,4.38188e-02,-3.94717e-02,2.42388e-01,1.51045e-02,3.33935e-01,-1.46582e-01,-3.95074e-01,1.83768e-01,4.55026e-01,-3.46794e-01,2.47565e-01,4.58167e-02,-3.47800e-01,
2.11426e-02,
-2.55047e-01,
-5.04013e-03,
1.20467e-01,
1.42877e-01,
2.79289e-02,
5.23297e-02,
2.22648e-01,
1.69055e-01,
3.10455e-01,
1.47961e-01,
-2.21666e-01,
-1.62613e-01,
1.95124e-01,
-2.96042e-01,
1.45546e-01,
-2.85371e-01,
-3.58999e-02,
-9.13429e-02,
-8.85579e-02,
-2.60653e-01,
1.14347e-01,
-3.60411e-01,
-1.03543e-01,
-2.77866e-01,
-1.37701e-01,-1.92996e-01,-8.03941e-02,-1.76534e-01,1.19171e-01,1.34667e-01,-8.19472e-02,-5.63716e-02,-2.19643e-01,-3.72161e-02,-5.93160e-01,-4.09931e-01,1.05366e-01,-6.12647e-02,1.47109e-01,7.29972e-02,1.03557e-02,-5.12304e-01,-3.17207e-01,-4.12025e-02,-5.03748e-02,1.71078e-01,-3.88942e-01,2.18088e-01,-9.71982e-01,
-1.40600e-01,2.58188e-01,-1.10233e-01,-1.72006e-01,8.09718e-02,7.42871e-02,3.29006e-02,2.93753e-01,-1.61209e-01,6.33027e-02,1.82280e-01,2.69358e-01,2.39541e-01,-2.18187e-02,3.06974e-01,-1.53939e-01,3.43678e-01,7.05959e-01,5.37916e-01,-1.04400e-02,1.91766e-01,8.47182e-02,1.56648e-01,-3.64626e-01,6.65263e-01,
-9.71949e-02,4.54917e-01,-7.24143e-02,-2.40158e-01,-2.44783e-01,-3.40388e-02,5.77809e-01,-8.95784e-03,-7.11808e-02,-7.42529e-02,1.50250e+00,-3.83842e-01,1.17431e-01,-1.28856e-01,1.78400e-01,4.74521e-02,-6.33783e-02,6.95257e-01,3.80066e-01,-8.78459e-02,3.50190e-01,1.20815e-01,8.27067e-02,1.27447e-01,1.67364e+00,
-1.86937e-01,3.11787e-01,-1.41841e-01,1.78874e-01,-5.13607e-02,1.32712e-01,-1.04620e-01,-1.62740e-02,-3.48967e-01,2.16626e-01,7.71692e-01,4.02500e-01,3.26152e-01,1.22261e-01,3.05902e-01,-6.44036e-01,-2.38403e-01,1.16286e+00,3.85693e-01,5.49655e-02,4.55096e-02,1.40327e-01,-8.05891e-02,-2.01915e-01,2.06262e+00,
-2.66954e-02,7.68285e-03,-1.04280e-01,-2.90845e-01,-1.93080e-01,8.72475e-02,8.15398e-01,8.05041e-02,1.44671e-01,4.45991e-01,1.15801e+00,-6.82990e-02,2.76514e-02,-5.13508e-02,3.61649e-01,3.18283e-02,-3.47738e-02,1.00774e+00,5.92088e-01,-3.22913e-01,4.31517e-01,1.37869e-01,3.50074e-01,-1.68671e-02,2.22270e+00,
-1.22959e-01,3.21698e-01,-1.13197e-01,-8.03974e-02,1.66034e-02,-1.89747e-01,7.45374e-02,1.37487e-01,-1.85826e-01,1.87267e-01,6.10233e-01,2.86250e-02,1.25080e-01,4.23558e-02,3.93171e-01,-1.93917e-01,2.64395e-02,9.84870e-01,4.96760e-01,-3.18243e-02,-2.06764e-01,1.19287e-01,3.30159e-01,1.54918e-01,9.64690e-01,
-8.74262e-02,-1.61401e-01,-6.58146e-02,-2.04932e-01,-1.46283e-01,-5.57238e-03,4.70404e-01,4.32561e-03,-7.52968e-02,8.90505e-02,8.65821e-01,3.84955e-01,-2.01647e-01,-1.12331e-01,-3.23790e-01,3.18980e-02,2.54322e-01,7.19490e-01,3.15305e-01,-1.23911e-01,-2.19009e-01,1.34243e-01,2.99246e-01,3.08947e-01,1.38002e+00,
-1.35568e-01,2.60702e-01,-1.16305e-01,-5.73339e-02,2.24417e-02,4.33107e-01,2.84304e-02,9.23904e-02,-2.13496e-01,1.70949e-01,4.84493e-01,-7.39952e-02,1.71472e-01,4.35951e-02,-6.10484e-02,-2.38741e-01,1.23609e-01,9.39628e-01,4.09513e-01,-2.06537e-02,-1.14907e-01,1.30190e-01,1.83421e-01,-3.90978e-01,8.63197e-01,
-9.23996e-02,1.75829e-01,-7.18138e-02,-2.02388e-01,-1.21919e-01,6.93290e-02,4.49149e-01,-4.84385e-03,-7.46562e-02,1.26794e-01,8.17214e-01,1.55458e-01,2.62014e-02,-9.25669e-02,-2.76968e-01,2.88472e-02,1.12783e-01,6.13854e-01,2.21790e-01,-1.31947e-01,-1.33163e-02,1.35593e-01,-6.68033e-02,-9.22146e-02,1.04942e+00,
2.84996e-01,
1.69297e-01,
2.90015e-01,
1.17910e-01,
-1.69536e-02,
-3.33835e-01,
-2.48322e-01,
-3.15046e-01,
-2.68237e-01,
