// Neural Network File Format by Kyle Julian, Stanford 2016
6,4,9,25,
4,25,25,25,25,25,9,
0,
-8000.000000,-100.000000,-100.000000,0.000000
8000.000000,100.000000,100.000000,40.000000
0.000000,0.000000,0.000000,20.000000,-4.647677
16000.000000,200.000000,200.000000,40.000000,22.514692
1.83841e+00,4.35074e-01,-4.32413e-02,7.48652e-02,
3.02806e+00,-9.89387e-02,1.08544e-02,-9.00442e-01,
4.08203e+00,-5.59351e-01,6.81216e-01,-1.42836e-01,
-3.98143e+00,-7.48384e-02,5.68681e-02,-1.17461e-01,
2.60432e+00,-4.23669e-01,8.60098e-01,3.92907e-01,
-3.07599e-01,8.89690e-01,-9.23011e-01,4.36385e-02,
4.76919e+00,4.74996e-02,-1.20139e-01,-1.05266e-01,
3.16055e+00,-1.06441e-01,3.50720e-03,-9.63865e-01,
2.18487e+00,-9.92884e-02,2.35339e-02,-5.68367e-01,
1.35417e+00,9.19514e-03,7.10422e-03,-2.38733e-01,
1.98152e-01,-1.47006e-01,-7.40176e-01,1.69561e-02,
-3.80416e+00,2.27947e-01,-9.83493e-02,-6.50423e-01,
-1.09755e-02,1.63114e+00,-3.82374e-02,1.49592e-02,
-3.90935e+00,4.23479e-01,-2.68004e-01,3.02328e-01,
-5.52290e-01,-6.83024e-01,6.78817e-01,-9.47759e-03,
1.96586e+00,-3.02362e-01,8.05340e-01,-1.14885e-01,
-2.97570e+00,1.46482e-01,1.52877e-01,-4.65590e-02,
-4.13300e+00,3.22713e-01,-1.82326e-01,2.73053e-02,
-3.58828e-01,-6.70937e-02,9.47556e-02,4.49217e-01,
-2.38581e-01,-1.49835e+00,3.95695e-01,3.32965e-01,
1.09891e+00,6.20089e-02,-1.94417e-01,5.32248e-01,
2.39399e-01,1.05026e+00,1.51329e-02,-2.28104e-03,
2.18102e-01,1.86176e-01,-1.87418e-02,7.79121e-02,
-2.96597e+00,1.85567e-01,-7.04494e-02,-4.09781e-01,
-2.51609e+00,-4.67929e-02,2.51848e-01,-8.75744e-01,
2.65929e-01,
-1.52273e-01,
1.40218e-01,
7.44439e-02,
1.65181e-01,
-9.74057e-02,
9.03495e-03,
-4.50842e-01,
9.13617e-04,
1.74651e-01,
3.66424e-01,
-2.92997e-02,
-2.73833e-01,
1.15473e-03,
-1.27515e-01,
1.08193e-01,
-2.08360e-01,
2.90763e-01,
1.76318e-01,
-1.52001e-01,
2.02975e-01,
1.27007e-01,
-2.53987e-01,
9.65555e-02,
-2.02707e-01,
5.91422e-01,2.25673e-01,-2.87517e-03,1.64967e-01,-2.73922e-01,-3.24634e-01,-2.02105e-01,4.36297e-01,-9.82504e-01,9.15592e-01,-3.20240e-01,-5.74303e-01,-1.21623e+00,1.22502e+00,-8.52882e-01,5.70078e-01,2.43699e-01,-8.73382e-01,1.11797e-01,-8.14574e-01,-2.20505e-01,8.93942e-01,4.60861e-02,-3.51779e-01,3.78815e-01,
9.93446e-02,-4.74937e-01,3.13711e-01,-1.89252e-01,1.43747e-01,4.93987e-02,-7.32026e-02,-3.33361e-01,-4.55820e-01,-3.71801e-02,1.01106e-01,3.52404e-02,-2.95112e-01,-1.50081e+00,3.60281e-01,2.36430e-01,2.15486e+00,2.31292e-01,1.83343e-01,3.77216e-01,4.30583e-01,9.52761e-02,-2.46207e-01,-3.99916e-01,-3.36670e-01,
3.35945e-02,3.89345e-01,-1.43822e-01,9.24714e-01,-1.12583e+00,-1.44153e-02,-1.33007e+00,-1.20899e+00,1.11957e+00,-3.13811e-01,1.72779e-01,-2.26871e-01,4.79270e-01,4.48168e-01,2.25651e-01,8.26247e-01,1.59193e-01,-3.11967e-01,7.21868e-02,-1.63718e-01,-3.25948e-01,-9.74658e-02,3.22816e-01,-4.88525e-01,6.50231e-01,
-1.98276e-01,1.27663e-01,8.66028e-02,3.45080e-02,-7.36649e-02,-6.65983e-01,-5.06789e-01,9.18417e-01,3.18195e-01,-3.92508e-02,-9.76841e-02,4.41166e-01,-1.08251e+00,-1.34472e-01,-7.00180e-01,8.31922e-03,6.99158e-01,-2.54604e-01,-4.09146e-02,-7.00312e-02,5.17210e-01,1.72432e+00,-2.39806e-01,-3.28627e-01,-5.53725e-02,
-1.88750e-02,-6.89851e-01,-7.43709e-01,7.86473e-01,-3.86597e-01,-2.71122e-01,1.70865e-01,1.03427e-01,-1.55775e-01,3.64683e-01,5.60424e-01,3.74724e-01,2.08586e-01,-3.68221e-01,-1.32842e+00,-2.67164e-01,2.08298e-01,-1.19458e-01,7.18644e-02,-5.03683e-01,7.15531e-01,2.02792e-01,5.68417e-02,5.68154e-01,2.03843e-01,
-1.04586e+00,-5.18225e-01,-3.97248e-02,3.76240e-01,-8.20543e-01,-1.32405e-01,6.66925e-02,-7.11464e-01,-2.70366e-01,3.80736e-01,8.50203e-01,4.97711e-01,-2.44514e+00,-7.83784e-01,2.72603e-03,-9.32110e-01,5.73828e-01,-2.30880e-01,4.89457e-01,-3.59143e-01,8.36995e-01,1.83087e-01,-2.29843e-01,9.47737e-01,4.06140e-01,
-3.06983e-01,1.85289e-01,3.27195e-01,-5.76009e-02,6.94117e-02,1.00100e-01,-1.69933e-01,8.44499e-01,2.97622e-01,-1.12927e-01,-1.31093e-01,-4.55775e-01,2.36412e-01,-2.83211e-01,-2.57692e-01,1.27288e-01,1.85986e-01,3.09129e-01,1.44513e-01,-1.67582e-01,-2.90463e-01,-7.81692e-01,1.79107e-01,-1.68806e-01,-1.85013e-01,
-2.95120e-01,9.35956e-02,-3.64777e-01,3.73162e-01,-8.34393e-02,1.90158e+00,-5.96846e-01,4.31256e-01,-4.52155e-02,5.80889e-01,-1.13066e+00,-1.68036e-01,-5.20498e-01,-2.09417e-01,-2.41996e-02,-4.61698e-01,-2.62575e-01,3.07680e-01,4.50792e-01,-5.30805e-01,-1.14852e-01,-1.10328e-01,2.54949e-01,9.26615e-02,-2.11092e-02,
1.32274e-01,-1.97540e-02,8.24066e-02,-2.07767e+00,6.18130e-02,-2.10604e-02,-9.60359e-01,1.55728e+00,1.65963e-02,1.35533e+00,8.03992e-02,-6.06302e-02,-1.74577e-02,-5.01745e-02,5.46631e-02,-7.86013e-02,8.25707e-01,-6.16631e-01,-1.61138e-02,-6.79085e-02,6.24895e-02,6.83571e-02,1.09494e-01,-1.31239e-01,2.04174e-02,
-2.87360e-01,-2.43729e-01,5.70400e-01,-8.48717e-01,-1.81052e-01,-4.35656e-01,-3.31693e-01,-1.60793e-01,1.62413e-02,-8.68102e-02,-1.77715e-01,-8.72277e-01,-2.22731e-01,4.32248e-01,6.14416e-01,5.89340e-01,-1.40252e-01,1.66828e+00,-1.28851e-01,-4.98223e-01,-2.05392e-01,4.83764e-01,-2.45462e-01,-1.35387e-02,5.42809e-02,
3.11838e-02,4.48727e-01,-8.99086e-02,7.06858e-01,-3.76225e-01,-1.84164e-01,1.23781e-01,-1.64591e-01,3.73354e-02,7.19245e-01,-5.28297e-01,-5.38285e-01,2.80955e-02,-6.66007e-01,4.06057e-01,-2.84015e-01,8.43850e-01,-1.63121e-01,-1.51318e+00,1.73894e-01,5.82861e-01,-5.51509e-02,-3.16592e-01,1.07444e-01,6.18220e-01,
7.98271e-01,-4.78502e-02,-7.82121e-01,2.56343e-01,-4.89067e-01,-3.76591e-01,1.67024e-01,-2.92089e-01,-4.89552e-01,1.76215e-01,-4.22686e-01,5.35850e-01,-2.28127e-02,-6.97494e-01,-1.00325e+00,-2.15401e-01,2.02719e+00,4.46371e-01,-4.88128e-01,2.28596e-01,4.68385e-01,-6.59364e-02,5.59106e-03,-5.62817e-01,3.49061e-01,
4.59423e-01,-3.85855e-01,2.90231e-01,1.03779e+00,-4.47768e-02,4.41230e-01,7.38834e-01,-3.36580e-01,-5.10160e-02,-4.38095e-02,-1.08124e-01,-1.50669e-01,-1.05084e+00,-4.14603e-01,2.34575e-02,-1.54116e-01,1.89731e-01,-5.01438e-01,2.59130e-01,-8.34984e-02,5.71859e-02,1.36028e+00,1.31689e-01,-1.95237e-01,-2.09708e-01,
8.01571e-01,-4.09107e-02,7.16892e-01,1.03305e+00,-5.89654e-01,-8.76029e-01,1.67186e+00,4.29045e-01,3.90908e-01,1.48611e-01,3.31424e-01,-4.47360e-01,1.19798e-01,1.80684e-01,5.86112e-01,3.31059e-01,-3.05559e+00,-1.29550e+00,4.02917e-01,-3.84456e-01,4.01263e-01,1.21935e-01,-1.41253e-01,-2.97000e-02,-1.36238e-02,
-1.46643e-01,-6.37128e-01,-3.01695e-01,7.48898e-01,1.90661e-01,4.39977e-01,-7.22552e-01,2.67804e+00,2.31497e-01,2.85896e-01,-1.83639e-02,-1.11570e-01,-2.22466e-01,-1.05838e+00,8.90858e-02,4.06936e-02,3.10958e-01,8.52556e-02,1.07885e+00,-2.26610e-01,1.09794e-01,1.97546e-01,-1.00084e-01,-5.38377e-01,2.41259e-01,
-4.72375e-01,-3.83514e-01,-6.59584e-02,1.98797e-01,-1.04813e-01,-1.22038e+00,-3.39834e-01,-2.32908e-01,-2.24824e-01,-1.31097e-01,1.59424e+00,4.61468e-01,2.28216e-01,-2.41907e-01,3.19447e-01,-1.78332e-02,5.69379e-02,1.86485e-02,-5.95701e-01,2.12729e-01,2.42604e-01,8.19637e-01,8.68243e-03,4.13576e-01,-2.98284e-01,
2.20836e-01,-1.21938e-01,-1.68348e-01,-1.44709e-01,2.87398e-01,-2.91296e-01,-2.93032e-02,1.68892e-01,-2.73363e-01,-1.16740e-01,2.74776e-01,-1.32081e-01,2.35738e-01,-1.57648e-01,-2.22180e-01,-9.76785e-02,2.90489e-01,4.64253e-02,1.75034e-02,1.14727e-01,-2.80193e-01,-1.13013e-01,3.41578e-02,2.30328e-02,-2.70503e-01,
4.99379e-02,-1.96933e-02,-8.90496e-02,4.79208e-01,1.47026e-01,1.27058e+00,8.40789e-01,1.31198e+00,3.89424e-01,1.87707e-01,4.88330e-01,1.04076e-01,4.03238e-01,-1.05241e+00,-3.34411e-01,-8.69252e-01,3.02917e-01,-9.09459e-02,4.41940e-01,-3.47835e-01,4.25063e-03,-1.04768e-01,1.04539e-01,8.43096e-01,1.19496e-01,
2.33205e-01,1.52038e-01,-1.28990e-01,-3.64042e-01,1.87494e-01,1.44751e-01,-4.43628e-02,2.26840e-01,-3.45353e-01,-3.85044e-01,-2.01764e-02,-9.33779e-01,1.18746e-01,9.26361e-01,4.51165e-01,-2.11713e-01,-6.66709e-01,2.29938e-01,1.53822e-01,-2.23871e-02,-2.62526e-01,-9.28076e-02,-2.66939e-04,-2.22708e-01,1.76221e-01,
-7.73274e-02,6.82867e-01,-3.87450e-01,-8.33388e-02,8.88996e-01,8.22625e-01,1.64246e-01,2.54335e-01,6.04532e-01,2.39466e-01,-9.51438e-01,-1.70107e-01,-1.17282e-01,5.34980e-01,-8.81649e-01,3.83485e-01,2.12890e-01,-4.76602e-01,-5.19584e-01,-4.62488e-02,-4.32033e-01,-8.77676e-02,2.93211e-01,-1.05279e-01,-5.67608e-01,
-1.56081e-01,-9.93569e-01,-9.20537e-01,9.07803e-01,-5.72608e-01,9.92543e-02,-3.99638e-01,-5.42828e-01,-8.07407e-01,4.59180e-02,9.60724e-01,1.06511e+00,7.19596e-01,-7.77071e-01,-4.66502e-01,-6.01790e-01,-2.07062e-01,-3.42959e-01,-6.92128e-01,3.42247e-01,1.06284e+00,-6.38811e-02,1.51149e-01,8.78350e-01,6.93759e-01,
-1.09462e+00,-5.89677e-01,-1.35669e-01,1.17315e-01,-2.60694e-01,-1.17933e+00,7.91169e-01,6.64291e-01,-3.88368e-01,-2.08357e-01,1.07330e+00,2.25469e-02,-7.13465e-01,5.28687e-01,8.24654e-01,3.61721e-01,-7.50793e-01,-5.56779e-01,1.54875e-01,1.53338e+00,-4.30267e-01,1.93251e+00,1.98983e-01,1.69334e-01,5.38198e-01,
-3.53734e-01,1.02364e+00,-1.93852e-01,-5.03577e-01,-7.94243e-01,9.97549e-02,9.27259e-01,-1.10953e+00,4.26100e-01,-7.20374e-01,-4.59226e-02,2.73382e-02,2.70054e-01,5.55486e-01,-1.65179e+00,-4.04065e-01,-3.40703e+00,2.28598e-01,1.51465e+00,6.06198e-02,-7.12695e-02,-6.34001e-01,2.27738e-01,1.90702e+00,1.01334e-01,
-8.44333e-01,3.13493e-02,9.92894e-01,3.02023e-01,-6.53295e-02,-1.77898e-01,-1.61576e+00,1.16526e+00,1.04547e+00,-6.10015e-01,9.63297e-02,4.35198e-01,-2.62567e-01,-5.74281e-02,1.36216e-01,-6.62229e-02,-1.73803e+00,1.01671e+00,-1.73257e+00,-7.44080e-02,1.67617e+00,3.77224e-01,-1.26366e-01,3.86163e-01,4.51722e-01,
-5.95197e-01,7.52232e-01,1.97823e+00,-6.56508e-02,-6.87711e-01,-2.72304e-01,-1.61509e-01,4.64300e-01,1.10627e-01,-5.16963e-01,2.75436e-01,-2.23195e-01,-1.67161e-01,6.94803e-01,-3.37158e-01,-6.68540e-02,-1.59528e+00,-4.29972e-01,4.02862e-02,3.75603e-01,-3.70371e-01,1.03236e+00,3.18000e-01,-7.17852e-02,-2.56101e-01,
-8.51161e-02,
2.03879e-01,
1.97004e-01,
2.91697e-01,
-2.47574e-01,
6.00537e-02,
5.03769e-01,
-5.15456e-02,
6.10338e-01,
2.56360e-01,
4.72885e-01,
4.55062e-01,
-1.15609e-01,
-1.73677e-01,
9.61732e-02,
-1.54316e-01,
-2.56505e-01,
-4.82690e-02,
4.46133e-01,
6.11501e-01,
-1.10218e-01,
-1.43331e-01,
-3.01643e-01,
-5.10012e-01,
-1.41714e-01,
4.47583e-01,5.41283e-01,4.34835e-01,5.05622e-01,2.47843e-01,1.41799e-01,-3.92157e-01,-1.31531e+00,-4.15481e-01,-8.26299e-02,-2.66879e-01,6.93308e-02,-6.20060e-01,-3.82303e-01,-8.74934e-01,4.90240e-02,7.62444e-02,9.02294e-01,2.69085e-01,-8.25696e-01,2.75505e-01,-2.67256e-01,-2.36730e-01,1.91815e-01,-9.61049e-01,
3.97346e-01,-3.69266e-02,-1.66428e-01,3.81375e-01,6.33713e-01,-4.46694e-01,3.61786e-01,3.76060e-03,2.14823e-01,-1.06784e-01,-9.74743e-03,-6.88345e-01,-1.57682e-01,2.82364e-01,4.17986e-01,-5.93257e-01,-4.85550e-02,-1.31358e-01,-6.78413e-01,3.56450e-01,-3.09170e-01,2.31258e-01,1.04156e+00,-8.66445e-01,5.25313e-01,
7.47954e-03,7.05790e-02,-1.50672e-02,-8.35445e-01,6.18083e-01,-1.58103e-01,2.03254e-02,-4.07959e-01,4.04034e-01,-4.64507e-02,1.90509e-01,4.32210e-01,6.68145e-01,-2.26102e-01,6.05536e-02,2.83279e-02,-4.40178e-02,-4.82913e-02,5.33529e-01,-2.18015e-01,-6.34374e-02,-1.28587e-01,4.67488e-01,3.98287e-01,2.42140e-01,
-2.15957e-01,-1.82346e-01,1.46824e-01,1.17237e-01,1.35406e+00,-1.26315e-01,1.13796e+00,-1.45816e+00,1.99499e-01,-5.66725e-01,-4.13204e-01,-2.32091e-01,7.96974e-01,-4.10121e-01,-1.36524e-01,6.73200e-02,-2.03486e-01,-3.83968e-01,4.12031e-01,1.34542e-01,1.23991e-01,2.73193e-01,-2.93202e-01,-1.18842e+00,7.23069e-02,
-3.20516e+00,6.95947e-01,1.09450e-01,1.49240e-01,5.31996e-01,-1.69478e-01,-8.37652e-02,-1.43944e-01,-3.11040e-01,-2.90416e-01,-5.05852e-01,5.91821e-01,-1.14974e+00,-2.28267e+00,5.11841e-01,-1.15675e-01,3.25266e-01,3.76712e-01,6.30538e-01,7.50392e-01,2.70049e-01,-2.61359e-01,-1.99680e-02,-3.97907e-02,2.24502e+00,
-4.90727e-01,2.31445e-01,1.05441e+00,2.70915e-02,-2.21251e-01,-2.27590e-02,1.19526e-01,-6.18009e+00,3.96573e-01,-2.98516e-01,-3.20241e-01,9.30775e-02,3.93173e-01,2.74072e-01,1.89323e-01,5.27816e-01,3.32174e-01,-2.55851e-01,-1.32013e+00,3.29421e-01,-5.42112e-01,-1.12877e-01,-2.95635e-01,-4.02555e-01,3.55277e-01,
-1.05323e+00,-7.23472e-01,8.11994e-01,1.96108e-01,-2.13258e-01,-2.96370e-02,-3.67678e-01,2.05446e+00,-5.49296e-01,-5.67864e-01,8.42728e-01,-3.00448e-01,6.04382e-02,-5.92919e-01,6.44202e-01,-1.30814e-01,-2.87051e-01,-4.98335e-01,-3.04828e-01,1.03413e-03,-3.90651e-01,-7.16449e-02,5.11643e-01,4.90687e-01,3.25549e-01,
-9.18439e-01,-2.26320e-01,-1.55154e-01,5.93710e-02,6.14912e-01,-1.78693e-01,-2.06205e-02,2.99703e-01,-6.71016e-02,1.60151e-01,3.43396e-01,-1.14232e-01,1.07487e+00,-4.77701e-01,-5.44463e-01,1.98693e-01,1.60591e-01,-2.54089e-01,2.61263e-01,-6.55228e-01,-5.34709e-01,7.56110e-02,5.63384e-01,4.44801e-01,7.92912e-01,
1.95340e-01,3.88302e-01,-6.40753e-01,1.69569e-01,2.07171e-01,6.14661e-02,2.78121e-01,2.07427e-01,-1.69238e-01,-1.73083e-01,-1.00004e-01,-2.55112e-01,-6.47647e-01,6.05867e-01,7.31580e-02,-2.85278e-01,-8.96766e-02,-1.13928e-01,-1.60490e-01,1.04665e-01,1.42387e-01,-5.47361e-02,-1.24808e-01,-5.33481e-01,-1.18807e-01,
1.33395e+00,3.75469e-01,6.91519e-02,-5.41316e-01,9.56212e-01,-2.88474e-02,4.02559e-01,-5.23561e-01,-3.22574e+01,-4.79744e-01,-1.98689e-02,2.31830e-01,-2.73639e-01,1.18815e+00,-3.08193e-01,-9.54435e-02,-1.45854e-01,3.34212e-01,1.94429e-01,-2.27796e-01,-6.52464e-01,1.53891e-01,6.65809e-03,1.50296e-01,-6.45376e-01,
-3.49299e-01,2.54544e-01,2.26522e-01,4.64218e-02,6.32015e-02,-1.42356e-01,-3.00538e-01,-3.04319e-01,-2.97082e-02,5.06657e-01,-1.97011e-01,-1.18889e-01,-1.18980e-01,-1.71177e-01,-2.02935e-01,1.08898e-01,-3.06248e-01,3.59367e-01,9.67368e-01,-4.35287e-01,7.31663e-01,1.98032e-01,-6.34252e-02,8.66075e-02,5.66964e-01,
1.01612e-01,5.33213e-01,-5.40108e-01,9.55655e-02,2.98413e-01,1.52857e-01,8.70477e-02,3.11923e-01,-9.40012e-02,1.60582e-01,-3.54427e-01,1.57590e-01,1.66769e-01,1.32167e-01,2.02253e-01,-3.02131e-01,2.69536e-02,-2.99927e-01,7.10447e-01,-5.87024e-02,-9.97542e-02,-1.32931e-02,-1.34598e-01,5.13025e-02,2.58082e-01,
-2.40638e-01,-3.32600e-01,2.76033e-01,-3.70062e-01,3.49306e-02,-1.30189e-01,-4.93525e-02,-2.63955e-01,-1.96021e-01,3.96877e-02,7.47041e-02,-5.66291e-02,-3.00081e-01,-8.96007e-02,-1.54816e-01,-2.14096e-01,-1.22704e-01,4.69383e-02,-2.90096e-02,8.63943e-02,1.29865e-01,4.24371e-02,-9.18971e-02,-8.11002e-02,1.30053e-01,
3.61238e-02,-5.96046e-03,1.73962e-01,5.88165e-01,-2.33754e-01,6.99514e-01,4.93383e-01,-4.20608e-01,-4.12153e-01,3.75292e-02,3.86592e-01,-1.79074e-01,8.02320e-01,-3.76901e-01,-5.63444e-02,-3.06084e-01,2.39243e-01,2.16318e-01,-2.79417e-01,1.01690e-01,3.05355e-01,-4.85260e-03,-6.70878e-01,1.59302e-01,-2.16084e-01,
3.23010e-02,-2.57022e-01,3.49560e-01,3.48078e-01,1.47214e-01,-3.61649e-01,-9.38907e-01,1.23775e-01,4.54947e-02,-3.59748e-01,1.87650e-02,-8.69788e-03,8.50284e-01,6.01736e-01,-1.24277e-01,-1.01883e-01,1.23773e-01,-2.97981e-02,-5.60446e-02,1.99867e-01,-2.39350e-02,1.27602e-01,2.27792e-01,-2.26990e-02,3.93416e-02,
-5.06284e-01,-5.17690e-01,-1.20852e-01,-6.81041e-02,2.16710e-01,-1.51920e+00,-4.72061e-01,-5.56269e-01,8.45226e-01,-1.71650e-01,2.38278e-02,2.38141e-01,1.58899e+00,-3.55743e-01,2.23697e-01,-2.72268e-01,2.55616e-01,-4.65481e-01,8.90420e-02,2.10090e-01,4.67458e-01,4.68891e-01,1.02617e+00,3.92758e-01,2.14121e-01,
-6.03873e-03,-2.51818e-01,6.54731e-01,3.90820e-01,-4.19609e-01,2.54529e-02,-4.35515e-01,-4.98889e-01,-2.62436e-01,-2.92024e-01,1.60264e-01,1.89721e-01,-6.69232e-01,-1.93764e-01,-3.85140e-01,9.82263e-01,2.11621e-01,7.87575e-01,2.76862e-01,-5.15932e-01,-7.28995e-02,-3.48453e-01,3.56675e-02,-9.71476e-02,-1.24113e+00,
-1.90260e-01,1.95718e-01,4.08608e-01,-1.22796e-01,-1.46309e-01,-8.18057e-02,3.60530e-01,4.79436e-01,-3.12767e-01,-3.08530e-01,8.61602e-02,-5.20335e-02,2.16795e-01,6.66645e-01,-6.78580e-02,-1.96752e-01,-1.59116e-01,1.13582e-01,6.03225e-01,4.94296e-01,2.93915e-01,2.75785e-01,-4.07561e-01,-3.53180e-01,-3.19847e-01,
-6.60104e-01,-6.98916e-01,4.03048e-01,-9.93091e-03,-3.27085e-01,1.90728e-02,2.35612e-01,-2.47365e-02,-2.43210e-01,2.85340e-01,5.23332e-01,-2.13105e-01,1.40268e+00,-1.00549e+00,-7.79321e-01,7.01674e-01,1.53326e-02,-4.05240e-01,1.36106e-01,-7.07176e-01,6.52127e-01,-6.48262e-01,-3.03937e-01,7.54586e-01,-8.29223e-01,
4.23356e-01,1.50571e-01,-7.38671e-02,-7.51773e-01,1.86781e-02,1.50163e-01,-1.00672e+00,7.36221e-01,1.29423e-02,-1.16019e+00,-4.67319e-02,1.19675e-01,5.25813e-01,1.57387e+00,-1.02331e-01,-6.74042e-01,-1.60108e-01,3.17158e-02,1.48857e-01,4.61556e-01,-2.77002e-01,8.10287e-02,-4.15754e-01,-3.29518e-01,-3.61852e-02,
-3.42862e-01,-4.06815e-01,2.35668e-01,-7.12271e-01,-7.76946e-01,6.77424e-02,-2.68035e+00,-1.33329e+00,-5.03886e-01,7.26029e-01,1.91577e-04,-4.21092e-02,-2.58584e-01,4.29013e-01,1.03157e+00,1.47976e+00,-1.07479e-01,1.32598e-01,-2.48163e-01,5.92673e-01,1.03200e-02,-1.00975e+00,-5.83187e-01,5.38466e-01,-8.56790e+00,
-7.50139e-01,7.05404e-01,5.60390e-02,1.62002e-02,7.28091e-01,-2.85612e-01,1.33963e-01,1.26847e+00,-1.16342e-01,-5.14774e-01,-5.88317e-02,-3.06794e-01,7.40056e-01,-5.90157e-01,3.39820e-01,1.19036e+00,3.68270e-02,-1.01460e-01,1.86067e-01,-9.05379e-02,-3.20437e-01,6.69663e-01,-1.26645e-01,-1.05193e-01,1.75654e+00,
4.04313e-01,-7.46484e-02,-6.74724e-02,7.50787e-02,-2.50608e-01,1.01116e+00,-2.17331e-01,-2.57603e-01,2.11696e-02,-1.42756e-01,8.35079e-02,-5.94064e-01,1.10094e-01,1.49554e-01,3.51721e-01,-8.79176e-02,-1.50353e-01,-1.39361e-01,-5.38391e-01,6.15351e-02,-6.25759e-01,2.68433e-01,-3.36387e-01,-1.12146e-01,2.90705e-01,
-6.42083e-02,-1.80727e-01,1.88242e-01,4.56570e-01,-7.98156e-01,-5.69937e-01,2.93117e-01,1.43597e-01,1.38937e-02,3.13194e-01,4.68819e-01,-2.14745e-01,-3.38615e-04,-2.96417e-02,1.80993e-01,3.48860e-01,-1.59361e-01,4.71545e-01,-7.60359e-01,1.61539e-01,-4.90062e-01,2.16969e-01,3.83567e-01,-6.71028e-01,3.59600e-01,
6.59237e-01,1.54983e-01,-4.28967e-01,-1.57539e-01,-3.87243e-01,3.22229e-01,3.80823e-01,-1.00057e+00,-1.30200e-01,4.72018e-01,-9.09807e-01,5.60048e-01,3.26194e-01,1.30171e-01,-6.81282e-01,-3.77743e-01,-1.94285e-01,1.09661e-01,7.74553e-01,-8.44195e-02,-1.80003e-02,2.42269e-01,-5.07639e-01,1.69249e+00,8.26983e-01,
-4.65565e-02,
1.75029e-01,
-2.16181e-01,
-4.13047e-01,
-1.03791e+00,
-5.24118e-01,
-1.13198e-01,
3.36361e-01,
2.99107e-01,
5.29738e-01,
-1.36359e-01,
6.86047e-01,
-3.78639e-01,
2.35561e-02,
6.62112e-02,
-6.16209e-01,
1.39049e-01,
-8.37194e-02,
-2.45093e-01,
-6.12891e-01,
-4.43169e-01,
-2.38148e-01,
6.76371e-01,
-1.43048e-02,
-9.65209e-01,
-5.16587e-01,-1.49904e-01,1.86904e-01,2.42051e-01,3.17942e-01,2.59886e-01,-1.80791e-01,2.73242e-03,4.82844e-01,3.11349e-01,-1.30610e-01,-2.26772e-01,2.36274e-01,4.40035e-01,7.98161e-01,-1.69469e-01,4.36041e-01,-1.12642e-01,-1.49839e-01,-3.36928e-01,-3.81065e-01,1.23692e-01,-7.09678e-01,-3.50260e-02,-2.65872e-02,
-2.70109e-01,2.81068e-01,5.27425e-01,-2.57477e-01,-3.79927e-01,-1.55738e-01,1.57061e-01,-6.42238e-01,-1.23631e+00,6.01092e-01,-2.28019e-01,2.56977e-01,-1.27539e-01,-2.42612e-01,1.10959e+00,-1.43483e+00,1.36552e-01,1.38985e-01,4.26358e-01,-4.90053e-01,-8.09791e-02,1.01594e-01,3.72235e-01,-7.19685e-02,1.44731e-01,
5.87849e-01,-1.92122e-01,-4.47596e-01,1.25499e-01,-1.19911e-01,4.62410e-01,-1.02847e+00,-3.60110e-01,-8.73882e-01,-1.03623e-01,-2.85258e-01,6.23604e-01,2.00272e-01,-1.78004e-01,-2.64575e-01,-9.47030e-02,-5.46048e-02,1.93048e-01,5.27577e-01,7.86311e-02,-6.66441e-01,1.74974e-01,1.05540e-02,5.10115e-01,-2.42580e-01,
8.23404e-01,3.99393e-01,-3.74127e-02,1.08638e-01,-2.12597e-01,8.87152e-02,-4.12338e-01,1.94706e-01,-2.87605e-01,-5.17404e-01,-5.79600e-01,-2.72017e-01,-6.56106e-02,-5.78019e-02,6.46922e-02,3.04519e-01,-8.49766e-01,2.28784e-01,-1.39453e-01,-1.63362e-01,7.02805e-01,2.16011e-01,2.58399e-01,-2.94117e-01,-1.58798e-01,
5.03620e-02,-2.89015e-01,-2.03716e-01,-3.25201e-01,1.74806e-01,-7.36637e-02,-3.43904e-01,-5.17784e-02,2.51055e-01,1.56867e-01,-3.20819e-01,-2.34134e-01,-2.59131e-02,5.65909e-02,-2.40920e-01,2.97443e-01,-1.98823e-01,-2.76666e-01,-2.70288e-01,2.69050e-01,-1.32003e-01,7.00638e-02,-9.41328e-02,1.63813e-01,1.28913e-01,
-5.82103e-02,1.43881e-01,-1.37537e-01,2.94357e-02,1.75892e-01,-6.74125e-02,-4.08137e-01,2.10964e-01,-4.49742e-01,4.50783e-02,3.04931e-02,1.64299e-01,1.53601e-01,3.60713e-01,-4.94702e-01,-1.86615e-01,-1.43676e-03,-1.38656e-01,-2.50529e-01,3.55280e-01,-3.71855e-02,4.54367e-03,-3.15227e-01,1.00258e-01,1.10228e-01,
2.19374e-01,9.69943e-02,4.89764e-01,1.34866e+00,-2.21339e+00,-3.43172e-01,9.83079e-01,-4.95906e-02,-1.47473e-01,6.96657e-01,-5.89714e-01,3.55354e-01,1.87955e-02,1.67395e-01,5.70844e-01,4.49324e-02,1.00966e-01,1.03695e+00,2.28514e-01,-6.70714e-01,-1.12054e+01,5.28624e-02,2.29884e-01,1.16460e-01,-3.11648e-01,
-5.90403e-01,2.60899e-01,2.69534e-01,2.93544e-01,6.46591e-02,2.84833e-03,-2.10914e-02,2.31655e-01,3.63755e-02,-1.01746e-01,-3.17316e-01,-3.06136e-02,1.43643e-01,1.87513e-01,1.35354e+00,-1.27448e+00,4.15401e-01,2.03957e-01,1.12712e-01,-7.50403e-01,-2.01572e-01,7.03603e-02,-4.08791e-01,-4.81340e-01,4.72273e-01,
-8.95938e-01,5.00824e-01,2.85282e-01,-6.05076e-01,-2.32101e-01,1.07874e-01,-4.77756e-02,-1.26133e-01,-1.78602e-01,1.35022e+00,-4.41364e-02,-9.74141e-02,1.24894e-01,2.85515e-01,5.69440e-02,-5.93140e-01,5.76182e-01,2.43436e-01,-5.62432e-02,-4.32470e-02,-9.63279e-02,2.66170e-01,-4.28006e-01,-5.21308e-01,3.17867e-01,
-9.56081e-01,1.59963e-01,1.55732e-01,4.79260e-01,3.75296e-01,-9.60511e-01,5.03614e-03,-1.91890e-01,2.73573e-01,3.34285e-02,4.42879e-01,-1.66381e-01,-2.98113e-01,4.90002e-01,-5.24650e-02,2.78675e-01,8.57198e-01,-3.35760e-01,-1.11193e-01,1.75394e-01,6.52893e-02,-2.10728e-01,1.60311e-01,-6.28477e-01,-1.56518e-02,
-9.43676e-01,-2.26910e-01,4.84200e-01,-2.80171e+00,-2.22778e-01,-9.38866e-03,2.64038e-01,6.78889e-02,5.78946e-01,7.71491e-01,5.88232e-01,-3.17052e-01,-3.13422e-01,1.10202e-01,7.66736e-02,5.94039e-01,1.10740e+00,-1.03502e-01,-4.85931e-01,-5.06357e-02,-3.55186e-01,9.41372e-01,7.37427e-01,-1.77892e-01,5.86298e-02,
-2.53272e-01,2.14522e-01,2.55673e-01,3.84640e-01,-2.01742e-03,-1.85046e-01,8.17816e-02,1.02562e-01,-5.33742e-01,3.89761e-01,8.27286e-02,5.08485e-01,-2.24082e-01,3.46490e-01,1.26100e+00,-9.44011e-01,2.11488e-01,-5.15496e-01,-5.51216e-02,-3.43565e-01,2.99799e-03,1.65652e-01,-1.58066e-01,1.47683e-01,1.22482e-01,
1.96922e-01,-1.07628e+00,2.68518e-01,-1.23842e-01,2.08065e-01,-5.77736e-01,8.98670e-01,-1.40528e-01,-1.31664e-01,4.09961e-01,-7.80453e-01,6.41706e-01,3.89306e-02,4.33708e-01,-6.18306e-01,4.28812e-01,1.78171e-01,2.55322e-01,-7.16509e-01,2.56046e-01,1.23889e+00,2.13586e-01,1.75280e-01,4.16486e-01,1.16139e-02,
-7.12548e-01,-1.34357e+00,1.65864e-02,-1.60103e-02,-3.50748e-01,-1.02114e+00,1.53689e-01,1.31839e-01,-3.99694e+00,-1.39707e+00,3.80299e-01,-1.98400e-01,-3.15363e-02,-2.66047e-01,1.27094e+00,-1.42159e-01,5.39533e-01,-1.15282e+00,-3.95634e-01,-3.24578e-01,1.25429e+00,-1.26083e-01,-3.80573e+00,7.09385e-01,1.02276e+00,
-3.58672e-01,-5.71578e-01,5.42225e-01,-8.98477e-02,-8.33242e-02,-6.91883e-01,-1.51725e-01,2.38173e-03,3.50038e-01,-3.97502e-01,-2.03754e-01,-2.44166e-02,1.62381e-01,6.32231e-02,1.09376e-01,-1.65469e-01,6.71674e-01,4.91040e-02,-5.29600e-02,-1.99255e-02,-1.41050e-01,-6.70034e-02,5.61459e-01,2.48875e-01,8.08307e-02,
-3.32477e-01,-6.88754e-02,-2.88264e-01,-9.49719e-02,4.30525e-01,-2.11930e-01,2.50745e-01,1.44603e-01,-3.10933e-01,1.23332e-02,-7.25214e-02,-5.07208e-01,7.86513e-02,1.32548e-01,-5.86990e-02,3.55507e-03,1.80860e-01,1.84204e-02,-1.54257e-01,3.93701e-02,-5.02499e-02,-3.32118e-02,2.14299e-01,-1.83474e-01,1.51239e-01,
-2.10415e-01,1.22868e-01,3.75424e-01,-3.10278e-01,-5.49971e-02,8.96734e-02,-2.91384e-01,-3.43950e-02,-2.95902e-01,-2.37059e-01,3.66617e-02,1.91012e-01,-4.94034e-02,1.91304e-01,6.30190e-01,-1.36875e+00,1.45730e-04,-3.91132e-01,-8.57837e-02,-1.32412e-01,-1.91807e-01,1.36913e-01,-4.19183e-02,1.26563e-02,-7.32081e-02,
1.82886e-01,1.31454e-01,2.61598e-02,7.33022e-01,3.28404e-01,1.70383e-01,6.17092e-02,2.11140e-01,-1.49451e-02,-8.32079e-01,1.49733e-02,1.47730e-01,-2.23007e-01,3.11553e-01,-3.72814e-01,1.01349e-02,-7.09381e-02,-1.20832e-01,1.32378e-01,1.35849e-01,-7.18255e-01,-8.39951e-02,-5.02848e-02,-1.44305e-01,-1.95286e-02,
3.37505e-02,2.02172e-03,1.48395e-01,-2.06019e-01,2.71615e-01,-2.78127e-01,1.64892e-01,-8.26905e-02,3.36739e-01,-4.43224e-02,-2.86736e-01,-2.92891e-01,-2.68071e-01,-1.63821e-01,-2.12805e-01,1.24241e-01,-1.93159e-01,-5.70674e-02,-3.03395e-01,-1.47514e-01,1.50478e-01,8.31812e-02,-8.52761e-02,-6.87453e-02,2.20222e-01,
9.00558e-01,-1.85756e-02,-1.58609e-02,-2.64049e-01,-3.39467e-01,1.94697e-01,4.27852e-01,-1.27506e-01,4.07962e-01,1.82600e-01,1.90030e-01,-1.21460e-01,1.58279e-01,-5.57210e-01,1.09847e-01,3.74524e-01,-8.76478e-01,2.68075e-01,4.68749e-01,-3.43757e-01,-3.38241e-01,5.82184e-02,8.39684e-01,-1.22289e-01,-3.08011e-01,
-5.69386e-01,-6.26858e-01,5.03935e-02,1.39560e-01,7.72382e-01,-8.06506e-02,-3.76352e-01,1.32397e-01,-1.18725e-01,-2.35155e-02,-3.46451e-01,-5.88877e-01,5.58949e-02,2.39407e-01,-1.40307e-01,6.11111e-03,7.16905e-02,-2.58214e-01,-2.99198e-01,1.19769e-01,-1.96634e-02,8.06695e-04,3.19711e-02,3.63239e-01,3.47836e-01,
-1.70888e-01,2.71493e-02,8.19056e-02,-7.04954e-02,-2.74644e-01,5.09687e-02,2.54601e-01,-3.58218e-01,-3.57514e-01,1.93053e-01,-3.62133e-01,2.13209e-01,-2.14395e-01,-7.12937e-02,-2.82106e-01,-7.81846e-02,-4.04757e-01,-1.66485e-01,2.07761e-01,-2.58830e-01,-2.04472e-01,-2.39751e-01,1.48245e-01,2.82528e-02,6.12148e-02,
-2.54463e-01,3.99183e-01,1.15414e-01,-1.37132e+00,-1.23006e-01,-2.13249e-01,3.40812e-01,2.26632e-01,3.19747e-01,3.03943e-02,2.19096e-01,-4.97259e-02,-2.75224e-01,1.13647e-01,1.05151e-01,-4.88165e-01,4.77121e-01,-1.40692e-01,-3.79048e-01,1.69480e-01,3.15020e-01,2.10733e-01,-6.45200e-02,-3.22069e-01,2.50738e-01,
-7.41454e-01,2.64579e-01,3.62343e-01,4.42975e-01,1.57296e-01,-9.12171e-01,-7.59611e-03,-1.48829e-01,7.06395e-01,1.91665e-01,4.91939e-01,-3.35741e-02,-2.09388e-01,5.34219e-01,2.38787e-01,7.61927e-02,4.68373e-01,-3.53832e-01,-2.25859e-02,4.78313e-02,6.75558e-03,-6.08704e-02,-7.36661e-01,-1.70018e-01,-3.66723e-01,
3.16099e-01,-7.86622e-01,-1.14577e-01,-5.23961e-01,4.10239e-01,-1.07688e+00,2.17838e-01,-2.81059e-02,5.84788e-01,-5.29308e-02,-8.04935e-01,3.71952e-01,-7.98144e-02,4.31486e-01,-4.35500e-01,6.36073e-01,5.64574e-02,-5.86318e-01,-3.19932e-01,4.68728e-01,3.23523e-01,2.96115e-01,-8.76354e-01,1.67686e-01,-1.56209e+00,
4.41633e-01,
-4.17729e-02,
-1.50783e-01,
4.13724e-01,
-2.76241e-01,
2.90388e-01,
-1.54395e+00,
2.70618e-01,
3.06487e-01,
9.98729e-02,
-8.12629e-01,
-7.56276e-01,
-6.33735e-01,
-1.68795e-01,
-8.88798e-02,
9.45671e-01,
1.19295e-01,
1.89278e-01,
-2.91057e-01,
6.43416e-02,
1.10967e+00,
-3.85303e-01,
-1.81995e-01,
-1.62560e-01,
2.64958e-01,
-3.21589e-01,2.03444e-01,-2.07033e-01,-2.33358e-01,-1.27903e-02,2.12685e-01,7.90654e-02,-3.42473e-01,-9.47917e-02,-1.16493e-02,-4.62418e-01,-9.35881e-02,-2.51222e-02,2.35803e-01,-1.52238e-01,-2.89045e-01,-6.46502e-02,-1.46599e-01,-1.58994e-01,-1.11561e-01,8.42229e-02,-1.40329e-01,-1.01508e-01,-3.11478e-02,2.22864e-01,
-9.10310e-02,-1.48226e-01,1.23501e-01,4.95114e-02,3.23631e-01,1.71904e-01,-9.92137e-02,8.02033e-02,7.26736e-02,-9.42893e-02,-5.05589e-02,-9.86740e-02,1.56143e-01,-2.08743e-01,-5.57242e-02,4.48900e-02,9.64543e-02,-9.32536e-02,-2.62675e-01,7.07786e-02,-3.70769e-02,2.16828e-01,-1.77832e-02,3.01652e-01,5.88538e-02,
1.55195e-01,-5.80710e-02,6.32040e-02,1.43261e-01,3.04662e-01,1.94002e-01,-1.79493e-02,9.58241e-02,1.11473e-01,-1.70325e-01,-8.59662e-03,-1.48276e-01,3.28446e-01,4.65556e-01,-9.42702e-02,4.65681e-02,6.07817e-02,1.46869e-02,2.64537e-01,-7.05213e-03,-1.07572e-01,2.05625e-02,-1.78050e-01,2.53650e-01,-1.18194e-01,
8.52386e-02,-1.03392e-02,-1.52884e-01,-1.14961e-01,-2.22928e-01,2.16132e-01,4.62103e-02,-7.55815e-02,2.04282e-01,1.57860e-01,6.47145e-03,1.59061e-03,5.92598e-03,1.64781e-01,-8.17410e-03,2.58293e-01,1.21025e-01,-1.48319e-01,1.83552e-01,1.86245e-01,3.91545e-01,1.97262e-01,-1.02674e-01,-4.50155e-02,-8.53146e-02,
7.29396e-02,-2.16790e-01,1.04278e-01,-2.00355e-01,-1.45676e-01,-1.47346e-01,-3.95271e-01,-4.92641e-01,-1.94049e-01,-6.54114e-01,-8.14572e-01,1.04921e+00,-1.08139e-01,-3.59181e-01,5.20470e-01,-2.91048e-01,-3.31770e-01,-5.51064e-01,2.78424e-01,-2.16136e-01,3.94897e-01,-2.15279e-01,-4.87894e-01,-1.31228e+00,3.53581e-01,
1.82640e-01,6.26499e-02,7.92763e-02,-1.61062e-01,-1.08397e-01,3.52500e-01,2.81768e-01,1.46055e-01,-6.00440e-02,-9.55232e-02,3.76707e-03,1.78259e-01,-1.79777e-01,2.62097e-01,1.10035e-01,-6.61544e-02,-2.33966e-01,-3.47097e-01,1.19338e-01,2.67742e-01,-6.77417e-02,7.42304e-02,2.30504e-02,9.25537e-02,9.52332e-02,
4.45057e-02,9.04651e-02,-1.43325e-01,-2.57137e-02,-1.56109e-01,2.24462e-02,2.70722e-01,-2.31661e-01,5.56807e-02,1.34048e-01,-1.01589e-01,-1.19744e-01,2.98440e-01,4.13850e-01,-4.92757e-01,9.09785e-02,-3.26684e-01,2.47392e-01,1.86446e-01,-3.67900e-02,-9.76052e-02,2.52433e-01,-3.79275e-01,-2.09724e-01,-3.12092e-01,
-3.75175e-01,1.25511e-02,1.87010e-01,-1.65871e-01,-6.24880e-03,-1.77198e-01,2.61755e-01,-3.18793e-01,6.30308e-02,1.78663e-01,-1.48114e-01,-3.03614e-02,8.46692e-02,-5.29977e-02,-2.73671e-02,-3.26741e-01,3.41356e-02,-2.34247e-01,-3.22827e-01,-1.68281e-01,1.03659e-01,2.21101e-01,-3.72906e-01,-7.89188e-02,-2.93882e-01,
-5.38471e-01,5.53247e-01,-6.14573e-02,-3.79190e-01,-5.39299e-02,-6.30473e-03,-1.48554e-01,-2.60989e-01,1.69333e-01,1.01213e-01,-1.28710e-02,-1.58334e-01,-1.47608e-01,-9.89196e-01,3.88512e-01,-3.52749e-03,9.52914e-02,2.07980e-01,-2.64607e-01,1.07650e-01,1.04867e-02,2.31250e-01,-3.94875e-02,3.45561e-03,8.17432e-02,
-2.57910e-02,1.66619e-01,-1.09930e-01,-1.60188e-01,1.92379e-01,-1.09692e-01,-3.39060e-02,-1.57580e-01,9.59667e-02,-1.74162e-01,-5.90012e-02,1.27360e-01,-1.08506e-01,-1.53254e-01,-7.51648e-03,2.89939e-01,-6.46838e-02,-4.13058e-02,7.59862e-02,2.35849e-02,3.02888e-01,-1.82945e-01,-8.41581e-02,2.07739e-01,-4.16211e-03,
3.49796e-01,1.20087e-01,-6.18313e-01,1.87373e-01,-4.90910e-02,-1.41999e-01,-8.67383e-03,-3.03993e-01,1.60173e-01,1.02401e-01,8.19231e-02,-1.23058e-01,-2.18285e-01,1.67321e-01,-1.96370e-02,-7.92004e-02,1.20309e-01,3.95859e-01,2.89642e-01,-7.96355e-02,6.35961e-01,1.29528e-01,-2.62707e-01,-7.42632e-01,-5.65657e-02,
3.27701e-01,1.93157e-01,-3.58258e-01,-1.06484e-01,-1.76744e-01,1.89131e-01,1.66053e-01,1.06245e-01,-2.41302e-01,-8.10027e-01,9.62750e-02,-7.13354e-01,-2.38461e-01,-1.99316e-01,-2.08522e-01,6.32347e-02,-8.56344e-02,-5.78369e-02,1.52401e-01,2.13554e-01,7.07254e-01,-1.66706e-01,6.12208e-02,3.56797e-01,-3.40772e-02,
7.80722e-02,-2.13622e-02,1.37667e-02,-3.45410e-01,6.25374e-02,1.16620e-01,1.15603e-01,8.79666e-02,5.44649e-02,-7.08152e-02,9.65518e-02,-6.99067e-02,1.07039e-01,7.75521e-03,2.91187e-01,-1.36613e-01,2.94148e-01,-2.58562e-02,-2.78294e-01,3.02412e-04,-1.68241e-01,1.02896e-02,-3.61136e-01,1.40481e-02,-1.44006e-01,
-1.05478e-02,1.64955e-02,-6.53042e-02,9.45226e-02,-7.88938e-02,1.73442e-01,-2.62464e-02,7.37574e-03,-4.88034e-02,-1.81709e-01,1.85441e-02,-4.31083e-02,-1.20726e-01,-9.85492e-02,1.65810e-01,3.20372e-01,1.87527e-02,-1.15587e-01,1.55577e-02,3.71103e-03,6.71187e-01,1.02722e-03,-1.39138e-01,5.24884e-02,9.63521e-03,
-1.91159e-01,-2.28544e-01,2.62583e-01,1.50622e-01,1.11481e-01,3.24292e-01,-1.09988e-01,3.04969e-01,-4.68127e-02,-1.68674e-01,-8.72991e-02,-4.77844e-02,2.05155e-01,-4.46139e-02,1.54757e-01,1.88011e-01,1.91291e-02,-4.04847e-01,-1.50056e-01,1.68017e-02,-1.11307e+00,1.81389e-01,1.68477e-02,4.44361e-01,1.35025e-01,
-7.83239e-02,2.26347e-03,-3.87685e-01,-1.40780e-01,3.23096e-02,1.03548e+00,1.86211e-02,2.22133e-02,3.22727e-01,9.56076e-02,-2.56997e+01,-5.30192e-01,1.46599e-02,-6.82671e+00,-5.41743e-02,-1.08796e-01,-4.66398e-01,-5.36970e-01,-1.70278e-01,2.20597e-01,-4.83330e-02,1.85002e-01,-2.34681e-01,-3.24631e-01,-1.35309e-02,
-2.07502e-02,4.20726e-01,-4.44959e-02,-2.83173e-01,-3.10348e-01,5.57398e-02,4.95614e-02,-2.98023e-02,3.47687e-02,1.58829e-01,-7.54838e-02,-2.45476e-01,1.12381e-01,-2.53592e-02,3.02032e-02,1.01935e-01,4.66450e-01,1.42366e-01,8.29399e-02,1.75221e-01,-5.30218e-02,1.43879e-01,9.06946e-02,-1.08115e-01,-9.21761e-02,
9.05843e-01,-3.70520e-01,3.72426e-02,1.41831e-01,8.20813e-02,2.23609e-01,-7.05518e+00,-1.78915e-01,-5.38260e-01,4.20335e-01,-2.26377e-02,-2.20574e-01,1.83829e-01,6.76700e-02,2.04527e-01,7.03344e-02,4.76618e-01,-7.03818e-02,2.41656e-01,-4.42786e-02,2.70848e-01,-1.77546e-01,4.52023e-01,-6.43836e-01,-8.16100e-01,
3.05935e-04,-3.06582e-01,-2.37012e-01,-4.97084e-01,-3.32705e-01,1.60012e+00,1.31194e-01,7.78764e-01,-2.46819e-01,1.11981e-01,-1.67391e-01,-8.62050e-02,1.88760e-01,-3.09687e-02,-1.54807e-01,-3.67870e-02,8.39516e-02,-8.34167e-01,-2.25036e-01,1.10380e+00,1.75913e-01,1.09538e-01,-1.63155e-01,-2.68548e-01,-1.10965e-01,
1.46508e-01,-4.23901e-01,1.57205e-01,-2.19669e-01,-1.60254e-01,-3.06938e-01,-3.10468e-01,-4.42752e-01,3.42791e-01,-6.89789e-01,-4.70374e-02,5.78426e-01,-1.69494e-01,-2.38566e-01,3.37622e-01,6.37786e-01,2.59305e-01,-1.39249e-01,2.11340e-01,-3.94103e-02,7.82940e-02,1.95850e-01,-2.58980e-01,4.57036e-01,-1.78364e-02,
-6.06170e-02,-1.05981e-01,-5.91650e-01,1.00295e-01,2.43517e-01,-2.85125e-01,2.11635e-01,-1.58861e-01,1.42192e-02,-1.35675e+00,-5.83495e-01,-7.66989e-02,-4.39712e-02,-2.53386e-01,-2.69872e-01,-1.39774e-01,5.38963e-01,-2.90600e-01,-1.30245e-01,-3.59061e-01,7.67855e-01,9.45142e-02,-3.61913e-01,-4.79641e-01,-3.95594e-02,
1.87486e-01,8.24127e-02,-2.70507e-02,-2.28433e-01,-1.80557e-01,-1.33707e-01,-2.49324e+01,1.06327e-01,-1.84169e-01,-4.61051e-02,7.08896e-02,1.14187e-01,1.16074e-01,9.36076e-01,-5.78467e-02,-2.31157e-02,-6.58395e-02,-2.29027e-01,-3.28030e-01,-1.39462e-01,-9.70174e-02,-2.17778e-01,-6.45949e-02,5.27959e-02,-2.25263e-01,
1.31907e-01,6.04963e-02,-6.93696e-02,-1.37583e-01,-3.06081e-01,-1.67898e-01,-1.66363e-03,-2.42781e-01,2.99381e-01,3.28295e-01,-3.29324e-02,2.56546e-02,9.63544e-03,3.28115e-01,-1.58641e-02,-2.18401e-01,1.59579e-01,-2.44871e-02,-1.21448e-01,8.05603e-02,2.07898e-01,4.41916e-02,-1.36823e-01,-3.72522e-01,3.53578e-02,
-3.02361e-01,-1.31784e-01,1.48174e-01,3.56604e-01,-1.43253e-01,-2.74212e-01,-1.58972e-01,-4.56500e-01,-2.85156e-01,-7.52699e-02,-9.47674e-03,1.30070e-02,-3.18134e-01,-3.17952e-01,-7.00245e-02,-3.54360e-01,-7.39997e-03,-8.82085e-02,-1.31205e-01,-3.17751e-01,-3.07024e-01,3.10324e-01,2.16039e-01,4.65158e-02,2.18915e-01,
-3.55528e-01,-2.57904e-02,1.79319e-01,-2.75251e-01,2.44330e-01,-2.07167e-01,-3.32554e-01,-3.47226e-01,-3.17143e-02,-2.77190e-01,-8.01339e-02,-1.50559e-01,2.02161e-01,-1.93640e-01,-9.70505e-02,1.55202e-01,-2.21476e-01,-2.41308e-01,2.64384e-01,-1.45124e-01,2.09077e-01,-5.33595e-02,-2.98741e-01,7.04397e-02,-7.67696e-02,
-2.15710e-02,
1.35692e-01,
-5.21174e-02,
-6.13720e-02,
1.98737e-01,
2.38165e-02,
-5.37668e-01,
-5.67153e-02,
-1.05576e-01,
1.54681e-01,
-1.29813e-01,
-1.54727e-01,
-9.93666e-02,
4.71140e-02,
-6.31007e-03,
-5.21123e-04,
-2.21729e-01,
-8.85936e-01,
-7.78086e-01,
-1.80887e-01,
5.17439e-01,
2.93745e-01,
5.01902e-02,
-4.40871e-01,
-2.58792e-01,
3.67718e-01,1.25363e-01,-3.06855e-02,-9.93007e-03,-9.70602e-02,4.25066e-02,-4.64986e-01,-1.79995e-01,1.12590e-02,7.85178e-03,-2.12020e-01,-3.65207e-02,3.17243e-02,-1.19851e-01,-5.59455e-02,-4.72114e-03,9.48317e-04,-1.68825e-01,2.67549e-02,1.28239e-02,-2.68359e-02,-1.58855e-03,-2.72641e-02,-4.96571e-01,-2.44025e-01,
5.22979e-01,2.82309e-02,-3.32002e-02,-7.20384e-02,6.27187e-02,-1.38660e-02,8.21532e-01,3.83654e-01,-2.11095e-02,-1.64754e-01,-1.73865e-01,9.93557e-02,5.37661e-02,-5.63267e-03,-5.40963e-02,-2.22862e-01,-3.77562e-03,-1.36242e-01,-2.05893e-02,-1.76031e-01,-6.77118e-02,9.31122e-04,-3.82923e-02,1.20140e-01,-3.15949e-01,
4.10006e-01,8.50022e-02,6.19803e-03,1.53834e-02,-4.23962e-02,-9.21423e-02,1.30108e+00,-3.94774e-01,7.74991e-02,-2.88014e-02,-1.20589e-01,-6.98794e-02,-1.67804e-02,-1.29371e-01,-2.68775e-02,3.29050e-03,-1.15613e-01,-1.14345e-01,5.01533e-02,-1.07983e-01,8.02512e-03,7.53664e-03,2.72440e-02,2.64354e-01,2.49038e-01,
-3.63258e-02,4.09574e-02,-3.27559e-02,-8.25172e-02,1.32101e-02,-1.61758e-02,4.20676e-01,-3.52898e-01,-3.20265e-02,-5.50698e-02,-1.28154e-01,-2.77887e-02,1.78131e-02,-6.15391e-02,-5.24716e-02,5.44572e-04,1.41528e-02,-1.13313e-01,-5.25577e-02,-1.24147e-01,4.46718e-03,6.82200e-03,-3.41697e-02,3.00770e-01,1.84187e-01,
1.56673e-01,1.20908e-01,-3.11579e-02,-3.21935e-02,-5.51846e-02,-6.69222e-02,1.00781e+00,-4.05645e-01,-3.91251e-03,-6.14449e-03,-1.25502e-01,-7.10696e-02,-2.41271e-02,-1.03779e-01,-3.74647e-02,-3.99043e-03,1.62142e-02,-8.73572e-02,-2.56394e-02,-1.20926e-01,-1.46204e-02,9.42789e-02,3.95008e-02,4.98019e-01,3.52592e-01,
-1.30307e-01,2.75127e-02,-1.31563e-02,-1.51531e-01,7.00232e-02,-1.35516e-02,5.90377e-01,-3.26422e-02,-1.87730e-02,6.43478e-03,-1.42637e-01,-2.04239e-02,9.21820e-03,-4.10827e-02,-5.71725e-02,9.84662e-02,1.53162e-02,-1.15289e-01,-1.16458e-01,-1.17653e-01,5.87915e-02,1.62498e-04,-2.38483e-02,8.12233e-01,-6.96260e-03,
4.91065e-01,1.24043e-01,-5.53942e-02,-1.91314e-02,-3.79680e-02,-6.63461e-02,7.36822e-01,-9.66068e-02,-7.99245e-03,5.24089e-03,-1.12274e-01,-9.20745e-02,-1.16534e-02,-1.15195e-01,-4.29601e-02,-1.16706e-02,6.34585e-03,-9.92571e-02,1.75549e-03,-1.10771e-01,-6.63057e-03,3.92776e-02,2.86810e-02,2.20191e-01,-1.91169e-01,
4.87910e-01,4.87941e-02,-3.28969e-02,-9.06549e-02,1.39806e-02,-1.23367e-02,3.64363e-01,3.43201e-01,-3.26800e-02,-3.37128e-02,-1.51877e-01,-8.70784e-03,2.15717e-02,-6.55673e-02,-5.01137e-02,3.30980e-02,1.60293e-02,-1.18567e-01,-3.65488e-02,-1.14418e-01,4.97306e-03,6.84934e-03,-2.85222e-02,3.11023e-01,2.18865e-01,
2.55157e-02,8.46945e-02,-9.71069e-02,1.69519e-02,-4.69181e-02,-7.86354e-02,8.91027e-02,-2.44222e-01,-8.65013e-02,-2.93999e-03,-7.12639e-02,-1.63437e-01,2.94196e-02,-9.34643e-02,-8.43708e-03,-1.28624e-02,8.34662e-02,-3.39863e-02,-3.57335e-02,-1.28384e-01,-5.26690e-02,-4.26177e-03,5.42696e-02,1.07397e-01,-3.56600e-01,
1.72703e-01,
2.09027e-01,
1.86879e-01,
-2.42858e-01,
1.73970e-01,
2.09335e-01,
-2.71337e-01,
-2.46796e-01,
1.80152e-01,
