// Neural Network File Format by Kyle Julian, Stanford 2016
6,4,9,25,
4,25,25,25,25,25,9,
0,
-8000.000000,-100.000000,-100.000000,0.000000
8000.000000,100.000000,100.000000,40.000000
0.000000,0.000000,0.000000,20.000000,-4.647677
16000.000000,200.000000,200.000000,40.000000,22.514692
4.08642e+00,2.14005e-02,-5.85724e-02,-6.90347e-02,
3.22695e+00,-3.23865e-01,3.57233e-01,-2.50411e-01,
2.93023e+00,5.83784e-01,2.44742e-01,1.83549e-01,
6.43339e-01,2.09197e-02,2.74643e-02,1.13892e-01,
-8.04282e-01,-8.74671e-01,-1.36206e-01,-5.11341e-03,
-2.88252e+00,-4.81992e-02,1.74134e-01,-8.05134e-01,
3.45573e+00,-8.24690e-02,1.16742e-01,-2.97054e-01,
1.97428e+00,-3.33616e-01,5.07235e-01,4.29595e-01,
-1.24383e+00,1.05724e+00,8.47508e-02,2.46090e-02,
-1.50828e+00,8.54868e-01,-3.22150e-01,-2.56872e-03,
-4.79329e-01,7.28481e-01,1.65474e-02,1.84472e-01,
8.22615e-02,-2.67595e-03,2.36056e-03,7.61695e-01,
-4.78721e-01,-6.93556e-02,1.72110e-02,3.97080e-01,
3.40719e+00,1.53611e-01,-1.47894e-01,-5.48307e-01,
-1.45316e+00,2.88890e-01,-5.48255e-01,2.67731e-01,
-2.69316e-01,-9.30899e-01,8.78336e-01,-4.90903e-03,
-1.75826e-01,8.57109e-02,-2.44687e-01,-4.49081e-02,
-1.26065e+00,3.03463e-01,-1.08250e-01,4.03814e-01,
1.95494e+00,-3.91618e-01,5.32739e-01,8.39923e-02,
1.78696e-01,-5.90285e-02,5.87081e-02,5.79589e-01,
4.99487e+00,2.15244e-01,-2.66915e-01,6.85285e-02,
-3.34685e+00,1.18827e-01,9.67957e-03,-6.33355e-01,
1.06124e+00,-2.19235e-01,-5.56545e-02,-4.87228e-01,
-4.05520e+00,-1.82294e-01,2.32970e-01,-6.28122e-02,
-1.07189e-01,-1.16189e+00,1.00231e-01,-3.73828e-02,
2.31626e-01,
-7.61284e-02,
-8.44500e-02,
6.47173e-02,
2.25730e-01,
-2.70195e-01,
6.30768e-02,
2.01941e-01,
6.64128e-02,
3.75381e-01,
2.13678e-01,
3.70732e-01,
-3.75914e-02,
-1.11381e-01,
2.38040e-01,
-1.45876e-01,
-3.36108e-01,
-6.39240e-02,
1.83873e-01,
8.06731e-02,
-2.30131e-01,
-4.58855e-02,
-4.03137e-02,
2.23277e-01,
1.55626e-01,
4.06767e-02,-6.79688e-01,-1.45568e-01,1.03696e+00,-1.03939e+00,9.12588e-01,-1.47605e-01,-5.82124e-01,6.32455e-01,3.51955e-01,-2.61833e-01,-1.20186e-01,-7.08429e-01,-1.04322e-01,3.70427e-01,-2.52106e-01,2.32248e-01,8.59916e-01,-1.00977e+00,3.17393e-01,2.80920e-01,2.81258e-01,-3.50622e-01,-4.86062e-01,1.11336e+00,
6.11592e-01,-5.33003e-01,-1.22392e+00,6.16444e-01,2.81753e-01,1.33734e-01,-3.96535e-01,-2.03398e-01,1.49170e+00,-3.27309e-01,-2.31044e-01,-1.49315e-02,-2.40127e-01,-9.84641e-01,1.41091e-01,-1.79876e-01,1.55449e-01,2.58568e-01,2.91017e-01,-1.65073e-01,3.38563e-01,-6.43760e-02,9.27888e-02,-2.10611e-01,-5.07382e-01,
-4.07157e-02,8.62918e-02,-5.27615e-02,2.78480e-01,7.22143e-01,1.84138e-01,2.40539e-01,-4.91369e-01,-4.31047e-01,-5.10448e-01,8.60986e-01,-2.91553e-01,-2.89457e-01,-6.77678e-01,-1.42394e-01,-4.66097e-01,1.82113e-01,8.55324e-02,1.07079e-01,1.78076e-01,8.74502e-01,2.67238e-02,1.25073e-01,3.10634e-01,-7.05328e-01,
6.11343e-02,3.52673e-01,1.92362e-01,1.61259e-01,2.06121e-01,-8.82675e-01,8.23997e-02,7.14717e-01,-1.11992e-01,1.80087e-01,7.44337e-02,7.61329e-01,-6.29430e-01,2.87292e-01,1.51692e-01,-8.04424e-02,-1.63616e-01,-4.18782e-01,-1.40321e-01,-7.28475e-01,-9.66686e-01,-4.66480e-01,-2.66111e-01,3.90396e-01,-9.27825e-02,
-9.70703e-02,-2.20432e-01,3.65459e-01,-1.58186e-01,-2.48300e-02,6.08508e-01,-5.11718e-01,-5.17848e-01,-4.69534e-01,8.00214e-01,1.63500e-01,-1.25443e-02,-6.11762e-01,-1.18056e+00,6.86705e-01,3.61714e-02,6.98133e-02,-7.48064e-02,-9.27027e-01,4.57968e-01,8.67402e-01,8.64724e-01,-1.26659e-01,-4.79886e-01,3.32445e-01,
1.20500e+00,5.35648e-01,-2.11315e-01,-2.99276e-01,8.00196e-02,4.13659e-01,1.62171e-01,5.58008e-01,2.58924e-01,-6.24596e-01,1.38225e-01,3.54882e-01,-8.73906e-02,2.09741e-02,-3.04228e-01,-2.83804e-01,3.13137e-01,1.41083e-02,1.71238e-01,-2.96961e-01,-8.20434e-01,-2.01986e-02,1.07557e-02,-1.02656e-02,-3.05719e-01,
-3.75772e-02,-1.26331e+00,1.66761e-01,1.23537e-01,1.38709e-01,-4.68730e-01,-3.23651e-01,-7.86137e-01,-3.80934e-01,4.33563e-01,-1.28606e-01,9.08432e-02,1.06294e+00,-4.51526e-01,5.08036e-01,-5.83609e-01,2.46016e-01,-3.01768e-01,-6.05740e-01,-5.13588e-01,6.81314e-01,2.01517e-01,-5.24913e-01,-3.14648e-01,5.18719e-01,
4.37425e-01,-3.55166e-01,-1.41080e-01,-5.81054e-02,2.64487e-01,-5.33185e-01,4.36971e-01,6.60655e-02,-3.09680e-01,-6.11035e-01,6.27948e-01,5.90124e-01,-4.40858e-01,7.54175e-01,-6.41069e-01,-3.37593e-01,1.67082e-01,1.74955e-01,4.22978e-01,7.96078e-02,1.72358e+00,6.67419e-02,-4.66856e-02,5.29315e-01,-2.11695e-01,
1.59488e-01,2.87545e-01,7.01439e-02,2.64624e-01,3.12714e-01,-7.52948e-01,7.22237e-01,-3.23682e-01,-2.01423e-01,1.19321e-01,3.38740e-01,-7.10800e-01,8.11863e-01,5.36515e-01,-1.55864e-01,-2.70994e-01,3.85696e-02,9.67194e-01,7.50127e-01,6.25681e-01,-5.61378e-01,4.16871e-01,5.35863e-01,-6.99168e-01,-2.17549e-01,
1.01552e-01,-5.23861e-01,-1.53605e-01,-8.32719e-01,2.54382e-01,-9.29172e-01,3.13447e-01,8.81058e-01,-4.09071e-02,2.64738e-01,-3.91144e-01,-6.74928e-01,-1.05830e-01,-2.11822e-01,1.03867e-01,-5.19518e-01,1.08884e-01,6.11467e-01,-4.56386e-01,1.98834e-01,1.96595e-01,1.04515e+00,-8.88704e-02,-3.38721e-01,-1.67519e-02,
-6.37196e-02,-5.09230e-01,9.47520e-02,-9.52909e-03,-8.06661e-01,-2.66405e-01,9.62095e-01,2.06183e-01,-7.82547e-01,7.57912e-01,5.12034e-01,-1.03521e-01,1.26333e-02,2.63290e-01,-3.09752e-02,1.84461e-01,-1.87764e-01,-4.55933e-02,5.28170e-01,-1.24808e-01,4.77192e-01,-5.70116e-02,1.02980e-01,2.17891e-01,5.11638e-01,
5.39974e-01,9.42542e-01,-1.64657e-01,2.67175e-01,4.48764e-01,-1.03774e+00,5.77751e-01,-1.86656e-01,3.60353e-02,-3.94717e-01,1.53961e-02,5.65425e-01,-2.33022e-01,3.30402e-01,-3.39474e-01,2.96199e-01,-1.31151e-01,4.46886e-02,5.16114e-01,-1.58988e-01,1.32601e+00,-1.31511e-01,2.37332e-01,5.38511e-01,-7.58891e-01,
-1.83485e-01,1.53623e-01,5.49076e-01,-2.66388e-01,3.29655e-01,-7.57229e-01,7.14356e-01,-1.27495e-01,-2.94983e-01,-3.23908e-01,6.22878e-02,1.30934e-01,2.31928e-01,-6.06721e-01,-1.42912e-01,6.31762e-01,-3.37359e-01,-1.23884e-01,-6.47639e-01,-4.59611e-02,-2.38324e-01,4.05288e-01,5.86233e-01,-4.49629e-01,-9.55351e-01,
-3.63428e-01,3.71846e-01,-4.53491e-01,-4.38020e-01,-1.76123e-01,1.30599e-01,-1.16205e+00,4.37739e-01,1.81144e-02,-8.64672e-02,4.31035e-01,-5.82825e-01,-5.92984e-01,-4.38343e-01,2.23322e-01,1.04221e-01,-2.75795e-01,3.70404e-01,-2.71743e-01,4.05134e-01,8.15292e-01,3.14464e-01,5.14838e-03,8.88227e-01,1.67385e-01,
-4.04164e+00,-3.04172e-01,-1.57617e-01,-3.82381e-01,-1.64801e-02,2.36729e-01,-5.92496e-01,-1.26598e-01,-6.16016e-02,2.08712e-01,-5.24181e-02,-2.13503e-01,-2.48443e-02,-8.26838e-02,7.30362e-01,-1.93365e-01,6.64048e-02,-8.39674e-02,-1.42270e-01,-8.84094e-02,4.55460e-02,1.22101e-01,1.70302e-01,1.19134e+00,4.32160e-02,
-6.37400e-01,1.51244e-01,-3.26289e-01,5.08639e-01,-1.45157e-01,8.46070e-01,3.91012e-01,-4.22034e-05,4.02464e-01,3.19857e-01,4.19160e-02,1.31525e-01,-3.88614e-01,1.55589e-01,3.21285e-01,-6.31012e-01,4.89516e-02,-2.73032e-01,-4.13898e-02,1.98733e-01,-3.49409e-02,-1.48024e-01,-1.08557e-01,5.38958e-01,-2.10014e-02,
6.45333e-01,4.26103e-01,2.09662e-03,-3.09410e-01,-1.76439e-01,-5.88323e-01,5.78814e-02,8.73763e-02,8.40022e-01,-4.58599e-01,1.15450e-01,-6.88325e-01,2.81041e-01,-1.65193e-02,-1.84915e-01,-4.06225e-01,2.67349e-02,-5.44831e-01,2.17414e-01,8.76264e-01,-5.42531e-01,1.15414e-01,-1.28857e-01,3.43745e-01,5.23940e-01,
4.60004e-01,-4.02887e-01,7.38975e-01,2.23064e-01,6.24155e-02,-1.68735e-01,-1.59980e-01,-4.35249e-01,-3.01971e-01,-8.57103e-02,-2.98699e-01,-2.24582e-01,-2.83021e-01,5.02245e-01,3.80579e-01,1.26504e-01,-1.17252e-01,2.36871e-01,-5.20587e-01,1.37207e-01,1.99055e-01,1.90850e-01,-3.27074e-01,2.16370e-02,-3.24123e-02,
-4.15974e-02,7.39144e-01,-4.63102e-01,-9.60593e-03,5.06392e-01,8.46127e-01,-6.13124e-02,1.00352e-01,3.56533e-01,-9.30324e-01,7.04103e-01,6.89898e-01,-2.34994e-01,5.23821e-01,4.89062e-01,4.26967e-02,6.32255e-02,-3.72076e-02,8.16998e-02,-7.16947e-01,-2.76593e-01,-4.27334e-01,-3.18635e-01,-3.07083e-01,-2.51256e-01,
-6.38113e-01,1.14090e-01,1.50487e-01,9.46207e-02,-5.28151e-01,-5.08952e-01,4.63020e-01,2.83874e-01,2.06049e-02,-3.45067e-01,1.48226e-01,5.87497e-03,3.76232e-02,1.37741e-01,-3.96854e-01,9.32703e-01,-1.94051e-01,5.61970e-02,-1.62032e-01,-1.49887e-01,1.24643e+00,-7.60804e-01,5.30635e-01,7.61610e-01,2.60247e-01,
-5.75307e-01,-5.60108e-01,1.51008e+00,2.29653e-01,-6.19033e-02,2.86634e-01,-8.64034e-02,-6.38001e-01,-1.33952e+00,2.76426e-01,2.13268e-01,-3.59320e-01,2.33222e-01,2.46080e-01,3.02598e-01,8.44933e-01,1.52256e-01,-3.35060e-01,-8.27315e-03,8.09056e-01,-1.29319e+00,4.10788e-01,2.08092e-01,-2.86459e-01,2.68140e-01,
-6.42663e-02,2.52342e-04,-8.18838e-02,-1.63272e-01,7.72542e-02,-3.73074e-01,-6.55573e-01,4.19214e-01,-7.50662e-02,-3.41207e-01,7.24798e-02,8.22586e-02,-1.68445e-01,4.50808e-01,1.00769e-01,8.49017e-02,-2.63478e-01,2.10045e-01,-6.63177e-01,-5.02912e-01,2.76052e-01,-1.59163e-03,-2.70600e-01,1.01622e+00,-5.36563e-01,
9.97612e-02,-7.46326e-01,9.71980e-02,3.99047e-01,8.77000e-01,9.56983e-01,-5.17270e-01,-8.02641e-01,-1.11672e-01,6.36952e-01,-6.31945e-01,1.07404e-01,-5.99256e-02,-5.68254e-01,8.05280e-01,-3.42064e-01,8.11844e-02,-2.53143e-01,-7.32888e-02,3.35091e-02,9.95613e-01,8.26927e-01,-5.36892e-01,-2.91832e-01,-2.61159e-01,
5.90032e-01,-1.13577e+00,2.05795e-01,-3.75365e-01,8.76413e-01,-2.54486e-01,-2.72816e-01,1.48444e-01,-4.94209e-02,-6.97527e-01,-4.11253e-01,1.92231e-01,-5.53842e-01,-2.29467e-02,-1.34190e-02,2.43794e-01,3.02209e-01,1.87441e-01,2.61048e-01,-1.79508e-01,5.25311e-01,-3.23405e-01,5.93089e-01,8.36360e-01,-1.33779e+00,
-3.89967e-01,-8.52560e-01,-1.84374e+00,-2.95772e-01,-2.06541e-03,-7.22069e-02,2.66869e-01,3.83668e-01,7.46498e-01,5.30022e-01,6.75060e-01,-3.77777e-01,3.38514e-01,7.63502e-02,-1.09266e-01,-1.64182e-01,-1.64124e-01,-1.63428e-01,-8.86880e-02,-1.43305e-01,5.65811e-01,1.78727e-02,2.31138e-01,-2.75015e-01,-8.74863e-02,
-3.88560e-01,
3.27178e-01,
3.73275e-01,
-6.87049e-02,
-8.41764e-02,
1.11936e-01,
2.38919e-01,
-1.32990e-01,
-3.06792e-01,
2.36176e-01,
-2.92636e-01,
-4.66336e-01,
5.54154e-01,
2.21727e-01,
-3.89059e-01,
1.25274e-01,
8.11868e-02,
3.76168e-01,
2.08921e-02,
3.23772e-01,
3.66609e-01,
4.05821e-01,
-1.91125e-01,
2.72463e-02,
-1.76112e-01,
-5.17726e-01,4.22232e-01,-7.64057e-01,1.25080e-01,4.41168e-01,-2.44704e-01,-7.06198e-01,2.16313e-02,5.71046e-02,3.46633e-01,-4.14320e-01,1.44734e-01,-4.58780e-01,-6.49665e-01,4.36657e-01,1.63766e-01,2.41445e-01,6.38440e-02,-1.48261e-01,2.51968e-01,3.11663e-01,9.00888e-02,1.28786e-01,2.20834e-01,1.58286e-04,
3.28167e-01,4.64733e-01,-1.38452e-01,-2.04521e-01,-2.75676e-01,4.70716e-01,2.26366e-01,1.79704e-01,2.48187e-02,2.20585e-01,-2.07740e-01,1.96216e-02,-5.01113e-01,1.81273e-01,3.67809e-01,-3.40929e-01,-3.83022e-01,-1.85288e-01,-3.27802e-01,2.47395e-01,1.49905e-01,4.48011e-02,7.61741e-01,-6.58029e-01,4.28048e-01,
-7.92935e-01,-4.20729e-01,-2.21290e-01,-2.81092e-01,6.39499e-01,2.71100e-01,1.89895e-01,-1.93961e-01,-1.85659e-01,-3.72207e-01,-9.20684e-02,2.38920e-01,2.50263e-01,1.93831e-01,-2.60638e-01,5.82962e-01,8.64379e-02,5.83905e-01,1.54235e-02,-2.00990e-01,1.27343e-01,-3.33026e-01,8.74492e-02,8.10691e-02,1.35954e+00,
5.28823e-01,-3.01052e-01,-6.78083e-02,-2.53055e-01,-2.24717e-01,-3.54401e-02,-8.46723e-02,1.76157e-01,6.26737e-01,6.46712e-01,2.10408e-01,-3.15454e-01,2.07251e-01,-7.19268e-01,-9.94289e-01,-2.95277e-01,5.95135e-01,-1.51196e-01,-1.86750e-01,-1.42252e-01,1.28146e-01,-3.03869e-01,2.63027e-01,-3.64580e-02,1.34799e-01,
-2.88849e-01,1.90702e-01,2.82604e-01,7.22203e-01,4.60035e-01,-1.25770e-01,2.92154e-01,1.99766e-01,-1.70663e-01,-2.79559e-01,-4.17912e-02,7.09390e-02,-3.07114e-01,1.79270e-01,2.41969e-01,-1.47612e-01,-1.10083e-01,-4.17761e-01,-2.08783e-01,-2.34922e-01,4.58389e-02,6.15950e-02,-1.89127e-01,-7.22031e-02,-8.43357e-02,
-8.11964e-02,-1.85302e+00,-1.63395e-02,-3.13283e-02,-2.05329e+00,-1.06889e+00,1.27598e-01,1.13476e-01,-7.79286e-01,2.05904e-01,-1.00949e-01,-5.93641e-02,-5.95934e-01,-1.28502e-02,-1.00672e+00,4.17736e-01,-6.72358e-01,2.40718e-01,2.03584e-01,2.90593e-01,9.60926e-01,5.75914e-01,-1.49918e-01,3.61868e-01,-3.95981e-01,
-7.12346e-01,-5.23632e-02,2.16675e-01,-2.71700e-03,6.29530e-01,3.35097e-01,3.83202e-01,-6.83959e-01,-5.61680e-01,-2.48255e-01,1.78549e-01,8.31012e-01,2.40112e-01,5.53051e-01,5.00603e-02,-1.93412e-02,4.31494e-01,4.66433e-01,7.32413e-02,-7.26410e-01,3.59231e-01,-1.23311e-01,-9.93590e-01,6.52957e-02,7.63186e-01,
7.53194e-01,1.42064e-02,-5.85818e-02,-1.59215e-01,4.35907e-01,-8.01828e-03,4.50254e-01,5.63925e-01,-1.87184e-01,-1.81593e-01,-5.70385e-01,-7.19408e-01,4.67995e-01,1.45302e-01,1.50233e-01,-1.36567e-01,2.42031e-01,3.86442e-01,-2.42096e-02,3.87440e-01,3.48416e-01,-1.00792e-01,7.88944e-02,9.17640e-02,-3.71569e-01,
9.62681e-01,-2.09305e-02,-1.21596e-01,2.51771e-01,-1.13498e+00,3.13532e-01,1.26566e-01,2.35271e-01,-2.11274e-02,5.18705e-01,-7.28039e-01,6.30733e-02,2.66555e-02,9.00545e-02,-7.05965e-01,-1.10405e-02,-4.39263e-01,-3.00133e-01,3.43377e-02,1.46610e-01,-8.78296e-02,-2.12435e-01,7.45067e-01,-5.27878e-01,-3.04568e-01,
-4.51546e-01,2.73336e-01,4.55555e-01,-4.67436e-01,-3.36159e-01,2.39936e-01,-1.21484e-01,2.14904e-01,-7.35111e-02,2.64726e-01,-7.28201e-02,-6.32945e-01,-2.13174e-01,-5.56276e-02,8.22727e-03,4.90674e-02,2.89512e-02,4.80866e-01,-1.94181e-01,3.58122e-01,-2.78529e-01,-2.88907e-01,-1.75996e-01,1.09211e-01,1.62878e-01,
2.01337e-01,3.12295e-01,-1.18284e-01,3.47351e-01,-6.36935e-01,-9.96652e-01,-2.91539e-01,1.17056e-01,-6.80981e-01,6.74356e-01,-1.53573e-01,-9.40858e-02,-1.80361e-01,-2.27115e-02,-3.00670e-01,6.81055e-01,5.92372e-01,3.09112e-01,-3.51060e-01,-1.88235e-01,4.35071e-01,-1.69870e-01,6.04402e-01,-7.00889e-02,-7.09474e-01,
-1.96294e-01,4.30788e-01,1.75788e-02,3.67770e-01,3.84984e-01,1.87816e-01,-1.78989e-01,2.93703e-01,-1.01268e+00,-2.36132e-01,3.93501e-02,-4.04296e-01,2.62112e-01,3.17997e-02,-4.35732e-01,4.38970e-02,-2.23293e-01,-1.12217e-01,6.01356e-02,4.60788e-01,4.65144e-01,-2.01886e-01,5.69044e-01,-2.27486e-01,2.76174e-02,
-6.17136e-01,-2.81994e-01,2.32420e-01,1.97901e-01,-1.39009e-01,5.86159e-01,-6.37667e-01,-3.14145e-01,3.20447e-01,-9.58224e-02,-4.68005e-01,2.66251e-01,-3.28711e-02,7.23691e-02,-1.25328e-01,-5.16448e-01,2.77095e-01,2.34424e-01,-2.73348e-01,5.18187e-02,-1.72760e-02,4.43104e-01,4.50827e-01,-1.88914e-01,-1.05497e-01,
3.18380e-01,2.62105e-02,2.55796e-01,-1.16938e-01,1.00434e+00,4.73197e-02,1.68201e-01,2.27648e-01,-2.66929e-01,4.10383e-01,-7.63129e-01,-4.46135e-01,-2.97074e-02,-2.77219e-01,1.94533e-01,-1.44980e-01,-1.54928e-01,1.80409e-01,6.78271e-01,7.83798e-01,3.26302e-01,-2.96687e-01,1.58255e-01,-2.15831e-01,3.09457e-01,
-4.56744e-02,1.85698e-02,2.79808e-01,-1.58334e-01,2.57629e-02,-2.19816e-01,-2.71435e-01,-3.23380e-01,-2.22935e-01,-2.78301e-01,1.44309e-01,-1.94776e-01,-2.03457e-01,6.08490e-02,-3.09455e-01,8.18475e-02,6.60528e-02,-1.70032e-01,-1.33357e-01,-3.66075e-02,2.55938e-01,-3.40908e-01,-2.00001e-02,-1.79668e-01,-2.20052e-01,
2.70817e-01,-3.09547e-01,-2.72436e-02,-1.12719e-02,3.56885e-01,4.27314e-02,-1.63814e-01,1.30628e-01,7.81615e-01,2.11006e-02,5.18533e-02,-5.48958e-01,-3.35017e-01,-1.13406e+00,1.66800e-01,-1.17449e-03,2.72785e-02,2.49415e-01,2.68587e-01,7.41150e-01,-5.23755e-01,7.21800e-01,-7.82105e-02,4.02838e-01,-4.25037e-02,
1.98722e-01,2.52180e-01,-2.78590e-01,-1.46916e-01,2.97848e-01,5.91521e-02,3.77167e-01,-7.84169e-02,-1.25845e-01,6.80971e-02,3.36786e-01,4.13483e-02,-1.64533e-01,2.71502e-01,-1.00805e-01,2.94396e-01,-1.20664e-01,8.37616e-02,-7.80402e-01,7.44840e-02,-2.86506e-01,-6.73096e-01,-2.81558e-01,4.09406e-01,-1.21359e+00,
4.63183e-01,-2.27004e-01,3.13567e-01,1.37026e-01,-4.16511e-01,-1.39491e-01,3.19939e-01,2.78225e-01,1.57093e-01,7.20694e-01,3.51232e-01,-4.09282e-01,1.07231e-01,-8.10207e-02,1.45896e-01,-1.06348e-01,-4.11637e-02,-2.04290e-01,1.07382e+00,-2.64293e-01,3.52949e-01,8.90558e-02,3.05181e-02,-1.70506e-01,4.11106e-01,
-3.23036e-01,4.43045e-01,4.47038e-01,-1.09363e-01,-1.12565e+00,5.91318e-01,-8.98070e-02,3.83459e-01,1.93584e-01,4.01517e-02,4.62162e-01,-9.30297e-01,-1.15267e-01,-3.38698e-01,2.00255e-01,2.25327e-01,-1.39104e-01,-3.12413e-01,-5.13974e-01,5.86987e-01,4.24677e-01,8.48110e-02,-1.62911e+00,-2.68685e-01,-5.77057e-01,
3.09793e-01,-3.12631e-01,-6.25738e-01,-7.52910e-02,1.54487e-01,3.03492e-01,-2.23449e-01,-1.15033e+00,-5.97116e-02,2.73241e-01,-9.33574e-01,-1.72511e+00,-6.76867e-01,-5.88606e-01,-1.17409e+01,5.06204e-02,-3.18639e-01,-3.71783e-02,-8.01383e-02,2.49147e-01,5.55260e-01,6.40931e-01,1.07419e-01,-1.88077e-01,2.84147e-01,
3.91672e-01,4.02617e-01,6.50572e-01,-6.43813e-01,-7.20859e-01,-5.09373e-02,-1.04074e-01,-2.15044e-01,-2.57251e-01,2.77669e-01,4.21411e-01,-1.64524e-01,-3.46687e-01,-3.69026e-01,4.26358e-02,-1.56714e-01,1.63559e-02,2.69613e-01,-8.75499e-02,3.43256e-01,2.98643e-01,2.10998e-01,-7.48301e-01,-3.63993e-01,-2.49565e-01,
5.05643e-01,-5.23537e-02,4.29981e-01,3.32262e-01,-5.86626e-01,-3.29966e-01,1.50674e-01,-5.05451e-01,-6.42862e-01,4.95447e-01,-7.62294e-01,8.55648e-01,6.45989e-01,6.87428e-02,-1.75992e+01,4.85799e-01,-9.83488e-01,-3.04647e-02,2.79744e-01,-6.82623e-01,1.39245e-01,3.49148e-03,2.50388e-01,1.55903e+00,2.30783e-01,
-4.43794e-01,7.19520e-02,-6.01103e-01,3.32768e-01,-4.18751e-03,-3.32410e-01,3.27070e-01,-1.37641e+00,-3.11318e-01,5.19688e-01,-7.27095e-01,2.10082e+00,5.17617e-02,2.07902e-01,-6.74855e-03,1.49864e-01,-5.75650e-01,-8.44926e-02,2.74444e-01,-8.70025e-01,7.00058e-01,-8.86621e-01,-5.96705e-01,8.96027e-01,5.15838e-01,
5.41502e-01,-2.65210e-01,4.71213e-01,-1.71186e-01,-6.34583e-01,-4.79124e-01,4.66357e-04,-2.89282e-01,-2.68718e-01,4.10169e-01,-1.31468e-01,-2.67709e-02,-4.48658e-01,-1.15291e+00,-2.30235e-02,7.44105e-01,-2.53733e-02,-6.15868e-01,-2.93703e-01,5.27817e-01,3.64480e-01,7.71983e-01,6.84857e-02,2.59221e-01,-4.42979e-01,
-2.40998e-01,8.42526e-02,6.10462e-01,-1.52156e-01,-4.56961e-01,-1.66630e-01,2.29699e-01,-1.71389e+00,-4.23648e-01,5.81973e-01,-3.91004e-01,1.52797e-01,-2.22353e-01,-3.38704e-01,1.40709e-01,1.28638e-01,1.10482e-02,2.26877e-01,1.25250e-01,3.17084e-01,1.29004e-01,3.99025e-01,-8.53713e-01,2.66244e-03,-2.32268e-01,
2.55750e-01,
4.42820e-03,
4.30510e-02,
2.48619e-01,
2.70352e-01,
-7.77068e-01,
-2.48545e-01,
8.51183e-02,
2.35651e-01,
2.35081e-01,
-3.36804e-01,
-1.95424e-01,
2.63764e-01,
-2.66962e-01,
-2.50919e-01,
1.18268e-01,
3.69398e-01,
-1.02829e-01,
-2.61015e-01,
2.38962e-01,
2.40639e-01,
-1.59110e-01,
4.80575e-01,
5.50920e-01,
2.27253e-01,
4.80369e-01,-7.67726e-02,-3.95575e-01,1.72939e-01,-7.74418e-01,-2.17132e+00,-1.61882e-01,-2.83509e-01,-4.56978e-01,8.57039e-02,3.07676e-01,-1.74507e-01,-4.05179e-01,2.30568e-01,1.67965e-02,-1.29401e+00,-5.15653e-03,2.96383e-01,1.34943e-01,-2.01776e-01,3.03668e-01,-4.10057e-02,-4.33299e-01,3.66269e-02,2.19743e-02,
-3.95860e-01,-3.13158e-01,-2.31342e-02,-3.35190e-01,-1.08278e-01,7.60105e-02,-1.84465e-01,-2.87143e-01,-1.46819e-02,2.36241e-01,2.16145e-01,-2.89788e-02,-9.37834e-02,2.33668e-01,-1.05302e-01,-2.29543e-01,-4.22450e-02,-2.66249e-01,2.55084e-01,1.71694e-01,-3.64550e-01,-1.56896e-01,2.53561e-01,2.48045e-01,3.01299e-02,
1.44433e-01,2.78222e-02,-3.73802e-02,-8.63737e-02,-3.55899e-01,2.60747e+00,2.32354e-01,1.35975e-01,-1.81158e-01,1.42166e-01,-1.12912e-02,-1.34262e-01,-2.62027e-01,-1.01068e-01,-2.85317e-01,-2.16709e-01,8.40775e-02,6.23850e-02,6.25470e-02,-9.57426e-02,-1.74860e-01,-1.48228e-01,-7.46962e-02,4.46334e-02,2.18528e-01,
-3.26376e-01,-2.47526e-01,2.42892e-01,-3.10632e-01,6.37048e-01,1.47752e+00,-1.02456e-01,-8.79600e-01,1.02795e-01,-1.11436e-01,5.82362e-01,-6.62054e-01,-4.71570e-01,6.65787e-01,1.74027e-02,-1.31056e-01,4.34463e-01,2.74581e-01,-1.68146e-01,-2.36173e+00,-3.69494e-01,-5.84330e-01,-2.09301e-02,1.03145e-01,-3.92723e-01,
1.84417e-01,-7.67540e-02,4.93229e-01,-1.49196e-01,-5.45197e-01,4.22494e+00,1.87484e-01,4.33060e-01,4.44184e-01,5.00503e-02,-5.02834e-03,-3.11089e-01,-1.17214e-01,-3.71267e-01,-2.90117e-02,-3.78004e-01,-4.84638e-02,8.08132e-02,-5.19491e-01,-2.72605e-01,9.26756e-02,-3.90958e-01,-2.33849e-01,2.99620e-01,3.54147e-01,
1.36370e-01,-1.59610e-02,6.63870e-02,7.63128e-02,-2.68331e-01,-8.55291e-01,-8.10116e-02,2.56719e-01,-3.14381e-01,3.02630e-01,1.01593e-01,-2.49533e-02,2.84154e-01,-3.10740e-01,-1.49936e-01,-2.73350e-01,8.44737e-02,3.31582e-01,-1.86248e-01,-4.01125e-01,7.08603e-01,2.05600e-01,3.21410e-02,2.66103e-01,1.12126e-01,
-1.08255e-01,8.69562e-02,3.21056e-01,-1.20473e-01,-5.94460e-02,3.04310e+00,1.85044e-01,3.07581e-01,1.88123e-01,-1.03104e-01,5.74575e-02,1.47504e-01,-2.41493e-02,-4.01758e-01,-1.58146e-01,-1.07218e-01,3.37024e-01,3.09440e-01,1.12842e-01,-1.52214e-01,-1.48823e-01,-5.10669e-01,-5.61617e-02,5.58900e-01,1.36956e-01,
3.02809e-01,-4.94654e-01,3.86831e-03,1.01517e-01,-1.04656e-01,2.69026e-01,4.36691e-01,-1.54638e-01,-1.14151e-02,-3.68030e-02,-2.14719e-01,-4.42907e-01,-5.67568e-02,9.97105e-03,-1.77610e-01,-3.03316e-01,1.73391e-01,-9.16777e-02,2.83137e-01,3.97580e-01,3.97113e-01,-1.00903e-01,-4.02608e-01,5.39771e-02,-3.52094e-01,
-3.59079e-01,-2.25853e-01,3.87016e-01,4.62480e-02,2.27782e-03,3.45369e-01,-9.33603e-03,-2.44740e-01,1.48712e-01,-2.12556e-01,-1.34236e+00,3.15743e-02,-2.30813e-01,1.44160e-01,-1.27738e-01,-1.45797e-03,2.56206e-01,1.14316e-01,2.95650e-01,-1.14637e+00,5.03439e-02,-1.53507e+00,-2.03866e+00,-2.17459e+00,2.23932e+00,
2.41592e-01,-2.47072e-01,5.42716e-01,-3.72493e-01,-2.78527e-01,1.65013e+00,6.33829e-01,1.54292e-01,-1.34058e-01,-1.69338e-01,5.73462e-01,5.07134e-02,-4.85728e-01,-8.73002e-01,2.87657e-01,-5.38804e-02,3.06678e-01,7.84266e-01,-1.17952e+00,3.43306e-01,-1.81152e-01,-5.30180e-01,-3.38690e-01,3.74889e-01,4.20986e-01,
-9.73926e-02,2.30027e-01,-2.50290e-01,-6.27887e-02,-8.29240e-02,4.59654e-01,-1.93013e-01,4.52104e-02,-7.77515e-01,-4.10944e-02,-2.26017e-01,2.45934e-01,1.58760e-01,-2.68090e-01,2.66288e-01,-6.29964e-02,6.58026e-02,5.40151e-01,-2.63955e-01,1.24012e-01,-2.62731e-01,8.00186e-02,-1.41411e-01,-1.18605e-01,2.57755e-01,
-1.99735e-01,-1.90337e-01,1.20121e-02,3.62354e-01,-2.55694e-01,9.16812e-01,1.24449e-01,1.25881e-03,-2.72536e-01,4.64174e-01,2.64912e-02,-2.09856e-01,3.42691e-01,-2.52522e-02,1.65704e-01,-3.27228e-01,6.63035e-02,-2.45426e-02,-3.32707e-01,1.21785e-01,1.75284e-01,-1.55766e-02,3.61252e-02,2.45230e-01,-1.46836e-01,
-8.81652e-02,-3.82915e-01,-8.46828e-03,-4.21876e-02,1.25674e-01,-9.94904e-01,1.36741e-02,3.06007e-01,-3.96199e-01,4.11690e-01,-3.14626e-01,9.67638e-02,8.61574e-02,-9.51173e-02,3.16537e-01,2.75448e-01,-1.97298e-02,1.80876e-01,-1.38882e-02,2.60373e-02,-3.92203e-02,-3.67736e-01,-2.31222e+00,-4.06537e-01,4.07214e-01,
-2.16609e-01,1.31913e-01,7.71655e-04,-1.94835e-01,2.01586e-01,-8.20379e+00,1.19227e-02,-1.36509e-02,-2.08894e-01,2.82922e-01,6.22224e-02,-1.36783e-01,6.45689e-01,1.18850e-01,-9.23827e-02,3.89231e-02,-1.82869e-01,1.32484e-01,2.97366e-01,-4.80378e-01,3.02087e-01,7.67211e-01,2.00728e-01,3.07699e-01,1.73707e-01,
-2.05019e-01,-6.90198e-01,-4.90405e+00,-6.89049e-02,4.87670e-02,-2.91712e+00,-3.77426e+00,5.43520e-01,-6.40905e-01,4.84364e-01,-7.49833e-01,1.56930e-01,3.87360e-01,-2.00906e-01,2.54553e-01,3.70853e-01,-2.54227e-01,2.33023e-01,2.14784e-01,3.14725e-01,-5.03778e-01,-6.80853e-01,-1.48725e+00,-7.49247e-01,5.49220e-01,
1.40610e-01,-2.84204e-01,-6.99494e-01,4.93135e-01,1.77507e-02,2.95877e-01,7.62616e-01,-6.79502e-02,3.63892e-01,-3.01906e-02,-5.00414e-01,-1.98023e-01,3.92043e-01,5.41871e-01,1.57084e-01,-8.18987e-02,5.59542e-02,-2.66837e-01,2.92911e-01,1.12198e-02,1.98819e-01,-1.36515e-01,-8.70220e-01,-1.51240e-02,-1.24870e-01,
-7.25012e-03,1.77889e-02,-2.46299e-01,4.42569e-01,7.65996e-02,1.21619e-01,-2.13940e-01,-3.07679e-01,-2.24269e-01,2.01024e-01,-5.17181e-01,3.63097e-01,2.33001e-01,7.09519e-02,-2.42942e-01,1.85012e-01,7.77735e-02,1.47366e-01,6.19511e-02,3.08994e-01,3.75908e-01,-1.00447e-01,1.50672e-01,1.62339e-02,-2.46954e-01,
-2.55673e-01,1.03026e-01,-2.11145e-01,5.02825e-01,2.62431e-01,-3.47411e-01,3.27484e-02,-6.49567e-01,1.92247e-01,5.64919e-01,-6.96307e-02,-4.33149e-01,-8.91169e-02,8.46119e-01,-2.84108e-01,8.43575e-02,-1.32049e-02,-6.49541e-01,-7.39479e-02,3.34805e-02,2.40987e-01,-3.83016e-02,1.73204e-01,-1.06247e-01,3.77024e-01,
-6.53778e-02,-8.37225e-02,3.10143e-01,2.81306e-01,4.44150e-01,2.83650e-01,2.81471e-01,8.82954e-02,6.65674e-01,-4.39414e-01,3.33660e-01,2.01345e-01,7.15394e-03,-1.01856e-01,1.92184e-01,4.81203e-01,5.76324e-02,-2.94723e-01,2.81272e-01,-8.88173e-02,2.11617e-01,2.41560e-02,-3.78694e-02,-2.41169e-01,-7.75981e-03,
-2.34683e-01,-2.61229e-01,-8.55729e-01,3.86891e-01,3.08529e-01,5.88100e-01,2.96609e-01,-2.62728e-01,2.12002e-01,-9.72406e-02,-1.35018e+00,3.66096e-01,1.76157e-01,3.97603e-01,2.34706e-01,3.72343e-01,1.56867e-01,-5.63922e-02,2.53137e-01,7.40336e-01,-5.40732e-01,-1.63412e-01,-1.97439e-01,-3.82733e-01,7.11889e-01,
-3.82298e-01,-1.70771e-01,2.83928e-01,1.43036e+00,6.33579e-01,1.15860e+00,-1.80615e-02,-2.67970e-01,-1.53009e+00,4.20135e-02,-6.69656e-02,-2.21242e-01,2.45390e-01,6.87578e-01,5.73199e-02,-4.31341e+00,1.11926e+00,2.00995e-01,-1.64695e-01,2.94186e-01,1.58052e+00,-3.43982e-01,-3.47576e-01,6.24092e-02,-1.09912e+00,
-2.06055e-02,-2.38352e-01,8.69557e-02,-3.37280e-01,-1.94617e-01,-3.19293e-01,2.46115e-01,2.05657e-01,-4.06435e-01,1.75736e-01,-8.40728e-01,2.55017e-01,-1.97497e-01,-8.64307e-02,-2.43940e-01,-2.14575e-01,2.62326e-01,3.76852e-01,4.27209e-01,2.19591e-01,2.86870e-01,-1.16848e+00,-2.83986e+00,-4.18568e-01,-9.98395e+00,
1.52377e-01,-4.52494e-01,1.52039e-01,4.09436e-02,-6.96084e-01,1.34388e-01,2.69795e-01,-6.82412e-03,-1.05881e+00,5.25293e-02,5.33068e-01,-2.54335e-01,1.22670e-01,1.76721e-01,2.41095e-02,-5.37002e-01,-3.92725e-01,9.99162e-02,4.02841e-01,2.31503e-01,-1.40439e-01,8.34837e-02,-4.72282e-02,1.53715e-02,2.16304e-01,
4.66852e-02,-1.80648e-01,-5.95279e-01,-1.54945e-01,-1.23112e-01,3.38363e+00,7.57691e-01,4.20812e-01,-2.90301e-02,2.22998e-01,2.81589e-01,-2.00006e-01,-2.42538e-02,3.71217e-01,2.44534e-03,-5.74919e-02,-9.82997e-01,8.32670e-02,-4.56114e-01,2.29916e-01,3.45552e-01,-1.60931e-01,-4.21151e-01,-4.02486e-02,2.04663e-01,
7.45609e-02,-5.22444e-02,2.02103e-01,-2.38369e-01,1.73033e-01,-3.59062e-01,8.26234e-02,2.26760e-01,1.09844e-02,-2.32435e-01,2.59899e-01,1.84620e-01,3.17388e-01,-3.60332e-01,-2.07540e-01,7.71234e-02,1.80784e-01,2.73123e-01,-1.01732e-01,-3.46005e-01,-1.30988e-01,2.46280e-01,-5.18808e-02,5.35726e-02,3.93038e-02,
5.13571e-01,
-7.35590e-02,
4.26008e-01,
4.30233e-02,
4.30748e-02,
8.45209e-02,
-5.65010e-01,
4.28751e-01,
7.42670e-02,
-4.13917e-01,
3.23654e-01,
2.16704e-01,
-1.27187e-01,
-6.78925e-01,
-1.86708e-01,
-5.15480e-02,
-2.23875e-01,
-9.99303e-03,
-6.29727e-01,
-2.45181e-01,
-8.76349e-01,
-2.01240e-01,
-9.56538e-02,
9.68436e-03,
-6.33916e-02,
-1.83079e-01,7.39004e-02,-2.76765e-02,-1.94647e-01,-5.00246e-02,-3.41174e-04,3.75657e-01,7.50875e-02,-1.12760e-01,-1.03024e-01,6.87534e-02,5.72015e-02,7.83678e-02,-6.20520e-02,-8.92304e-02,-7.14508e-03,-4.20465e-02,1.03785e-01,-7.59461e-03,3.96490e-02,-6.54498e-02,1.12719e-02,-4.67371e-02,-3.60411e-01,1.23245e-01,
9.20646e-01,3.77190e-02,1.23192e-01,-2.24851e-01,-9.59592e-02,2.84542e-01,-4.30013e-01,-3.54793e-01,-3.10811e-02,1.56604e-01,8.62561e-02,1.28165e-01,-2.24442e-01,2.56788e-02,7.96168e-02,4.03799e-02,1.12745e-02,-2.84938e-01,1.77457e-01,5.20274e-04,2.37399e-01,-5.16800e-02,1.81602e-01,3.94217e-01,-2.30875e-01,
3.11827e-01,-2.12447e-01,2.00050e-01,6.53303e-02,-1.31191e-01,-7.42652e-02,7.02398e-02,-1.38747e-01,2.74936e-01,1.10520e-01,-3.77543e-02,-1.27818e-01,-7.77217e-02,-7.65429e-02,-1.76986e-02,7.81548e-02,2.23776e-01,-1.94854e-01,-1.97158e-02,2.19583e-02,6.47787e-02,1.01549e-01,1.13844e-02,-5.97396e-02,1.80519e-01,
-2.98302e-01,-1.73397e-01,-2.45938e-01,-1.91445e-02,-1.38727e-01,1.85600e-01,5.46680e-02,5.65258e-02,-4.23950e+00,5.53194e-01,-1.92335e-02,-2.60561e-01,-3.18433e-02,-3.75377e-02,-2.86512e-01,2.61509e-01,-2.05271e-02,-1.07044e-01,1.01758e-01,4.36187e-02,-5.14453e-01,2.34545e-01,-2.01827e-01,-9.28491e-02,-1.64639e-01,
1.37950e-01,-3.91822e-02,-8.03267e-02,2.35908e-01,-2.61750e-02,-1.18182e-01,-3.14827e-01,2.67830e-01,1.82503e-01,-1.46401e-01,-9.25304e-02,2.07895e-03,2.49074e-01,-3.31850e-01,-2.22596e-01,1.25754e-01,-2.25003e-01,7.61007e-02,-1.28374e-01,-4.93142e-02,9.15480e-02,-1.08630e-02,-1.37114e-01,-2.12272e-01,-2.93925e-01,
-1.81886e-01,-1.08563e-01,5.16851e-02,-4.07970e-02,-2.57097e-01,-2.57286e-03,1.64565e-01,-3.22147e-01,4.92570e-02,-3.02143e-01,-2.26661e-01,3.05570e-01,-2.31587e-01,4.05724e-02,2.88885e-01,2.63819e-01,-1.94922e-01,-2.11935e-01,2.60803e-02,1.95055e-01,-2.16779e-01,-3.28023e-01,3.22967e-01,-3.01771e-01,-3.29616e-01,
3.38130e-01,7.33209e-02,-1.75553e-01,3.07023e-01,-2.18854e-01,-9.92762e-02,1.13837e-01,2.81111e-01,-5.20505e-02,-8.06428e-02,7.71480e-02,-3.66247e-01,2.34551e-01,1.97232e-01,-3.12252e-01,1.13298e-01,-2.73199e-01,4.74144e-02,2.14645e-01,-1.17966e-01,-2.30340e-01,-2.53665e-01,1.98241e-01,-3.77950e-01,-1.16378e-01,
-7.85320e-02,-3.05096e-02,1.57651e-01,-1.32554e-01,-2.66555e-01,-3.71717e-01,-2.64190e-01,1.49297e-01,4.94649e-03,1.42237e-01,-1.22499e-01,-6.73665e-02,-9.91684e-02,9.99168e-02,-1.78754e-01,5.82798e-02,8.06640e-02,8.77879e-02,3.70941e-02,-9.47668e-02,-2.18666e-02,-2.14134e-01,2.47437e-01,2.73247e-01,-3.23316e-01,
1.21915e-01,2.29857e-01,2.81897e-02,-3.67994e-01,1.88767e-01,-4.68853e-01,-1.87088e-01,-8.80644e-02,-2.73753e-01,-2.73542e-01,-7.56749e-02,-2.21022e-01,1.61638e-01,9.81333e-04,5.73290e-02,-3.06006e-01,7.59200e-02,1.04968e-01,-6.02121e-03,-7.48593e-02,-1.53285e-01,-2.36380e-01,-1.24293e-01,-1.40640e-03,-3.95549e-01,
3.93259e-01,-4.00706e-01,1.35771e-01,-1.58719e-01,1.25732e-01,-5.54911e-02,-2.22003e-01,-1.23138e-01,4.16806e-01,3.96396e-02,2.01302e-02,-1.05695e-01,-2.45884e-01,-3.38564e-01,2.03959e-01,-1.40172e-01,2.35220e-01,8.68521e-02,8.53723e-02,-2.14864e-02,-1.02452e-01,3.29365e-01,-4.12319e-01,3.50454e-02,-3.47454e-01,
-6.91348e-02,1.50610e-01,-2.27013e-01,-6.07708e-01,1.43422e-01,4.03222e-01,9.79315e-02,-7.11073e-01,9.82434e-02,-4.58871e-01,4.51048e-01,6.37619e-01,-6.37634e-01,-3.06133e-02,1.50477e-02,-1.08997e+00,-1.17441e+00,-2.31889e-01,2.58087e-01,-1.89214e-01,-1.67533e-01,7.64640e-01,6.47044e-01,-1.10583e-01,-2.21025e-01,
2.21827e-01,2.63701e-01,-3.18445e-02,-2.21351e-02,-2.26368e-01,-2.99115e-01,1.97320e-01,2.31214e-01,2.63502e-01,2.07554e-01,1.74488e-01,1.53890e-01,1.26908e-01,1.14965e-01,-5.29735e-02,-1.04615e-01,-2.24745e-01,-2.23618e-02,-1.25700e-01,2.84464e-01,2.86573e-01,-5.72283e-02,-1.22535e-01,-3.09552e-01,-1.71781e-01,
8.64911e-01,4.68219e-02,-5.64905e-01,-2.39582e+00,-1.08937e+00,-2.59525e-01,6.56096e-01,4.76070e-01,-5.65188e-01,5.47484e-01,-1.23959e-01,1.15018e-01,7.04616e-01,-3.49332e-03,-2.59992e-01,2.93909e-01,3.36735e-01,-2.26392e-01,-1.56259e-02,1.58797e-02,-4.97053e+00,1.85818e-01,-7.94830e-01,2.99385e-01,4.67668e-01,
-1.17134e-01,-2.44310e-01,1.37904e-01,5.39026e-01,6.43080e-01,2.13068e-01,5.31561e-01,-7.16419e-02,1.04647e-01,3.84414e-01,-1.46110e-02,5.93107e-02,-6.92114e-02,-9.17438e-02,-6.68381e-02,9.68403e-02,-2.06227e-01,4.11394e-01,-4.36439e-02,1.47629e-01,9.70664e-02,-9.47585e-02,1.36813e-01,2.76740e-01,-2.61243e-02,
4.94683e-01,2.01516e-01,-2.45256e-02,-8.06223e-01,1.41644e-01,4.40707e-01,-1.26412e-01,3.07797e-01,-6.59276e-02,-4.85815e-01,-3.43325e-01,2.19012e-01,1.14750e-01,3.16152e-02,9.16284e-02,-3.18855e-01,-4.94149e-01,-2.23423e-01,2.05877e-02,6.86447e-01,4.27203e-01,-6.49312e-02,2.78326e-01,7.03733e-02,-5.30966e-01,
-1.35032e-02,-8.43456e-02,-6.29232e-01,5.51186e-01,-3.91166e-01,1.55486e-01,-1.42990e-01,3.56347e-02,4.68990e-02,1.75315e-01,-1.64442e-01,4.58129e-01,3.49677e-01,-1.27136e-01,-2.02036e-01,5.18211e-02,5.28630e-02,2.89268e-01,-1.51522e-01,3.61044e-01,9.52890e-02,4.78924e-02,5.64432e-02,-2.72546e-02,1.10812e-01,
-7.40123e-01,-5.87916e-02,2.95738e-01,9.71329e-02,-5.81467e-02,-1.80969e-02,6.53298e-02,-2.51906e-01,-1.49732e-01,4.51972e-02,9.06122e-02,2.55569e-01,5.52430e-01,-1.31913e-03,-8.80047e-01,1.88840e-01,1.52862e-01,-4.16607e-01,-1.84750e-01,2.80528e-01,1.66069e-01,-3.21441e-01,2.55429e-01,-2.05570e-01,1.93479e-01,
3.61541e-01,1.36401e-01,-2.39973e-01,-3.09049e+00,4.49579e-01,2.30934e-01,-3.41642e-01,-3.66415e-01,-2.96379e+00,-4.59987e-01,4.79250e-01,4.14713e-01,5.91109e-01,-5.42600e-02,-2.98675e+00,-8.61288e-01,-1.10749e+00,-2.64681e-01,-3.46625e-02,-2.66236e-01,-3.08593e-02,-5.77159e+00,1.84615e-01,-1.36995e-01,-2.41518e-02,
-3.50921e-01,-1.44002e-01,-1.94732e-01,3.04527e-01,5.28888e-02,-8.25785e-02,-3.76265e-01,5.54146e-02,-1.24566e-01,2.56178e-02,1.22314e-01,-1.55411e-01,2.58743e-01,-6.21054e-02,-1.41168e-01,2.86246e-01,-1.22662e-01,1.33617e-01,6.36944e-02,-1.64430e-01,1.20227e-01,9.98085e-02,-7.44449e-02,3.38314e-01,-7.65914e-02,
1.35320e-01,1.98472e-01,-1.15908e-01,1.24017e-02,2.29130e-01,1.63484e-01,-2.55707e-01,1.42782e-01,3.21061e-01,-5.62407e-02,2.74837e-01,1.13362e-01,5.89844e-01,1.49023e-02,-4.65534e-01,1.14081e-01,-4.50487e-01,1.89510e-01,1.73538e-01,3.47827e-01,3.79243e-02,3.34447e-01,8.72099e-02,-7.26328e-02,-2.01104e-01,
-2.38046e-01,2.52345e-01,1.24176e-01,1.86239e-01,2.67022e-01,-9.79400e-02,-2.05993e-01,-3.02976e-01,5.70410e-02,1.56926e-01,-6.75615e-02,-4.89097e-02,-2.97751e-01,1.19500e-01,2.07422e-01,-2.18566e-02,1.21194e-01,-2.88656e-01,-9.99985e-02,-8.51444e-02,1.03738e-01,3.64829e-01,1.58150e-01,3.92839e-01,-2.69973e-02,
-1.32132e-01,3.52286e-01,2.21519e-01,6.55558e-02,2.14277e-01,-2.25928e-01,2.75787e-01,-1.49399e-01,4.04711e-02,1.64981e-01,5.52399e-03,1.50460e-01,4.13327e-02,1.82922e-01,1.58237e-01,1.12648e-02,5.41965e-02,-2.09528e-01,-1.27085e-01,-5.09477e-02,4.76517e-03,-2.05953e-01,9.48733e-02,-1.03885e-01,1.94330e-01,
2.38053e-01,2.54169e-01,5.62795e-02,-8.62233e-01,-1.61610e-01,-7.17914e-01,-7.67973e-01,1.65303e-01,7.53743e-01,1.04921e+00,-4.26484e-01,6.51500e-02,-2.03530e+00,8.92217e-01,-1.55336e-01,-1.27911e+00,-8.46887e-01,2.75335e-01,-4.36332e-01,1.62173e-01,1.04625e-01,-7.80931e-01,2.69199e-01,-4.03579e-01,-7.97385e-01,
-2.79487e-01,6.45869e-02,1.20542e-01,-1.29226e-01,6.58973e-01,-1.06204e-01,-3.24874e-03,-2.05910e-01,-6.15766e-02,2.69754e-01,-3.11746e-01,-4.30414e-02,-1.62574e-01,2.45602e-01,-5.38986e-03,-4.36263e-01,3.05531e-01,-4.70433e-01,-3.28540e-01,1.37925e-01,-1.25486e-01,1.37916e-01,1.19597e-01,4.81463e-01,6.12270e-02,
-1.52329e-01,-2.43123e-01,1.48717e-01,2.75164e-01,7.06589e-02,7.24356e-02,-2.00734e-01,6.77924e-02,-3.17239e+00,-4.65572e-02,5.78172e-02,-1.99958e-01,-1.23375e-02,-9.10698e-02,-2.05347e-01,-5.18362e-02,4.31231e-02,7.08543e-02,-1.00240e-01,2.97955e-01,6.00394e-02,-1.37322e+00,-1.63710e-01,-2.32688e-01,9.82128e-02,
2.53083e-01,
1.52950e-01,
1.55730e-01,
1.02783e-01,
-2.70210e-01,
-2.82465e-01,
-2.01749e-01,
-8.01991e-02,
7.78056e-02,
1.83514e-01,
-3.12429e-02,
-3.22998e-01,
-3.76207e-01,
-2.12091e-02,
1.06385e-02,
-1.62948e-01,
-1.02716e-01,
-1.41776e-01,
3.24911e-01,
-2.36165e-02,
3.81315e-02,
-1.09462e-01,
2.62080e-01,
1.33568e-01,
1.84071e-02,
2.39277e-01,-3.80903e-02,1.95319e-01,-4.98640e-02,2.13068e-01,3.68085e-01,-1.25830e+00,-6.97352e-01,-3.66410e-01,3.20492e-02,-5.82159e-02,2.91588e-02,-5.14819e-02,-3.13807e-02,-2.10149e-01,8.30525e-02,2.60046e-02,-3.50320e-02,2.52006e-01,-1.08475e-01,-8.83388e-03,-9.67174e-03,-1.33801e-01,8.22674e-02,-7.85871e-03,
-4.48036e-02,3.05285e-02,1.89676e-03,-4.97918e-02,4.63978e-01,3.92770e-01,4.61644e-01,1.06303e+00,2.81380e-01,3.30106e-03,2.02687e-02,-2.78012e-01,-7.44534e-02,-2.62676e-01,-1.21424e-01,1.41166e-01,-4.10495e-02,-3.75631e-02,3.15949e-01,-3.79585e-02,-1.66958e-01,6.63661e-01,-6.63818e-02,1.09100e-01,9.04194e-02,
1.31539e-01,-3.87412e-02,1.99715e-01,1.66125e-02,3.22642e-01,3.63921e-01,1.27520e+00,1.00507e+00,-6.41532e-02,-3.06224e-02,4.16717e-02,-2.93891e-01,-2.47956e-02,-8.58015e-02,-1.00659e-01,1.97163e-01,-8.63233e-02,-1.06154e-01,1.19776e-01,-2.79886e-01,-6.66895e-03,2.05894e-03,1.53205e-01,1.32157e-01,1.07740e-02,
4.68335e-02,-4.54013e-02,9.89479e-02,5.55649e-04,3.91671e-01,4.26941e-02,2.96073e-01,6.74362e-01,4.03873e-01,-4.33958e-02,9.08010e-03,2.44134e-01,-9.28321e-02,-2.20089e-01,-1.04530e-01,1.58633e-01,-3.74485e-02,-2.77462e-02,1.43379e-01,-4.72008e-02,1.39328e-01,3.60049e-01,-3.02563e-02,3.42339e-02,5.32052e-02,
2.41409e-01,5.68933e-03,1.91549e-01,-8.23476e-03,4.53438e-01,-2.77915e-01,8.98660e-01,6.05035e-01,-1.03449e-01,-9.58972e-02,3.43842e-03,1.23476e-02,-7.28337e-02,-9.69906e-02,-1.37051e-01,1.74910e-01,-6.56084e-02,1.94536e-02,1.84428e-01,-1.99385e-01,4.18349e-02,8.57534e-02,-4.57665e-03,1.05214e-01,8.49826e-02,
1.85887e-01,-8.39643e-02,-7.66842e-05,9.59058e-02,-3.41979e-01,7.39943e-02,1.04475e+00,1.02812e+00,-3.90373e-02,-2.80438e-02,-5.36439e-02,-1.72918e-01,-8.67034e-02,-2.38702e-01,-5.22897e-02,1.30556e-01,-5.71041e-02,-4.71001e-02,-6.51309e-02,-5.75503e-03,5.84726e-01,2.11240e-01,-8.55637e-02,-9.12436e-02,3.91721e-02,
3.95103e-01,8.58902e-02,1.63591e-01,-5.18925e-02,5.60967e-01,-1.53774e-01,5.84224e-01,7.36685e-01,-3.09529e-01,-6.04183e-02,3.84954e-02,-1.83385e-01,-7.80052e-02,-1.05751e-01,-1.83462e-01,1.50510e-01,-5.89514e-02,1.26056e-01,2.22772e-01,-1.92886e-01,-2.12381e-02,3.23815e-02,-3.99087e-02,1.71775e-01,1.05039e-01,
7.37186e-02,-4.90882e-02,1.00260e-01,5.36321e-04,4.12435e-01,7.82313e-02,3.14703e-01,6.10282e-01,-4.01508e-02,-5.11921e-02,1.11056e-03,1.77171e-01,-8.82011e-02,-2.09698e-01,-1.08065e-01,1.55143e-01,-3.92729e-02,-4.65908e-02,1.24792e-01,-4.45184e-02,1.79159e-01,3.29274e-01,-3.80179e-02,1.65296e-02,4.39707e-02,
2.55092e-01,4.33291e-03,1.88117e-01,-1.37999e-02,2.20908e-01,-3.87340e-01,7.19212e-01,4.90778e-01,3.95993e-01,-9.76098e-02,-2.58967e-02,-1.24890e-01,-7.50643e-02,-9.72990e-02,-1.50356e-01,1.72140e-01,-5.28576e-02,7.10952e-02,1.88432e-01,-1.94962e-01,3.89894e-02,6.54213e-02,1.20444e-03,1.11117e-01,8.00963e-02,
6.14168e-03,
1.04263e-01,
7.24879e-02,
-3.28564e-01,
-4.35519e-01,
1.66158e-01,
-5.78998e-02,
-3.29800e-01,
-4.39938e-01,
