// Neural Network File Format by Kyle Julian, Stanford 2016
6,4,9,25,
4,25,25,25,25,25,9,
0,
-8000.000000,-100.000000,-100.000000,0.000000
8000.000000,100.000000,100.000000,40.000000
0.000000,0.000000,0.000000,20.000000,-4.647677
16000.000000,200.000000,200.000000,40.000000,22.514692
1.81272e+00,1.86131e-01,-2.34154e-01,7.27835e-01,
4.68589e+00,-1.91724e-03,-7.33785e-03,-1.80719e-03,
-1.10852e+00,7.71510e-01,-1.55406e-01,2.01238e-01,
-1.77034e-01,-5.89326e-01,-1.03651e-01,2.42027e-02,
-3.22514e+00,5.42538e-01,3.53822e-02,-4.98535e-04,
8.64972e-02,2.69018e-01,1.55622e-01,1.83384e-02,
-4.51638e-01,-1.53663e+00,7.76576e-02,3.47920e-02,
-2.74255e+00,3.84511e-01,-5.00855e-01,3.91368e-01,
2.28063e+00,-1.26776e+00,-6.08080e-02,-2.50915e-02,
-4.54806e+00,1.28397e-01,-8.55607e-02,-2.67213e-01,
1.14881e-01,1.11917e+00,-4.74902e-03,-1.40025e-02,
-4.37969e+00,2.64372e-01,-1.71089e-01,-4.64089e-01,
1.76525e+00,2.64508e-01,-8.01616e-02,-3.45325e-02,
-1.77930e+00,4.06723e-01,-7.07358e-01,2.56193e-01,
-3.68405e+00,9.63223e-02,5.18036e-03,-7.79111e-01,
4.38233e+00,1.45697e-02,-7.48995e-02,-1.60353e-01,
-3.09347e-01,1.63450e-02,-8.44033e-01,-9.31924e-02,
2.47046e+00,-4.87495e-01,6.98500e-01,-1.60200e-01,
1.45719e+00,-5.34530e-01,6.05643e-01,-9.63447e-03,
-2.35939e-01,1.28002e+00,-2.16832e-02,-1.37835e-02,
-2.13034e+00,1.27825e-01,6.43220e-02,6.06404e-01,
-2.11086e+00,-3.09804e-03,6.98299e-03,8.67230e-01,
-2.58660e+00,-3.36153e-01,2.32576e-01,5.12924e-03,
1.04686e-01,-1.90428e-01,1.63538e-01,-3.89198e-01,
3.92912e+00,-1.65572e-01,1.90592e-01,-5.57980e-01,
2.90154e-01,
2.05631e-01,
2.52833e-01,
2.99356e-01,
-1.45733e-01,
-3.05651e-01,
-2.05122e-01,
2.84119e-01,
-6.20521e-02,
-2.08683e-02,
-4.00637e-03,
1.18932e-01,
2.62424e-01,
6.89806e-03,
-1.41766e-01,
-4.58226e-02,
3.13130e-01,
1.54800e-01,
-3.30471e-02,
-2.86288e-01,
1.32945e-01,
4.06605e-01,
2.29620e-01,
2.10344e-01,
-2.29619e-01,
5.96466e-01,4.20652e-01,-1.03854e+00,7.46992e-01,-1.48196e-01,2.14291e-01,-9.06391e-01,6.96236e-02,3.38380e-02,8.45882e-01,1.05562e+00,-4.14137e-01,-3.71133e-01,-9.20741e-02,-7.29362e-01,2.63104e-01,3.03224e-02,-6.94004e-01,9.36663e-01,3.25586e-01,4.14415e-02,3.41816e-02,-4.01986e-02,-2.13375e-01,8.51241e-03,
3.93344e-02,-3.34047e-01,2.21728e-02,3.41691e-02,-5.00566e-02,-3.44002e-01,-1.10892e-01,-1.46379e-01,1.99227e-01,1.49855e-01,8.98170e-02,1.88638e-01,-2.49320e-01,2.73174e-01,-3.01483e-01,-2.47840e-01,-3.63005e-01,1.12024e-01,-3.24095e-01,-8.41125e-02,-2.72432e-01,6.42042e-02,1.80573e-01,1.67939e-01,-2.14696e-01,
1.09195e+00,-8.67254e-01,3.67844e-01,-3.52816e-01,4.90101e-01,2.14187e-01,-5.03586e-02,3.81802e-01,-7.48538e-02,-2.50379e-01,1.00689e-01,1.07022e+00,4.79879e-01,2.60143e-01,7.75966e-01,-7.40763e-01,6.83373e-01,-4.56525e-01,-9.57483e-02,-5.78345e-01,-1.21588e+00,-5.30784e-01,5.81060e-01,-6.00413e-01,-8.42727e-02,
7.90349e-02,-1.88301e+01,-5.00246e-01,1.23072e+00,-1.15080e+00,-3.17390e-01,-3.02480e-01,2.87637e-01,-6.84841e-01,5.13122e-01,1.54448e+00,1.32295e-01,-2.55848e-01,-3.95360e-02,1.06492e-01,-9.47738e-01,3.89477e-02,-3.43250e-01,7.42167e-01,-1.32924e-01,-1.34036e-02,1.59284e-01,1.87963e-01,1.80928e-01,-7.24830e-01,
6.96200e-01,4.04754e-01,-1.21089e-02,-1.44334e-01,-3.35150e-01,1.78359e-01,3.39191e-01,-2.91665e-01,-1.49277e-01,-1.23671e+00,2.00004e-01,1.62450e+00,-4.26550e-01,-4.13570e-01,2.28409e-01,-1.70656e+00,-1.53558e-01,2.14194e-01,-4.89181e-01,-3.16299e-01,5.89382e-01,-1.18834e+00,-6.68598e-02,7.75077e-01,-6.33538e-01,
3.02544e-01,-1.78308e-01,-4.06293e-01,-4.57551e-03,8.69662e-01,-3.30038e-01,3.22927e-01,5.64158e-01,-5.27938e-01,1.12524e-01,2.87429e-01,-1.69529e-02,3.72366e-01,-7.83528e-01,1.96379e-01,2.46607e-01,1.16762e-01,-9.43358e-01,2.92018e-01,-3.66158e-02,-2.01341e-01,-8.84661e-01,2.25466e-01,-1.79920e-01,-8.09815e-01,
7.47919e-01,-8.78627e-01,-5.31741e-01,4.65656e-01,-4.33718e-01,1.36695e-01,-1.53046e-01,9.48368e-01,-2.21102e-01,3.01542e-01,1.82951e-01,8.98428e-01,-2.70391e-01,-1.35496e-01,1.00383e+00,-4.28540e-01,1.06672e+00,-4.89236e-01,-2.16934e-01,1.25489e+00,-6.59024e-01,-3.70014e-01,-2.33659e-01,-2.63620e-01,-1.19998e+00,
-5.40363e-01,4.71813e-01,3.38874e-01,1.87780e-01,-3.89513e-02,1.22506e-01,2.82875e-01,-4.13752e-01,-6.35213e-01,-2.11177e+00,-1.62233e-01,9.33318e-01,4.33036e-01,9.18932e-01,4.55746e-01,-2.99767e-01,5.85166e-01,-2.92618e-01,8.60445e-01,2.65348e-01,1.63939e-01,3.41882e-01,-5.33592e-01,7.23755e-02,5.01181e-01,
-1.97569e-01,-7.48805e-02,-8.66419e-02,-1.71234e-01,2.55436e-02,-5.95690e-02,1.24638e-02,-1.71746e-01,1.35260e-01,-1.83633e-03,6.14763e-02,-2.71824e-01,2.50125e-01,3.39791e-01,3.21861e-01,-2.73595e-01,-1.89028e-01,1.75830e-01,1.66207e-02,9.59320e-02,-2.19986e-02,6.29389e-03,-3.28040e-01,-1.45412e-01,1.80960e-01,
-1.37899e-01,-3.08251e-01,1.61985e-01,1.57329e-01,1.77884e-01,2.94962e-01,-3.34428e-01,-3.96267e-02,4.91030e-02,2.49463e-01,-1.06553e-01,-2.44510e-01,-3.46226e-01,-2.96752e-01,-3.08895e-01,-2.12134e-01,2.55043e-01,-1.43382e-01,-2.25873e-01,9.30462e-02,-3.07901e-01,9.06292e-03,-1.61186e-01,-1.49814e-01,-2.47394e-02,
-5.27372e-01,-3.19581e-01,-2.34612e-01,2.63927e-01,-8.23527e-01,-1.45997e-01,1.63734e-01,-2.54505e-01,8.60474e-02,-3.88029e-01,9.70836e-01,5.62861e-01,7.12950e-01,2.62273e-01,2.01610e-01,-5.20795e-01,3.55346e-01,5.15606e-01,-1.15606e-02,-4.86785e-01,7.14920e-02,-2.87400e-02,3.34472e-01,-4.02211e-02,3.85735e-01,
-6.95934e-02,-7.83929e-01,-5.65129e-02,-5.59311e-01,-2.60341e-01,2.27518e-01,-2.37729e+00,1.31498e-01,1.73640e+00,-2.26234e-01,1.19143e+00,-3.66846e-01,5.46236e-02,4.63396e-01,2.56163e-01,2.82768e-01,-2.90657e-01,2.39062e-01,-5.41607e-01,-8.72025e-01,1.61499e-01,-3.50941e-02,7.02112e-01,2.49221e-01,-4.15191e-01,
2.64112e-01,-7.01297e-01,-2.36773e-01,8.04245e-01,1.93398e-01,-2.75404e-02,-2.04109e-02,7.53857e-01,-6.01139e-01,-3.23348e-01,-5.29681e-01,-3.18350e-01,-1.03533e-01,1.03384e-01,4.61518e-01,1.00283e+00,-3.18523e-01,3.04944e-01,-9.89821e-01,1.11508e+00,-5.83909e-01,5.15210e-01,2.74382e-01,-1.20931e-01,-4.24175e+00,
5.56793e-01,-7.53623e-01,-1.76238e-02,7.29310e-01,4.20041e-01,9.00580e-02,-3.49527e-01,-4.22462e-01,3.23258e-02,-6.92219e-01,3.48304e-01,-3.89746e-02,5.67509e-01,4.45199e-02,8.06715e-01,-3.52607e+00,4.82218e-02,3.41925e-01,-4.00348e-01,5.13034e-02,1.77219e+00,-9.80735e-01,4.87085e-01,-1.72372e-01,-1.72965e+00,
3.73976e-01,1.34294e-01,4.66065e-02,5.85994e-01,-9.45358e-02,-3.38680e-01,1.82699e-01,-3.45269e-01,-1.19060e-01,-2.88449e-01,-4.93233e-01,4.17208e-01,1.26580e-01,8.36805e-01,-1.96096e-02,-9.24033e-01,2.74469e-01,7.06826e-01,-5.22594e-01,7.74533e-01,5.89661e-01,-1.70837e+00,-3.29590e-01,2.33357e-01,-2.21267e+00,
1.25232e-01,-1.89952e-01,-1.82892e-01,2.56274e-01,-6.61908e-01,1.31985e-01,-5.41829e-01,-3.81446e-01,-4.40635e-01,-1.19816e+00,7.27768e-01,-5.25603e-01,-2.07709e-01,-7.40596e-01,1.38840e-01,-4.24048e-01,1.79619e-01,-3.03416e-01,5.58207e-01,-3.88093e-01,-2.22730e-01,1.38213e-01,6.86421e-01,3.07871e-01,8.64890e-01,
-3.30315e-01,-1.92713e-01,-3.98237e-01,1.40244e-02,2.55254e-01,1.79327e-01,1.52886e-01,-1.00880e-01,3.25260e-03,7.75975e-02,-2.03467e-01,-3.30849e-01,-2.94068e-01,-3.59428e-02,-1.35038e-01,5.38711e-02,2.02832e-01,1.04875e-01,-3.27001e-01,7.73083e-02,-4.27110e-02,1.63294e-01,-5.70574e-02,2.14392e-01,5.21536e-02,
-9.68846e-02,1.35482e+00,-2.12934e-01,-3.49956e-01,-6.13201e-01,6.99975e-02,4.53287e-01,-4.02441e-01,-2.96157e-01,1.89756e-01,4.43986e-01,8.76713e-02,3.04827e-01,-5.02177e-01,2.67741e-01,7.31811e-01,3.96020e-01,5.68144e-01,-5.33659e-01,-2.07162e-01,1.90111e-01,3.85896e-01,-2.05749e-01,-7.47127e-02,3.19781e-01,
-3.28921e-01,-6.56187e-02,8.92325e-02,-8.72881e-01,-2.14930e-01,9.36140e-02,-1.09340e+00,-1.14638e-01,1.35989e+00,-1.19945e-01,-5.80223e-01,2.02911e-01,6.24080e-01,-2.84520e-01,-7.48957e-02,-3.52686e-01,5.10002e-01,-4.81359e-03,2.67274e-01,3.22778e-01,1.28797e-01,2.47362e-02,4.02406e-01,-5.37486e-01,-1.42313e-01,
-2.54872e-01,-3.22396e-01,8.42207e-01,3.65469e-01,-2.83111e-01,2.96679e-01,4.42007e-01,-1.10018e+00,-3.37228e-01,-1.41262e-01,8.71917e-02,-5.49536e-01,-6.05387e-01,3.12385e-01,-7.09886e-01,9.09010e-01,-6.79740e-01,7.83930e-01,-2.33573e-01,-6.43689e-01,4.83360e-01,6.83520e-01,-9.64353e-01,1.24275e+00,8.17028e-01,
5.73890e-01,-6.93446e-01,-2.43675e-02,-3.74767e-01,-2.09609e-01,5.09060e-02,8.00385e-02,-3.41816e-01,1.32965e-01,1.41825e+00,-6.09891e-01,-1.10743e-01,3.12405e-01,-1.04523e-01,2.46214e-01,1.71634e+00,-7.99184e-02,-5.99977e-01,8.23489e-01,2.71861e-01,6.76527e-02,-1.96177e-02,-2.54962e-01,3.38955e-01,2.25219e-01,
-4.72972e-01,5.06095e-01,-7.70723e-01,9.31041e-01,8.81187e-01,-1.77110e-02,4.69048e-01,-3.23504e-01,-3.61512e-01,-1.90421e-01,6.35409e-01,-4.54658e-02,2.67221e-01,1.21900e+00,-4.64558e-01,-5.86828e-01,1.35934e-01,6.98700e-01,4.95570e-01,2.32322e-01,2.50733e-01,4.56641e-01,-2.15325e+00,-9.42753e-02,4.92854e-01,
-3.07577e-01,-2.85861e-01,5.20607e-02,-1.87520e-01,2.37185e-01,-3.10622e-01,2.13913e-01,1.75377e-01,-3.60109e-01,-1.39615e+00,-1.20140e-02,-1.68247e-01,4.33010e-01,-4.30845e-01,-1.10769e-01,-4.05425e-01,3.78876e-01,-3.64531e-01,5.20201e-01,1.35717e-01,2.46695e-01,1.20720e+00,3.10926e-01,-5.28853e-01,5.85382e-01,
-7.22370e-01,6.68324e-01,3.12362e-01,4.70924e-02,-1.63872e-01,1.96760e-01,7.65135e-01,-9.82276e-01,-4.32039e-01,4.01090e-01,-2.22715e-01,-9.31708e-01,1.87647e-02,2.30432e-01,-9.21095e-01,3.18109e-01,-7.63936e-01,3.25590e-01,-1.59585e-01,1.12328e-01,5.86318e-01,4.63563e-01,-1.91161e-01,3.65140e-01,-8.53306e-01,
1.36792e-01,-1.06876e-01,1.17563e-01,2.16688e-01,6.82923e-01,2.84377e-01,-5.66229e-01,9.29077e-02,8.30611e-01,-7.32719e-01,4.76109e-01,-4.48344e-01,-7.76834e-01,-5.71189e-01,-2.94541e-02,3.18105e-01,-2.02306e-01,3.88435e-01,-2.41337e-01,-9.36995e-01,-2.28074e-01,1.37889e-01,5.15556e-01,-2.90351e-02,7.23750e-01,
2.41572e-01,
-2.52181e-01,
-1.94429e-01,
-4.92983e-01,
-1.12079e-02,
5.01655e-01,
-1.37405e-01,
-2.40246e-01,
-2.59563e-01,
-3.45512e-01,
3.59064e-01,
3.10984e-01,
-3.06940e-01,
-4.75519e-01,
1.28983e-01,
4.24206e-01,
-2.10436e-01,
-3.48158e-01,
2.02667e-01,
-7.92424e-02,
-3.52707e-02,
-3.62405e-01,
3.03526e-01,
3.70728e-01,
2.32048e-01,
-5.88615e-02,3.24948e-01,-2.84533e-01,-2.99278e-01,1.94609e-01,-2.69605e-01,-3.46129e-01,1.05743e-01,-1.72085e-01,-2.18598e-01,-2.19054e-01,-5.59210e-02,7.06983e-02,2.78818e-01,5.67498e-02,1.27624e-01,-3.37834e-01,2.04566e-01,-2.68054e-01,-3.34209e-01,-3.49789e-01,1.09176e-02,-2.29925e-01,-1.16836e-03,2.86198e-01,
2.02739e-01,-1.51810e-01,-6.55539e-01,5.19672e-01,4.93489e-01,3.39015e-01,2.35322e-02,9.70699e-01,-3.07534e-02,-2.24417e-01,2.23740e-01,-2.07425e-01,6.82277e-01,5.04125e-02,1.75754e-01,-2.61710e-01,1.54200e-01,-5.61944e-01,2.74680e-01,-5.36795e-01,6.76907e-01,-3.82715e-01,-2.74451e-01,1.25184e+00,6.75036e-01,
2.27288e-02,-9.19586e-02,-9.81907e-01,6.68489e-02,-3.39791e-02,-3.06628e-01,5.75445e-01,4.05771e-03,9.75865e-02,3.07045e-01,4.19956e-01,2.92286e-01,-4.68279e-01,7.17978e-03,2.82195e-01,4.72691e-01,3.17310e-01,-4.47584e-01,1.60190e-02,-4.06831e-01,1.18664e+00,3.39980e-01,2.17717e-01,3.10713e-01,-2.82010e-01,
2.71571e-01,1.95773e-01,7.06073e-01,-4.01072e-01,-4.75950e-01,2.00820e-01,-4.81922e-01,-1.88991e-01,2.17525e-01,-3.24581e-01,4.13043e-01,-1.42444e-01,9.71439e-02,-5.98270e-01,-1.48200e-01,3.88803e-01,3.40848e-02,3.29078e-01,-4.87358e-01,-3.75849e-01,-1.47876e-01,4.26486e-01,1.64146e-01,3.58613e-01,3.24261e-02,
-3.29871e-01,2.47499e-01,-8.54426e-01,-4.94260e-01,7.23394e-02,-5.76046e-01,-7.60573e-01,1.22110e+00,-2.94689e-01,1.25987e-01,3.17532e-01,1.33522e-01,-1.69725e-01,6.76503e-01,5.67188e-01,2.78606e-01,1.28789e-01,2.31936e-01,-3.25838e-01,-1.21893e+00,-1.68811e-01,5.64429e-01,-1.11198e-01,8.33338e-01,9.69788e-01,
-3.96667e-01,2.16583e-01,-2.58518e-01,-2.48492e-01,5.50779e-01,1.91674e-01,-1.26956e-01,3.67415e-01,3.27760e-01,-1.26696e-01,5.93005e-01,6.69832e-02,8.67554e-02,-1.75743e+00,-4.99521e-02,2.06721e-01,-1.02576e-03,2.56002e-01,5.66470e-01,-1.13227e+00,1.91865e-02,1.91386e-01,-5.90870e-01,5.03119e-02,-2.28661e-01,
-1.45227e-01,7.45542e-02,-3.12242e-01,-1.18810e+01,-1.95739e-01,3.06767e-02,9.28719e-02,2.10397e-01,-2.72238e-01,-2.67763e-01,-3.65727e-01,-3.39325e-01,3.68819e-02,-3.26397e-02,-1.24789e-02,-1.32464e-01,-3.36443e-01,-8.98506e-01,2.43642e-01,2.97045e-01,9.83911e-01,-8.96946e-02,-1.33961e-01,-1.20306e-01,3.00378e-01,
5.39614e-02,1.32958e-02,-5.28028e-01,4.10475e-02,-2.08568e-02,-1.30873e-01,-5.49977e-02,4.77052e-01,-5.83060e-02,2.74884e-01,5.08141e-02,2.39940e-01,1.26361e-01,3.13322e-02,3.33031e-01,1.08989e-01,2.70706e-01,-5.43629e-02,-1.38107e-01,-1.04423e+00,1.73107e-02,2.65547e-01,-2.83306e-01,-5.36591e-02,-1.68044e-01,
-1.12022e-04,2.28351e-02,-1.14048e+00,4.34997e-01,-3.88700e-01,7.08542e-01,-6.29954e-01,2.83892e-01,-2.71434e-01,-3.39714e-01,6.44903e-01,4.45609e-02,-1.18981e-01,-1.13994e-01,5.29846e-01,2.03360e-01,1.59697e-01,-5.16510e-01,-4.45267e-01,-7.71602e-01,3.74139e-03,2.59806e-01,-5.98737e-01,-7.00136e-01,-3.59885e-01,
-8.05272e-02,3.02104e-01,-5.50957e-01,-7.90272e-01,-2.97510e-01,5.15758e-01,-6.45439e-01,5.54222e-01,2.48121e-02,2.40658e-01,6.04971e-01,3.97402e-02,3.97850e-01,-2.83404e-01,2.60058e-01,-6.58040e-02,3.22946e-01,-2.11233e-01,1.65341e-01,-2.13599e-01,2.88712e-01,-1.14999e+00,-4.47413e-01,-2.03622e-01,-4.43432e-02,
-1.25707e-01,2.49638e-01,-1.56741e-01,2.71896e-01,8.33400e-01,-6.93796e-01,2.21795e-01,4.72989e-01,2.69607e-01,2.17913e-01,4.37630e-01,3.74905e-01,-1.87229e-01,4.95926e-01,-7.92240e-01,3.84180e-01,-9.23319e-02,4.31078e-01,7.10070e-02,-4.44846e-01,-4.87333e-02,-1.00416e-01,-4.46506e-01,7.31593e-02,-2.66904e-02,
-9.02997e-01,-2.53459e-01,-7.21503e-01,-3.21165e-01,-1.64051e-01,2.79612e-01,-1.49230e+00,6.10264e-01,-2.89049e-01,5.24577e-02,-3.78809e-01,4.72600e-01,-4.95644e-02,4.94136e-01,4.23854e-01,1.10632e+00,9.80962e-02,1.72653e-01,-5.16381e-02,-1.41349e+00,-4.80275e-02,1.14863e-01,-6.08369e-01,2.08735e-01,6.86181e-02,
1.04109e+00,3.25854e-01,-3.51170e-01,1.01620e+00,7.50472e-01,-1.51861e-01,-8.95321e-01,-1.26251e-01,9.15957e-02,1.94777e-01,4.82790e-02,-4.25909e-01,1.64151e-01,3.95958e-01,-2.94398e-01,-7.60134e-02,-1.23563e-01,-3.52580e-01,-8.90841e-01,7.20336e-01,-2.60481e-01,-1.14927e-01,-4.71852e-01,-7.89692e-01,-2.10371e-01,
7.96718e-01,-3.99005e-02,-6.16256e-02,-2.56886e-01,6.81768e-01,8.05212e-02,2.80517e-01,6.39262e-01,-2.16687e-01,2.61384e-01,4.67507e-02,6.80904e-01,-5.27645e-01,-1.46137e-01,-1.90550e-02,1.02022e-01,1.93020e-01,-4.72216e-01,-3.56579e-01,2.31610e-01,5.97317e-01,-1.49663e-01,9.48984e-02,-3.43511e-01,-4.28229e-01,
-6.47229e-02,3.48236e-02,-3.51768e-01,-5.21150e+00,3.32497e-02,-3.96667e-01,-3.77168e-01,-3.00322e-02,1.89540e-01,-1.23582e-01,5.94998e-01,-6.22625e+00,-5.93981e-02,-1.11807e+00,5.07329e-01,1.14494e-01,-8.23547e-02,4.52451e-01,-4.37081e-01,-8.59320e-01,-2.70332e-01,2.88979e-01,1.62155e-01,3.05423e-01,4.93684e-01,
-6.48282e-01,-2.91737e-01,-5.53121e-02,-1.47242e+00,1.83334e-02,-3.45573e-02,1.79971e-01,-5.33466e-01,-3.84912e-02,2.86815e-02,8.20655e-01,8.12224e-04,6.45360e-02,-3.84895e-01,5.10390e-02,2.80224e-01,2.01592e-01,-1.04408e+00,1.58676e-01,-1.64534e-01,4.23537e-01,-2.23455e-01,5.03482e-01,-5.40056e-02,-4.02578e-01,
-5.02046e-01,-2.26943e-01,3.77612e-01,-1.45359e-01,1.32929e+00,-3.61567e-01,3.73877e-01,-7.06234e-01,-4.02072e-02,-1.84411e-01,2.57828e-01,8.24710e-02,-4.86467e-01,-7.35923e-01,2.10269e-01,-6.58125e-02,3.49435e-01,-1.38137e+00,-9.16014e-02,-3.04349e-01,9.29723e-01,-1.16143e+00,6.46763e-01,-2.73259e-01,-5.74315e-01,
-8.42091e-01,-1.32076e-01,-2.22043e-01,7.73951e-01,-4.26339e-02,3.26823e-01,-1.73945e+00,-3.62209e-01,1.47341e-01,-2.59570e-02,3.64090e-01,7.82961e-01,4.15930e-01,-2.03380e-01,5.34209e-01,1.68118e-01,-1.70767e-01,5.44315e-01,-5.20408e-01,-6.56050e-01,2.48900e-01,-1.96544e-01,9.15964e-02,-1.41838e-01,-4.34073e-02,
6.81939e-01,-2.11211e-01,1.18686e+00,7.54126e-01,-1.63063e-01,-1.07118e-01,-5.25366e-01,-4.89377e-01,1.76719e-01,-2.28944e-01,2.07218e-01,2.50415e-02,-1.73586e-01,-3.45811e-01,-1.30943e-01,1.68621e-01,-9.80659e-02,-1.51033e-01,4.09375e-01,2.06029e-01,-4.47352e-01,8.98777e-01,1.47221e-02,-1.31346e-01,2.67445e-01,
5.19648e-01,-1.79924e-01,-3.52410e-01,1.12800e+00,3.23756e-01,2.01226e-01,5.81940e-02,3.10208e-01,-3.41514e-01,-8.55313e-02,-9.53115e-02,-2.48463e-01,5.19061e-01,2.15123e-01,-4.79883e-02,3.97191e-02,-1.38241e-01,-7.06776e-01,-3.14357e-01,2.67711e-01,4.02968e-01,-1.44191e-01,-3.61108e-01,-8.93933e-02,1.69564e-01,
1.05837e-01,-2.51990e-01,-8.64709e-01,3.90297e-01,4.16399e-01,1.28211e-01,2.42782e-01,6.29887e-01,-6.63118e-02,-3.54654e-03,6.26831e-01,-5.84796e-01,1.65923e+00,4.64133e-01,-6.91250e-01,-6.32215e-02,2.45501e-01,-6.02910e-01,6.05499e-02,2.47259e-01,-1.25542e-01,3.81416e-01,-8.86237e-01,-4.49206e-01,-1.98569e-01,
-6.91882e-01,2.86975e-01,-6.99088e-02,-2.62508e-01,4.71380e-01,3.35368e-01,8.56984e-01,-2.94496e-01,-9.15445e-02,1.03805e-01,-3.12660e-01,7.79505e-02,1.03592e-01,1.86209e-01,-3.81354e-01,3.91474e-01,-1.88320e-01,3.80901e-01,-7.90325e-01,-1.10276e+00,-1.28303e+00,-8.98263e-01,2.68458e-01,1.14332e+00,-2.32274e-01,
-1.01116e-01,1.79363e-02,1.30028e-01,1.17460e+00,-1.73196e-01,1.36188e-01,2.27433e-01,-1.08168e+00,1.05823e-01,-5.06166e-02,3.93760e-01,-3.25179e-01,5.61890e-02,-1.35018e-01,7.28270e-02,-1.79227e-02,-9.93211e-02,1.90234e-01,3.30589e-02,1.31080e-01,3.14354e-02,3.31568e-01,4.40844e-01,-2.60755e-01,-1.19226e-01,
-3.56780e-01,9.81923e-02,1.21933e-01,7.74064e-01,2.63013e-01,2.70783e-02,-1.84289e-01,-3.63734e-01,-2.08928e-01,2.20523e-01,3.74154e-02,4.69173e-01,5.19405e-02,2.72776e-01,1.86685e-01,-3.01726e-01,6.77040e-02,5.16952e-02,-2.86570e-01,1.17874e-01,9.61917e-03,1.26957e-01,-1.21136e-02,-1.80428e-01,-5.66048e-01,
-8.08132e-02,2.85752e-01,-2.69183e-01,3.17758e-01,8.50971e-01,4.80868e-01,-1.96469e-01,-4.80821e-01,-2.51635e-01,2.37276e-01,1.67595e-01,1.96049e-02,-5.42901e-01,2.55050e-01,8.03406e-01,-1.07385e-01,-1.73696e-01,-3.33018e-02,7.22257e-02,-2.67362e-01,-8.74470e-02,3.58669e-01,-2.49046e-02,-1.68689e-01,3.62821e-01,
-3.46844e-01,
-5.73881e-01,
-3.41920e-02,
-3.19384e-01,
-5.53406e-01,
-2.12656e-01,
8.94079e-01,
5.19591e-01,
2.84925e-01,
1.56181e-01,
-1.11767e+00,
2.95358e-01,
4.54832e-01,
-4.37208e-02,
-8.86730e-01,
2.06147e-01,
-7.17147e-01,
5.58865e-02,
-2.97392e-01,
4.44841e-01,
-2.26216e-01,
-2.03653e-01,
-1.33909e-01,
6.03414e-01,
2.31103e-01,
-1.54410e-01,9.10713e-02,3.98589e-01,7.62277e-01,-3.61026e-01,-1.90685e-01,-4.26973e+00,5.49227e-02,2.37495e-01,-3.16860e-01,-3.63757e-01,8.87570e-01,8.46027e-01,-1.41613e+00,-1.32106e+00,5.47787e-01,-8.24181e-01,-4.48158e-01,-5.20679e-01,4.46419e-01,-1.08453e+00,3.33784e-02,3.94205e-01,-1.08459e-01,-3.68465e-02,
-2.26891e-01,6.75516e-01,2.63686e-02,-1.96203e-01,-2.16370e+00,5.60541e-01,-1.90541e-01,4.06241e-01,4.06001e-01,-2.71996e-01,-3.34829e-01,-1.39301e+00,-7.79726e-01,4.56062e-01,2.75614e-02,1.85650e-01,-5.65850e-01,1.16639e-01,-7.69257e-01,-1.16760e-01,-8.76924e-01,-1.35498e-01,-1.52806e-02,-3.94490e-01,2.64227e-01,
1.59264e-01,-2.24281e-01,-5.24432e-01,8.91909e-01,2.27129e-01,2.44792e-01,6.27303e-01,-2.61059e-01,-1.80643e-01,3.90102e-01,-4.08667e-01,-6.66555e-01,-3.12576e-01,1.70603e-02,1.63092e-01,-2.03380e-02,4.25934e-03,-6.04059e-01,-5.02364e-01,-3.92173e-01,5.65540e-02,-3.14952e-01,-4.64486e-02,1.91988e-01,3.32548e-01,
-2.59005e-01,-2.04360e-01,-1.85423e-02,-2.36244e-01,3.30347e-02,-2.52892e-01,4.99427e-02,-3.31912e-01,-9.07094e-02,-1.95092e-01,4.66909e-02,1.85222e-01,-2.69308e-01,-2.61100e-01,-2.72457e-01,-2.08682e-01,-6.94857e-02,-1.43207e-01,2.47139e-01,-2.38660e-01,1.27731e-01,-1.30790e-01,-1.34090e-01,1.47709e-01,-3.05229e-01,
-1.58100e-01,-1.69722e-01,7.74330e-02,4.98232e-02,-3.33084e-01,-3.40255e-01,-7.04048e-01,2.87095e-01,-3.90376e-01,2.67363e-01,1.07164e-01,5.08750e-01,-1.84670e-01,-1.11443e-01,-1.95560e-01,7.31146e-02,-1.39706e-01,3.50655e-01,2.04412e-02,5.44636e-01,-1.10578e-02,2.25119e-01,-2.65060e-01,-1.25114e-01,2.44905e-01,
5.72550e-03,9.10860e-02,2.23634e-02,1.69114e-01,-7.85601e-01,7.36311e-01,6.03796e-02,4.30535e-01,6.08976e-03,2.41505e-01,-3.92591e-01,-2.26289e-01,1.60317e-01,-2.54951e-01,2.13827e-01,1.43586e-01,-4.49925e-01,-3.81371e-01,2.74502e-01,3.19076e-01,-2.03982e-01,2.80253e-01,-3.43599e-01,8.62897e-01,4.39251e-02,
1.98043e-01,-3.65641e-02,3.72417e-01,-5.54996e-02,2.01161e-01,-2.44062e-01,1.63106e-01,3.42030e-01,1.46232e-01,-1.31755e-01,-7.79291e-02,-5.97725e-01,-8.31730e-02,2.24887e-02,2.09483e-02,-1.35896e-01,3.86180e-01,6.29409e-01,-1.12063e-01,-1.83627e-01,1.54372e-02,2.52748e-01,1.83644e-01,-2.92688e-01,-1.05570e-01,
3.35084e-01,-1.06308e-01,-1.05196e-01,-4.07203e-01,-2.31880e-01,4.64934e-01,5.82901e-02,1.66229e-01,7.67773e-01,1.73456e-01,-8.47903e-01,-4.50360e-01,2.22709e-01,5.86979e-02,-2.52006e-02,6.39464e-02,-6.31859e-01,4.10382e-02,-1.16919e-02,-5.30872e-02,1.20130e-01,4.29299e-03,2.02618e-01,-1.84686e-01,5.59177e-01,
-8.12455e-02,-1.21166e-01,-1.87259e-02,-1.44579e-01,2.60995e-01,-1.09992e-01,-6.59698e-02,-2.99281e-01,7.02539e-03,-2.05223e-01,6.71983e-03,2.75347e-01,4.09252e-02,3.49230e-02,2.24306e-01,-2.35983e-01,3.14397e-01,-4.35359e-02,-1.27021e-01,-9.40150e-02,-1.25030e-01,-2.70021e-01,-2.48830e-01,-1.70980e-02,-3.45871e-01,
-2.68263e-01,4.28594e-02,6.77897e-02,5.53182e-01,2.06748e-01,2.11615e-01,-5.84914e-01,2.72911e-02,-9.41292e-02,1.33676e-01,1.94557e-01,-6.10701e-01,-1.17729e-01,-7.02975e-03,-6.59914e-01,1.14241e-02,-3.01673e-01,-1.75290e-01,-5.63886e-02,8.67116e-02,-4.13687e-01,3.44848e-01,1.83860e-01,-4.80372e-02,1.24034e-01,
8.84172e-02,-1.54118e-01,1.06120e-01,-6.18597e-02,3.90145e-02,6.61459e-03,6.60479e-02,4.90094e-01,-3.08185e-02,6.52194e-01,-4.35932e-02,3.06203e-01,-2.01696e-01,-2.78865e-01,4.90064e-01,-2.12202e-01,1.16548e-01,6.38942e-01,1.94411e-01,-4.34733e-02,1.89723e-02,2.03406e-01,-2.02524e-01,1.89561e-01,-5.31372e-03,
-2.59257e-01,-2.69018e-01,-5.92859e-01,6.41936e-02,1.46277e-01,-2.56803e-01,2.96892e-01,3.91230e-01,-8.91273e-02,3.08906e-01,-2.67639e-01,-3.71782e-01,-5.75020e-02,8.06860e-02,3.42994e-01,-2.61734e-01,1.65399e-01,1.72625e-01,-3.10903e-02,-1.40384e-01,1.26088e-01,1.26932e-01,8.10850e-02,5.56428e-01,-3.50047e-02,
-1.45664e-01,-1.00650e-02,4.75440e-01,-7.72534e-02,-2.31617e-01,1.71735e-01,-4.92159e-02,4.46508e-01,4.81380e-01,-3.93235e-02,5.93675e-01,2.30924e-01,5.76528e-02,-1.35138e-01,-2.72289e+00,2.32373e-02,1.38748e-01,-2.60751e-02,1.14317e-01,1.60894e-01,-4.23716e-01,1.53855e-01,-6.75301e-02,1.93545e-02,-2.32512e-01,
8.10942e-02,9.15799e-02,-3.74233e-01,-3.34051e-01,6.39915e-01,2.66316e-01,8.94795e-01,-2.42512e-01,-1.51195e-01,2.62638e-02,-5.12422e-01,-2.69116e-01,1.93904e-01,3.29955e-01,6.53339e-01,-2.66345e-02,-7.87231e-02,1.21682e-01,-3.05393e-01,-8.44348e-01,-5.61932e-01,-2.27354e-01,3.45825e-01,1.71626e-01,-1.17582e-02,
2.13802e-01,-6.57142e-01,-8.41659e-02,1.69528e-01,-1.00497e-02,3.02854e-01,-2.54347e+00,-3.37827e-01,-5.37706e-02,1.17643e-01,1.16546e-02,-2.53945e-02,1.99295e-01,3.35886e-01,-3.51324e-01,-9.00566e+00,-5.44997e+00,7.65245e-02,5.81909e-02,-5.11150e-01,-1.43489e+00,-2.76192e-01,-8.67696e-02,5.35749e-01,-2.87828e-02,
-7.54831e-02,1.09267e+00,-9.41722e-02,4.51826e-01,-8.92721e-01,6.39359e-01,-9.05874e-03,1.94953e-01,5.51124e-01,2.64442e-01,-1.08401e+00,-1.73579e-01,-4.94718e-01,-2.06670e-01,8.96765e-02,5.80018e-03,-1.79717e-01,3.52920e-01,3.77119e-01,-5.76129e-01,-9.15650e-01,-3.72688e-01,-2.93604e-01,-1.61579e-01,1.97285e-01,
-2.54775e-01,2.10569e-01,-1.53948e-01,1.00194e-01,-3.70655e-01,9.89250e-01,1.57965e-01,-1.24379e-01,-4.74487e-03,-3.72620e-01,8.15808e-01,1.70222e-01,-2.08522e-01,-5.07501e-02,-1.15670e-01,-3.69776e-01,-4.69704e-01,2.23569e-02,-5.36611e-01,3.95600e-01,3.50620e-01,4.70583e-01,-4.95346e-01,-5.67953e-02,6.80281e-02,
4.92953e-02,8.91940e-02,1.56875e-01,-5.28264e-01,-1.22924e-01,-3.30337e-01,-8.40603e-01,-6.12837e-02,7.08029e-01,1.78441e-01,-5.30949e+00,-1.55813e-01,1.07531e-01,-1.62232e-01,-2.19886e+00,1.81756e-01,3.37297e-01,-1.33140e-01,1.09763e-01,9.89057e-02,-1.29191e-01,6.71675e-02,1.35361e-01,-5.73837e-01,2.99967e-03,
9.45477e-02,5.79565e-03,7.92812e-01,3.23881e-02,1.24406e-02,-1.42797e-01,1.49262e-01,3.01370e-01,1.56762e-01,1.14223e-01,3.13039e-01,4.26396e-01,2.64070e-01,-1.02873e+00,-5.52753e-01,-4.72321e-01,5.02663e-01,6.22865e-01,-1.65470e-01,-6.69502e-02,-4.74081e-01,1.49143e-02,7.82440e-02,-5.01612e-01,2.72764e-01,
-5.04275e-02,-1.42619e-02,-4.27255e-01,6.49781e-02,1.02374e-01,5.31436e-02,-4.41103e-01,2.83912e-01,-2.44300e-01,5.45797e-01,1.10821e-01,-8.00858e-02,-1.80666e-01,-1.64440e-01,-7.86129e-02,2.87970e-01,-9.32856e-02,1.28377e-02,2.32615e-01,1.65136e-01,1.41991e-01,9.89211e-02,2.83544e-02,2.32966e-01,2.29283e-01,
1.60023e-01,-6.67396e-02,7.06598e-01,-4.52381e-01,-3.74523e-01,6.85600e-02,3.66290e-01,-1.18272e-01,-6.23169e-01,5.52515e-03,4.93256e-01,9.67683e-01,3.04667e-01,-8.24973e-01,-7.19387e-01,-1.09167e+01,-1.10032e+00,-1.33007e-01,7.09109e-02,-3.69459e-01,-1.82801e+00,-6.94653e-02,9.64355e-02,6.06271e-01,-2.47438e-01,
-8.15117e-02,1.97955e-01,-2.89733e-01,-1.33236e+00,-8.31487e-01,1.88193e-01,5.82661e-01,1.84984e-01,4.66890e-01,-2.66426e-02,-2.92448e-01,3.94862e-01,-5.63915e-01,-7.30865e-02,4.05885e-02,4.03633e-01,-2.32886e-01,-3.11440e-01,5.00052e-01,-2.49689e-01,-7.54570e-02,3.03747e-01,3.49733e-01,-6.52344e-03,-1.09766e-02,
-3.03209e-01,-1.19026e-02,9.12331e-02,7.26895e-01,-3.91355e-01,9.63023e-02,1.42036e-01,-1.80940e-02,-3.23925e-01,-2.17997e-01,-2.88293e-01,1.68598e-01,3.32783e-02,2.12566e-01,-9.55477e-03,4.42180e-02,-1.16763e+00,-2.33610e-02,-2.13080e-01,-5.14032e-02,5.58345e-01,-8.10532e-01,-4.98893e-01,1.90284e-01,1.10568e+00,
1.89494e-01,3.75600e-01,-3.64693e-01,5.48956e-01,-2.08505e-01,4.49273e-01,3.86423e-02,3.35797e-01,6.29696e-01,2.18521e-01,-1.14234e-01,5.83593e-01,-5.44225e-01,-3.82048e-01,7.19628e-01,1.07133e-01,-1.81893e-01,3.91192e-01,9.52972e-02,2.68797e-02,1.86817e-01,1.85151e-01,-3.79518e-01,-9.16230e-03,1.20848e-01,
-2.63495e-01,-1.97088e-01,-6.88004e-03,5.15351e-01,1.00964e-01,-3.19384e-02,-1.78639e-01,9.02046e-02,7.90829e-01,8.62004e-02,-1.05812e-01,-4.65343e-01,-7.22595e-02,1.09493e-01,-2.30559e-01,9.33087e-02,-9.84774e-02,-2.37989e-01,-6.25615e-01,-2.41018e-02,2.05958e-01,-9.91048e-02,1.71183e-01,-5.65440e-02,2.31210e-01,
-7.62808e-01,
-4.36823e-01,
-1.86970e-01,
-2.79146e-01,
1.90515e-01,
-4.05510e-01,
2.34146e-02,
1.48802e-02,
-2.58366e-01,
1.01382e-02,
2.29117e-01,
5.99841e-02,
-9.22086e-02,
-6.13146e-02,
-1.00445e-01,
-5.52942e-01,
-1.35111e-02,
3.45449e-01,
-2.97005e-01,
7.36706e-02,
3.22594e-01,
-4.43473e-01,
-9.96145e-01,
-1.58811e-01,
1.08222e-01,
-3.77941e+00,1.91254e-01,-2.60820e-01,4.87327e-02,-3.76958e-02,-2.11617e-01,-6.64316e-01,4.29992e-02,2.80014e-01,6.51929e-01,5.93999e-01,6.00245e-01,-4.53201e-01,-2.71797e-01,-1.11718e+00,-8.61476e-02,2.43477e-01,3.35618e-01,-4.99906e-02,-1.10805e+00,-1.90333e-01,-8.62694e+00,-3.90247e+00,-1.63378e-02,1.63814e-01,
1.15209e+00,-2.69869e-02,-1.21044e-01,-8.24246e-02,-2.16169e-01,2.17782e-01,-6.00333e-02,6.29909e-02,2.53903e-01,-3.64349e-02,-2.91789e-01,1.61297e-01,-5.45530e-02,-1.35855e-01,1.72341e-01,-4.83787e-02,-1.65370e-02,-1.54822e-01,1.64223e-01,2.42934e-01,-2.03691e-01,1.04854e-01,-2.60312e-02,-4.20172e-01,1.58905e-01,
-5.15300e+00,-1.43946e-01,-1.41828e-01,1.39428e-01,-2.60995e-01,-5.17505e-01,3.72012e-01,1.49978e-01,1.33323e-01,1.77559e-01,-5.27178e-01,3.50082e-01,3.52291e-01,-6.39825e-02,1.76254e-01,-8.94280e+00,-3.27136e+00,-4.81574e-01,4.00474e-01,5.45715e-01,-3.17254e-01,-5.11705e-01,2.84093e+00,-2.05144e-01,-1.88369e-01,
3.52627e-02,-5.13410e-01,3.11173e-01,6.47390e-02,1.24134e-02,-1.40754e-01,5.13651e-02,1.26822e-01,-2.78214e-01,-1.19465e-01,6.46130e-02,-7.44269e-02,-7.40528e-02,-1.20568e-01,1.42274e+00,-4.91366e-02,6.10722e-02,8.48159e-02,1.04055e-01,-6.05658e-02,7.68893e-02,2.78411e-02,-1.52827e-03,9.09006e-02,-2.56498e-01,
-1.97073e-02,-1.67311e-01,3.51953e-02,-3.93005e-02,-9.45049e-02,-2.13561e-01,-1.84540e-01,8.21941e-03,-2.11735e-01,1.16210e-01,-2.39922e-01,-2.55011e-01,-6.51298e-02,2.15661e-01,1.56463e-01,-1.11915e-01,-7.37867e-03,3.87538e-02,2.68143e-01,-1.14171e-01,-2.00658e-01,-1.53118e-01,-6.90682e-02,1.01301e-01,-3.82887e-02,
2.10080e-02,3.23687e-01,-1.02236e+00,1.49043e-01,2.20556e-01,-4.41127e-02,3.72610e-01,-2.05131e-01,2.29813e-01,-1.82824e-02,-6.82151e-01,-1.61798e-01,-1.29995e-01,4.76000e-02,-3.35736e+00,-1.41751e+00,-2.94228e+00,-2.11133e-01,9.03783e-01,3.78848e-01,-2.59665e+00,3.93702e-02,-2.62673e-02,-8.10058e-01,-2.27590e-01,
7.49824e-01,-1.35872e-01,-5.95697e-02,2.55677e-01,-5.23060e-02,1.18956e-01,-3.50574e-01,6.45959e-02,-6.51202e-02,-2.96417e-02,1.24996e-01,-3.23998e-04,7.90779e-02,5.28605e-02,7.88878e-02,-4.78564e-01,-1.14396e-01,1.43041e-02,-3.60051e-02,1.64109e-01,2.40746e-01,3.70556e-01,1.34836e+00,-1.21821e-01,2.21030e-01,
-7.23100e-01,-4.65898e-01,-1.04129e-01,2.43187e-02,-4.50126e-03,-2.15110e-01,2.33286e-01,-1.87336e-01,-3.17025e-01,1.46774e-01,2.91860e-02,-2.40945e-01,-2.41934e-01,7.45683e-02,1.20792e-01,3.22283e-01,-2.03700e-01,3.32073e-03,1.03790e-01,2.41459e-02,1.39880e-01,-6.45319e-02,4.83424e-01,4.66037e-01,-1.89870e-01,
5.39387e-01,-1.27897e-01,-2.86630e-01,2.94224e-01,6.57100e-01,3.00103e-01,2.09669e-01,2.06303e-01,-1.67691e-01,-1.65466e-01,-4.74613e-01,3.91907e-01,8.37736e-02,4.10683e-02,6.23581e-02,-5.81261e-01,-9.81345e-01,-3.63880e-01,-2.62820e-01,3.27852e-02,-2.58312e-01,1.68646e-01,2.94685e-01,-4.69560e-02,1.49825e-01,
2.86876e-02,2.89586e-01,1.82470e-01,4.97633e-03,-4.37872e-01,-9.73168e-03,-4.17818e-01,-3.89889e-01,1.68656e-01,-5.91005e-01,-1.77355e-01,-4.39369e-01,3.56838e-02,1.83459e-01,-3.33312e-01,3.52622e-02,-1.45143e-01,-1.11495e-01,1.91595e-01,-6.13519e-01,-2.92462e-01,-2.60689e-01,-2.61803e-01,-2.12406e-02,-4.70567e-01,
-3.35236e+00,-4.71039e+00,4.42789e-01,-3.47815e-02,2.32595e-01,-9.54072e-01,1.32258e-04,-7.33621e-02,-3.41616e-01,-1.52380e-01,1.76411e-01,-1.62760e-01,2.58357e-01,1.57828e-01,9.74659e-02,6.16465e-02,1.41838e-01,-8.19405e-02,-8.93996e-02,-2.22588e-01,-8.16580e-01,1.93550e-01,1.31319e+00,-4.58237e-02,-4.69696e-01,
-3.15375e-01,-2.00050e-01,1.01876e-01,2.35811e-01,6.11690e-03,-9.42288e-02,1.29461e-02,-3.05373e-01,-1.14441e-02,5.60804e-02,3.91052e-02,-1.86888e-01,-2.03677e-01,-5.08108e-02,-2.93927e-01,-2.60835e-01,4.89794e-02,1.81972e-01,-3.47005e-02,-3.28305e-01,2.91448e-01,1.64019e-01,-1.86877e-02,-6.69249e-02,-2.74122e-01,
7.32551e-01,-5.36719e-01,3.30116e-01,-1.15724e-01,-5.28826e-02,-2.13990e-01,-2.09670e-02,1.70860e-01,1.14450e-01,-2.39721e-01,8.79288e-02,1.00607e-01,1.36458e-02,3.87673e-02,-5.70491e-01,1.44752e-01,1.84240e-01,-2.05970e-01,-2.09128e-01,-1.09867e-02,5.24356e-01,-4.71770e-02,-2.17017e-01,-1.75746e-01,2.65941e-01,
4.04511e-01,-2.61991e-01,2.39445e-01,1.49345e-01,1.34597e-01,-4.52897e-02,7.60985e-02,4.51909e-01,-1.64951e-01,-2.26829e-01,1.33420e-02,8.06015e-02,1.41098e-02,-9.58832e-02,1.28045e+00,1.48960e-02,1.10902e-01,-1.82634e-01,-4.98733e-01,1.32074e-01,3.06904e-01,1.12496e-02,1.33355e+00,3.91386e-01,-3.43404e-02,
2.88513e-01,1.39973e-01,-2.09887e-01,-2.35604e-01,-3.43510e-01,-1.76681e-01,1.91782e-02,-2.56015e-01,-2.95847e-01,-6.76416e-02,-2.69154e-01,-7.34458e-02,-2.68528e-01,-2.02674e-01,-3.22543e-01,-2.93124e-01,1.84775e-01,-7.93629e-02,-2.48425e-01,-2.66948e-02,4.42643e-02,3.33558e-01,-1.13666e-01,8.92742e-02,-6.77561e-02,
-2.66343e-02,5.05694e-02,4.28232e-02,2.29591e-01,-2.07197e-01,-2.76213e-01,-3.05139e-02,-2.44793e-01,8.03218e-02,2.28646e-01,-2.19231e-01,-6.49331e-02,-2.04886e-01,-2.44679e-01,-9.13950e-02,-6.79002e-02,-1.87462e-01,-1.39884e-01,2.12626e-01,-1.17133e-01,1.98531e-01,3.14734e-01,1.85005e-01,1.86560e-01,2.62056e-01,
6.45708e-01,5.49916e-01,-2.79226e-01,-1.42764e-01,-1.63867e-01,4.17290e-01,1.62988e-01,1.25084e-01,7.45093e-02,3.04497e-01,-2.91237e-01,1.59867e-01,-1.65896e-01,-1.33426e-01,1.60010e+00,2.42558e-01,-2.92885e-01,-8.87282e-02,4.13335e-01,2.87524e-01,2.50960e-01,-4.00222e-02,-1.13507e-01,1.76976e-01,-8.50944e-02,
-2.52702e-02,-4.58983e-01,2.65030e-01,-2.21524e-01,1.39624e-01,-2.66148e-02,1.13446e-01,-1.21861e-02,-3.45149e-01,1.19791e-01,8.33714e-02,-2.24119e-02,1.53083e-01,1.32971e-01,1.19780e+00,1.86641e-01,-7.82607e-02,-3.99731e-02,-7.75348e-02,2.28758e-03,5.34916e-01,-5.52651e-02,5.77322e-02,3.79539e-01,-1.86685e-01,
1.76569e-01,-8.30286e-02,3.31415e-01,1.28246e-01,5.35237e-01,-3.98665e-02,-3.34861e-01,9.00092e-01,-1.29781e-01,4.95163e-01,2.64609e-01,-5.27394e-01,-3.01175e-01,-5.71232e-01,-1.96396e-01,7.58242e-02,-9.86118e-02,-2.92227e-01,2.04715e-01,-6.44172e-01,-3.47485e-02,9.90167e-03,-1.39062e+00,-4.05328e-01,-2.75026e-01,
2.54145e-01,5.44576e-01,-2.95035e-01,1.77543e-02,4.41829e-01,5.62565e-01,-9.89821e-03,2.82914e-01,3.59609e-02,-2.56000e-02,-1.91873e-01,2.01225e-01,1.66801e-01,1.28852e-01,-5.81813e-02,-3.88024e-02,7.37353e-02,-1.62265e-01,-4.28764e-01,-9.03637e-02,-2.15083e-01,2.33370e-01,7.98633e-02,1.19640e-01,1.97854e-01,
-1.58613e+00,-8.20046e-01,-1.16087e-01,2.82672e-01,1.19412e-01,-2.98378e-03,-1.31153e-02,-2.05568e-01,-3.67430e-02,-6.96638e-02,2.22695e-01,-7.54714e-02,-3.91266e-01,-1.99878e-01,8.10551e-01,8.70608e-01,2.06179e-02,1.09556e-01,4.44449e-01,-8.32757e-02,-4.00689e-01,-2.32218e-03,9.18904e-01,-1.06927e-01,3.43617e-02,
-1.05360e-03,5.75157e-02,-2.12578e-01,4.79877e-03,-3.98809e-01,-3.67434e-01,1.26846e-01,-3.24072e-01,1.51779e-02,-1.93021e-02,-1.72535e-02,-2.25947e-01,2.07105e-01,-5.74711e-02,1.08668e-01,-8.32010e-02,-3.10629e-01,1.82644e-01,-6.32207e-02,-3.09035e-01,6.29293e-02,-3.41960e-01,-2.12214e-01,1.13143e-01,2.21260e-01,
1.07178e+00,-1.87693e-01,-1.76577e-01,1.21868e-01,1.14436e-01,1.91020e-01,-7.81549e-02,1.56074e-01,2.57054e-01,1.70943e-02,-1.52421e-01,1.81054e-01,2.73639e-02,3.85692e-02,4.86078e-02,4.19424e-01,1.41313e-01,2.03356e-01,-1.33307e-01,2.85591e-01,1.05680e-01,-3.12112e-01,6.11737e-01,1.53910e-02,1.14852e-01,
1.44751e-01,4.92837e-01,7.57275e-02,-2.11584e-01,4.62657e-01,-7.17566e-02,2.05736e-01,-4.79910e-01,1.53038e-01,-1.96256e-01,-7.16211e-01,4.07934e-01,4.81643e-01,5.15175e-01,-4.43471e+00,-1.57237e+01,-2.20174e+00,-7.31238e-01,1.18335e+00,-8.02523e-02,-6.32040e-02,4.42560e-01,2.80391e+00,-6.30072e-01,6.27368e-01,
-2.67795e-01,-1.76265e-01,2.25030e-01,-2.78608e-01,-2.88147e-01,-1.86609e-01,-3.17526e-01,-2.74000e-01,-1.34067e-01,-1.72710e-02,-3.24792e-01,1.17848e-01,-2.78777e-01,-2.44498e-01,-1.73461e-01,-3.35890e-01,2.91053e-01,-3.72213e-02,-9.06566e-02,-1.73332e-01,1.91552e-01,-2.78659e-02,2.45051e-01,5.26206e-03,9.33092e-02,
-1.45672e-01,
3.51596e-03,
-3.99919e-03,
-3.83529e-02,
-1.46438e-01,
2.93096e-02,
-1.68454e-02,
1.65962e-03,
3.25863e-02,
4.31090e-02,
9.79113e-02,
-1.95363e-01,
1.09068e-01,
1.73922e-03,
-1.12097e-01,
-3.40302e-01,
7.26624e-02,
-1.66773e-02,
-1.59350e-01,
-1.96913e-02,
1.09367e-01,
-1.89908e-01,
4.97479e-03,
-1.30876e-01,
-1.39758e-01,
1.27618e-02,1.83859e-02,-7.31901e-02,1.43064e-02,2.64504e-01,-5.78470e-02,-6.52249e-02,-1.46972e-02,1.62799e-01,-3.90601e-01,1.16629e-02,1.12067e-01,-2.00342e-02,-8.41005e-02,2.04871e-01,2.37805e-01,7.21404e-02,3.75415e-02,-4.00282e-02,-1.98000e-01,-8.11400e-02,-5.71708e-01,-4.46407e-03,-1.22760e-02,3.74096e-01,
-7.86021e-02,2.19153e-01,2.17299e-02,-4.48359e-02,-2.68434e-01,-2.61085e-02,-9.25436e-02,4.47040e-02,8.24944e-02,6.91947e-01,-2.81929e-02,1.11613e-01,8.14492e-02,5.95357e-02,-2.89608e-01,1.08728e-01,3.50392e-02,-6.37871e-02,-6.09695e-02,-1.44215e-01,9.82650e-03,1.85076e+00,-1.95451e-01,-1.32810e-02,-3.98838e-01,
-4.10692e-01,1.79182e-01,-6.04003e-02,1.76451e-01,2.35065e-03,-1.65805e-03,-9.74734e-02,1.15164e-01,1.10806e-01,2.09437e-01,2.51800e-03,-4.09608e-01,-1.01618e-01,-9.64603e-03,5.61932e-03,-2.71476e-01,-9.76125e-02,-1.15746e-01,1.69583e-02,-1.16268e-01,-8.48285e-02,-2.78912e-01,-8.70323e-03,-3.92754e-02,1.29736e-01,
8.24996e-04,2.30671e-01,2.05359e-02,5.36696e-02,4.15115e-01,-9.85787e-02,-7.41364e-02,8.35974e-03,6.52436e-02,4.49457e-01,-5.82851e-02,-3.39669e-01,-3.79171e-02,-7.45592e-03,2.87280e-01,-3.01613e-01,-5.01509e-02,2.31043e-03,-5.87382e-02,-1.03616e-01,-1.22286e-02,9.00499e-01,-1.26759e-01,9.39162e-03,1.24290e-01,
-2.44114e-01,1.23592e-01,-6.12121e-03,1.49683e-01,3.67833e-01,1.37585e-02,-3.39442e-02,1.15908e-01,1.03638e-01,4.10960e-01,-8.13649e-03,3.26203e-01,-2.51026e-02,-7.94001e-02,-3.32990e-02,8.58063e-02,-7.60226e-02,-6.28643e-02,-5.39877e-02,-7.93323e-02,-5.62783e-02,7.79792e-01,-3.50174e-02,-4.05152e-02,-1.42220e-02,
-1.15110e-02,3.76081e-01,2.78013e-02,-1.26691e-02,4.69651e-01,-1.19628e-01,-9.97488e-02,-8.45009e-02,1.67497e-02,3.96166e-01,-1.27226e-01,6.62629e-02,-1.52328e-01,1.89305e-02,3.94655e-01,-1.41232e-02,-1.62708e-01,1.10429e-01,-6.85475e-02,-5.84998e-02,4.28983e-02,-5.40954e-03,-1.33684e-01,1.47364e-03,2.23448e-01,
-2.42034e-01,1.21451e-01,-5.43528e-03,1.56343e-01,-1.19997e-03,1.57341e-02,-2.96461e-02,1.14169e-01,1.03239e-01,5.14919e-01,-9.56201e-03,-2.81404e-01,-2.37026e-02,-8.39160e-02,-2.89039e-01,-2.09152e-01,-7.64823e-02,-6.17887e-02,-5.59987e-02,-7.67939e-02,-5.67041e-02,7.31775e-01,-3.57445e-02,-4.09543e-02,-2.45657e-01,
8.40001e-03,2.25628e-01,1.76604e-02,5.85998e-02,4.75116e-01,-1.05617e-01,-7.06344e-02,-2.30494e-03,6.43823e-02,7.72209e-01,-6.10511e-02,-3.12491e-01,-4.93279e-02,-1.63249e-02,-2.63974e-01,-3.22119e-01,-5.87756e-02,1.87514e-02,-6.40360e-02,-1.07395e-01,-1.47591e-02,5.39121e-01,-1.08332e-01,1.83157e-02,4.13516e-01,
-1.11862e-02,3.58943e-02,3.76232e-02,3.35921e-01,3.71402e-01,4.66229e-02,2.19076e-02,1.82108e-01,1.10348e-01,1.17464e+00,9.24829e-04,-3.66428e-01,8.16879e-02,-1.72568e-01,-2.91128e-01,2.74524e-01,-7.64769e-02,-9.11840e-02,-1.16079e-01,2.26084e-02,-6.22145e-02,1.78122e+00,-5.04578e-02,-6.69531e-02,-2.84480e-01,
2.09189e-01,
1.90258e-01,
2.29971e-01,
-2.30744e-01,
-2.33270e-01,
2.36179e-01,
-2.33531e-01,
-2.29983e-01,
1.94536e-01,
