// Neural Network File Format by Kyle Julian, Stanford 2016
6,4,9,25,
4,25,25,25,25,25,9,
0,
-8000.000000,-100.000000,-100.000000,0.000000
8000.000000,100.000000,100.000000,40.000000
0.000000,0.000000,0.000000,20.000000,-4.647677
16000.000000,200.000000,200.000000,40.000000,22.514692
1.67648e-01,-1.81802e-01,2.67862e-01,-7.64436e-02,
2.22183e+00,5.03580e-01,-2.22273e-01,-7.98843e-02,
-2.23710e+00,8.65757e-03,2.14950e-02,-1.12443e+00,
5.68910e-02,6.73949e-01,2.11530e-01,-1.29424e-01,
-4.34529e+00,1.39679e-03,4.33968e-03,-2.05462e-03,
-5.14970e+00,3.25697e-02,2.42414e-02,-4.77810e-03,
1.99477e+00,-2.50417e-02,3.72112e-02,5.95445e-01,
-1.48911e+00,3.58285e-01,-4.35574e-01,3.46587e-02,
-1.95274e+00,3.04725e-01,2.28628e-01,-5.33128e-02,
-9.92792e-01,2.26158e-01,-2.54006e-01,-1.97392e-01,
2.68859e+00,5.56508e-02,-1.09701e-01,-9.91865e-01,
3.22197e+00,-1.37686e-01,-7.55092e-03,-5.96028e-01,
4.27397e-01,1.48884e+00,6.32917e-02,9.39261e-03,
-5.86035e-02,-6.30907e-01,6.21464e-01,1.11300e-02,
2.96431e+00,-2.91668e-01,4.81741e-01,-3.14365e-01,
2.54880e+00,-2.93276e-01,4.76611e-01,5.22085e-01,
-1.53111e+00,-8.65728e-01,-9.53552e-02,-1.75060e-01,
-1.47050e-01,3.76478e-03,-5.77520e-01,-4.06379e-02,
-2.59923e+00,7.80711e-02,-8.38818e-02,-5.96322e-01,
1.82931e+00,-1.13999e-01,-3.25153e-02,4.26619e-01,
-2.27362e-02,1.47304e+00,-6.93705e-03,-7.29147e-03,
3.12368e+00,-3.65752e-03,-1.25812e-01,-7.79418e-01,
-1.55802e-01,-1.68863e+00,-2.20500e-02,1.72723e-02,
-2.32435e+00,2.64252e-01,-4.12321e-01,-2.90065e-01,
7.69947e-02,-1.88033e+00,-8.81457e-03,1.80897e-03,
-3.62496e-01,
1.49599e-01,
-2.52187e-01,
2.59814e-01,
-1.80706e-01,
2.42473e-01,
2.44857e-01,
1.57234e-01,
1.69266e-01,
1.21682e-01,
-4.25489e-01,
-1.08732e-02,
-3.72482e-01,
-8.98713e-02,
7.87286e-02,
3.46997e-01,
-1.45037e-01,
2.26058e-01,
6.94971e-02,
8.82264e-02,
-2.49091e-01,
-2.54279e-01,
-8.39246e-02,
9.77645e-02,
1.00955e-02,
-6.17962e-02,1.31790e-01,4.70167e-01,1.78013e-01,-8.54060e+00,-2.02756e+00,-9.02944e-01,-1.10708e-01,-5.43534e-01,-2.50007e-01,7.46569e-01,3.41256e-01,4.25007e-01,1.62262e-02,2.23807e-01,4.43172e-01,3.50099e-01,7.06202e-02,1.09801e+00,1.48904e-01,-2.97386e-01,-5.38287e-01,-1.76821e-02,1.90761e-01,-1.71303e-01,
1.26701e-01,-5.81594e-01,-8.40518e-02,8.47220e-02,3.54025e-01,-1.66263e-01,1.58236e-02,9.31667e-02,4.60735e-01,7.03361e-02,1.02016e-01,6.90991e-01,3.53486e-01,2.91038e-02,1.17468e+00,2.30558e-01,2.13742e-01,-1.52129e-01,-9.19839e-02,-7.38193e-01,-4.60625e-01,1.26533e+00,3.60915e-02,-7.06788e-02,-1.42366e-01,
-9.16943e-02,1.58261e-02,-2.26853e-02,-1.89527e-02,-3.94015e+01,3.70066e-01,-1.04700e-02,-2.24609e-01,-6.58486e-02,-1.16857e-01,2.85093e-01,1.23227e-01,7.59016e-01,3.36663e-01,1.33589e-01,-7.67320e-02,-1.83855e-01,-1.21165e-01,5.64510e-02,1.58781e-01,-8.02726e-01,1.05915e-01,1.26316e+00,3.51393e-01,-1.07380e+00,
-2.65895e-01,-8.12014e-01,8.89884e-01,4.14147e-01,1.73538e-01,-4.77166e-02,3.81978e+00,3.79516e-01,-9.42709e-01,-8.63643e-02,1.49228e+00,-4.95984e-01,1.20924e+00,7.86184e-02,1.19090e+00,-1.78043e+00,2.05341e+00,1.77050e-01,3.12890e-01,-3.30377e+00,-1.70138e+01,-9.62824e-01,-8.65835e-01,2.01831e-01,-1.47628e-01,
-1.59859e-01,-5.26107e-01,7.70467e-01,6.97810e-03,-5.40913e-01,2.97095e-01,4.26552e-01,-5.52245e-01,1.58559e-01,3.45951e-01,-5.07147e-01,-2.22486e-02,-1.57383e-01,-5.79776e-01,6.57855e-01,4.23547e-01,1.58910e-02,-6.56353e-01,3.51179e-01,-9.76858e-01,-3.73309e-01,-2.03210e-01,-5.14318e-02,-2.00129e-01,-1.07394e-01,
-2.80593e-01,8.76468e-01,-4.73276e-01,6.85527e-01,2.39669e+00,-7.35147e+00,-1.21383e-02,-5.60907e-01,-1.19887e+00,2.28391e-04,3.56360e-01,5.06014e-03,1.51724e-02,2.66692e-01,-3.26953e-01,5.18882e-01,-8.32924e-01,-2.27254e-01,7.79276e-02,-7.65668e-01,-1.68607e-01,1.75221e-01,1.05677e+00,-3.15723e-01,-2.70192e-01,
-1.20572e-01,-1.99600e-01,1.18071e-01,-4.54895e-01,7.19040e-01,2.68567e-01,-2.00656e-01,-2.05367e-01,4.95447e-01,2.02254e-02,2.89910e-02,1.01628e-01,7.62479e-01,1.20548e+00,-3.32355e-01,-1.32528e-02,3.82312e-01,4.37608e-01,-4.45550e-01,2.15607e-01,-3.95740e-01,1.65840e-02,8.28171e-01,-2.53321e-01,-1.32724e+00,
-3.11435e-01,2.68057e-01,-1.86964e-01,-2.39615e-01,-8.28198e-02,5.28467e-01,5.16476e-01,1.05460e+00,4.36502e-01,1.00337e+00,-2.54962e+00,-4.67585e-01,-2.60721e-01,3.48944e-01,-2.12722e-01,-7.10281e-01,-6.36579e-01,-4.45169e-02,-5.62085e-02,2.42324e-01,3.03708e-01,-8.48100e-01,4.76200e-02,-2.81421e-01,4.49082e-02,
1.01583e-01,-5.89905e-01,1.41790e+00,4.15861e-02,-1.50559e-01,6.11583e-01,1.87804e+00,4.85774e-01,-1.24131e-01,1.71728e-01,-7.97228e-01,7.68233e-02,1.27567e-02,1.80674e-01,8.31642e-01,-1.29944e+00,4.56609e-01,-1.73497e-01,2.56474e-01,-1.83673e-01,-4.08257e-02,-6.90820e-01,3.10029e-01,4.14325e-01,-4.83822e-01,
1.65798e-01,1.66921e-01,-9.26143e-02,5.22492e-02,-5.22410e-01,6.96164e-01,7.19612e-02,7.70063e-02,-1.97533e-01,-8.59221e-03,-8.23140e-02,-1.82544e-01,2.02275e+00,-1.58277e-01,3.44105e-01,-3.80180e-02,-1.44554e+00,2.52124e-01,1.06405e-01,-6.97830e-02,-2.22711e+00,1.24142e-01,1.49735e+00,-8.00123e-02,-9.43656e-01,
-7.18471e-02,-3.25038e-01,-4.03571e-01,6.27227e-01,4.10873e-01,-3.43664e-01,1.20412e-01,-3.96230e-01,3.05542e-01,-8.44985e-01,5.40284e-01,1.02664e+00,-2.75654e-01,1.74067e-01,9.35656e-01,6.61592e-01,2.46762e-01,-4.50450e-01,-5.82602e-01,-1.18171e+00,-1.97970e-01,1.10802e+00,1.44491e-01,-7.99427e-01,4.27875e-02,
-1.02255e-01,-7.05708e-01,1.84258e-01,2.15006e-01,-4.93448e-01,7.58392e-01,3.16436e-01,1.55743e-01,-3.67810e-02,2.22470e-01,-2.72996e-01,6.23293e-01,-8.73024e-01,-2.81020e+00,-1.46283e-01,-6.31795e-01,7.93485e-01,1.28138e-01,-9.91871e-02,-1.10982e-01,1.21995e+00,-5.77936e-01,8.50176e-01,1.71688e-01,-1.22051e+00,
-1.54026e-02,-3.64518e-01,4.72352e-01,-2.12950e-01,1.04865e-01,1.37316e-01,-6.07550e-02,-4.04616e-01,-5.84414e-01,2.38483e-01,-8.67458e-03,-1.45492e-01,9.90169e-02,7.25930e-02,3.15799e-01,1.58411e-01,3.99962e-01,5.13948e-02,-5.72808e-02,2.37355e-01,2.46779e-01,-2.34102e-01,-3.14633e-01,1.55063e-01,8.93199e-01,
2.31944e-02,-4.73890e-01,6.38970e-01,2.84947e-01,-4.98349e-01,1.58330e+00,-2.95374e-01,-1.06232e-01,-3.89226e-01,1.28597e-02,3.86515e-01,1.28846e-01,5.53914e-01,-3.34418e-01,1.71399e-01,1.89145e-01,-2.84589e-03,3.64723e-01,1.96931e-01,1.14840e-01,-3.09183e-01,-2.62687e-01,-1.52241e+00,1.34544e-01,8.93561e-01,
2.63148e-01,5.98908e-04,-5.18086e-03,-2.60046e-01,-1.68720e+00,1.20488e+00,-3.90190e-01,5.86444e-01,7.13605e-01,1.95672e-01,-1.44655e+00,-9.29453e-01,-2.87436e-01,-4.10618e-01,-1.38735e-01,8.84420e-01,-3.26426e-01,-4.96346e-01,-4.16509e-02,-6.51204e-01,-4.50112e-01,2.49053e+00,-1.03873e+00,-6.04459e-01,-8.22547e-01,
2.89117e-01,-2.72132e-01,1.08239e+00,1.64839e-01,-2.61379e-01,-3.82158e-01,-1.06107e+00,1.73663e-01,4.17467e-01,-4.57859e-01,-6.36722e-01,3.18902e-01,1.83900e-01,6.22317e-01,-4.17957e-01,7.97737e-02,-5.69696e-02,2.93275e-01,7.36304e-01,-1.12562e-01,1.81024e-02,-3.29985e-01,1.39176e-01,-1.32660e-01,-1.25738e-01,
-2.48540e-01,-3.41946e-02,-6.78374e-02,4.24017e-01,-2.00213e-01,5.40797e-02,-8.19488e-01,7.76071e-02,-4.52189e-02,-4.70937e-01,1.94911e-01,7.33651e-01,-2.59065e-02,-1.78247e-01,1.30562e-01,4.64469e-01,2.99315e-01,-4.01614e-01,9.35728e-02,1.47236e-01,-4.24757e-01,-2.31072e-01,1.81048e+00,3.21305e-01,-1.09828e+00,
-2.38357e-01,2.95596e-01,-2.40557e-01,-6.75645e-01,-1.18626e+00,3.57854e-01,-3.11977e-01,1.02617e+00,8.26791e-01,-6.44948e-01,-1.92828e-01,-2.63645e-01,3.67836e-02,7.03688e-03,-8.57295e-01,3.90502e-01,1.47532e-01,7.51274e-01,-3.12852e-02,-4.10438e-01,2.63890e-01,-2.86752e-01,-2.20484e-01,-2.93026e-01,-9.69004e-02,
-4.06891e-02,-4.61036e-01,1.59288e-01,8.41713e-01,1.02011e+00,-3.53626e-01,2.29043e-01,-4.41965e-01,-5.96454e-01,1.61867e-01,-6.11525e-02,3.33718e-01,-1.49565e-01,1.19361e-01,2.97023e-01,-3.64862e-02,-3.33270e-01,6.95725e-01,-3.23418e-01,1.09515e-01,4.73461e-01,-3.44807e-03,7.32519e-01,-4.77458e-02,-8.58565e-01,
-5.54043e-02,-1.69102e+00,7.77447e-02,6.51599e-01,2.15923e-01,1.96026e-01,4.80065e-01,-2.97906e-01,8.59342e-02,4.58724e-01,-1.17686e+00,-5.80833e-01,1.82545e-01,-4.90302e-01,-7.13779e-02,-8.60602e-02,-9.59419e-02,1.80186e-01,8.47052e-01,-5.16389e-01,1.65357e-02,4.51027e-01,8.00618e-03,5.03363e-01,-2.69440e-02,
1.58341e-01,-2.63005e-01,-9.91749e-02,1.74639e-01,2.65953e-01,-3.16217e-01,3.21974e-02,-1.44835e-01,-1.73861e-02,1.60054e-02,-2.86853e-01,-1.77781e-01,-3.30004e-01,-3.37881e-02,-2.24093e-01,-2.85700e-02,-5.40385e-02,5.74884e-02,-7.93760e-02,-2.29459e-02,2.87237e-01,7.46087e-02,2.55088e-01,-3.34388e-01,-2.44498e-01,
3.16998e-02,2.83074e-01,-3.56658e-01,-1.38836e-01,8.95268e-01,-3.46480e-01,-2.04357e-01,-3.13626e-02,-4.50216e-02,-4.32683e-02,-8.96241e-01,8.60947e-01,1.39267e+00,-6.25593e-02,-4.13676e-01,-6.97472e-02,5.89408e-01,-3.47415e-02,4.44981e-01,-4.08586e-01,-1.47359e+00,-9.15192e-01,7.40853e-02,-2.80151e-01,-1.32276e-01,
2.12785e-02,-1.11288e-01,-2.85459e-01,6.71612e-01,5.41257e-01,-4.18368e-01,-8.88329e-01,-3.95647e-01,-3.68450e-02,7.21649e-02,-6.89861e-01,4.27650e-01,-7.80982e-01,-2.17570e-01,-1.01822e-01,1.13123e+00,-1.80941e-01,-7.13350e-01,-4.14848e-01,-6.64417e-01,1.83859e-01,7.81960e-01,-2.16403e-02,3.25667e-02,1.01957e-01,
-7.91395e-02,5.80479e-02,3.25471e-01,3.70182e-01,-6.93409e-01,1.15769e+00,2.50042e-01,3.80279e-01,6.28435e-01,-2.34544e-02,-1.09439e-01,-1.49762e-01,-5.04138e-01,-2.17861e-01,-5.25127e-02,3.41865e-02,-3.43350e-03,-2.67857e-03,2.49183e-01,-3.45932e-01,3.87420e-02,-3.29079e-01,-2.32119e-01,2.73798e-01,8.72194e-01,
-2.34915e-01,-4.06133e-01,1.51768e-01,5.98325e-01,7.93159e-01,-4.85835e-01,3.87277e-02,1.07055e-01,-4.62462e-01,5.64284e-02,3.47469e-01,-4.36321e-01,1.20401e+00,-1.87846e-01,-1.83972e-01,3.74984e-02,8.01980e-01,-2.11785e-01,-2.03338e-01,3.36756e-01,-1.51873e+00,8.92545e-02,-7.16510e-01,1.14624e-01,-2.17277e-01,
2.58679e-01,
2.41787e-01,
1.41064e-01,
-5.94158e-01,
3.39151e-01,
-1.16105e-01,
3.70076e-01,
-6.90462e-02,
-3.79424e-01,
6.41229e-02,
6.64982e-02,
5.32068e-02,
2.55160e-01,
1.58252e-01,
-4.30350e-01,
1.37524e-01,
1.68424e-01,
1.58777e-01,
2.37910e-01,
-1.45746e-01,
-2.83708e-01,
4.51835e-01,
1.25807e-01,
-5.08048e-01,
5.20452e-01,
-4.88329e-01,-4.27942e-01,1.57160e-01,-1.60611e-01,5.41353e-01,8.59381e-01,-8.83099e-01,-4.76055e-02,9.57916e-01,-1.62671e-01,3.06604e-01,4.57701e-01,-9.16949e-02,-4.81715e-02,-5.01187e-01,4.60549e-01,-1.65028e-01,8.39919e-01,-1.29117e-01,7.18520e-01,3.29470e-01,6.12404e-01,-6.55197e-01,1.27293e-02,1.46384e-01,
-1.23775e-01,1.71647e-01,-2.16282e-01,1.54795e+00,5.08195e-02,2.09918e-01,2.13131e-02,4.16925e-03,4.22319e-01,-3.01035e-01,-2.78597e-01,4.95072e-01,-4.00287e-02,1.28252e-01,-3.46490e-01,7.16451e-01,2.37145e-01,-1.91552e-01,-3.11226e-01,2.90293e-01,3.34560e-01,1.80929e-01,-8.80821e-02,-2.49304e-01,-1.01111e-01,
2.43386e-01,-4.48498e-01,1.68717e-01,-1.97805e-01,-5.52479e-02,-4.96802e-01,9.34417e-02,1.92668e-01,4.39170e-02,-8.60195e-01,7.59787e-01,3.46527e-01,-2.31770e-01,-3.67852e-01,2.60935e-02,2.37978e-01,-4.58122e-01,-1.88572e-01,4.01224e-01,-7.44075e-03,2.05269e-01,-5.14210e-01,5.31466e-01,4.62840e-01,-4.07804e-01,
-2.33759e-01,1.02248e-01,2.29982e-01,-2.69465e+00,5.43087e-01,2.39357e-01,3.34811e-01,-5.82169e-02,-1.89668e-01,5.15398e-01,-3.25132e-01,-3.56810e-01,-7.75244e-01,7.95601e-01,-5.87124e-01,1.20494e-02,-4.23628e-02,-3.63229e-01,-1.63522e-01,-1.40209e-01,9.11945e-02,-5.65356e-03,-2.85797e-01,-1.38427e+00,-6.47258e-01,
-2.66392e-01,-2.61145e-01,9.67332e-02,8.38495e-02,9.31906e-02,-2.97925e-01,-5.03139e-02,-1.68615e-01,1.66204e-01,1.45151e-01,-2.03998e-01,-1.40717e-01,4.20257e-02,-3.20228e-01,2.61819e-01,-2.12242e-01,-1.17723e-01,-7.92601e-02,-1.23993e-01,5.11809e-02,-2.22937e-01,-2.10624e-01,-2.27740e-01,-1.17596e-01,9.19646e-03,
-2.68496e-01,-1.79633e-01,2.38070e-01,9.70038e-02,-1.03244e-01,-2.17616e-01,-3.28738e-01,-2.60333e-01,-3.42947e-01,-2.30350e-01,-1.67189e-02,-5.68999e-02,-1.13410e-01,6.33235e-02,3.25089e-01,2.75000e-01,-2.43347e-01,-9.18452e-02,-2.73183e-01,-2.80808e-01,2.17138e-01,1.95902e-02,2.90676e-01,1.94486e-01,-1.98556e-01,
7.33097e-01,-3.90644e-01,-2.07966e-01,-1.96657e+00,6.41661e-01,2.36129e-03,4.58290e-01,2.41168e-01,-3.27878e-01,-8.80964e-02,6.98348e-01,-1.13420e+00,1.81069e-01,-2.27762e-01,-1.38704e+00,-6.19326e-02,-1.25499e-01,1.74070e-01,-3.86448e-02,2.14812e-02,-1.54235e-01,-4.43819e-01,4.21013e-01,5.61480e-01,1.63759e-01,
-9.05389e-01,2.52502e-01,-3.80689e+00,-7.56382e-01,2.06778e-01,-7.05936e-01,8.74061e-02,-1.03795e-01,-1.16931e-01,1.94628e-01,1.89828e-01,1.55480e+00,7.62876e-01,2.31285e-01,-7.20340e-02,1.49413e-01,-5.82016e-01,5.37428e-01,-1.62461e+00,-5.88936e-01,9.52746e-02,-2.29413e-01,1.33617e-01,-1.61866e-01,-1.27544e-01,
3.14920e-01,2.78778e-01,-2.89416e-01,-3.88763e-02,1.02971e-01,-7.78207e-02,1.22024e-01,-4.42035e-01,-8.07361e-02,1.06668e+00,-3.79388e-01,6.60768e-01,-4.06790e-02,-1.82973e-01,-1.89093e-01,3.09747e-01,6.07100e-01,-4.19440e-02,3.15164e-01,-5.32307e-01,2.55182e-01,1.53039e-01,-4.00791e-01,3.43332e-01,4.88479e-01,
2.56442e-01,-4.71520e-03,-2.32190e-01,1.82311e-01,6.86325e-03,-2.16760e-01,9.73586e-02,-2.19940e-01,-1.18575e-01,2.98318e-01,-8.87346e-02,-1.59892e-01,1.43298e-01,7.53700e-02,1.75094e-01,-2.48411e-01,7.27837e-02,8.19498e-02,-2.57997e-01,1.57600e-01,-2.17339e-01,-6.93728e-02,-2.57798e-01,-3.45153e-01,-1.03735e-01,
-6.34390e-02,6.50989e-01,-1.63536e-02,-3.65909e-01,-9.34684e-02,7.95678e-02,3.16241e-02,-5.26205e-01,-7.06244e-02,-5.06884e-03,-8.10675e-01,6.92994e-02,3.21618e-01,6.45811e-01,1.93003e-01,1.78736e-01,-2.01005e-01,2.94284e-01,7.33767e-02,-1.55370e-01,3.22369e-01,-4.80972e-02,-7.18618e-02,-7.48533e-01,-6.26798e-01,
6.67388e-01,-3.73702e-01,-6.50326e-01,7.11268e-01,3.17049e-01,2.83765e-01,6.74942e-01,-3.49804e-01,-3.05884e-01,2.90567e-01,7.77539e-01,-4.60897e-03,-1.75580e-01,-6.17838e-01,-1.22186e+00,-6.46315e-01,-1.78401e-02,-1.65192e-01,-8.40393e-01,-3.22988e-01,1.05096e-01,-2.98258e-01,1.58438e-01,4.63733e-01,7.82324e-02,
6.83972e-01,4.62078e-01,2.47746e-01,-5.13064e+00,3.14252e-01,1.80406e-01,2.11972e-02,1.38459e-01,-4.51301e-01,-1.11077e-01,-1.04482e-01,-5.37917e-02,-2.38479e-02,-2.01349e-01,1.06242e-01,-2.72217e-02,5.19780e-01,-6.67950e-01,-1.68223e-01,-2.82028e-01,-7.42486e-02,-2.98885e-01,2.74143e-01,1.70837e-02,3.28701e-01,
-2.97900e-01,3.22796e-01,9.24355e-01,7.35557e-01,7.06180e-02,4.07909e-01,6.35953e-01,-4.27614e-02,3.24546e-01,-3.27650e-02,-1.44226e-01,4.11680e-01,8.63183e-01,3.32766e-02,1.06017e+00,4.70706e-02,2.16916e-01,3.87403e-01,-4.92280e-01,-6.92031e-02,2.40054e-01,2.12696e-01,1.75404e-01,-1.24139e+00,1.86396e-01,
-6.81424e-01,9.14978e-02,3.16888e-01,1.62134e+00,-9.14766e-01,4.44545e-02,-5.12527e-02,-3.10343e-01,7.31412e-01,-1.15653e-01,-1.46543e+00,3.01250e-01,-1.18442e-01,4.32027e-01,2.89336e-02,3.32542e-01,-1.49642e-01,4.68552e-01,3.22776e-01,6.97072e-01,3.36092e-01,-1.98948e-01,-1.21345e+00,-3.22834e-01,-5.33587e-01,
3.84967e-01,2.31771e-01,-4.97307e-01,-9.67411e-01,3.88002e-01,-3.69957e-02,-7.36174e-01,-8.41822e-02,2.44907e-01,3.18006e-01,-5.51853e-01,-1.32579e-01,-6.70307e-01,-1.08845e+00,-1.70660e+00,2.77256e-01,-7.70431e-01,2.57776e-02,6.69242e-01,-5.50641e-01,1.72393e-01,-1.03274e-01,-4.72782e-01,1.19341e+00,-1.06653e-01,
9.73049e-01,8.22638e-01,2.86619e-01,-1.99541e+00,-2.26687e-01,1.77097e-01,5.37248e-02,1.86333e-01,1.17293e+00,1.98199e-02,-6.71790e-01,-1.52542e-01,5.53675e-02,-4.52633e-01,1.83221e-02,3.33210e-01,-3.66672e-01,-3.02149e-01,-3.71024e-01,-2.25901e-01,-2.16227e-01,-9.17266e-01,1.96778e-01,2.48387e-01,1.89078e-01,
2.55478e-01,-6.00690e-01,1.36892e-01,-1.22955e-01,5.78878e-01,-7.64550e-01,6.95709e-01,3.33862e-01,-7.16139e-01,-3.73056e-01,8.01257e-01,1.95428e-01,2.79197e-01,-1.17490e-01,-3.95843e-03,-3.17618e-02,-2.08568e-02,-3.11917e-03,3.92240e-01,-4.29548e-01,8.57098e-02,-3.14932e-02,3.26023e-01,1.30595e-01,3.09996e-01,
-1.88173e-01,-1.82540e-01,-8.01428e-02,-4.59265e-02,2.36428e-01,-2.37133e-01,-3.04429e-01,2.64654e-01,6.39270e-02,-1.30193e-01,-3.35314e-01,-2.00631e-01,1.66872e-01,-1.54527e-01,2.84190e-01,1.59994e-01,-1.38142e-01,-2.84932e-01,6.29568e-02,-2.93955e-02,2.74308e-01,2.25737e-01,2.00269e-01,-3.36596e-01,-1.78366e-01,
4.84086e-01,-2.17199e-01,-6.43708e-02,-3.86147e+00,-6.16430e-02,7.40827e-01,-1.74925e-01,-3.42809e-01,-9.94411e-01,5.78837e-01,4.65274e-01,-1.14515e-02,1.92589e-01,3.17317e-02,2.98298e-02,3.78375e-01,2.96866e-01,6.78260e-01,-5.43619e-01,-3.83181e-01,-3.39161e-01,-5.62009e-01,2.45304e-01,-5.83673e-01,6.72926e-02,
5.29395e-01,2.13831e-01,-2.51301e-02,8.80500e-01,5.36104e-01,-1.00009e+00,-5.61794e-01,6.82616e-01,-5.75335e-01,-1.47161e-03,2.95802e-02,-3.00590e-01,4.84783e-01,3.27623e-01,-5.58473e-01,-9.23603e-03,-3.82667e-01,-2.27223e-01,3.33293e-01,9.54129e-02,3.54150e-03,-1.15875e-01,3.32052e-02,4.07850e-01,5.18518e-01,
-3.18338e-01,1.42750e-01,9.77715e-01,-8.99000e-02,-7.82505e-02,2.91401e-01,1.83736e-02,4.64254e-01,3.90425e-01,-5.09392e-01,-4.53612e-01,3.70710e-01,-3.64122e-02,-4.23288e-01,1.09298e+00,4.99110e-01,6.11650e-01,3.27545e-01,3.79540e-01,2.02397e-01,-1.50839e-01,-3.38767e-01,2.41534e-01,-5.35262e-01,4.82175e-02,
-1.67716e-01,-1.59406e-01,-5.98588e-01,7.28423e-01,-3.42433e-01,1.33625e-01,2.50774e-01,3.51541e-02,4.03925e-01,8.89491e-01,1.05478e-01,4.43258e-01,-2.07596e-01,-1.36077e-01,8.96472e-01,-1.63837e-01,6.66464e-01,2.02722e-01,2.61219e-01,4.72311e-01,-3.01372e-01,-3.29763e-01,-4.25596e-02,-2.50200e-01,-1.14142e-01,
5.36476e-01,4.10194e-01,6.72657e-01,-2.61007e-01,1.16953e-01,7.54449e-02,4.10945e-01,-2.26981e-01,3.57521e-02,1.96333e-01,-7.72348e-01,-2.48666e-01,-4.12365e-02,-5.91306e-01,1.18606e-02,5.68455e-01,-1.28239e-01,2.52159e-01,-1.28874e-01,3.98386e-02,2.54918e-01,3.17211e-01,2.78300e-01,3.40711e-01,4.77354e-01,
1.69511e-01,-1.77846e-01,-1.71683e-01,2.91929e-02,-2.13696e-01,-4.98623e-02,-3.43013e-01,-3.42156e-01,-2.61834e-01,7.18909e-02,1.47823e-02,8.54347e-02,-6.39962e-02,-2.36109e-01,-3.21949e-01,2.29423e-01,1.58912e-01,-2.74857e-01,-8.31238e-02,1.68521e-01,3.07676e-01,-1.89738e-01,-1.55332e-01,-3.30135e-01,-2.65889e-01,
-4.80495e-01,
4.28433e-01,
4.42849e-01,
5.09288e-01,
-2.56570e-01,
7.13381e-02,
-4.35422e-01,
-4.55014e-01,
-2.08342e-01,
-2.96557e-01,
2.71247e-01,
5.14012e-01,
1.34114e-01,
-1.03692e-01,
5.17825e-01,
1.20441e-01,
-2.99874e-01,
-1.28523e-02,
-1.15747e-01,
2.65597e-01,
-5.67575e-01,
3.33906e-01,
2.87955e-01,
1.24222e-01,
7.49808e-02,
-5.07490e-01,3.98684e-01,-4.55308e-01,2.46941e-01,5.53949e-02,-2.50700e-01,3.72127e-01,5.05123e-01,1.31494e-01,-3.39303e-01,-6.54649e-02,7.71018e-01,-4.42143e-01,-3.66703e-01,6.19606e-02,3.01895e-02,1.46920e-01,-2.56681e-01,-8.06055e-02,-2.04343e-01,9.60296e-02,6.05006e-01,-1.37243e-01,-2.41119e-01,1.26004e-01,
-2.65049e-01,-6.18408e-02,1.94686e-01,-3.00697e-01,-2.39771e-01,-1.03687e-01,-1.36921e-02,-2.97285e-01,-9.45440e-02,-3.22215e-01,-2.52324e-01,-6.50010e-02,-2.61246e-02,-2.27502e-01,-8.14610e-02,-6.00143e-02,2.33003e-01,-3.19460e-01,-1.86942e-01,-2.86443e-01,2.70795e-01,-2.08001e-01,2.51867e-01,-8.25278e-02,-1.73878e-01,
-2.30740e-01,3.47661e-01,-7.52369e-02,3.97134e-01,-2.59636e-01,2.54012e-01,7.63033e-01,3.27946e-01,3.10359e-01,-1.15221e-01,2.10015e-01,-1.36054e-01,-7.21398e-03,1.50592e-02,-4.82754e-02,6.28688e-01,-1.55598e-02,-2.15484e-01,-1.46709e-01,-2.73323e-01,-2.48595e-01,7.51212e-02,-1.23621e-01,-3.80129e-01,-3.62618e-01,
-8.71880e-02,-3.95777e-02,1.52767e-01,-2.66099e-01,-1.82871e-02,-3.06585e-01,-6.25252e-01,2.32831e-01,1.79757e-02,2.17295e-01,2.43475e-01,3.59334e-01,5.87719e-02,-4.73099e-01,1.06160e-01,3.23711e-01,-2.04805e-01,2.54257e-01,1.94448e-01,-6.98149e-02,5.21841e-01,2.33117e-01,-1.55419e-01,-1.80918e-01,1.18901e-01,
-2.00512e-01,-1.99104e-01,2.83331e-01,-1.14634e-01,-7.28500e-03,2.31123e-02,-2.05480e-02,2.77267e-01,3.39463e-01,-1.67418e-01,-3.46336e-01,5.55062e-01,-4.07648e-01,2.31500e-01,3.20277e-01,1.26333e-01,4.24003e-02,-1.00328e-01,-5.23780e-02,5.60058e-02,3.46575e-01,-4.02944e-02,-3.74628e-01,2.78682e-01,2.05042e-01,
-6.38584e-01,2.32725e-01,4.69202e-01,-9.04813e-02,-1.55391e-01,2.53161e-01,-1.16208e-01,2.57950e-01,3.72796e-01,-2.52946e-01,3.77302e-01,-1.35534e-01,1.99042e-01,-3.01138e-02,-1.15033e-01,-5.36161e-01,-4.90055e-01,-3.46345e-01,-2.86624e-01,-3.34973e-01,1.67712e-01,-9.19886e-03,-6.44730e-03,3.02298e-01,2.98176e-01,
-4.09384e-01,5.47657e-01,2.43640e-01,-1.08191e+00,-2.35919e-01,-3.75577e-02,-1.24150e-01,-1.12630e-01,6.28623e-01,2.86942e-01,2.87494e-01,4.54337e-01,-1.16706e-01,1.67289e-02,-3.44815e-02,4.00654e-01,-1.73206e-01,-7.55491e-03,9.97804e-02,-3.15024e-01,-4.56575e-01,-3.60393e-02,-2.55409e-01,5.50274e-02,-1.07499e-01,
-2.48093e-02,-6.09365e-02,-9.74843e-02,-3.78998e-01,-6.09517e-04,-1.03800e-01,4.24527e-01,-6.10331e-02,2.33215e-01,1.17703e-01,2.26358e-01,1.68355e-01,9.37057e-02,6.13024e-02,1.49320e-01,6.90015e-01,-6.54485e-02,-1.69209e-01,1.17673e-01,-9.61518e-02,-3.62141e-01,2.16299e-01,-6.31824e-01,7.78892e-02,3.04619e-01,
-1.71224e-01,4.36330e-01,-1.49882e-01,1.46912e-01,-2.06197e-01,-6.00275e-02,8.50199e-02,-6.79048e-02,-2.46139e-01,2.60929e-01,-7.22902e-02,-6.40740e-01,5.21186e-01,2.77209e-01,-3.03834e-01,1.90695e-01,-3.96736e-01,-1.23323e-01,2.75859e-01,-1.86073e-01,-1.92324e-01,1.09802e-02,-8.52583e-02,3.17295e-02,1.42663e-01,
6.93175e-02,-3.33178e-01,2.95629e-01,-1.16184e-02,-5.81024e-02,-8.00505e-02,-4.28535e-02,-8.79867e-01,4.35810e-01,2.40192e-01,-9.78949e-02,-4.19837e-01,1.88740e-01,4.14145e-01,2.83551e-01,-2.41787e-01,-5.87845e-02,-1.12615e-01,2.46106e-01,-1.53052e-01,-8.77129e-02,-1.87601e-01,-3.70608e-01,-1.02723e-01,3.44453e-01,
3.21803e-01,-1.74670e-02,-2.52533e-01,4.02346e-01,-3.24633e-01,-1.45735e-01,-4.74245e-01,5.43102e-04,-4.84587e-01,2.26763e-01,2.11375e-02,2.04723e-01,8.12918e-02,3.86990e-01,-1.98137e+00,-4.77510e+00,-5.67444e-02,4.80387e-01,5.84018e-02,2.21591e-01,-6.75344e-02,2.78285e-01,-4.44270e-01,1.27421e-02,2.75163e-01,
-9.71598e-02,-6.39609e-03,2.71179e-01,1.56599e-01,-1.94162e-01,3.26451e-01,-5.59230e-02,5.81621e-02,1.78081e-01,3.32270e-01,1.32493e-01,6.41569e-01,3.90507e-02,-1.38614e-01,-2.51752e-01,-1.73160e-01,-1.24737e-01,-4.89427e-01,2.79895e-01,-2.99988e-01,2.32533e-01,2.39624e-01,-1.21235e-01,4.39887e-01,-2.98779e-01,
-2.92159e-01,2.72195e-01,4.02744e-01,4.02726e-02,-9.03246e-02,3.08307e-01,-3.82515e-01,2.29661e-02,2.15563e-01,-1.73203e-01,4.64514e-01,4.55052e-01,-5.12671e-01,-1.34889e-01,1.07449e-01,8.16989e-03,-1.26582e-01,-5.09046e-01,8.20715e-02,-2.38843e-01,-3.79305e-01,-6.80965e-02,-1.90513e-01,4.26376e-01,-3.16984e-02,
4.79349e-02,8.15908e-02,-1.09557e-01,3.63535e-02,-1.93120e-01,2.23002e-01,2.27112e-01,5.53544e-01,-5.45262e-02,-3.10743e-01,-2.97992e-01,-7.62027e-01,1.82193e-01,7.62873e-02,-3.31041e-01,5.47941e-01,-1.02795e-01,3.52078e-02,1.33084e-01,1.23881e-01,3.33640e-01,1.84674e-01,2.47016e-01,-2.20782e-01,2.48458e-01,
-8.85307e-02,3.86437e-01,-8.46022e-01,6.25077e-01,1.76325e-01,1.61258e-01,4.76423e-01,-6.10697e-02,-1.50442e-01,-1.70465e-01,4.55186e-01,-1.41630e-01,-3.52134e-01,2.47847e-01,-4.11214e-01,-4.31583e-01,-5.22055e-02,2.91849e-01,-2.08428e-01,-2.79616e-01,8.63858e-02,-1.79000e-01,3.09095e-01,-3.13678e-01,-3.19796e-01,
2.15032e-01,-2.25792e-01,-2.30403e-01,-4.38516e-02,-8.10482e-02,-3.15054e-01,8.25754e-02,2.60733e-01,-1.69883e-01,1.66363e-01,8.65278e-03,4.06344e-02,-2.86997e-01,1.57269e-01,8.42593e-02,3.44788e-02,1.30769e-01,-1.41773e-01,-4.44840e-02,-2.74649e-01,9.86344e-02,-1.24164e-01,-3.53241e-01,-3.14681e-01,-8.35601e-02,
-1.32775e+00,-5.56676e-01,-2.86657e-02,-6.77109e-02,1.06340e-01,-2.10822e-01,-9.42707e-01,6.34856e-01,2.44276e-01,1.08449e-01,3.65052e-01,-2.32073e-01,8.10340e-01,-1.77815e-01,7.87603e-02,-7.75088e-01,-1.11800e-01,2.83835e-01,3.11459e-01,4.14589e-01,-5.99527e-02,2.43208e-01,-7.53851e-01,-2.64705e-01,-2.08256e-01,
-9.43536e-01,-8.16145e-02,-2.71542e-01,3.26411e-01,-2.19460e-01,3.11997e-01,1.47899e-01,-1.42340e+00,2.74298e-02,3.22581e-01,3.74872e-01,-5.63227e-01,5.66906e-01,-6.87868e-01,-1.33016e+00,-8.10509e-01,-2.59653e-01,-2.63114e-01,1.07115e-01,-6.18841e-01,-5.25166e-01,1.94436e-01,1.66767e-01,-2.88235e-01,-3.14881e-01,
-6.33645e-01,7.15739e-02,3.02559e-01,-1.72505e-01,1.27693e-02,-2.70310e-01,-7.19029e-02,-7.99520e-01,6.71935e-01,2.59693e-01,4.56550e-01,1.06231e+00,-9.45816e-02,-2.81564e-03,-8.30692e-01,-6.24755e-01,-3.32624e-01,-7.23371e-01,2.86919e-01,-1.98876e-01,5.07519e-01,6.85614e-01,-5.48744e-01,-1.22669e-01,-2.00329e-01,
-1.60734e-01,-1.27753e-01,-2.17441e-01,3.22199e-01,3.43221e-01,-1.68763e-01,9.38817e-02,5.18499e-02,-3.03678e-01,1.81525e-01,2.28276e-01,-1.72096e-01,-2.73804e-01,-1.44654e-01,-1.36012e-01,2.36984e-02,-8.34953e-02,-2.73667e-01,3.19917e-01,9.20699e-02,-3.29534e-01,-2.20690e-01,-2.11232e-01,-6.64789e-02,2.92664e-01,
-4.41235e-01,1.39664e-01,4.86090e-01,-1.37104e-02,2.70236e-01,2.81458e-01,8.44081e-02,-2.89332e-02,-2.97248e-01,8.55419e-02,6.80000e-01,-1.02527e+00,-7.00987e-01,-4.53380e-01,2.59153e-01,-1.20750e+00,8.95146e-03,-6.36816e-01,1.59200e-01,-7.41248e-01,-1.98251e-01,7.43447e-02,-8.34392e-01,5.05390e-01,-3.05481e-01,
1.65276e-02,5.23976e-02,-7.16690e-02,-1.53739e-01,3.19439e-01,2.01315e-01,-9.16447e-02,1.89303e-01,-1.93796e-01,-2.12033e-01,1.33440e-01,-7.30319e-02,2.73179e-01,1.03019e-01,-3.58024e-02,4.54424e-02,2.82005e-02,-3.66598e-02,-2.18120e-01,-1.21190e-01,8.68065e-02,-2.04664e-01,-1.73029e-01,-1.22096e-01,3.57585e-02,
-2.04726e-01,3.78525e-01,-8.71910e-01,-3.66897e-03,4.98689e-02,8.50476e-02,1.15294e-01,-6.59192e-02,-1.48285e-01,2.99934e-01,4.63410e-01,1.56428e-01,2.08727e-01,-6.20345e-01,-2.83384e-01,1.67778e-01,-2.29541e-01,-1.68266e-01,-8.49124e-02,4.27223e-01,-2.57188e-01,7.83714e-01,-2.44823e-01,-3.42594e-01,2.99649e-01,
-1.31670e-01,-9.77684e-01,1.96888e-01,-2.48275e-01,1.21739e-01,1.75516e-01,1.68001e-01,-2.06489e-01,6.87948e-01,1.27573e-01,-3.23885e-01,-5.09621e-02,1.28116e-01,-9.15625e-01,-3.87035e-01,9.07284e-01,8.15217e-03,2.95046e-01,2.14909e-01,-2.60012e-01,-3.08342e-01,5.58125e-01,1.04895e-01,7.40530e-01,2.31152e-01,
4.26783e-01,-3.40998e-01,3.78544e-02,-4.23907e-02,1.84846e-01,7.88333e-02,-2.05756e-01,-2.98813e-01,-4.61335e-03,-1.18874e-01,3.26633e-01,3.02395e-01,2.45843e-01,5.01715e-01,-1.25178e+00,-7.00842e-01,-3.27250e-01,-3.08586e-02,-1.04210e-01,-2.20363e-01,-8.84482e-02,5.96497e-02,-5.84908e-01,4.97499e-02,1.66483e-01,
-4.61040e-04,
-3.36684e-01,
1.10565e-01,
3.06035e-02,
1.71783e-01,
1.12855e-01,
-3.06395e-02,
3.85282e-01,
2.89389e-01,
2.54776e-01,
-3.54647e-01,
2.19366e-01,
1.03503e-01,
-3.27043e-03,
-5.11451e-01,
-2.22540e-01,
-3.42816e-01,
3.75787e-01,
-1.49803e-01,
-2.10489e-02,
2.98799e-01,
4.11141e-01,
3.50452e-02,
-6.61629e-01,
1.31738e-01,
-8.73415e-02,-6.93033e-02,4.05525e-01,1.26004e-01,-2.77410e-01,7.50879e-02,1.44327e-01,7.71285e-02,-3.38754e-01,-7.37576e-02,-9.98136e-01,1.30664e-01,-4.18189e-01,1.98192e-01,-2.20807e-01,2.53063e-01,-5.06051e-01,-1.65100e-01,2.74911e-01,-8.32274e-02,-2.11857e-01,7.18933e-02,-2.11296e-01,1.91814e+00,5.78467e-01,
3.18156e-01,2.15306e-01,-1.31556e-01,1.24589e-03,1.31446e-01,-4.44060e-01,7.91315e-03,3.58551e-02,-6.80063e-02,1.68698e-02,-3.80707e-01,-2.32952e-01,-8.12838e-02,-3.73181e-02,1.37945e-01,2.15243e-01,5.06822e-01,9.71363e-02,-4.61430e-01,7.33305e-02,-1.11932e-01,-1.66261e-01,-1.92260e-01,8.95118e-02,4.02995e-01,
-2.11244e-01,-1.66613e-01,1.44884e-01,-8.13682e-02,-1.21099e-01,6.20371e-01,-4.13367e-02,5.53033e-02,2.31448e-01,-7.81248e-02,4.73450e-01,1.59038e-01,-6.34718e-02,1.62262e-01,-5.18778e-02,6.20553e-02,-5.66812e-01,8.84768e-01,7.36559e-01,2.67939e-01,5.68204e-01,1.53213e-01,5.60458e-03,-5.13181e-02,-6.75703e-01,
-1.24820e-01,7.81013e-02,-1.42536e-01,8.71002e-02,-3.10917e-02,-1.88886e-01,9.72057e-04,2.70830e-02,-4.65701e-02,2.38124e-02,-1.64427e-01,2.14353e-01,2.78646e-01,-8.94208e-02,5.21119e-02,-9.46971e-02,1.72340e-01,-4.03407e-01,-5.59029e-01,-2.47395e-01,-2.65885e-01,-5.30749e-02,1.91616e-01,-2.70416e-01,2.45951e-01,
1.13628e+00,2.74806e-01,-1.26826e-01,2.49200e-01,4.47734e-01,1.85408e-01,-2.23953e-02,5.24882e-01,-8.43076e-02,6.98268e-02,-8.62834e-01,5.70224e-02,1.31300e-01,-4.21182e-02,8.34142e-02,5.76222e-02,7.19606e-02,1.11401e-01,-4.03440e-01,1.91608e-01,-3.76781e-01,1.23330e-01,-2.33344e-02,-1.63476e-02,1.67489e-01,
-8.85203e-02,-2.12550e-01,-9.59163e-02,5.37493e-02,4.61605e-02,6.12119e-02,-6.86387e-02,-8.65027e-02,2.71833e-01,-3.44140e-01,1.81868e-01,1.00826e-01,2.21171e-01,-1.30689e-01,5.37265e-02,-1.44207e-01,-1.97157e-01,-8.50722e-02,-2.34819e-01,-2.98142e-01,2.32711e-01,-2.34090e-01,-1.23027e-01,1.80159e-02,-2.55160e-01,
2.16277e-01,-1.70572e-01,6.50006e-02,-4.37363e-02,8.22925e-02,-3.36277e-01,7.90960e-02,-1.15591e-01,-3.89567e-01,2.18327e-01,4.53304e-01,-3.56514e-01,2.40709e-01,-3.11614e-01,-5.79453e-02,5.10402e-02,-1.05711e+01,9.91759e-01,1.51479e-01,1.17546e-01,1.88335e-01,-1.17382e-01,-7.02948e-01,3.14278e-01,-4.18164e-01,
-6.72298e-01,9.11312e-02,-7.99092e-02,-6.20904e-02,-8.39888e-02,-1.42981e-01,7.52660e-01,-3.71010e-01,-3.21197e-01,1.59046e-01,-2.95865e-01,-3.08796e-01,-3.21940e-02,7.32669e-01,-5.00326e-01,-2.49090e-02,-3.78076e-02,-8.76567e-01,-9.47430e-01,-1.60846e-01,-2.76016e+00,1.28146e-01,-3.90479e-01,-3.00317e-01,4.24696e-01,
-6.37819e-02,3.56157e-02,2.65229e-02,1.66857e-01,-1.11415e-01,1.67813e-01,2.43556e-02,1.26750e-01,-4.13850e-02,1.27641e-01,1.79124e-01,-1.11347e-01,1.91031e-01,8.03587e-02,-1.71147e-01,-1.24851e-01,6.55365e-02,-6.22869e-02,6.82839e-02,3.39827e-01,5.94922e-01,3.06209e-01,-4.77002e-01,-2.59192e+00,-3.57201e-01,
-5.63784e-02,3.78592e-02,-2.88078e-02,4.24398e-01,-1.13564e-03,-7.98967e-03,5.77903e-02,1.27105e-01,-3.24928e-02,-9.02449e-02,-1.05110e-01,7.94766e-02,-2.74789e-02,1.28711e-01,-7.34504e-02,6.20297e-02,2.08385e-02,1.43220e-01,3.47086e-02,-7.15288e-03,1.87496e-02,4.47152e-01,1.25770e-01,-3.98556e-01,-8.62311e-03,
-1.32565e+00,7.65234e-03,-4.29839e-01,-1.02029e-01,-2.54613e-01,-2.22125e-01,1.25896e+00,-4.95655e-01,1.05657e-01,-2.15777e-01,-6.14777e-01,-7.22305e-01,-9.44095e-01,4.26512e-01,-9.98517e-01,1.86007e-01,-1.58512e-01,-9.62387e-01,8.07047e-01,3.29573e-01,2.21191e-01,2.40478e-01,-5.10914e-01,8.57706e-01,4.93424e-01,
-1.67497e-02,-1.18006e-01,-1.85235e-01,-4.48913e-02,-1.73452e-01,1.57602e-01,-6.37213e-02,3.88357e-01,-7.93637e-02,6.95750e-02,2.18115e-01,1.67454e-01,-4.20883e-01,2.06957e-01,1.08139e-01,2.11254e-01,-3.06000e-02,-6.75984e-02,1.33781e-01,-1.84914e-01,-5.07898e-01,3.43371e-01,-8.68887e-02,-6.60548e-01,-4.89626e-01,
2.79826e-01,-2.89964e-01,-3.16702e-01,-2.62274e-01,1.66801e-01,9.49275e-02,-1.19181e-01,1.12740e-01,3.36643e-02,-2.68210e-01,6.71133e-02,-1.78703e-01,1.74115e-01,1.91328e-01,-1.06394e-01,1.78181e-01,1.28351e-01,2.94794e-02,-1.98320e-01,-2.52222e-01,-2.24011e-01,3.43260e-02,-2.04591e-01,-9.01906e-02,-1.51817e-01,
-8.58760e-02,-3.34280e-01,-8.50803e-02,-3.34921e-01,1.85066e-01,-9.56059e-04,3.52463e-02,-2.20088e-01,-2.42975e-01,-2.23261e-01,-1.29724e-02,-3.46000e-01,-1.77808e-01,-7.48640e-02,-3.22325e-01,-1.98672e-01,-3.06021e-01,1.62192e-01,2.87397e-01,-4.79919e-02,-2.66794e-01,3.16175e-01,2.76784e-01,-8.82238e-02,-1.69560e-01,
5.85617e-01,-1.43974e-01,-8.06959e-02,7.91307e-02,1.31331e-01,9.06763e-02,9.67417e-02,3.16418e-01,-1.34076e-01,1.44386e-01,-3.68385e-01,-1.08962e-01,2.25471e-01,-3.80444e-02,-1.33108e-02,2.84989e-01,9.05179e-02,-1.00143e-01,-2.81882e-01,-2.11201e-01,4.02501e-04,-9.65809e-02,-1.81596e-01,7.69691e-02,1.93169e-01,
1.01365e-01,3.12506e-01,-1.18493e-01,-2.04148e-01,3.94324e-02,4.23083e-02,8.16809e-02,3.76142e-03,-1.30896e-01,2.13974e-01,4.23783e-02,3.24088e-01,4.87050e-02,-1.34434e-01,9.01617e-03,5.59168e-02,-1.40194e-01,-2.47767e-01,-6.80481e-02,-2.94847e-01,-4.19624e-01,-1.45073e-01,-1.08653e-01,1.00466e+00,-2.19089e-02,
1.92816e-01,-2.67647e-01,1.50900e-01,-9.08586e-02,1.17657e-01,1.81942e-01,-3.73282e-02,-1.60270e-01,1.13456e-01,-2.69292e-01,1.89551e-01,5.16867e-02,1.52239e-03,-1.40989e-01,4.83031e-02,1.70755e-02,8.00108e-02,1.55685e-01,-7.70818e-02,-2.41853e-01,-3.17420e-01,1.88764e-01,-3.20869e-02,-1.33424e-01,-2.77554e-01,
-1.93777e-01,-2.68022e-01,-1.30213e-01,-1.56587e-01,6.90373e-02,-3.42452e-01,-4.16328e-02,-5.90395e-02,9.12483e-02,4.40810e-02,1.28287e-01,1.57547e-01,-1.57353e-01,-3.13123e-01,-2.29205e-01,-6.34354e-02,-9.58691e-02,-2.81159e-01,-1.26984e-01,-3.22016e-01,-3.09570e-01,2.58698e-01,-3.15466e-01,-1.53868e-01,-9.93054e-02,
-9.51631e-02,2.23598e-01,7.80930e-02,5.03234e-01,7.21670e-03,-1.25923e-01,-7.19281e-02,-4.37550e-03,-1.05802e-02,-1.51299e-01,-2.74597e-01,-1.67164e-01,-5.54738e-03,1.34923e-01,-8.75063e-02,-2.31043e-01,1.34206e-01,5.98962e-02,-1.95552e-02,-1.03977e-01,1.08402e-01,3.80869e-01,1.68482e-01,-7.12418e-01,2.82395e-01,
-2.24400e-01,3.09112e-01,7.24271e-04,-4.59595e-02,-5.31903e-02,1.61073e-01,-7.18769e-02,3.81091e-01,-5.47475e-01,2.46938e-01,-1.14878e-01,3.88902e-01,-3.67786e-01,3.34690e-01,-1.02406e+00,-1.07117e-01,1.71881e-01,-5.75124e-02,-4.28361e-01,2.07638e-01,2.91201e-01,-5.84831e-01,-2.30905e-01,-4.13399e-01,-7.44657e-03,
1.29802e-01,1.03557e-01,4.53936e-02,-1.26539e-01,-9.15689e-02,3.06462e-01,3.58173e-01,8.97622e-02,-5.27854e-02,-1.42887e-02,1.54903e-01,1.61797e-02,4.81105e-01,-4.93720e-02,-1.12594e-01,-3.51008e-03,-2.34456e-01,-4.44903e-01,1.21624e-01,-6.43904e-02,2.69442e-01,3.77995e-02,1.25234e-01,4.95813e-02,-1.10178e-01,
-3.07590e-02,-1.35479e-01,-2.52602e-01,-6.56804e-02,-2.53453e-01,4.47920e-01,-3.60712e-01,-5.52511e-01,-1.56847e-01,-2.86087e+00,5.34083e-01,-5.58811e-01,3.79306e-02,-6.09555e-01,6.24700e-01,4.62814e-02,-2.88756e+00,3.36613e-01,-1.44217e+00,-3.15611e-01,-2.62962e+00,6.80021e-02,2.90349e-01,-3.78826e-01,-6.78121e-01,
6.23483e-02,-2.29267e-01,-1.88136e-01,4.15580e-02,-1.24606e-01,7.88857e-02,-3.66152e-02,2.19955e-01,1.80080e-01,-4.30170e-01,1.92852e-01,1.31742e-01,-1.56961e-01,-1.38969e-01,3.43102e-01,2.16010e-01,4.23377e-02,1.85507e-01,-1.70383e-02,6.43723e-02,2.19135e-01,-2.09607e-01,-4.98931e-02,5.60258e-01,-5.59176e-02,
1.16098e-01,-1.16586e-01,-2.28243e-01,3.68189e-01,-1.78266e+00,4.80969e-01,2.11084e-01,2.84538e-01,-2.14907e+00,-5.92783e-01,1.37286e+00,4.16978e-01,-4.42385e-02,-1.24084e-01,7.07586e-01,1.81305e-01,-1.54563e+00,-2.02464e-01,7.02594e-02,-2.97102e-01,-1.09195e-01,4.23346e-01,7.69861e-01,-7.45072e+00,-6.70374e+00,
2.86035e-02,5.81004e-02,1.19138e-01,3.25687e-02,-2.18422e-01,6.54198e-02,-8.43916e-03,5.23293e-02,1.93364e-01,4.42695e-02,-4.83920e-02,3.56084e-01,-9.31870e-03,-2.68082e-04,-1.70698e-01,1.57199e-01,-4.79362e-01,-8.43868e-01,2.41102e-01,3.31734e-03,-3.05104e-02,1.46674e-01,2.32147e-02,-2.40324e-01,-1.39458e-01,
-1.43766e-02,
2.88380e-01,
1.29908e-01,
1.79406e-01,
-3.41920e-01,
9.60641e-02,
5.45089e-02,
-7.74571e-02,
1.07297e-01,
6.82085e-03,
3.46846e-02,
-2.58107e-02,
-3.98285e-01,
-2.23722e-01,
-1.40730e-01,
1.09666e-01,
5.07275e-02,
-1.78022e-01,
4.00792e-02,
-1.26050e-02,
4.77037e-02,
1.34061e-01,
-4.48982e-01,
1.30313e-02,
-9.83638e-02,
1.19308e-02,-1.83057e-01,-2.56236e-01,-1.92771e-01,3.04902e-02,6.13423e-02,-4.62372e-02,7.38259e-02,-1.96855e-02,2.93737e-02,-5.06950e-02,4.77930e-02,2.05757e-01,-3.74767e-01,-3.41626e-02,-5.48188e-02,-1.12316e-02,-2.64907e-01,-5.91139e-02,1.96423e-02,1.21661e-02,-5.03269e-03,8.53017e-01,-3.34865e-02,-1.21959e-01,
-5.46016e-02,-1.90208e-01,-1.30973e-01,-1.46052e-02,-1.72361e-03,3.75013e-02,-9.23394e-02,-1.50714e-01,4.42522e-02,-5.99852e-02,1.01069e-01,8.60503e-02,4.60941e-01,-2.31465e-01,1.30812e-01,5.49397e-03,-1.97806e-01,-1.42271e-01,-2.45213e-02,-3.59911e-02,-1.32807e-01,-5.70236e-01,8.61596e-01,-6.08487e-02,-8.75287e-02,
-1.02628e-02,-1.07292e-01,-2.00441e-01,-5.20249e-02,-2.92090e-02,1.17446e-02,-9.22606e-02,2.38854e-02,1.10521e-01,-1.35037e-01,-6.93255e-03,9.29427e-02,8.21429e-01,-3.81889e-01,5.40091e-02,-1.00433e-01,6.06180e-02,3.65881e-01,-3.26275e-02,-3.25210e-01,-1.11336e-02,-2.20018e-02,9.03715e-01,1.53511e-02,-1.35209e-01,
-4.53204e-02,-1.78562e-01,-1.40956e-01,-7.49895e-02,-1.04985e-01,1.63359e-02,-8.19408e-02,-6.50771e-02,2.13537e-02,-6.28419e-02,1.59954e-02,1.11863e-02,4.67047e-01,3.29827e-01,3.02802e-01,2.07518e-02,-1.00467e-01,9.17927e-02,9.17735e-03,-2.50602e-02,-1.31524e-01,-3.25843e-02,7.51340e-01,-3.10508e-02,-7.88742e-02,
-7.43069e-02,-1.22581e-01,-1.87699e-01,-9.45055e-02,-2.45835e-02,3.90990e-02,-8.33018e-02,9.19232e-03,1.27116e-01,-8.91692e-02,4.25903e-03,1.10166e-02,3.49216e-01,-2.95485e-01,7.19872e-02,-8.26249e-03,3.47359e-02,2.19260e-01,3.66402e-04,-9.50536e-02,-6.14870e-02,-3.86231e-02,1.01657e+00,-1.57039e-03,-1.04143e-01,
-6.93467e-03,-1.67000e-01,-8.98344e-02,-1.34902e-02,-2.38136e-01,-1.60689e-02,-1.02154e-01,-4.16616e-02,-1.88258e-03,-1.41596e-02,-1.78058e-02,1.63296e-02,2.81916e-01,-2.58329e-01,5.59973e-01,-6.12233e-03,1.75974e-03,1.94968e-01,-2.59560e-02,-3.58106e-02,-2.13277e-01,-7.17521e-03,-1.19917e+00,-1.01328e-02,-6.01699e-02,
-1.31903e-01,-1.24356e-01,-2.16118e-01,-1.37520e-01,-1.84975e-02,7.36333e-02,-2.52173e-02,9.17249e-02,1.95242e-01,8.85097e-02,-1.48761e-02,-5.46697e-02,1.88135e-01,-3.16951e-01,3.32909e-02,-8.45424e-03,2.73353e-02,-2.40191e-01,-1.73168e-01,8.34695e-04,-7.46699e-02,-1.79284e-02,1.41417e+00,8.96218e-02,-7.50163e-02,
-3.33981e-02,-1.79057e-01,-1.45121e-01,-7.97336e-02,-1.21946e-01,9.48511e-03,-7.58446e-02,-6.34267e-02,1.23266e-02,-7.00214e-02,2.18224e-02,1.44140e-02,2.29180e-01,4.04184e-01,3.17472e-01,1.08394e-02,-7.28653e-02,2.35713e-01,1.55587e-02,-7.79752e-03,-1.28801e-01,1.75489e-02,7.52892e-01,-2.68509e-02,-8.62021e-02,
-1.31397e-01,-1.00541e-01,-1.58343e-01,-1.55328e-01,7.72781e-03,1.03890e-01,-5.95820e-02,2.95143e-02,1.29798e-01,-2.34307e-01,8.32100e-03,3.44266e-02,2.83549e-01,9.92363e-03,-1.10880e-02,2.29848e-01,2.29352e-02,2.36876e-01,2.02308e-01,1.10180e-02,-3.37187e-02,-1.41113e-02,9.15465e-01,-1.60674e-02,-1.22361e-01,
3.37681e-01,
2.87192e-01,
2.76643e-01,
-1.50679e-01,
-1.74049e-01,
2.77514e-01,
2.75464e-01,
-1.49877e-01,
2.29441e-01,
