// Neural Network File Format by Kyle Julian, Stanford 2016
6,4,9,25,
4,25,25,25,25,25,9,
0,
-8000.000000,-100.000000,-100.000000,0.000000
8000.000000,100.000000,100.000000,40.000000
0.000000,0.000000,0.000000,20.000000,-4.647677
16000.000000,200.000000,200.000000,40.000000,22.514692
-2.29796e+00,-1.04643e-01,1.60038e-01,-6.60874e-01,
-1.67453e+00,3.02231e-01,-4.87058e-01,1.41987e-01,
3.48231e+00,-2.85897e-02,-1.25873e-02,2.16230e-02,
-3.28651e-01,-4.08672e-01,-8.54648e-02,6.74479e-02,
3.17333e+00,5.13841e-02,-1.22203e-01,-7.97350e-01,
3.69103e+00,-3.35753e-01,9.61628e-02,-4.02676e-01,
-1.16035e+00,6.38972e-01,-2.17805e-01,-3.22667e-01,
2.06558e+00,-4.95393e-01,4.22369e-01,3.40062e-01,
4.90962e+00,1.33016e-03,6.53759e-04,-4.18960e-04,
-2.75694e-01,-1.15431e+00,-7.76525e-02,-1.27987e-01,
1.62559e-02,-8.88949e-02,1.79623e-01,-2.65978e-01,
-1.37164e+00,3.64772e-01,-3.85087e-01,-1.87363e-01,
3.71182e+00,-2.96684e-01,1.73990e-01,-6.29780e-01,
-9.15308e-02,-4.02081e-02,7.34390e-01,7.72055e-02,
1.34887e+00,4.56876e-01,2.06272e-01,-4.35823e-02,
3.72819e-01,7.99377e-02,-7.12690e-02,4.75996e-01,
2.71426e+00,-1.52056e-01,-3.94060e-01,1.71218e-01,
-1.03758e+00,9.69275e-01,-3.40599e-02,9.13156e-02,
3.42671e+00,3.94015e-02,-1.28196e-01,-5.08186e-01,
1.48890e-01,-1.80327e+00,4.53031e-02,-2.32997e-02,
1.65501e+00,-7.54637e-02,2.41353e-01,-4.71770e-01,
-2.65221e+00,-8.32823e-02,1.04226e-01,-7.50277e-01,
7.59895e-01,-6.98977e-01,-1.80647e-01,1.81243e-01,
1.78761e+00,-4.72152e-01,7.23294e-01,2.10451e-01,
-1.34631e+00,3.00541e-03,-4.36796e-01,-4.62199e-01,
-9.55833e-02,
8.08733e-02,
2.36851e-01,
2.16792e-01,
-3.18237e-01,
8.63174e-02,
-1.22945e-01,
2.31874e-01,
2.12307e-01,
3.58034e-01,
-2.95158e-01,
8.41402e-02,
-1.15745e-01,
3.13212e-01,
1.31014e-01,
2.22410e-01,
-1.35894e-01,
-1.21053e-01,
-1.06648e-01,
-2.28074e-01,
5.39540e-02,
-2.70558e-01,
2.39181e-02,
2.53124e-01,
1.51624e-01,
3.08382e-01,-3.61545e-01,3.25083e-01,-2.74418e-01,7.00948e-01,-8.74510e-02,2.91125e-01,3.75424e-01,2.40660e-01,8.20276e-01,3.36407e-01,-4.24373e-02,-6.90487e-01,5.65941e-02,-2.63033e-01,-3.01532e-01,-1.29105e-01,2.34235e-01,4.87633e-01,-4.91152e-01,3.73620e-01,-3.01550e-01,5.47556e-01,-2.53418e-01,2.87586e-01,
5.71978e-02,1.55566e-02,-8.58933e-01,1.53690e-01,-2.77947e-03,1.71025e-02,2.06611e-02,3.15968e-02,-1.16395e+00,-4.86570e-02,5.28231e-02,8.68246e-03,4.82985e-04,6.21286e-02,-1.12064e-02,4.13208e-02,-6.15388e-02,1.04298e-02,-1.04993e-01,-7.83142e-03,2.58068e-02,4.91050e-02,4.27131e-02,-5.82428e-02,8.60665e-02,
7.05631e-01,-3.30799e-01,1.90323e-01,-6.17332e-01,-2.85269e-01,-5.80917e-01,7.09695e-01,-5.03014e-01,1.73307e-03,3.82442e-01,1.18983e-01,3.54428e-01,-1.03405e+00,-5.49318e-01,-7.51437e-01,9.42957e-01,8.08928e-01,1.47288e-01,3.81146e-02,-4.72403e-02,-4.72879e-01,2.42516e-01,-1.91210e-01,-6.56302e-01,4.18077e-01,
-8.73313e-01,-1.20694e+00,9.23116e-02,-4.65316e-03,2.53955e-01,8.59748e-01,5.09465e-01,7.24326e-01,-3.26792e-01,-1.89551e-01,-1.53405e-01,-6.85784e-01,7.15572e-01,3.20487e-01,2.21222e-01,5.26834e-02,-4.08294e-01,-3.09263e-01,6.31544e-01,8.12891e-01,5.39966e-02,-4.97497e-01,-4.37711e-01,2.03259e-01,7.94046e-02,
3.79357e-02,-3.71221e-02,3.91459e-01,2.53864e-01,2.50692e+00,-2.32260e-01,-1.34533e-01,-1.44787e-01,-2.90883e+01,9.14140e-01,2.54868e-01,7.05375e-01,-2.76960e-01,2.25576e-01,-1.47623e-01,2.24305e-01,1.03522e+00,-8.18345e-01,-3.07936e-01,-3.70725e-01,5.09511e-02,2.20291e-02,-2.18449e-01,7.80774e-02,-4.22230e-01,
-3.59981e-01,5.56553e-01,-3.10680e-01,2.52916e-01,5.01636e-01,-1.07908e+00,1.71510e-01,1.09102e-01,-2.91029e-02,-4.39669e-02,-1.56620e-01,-1.54380e-01,-4.27569e-01,-6.23520e-01,6.87049e-01,-8.26857e-01,1.78178e+00,4.36992e-01,2.82843e-01,-2.91849e+00,6.32088e-01,2.25973e-02,-1.26071e+00,5.84210e-01,-1.11601e-01,
3.64348e-01,-8.67171e-03,-9.90256e-01,-4.95419e-01,-1.53371e+00,6.50783e-01,-2.41162e-02,-6.05136e-01,-1.13368e+00,-2.23817e-02,1.79215e-01,1.57851e-02,2.20673e-01,4.10499e-04,9.36291e-01,5.21310e-01,-6.23305e-01,-4.24607e-01,-1.21782e+00,-1.83487e-01,2.32674e-01,8.02734e-01,7.92943e-01,-2.57820e-01,4.74455e-02,
-1.57555e-01,-2.13765e-02,1.62668e-01,5.32826e-01,2.39701e-01,-2.47424e-01,1.30903e-01,2.62954e-01,5.23256e-02,-1.42089e-01,-1.70804e-02,-6.54404e-01,1.31271e-01,1.77473e-01,4.89500e-01,-2.93619e-01,-2.94614e-01,4.13698e-01,1.74368e-01,-7.44310e-02,-2.86946e-01,1.19814e-01,1.58071e-01,2.87066e-01,-3.42565e-01,
-5.68629e-01,1.67783e-01,-5.68476e-01,-5.83976e-01,-9.02076e-02,2.25095e-01,-3.15797e-01,-8.31141e-01,-4.93297e-01,-6.38619e-02,2.60121e-01,1.59410e-01,1.86840e-01,-2.48140e-01,6.90966e-01,4.96037e-01,6.38597e-01,-2.75116e-01,6.89551e-02,5.59054e-01,5.59395e-02,-2.35769e-01,6.42234e-01,4.07639e-01,-1.97811e-01,
2.39488e-01,4.32364e-01,2.31793e-02,-1.00602e+00,4.37069e-02,3.78532e-02,2.85544e-01,-1.74327e-01,3.58021e-02,-7.40939e-01,-1.04486e-01,5.15346e-01,-8.91424e-02,4.58966e-02,-2.11772e-01,3.71325e-01,1.04882e-01,-5.26198e-01,1.78595e-02,2.13186e+00,1.35757e-01,-2.74104e-01,-1.70033e-01,3.74810e-02,-1.35141e-01,
-4.56249e-01,-1.58221e+00,-2.23776e-01,2.56620e-01,7.19492e-01,7.49900e-01,-3.60294e+00,6.02446e-01,-8.40563e-01,1.28288e-01,-3.07784e-01,1.45001e-01,3.59049e-01,-2.99325e-01,-2.95949e-01,7.34544e-01,-4.58380e-02,-1.68426e+00,5.68628e-03,3.38137e-01,2.75147e-01,1.11336e+00,-2.50499e-01,3.21847e-01,-4.89694e-01,
-5.53006e-01,-3.29170e-01,-1.69567e-01,9.53104e-02,1.14390e+00,5.64242e-01,-2.60903e-01,7.78834e-01,3.14243e-01,-1.49375e-01,2.80232e-01,2.57389e-02,2.63697e-01,4.25202e-01,2.58585e-02,-8.63151e-01,2.61390e-02,-7.12737e-02,7.22308e-01,6.22686e-01,7.99962e-01,-1.29267e+00,-3.92125e-01,5.07146e-01,4.53883e-02,
-1.63533e-01,1.80394e-01,6.95711e-01,8.49525e-02,1.58499e-01,-6.32894e-01,-1.33544e-02,4.62725e-01,-6.77577e-01,2.31247e-01,-2.91973e-01,1.92780e-01,3.42470e-01,-3.15019e-01,1.84737e-01,2.10936e-01,8.08128e-01,-1.75541e-01,-2.22381e-01,-1.91057e-01,-2.94549e-01,-3.01708e-01,1.15565e-01,8.69449e-04,-5.31677e-01,
8.87556e-01,4.70783e-01,1.72184e-01,-1.63959e-02,4.76773e-01,-1.33604e-01,1.11965e-02,3.61666e-01,1.06036e-02,-1.89672e-01,-1.87809e-02,-1.37025e-01,6.90570e-01,-6.13759e-01,4.39889e-01,4.46966e-02,-3.32021e-01,-1.24539e-01,-4.00752e-01,-6.92652e-03,8.48033e-01,-1.98314e-01,1.94648e-01,3.75617e-01,-3.13656e-01,
-7.53763e-01,-3.79462e-01,-1.18089e-01,-7.23948e-03,8.28994e-01,8.21656e-01,-8.33411e-01,2.65816e-01,3.67321e-01,-2.74887e-01,-3.14172e-01,-4.27599e-01,4.81142e-01,7.50872e-01,3.09971e-01,-3.40731e-01,-6.07189e-01,-2.34112e-01,8.97362e-01,7.17358e-01,4.61701e-01,-7.88368e-01,-4.44552e-01,8.01928e-01,-5.93213e-01,
-8.64597e-02,4.19271e-02,-2.14844e-01,-1.81121e-01,-2.38119e-01,5.78313e-03,-2.76555e-01,-2.87054e-02,8.30191e-01,2.53788e-02,1.90934e-01,-2.50049e-01,5.88119e-01,4.30052e-02,3.47257e-01,-4.57134e-01,1.94773e-01,-2.19581e-01,8.13419e-01,2.77164e-01,-7.82300e-02,4.93855e-01,-2.90037e-01,4.54081e-01,7.01106e-02,
-5.85142e-02,-2.40852e-01,3.13504e-01,2.81434e-01,-5.83602e-01,-3.37226e-01,-5.94305e-01,6.97081e-01,-9.13162e-02,3.24043e-01,2.60050e-01,-1.86877e-02,-9.32019e-01,-3.20772e-01,4.77923e-01,3.66975e-01,-1.25498e+00,-5.34209e-01,1.91949e-01,-1.51737e-01,1.02096e-02,2.52393e-01,2.14980e-02,-1.10930e+00,4.15432e-01,
-1.26100e-01,4.98746e-01,1.44482e-01,-4.46299e-01,-6.60472e-02,1.40569e-01,8.56497e-01,-2.02233e-01,-2.31214e-01,5.66898e-02,7.52973e-02,3.11678e-01,-2.77340e-02,-1.12478e-01,-3.30085e-01,3.00417e-01,2.91208e-01,-3.81441e-01,-1.64843e-01,2.40447e+00,6.81979e-02,-3.47107e-01,-5.47272e-01,4.32618e-02,-1.07764e-01,
7.94796e-01,6.84875e-02,-1.12594e+00,-2.11986e-01,-1.42985e+00,-1.04875e-01,-1.21787e-01,-3.76420e-01,-2.48922e-01,2.86313e-01,-2.36459e-01,9.86200e-01,-6.55544e-01,4.33014e-01,-2.87778e-01,5.82572e-01,3.10662e-02,-7.19941e-02,-1.30475e+00,-1.71109e-02,2.64513e-01,1.40868e+00,9.16946e-02,-3.45875e-01,3.87868e-01,
-1.80888e-01,5.50019e-01,-8.38283e-01,-6.96320e-01,4.64667e-01,3.56828e-02,-1.74916e-01,4.96801e-01,-4.77462e-01,1.93862e-01,1.54767e-01,8.54703e-01,1.27974e+00,1.18493e-01,2.35286e-01,4.22285e-01,3.73084e-01,-5.57773e-01,-1.16132e+00,-3.06148e-01,4.70184e-01,5.37069e-02,6.05848e-01,4.30658e-01,-1.68101e-01,
2.15484e-01,-3.94873e-01,-1.20795e+00,-4.16597e-01,1.68126e+00,3.91822e-01,-4.33881e-02,-6.68392e-01,-8.91917e-02,-5.09626e-02,4.60297e-02,2.94227e-01,6.42638e-01,5.23872e-02,-8.48085e-02,8.37390e-03,2.34091e-01,-1.66430e-01,3.39932e-01,-1.53560e-01,3.48466e-01,1.13046e+00,5.78936e-01,-1.84263e-01,-6.51147e-03,
4.97304e-02,-4.31731e-01,2.06324e-01,-7.99482e-02,4.33786e-01,-5.87287e-01,-3.28048e-01,-4.52949e-01,3.72633e-01,-5.38023e-01,1.13264e-01,-1.51850e-01,-2.11510e-01,-9.23646e-01,5.06853e-02,2.92466e-01,4.75294e-02,1.33864e+00,4.04932e-01,6.51973e-02,-3.40308e-01,6.11881e-01,9.38185e-02,-2.34270e-01,8.05026e-02,
6.44571e-01,-9.49913e-01,1.01729e-01,-2.65792e-01,1.98628e-01,-5.94389e-02,1.04456e-01,-4.40521e-01,-3.95532e-01,-2.49211e-01,1.01562e-02,6.41345e-01,-2.79997e-02,2.68492e-01,-3.03618e-01,1.59425e-01,8.17670e-01,-1.72644e-01,-2.93134e-01,2.51665e-01,6.34013e-01,6.51976e-01,-2.45190e-02,4.18184e-02,3.03332e-01,
3.12053e-01,3.77292e-01,-7.09755e-01,-3.14379e-01,-7.91850e-01,9.75968e-01,-1.25312e-01,3.68533e-01,-3.01301e-01,8.82509e-02,-8.44728e-02,1.51732e-01,6.74581e-01,-9.76318e-02,8.25435e-02,-2.53633e-01,6.93305e-01,5.82149e-01,1.41724e-02,7.25275e-01,3.50595e-01,2.94395e-01,-1.69739e-01,7.13602e-01,1.62897e-01,
1.40049e-01,-1.34876e-02,7.31280e-02,-9.05575e-02,1.49622e-01,2.86130e-02,2.48380e-01,-5.68801e-01,7.07197e-02,-1.45570e+00,-2.04827e-01,1.83594e-01,-2.07933e-01,4.06722e-01,1.01149e+00,4.41664e-01,-6.90487e-02,-9.36549e-01,2.44602e-01,-3.31305e+01,1.30315e-01,-5.89562e-02,-6.09134e-01,-2.94402e-01,-2.18637e-01,
-1.63664e-01,
7.76849e-01,
3.49112e-01,
-2.97895e-01,
-3.30880e-01,
-3.52659e-02,
4.89690e-02,
2.67317e-01,
4.33128e-01,
3.88607e-01,
-3.55397e-01,
-9.70299e-02,
3.62279e-01,
-8.33881e-02,
-2.43831e-01,
1.01559e-01,
3.60140e-02,
-4.33212e-02,
-2.45431e-02,
-1.92477e-01,
-7.18441e-02,
4.24594e-01,
4.09991e-01,
-7.53766e-02,
3.02371e-01,
1.84987e-01,-2.36705e-01,5.92259e-01,-8.95230e-01,-9.76943e-01,-1.17317e+00,-4.30917e-01,1.17922e-01,3.31536e-01,3.63563e-01,5.69229e-01,-3.07714e-01,1.62289e-01,8.76735e-01,5.50188e-02,3.73882e-01,-1.04296e-01,-2.99590e-01,2.31973e-01,-2.12088e-01,5.21277e-01,-3.43135e-01,-3.73840e-01,4.59411e-01,1.34762e-02,
-5.86244e-02,5.66898e-02,9.20984e-01,-1.05658e+00,-4.85671e-01,-7.96380e-01,-1.44387e+00,1.00232e+00,1.72849e-01,-1.26200e-02,7.59167e-01,5.01778e-01,-7.85694e-02,2.06896e-01,-3.61243e-01,1.15758e-01,3.36233e-01,-3.06912e-01,-8.59486e-01,-5.42484e-01,2.11730e-01,-3.05185e-01,-2.36027e-01,3.89044e-01,-3.00720e-01,
5.70397e-02,3.56234e-01,-4.13680e-01,-2.51737e-01,4.56565e-02,2.84649e-01,-2.81314e-01,-7.31119e-01,-1.17360e-01,-3.58965e-01,-3.11812e-01,4.80622e-01,2.59226e-01,8.99409e-03,-2.21605e+00,-4.97930e-01,-2.07904e-01,1.45744e-01,-6.65968e-02,-2.78589e-01,1.34122e-01,1.28653e+00,4.22533e-01,7.58169e-02,3.40499e-01,
-2.44906e-01,1.96981e-01,-6.97249e-02,-4.28375e+00,-1.10924e-01,-1.19732e-01,1.51890e-01,4.15845e-01,1.54609e-01,2.99694e-03,1.08123e-01,-8.08546e-02,-1.01246e+00,6.33445e-02,-1.27555e+00,-1.02264e+00,3.84354e-02,-7.00542e-01,-5.78623e-01,-6.89945e-01,2.23118e-01,4.39891e-01,-1.03661e-01,7.44479e-01,7.35270e-01,
1.15643e-01,-1.23071e-01,8.73815e-01,3.49753e-01,2.81020e-01,4.63892e-01,7.52447e-01,-5.68146e-01,1.07162e-01,1.44462e-01,1.14510e-01,1.87622e-01,3.58704e-01,-2.73123e-01,2.38147e-01,8.19603e-02,2.82308e-03,-3.42214e-01,3.50853e-01,-7.53814e-02,-1.40981e-01,6.53244e-01,-5.30261e-01,-6.07508e-02,-6.32114e-02,
2.34187e-01,3.57881e-01,-6.35310e-01,-4.00366e-01,-9.31323e-02,8.59428e-02,-4.30342e-01,-1.66335e-01,-2.46663e-01,-4.36431e-01,-2.33180e-01,7.10455e-02,-7.48539e-01,1.53586e-01,-8.68484e-01,4.25658e-01,8.46456e-03,2.67979e-01,-1.13176e+00,2.49840e-01,-5.77524e-01,7.60893e-02,8.05094e-01,4.95161e-01,2.23648e-01,
-3.94401e-01,1.25728e-01,-8.96565e-01,-4.56027e-01,8.40326e-01,-7.62479e-01,2.48271e-01,4.16607e-03,-2.95630e-02,-5.29722e-02,-2.82165e-01,8.94293e-01,-2.17927e-01,4.48884e-02,-7.99953e-01,9.20651e-02,2.46363e-01,-4.79055e+00,-2.41264e-01,2.33635e-02,-3.92156e-01,2.79663e-01,1.59283e-01,2.03476e-01,-1.33869e-01,
-9.57444e-02,1.14529e-01,-2.42942e-01,3.11369e-01,-2.95496e+00,2.68786e-01,-7.27884e-01,-1.71739e-01,7.61115e-01,1.22285e-01,-8.48381e-01,-1.03302e-01,3.36461e-01,3.19465e-01,-4.56733e-01,3.42009e-02,6.05439e-01,-5.80093e-01,1.80085e-01,-3.76423e-01,-3.03426e-01,-5.36173e-02,5.53328e-01,1.17367e-01,-8.64285e-01,
-1.85593e-01,-2.34399e+01,3.13910e-01,-3.21536e-01,2.38451e+00,4.31161e-01,2.11025e+00,7.40140e-01,-4.02956e-01,4.70512e-01,-2.37110e-01,3.03437e-01,-3.40048e-01,6.58004e-02,-1.44201e-01,2.31816e-01,1.17662e-01,1.21973e-01,-2.48631e+00,-3.38620e-01,-1.05057e-01,-3.10005e-01,4.31755e-01,-3.28750e-01,-1.44963e-01,
3.56095e-01,2.18572e-01,1.80728e-01,-2.69077e-01,-8.80613e-01,5.01946e-01,4.10385e-02,-3.66442e-01,3.38261e-01,5.36673e-01,-2.11327e-01,-4.92053e-01,-2.45985e-01,6.71134e-02,2.84212e-01,8.88975e-02,3.13215e-01,-2.74292e-01,-1.99633e-01,2.87817e-01,-3.57121e-01,2.73953e-01,3.06754e-01,6.00089e-02,-1.87941e-01,
-2.81075e-01,-4.46840e-02,2.40367e-01,1.25630e-01,-8.81868e-02,2.57283e-01,1.54666e-01,-6.30567e-02,1.81888e-01,-3.78819e-01,-8.33584e-02,1.17600e-01,9.09460e-04,-2.29932e-01,6.78672e-02,3.11639e-02,-1.91634e-01,8.44729e-02,-2.99412e-01,-3.33745e-01,-2.96578e-01,-2.48909e-01,1.30704e-01,-3.59186e-01,-2.09279e-01,
2.52737e-01,-3.15124e-01,-2.21350e-02,-4.64042e-01,2.18013e-01,-1.23098e+00,-6.37341e-02,-5.92918e-02,5.10455e-01,5.75828e-02,4.89320e-01,-4.56072e-01,2.45286e-01,-5.05712e-01,5.82516e-01,2.77102e-01,-4.83585e-01,-4.29609e-01,-1.06231e-01,2.13772e-01,-7.02367e-02,-6.71903e-01,2.39813e-01,6.44122e-01,1.18278e-01,
1.26644e-01,3.25160e-01,-9.30811e-02,-8.41443e-01,2.53988e-01,4.20935e-01,2.67624e-01,-3.03283e-01,5.20320e-01,-4.27011e-01,9.79315e-01,4.15251e-01,-7.98949e-01,1.97330e-01,-1.16288e+00,2.63036e-01,1.87882e-02,-2.67960e-01,-3.00565e-01,1.32836e-01,-4.94512e-01,-3.04649e-01,-3.96922e-02,6.43554e-01,1.44515e-01,
3.03617e-01,-3.83175e-01,8.59846e-01,9.00901e-01,-9.65380e-02,6.56613e-01,1.26762e-01,-4.23581e-01,3.21745e-01,-6.10028e-02,-2.39203e-01,-7.35053e-02,2.83713e-01,6.81028e-01,-8.38600e-02,-9.64992e-01,1.43174e-02,-3.78597e-01,-2.79263e-02,-4.02979e-01,4.12074e-01,3.02022e-01,-1.11336e-01,3.53069e-01,-6.10862e-02,
-1.05522e+00,-1.22794e+01,3.59811e-01,-8.47656e-02,-2.49290e-01,-5.50399e-01,-3.33741e-01,3.06930e-02,1.37238e-01,8.54295e-01,-1.10592e-01,-7.88280e-02,-2.89286e-01,3.59960e-01,-1.16465e-01,6.07955e-01,4.19371e-01,-8.28297e-01,-4.14493e+00,-1.20641e+00,4.83691e-01,3.77558e-01,-2.11825e-01,-1.76341e-01,-8.29568e-01,
1.29731e-01,-7.75407e-02,4.52529e-02,-3.14763e-01,-2.38278e-01,-1.80419e-01,1.14793e-01,-1.77388e-01,1.57646e-01,-4.78875e-01,2.62234e-01,-2.93894e-01,1.29223e-01,6.45316e-02,4.62906e-02,-4.44798e-01,6.86721e-02,-2.08497e-01,-3.64922e-01,1.35285e-01,-1.82293e-01,-3.27476e-01,-4.49123e-01,-1.10815e-01,3.43888e-01,
6.66931e-01,1.11775e-01,-1.19905e-01,-2.10194e-01,5.75212e-01,7.90942e-01,-2.13972e-01,-2.13494e-02,-4.31676e-01,4.18285e-02,-5.31392e-02,3.58060e-01,-4.17699e-01,4.77132e-01,-2.29289e-01,6.15915e-01,-8.42548e-02,-3.72612e-04,-2.69177e-01,-1.53392e-01,-3.76569e-01,-5.89309e-02,2.64378e-01,6.38899e-02,-2.11128e-01,
1.40066e-01,7.57529e-02,-3.12138e-01,2.17557e-01,3.29282e-01,-3.12504e-01,4.08096e-01,-1.35036e-01,-1.07940e-01,5.11018e-01,-2.98504e-01,3.40273e-01,2.24944e-01,-3.01236e-01,5.90218e-01,-3.26205e-01,1.82267e-01,-2.08222e-01,-1.03048e-01,-1.81731e-01,3.73165e-03,3.60732e-01,-2.40367e-02,-2.67298e-02,-2.02470e-01,
-3.23034e-01,-1.87474e-01,2.29048e-01,8.68314e-01,-4.04522e-02,4.88958e-01,8.98810e-01,2.49005e-01,6.16689e-01,-2.31976e-01,-1.00190e+00,8.32021e-01,2.81542e-01,-3.55565e-01,-4.80399e-01,-1.19345e+00,-5.58084e-01,2.51034e-01,5.46189e-01,1.05809e-01,2.60749e-01,-6.83534e-01,-8.11196e-02,-1.54569e-03,1.99566e-01,
3.01352e-02,-9.02878e-02,4.87886e-01,-6.07934e-02,2.67751e+00,3.08911e-01,6.74859e-01,1.53352e-02,5.46919e-03,-1.38598e-01,-1.97569e-01,6.62962e-01,3.97871e-01,-2.39820e-01,-2.73918e-02,-3.44404e-01,-9.58316e-03,-1.89247e-01,2.23962e-01,-1.35704e-01,1.46434e-01,1.18508e-01,-5.16154e-01,3.59251e-01,2.44806e-01,
3.93421e-02,6.60873e-02,-2.06833e-01,1.03080e-01,-2.59887e-02,-1.21112e+00,1.20374e-01,-1.52170e-01,2.73013e-01,2.47635e-01,1.25540e-01,2.85301e-01,9.34629e-03,1.44020e-01,-4.85152e-01,2.30425e-01,3.12119e-02,2.78089e-01,1.24211e-01,-1.87344e-01,-3.13760e-01,-5.48048e-01,-2.62236e-02,-5.14735e-02,1.90163e+00,
3.51283e-01,7.53514e-01,-8.36505e-01,-5.08932e-01,-1.55060e-01,3.92284e-01,-3.82829e-01,-3.10343e-02,1.13505e-01,4.18544e-01,-1.02411e+00,-6.23554e-01,-4.69011e-01,3.29886e-03,-9.43819e-01,-3.92654e-03,9.89219e-01,-3.67483e-01,-5.13138e-01,-8.13486e-01,-1.22238e-01,1.20800e-01,4.12634e-01,6.24423e-01,-1.29165e-01,
-1.82638e-01,-2.39521e-02,-1.86021e-01,-7.57793e-01,8.69803e-01,3.60399e-01,2.35595e-01,2.19636e-01,7.86908e-02,2.56696e-01,5.10047e-02,1.00641e+00,-3.78832e-01,1.27629e-01,-6.81689e-01,7.33512e-02,4.36473e-01,-2.70131e-01,-6.05390e-01,2.61714e-01,-2.41924e-01,3.22372e-01,4.72531e-01,1.07270e-01,-1.76115e-01,
-3.96244e-01,-3.38431e-01,-1.44588e-01,-3.73618e-02,1.21965e+00,4.23955e-01,-1.24931e-01,2.02323e-01,3.72511e-01,7.36805e-01,-1.53224e-01,-4.21790e-02,8.87838e-03,5.87921e-02,3.73834e-01,-1.13485e-01,-3.79092e-01,-2.39569e-01,-1.88337e-01,-1.09408e-01,8.00195e-02,1.66482e-01,6.53313e-01,2.10545e-01,7.72867e-02,
-3.22941e-01,-3.44885e-01,4.83939e-02,1.76247e+00,2.98452e-01,5.94287e-01,5.92151e-01,-2.43434e-01,7.76396e-01,6.85942e-01,-9.66932e-01,4.87575e-01,8.03475e-02,-1.83593e-01,-1.42363e+00,9.54185e-02,-3.19534e-01,-3.44217e-01,7.76603e-01,-9.92145e-03,-1.56253e-01,-1.64719e-01,-1.35943e-01,-3.90181e-01,-3.15202e-01,
-2.58038e-02,
-1.34885e-01,
6.62720e-03,
-2.63810e-01,
1.66900e-01,
2.00480e-01,
1.62108e-01,
2.99685e-01,
-9.26224e-02,
3.57711e-01,
-1.36257e-01,
6.32293e-03,
2.99669e-01,
2.05802e-01,
-6.58278e-02,
-1.96809e-01,
3.59604e-01,
4.20472e-02,
-5.57053e-01,
-5.19916e-02,
6.84963e-02,
-1.70336e-01,
2.13266e-01,
-5.09191e-02,
-9.86660e-02,
1.06532e-01,-1.99739e-02,-7.88258e-01,-1.02789e+00,-2.01912e-01,3.29019e-01,1.98378e-01,2.06170e-01,4.91634e-01,1.58876e-01,3.49092e-01,1.06265e-01,-6.78967e-01,2.49569e-01,1.99665e-01,-1.89472e-01,3.13816e-01,1.35584e-01,-2.87025e-01,-7.42759e-01,-1.87382e-01,3.15704e-02,9.11446e-02,1.83734e-01,8.33902e-01,
2.46175e-01,6.07211e-01,-4.36089e-03,-5.40371e+00,-6.74839e-02,-1.73966e-01,-7.19564e-02,5.89433e-01,-1.20247e+00,2.03505e-01,-2.49644e-01,7.97801e-02,4.84695e-02,-2.72238e-01,-1.10004e+00,6.89215e-02,3.14758e-01,1.52103e-01,2.48302e-01,-2.18902e-01,-4.31940e-01,4.48898e-01,-1.43320e-01,-5.11439e-01,-1.78637e-03,
-1.17543e-01,-7.28471e-02,-2.01646e-01,-2.07438e-01,-2.18120e-01,-2.24210e-01,2.87786e-01,-5.98151e-02,-3.30311e-01,1.05059e-01,-2.22481e-01,-3.03837e-01,-2.06530e-01,4.78624e-02,3.34632e-01,-6.90590e-02,-2.97205e-01,-1.96219e-01,-3.25907e-01,-7.04981e-02,2.62158e-02,2.68199e-01,-2.43727e-01,-1.20747e-02,-2.34639e-01,
9.26424e-02,-1.94256e-01,4.67977e-02,-1.84145e-01,-5.96312e-02,3.96801e-01,-6.11460e-01,6.19955e-01,9.61900e-02,8.32993e-02,-1.05894e-02,-2.23300e-02,5.99770e-01,-4.38729e-01,1.38371e-01,2.59753e-01,1.99357e-01,-2.69449e-01,5.87489e-01,2.01012e-01,1.04756e-01,2.93377e-01,2.69923e-01,-2.54541e-01,-2.75015e-01,
2.53676e-01,-4.73825e-01,8.25406e-01,1.98393e-01,-2.72282e-02,7.61611e-01,3.02983e-01,-7.03714e-02,-4.11431e-02,4.85717e-01,2.62180e-02,8.03710e-02,9.42645e-02,-2.35764e-01,2.80261e-01,2.05896e-01,-3.17370e-01,-1.07525e+00,-6.91487e-02,2.50311e-01,2.92539e-02,2.09961e-01,-7.12940e-01,-2.42615e-01,3.33429e-01,
5.22743e-02,9.72798e-02,2.14197e-01,-8.98664e-01,2.43762e-01,1.09178e-01,8.24808e-02,3.77652e-02,-3.07397e-01,3.22066e-01,-3.24492e-01,-2.50616e-01,-3.14863e-01,-1.76844e-01,5.33216e-02,3.14186e-01,-1.61112e-01,9.58273e-02,5.21415e-02,1.13231e-02,-1.53972e-01,6.29308e-01,2.30386e-01,-1.39416e-01,-2.82482e-01,
9.59036e-03,-1.72273e-01,-3.83517e-01,1.03440e-01,-3.70627e-01,1.85253e-02,7.30216e-01,-2.32153e-01,1.84066e-01,3.48243e-01,1.95708e-01,3.18571e-01,2.04996e-01,5.81458e-02,2.56717e-01,-7.55734e-02,3.49410e-02,-2.34390e-01,1.46040e-01,3.13889e-01,-4.08322e-02,-1.19356e-02,5.10180e-02,8.39939e-02,-6.54528e-02,
1.02254e-01,1.35122e-01,8.08748e-02,-5.58857e-01,-8.13806e-02,1.78061e-01,5.15817e-01,8.65026e-02,-3.49205e-01,1.33641e-02,-8.74339e-02,1.67621e-02,3.35731e-01,-7.17795e-02,1.48123e-01,-7.92890e-02,8.24844e-02,1.01255e-01,7.79222e-01,5.44742e-02,8.22609e-02,-1.67381e-01,-5.43885e-01,-3.79645e-01,-5.36199e-01,
-1.19730e+00,-3.56349e+00,-2.87521e-01,-1.02478e-01,-1.03100e+00,2.38238e-01,-5.77446e-02,-3.76383e-01,-2.54149e-01,-6.56438e-01,4.46007e-03,1.44918e-01,1.04843e-01,1.73974e-01,-2.02970e-01,2.94571e-01,-7.49349e-03,-2.24769e-03,1.83919e-01,1.33314e-01,2.68956e-02,-2.17741e-01,-6.14385e-01,3.70579e-02,2.78448e-01,
5.24710e-01,-7.92152e-01,2.13863e-01,1.08443e-01,5.29703e-01,1.97100e-01,-9.02609e-02,6.15490e-02,3.67251e-01,6.70535e-01,-3.53735e-01,4.57395e-02,7.83666e-01,-8.93624e-01,-6.03284e-01,-6.56728e-02,-2.52733e-01,-2.68043e-01,5.55645e-01,2.06102e-01,-2.29932e-01,1.47765e-01,-3.88505e-01,3.60112e-01,-4.30453e-01,
2.19372e-01,-2.42503e-01,-2.17370e-02,-1.15480e-01,-2.03880e-01,-1.05853e-01,-5.12965e-01,2.65106e-01,5.32307e-01,-2.70577e-01,3.01295e-01,2.48217e-01,1.92487e-01,2.30354e-01,4.22980e-01,-3.29825e-02,-1.28737e-01,4.95364e-01,3.29437e-01,1.17503e-01,7.29190e-02,8.57014e-02,8.39731e-01,-3.93141e-01,-2.83930e-01,
1.76232e-01,8.12325e-02,4.42934e-01,-7.59701e-01,2.70915e-01,-1.68552e-01,5.10868e-01,-2.28484e-01,8.48016e-01,1.21203e-01,-4.67287e-02,-2.05385e-01,3.52529e-01,-1.48149e-01,1.55822e+00,1.13406e-01,-3.66377e-01,2.41376e-01,-7.18915e-02,1.71096e-02,-1.21752e-01,3.85370e-01,-1.61074e-01,1.51687e-01,-4.72265e-01,
-1.22607e-01,-1.46531e-01,-1.33860e-01,-8.35590e-02,-5.27199e-01,-4.62700e-01,-1.36736e-01,-1.65036e-01,-3.17137e-01,1.14212e-01,3.23568e-02,2.40114e-01,-1.27738e-01,5.33320e-01,-5.74994e-02,2.07021e-01,-3.96700e-01,1.80589e-01,9.36911e-01,-3.91937e-01,-1.60020e-02,5.61167e-01,5.86287e-01,-2.33714e-01,-3.96297e-01,
2.08829e-01,2.08010e-01,-4.36826e-01,-6.92638e-01,3.55810e-01,1.31027e+00,-1.14794e-02,-2.74025e-01,2.85389e-01,-2.19772e-01,-1.46456e-01,-2.32744e-02,-3.80137e-01,-4.18813e-02,-7.52590e-02,-8.08704e-02,-2.79689e-01,3.60942e-01,-1.27173e+00,-5.55545e-01,-2.32027e-01,3.13982e-01,5.24816e-02,3.60694e-01,7.75851e-01,
2.72491e-02,5.51329e-02,-6.35419e-01,-4.50945e+00,-8.30816e-01,2.18733e-01,3.27571e-01,-6.38211e-01,5.75216e-01,-5.27437e-02,-9.23254e-02,-3.87177e-01,4.68359e-01,1.12382e-01,1.24460e+00,-3.16235e-01,1.03237e-01,2.97176e-01,-5.36386e-01,9.20678e-02,-4.28989e-01,1.36075e-01,-5.40717e-01,5.59599e-01,9.72425e-01,
9.93292e-02,-3.99096e-01,-9.88611e-02,3.41356e-02,-2.41763e-01,4.96502e-01,4.52193e-01,-2.00015e-01,-3.30470e-01,1.90750e-01,-1.80797e-01,-3.00173e-01,-1.29792e-01,1.52988e-01,-3.82330e-01,1.53771e-01,1.55526e-01,3.29534e-01,3.14976e-02,-2.71929e-01,-1.48787e-01,-4.94294e-02,-1.27029e-01,2.31021e-01,-2.22605e-02,
-1.28549e-01,-1.30355e-01,-1.30152e+00,-1.42101e+00,-8.06334e-01,8.07302e-01,-1.54204e-02,1.09098e-01,4.43540e-01,-2.75223e-01,2.34703e-01,5.25767e-01,-5.69509e-01,6.26120e-01,4.97285e-01,5.84846e-02,4.78946e-01,2.89179e-01,-6.68098e-01,4.87957e-02,3.84112e-02,-8.86067e-01,-2.34119e-01,-3.75930e-01,1.52264e-01,
1.15751e-01,-2.41330e-01,2.58363e-01,1.24012e-01,-2.41895e-03,8.26597e-02,-1.60750e-01,2.32108e-01,1.11471e-02,-2.70817e-01,-1.88822e-01,-3.37923e-01,-1.26265e-01,1.25983e-01,2.44184e-01,4.00204e-02,-6.44325e-02,-2.01796e-01,-3.07611e-01,-2.07352e-01,-1.37945e-01,-7.15036e-02,-3.14914e-01,2.79306e-01,-2.87411e-01,
-3.17002e-01,-7.42007e-01,-3.43794e-01,-6.91413e-01,8.75721e-02,5.88990e-01,-1.48889e-01,-4.52531e-01,5.27719e-01,2.92816e-01,-1.53818e-01,-7.20823e-02,4.00758e-01,1.18053e-01,6.69428e-01,3.42664e-01,-1.29657e-01,5.20715e-01,5.61114e-01,-3.58512e-01,-5.20306e-02,-7.14282e-03,2.68630e-01,-1.48532e-01,-3.69956e-01,
2.99414e-02,1.31276e-01,-2.90337e-01,-2.04698e-01,5.76356e-02,-2.22258e-01,5.89330e-02,1.48208e-01,-1.57435e-01,-3.41398e-02,-1.79850e-01,7.77711e-02,-2.61637e-01,-2.00497e-01,1.88148e-01,-3.38644e-01,-3.35605e-01,-1.87387e-01,7.53174e-02,2.72706e-02,3.00706e-01,-3.11345e-01,-1.92685e-01,-1.93556e-01,-1.76568e-01,
-1.72689e-01,-3.32492e-01,-7.02559e-01,-1.91160e-01,-9.70443e-02,2.21353e-01,4.60064e-01,4.34066e-01,-1.65184e-02,-6.76566e-01,5.95164e-03,2.78036e-01,-1.24155e-01,-5.78364e-01,-3.71107e-01,2.78246e-01,5.01264e-01,-3.00389e-01,-2.01903e-01,1.92749e-01,-1.88860e+00,-3.47338e-01,1.66843e-01,-7.58960e-01,-1.05112e+00,
-3.44752e-01,2.37289e-01,3.37521e-01,-2.56711e-01,-6.15166e-01,-1.05146e-01,4.63181e-02,-5.06232e-01,2.23476e-01,-4.61004e-01,-1.44617e-01,2.64188e-01,-2.52250e-01,4.65254e-01,5.40027e-01,-8.24699e-02,6.18730e-01,5.69291e-01,1.35967e+00,-8.32451e-01,-1.14396e-01,-3.92242e-01,3.09022e-01,4.28350e-02,1.53009e-01,
-4.08922e-02,-2.79426e-01,2.96220e-01,3.96708e-01,2.14733e-02,-2.83360e-01,-4.97801e-01,-4.18802e-01,2.04449e-02,3.28694e-02,2.36469e-01,-3.08357e-02,1.73766e-01,-1.55748e-01,2.13540e-01,3.23015e-01,2.69749e-01,1.65273e-01,7.68786e-01,-1.98866e-01,-5.23685e-02,1.67594e-01,4.03683e-01,-6.19565e-01,-3.86475e-01,
-1.16656e-01,5.22195e-01,4.40406e-01,1.48133e-02,-1.38909e-01,-2.77151e-01,-2.80048e-01,1.52801e-01,-7.23401e-01,1.48380e-01,-2.45688e-01,1.62876e-02,-7.83177e-02,5.96853e-03,-1.12918e+00,-1.32514e-01,1.65575e-01,3.98249e-03,2.57269e-01,3.19720e-01,1.38527e-01,-7.38431e-02,-7.44815e-02,-1.15603e-01,-4.26444e-01,
-9.71121e-02,6.71061e-02,5.06158e-03,2.93390e-01,-7.37815e-02,4.93843e-01,4.37726e-01,5.24454e-02,1.23313e-02,-1.82355e-01,-5.56011e-02,3.68498e-01,1.99044e-01,4.38124e-01,-4.31447e-01,3.81291e-02,3.70602e-01,-1.86394e-01,-5.39781e-01,-5.45794e-01,2.77682e-01,-2.93085e-01,3.03792e-01,-1.07419e-01,-1.64984e-01,
3.07706e-01,
2.54179e-01,
-3.20253e-01,
1.21004e-01,
-5.96839e-01,
7.25059e-02,
2.34881e-01,
3.35282e-01,
2.65535e-01,
-5.34974e-01,
-2.01104e-01,
1.51530e-01,
4.78671e-01,
-3.60764e-01,
3.73539e-01,
4.22959e-01,
-1.82763e-02,
-1.04941e-01,
2.40522e-01,
-3.36194e-01,
9.16490e-02,
-2.08155e-01,
4.17375e-01,
-2.32522e-02,
9.40290e-02,
1.58976e-01,-2.77282e-01,-1.39378e-01,-4.89628e-01,3.10321e-02,-2.52499e-01,3.27137e-02,5.82385e-02,-1.76465e-01,1.48110e-01,-3.69403e-01,-9.55169e-03,3.09139e-01,1.54446e-01,1.44468e-01,-3.05929e-01,-3.91362e-01,-2.89174e-02,-3.15680e-01,-5.79324e-03,1.08476e-01,-1.22402e-01,1.67872e-03,-2.16059e-02,-2.73492e-01,
4.49077e-01,-6.83159e-02,-1.65010e-01,1.53708e-02,4.84575e-01,-2.51201e-01,1.07704e-01,-6.29897e-02,-2.13836e-01,-3.27684e-01,-1.68175e-02,4.71360e-02,-1.90184e-01,3.87290e-01,1.49759e-01,-4.62884e-03,-2.20773e-01,3.64975e-02,6.00951e-02,8.51338e-02,-2.78255e-01,-3.77156e-01,3.58193e-01,1.24706e-01,2.53763e-01,
-2.36138e-01,2.65899e-01,-1.26848e-01,2.35008e-01,-3.92625e-01,-1.18980e-01,1.19845e-01,-4.48252e-01,-2.74407e-01,-2.50742e-01,-1.85360e-01,3.36192e-01,-4.95022e-01,-1.07593e-01,-2.17968e-01,5.82070e-01,-6.08220e-01,-6.69946e-02,3.03375e-01,-2.21608e-01,5.63393e-01,-8.27808e-01,1.04161e-01,4.66221e-01,-2.86965e-02,
-2.56082e-01,2.79950e-02,-9.72096e-02,2.51688e-01,-3.56047e-01,1.15192e-02,-5.27036e-02,-2.78854e-03,-2.66640e-02,-4.68910e-01,2.60999e-01,1.63698e-03,-4.57470e-01,8.71020e-02,-9.50609e-03,1.12368e-01,-2.40762e-01,1.11986e-02,2.04234e-01,2.25817e-01,1.08204e-01,-2.58607e-01,-3.28707e-01,4.35078e-02,3.17940e-01,
-5.71178e-02,-4.14595e-02,2.47193e-01,2.05844e-01,1.99047e-01,5.92837e-02,3.27838e-01,-3.19372e-01,4.78145e-02,-1.65147e-01,7.29327e-02,-2.90971e-01,-2.17170e-01,3.80603e-01,-3.72226e-01,4.86162e-02,8.99667e-03,-7.76085e-02,2.74125e-01,8.49116e-02,-1.02696e+00,-2.21740e-01,-1.08479e-01,2.36873e-01,3.31394e-02,
1.66137e-01,-7.00540e-02,8.66135e-02,7.90919e-02,8.30659e-02,-6.87608e-02,8.33567e-02,5.54298e-02,9.40667e-01,-1.00994e-01,2.34420e-01,2.56875e-01,-5.98321e-03,-2.23445e-01,-1.20731e-01,-9.74239e-02,1.65284e-01,2.54766e-02,1.50738e-01,3.24795e-01,3.43405e-01,-1.66303e-01,1.07333e-01,-8.75932e-02,-1.04811e-01,
6.22362e-01,-2.25925e-01,3.70464e-02,-1.55038e-01,-1.33657e+00,-4.50540e-01,1.14455e-01,1.94576e-01,7.70839e-01,1.08753e+00,1.36693e-01,-8.23075e-02,3.86706e-01,-1.54103e-01,1.24124e-02,-6.54984e-01,3.22924e-01,-3.31888e-01,3.10498e-01,6.36089e-02,-7.76359e-02,-8.79185e-02,-1.28557e-01,4.04803e-01,-4.93326e-01,
-5.65805e-01,1.09675e-01,1.53513e-01,1.75329e-01,1.78676e-01,1.45454e-01,1.95483e-01,-3.31875e-01,4.50993e-01,-1.20713e-01,4.48434e-01,-1.37843e-01,-2.40192e-01,3.78727e-02,-3.98438e-01,7.68883e-02,2.58181e-02,-1.31909e-01,-1.97337e-01,2.18376e-01,-7.10535e-02,-1.86355e-01,-2.20183e-01,-1.18449e-01,2.34377e-02,
-1.18852e-01,4.41646e-02,3.05139e-01,2.48130e-01,1.22294e-01,1.52766e-01,6.96142e-02,-1.49768e-01,-8.93012e-02,-1.98757e-01,-1.77620e-01,3.61629e-02,-2.10853e-01,6.91420e-04,4.05396e-01,-3.57929e-01,-1.16730e-01,-2.02327e-01,4.76824e-02,1.63073e-01,2.60941e-01,-1.03949e-01,2.35413e-01,-5.08518e-02,3.68559e-01,
-3.23534e-01,-3.13501e-01,-1.93785e-01,-2.23832e-01,-2.10781e-01,2.71503e-01,1.57848e-02,-1.19613e-01,-4.74515e-02,4.66900e-02,-2.66966e-01,-3.21540e-01,4.94390e-02,-1.59789e-01,1.32097e-01,1.26419e-01,-2.11832e-01,-8.43499e-02,5.38567e-02,-3.29363e-02,2.02691e-01,-3.39998e-01,-6.07640e-02,5.44789e-02,-2.98681e-01,
-9.86837e-02,-1.38458e-01,4.22791e-03,3.79663e-01,-8.98225e-02,1.84047e-01,1.38572e-01,4.60309e-02,3.36228e-01,4.66975e-02,1.18320e-01,1.28154e-01,-2.22334e-01,1.56467e-02,1.40626e-01,-7.34956e-02,1.01956e-01,2.59315e-01,-9.49333e-02,-3.21737e-01,-2.41814e-01,-9.77397e-02,1.31655e-01,3.85284e-02,-2.15160e-02,
3.46616e-01,-3.34560e-02,-1.85490e-01,-2.22993e-01,5.83239e-01,-1.71245e-01,-6.05974e-02,2.01661e-01,4.47814e-01,-4.85470e-01,2.38122e-02,-4.97006e-01,-1.79443e-01,5.96196e-01,1.46132e-01,1.46596e-01,-3.03518e-01,1.54302e-01,1.70211e-01,1.96957e-01,-7.33140e-02,-6.11126e-01,3.45993e-01,-3.25244e-01,3.04492e-01,
3.81532e-02,-6.04186e+00,-1.42736e-02,9.33398e-02,-6.54788e-01,4.19209e-01,-2.98403e-01,-9.05222e-02,-1.58229e+00,-2.94077e-01,-4.30115e-02,-3.26461e-02,2.70336e-01,-3.55747e-01,3.27586e-01,-4.29209e-01,-4.20553e-01,-9.79864e-02,-2.49338e-01,-2.65151e-01,3.65525e-01,1.32180e-01,-3.46448e-02,-9.02204e-01,3.95782e-01,
-2.53588e-01,-5.76571e-02,-2.86673e-01,5.02965e-02,-2.61903e-04,-4.31264e-02,-6.51805e-02,-3.14956e-01,2.49258e-01,-9.69625e-02,-3.36999e-01,-9.19042e-02,4.41525e-02,1.87857e-01,-3.38050e-01,-2.39858e-01,-1.67290e-02,-9.36474e-02,1.34201e-01,-2.81735e-02,8.11318e-02,-2.44499e-01,2.72143e-01,-4.06044e-02,8.75133e-02,
2.32035e-01,-2.63493e-01,3.23454e-01,5.18184e-01,-2.87577e-01,4.29435e-01,-2.02301e-01,8.34481e-01,-6.30845e-01,-3.32456e-01,-2.04032e-02,-1.30847e-01,-3.23275e-01,-9.87563e-01,5.79281e-01,-2.68511e-01,-1.21679e+00,-7.08588e-02,-4.23632e-01,-1.18032e-01,-3.34702e-01,-1.14153e+00,3.22313e-01,-4.11373e-01,2.54997e-01,
-2.31749e-01,1.88627e-01,2.74371e-01,1.61932e-01,1.32400e-01,-1.88524e-02,2.38024e-01,-9.28140e-02,-1.35007e-01,-1.67531e-01,-1.45630e-01,9.24134e-02,-1.92315e-01,2.18522e-01,-9.04542e-02,2.57043e-01,1.89197e-01,-1.02160e-01,1.43041e-01,-3.11242e-01,-1.29753e-01,-2.26972e-01,3.25087e-02,-2.16302e-01,4.27217e-01,
-1.07883e-01,-1.75548e-02,-1.58545e-01,-3.45429e-02,1.33068e-01,1.42446e-01,3.36468e-01,1.09775e-01,-5.15649e-01,-2.55615e-01,1.93600e-01,-1.93745e-01,-3.01882e-01,1.50667e-01,2.38139e-03,2.05404e-01,-2.53976e-01,1.85327e-01,-4.36307e-02,6.62366e-02,1.11885e-01,-1.11201e-01,1.34368e-01,-9.04640e-02,-9.93455e-02,
-5.72016e-02,2.34569e-02,3.08403e-01,-2.32389e-01,-9.53940e-02,-1.21170e-01,-1.83605e-01,-6.71741e-02,-1.42621e-01,5.14627e-04,3.11314e-02,-3.54733e-01,2.86102e-01,1.60540e-01,-2.25517e-01,1.09171e-01,-1.23571e-01,-2.65104e-01,-1.44072e-01,-1.20066e-01,1.66470e-01,-3.94436e-02,-3.17501e-01,2.05816e-01,-1.18993e-01,
-6.24546e-01,1.02051e-01,-8.80825e-02,3.99614e-01,-1.53223e-01,9.25147e-03,-3.90640e-01,-2.89096e-02,8.15992e-01,1.34023e-01,1.95144e-01,2.27965e-01,9.75705e-02,-7.54486e-01,2.49757e-02,2.27103e-01,-2.38699e-01,-1.24081e-01,-2.77918e-01,-1.41647e-01,-1.00044e-01,3.48819e-01,-8.11554e-02,-2.35687e-01,-7.38357e-02,
2.86677e-01,-1.62445e-01,-1.22087e-01,1.40732e-01,-1.08745e+00,4.53204e-01,3.60165e-01,-1.21003e-01,5.08969e-01,-9.43813e-02,-5.46610e-01,-2.53996e-01,9.40100e-02,8.24930e-01,-3.73719e-01,-3.69844e-01,-5.33192e-01,-2.39487e-01,3.89163e-01,3.25592e-01,6.42205e-01,1.41289e-01,3.56444e-02,1.29741e-01,1.05705e-01,
-2.09685e-02,9.99687e-03,5.22965e-02,-2.64588e-01,-2.02764e-01,-2.17225e-01,8.00637e-02,-9.13797e-02,-8.13421e+00,2.04268e-01,-1.38362e-01,-2.57502e-01,2.58490e-01,2.55225e-01,-2.72858e-01,2.44547e-01,4.41156e-01,-1.33054e-01,6.11232e-02,-2.15578e-01,1.25884e-01,-2.77930e-01,1.30196e-01,-2.23167e-01,-5.66575e-02,
-6.44763e-01,1.75308e-01,2.26017e-01,-5.26928e-01,-4.55039e-01,7.76009e-02,-1.15712e-01,3.59719e-02,-2.19608e+00,3.97661e-01,3.93298e-01,-5.52427e-01,-2.79493e-01,-9.09488e-01,-7.77365e-02,3.37343e-01,-7.79070e-02,-2.27622e-01,2.06809e-01,-1.43506e-01,-8.18521e-01,-1.06689e-01,-7.96619e-01,3.99735e-02,5.67075e-01,
1.17084e-02,-1.64266e-01,2.77821e-01,-4.09848e-01,-3.07147e-01,-3.58903e-02,-1.67518e-01,-1.05245e-01,-1.70764e+00,3.78278e-01,1.24068e-01,-1.33063e-01,5.03417e-01,-5.72526e-01,-3.22104e-01,-3.74747e-01,4.18421e-01,3.54618e-01,4.90478e-02,3.05087e-01,3.64035e-01,3.43307e-01,-1.91947e-01,2.61845e-02,-7.13314e-01,
-1.64288e-01,6.35414e-02,2.18408e-01,-2.19839e-01,-1.16872e-01,7.24317e-04,2.00219e-01,-2.50408e-01,6.45834e-01,2.28220e-01,5.92752e-02,-1.35479e-01,8.22698e-02,4.45677e-02,-3.40060e-01,-1.33292e-01,7.30333e-01,8.62940e-02,4.74924e-01,-1.69810e-01,-2.43361e-01,-3.52711e-01,-1.49551e-01,-6.93270e-02,-6.17784e-02,
1.37578e-01,8.87427e-02,-7.33878e-02,-3.10995e-01,4.87686e-02,2.59250e-01,1.46936e-01,-2.83987e-01,3.96787e-02,3.92696e-02,-2.75880e-01,5.16598e-02,-4.04588e-02,-3.17697e-01,-1.59076e-01,1.18695e-01,2.52503e-03,7.81659e-02,-2.49958e-01,1.58930e-01,2.46345e-01,-1.86724e-01,1.09106e-01,-2.74830e-01,-2.65224e-02,
-2.39747e-01,
-2.00968e-01,
-7.91588e-01,
-2.53817e-01,
3.01464e-02,
-1.30410e-02,
-8.82623e-02,
2.62205e-01,
-7.55392e-02,
-1.16050e-01,
-6.35620e-03,
-1.50086e-01,
1.65876e-01,
-2.44506e-01,
-3.66315e-01,
-8.48446e-02,
8.43001e-02,
-7.99545e-02,
9.23780e-02,
-2.10151e-01,
5.00900e-02,
2.24486e-01,
3.44319e-01,
2.67566e-01,
-3.51158e-01,
-2.71993e-01,-4.58985e-02,-1.89193e-01,-1.37450e-01,-5.93427e-02,2.04147e-02,1.38660e-03,3.71484e-02,-3.85740e-02,-4.96081e-02,2.49683e-02,-1.74551e-01,6.62858e-02,3.37825e-01,-5.31409e-02,-8.12520e-02,-2.31021e-02,2.53918e-01,-3.57671e-02,-2.11303e-02,1.39927e-02,1.94261e-03,-2.55088e-02,3.37949e-02,2.12708e-01,
4.01673e-01,-2.76259e-02,-5.13791e-02,-2.09162e-01,-9.58722e-03,4.05455e-02,-2.13634e-04,-1.25278e-02,8.00542e-04,4.69851e-02,-9.72609e-02,-4.41245e-02,4.79624e-03,4.05524e-01,1.55141e-02,-9.10813e-02,-1.22061e-01,8.29232e-03,1.73798e-02,-4.31904e-02,2.98328e-02,-5.02961e-03,-5.23321e-02,-5.79962e-03,-2.65891e-01,
5.69131e-01,-1.15683e-01,1.06107e-01,-1.99503e-01,-4.85107e-03,-1.46833e-01,3.60635e-02,3.27818e-02,3.13931e-02,4.31811e-01,-1.03687e-01,-1.46252e-01,-1.20943e-01,2.98600e-01,-5.79957e-02,-1.91143e-02,3.66768e-02,-1.04981e-02,5.68145e-02,-4.75395e-02,4.28986e-02,-5.40253e-02,-3.66850e-02,1.90667e-02,-2.40314e-01,
4.75642e-01,-2.73770e-02,-5.37565e-02,-1.81270e-01,-5.72664e-02,3.75946e-03,-2.84518e-02,-5.07444e-02,-5.69397e-02,2.68436e-01,-6.20557e-02,-4.03313e-02,2.69366e-04,-3.68803e-01,4.95068e-03,-6.95947e-02,-4.25254e-02,1.65765e-01,6.00456e-02,-3.71833e-02,-8.99121e-04,-6.20828e-03,-3.20578e-02,2.60084e-02,-4.12139e-01,
4.01230e-01,-7.11212e-02,-2.20237e-02,-1.84542e-01,-4.66557e-02,-7.04403e-02,1.12355e-02,4.91338e-02,-3.50905e-02,3.74071e-01,-6.85867e-03,-1.01314e-01,-9.23597e-02,-2.49727e-01,1.74446e-03,-6.47615e-02,3.29016e-03,3.77120e-01,-6.46929e-03,-3.48739e-02,1.51120e-01,-2.56870e-02,4.86941e-03,-4.13950e-02,2.99032e-01,
3.30995e-01,3.89739e-02,-1.07314e-01,-1.98845e-01,-7.02713e-04,-3.16264e-02,-6.68836e-02,-1.39651e-01,-1.41194e-01,9.23205e-01,-4.37985e-02,1.44729e-02,2.28925e-02,-1.31647e-01,2.20076e-03,-6.56426e-02,9.43984e-03,2.35585e-01,7.93590e-02,-1.02230e-01,-7.35019e-03,1.86120e-03,-1.38472e-02,4.80885e-02,9.49547e-02,
7.57589e-01,-6.79915e-02,-7.42495e-03,-1.80881e-01,-2.10839e-02,-5.78196e-02,7.99811e-03,2.23907e-02,-1.77356e-02,-1.28457e-01,4.18117e-02,-1.56766e-01,-1.98262e-01,2.31970e-01,7.64220e-02,-8.33655e-02,-1.65790e-02,-5.56445e-02,-3.25494e-02,-6.03689e-04,1.90671e-01,-6.66356e-02,3.40223e-02,-9.71682e-02,2.86455e-01,
2.85470e-01,-3.84897e-02,-1.06760e-01,-1.78985e-01,-1.61812e-01,2.59355e-02,-8.99953e-03,-7.95931e-04,-5.56419e-02,-2.36496e-01,-8.67055e-02,-5.17396e-03,-1.02919e-02,2.81884e-02,-5.09494e-02,-2.63830e-02,5.63448e-02,3.22225e-02,6.04619e-02,-3.62509e-02,1.38567e-02,-2.72683e-02,-1.87878e-02,-2.37974e-02,-3.51449e-01,
3.35817e-01,-6.10301e-02,-1.30322e-02,-1.67305e-01,-5.57787e-02,-5.21993e-02,1.30953e-02,4.63419e-02,-4.38906e-02,2.93459e-01,1.19104e-02,-1.23798e-01,-1.01228e-01,-4.58030e-02,8.19945e-03,-7.47320e-02,8.05074e-04,-3.34190e-02,-1.65592e-02,-1.94447e-02,1.50116e-01,-2.09664e-02,1.08416e-02,-5.01147e-02,1.82655e-01,
2.02682e-01,
2.08838e-01,
2.07243e-01,
-2.39538e-01,
-2.42610e-01,
2.07383e-01,
2.05574e-01,
2.02131e-01,
-2.43227e-01,
