// Neural Network File Format by Kyle Julian, Stanford 2016
6,4,9,25,
4,25,25,25,25,25,9,
0,
-8000.000000,-100.000000,-100.000000,0.000000
8000.000000,100.000000,100.000000,40.000000
0.000000,0.000000,0.000000,20.000000,-4.647677
16000.000000,200.000000,200.000000,40.000000,22.514692
1.03640e+00,3.59233e-01,-2.56490e-03,4.65630e-02,
2.11395e+00,-8.75443e-02,1.40154e-01,-6.17883e-01,
2.53196e+00,-3.66685e-01,4.66218e-01,-2.21785e-01,
-2.87355e+00,-1.74980e-01,1.14964e-01,-1.45787e-01,
9.86385e-01,-2.90560e-01,5.96318e-01,1.82038e-01,
-2.99196e-01,7.77097e-01,-7.47574e-01,4.74017e-02,
3.56190e+00,4.38052e-02,-1.30770e-01,-1.15321e-01,
1.96888e+00,-7.21338e-02,7.49755e-02,-6.07768e-01,
1.91906e+00,-5.66834e-02,3.67926e-02,-5.27645e-01,
1.53304e+00,1.39750e-03,1.41748e-02,-2.39607e-01,
6.97051e-02,-2.51728e-01,-5.04390e-01,-1.97725e-01,
-2.64889e+00,1.31793e-01,-3.17508e-02,-4.88094e-01,
-1.58870e-02,9.77025e-01,-5.66411e-02,8.79338e-03,
-2.20449e+00,3.29835e-01,-1.81261e-01,2.18181e-01,
-1.04805e+00,-5.48297e-01,6.22669e-01,-4.46100e-02,
1.42179e+00,-2.01797e-01,6.47271e-01,-1.23986e-01,
-1.83889e+00,-1.49929e-01,2.44432e-01,-9.74956e-02,
-2.13904e+00,2.47134e-01,-2.22781e-01,-4.09690e-02,
-2.78064e-01,-1.02578e-01,9.99047e-02,5.10713e-01,
1.98774e-01,-8.77189e-01,2.35740e-01,1.97936e-01,
1.19976e+00,2.28753e-02,-1.42712e-01,5.43219e-01,
1.98565e-01,8.31269e-01,-1.50301e-02,3.48850e-03,
2.18102e-01,1.86176e-01,-1.87418e-02,7.79121e-02,
-2.65556e+00,1.46294e-01,-1.22589e-01,-2.87475e-01,
-1.74388e+00,-8.24915e-03,1.72017e-01,-6.40476e-01,
2.45686e-01,
-1.16225e-01,
1.00698e-01,
7.32001e-02,
8.18622e-02,
-6.02654e-02,
7.88837e-03,
-2.81450e-01,
5.15106e-03,
1.86553e-01,
3.66162e-01,
-1.26033e-02,
-1.34601e-01,
3.92201e-05,
-1.18967e-01,
9.59836e-02,
-2.24941e-01,
1.87680e-01,
2.03499e-01,
-9.32125e-02,
2.12441e-01,
1.02234e-01,
-2.53987e-01,
1.01967e-01,
-1.58640e-01,
5.66919e-01,2.16151e-01,6.71071e-02,4.77871e-01,-1.58755e-01,-5.13135e-01,-4.83376e-01,4.54172e-02,7.02731e-02,5.17538e-01,-2.43233e-01,-6.31205e-01,-8.66670e-01,-2.87619e-02,-4.85675e-01,-1.90830e-01,1.00236e+00,-5.63325e-01,2.35222e-01,-1.05812e+00,5.53624e-02,8.21256e-01,4.60861e-02,2.33043e-01,-1.01304e-01,
-1.84549e-01,-3.28115e-01,3.60163e-01,9.55493e-02,4.08057e-01,1.60624e-01,-2.88420e-01,-4.81911e-01,-3.49980e-01,1.52362e-01,5.19090e-02,-1.63732e-01,-2.33659e-01,-6.64490e-01,-4.28763e-02,-1.80127e-01,1.59483e+00,-5.57731e-02,-8.02388e-02,6.16736e-01,1.66983e-01,2.18779e-01,-2.46207e-01,-3.03919e-01,-8.19416e-02,
-1.08115e-01,1.88399e-03,-9.04008e-02,4.54743e-01,-5.56770e-01,-1.72715e-01,-9.56397e-01,-1.69959e+00,6.45783e-01,-6.02830e-02,9.67650e-02,1.98210e-02,5.29600e-01,3.89632e-01,4.54162e-03,6.26723e-02,-9.08753e-02,-3.84827e-01,-8.42718e-02,-1.54622e-01,-2.88557e-01,1.34413e-02,3.22816e-01,1.65961e-01,6.14387e-01,
7.22058e-02,4.04736e-01,1.09421e-01,9.58463e-02,9.73405e-02,-3.59689e-01,-4.63857e-02,-1.15307e+00,3.77421e-01,8.09565e-02,-2.86544e-01,3.18169e-01,-7.95013e-02,-5.42605e-02,-5.80453e-01,-2.47757e-01,-5.98899e-02,-2.03463e-01,-6.53417e-02,-3.44473e-01,1.17835e-01,6.78758e-01,-2.39806e-01,3.10052e-01,2.16272e-01,
2.67815e-03,-2.18320e-02,-8.04624e-01,6.15287e-01,-2.93931e-01,4.52311e-02,1.73163e-01,-2.78440e-01,-3.10720e-01,9.97049e-02,2.16833e-01,2.99700e-01,2.01327e-01,-5.17902e-01,-5.72845e-01,-6.88580e-01,1.11727e-01,2.61335e-01,-3.74546e-01,-6.86131e-01,7.19361e-01,1.46653e-01,5.68417e-02,2.86618e-01,3.45933e-01,
-4.29650e-01,-2.67097e-01,-2.09138e-01,1.29048e-01,-5.64122e-01,1.52456e-01,-2.47878e-01,-9.23664e-01,-4.05975e-01,4.02608e-02,5.14448e-01,7.68089e-01,-5.10198e-01,-5.87190e-01,-3.81945e-02,-8.67278e-01,5.63756e-02,-5.47909e-02,-6.69097e-03,-4.19413e-01,5.42828e-01,-4.07270e-02,-2.29843e-01,5.09900e-01,5.88305e-01,
7.38650e-02,4.35242e-01,3.86747e-01,-4.44870e-02,-5.67152e-02,-3.22706e-01,-1.65424e-01,-1.55182e-01,3.91481e-01,-9.71082e-02,7.79147e-02,-3.76453e-01,-1.23811e-01,-8.42769e-02,-1.33719e-01,1.01175e-01,6.77001e-01,-3.36357e-01,1.58922e-01,-3.47189e-01,-4.03988e-01,-5.36252e-01,1.79107e-01,1.64172e-01,-3.93618e-01,
-3.39024e-01,1.09515e-01,-6.91792e-01,1.55875e-01,-4.80593e-01,5.81078e-01,3.73777e-02,1.16347e+00,-2.54598e-01,5.40543e-01,-9.95040e-01,1.72516e-01,-7.96705e-01,1.00107e-01,2.34864e-01,-5.27226e-02,-3.19407e-01,2.14152e-01,1.27738e-01,-7.94031e-01,-1.49399e-01,5.44459e-03,2.54949e-01,-2.82854e-01,5.25267e-01,
5.98379e-01,1.17176e-01,1.60000e-02,-7.81637e-01,5.56327e-03,3.30629e-02,-5.88409e-01,-3.00818e-01,-2.89124e-02,8.24095e-01,3.23564e-01,-4.87219e-02,4.86468e-03,-6.60953e-02,1.10425e-02,-4.61725e-02,-7.25430e-02,-7.09846e-01,-1.14866e-01,9.23321e-03,-9.18180e-02,8.06091e-04,1.09494e-01,-6.77294e-01,4.71130e-02,
-7.21438e-02,-1.85314e-01,3.59353e-01,-5.82011e-02,1.61638e-01,-2.24575e-01,-4.68793e-01,5.60446e-01,2.07771e-01,-2.17985e-01,-7.62893e-02,-5.68428e-01,5.75901e-02,3.87583e-01,2.51273e-02,4.33292e-01,-1.70066e-01,7.41622e-01,4.35655e-02,-4.86888e-01,-2.08135e-01,1.20757e-01,-2.45462e-01,-1.76864e-01,-3.39112e-02,
1.99924e-01,7.52578e-02,-5.49674e-02,5.20043e-01,2.22512e-01,-3.23611e-01,4.35514e-01,-9.59530e-01,2.63394e-01,5.14952e-02,-1.96075e-02,-4.34547e-01,-1.51860e-01,2.66777e-01,8.15427e-01,-9.72207e-02,6.00506e-02,-8.76838e-02,-9.42514e-01,-4.90267e-02,3.35975e-01,8.24034e-03,-3.16592e-01,-1.48628e-01,2.08586e-01,
3.23527e-01,5.52006e-02,-2.16964e-01,1.34765e-01,-3.92759e-01,-1.72909e-03,-5.96602e-02,-3.19201e-02,-9.37703e-02,-3.48503e-03,-3.84173e-01,-2.64288e-01,2.22909e-01,9.15961e-02,5.40769e-03,-2.59995e-01,8.74885e-01,7.26132e-01,-3.32085e-01,1.41125e-01,2.42762e-01,-2.08545e-01,5.59106e-03,-3.15641e-01,2.40092e-01,
3.84304e-02,-5.09059e-01,4.63045e-01,4.81613e-01,-1.38322e-01,3.96747e-01,5.76470e-01,3.84745e-01,7.54764e-02,1.87516e-03,-3.28726e-01,1.28958e-01,-1.27154e+00,-3.28798e-03,-1.29701e-02,-2.83444e-01,-4.31897e-01,-2.74395e-01,-2.37139e-01,1.26544e-01,3.36648e-01,8.49009e-01,1.31689e-01,-6.50014e-02,-2.40592e-01,
2.45374e-01,3.90451e-02,7.12200e-01,-1.00025e-01,-4.12159e-01,-4.97558e-01,1.50772e+00,-1.46677e-01,2.82987e-01,-1.34669e-01,2.75675e-01,-4.29519e-01,1.05807e-01,2.23340e-01,2.51876e-01,3.51787e-01,-9.25717e-01,-6.56180e-01,5.36863e-01,-2.74885e-01,-1.35313e-01,2.67536e-02,-1.41253e-01,9.15060e-02,-6.19488e-02,
-3.69361e-01,1.16562e-01,-2.08986e-02,2.52463e-01,-1.43525e-01,1.21467e-01,-1.15594e-01,8.82446e-01,-3.78615e-01,2.85431e-01,8.28035e-02,-3.93036e-01,-5.54514e-01,-4.79262e-01,1.09088e+00,-1.57450e-01,1.20161e-01,2.79410e-01,1.81324e-01,-3.89685e-01,8.45258e-02,5.99117e-01,-1.00084e-01,-5.95501e-01,4.45127e-01,
-2.95204e-01,-3.41808e-01,-1.81620e-01,-2.67938e-01,-1.69845e-01,-5.70180e-01,-2.02292e-01,-2.95847e-01,-4.16547e-02,8.56102e-02,6.36219e-01,2.66786e-01,2.15413e-01,4.70228e-02,3.63740e-01,-3.17388e-01,-3.13065e-01,-5.54506e-02,-2.84573e-01,6.78202e-01,1.52360e-01,5.01849e-01,8.68243e-03,2.36996e-01,-4.97518e-02,
2.20836e-01,-1.21938e-01,-1.68348e-01,-1.44709e-01,2.87398e-01,-2.91296e-01,-2.93032e-02,1.68892e-01,-2.73363e-01,-1.16740e-01,2.74776e-01,-1.32081e-01,2.35738e-01,-1.57648e-01,-2.22180e-01,-9.76785e-02,2.90489e-01,4.64253e-02,1.75034e-02,1.14727e-01,-2.80193e-01,-1.13013e-01,3.41578e-02,2.30328e-02,-2.70503e-01,
-3.17766e-01,7.62373e-01,3.06757e-01,-1.12118e-01,-1.36091e-01,5.28866e-01,7.02589e-01,-1.60783e+00,4.27423e-01,-3.13601e-01,5.29388e-01,2.63742e-01,1.95633e-01,-3.19433e-01,1.21705e-01,-3.33449e-01,8.02774e-02,-7.49475e-02,-4.24031e-02,-4.92969e-01,1.40050e-01,4.42567e-03,1.04539e-01,7.03856e-01,4.94713e-01,
2.45179e-01,-1.35201e-01,-8.16540e-02,-4.42659e-01,1.85251e-01,-1.33502e-01,-1.16147e-01,2.87157e-01,-2.02939e-01,-1.69033e-01,5.64069e-03,-4.75128e-01,1.37483e-01,5.44958e-01,3.05861e-01,-1.56290e-01,8.49339e-02,3.47022e-01,1.38014e-01,1.05992e-01,6.11929e-02,-2.39154e-01,-2.66939e-04,-2.92113e-01,-2.85138e-01,
-1.63195e-01,3.84648e-01,-3.36886e-01,1.88017e-01,6.28635e-01,8.07860e-01,2.76244e-01,9.87453e-02,6.33954e-01,-1.21680e-01,-2.22384e-01,-1.59256e-01,-3.01034e-01,8.82755e-02,-2.05387e-01,4.41213e-01,-5.28292e-01,-1.41895e-01,4.92001e-02,3.23765e-01,-2.13835e-01,1.94172e-01,2.93211e-01,-2.68836e-01,-2.67741e-01,
-3.83357e-02,-2.46865e-01,-4.15405e-01,3.72882e-01,-4.36210e-01,5.79370e-01,-2.15131e-01,-8.35459e-01,-2.29344e-01,-3.93918e-01,1.73080e-01,7.87705e-01,4.89052e-01,-8.16999e-01,-5.55525e-01,-4.48612e-01,-1.69336e-01,1.24352e-01,-3.82388e-01,2.33810e-01,5.24852e-01,-6.11488e-02,1.51149e-01,5.47817e-01,5.90210e-01,
-1.73016e-01,-2.47692e-01,-9.62553e-02,-5.97788e-02,-2.68024e-01,-5.93833e-01,5.22706e-01,1.78536e-01,2.63825e-01,-1.51599e-01,2.95134e-01,-3.07412e-01,-4.53383e-01,9.08830e-02,1.26104e-01,-7.66133e-03,-8.44090e-01,-7.72631e-02,2.86537e-01,9.79921e-01,-2.68607e-01,7.88885e-01,1.98983e-01,3.70683e-01,4.43021e-01,
-5.98831e-01,7.83234e-01,3.90904e-01,-3.10927e-01,-5.29747e-01,5.95005e-01,3.72446e-02,-8.09591e-01,3.86594e-01,-4.58434e-01,4.81470e-02,7.64174e-01,6.23613e-02,1.29937e-01,-1.76126e-01,-8.99232e-01,-2.80150e+00,-1.60577e-01,6.54315e-01,-3.22829e-01,-4.84044e-02,-2.34867e-01,2.27738e-01,5.92108e-01,5.68936e-02,
-4.13053e-01,-1.82562e-01,4.61089e-01,4.99978e-01,2.40717e-01,-5.03238e-02,-9.61179e-01,1.73922e-01,5.19018e-01,-1.37677e-01,-7.88373e-02,4.40436e-01,-3.46611e-02,-3.80739e-02,-8.42972e-01,-6.32888e-02,-1.77396e-01,2.91343e-01,-1.01725e+00,3.81832e-01,9.53547e-01,-4.27006e-02,-1.26366e-01,3.82843e-01,4.77111e-01,
-2.62112e-01,8.05116e-01,1.12923e+00,1.37220e-02,6.44152e-02,-1.60374e-01,-1.55089e-01,-7.76215e-01,3.93629e-01,-2.21982e-01,1.77580e-01,-3.30633e-01,-1.32839e-01,-7.48295e-01,-4.83125e-01,4.92067e-02,-8.63260e-01,-4.92452e-01,-4.19327e-01,6.22139e-01,-1.55717e-01,4.84745e-01,3.18000e-01,-1.24479e-01,-4.50595e-01,
-2.33596e-01,
1.86564e-01,
1.87814e-01,
2.67314e-01,
-1.06611e-01,
2.15953e-02,
4.06603e-01,
1.89786e-01,
2.13204e-01,
2.20808e-01,
1.06935e-01,
2.59726e-01,
4.91473e-02,
-1.47858e-01,
9.51324e-02,
3.63988e-02,
-2.56505e-01,
5.78887e-02,
3.38645e-01,
1.84034e-01,
8.39594e-03,
-3.79483e-02,
-1.68313e-02,
-1.90022e-01,
-4.05322e-02,
1.84383e-01,3.65419e-01,2.47693e-01,2.91941e-01,3.37234e-01,3.11993e-01,-3.01010e-01,-3.73728e-01,-1.06347e-01,-1.51646e-01,-5.88584e-01,1.45185e-01,-1.83692e-01,-2.02361e-01,-5.35266e-01,-1.50838e-01,7.62444e-02,8.12383e-01,3.57578e-01,-5.44248e-01,2.59278e-01,-6.11740e-02,-5.91461e-01,1.57025e-01,-1.20482e+00,
2.78149e-02,1.66572e-01,1.57403e-03,2.48198e-01,1.95917e-01,-6.51977e-01,2.57204e-01,-2.02474e-01,8.56469e-02,-1.52028e-01,-7.28964e-02,-5.97149e-01,1.05737e-02,1.91579e-01,-8.02607e-02,-4.60966e-01,-4.85550e-02,1.69717e-02,1.06172e-01,2.90477e-01,-3.51115e-01,3.64953e-01,1.14089e+00,-8.83497e-01,3.97823e-01,
-3.11552e-01,2.04311e-01,1.47373e-01,-2.36776e-01,4.87286e-01,-2.25677e-01,-2.01019e-01,-8.75486e-01,2.82684e-01,7.15506e-02,1.92216e-01,6.55846e-01,6.07416e-02,-7.85194e-02,4.77302e-01,1.38446e-01,-4.40178e-02,2.05961e-01,2.69925e-01,2.26374e-01,-2.73350e-01,-3.31887e-01,5.49994e-01,2.62514e-01,1.68553e-02,
-3.37981e-01,1.73800e-01,2.73110e-01,-2.12381e-01,1.53656e-01,2.09643e-02,-4.56729e-02,3.07640e-01,2.48073e-01,4.08834e-02,-3.34601e-01,-1.89016e-01,-3.39769e-02,-2.90161e-01,-6.34133e-02,-2.47846e-01,-2.03486e-01,-3.41991e-01,3.98538e-02,-9.69014e-02,2.51057e-01,-2.31199e-01,-3.18642e-01,-2.97734e-01,-3.60878e-01,
2.68035e-01,2.28455e-01,1.36536e-01,-3.52194e-01,-3.25007e-01,-3.16744e-01,7.80496e-02,2.70537e-01,-1.42783e-01,-2.45156e-01,-2.91811e-01,1.59672e-01,-3.47379e-01,-3.07020e-02,1.19696e-01,1.92569e-01,3.25266e-01,1.73908e-01,1.07881e-01,-4.12607e-02,2.60154e-01,-1.25871e-01,-7.34669e-02,-1.04910e-01,2.68137e-02,
-3.73995e-01,1.48630e-01,7.29388e-01,1.42521e-01,-6.36107e-01,-3.30172e-02,1.17501e-01,-1.41544e+00,4.63324e-01,-2.44671e-01,-5.96536e-01,-2.10189e-01,2.50942e-01,3.52142e-01,-7.93380e-02,3.27259e-01,3.32174e-01,1.22486e-01,-6.82316e-01,9.07154e-02,-3.59281e-01,-2.91518e-01,-4.05884e-01,-3.22958e-01,2.20784e-01,
-2.37360e+00,-2.62211e-01,7.27647e-01,2.12811e-01,-4.83676e-01,-1.91782e-01,-3.05772e-01,2.91112e-01,-1.76926e-01,-2.61005e-01,5.24774e-01,-7.03747e-01,1.78946e-01,-7.04103e-01,3.34207e-01,-2.10645e-01,-2.87051e-01,5.14326e-01,2.50774e-01,-2.27900e-01,-2.19251e-01,1.74767e-01,2.13081e-01,3.03656e-01,1.63885e-01,
-1.04777e-01,-1.64427e-01,-2.61487e-01,7.65704e-02,3.85735e-01,-4.13806e-01,-7.91765e-02,1.85376e-01,-4.18324e-02,1.69162e-01,3.57105e-01,-1.14733e-01,4.81620e-01,-4.42215e-01,-2.41369e-01,3.71856e-01,1.60591e-01,-2.57078e-02,4.19983e-02,-7.14871e-01,-3.89696e-01,3.21172e-01,4.05829e-01,6.76010e-01,3.58549e-01,
2.50169e-01,2.26238e-01,-6.64448e-01,-1.16634e-01,-9.77267e-02,9.20127e-02,1.11065e-01,7.85635e-01,-6.41571e-02,-2.13204e-01,-6.43258e-02,-6.58103e-01,-4.06953e-01,4.47920e-01,-4.73779e-02,-2.14456e-01,-8.96766e-02,-4.85006e-02,9.12001e-02,3.20888e-02,-5.10902e-02,-2.87277e-01,-1.67714e-01,-8.79811e-01,-5.77351e-02,
1.02389e+00,1.27543e-01,1.42481e-01,-4.31022e-01,7.97059e-01,-3.03246e-01,5.31066e-03,-3.17983e-03,-1.49172e+01,-3.20737e-01,-3.28066e-02,-1.02029e-01,-3.08440e-01,6.70971e-01,-2.25901e-01,-1.27537e-01,-1.45854e-01,2.21111e-01,1.80893e-01,-5.90499e-02,-3.83680e-01,2.45742e-01,-3.97250e-02,2.47935e-01,-3.43415e-01,
1.38511e-01,-1.35875e-01,5.77302e-02,-4.15732e-02,-1.61839e-01,1.23768e-01,-1.58253e-01,-2.66831e-01,-1.57434e-01,3.06656e-01,2.18535e-01,3.80144e-02,-1.95213e-01,8.66610e-03,1.66478e-01,2.23292e-01,-3.06248e-01,1.22297e-01,4.35957e-01,-2.18141e-01,6.77852e-01,3.51772e-01,-3.34592e-01,-5.11894e-01,3.71984e-02,
1.25259e-01,1.54785e-01,-3.29234e-01,-1.35105e-01,2.79889e-01,-1.35774e-01,-3.30567e-02,2.66743e-01,9.51089e-02,3.63477e-01,-2.92585e-01,1.45824e-01,2.53763e-01,5.52507e-03,1.98868e-01,4.84546e-03,2.69536e-02,-3.25118e-01,2.88889e-01,-1.12447e-01,1.77791e-01,3.45875e-02,8.14169e-03,8.43131e-02,6.51488e-02,
-2.40638e-01,-3.31324e-01,3.02118e-01,-3.52652e-01,6.08931e-02,-1.03393e-01,-4.93525e-02,-2.54050e-01,-1.96021e-01,5.60993e-02,9.88238e-02,-3.04926e-02,-3.00081e-01,-8.96007e-02,-1.52131e-01,-1.89205e-01,-1.22704e-01,7.12505e-02,-2.90096e-02,8.63943e-02,1.56791e-01,6.17310e-02,-9.18971e-02,-5.52179e-02,1.30053e-01,
5.13656e-01,1.24620e-01,1.21253e-01,3.63800e-01,1.63791e-01,4.57724e-01,4.49082e-01,-1.43643e-01,7.93424e-02,1.21053e-01,7.11275e-02,-1.28659e-01,6.40025e-01,-6.22540e-01,-2.81650e-01,-3.21807e-01,2.39243e-01,3.09171e-01,-2.50922e-03,-8.56207e-02,2.76525e-01,1.40392e-01,-3.18819e-01,-1.19370e-01,-3.12755e-01,
2.85498e-01,-1.54963e-01,4.48975e-01,2.83836e-01,3.82052e-01,-8.27497e-01,-7.22249e-01,3.93696e-02,2.44840e-01,-3.17324e-01,-1.87936e-01,-1.72635e-01,7.28614e-01,6.58092e-01,9.49089e-02,1.62260e-03,1.23773e-01,7.20404e-02,-1.49330e-01,1.37025e-01,-9.98819e-02,2.01541e-01,5.91672e-03,-1.78143e-01,8.96708e-02,
4.51646e-01,1.42313e-01,-1.48188e-01,2.15604e-01,-2.60678e-01,-1.22472e+00,-5.05355e-01,-5.51652e-03,6.31193e-01,-9.71285e-02,-3.87193e-01,3.23412e-01,3.49643e-01,-4.15787e-02,3.22131e-01,5.01578e-02,2.55616e-01,-2.27329e-01,-4.42041e-01,3.21023e-01,6.38182e-01,3.31564e-01,7.50576e-01,-1.21347e-01,2.28015e-01,
-5.65722e-01,-2.86522e-01,4.11534e-01,4.99365e-01,-2.16220e-01,3.90800e-01,4.84973e-02,-1.03609e-01,-4.27380e-02,-3.77132e-01,-5.95881e-02,4.85268e-02,-7.00531e-02,-5.37475e-01,-7.80633e-02,4.92168e-01,2.11621e-01,6.13279e-01,2.21689e-01,-2.92008e-01,2.84559e-02,-8.13159e-02,-2.34143e-01,1.95646e-01,-1.11520e+00,
1.86997e-01,2.44924e-01,-7.41620e-02,1.57401e-01,2.07713e-01,2.83799e-01,8.15689e-02,-5.44493e-01,-2.71917e-01,-9.81580e-02,4.41353e-01,1.96458e-01,-1.03687e-01,5.19595e-01,1.02640e-01,-1.70571e-01,-1.59116e-01,1.99734e-01,4.39491e-01,3.01744e-01,-3.42920e-01,4.16930e-02,-3.54747e-01,-4.11032e-01,-1.97538e-01,
-1.24549e+00,-4.94894e-01,2.93238e-01,-1.62255e-01,1.80282e-01,-4.38543e-01,-2.28368e-01,1.75067e-02,-3.37564e-02,4.56611e-01,5.55185e-01,-4.33398e-01,3.20334e-01,-1.41232e+00,-2.72059e-01,4.53135e-01,1.53326e-02,1.38113e-01,1.87419e-01,-7.99925e-01,9.26542e-02,-2.39356e-01,3.03536e-01,6.64027e-01,4.57556e-03,
2.50782e-01,-5.25255e-02,4.94738e-02,-2.20649e-01,3.83126e-01,6.66792e-02,-5.54352e-01,3.93988e-01,2.40979e-01,-5.47826e-01,3.21785e-02,-1.79516e-03,1.55533e-01,8.96802e-01,-2.93575e-01,-4.03203e-01,-1.60108e-01,1.51312e-01,7.38909e-02,4.24995e-01,-8.17009e-01,-4.49860e-02,-1.86901e-01,-1.42936e+00,-1.98603e-01,
-1.20254e+00,-6.00864e-01,5.44466e-01,1.33306e-01,-2.51093e-01,1.23639e-01,-9.22241e-01,-7.39989e-01,-3.49926e-01,2.17898e-01,-4.64903e-01,1.34368e-01,-8.32064e-01,-1.20676e+00,8.05618e-01,-4.76144e-04,-1.07479e-01,6.92591e-03,-5.98651e-02,5.27920e-02,-3.47069e-01,-6.70284e-01,2.44708e-01,3.72072e-01,-3.68886e-01,
1.93289e-02,4.47448e-01,6.90337e-02,-2.74147e-01,4.46246e-01,1.09378e-01,-1.90096e-01,7.85121e-02,-5.67651e-02,-9.38532e-02,-2.30685e-01,-2.57288e-01,1.54429e-01,-2.03088e-01,2.45890e-01,3.98263e-01,3.68270e-02,3.68664e-02,2.38164e-02,7.94277e-03,-3.65084e-01,4.01464e-01,1.27658e-01,8.18522e-02,8.87537e-01,
8.49502e-01,2.27710e-01,-3.39029e-03,-5.57505e-02,-3.71964e-01,8.15940e-01,-6.01795e-03,3.43168e-01,-8.05988e-02,-2.79580e-01,-1.08257e-01,-4.81147e-01,2.36088e-01,2.49006e-01,-6.27925e-02,6.43813e-02,-1.50353e-01,1.02436e-01,-2.64750e-01,2.84219e-01,-1.05106e+00,1.13623e-01,-9.48404e-02,-9.86062e-02,6.71564e-02,
-1.53828e-01,4.27827e-02,1.11668e-01,3.62711e-01,-4.78341e-01,-6.28676e-01,1.31236e-02,-2.96282e-01,2.77590e-01,7.20381e-02,2.97477e-02,-5.97977e-02,-3.37840e-02,-2.74655e-01,1.17237e-01,3.02454e-01,-1.59361e-01,5.71705e-01,-4.57182e-01,1.20551e-01,-5.21482e-01,1.73376e-02,6.58175e-01,-5.38888e-01,2.09456e-01,
2.24499e-01,2.03571e-01,1.57454e-01,2.48623e-02,2.60076e-01,1.10028e-01,1.30618e-01,-1.00447e-01,-3.41992e-01,4.84442e-01,-4.42518e-01,-4.51886e-01,2.68564e-02,5.18722e-01,5.32534e-02,-6.64081e-01,-1.94285e-01,-2.49704e-01,2.70212e-01,-1.82752e-02,7.07920e-02,3.93259e-01,-1.57688e-01,9.83930e-01,3.82044e-01,
-2.05214e-01,
-1.17245e-01,
-3.11160e-01,
-7.54408e-02,
-3.33061e-01,
-2.86300e-01,
-4.70638e-01,
2.07118e-01,
3.67052e-01,
2.56247e-01,
-4.75507e-02,
3.74169e-01,
-3.54459e-01,
-8.06920e-02,
6.01986e-02,
-2.03983e-01,
-9.96283e-02,
-1.04507e-01,
-2.82454e-03,
-1.78436e-01,
-3.23060e-02,
9.62197e-02,
3.42076e-01,
-1.35639e-02,
-4.77420e-01,
-3.73161e-01,-1.33254e-01,2.44697e-01,-2.32296e-03,1.24510e-01,-2.81445e-02,-4.25996e-01,1.24148e-01,6.07825e-01,6.69409e-01,1.53649e-01,-3.05142e-01,2.36631e-01,2.57443e-01,6.59427e-01,-2.01453e-02,2.40617e-01,-3.50004e-01,-5.17568e-01,-3.43103e-01,-2.93560e-02,4.42718e-02,-4.90067e-01,-1.94865e-02,3.20763e-01,
3.70707e-02,-4.95410e-02,6.87576e-02,9.60066e-02,-3.14282e-01,1.14154e-01,-7.51053e-06,-5.64436e-01,-6.30955e-01,4.24078e-01,-1.12439e-01,-1.20058e-01,-1.27120e-01,-1.86131e-01,4.21039e-01,8.39006e-03,-1.99168e-01,-5.44606e-02,5.02926e-01,-5.98533e-01,-2.44921e-01,1.48478e-01,4.71522e-01,-1.92135e-01,1.22612e-02,
-1.57918e-01,1.42532e-01,-2.37226e-01,2.61389e-01,2.98114e-01,2.50126e-01,-2.27729e-01,-1.86927e-01,1.43494e-02,-3.75519e-02,4.05235e-02,5.36440e-01,1.99739e-01,2.11768e-01,-2.06683e-01,5.06543e-01,1.48165e-01,1.29269e-01,1.43020e-01,1.46142e-01,6.36735e-02,1.34942e-01,-4.91873e-02,1.75696e-01,-9.68221e-03,
1.91183e-01,1.97902e-01,-3.23850e-01,1.65233e-01,-1.36784e-01,-1.56634e-01,2.23637e-02,-2.94681e-01,-2.57526e-01,-1.80377e-01,-3.61389e-01,-1.84800e-02,-6.56106e-02,-1.71699e-01,5.81425e-02,4.60933e-02,-3.62643e-01,-4.01424e-04,3.26550e-01,-6.57275e-02,-2.82194e-01,1.81798e-01,1.55304e-01,1.06655e-01,-1.60393e-01,
5.03620e-02,-2.89015e-01,-2.03716e-01,-3.25201e-01,1.74806e-01,-7.36637e-02,-3.43904e-01,-5.17784e-02,2.51055e-01,1.56867e-01,-3.20819e-01,-2.34134e-01,-2.59131e-02,5.65909e-02,-2.40920e-01,2.97443e-01,-1.98823e-01,-2.76666e-01,-2.70288e-01,2.69050e-01,-1.32003e-01,7.00638e-02,-9.41328e-02,1.63813e-01,1.28913e-01,
-1.64560e-01,2.35511e-01,-2.18823e-01,2.60560e-01,1.68862e-01,-7.39391e-02,-2.12216e-01,2.98660e-01,-3.17977e-01,-5.65708e-02,8.47325e-02,2.48719e-01,1.54766e-01,4.22540e-01,-7.89945e-01,4.05263e-02,-9.61482e-02,-3.49308e-01,-1.89880e-01,1.11578e+00,-2.31351e-02,1.66343e-01,-3.82039e-01,2.05257e-01,4.02687e-02,
3.93289e-01,8.62893e-02,3.50112e-01,1.49545e-01,2.58766e-01,-2.36532e-01,1.22526e-01,-2.82503e-01,-2.78782e-01,3.85633e-01,-5.90466e-01,-3.14241e-01,1.87955e-02,-1.92550e-01,5.34082e-01,7.39832e-02,-2.82528e-01,8.58554e-01,5.61819e-01,-1.16446e+00,-8.25879e+00,-1.00825e-01,2.47748e-01,-2.24269e-01,-6.51625e-01,
-2.24588e-01,5.27877e-02,1.64155e-01,3.18936e-01,1.01306e-01,6.34557e-02,5.97573e-01,1.20366e-01,-5.83933e-02,-1.05606e-01,-2.15464e-01,9.64479e-02,1.43082e-01,5.37779e-02,7.79973e-01,-7.63841e-01,4.35278e-01,4.19241e-01,2.26436e-01,-7.72182e-01,4.48210e-01,1.16612e-01,-2.24087e-01,-2.79638e-01,-8.77067e-02,
-6.24402e-01,2.30489e-01,-2.89448e-02,-3.15958e-01,-5.18180e-02,8.46020e-02,2.74118e-02,-2.18895e-01,-1.65890e-01,1.56813e+00,5.84355e-02,-2.71938e-01,1.25700e-01,1.22090e-01,6.94714e-02,4.37558e-02,3.28958e-01,1.75170e-01,-1.70805e-01,-1.48137e-01,2.51179e-01,1.19702e-01,-1.89726e-01,-4.38766e-01,8.51824e-02,
-5.36723e-01,-9.53217e-02,2.36014e-01,-4.88372e-02,-2.86746e-01,-1.16652e+00,1.31793e-01,-8.41656e-02,1.64872e-01,-1.05474e-01,1.66836e-01,3.50252e-02,-2.98476e-01,6.09004e-02,-4.00322e-01,1.19121e-01,6.57415e-01,-1.18189e-01,-1.40132e-01,5.54575e-01,4.85619e-01,-2.41232e-01,2.00917e-02,-1.28879e-01,1.48618e-01,
-1.14256e-01,-2.07882e-01,4.44131e-01,-6.89322e-02,9.90797e-02,9.90006e-02,-2.94475e-01,3.64981e-01,3.07317e-01,8.53075e-01,2.45690e-01,-2.13025e-01,-3.13741e-01,5.02522e-03,6.14011e-02,3.86120e-01,6.33746e-01,-2.73773e-01,-5.38971e-01,7.61512e-02,-5.18744e-01,7.97042e-01,2.90692e-01,-1.38633e-01,5.61941e-01,
-3.35392e-01,1.99414e-01,4.62186e-02,-1.57121e-01,1.65519e-01,6.56631e-02,6.82167e-01,5.12196e-02,-4.54771e-01,1.53029e+00,-1.68340e-01,3.95474e-01,-2.23223e-01,2.16916e-01,4.99084e-01,-4.60760e-01,1.32996e-01,1.22502e-01,4.19438e-01,-2.75021e-01,3.36235e-01,3.14736e-01,-3.86048e-01,2.41097e-02,-2.69628e-01,
2.97000e-02,-1.19068e+00,-2.78779e-01,3.85125e-02,-4.67184e-02,-1.45777e-01,5.36941e-02,-4.13247e-01,-1.66254e-01,4.68474e-01,-6.85508e-01,2.83259e-01,3.89306e-02,3.19519e-01,-2.29542e-01,1.32317e-01,-9.32285e-02,4.43918e-01,-3.30574e-01,3.97351e-01,-7.74291e-01,3.88268e-01,1.04369e-01,2.15435e-01,1.89727e-01,
3.96155e-01,-3.70771e-01,-1.31559e-01,6.59274e-02,-3.16242e-01,-3.61042e-01,9.59927e-03,2.95543e-01,-8.21451e-01,-6.58962e+00,-4.46636e-03,2.28498e-01,-3.15363e-02,-7.40986e-01,5.04238e-01,-4.81919e-01,2.79972e-01,-2.28385e-01,-2.09986e-01,5.68744e-03,7.98022e-02,1.10362e-01,-7.76638e-01,5.71326e-01,-1.36587e+00,
-3.40275e-01,-6.26744e-01,5.05788e-01,5.36635e-04,1.15037e-01,-1.07429e-02,-8.23922e-01,-5.41707e-02,2.23529e-01,-1.39190e-01,-1.36927e-02,-3.46570e-01,1.63454e-01,2.31170e-01,2.03885e-01,2.01069e-02,4.22353e-01,1.63577e-01,-3.46079e-02,-4.82596e-01,1.32131e-01,-5.31396e-03,5.31383e-01,7.75295e-02,3.22266e-01,
-3.04418e-01,-6.47829e-02,-2.60500e-01,2.39031e-03,2.76224e-01,-4.67145e-01,3.54142e-01,1.12564e-01,-2.86817e-01,-2.83484e-02,1.19353e-01,-3.20790e-01,7.98801e-02,2.99132e-02,1.09892e-01,-2.71685e-01,3.59626e-01,4.09378e-02,-1.37550e-01,-1.21253e-01,6.30788e-01,-1.37182e-01,1.41373e-01,8.95431e-02,7.70456e-02,
-3.21707e-01,-6.44567e-02,-3.02133e-02,5.72769e-02,1.02828e-01,7.58484e-03,1.02381e-01,1.79892e-01,-3.25065e-01,6.13261e-01,-2.24204e-01,2.54349e-01,-4.96170e-02,1.72020e-01,-7.17787e-03,-6.77124e-01,6.27567e-02,-1.44946e-01,-9.55383e-02,2.00333e-01,7.53140e-02,2.66510e-01,-4.82710e-03,1.43188e-01,8.11242e-02,
-1.04047e-02,1.45714e-01,2.07275e-01,8.70695e-02,-7.53563e-02,1.34471e-01,-3.54656e-01,6.22845e-02,1.22196e-02,-5.07535e-01,2.97814e-01,1.12278e-01,-2.24067e-01,3.89162e-01,-3.73326e-01,2.18249e-01,2.14416e-01,-1.04268e-01,3.92184e-01,3.50197e-01,8.38439e-02,1.44274e-01,-2.54959e-01,-1.09027e-01,-1.37318e-01,
3.37505e-02,2.02172e-03,1.48395e-01,-2.06019e-01,2.71615e-01,-2.78127e-01,1.64892e-01,-8.26905e-02,3.36739e-01,-4.43224e-02,-2.86736e-01,-2.92891e-01,-2.68071e-01,-1.63821e-01,-2.12805e-01,1.24241e-01,-1.93159e-01,-5.70674e-02,-3.03395e-01,-1.47514e-01,1.50478e-01,8.31812e-02,-8.52761e-02,-6.87453e-02,2.20222e-01,
6.16293e-01,6.44499e-02,4.34869e-03,1.95994e-01,-2.72949e-01,1.86864e-01,4.27796e-01,-1.77729e-01,2.75371e-01,6.57190e-02,1.04125e-01,5.27433e-02,1.59153e-01,-2.16680e-01,7.01274e-02,3.20821e-01,-5.26252e-01,3.96260e-02,4.01711e-01,-4.23379e-01,-3.53486e-01,1.40849e-01,4.02911e-01,5.88862e-02,-2.21721e-01,
-6.89179e-01,-8.79014e-01,1.70393e-02,-1.40245e-01,-3.15223e-01,-9.76342e-02,-3.09715e-01,2.06647e-01,-1.27779e-02,-2.94307e-01,-2.61312e-01,-3.94315e-01,5.58949e-02,3.55142e-01,-1.46569e-01,-6.86885e-02,3.17133e-01,-1.85499e-01,-4.80620e-01,4.20066e-01,-4.03695e-01,1.24661e-01,-1.62565e-01,6.28226e-01,8.66800e-01,
-1.70888e-01,4.81875e-02,1.35152e-01,-7.04954e-02,-2.74644e-01,5.09687e-02,3.07609e-01,-3.05181e-01,-3.35562e-01,2.47374e-01,-3.00444e-01,2.83961e-01,-2.14395e-01,-5.78094e-03,-2.61745e-01,-6.90344e-02,-3.44085e-01,-9.93545e-02,2.59795e-01,-2.58830e-01,-2.04472e-01,-2.05434e-01,2.16770e-01,9.66455e-02,7.38905e-02,
-6.63085e-02,-7.77093e-02,1.85913e-01,2.37512e-01,-1.62911e-01,-3.71438e-01,2.15095e-01,-3.13468e-01,1.08164e-01,1.25827e-01,2.92559e-01,-1.86074e-01,-2.74973e-01,8.88190e-02,-1.34733e-01,-3.35701e-01,7.05980e-02,-1.06752e-01,-7.96188e-02,3.08665e-01,2.04331e-01,2.70762e-01,3.82486e-01,-5.54658e-02,2.27191e-01,
-2.82851e-01,6.05798e-02,4.26747e-01,-6.13662e-02,2.13255e-01,-6.67345e-01,-3.77577e-01,-1.13523e-01,4.72175e-01,5.03366e-01,4.04113e-01,2.40222e-01,-2.08948e-01,3.39855e-01,1.13429e-01,-1.72233e-01,4.17350e-01,-1.40283e-01,2.58183e-01,1.13400e-01,2.92786e-01,-1.45981e-01,-5.08714e-01,3.66767e-02,-5.06138e-01,
-6.97804e-02,-6.49441e-01,-1.67484e-01,-3.14827e-01,-3.03819e-01,-8.26952e-01,-6.35202e-02,-2.01822e-01,1.45748e-01,1.75012e-01,-7.51160e-01,2.94855e-01,-7.98144e-02,-9.93074e-02,-2.05694e-02,-3.30398e-01,3.13092e-01,-2.11165e-01,-1.44358e-01,-3.43297e-01,-6.07790e-01,1.46215e-01,-4.40526e-01,2.81966e-02,2.29571e-03,
2.11970e-01,
2.66117e-01,
-2.43962e-01,
1.04533e-01,
-2.76241e-01,
2.24515e-01,
-2.24762e-01,
-5.90106e-02,
2.31824e-01,
8.22834e-02,
-2.67403e-01,
-1.82734e-01,
-1.65859e-01,
-1.30014e-01,
5.18963e-03,
2.56345e-01,
2.52744e-01,
9.00221e-02,
-2.91057e-01,
-7.51456e-02,
3.19146e-01,
-3.18605e-01,
6.72017e-02,
-2.41883e-01,
2.16415e-01,
-3.12037e-01,1.61266e-01,-1.90639e-01,-2.65184e-01,-1.27903e-02,2.19350e-01,7.90654e-02,-3.36867e-01,-8.57552e-02,2.27885e-02,-4.62418e-01,-2.15755e-01,-2.99789e-02,2.35803e-01,-1.68975e-01,-3.27654e-01,-5.58924e-02,-1.35773e-01,-1.58994e-01,-1.08609e-01,5.96416e-02,-1.40329e-01,-6.46022e-02,1.56050e-03,2.37622e-01,
-5.42026e-02,-2.95950e-01,1.16958e-01,-1.06901e-01,3.23631e-01,-4.59770e-03,-3.98356e-01,-4.56564e-03,1.28092e-01,1.65145e-01,9.58061e-02,-4.31926e-02,8.92872e-02,-2.00328e-01,-2.49880e-01,-7.59441e-02,4.40733e-02,-9.98942e-02,-2.62675e-01,-1.35987e-02,-1.20646e-01,3.04369e-01,-2.43375e-01,2.29125e-01,-1.98323e-02,
2.56172e-01,2.32145e-01,1.94670e-01,-9.05842e-02,3.04662e-01,-1.43525e-01,-8.40575e-01,-8.09344e-02,-2.50838e-01,-3.22146e-01,-5.63652e-02,2.77526e-01,2.01871e-01,1.37630e+00,2.71505e-02,9.21606e-02,-3.43346e-01,-8.49883e-02,2.64537e-01,-2.30719e-01,-9.57026e-02,2.94459e-03,-1.92947e-02,9.90613e-02,-1.15330e-01,
2.49923e-01,5.78389e-02,-4.85750e-02,-1.74164e-01,-2.22928e-01,1.78453e-01,3.07132e-01,-3.37635e-02,3.42437e-01,1.98926e-01,-9.86232e-02,-1.91457e-02,-2.89316e-01,-3.07631e-01,1.09877e-01,1.62333e-01,1.99814e-01,-7.94522e-02,1.83552e-01,2.55088e-01,2.03943e-01,1.19669e-01,4.51167e-02,2.54123e-02,2.34297e-02,
3.03010e-02,-2.72835e-01,4.27496e-01,-2.40516e-01,-1.45676e-01,-1.82769e-02,3.72450e-01,-3.06704e-01,-2.60396e-02,-3.72072e-01,-1.10547e+00,1.63833e-01,-3.84837e-01,-1.38213e+00,3.58244e-01,2.94480e-01,-9.35785e-02,-3.88571e-01,2.78424e-01,-4.58757e-01,1.47654e-01,-2.06271e-01,2.57656e-02,-2.88297e-01,1.75773e-01,
-2.72096e-01,1.90481e-01,-5.54079e-02,-9.28326e-03,-1.08397e-01,1.66241e-01,6.05020e-01,1.75378e-01,-2.14719e-01,-1.83395e-01,-6.43323e-03,-1.97923e-02,9.13666e-02,-2.91482e-01,9.00396e-02,-1.49932e-01,-8.75911e-02,-2.05684e-02,1.19338e-01,1.16401e-01,-9.86262e-02,1.39639e-01,2.18068e-01,-2.94929e-02,3.19236e-02,
-2.39801e-02,2.46994e-01,-1.25348e-01,-1.77889e-02,-1.56109e-01,2.85900e-02,3.13176e-01,-3.23407e-02,1.38465e-01,-1.61991e-02,5.58002e-02,5.80291e-02,3.14897e-01,3.12149e-01,-3.68630e-01,1.38578e-01,-3.10827e-01,2.16468e-01,1.86446e-01,1.17548e-01,-4.17975e-02,2.52433e-01,-2.67708e-01,-1.45740e-01,-2.89853e-01,
-3.62270e-01,3.99975e-02,2.14592e-01,-1.65871e-01,-6.24880e-03,-1.72039e-01,2.89265e-01,-2.93149e-01,9.12374e-02,1.85968e-01,-1.19982e-01,-2.74609e-03,1.11111e-01,-5.29977e-02,-1.87759e-02,-3.26741e-01,6.06198e-02,-2.34247e-01,-3.22827e-01,-1.40309e-01,1.03659e-01,2.21101e-01,-3.46804e-01,-5.44361e-02,-2.93882e-01,
-7.45937e-01,4.13346e-01,-1.25552e-01,-1.93225e-01,-5.39299e-02,-1.54054e-01,-5.10986e-01,-2.77738e-01,2.22571e-01,4.41761e-02,-5.78098e-02,-8.81916e-02,-1.09205e-01,1.45290e+00,3.93470e-01,-9.07384e-02,3.87101e-01,2.65118e-01,-2.64607e-01,-6.34357e-02,-1.39057e-01,2.93868e-01,4.60080e-01,-2.16978e-01,1.14808e-01,
-3.75323e-02,-1.63013e-01,1.26979e-02,3.28227e-02,1.92379e-01,-3.52678e-01,1.56081e-01,-4.65655e-01,1.78326e-01,-2.19518e-01,-7.84905e-02,3.74044e-01,-9.88662e-02,-1.72443e-01,1.93764e-01,3.23539e-01,-7.62688e-02,4.98713e-02,7.59862e-02,-2.85004e-01,2.11573e-02,-1.16419e-01,5.05874e-02,-4.33614e-02,9.24855e-02,
3.88289e-01,-2.35445e-01,-4.64158e-01,6.00391e-01,-4.90910e-02,-3.27873e-01,2.14238e-01,-1.46964e-01,2.74987e-01,1.31659e-01,-6.46205e-02,-7.83988e-02,-2.02977e-01,2.58596e-01,6.20731e-02,-1.52138e-01,1.75586e-01,5.97892e-01,2.89642e-01,1.15599e-01,4.85810e-01,5.68218e-02,7.35317e-02,-7.92651e-01,-5.48009e-01,
7.89015e-02,-5.51147e-02,-4.42449e-01,-3.07825e-01,-1.76744e-01,-8.27798e-02,5.54763e-01,-1.21659e-01,1.38187e-01,-6.85596e-01,1.19407e-01,-2.11522e-01,-2.95283e-01,-5.42627e-02,-1.88167e-01,7.20621e-02,5.23758e-02,-2.12850e-01,1.52401e-01,2.74686e-01,6.66022e-01,-2.17354e-01,-1.84782e-01,1.61942e-01,8.25115e-02,
-2.71492e-01,3.33554e-01,1.94332e-02,-5.02332e-01,6.25374e-02,-3.08541e-01,7.60727e-01,-4.82868e-02,2.36430e-01,-7.80779e-02,1.62817e-01,-2.56226e-01,1.46751e-01,1.13125e+00,2.98732e-01,3.06915e-02,3.43803e-01,1.85830e-01,-2.78294e-01,-5.83465e-01,-4.01586e-01,2.19609e-02,-2.41940e-01,-3.80276e-01,-1.17878e-01,
-8.09022e-02,2.04668e-01,-3.27590e-01,1.65448e-02,-7.88938e-02,5.85311e-02,-1.17898e-01,-2.37790e-01,-1.54849e-01,-1.20766e-01,1.23279e-01,4.19495e-02,-6.06479e-02,7.05133e-01,3.42102e-01,4.21563e-01,6.33060e-02,-2.77568e-01,1.55577e-02,-3.34756e-01,2.14738e-01,-8.20965e-02,-1.19427e-01,-1.40143e-01,-2.49269e-01,
-4.71768e-01,-1.37626e-01,1.56587e-01,-8.72103e-02,1.11481e-01,2.42542e-01,7.66518e-02,4.79665e-01,1.98451e-01,6.29491e-02,1.96329e-01,-2.04439e-01,5.60924e-01,4.22204e-02,-2.96578e-01,-3.95984e-01,2.43795e-02,-3.13865e-01,-1.50056e-01,6.65018e-02,-5.08370e-01,1.58157e-01,-4.13571e-01,4.69095e-01,-1.20107e-01,
1.32791e-02,-5.67959e-02,-6.04272e-01,-1.86167e-01,3.23096e-02,9.27281e-02,-2.51531e-01,-4.48363e-01,5.29032e-01,9.73445e-02,-1.68537e+01,-6.96832e-02,-2.45942e-02,-5.85960e+00,-1.93095e-01,-3.04374e-01,-4.31558e-02,-2.83560e-01,-1.70278e-01,1.17258e-01,1.75663e-01,1.98839e-01,-4.40327e-02,2.85624e-01,-2.53510e-01,
-1.08714e-01,1.59685e-01,2.72064e-01,-9.09341e-03,-3.10348e-01,-3.13050e-01,-2.45616e-01,-9.50845e-02,1.28246e-01,1.90038e-01,-3.13448e-02,-1.67181e-01,-5.54016e-02,3.24745e-01,-2.60046e-02,-1.91777e-01,3.91899e-01,2.96735e-01,8.29399e-02,-2.74349e-01,-6.82106e-02,1.39030e-01,-5.09260e-02,-1.30883e-01,4.37058e-02,
1.87737e-01,-5.72749e-02,-1.47168e-02,2.27759e-01,8.20813e-02,-1.54483e-01,-3.21977e-01,-1.66775e-01,8.85373e-03,2.11312e-01,1.20966e-01,-2.20665e-01,1.34595e-03,7.28003e-02,3.22148e-02,-1.19073e-01,8.41234e-02,-2.51277e-01,2.41656e-01,-3.94461e-01,2.23668e-01,-1.77546e-01,-3.90567e-02,1.88128e-01,-8.19319e-02,
-1.33368e-01,2.21040e-01,-2.94787e-01,-5.94432e-01,-3.32705e-01,3.48771e-01,5.56849e-01,-3.05277e-01,-2.97143e-01,-3.83600e-01,-2.77494e-01,2.95038e-01,-1.93207e-01,-7.33624e-01,-6.68530e-02,-3.06632e-01,2.91956e-01,-1.54607e+00,-2.25036e-01,-5.43379e-02,2.72770e-01,1.29013e-01,-4.49992e-01,-4.75592e-01,4.16596e-01,
3.58877e-02,-3.31976e-01,-8.37857e-02,-5.58281e-01,-1.60254e-01,-3.91683e-02,1.09968e-01,-5.69135e-01,1.59426e-01,-8.85492e-01,-2.01329e-01,4.52386e-01,-1.45245e-01,3.53858e-02,3.51377e-01,4.43755e-01,-1.24942e-01,2.67813e-02,2.11340e-01,-1.28316e-01,4.43396e-01,1.89508e-01,1.14018e-01,9.33877e-02,2.41699e-01,
3.74416e-02,8.86145e-02,-8.92364e-02,-2.04721e-01,2.43517e-01,-2.68801e-01,4.64670e-01,-5.89803e-01,-2.79782e-01,-3.46145e-01,-7.89477e-01,4.26396e-01,-4.85669e-01,-2.96314e-01,5.96438e-03,-3.19588e-01,4.91428e-01,-9.91378e-01,-1.30245e-01,-4.03617e-01,6.29369e-01,1.13296e-01,-2.78518e-01,-4.36471e-01,2.85239e-01,
1.85720e-02,1.78290e-02,-1.80944e-01,1.24657e-01,-1.80557e-01,-2.53150e-01,-1.91413e+00,1.29382e-01,-1.58499e-01,-8.53413e-02,2.58838e-02,-1.55168e-01,2.63745e-01,4.67374e-01,-8.97761e-02,7.47564e-02,1.88066e-01,2.00163e-01,-3.28030e-01,-5.86150e-03,-2.35884e-01,-1.95160e-01,8.17706e-02,-1.62971e-01,-1.61801e-01,
-4.45302e-02,2.99399e-04,4.50788e-02,2.93936e-02,-3.06081e-01,-1.08823e-01,2.47831e-01,-2.30898e-01,2.27385e-01,2.39988e-01,-1.68580e-01,-1.13942e-02,1.14455e-01,5.27306e-01,8.55068e-02,-5.77872e-02,2.03425e-01,3.65339e-01,-1.21448e-01,4.76009e-02,4.51002e-02,-2.29900e-02,2.95128e-01,-2.52161e-01,2.00134e-02,
-2.62578e-01,-7.21618e-02,2.03584e-01,4.12043e-01,-1.43253e-01,-2.36556e-01,-1.38744e-01,-4.12269e-01,-2.31127e-01,-7.52699e-02,4.47071e-02,4.24268e-02,-3.18134e-01,-3.17952e-01,-2.92097e-02,-3.54360e-01,5.41144e-02,-8.26989e-02,-1.31205e-01,-2.63018e-01,-2.92956e-01,3.10324e-01,2.69616e-01,4.65158e-02,2.18915e-01,
-2.98095e-01,5.16909e-02,2.24132e-01,-2.48937e-01,2.44330e-01,-1.24502e-01,-3.24101e-01,-3.03701e-01,3.35275e-02,-2.45697e-01,-3.07445e-02,-1.33533e-01,2.67762e-01,-1.93640e-01,-1.51466e-02,2.43762e-01,-1.47405e-01,-1.76754e-01,2.64384e-01,-1.02718e-01,2.99448e-01,-5.33595e-02,-2.67652e-01,7.04397e-02,-5.53919e-02,
-1.35980e-02,
3.26113e-01,
2.91648e-01,
4.28440e-02,
9.09157e-02,
3.40655e-01,
-3.37305e-01,
-2.86509e-02,
-4.67526e-02,
2.25225e-01,
-2.00264e-01,
6.82690e-02,
9.73143e-02,
2.60805e-01,
8.04877e-02,
1.81676e-01,
4.05797e-02,
-3.08416e-01,
2.66934e-01,
5.47183e-02,
2.41273e-01,
1.93276e-01,
-4.71369e-02,
-3.86157e-01,
-1.67927e-01,
2.07553e-01,2.77052e-01,7.90096e-02,1.43116e-01,-2.15801e-01,2.72523e-01,2.81879e-01,-1.78354e-01,5.68320e-03,5.15211e-03,-5.54015e-01,-1.35668e-01,6.73908e-02,-1.25404e-01,-7.90263e-02,-1.79358e-02,-5.60748e-03,-5.13090e-01,1.53959e-02,-3.92359e-02,-1.71181e-02,3.57030e-02,-3.65003e-02,-5.54380e-01,-2.11467e-01,
3.90394e-01,1.18671e-02,-1.06945e-01,-2.57682e-01,2.41549e-01,-5.61663e-02,5.01296e-02,3.79590e-01,3.22030e-02,-1.39345e-01,-3.85255e-01,1.00688e-01,4.29239e-02,-2.36990e-02,-6.27855e-02,-3.54054e-01,5.89340e-02,1.62440e-01,1.33515e-02,-3.15128e-01,-1.10669e-01,-1.79778e-02,-1.50414e-01,1.17159e-01,-3.70167e-01,
1.73761e-01,1.72695e-01,-9.60007e-02,-2.62929e-01,-2.83346e-02,-2.38931e-01,3.69361e-01,-3.99251e-01,1.52225e-01,2.45518e-02,-2.67287e-01,-1.83647e-01,3.74993e-02,-1.55174e-01,-2.99418e-02,9.80737e-03,-1.15773e-01,5.55714e-01,1.89528e-01,-1.67269e-01,-4.47258e-03,-3.28888e-02,1.31931e-01,2.67832e-01,2.58565e-01,
-3.59062e-01,4.70186e-02,-3.71943e-02,-1.36163e-01,1.57073e-01,7.80664e-02,4.43899e-02,-3.56338e-01,-4.80054e-02,-9.45774e-02,-2.70917e-01,-1.52721e-01,2.66985e-02,-6.36982e-02,-5.50185e-02,-1.17222e-02,1.23016e-01,3.42320e-01,-3.24594e-02,-2.23676e-01,5.31029e-02,-3.57860e-03,-3.78893e-02,3.06106e-01,1.36675e-01,
-1.72198e-01,2.84886e-01,1.33326e-01,5.66209e-02,2.53920e-02,2.62787e-02,-2.62394e-01,-4.10086e-01,1.10313e-02,-1.89150e-02,-2.67561e-01,-2.29809e-01,-4.45979e-02,-1.76217e-02,-6.06169e-02,-3.12514e-02,2.62963e-01,2.86735e-01,1.57008e-01,-1.57921e-01,-8.30917e-02,2.71460e-01,5.22387e-02,5.71869e-01,3.34441e-01,
1.78388e-01,2.69344e-02,-4.90434e-02,-2.15587e-01,8.42070e-02,1.71586e-01,-1.70304e-01,-3.62837e-02,-1.16076e-01,6.44071e-02,-3.25607e-01,-1.12822e-01,-2.14293e-02,-3.96838e-02,-9.39085e-02,2.33820e-01,2.34554e-01,8.71853e-01,-2.26329e-01,-1.87426e-01,3.13902e-01,1.94710e-04,-3.31860e-02,8.89392e-01,4.35513e-02,
2.02151e-01,2.36280e-01,7.96051e-03,1.01670e-02,1.22655e-02,9.27198e-02,-3.60402e-01,-1.00677e-01,-1.07823e-02,3.78551e-02,-2.09168e-01,-2.42431e-01,4.10234e-03,-8.83227e-02,-4.70585e-02,-2.22340e-02,1.15991e-01,3.54851e-01,1.45997e-01,-1.77145e-01,-5.45075e-03,1.49043e-01,8.82676e-02,2.42501e-01,-2.29947e-01,
3.20634e-01,8.04252e-02,-2.23578e-02,-1.06905e-01,1.82842e-01,1.37798e-01,4.65968e-02,3.40516e-01,-5.98248e-02,-5.93279e-02,-3.09345e-01,-1.09864e-01,2.46108e-02,-6.78063e-02,-7.03888e-02,7.88284e-02,1.39559e-01,3.63210e-01,-5.37507e-02,-2.24819e-01,4.36980e-02,9.09712e-03,-3.14764e-02,3.18957e-01,1.75768e-01,
-3.13901e-01,1.06777e-01,-3.14560e-02,2.64132e-01,1.06175e-02,3.66821e-01,-6.58279e-02,-2.47597e-01,-2.81677e-01,2.47143e-02,-9.44736e-02,-3.87474e-01,7.48692e-02,-2.39682e-02,-6.48931e-03,-3.15772e-02,3.21314e-01,1.13408e-01,1.52687e-01,-1.83107e-01,-1.47683e-01,2.55802e-01,2.29082e-01,8.82287e-02,-4.09082e-01,
-1.37724e-02,
3.02179e-01,
2.91832e-01,
-2.60643e-01,
-2.77062e-02,
1.62309e-01,
-4.17625e-01,
-3.03543e-01,
-1.42295e-01,
