// Neural Network File Format by Kyle Julian, Stanford 2016
6,4,9,25,
4,25,25,25,25,25,9,
0,
-8000.000000,-100.000000,-100.000000,0.000000
8000.000000,100.000000,100.000000,40.000000
0.000000,0.000000,0.000000,20.000000,-4.647677
16000.000000,200.000000,200.000000,40.000000,22.514692
1.79617e+00,1.86151e-01,-2.53845e-01,7.94941e-01,
4.94936e+00,-5.06138e-03,-5.71413e-03,1.80599e-03,
-1.19879e+00,7.92962e-01,-1.62103e-01,2.37765e-01,
-2.11224e-01,-6.06105e-01,-1.24647e-01,2.89659e-02,
-3.37328e+00,5.77210e-01,4.69580e-02,1.84322e-04,
8.64972e-02,2.69018e-01,1.55622e-01,1.83384e-02,
-5.25970e-01,-1.59483e+00,9.10953e-02,3.06058e-02,
-3.20512e+00,4.28180e-01,-5.53568e-01,4.02305e-01,
2.30668e+00,-1.26337e+00,-5.93859e-02,-3.08485e-02,
-4.95269e+00,1.38674e-01,-9.66270e-02,-2.87002e-01,
1.00742e-01,1.12323e+00,-7.53940e-03,-1.35594e-02,
-4.72044e+00,2.72738e-01,-1.76337e-01,-5.02019e-01,
1.65068e+00,3.29249e-01,-1.83713e-01,1.05274e-02,
-1.78801e+00,4.48981e-01,-7.42988e-01,2.73366e-01,
-3.87643e+00,1.07999e-01,2.68037e-02,-8.00479e-01,
4.71309e+00,1.81937e-02,-8.95518e-02,-1.86056e-01,
-2.43852e-01,8.18533e-03,-7.83138e-01,-7.80386e-02,
2.40180e+00,-4.86758e-01,7.03693e-01,-1.65301e-01,
1.57327e+00,-5.66504e-01,6.32970e-01,-8.12681e-03,
-3.16833e-01,1.31645e+00,-2.56526e-02,-1.61124e-02,
-2.33889e+00,1.29871e-01,6.05460e-02,6.04679e-01,
-2.21854e+00,-1.25783e-03,8.46364e-03,8.92126e-01,
-2.77101e+00,-3.33024e-01,2.30064e-01,-1.95274e-02,
2.53211e-01,-2.17121e-01,2.25000e-01,-3.95668e-01,
4.34537e+00,-1.83586e-01,2.07382e-01,-5.99243e-01,
3.11552e-01,
2.14420e-01,
2.69456e-01,
3.11738e-01,
-1.54270e-01,
-3.05651e-01,
-2.06630e-01,
3.05225e-01,
-6.42616e-02,
-2.14973e-02,
-6.75690e-03,
1.22149e-01,
2.57789e-01,
1.18746e-02,
-1.50124e-01,
-5.26319e-02,
2.96159e-01,
1.52598e-01,
-4.02251e-02,
-2.96475e-01,
1.24514e-01,
4.21834e-01,
2.36775e-01,
2.06988e-01,
-2.52101e-01,
7.49887e-01,3.57148e-01,-1.00151e+00,8.10291e-01,-2.28764e-01,2.14291e-01,-8.66743e-01,-2.12370e-02,3.45110e-02,1.28516e+00,1.05517e+00,-5.38601e-01,-2.99180e-01,2.04891e-02,-8.92677e-01,4.13390e-01,-5.41410e-02,-5.46584e-01,7.72024e-01,3.76195e-01,8.43251e-02,1.80715e-03,-2.73239e-01,-6.54923e-02,-1.07423e-01,
3.93344e-02,-3.34047e-01,2.21728e-02,3.41691e-02,-5.00566e-02,-3.44002e-01,-1.10892e-01,-1.46379e-01,1.99227e-01,1.49855e-01,8.98170e-02,1.88638e-01,-2.49320e-01,2.73174e-01,-3.01483e-01,-2.47840e-01,-3.63005e-01,1.12024e-01,-3.24095e-01,-8.41125e-02,-2.72432e-01,6.42042e-02,1.80573e-01,1.67939e-01,-2.14696e-01,
1.14543e+00,-9.63159e-01,3.26934e-01,-2.25815e-01,5.32895e-01,2.14187e-01,-3.89443e-02,3.71350e-01,-1.90140e-01,-2.51021e-01,2.67392e-01,1.06325e+00,6.43599e-01,2.27505e-01,7.61668e-01,-7.33205e-01,7.20169e-01,-4.97999e-01,-1.42256e-01,-6.91192e-01,-1.27898e+00,-6.24397e-01,6.70277e-01,-5.59402e-01,-1.18776e-01,
9.88703e-02,-2.36546e+01,-4.46613e-01,1.28249e+00,-1.24077e+00,-3.17390e-01,-3.87276e-01,3.86477e-01,-6.83563e-01,5.34368e-01,1.71123e+00,4.98522e-02,-2.95003e-01,-1.20223e-01,1.20555e-01,-9.47738e-01,2.28516e-02,-3.85613e-01,8.35745e-01,-1.29394e-01,-3.31317e-02,1.57788e-01,2.27707e-01,2.80863e-01,-2.78229e+00,
6.05963e-01,4.24404e-01,9.37034e-02,-4.99990e-02,-4.94579e-01,1.78359e-01,3.72305e-01,-3.94328e-01,-1.99184e-01,-1.28664e+00,1.91737e-01,1.73846e+00,-3.44039e-01,-4.12998e-01,1.70409e-01,-1.77734e+00,-6.47096e-03,2.88013e-01,-4.93690e-01,-2.66541e-01,8.87960e-01,-1.18835e+00,-2.70613e-01,8.30722e-01,-7.28008e-01,
3.70786e-01,-2.65095e-01,-5.36573e-01,-1.15675e-01,7.61906e-01,-3.30038e-01,3.16045e-01,4.80689e-01,-5.79232e-01,-9.63592e-03,4.34031e-01,-8.94838e-02,2.03696e-01,-5.78396e-01,2.01086e-01,3.87675e-01,2.21120e-01,-1.00818e+00,3.10462e-01,-1.54225e-03,-9.60202e-02,-9.27296e-01,3.66395e-01,-1.48396e-01,-8.37015e-01,
8.01724e-01,-1.03080e+00,-6.54927e-01,4.60941e-01,-3.32366e-01,1.36695e-01,-2.24588e-01,1.19977e+00,-1.64980e-01,1.73521e-01,2.29128e-01,9.60953e-01,-1.08244e-01,-1.99945e-01,1.04499e+00,-4.20400e-01,1.16307e+00,-4.27873e-01,-9.49222e-02,1.27485e+00,-7.88155e-01,-4.97393e-01,-2.29002e-01,-3.96064e-01,-1.05027e+00,
-6.16670e-01,3.83851e-01,3.81257e-01,1.92116e-01,-1.16908e-01,1.22506e-01,1.60185e-01,-4.64630e-01,-5.64834e-01,-2.07309e+00,-1.02792e-01,8.75430e-01,4.80886e-01,1.05164e+00,5.63210e-01,-2.99333e-01,6.66059e-01,-2.74626e-01,9.10240e-01,1.58323e-01,1.20945e-01,3.54411e-01,-4.40156e-01,-2.94352e-02,5.63745e-01,
-1.97569e-01,-7.48805e-02,-8.66419e-02,-1.71234e-01,2.55436e-02,-5.95690e-02,1.24638e-02,-1.71746e-01,1.35260e-01,-1.83633e-03,6.14763e-02,-2.71824e-01,2.50125e-01,3.39791e-01,3.21861e-01,-2.73595e-01,-1.89028e-01,1.75830e-01,1.66207e-02,9.59320e-02,-2.19986e-02,6.29389e-03,-3.28040e-01,-1.45412e-01,1.80960e-01,
-1.37899e-01,-3.08251e-01,1.61985e-01,1.57329e-01,1.77884e-01,2.94962e-01,-3.34428e-01,-3.96267e-02,4.91030e-02,2.49463e-01,-1.06553e-01,-2.44510e-01,-3.46226e-01,-2.96752e-01,-3.08895e-01,-2.12134e-01,2.55043e-01,-1.43382e-01,-2.25873e-01,9.30462e-02,-3.07901e-01,9.06292e-03,-1.61186e-01,-1.49814e-01,-2.47394e-02,
-5.18604e-01,-3.50551e-01,-3.22959e-01,2.60411e-01,-6.77523e-01,-1.45997e-01,1.18814e-01,-2.16635e-01,1.92187e-01,-4.27357e-01,1.05861e+00,5.97401e-01,8.92033e-01,1.91589e-01,2.44362e-01,-5.71061e-01,3.14619e-01,5.44424e-01,1.01023e-01,-6.33583e-01,1.00022e-01,-4.24659e-02,2.83065e-01,-2.75630e-02,3.24782e-01,
-1.49133e-01,-7.34877e-01,-3.37683e-01,-6.49742e-01,-2.29366e-01,2.27518e-01,-2.34105e+00,2.62017e-01,1.82682e+00,-3.43630e-01,1.44924e+00,-3.07623e-01,6.48232e-02,5.10838e-01,2.60660e-01,2.78608e-01,-3.72090e-01,1.88981e-01,-4.06217e-01,-1.08999e+00,2.71181e-01,-1.00191e-01,7.35183e-01,3.60002e-02,-4.54964e-01,
2.70320e-01,-7.57131e-01,-3.69478e-01,1.03353e+00,2.84672e-01,-2.75404e-02,-2.13572e-01,7.54912e-01,-5.63914e-01,-2.26907e-01,-5.06287e-01,-4.48602e-01,1.04832e-01,2.28177e-01,3.88327e-01,8.60664e-01,-3.99286e-01,2.54769e-01,-6.85430e-01,1.25965e+00,-5.09006e-01,4.85619e-01,1.23196e-01,1.24794e-01,-5.54160e+00,
4.11545e-01,-8.26184e-01,1.06393e-01,9.72987e-01,8.31638e-01,9.00580e-02,-2.97275e-01,-4.36620e-01,-1.30514e-01,-8.87437e-01,2.21099e-01,-2.98579e-01,1.02243e+00,3.02934e-02,8.29533e-01,1.81755e-01,-3.52111e-02,5.02086e-02,-7.62805e-02,-2.28093e-02,1.77146e+00,-1.16685e+00,7.71831e-01,-2.42166e-01,-2.47900e+00,
4.88625e-01,-1.16309e-01,-3.63309e-02,5.50897e-01,9.76173e-02,-3.38680e-01,2.18889e-01,-3.99594e-01,-1.86486e-01,-3.89001e-01,-5.12721e-01,6.06138e-01,1.58716e-01,8.17851e-01,-8.83751e-02,-8.75865e-01,3.96081e-01,8.16547e-01,-4.17684e-01,7.46944e-01,6.11266e-01,-1.78765e+00,-5.74272e-01,2.37605e-01,-2.00816e+00,
2.33361e-01,-4.15229e-01,-3.54877e-02,2.21981e-01,-5.67514e-01,1.31985e-01,-7.42261e-01,-4.59778e-01,-2.47932e-01,-1.24301e+00,6.70853e-01,-5.97393e-01,-2.31080e-01,-8.27396e-01,6.88930e-02,-4.88608e-01,2.88622e-01,-3.41818e-01,4.81671e-01,-3.38460e-01,-3.77137e-01,1.84030e-01,7.78443e-01,4.55319e-01,1.06118e+00,
-3.30315e-01,-1.92713e-01,-3.98237e-01,1.40244e-02,2.55254e-01,1.79327e-01,1.52886e-01,-1.00880e-01,3.25260e-03,7.75975e-02,-2.03467e-01,-3.30849e-01,-2.94068e-01,-3.59428e-02,-1.35038e-01,5.38711e-02,2.02832e-01,1.04875e-01,-3.27001e-01,7.73083e-02,-4.27110e-02,1.63294e-01,-5.70574e-02,2.14392e-01,5.21536e-02,
-1.37364e-01,1.41787e+00,-1.37687e-01,-3.51708e-01,-6.75431e-01,6.99975e-02,5.85757e-01,-4.08952e-01,-3.49690e-01,7.24318e-02,3.91666e-01,1.04679e-01,3.89347e-01,-4.62318e-01,3.41404e-01,7.56082e-01,3.82595e-01,7.18202e-01,-7.29960e-01,-2.25574e-01,2.05019e-01,4.60362e-01,-2.46702e-01,8.81867e-02,2.03234e-01,
-4.45232e-01,-1.83039e-01,2.46166e-01,-1.06488e+00,-2.92044e-01,9.36140e-02,-1.08337e+00,3.44800e-02,1.54193e+00,-1.57729e-01,-8.09120e-01,1.62161e-01,8.61140e-01,-2.50560e-01,-7.86163e-02,-3.30524e-01,4.89519e-01,6.82571e-02,2.45942e-01,4.24837e-01,1.13224e-02,1.20273e-01,4.01092e-01,-4.54036e-01,-1.71601e-01,
-3.35453e-01,-2.09416e-01,8.65514e-01,3.03523e-01,-2.27714e-01,2.96679e-01,5.61336e-01,-1.01100e+00,-3.62182e-01,-6.96045e-02,3.40735e-02,-5.69249e-01,-5.50395e-01,2.36303e-01,-7.65733e-01,8.63211e-01,-7.84667e-01,6.74007e-01,-1.49947e-01,-7.40093e-01,6.48758e-01,7.22434e-01,-1.12177e+00,1.52319e+00,7.93801e-01,
6.78108e-01,-7.87502e-01,2.27201e-02,-3.92584e-01,-2.49080e-01,5.09060e-02,2.13235e-01,-3.51640e-01,5.44743e-02,1.49032e+00,-6.64454e-01,-7.64012e-02,2.02275e-01,-1.61680e-01,2.92036e-01,1.89819e+00,-1.11547e-01,-6.30288e-01,8.26658e-01,2.51581e-01,2.24592e-02,-4.89298e-02,-3.67590e-01,3.65399e-01,2.63065e-01,
-5.65926e-01,4.28232e-01,-9.75574e-01,1.09452e+00,9.74432e-01,-1.77110e-02,3.97738e-01,-3.72511e-01,-5.05930e-01,-4.25121e-01,9.29029e-01,2.18869e-02,2.52875e-01,1.29673e+00,-7.12557e-01,-4.21503e-01,2.83428e-01,6.83777e-01,9.20503e-01,2.51080e-01,1.58679e-01,5.85481e-01,-2.18573e+00,-2.35178e-01,5.59862e-01,
-3.75900e-01,-3.10663e-01,1.08771e-02,-3.70380e-01,1.16508e-01,-3.10622e-01,7.68168e-02,1.42297e-01,-1.75333e-01,-1.54349e+00,-4.05524e-02,-9.11837e-02,4.77551e-01,-6.12948e-02,4.30130e-02,-5.64023e-01,4.88175e-01,-3.20642e-01,5.07900e-01,1.36693e-01,1.61536e-01,1.37808e+00,4.38671e-01,-5.58456e-01,7.03378e-01,
-7.43372e-01,6.67417e-01,2.00326e-01,-1.35997e-01,-1.75712e-01,1.96760e-01,8.42164e-01,-9.24632e-01,-4.17957e-01,3.03893e-01,-1.85176e-01,-1.03687e+00,-3.12965e-02,1.10373e-01,-9.79718e-01,4.69399e-01,-8.72464e-01,3.53451e-01,-7.12117e-02,-9.37636e-04,8.86116e-01,4.73580e-01,-1.89558e-01,5.52734e-01,-9.54802e-01,
2.10493e-01,-1.22806e-01,8.86490e-02,2.22276e-01,8.24020e-01,2.84377e-01,-6.70226e-01,1.73101e-01,1.04983e+00,-5.59020e-01,4.09867e-01,-4.02043e-01,-7.19840e-01,-6.82992e-01,-1.00213e-01,1.13208e-01,-1.75408e-01,1.84346e-01,-1.24484e-01,-9.46721e-01,-3.35388e-01,9.61171e-02,4.31770e-01,-1.88881e-01,8.24712e-01,
2.25511e-01,
-2.52181e-01,
-2.56475e-01,
-6.07694e-01,
-8.98179e-02,
5.88479e-01,
-1.58221e-01,
-2.22827e-01,
-2.59563e-01,
-3.45512e-01,
3.65887e-01,
4.43672e-01,
-3.70208e-01,
-4.27004e-01,
2.33885e-01,
4.39294e-01,
-2.10436e-01,
-4.43221e-01,
2.30759e-01,
-1.24812e-01,
-1.91387e-04,
-3.79086e-01,
2.82709e-01,
4.32656e-01,
2.63047e-01,
-5.88615e-02,3.24948e-01,-2.84533e-01,-2.99278e-01,1.94609e-01,-2.69605e-01,-3.46129e-01,1.05743e-01,-1.72085e-01,-2.18598e-01,-2.19054e-01,-5.59210e-02,7.06983e-02,2.78818e-01,5.67498e-02,1.27624e-01,-3.37834e-01,2.04566e-01,-2.68054e-01,-3.34209e-01,-3.49789e-01,1.09176e-02,-2.29925e-01,-1.16836e-03,2.86198e-01,
4.53022e-02,-1.51810e-01,-7.99150e-01,6.53380e-01,4.79824e-01,2.29341e-01,7.43538e-02,1.06402e+00,-3.07534e-02,-2.24417e-01,1.74339e-01,-2.02558e-01,4.38363e-01,4.33894e-01,2.75198e-01,-3.30580e-01,1.54200e-01,-5.93571e-01,8.03882e-02,-5.78467e-01,7.67464e-01,-3.15480e-01,-2.80671e-01,1.27082e+00,6.95315e-01,
7.59521e-02,-9.19586e-02,-1.06444e+00,1.06774e-01,-5.63819e-02,-3.38745e-01,6.14659e-01,-3.72537e-02,9.75865e-02,3.07045e-01,4.83128e-01,3.14189e-01,-5.04112e-01,-1.27821e-01,2.36485e-01,5.61958e-01,3.17310e-01,-4.53782e-01,-4.75250e-02,-4.14566e-01,1.06315e+00,4.82899e-01,2.26759e-01,2.14532e-01,-3.74864e-01,
1.15434e-01,1.95773e-01,6.73800e-01,-3.33832e-01,-4.92400e-01,2.38272e-01,-4.63902e-01,-2.13561e-01,2.17525e-01,-3.24581e-01,4.25959e-01,-9.27233e-02,8.91175e-02,-7.06652e-01,-7.20620e-02,3.58301e-01,3.40848e-02,3.99145e-01,-4.47554e-01,-3.89294e-01,-1.67121e-01,4.77545e-01,2.43548e-01,3.41347e-01,-4.34985e-03,
-4.62929e-01,2.47499e-01,-9.56924e-01,-5.94342e-01,-7.98337e-02,-7.94441e-01,-8.53265e-01,1.32934e+00,-2.94689e-01,1.25987e-01,3.23515e-01,2.74917e-01,-1.23697e-01,7.04478e-01,6.78919e-01,3.65984e-01,1.28789e-01,3.69302e-01,-5.64288e-01,-1.27225e+00,-1.59959e-01,5.06894e-01,-1.64320e-01,9.13761e-01,9.17283e-01,
-3.72060e-01,2.16583e-01,-3.03293e-01,-3.99812e-01,5.50511e-01,9.32521e-02,-5.59743e-02,3.94975e-01,3.27760e-01,-1.26696e-01,6.60239e-01,1.77863e-02,-2.20691e-02,-1.66105e+00,-4.55641e-02,2.48814e-01,-1.02576e-03,2.24818e-01,6.14699e-01,-1.27145e+00,9.36267e-02,2.67368e-01,-7.32510e-01,8.30589e-02,-2.44956e-01,
-1.72224e-01,7.45542e-02,-3.32748e-01,-1.26984e+01,-1.15202e-01,-3.13305e-02,6.91585e-02,2.68509e-01,-2.72238e-01,-2.67763e-01,-4.62241e-01,-3.51534e-01,-5.82881e-02,1.50554e-01,4.06740e-02,-1.73705e-01,-3.36443e-01,-9.44910e-01,1.41254e-01,2.87018e-01,9.51006e-01,-9.24211e-02,-1.81614e-01,-7.11055e-02,3.34890e-01,
-1.64717e-02,1.32958e-02,-5.25723e-01,2.55790e-01,7.62789e-02,-6.36887e-02,-1.04832e-01,5.33709e-01,-5.83060e-02,2.74884e-01,-4.25045e-02,2.58884e-01,9.58271e-02,-8.32513e-02,3.04507e-01,8.41661e-02,2.70706e-01,-3.29216e-02,-1.44963e-01,-1.02643e+00,-6.21035e-02,3.80583e-01,-2.62937e-01,3.83566e-02,-1.41064e-01,
-6.70853e-02,2.28351e-02,-1.19116e+00,3.53095e-01,-3.48521e-01,8.17003e-01,-5.77821e-01,2.52990e-01,-2.71434e-01,-3.39714e-01,5.99731e-01,1.08485e-01,-2.20843e-01,-4.67945e-01,4.81705e-01,2.67271e-01,1.59697e-01,-5.23241e-01,-4.39411e-01,-6.92878e-01,-7.27983e-02,1.42945e-01,-5.72711e-01,-7.70942e-01,-3.03394e-01,
-1.10333e-01,3.02104e-01,-5.35176e-01,-7.65851e-01,-3.21115e-01,5.83023e-01,-6.63996e-01,4.82429e-01,2.48121e-02,2.40658e-01,6.08965e-01,3.69650e-02,4.50675e-01,-3.22479e-01,3.01018e-01,-8.03750e-02,3.22946e-01,-2.06571e-01,2.38688e-01,-1.21940e-01,3.00009e-01,-1.04691e+00,-4.28675e-01,-2.31345e-01,-5.38067e-02,
-3.21228e-01,2.49638e-01,4.35990e-02,-6.72228e-01,1.84357e-01,1.89385e-01,-1.38834e+00,3.26145e-01,2.69607e-01,2.17913e-01,4.06204e-01,9.10810e-01,-1.87229e-01,-1.91737e-01,-1.37547e-01,3.02376e-01,-9.23319e-02,5.25534e-01,-7.81981e-02,-7.11523e-01,-1.29893e-01,-9.64769e-02,-1.72484e-01,5.05214e-01,5.58913e-01,
-9.28804e-01,-2.53459e-01,-7.43744e-01,-3.12902e-01,-2.09047e-01,3.01692e-01,-1.47156e+00,5.92683e-01,-2.89049e-01,5.24577e-02,-4.74672e-01,5.37506e-01,-3.23741e-01,3.18119e-01,3.92857e-01,1.10368e+00,9.80962e-02,2.52982e-01,-2.71769e-01,-1.48030e+00,-1.27343e-01,8.95037e-02,-7.06518e-01,2.03259e-01,1.41778e-01,
1.00851e+00,3.25854e-01,-2.88545e-01,1.16561e+00,8.17176e-01,-2.32514e-01,-1.19650e+00,-2.41467e-02,9.15957e-02,1.94777e-01,1.14462e-01,-3.47160e-01,3.43713e-01,4.98381e-01,-2.08246e-01,-2.24422e-01,-1.23563e-01,-4.04108e-01,-1.18401e+00,5.38184e-01,-2.89812e-01,1.65310e-01,-4.76589e-01,-8.13066e-01,-6.69898e-02,
7.49854e-01,-3.99005e-02,-9.75722e-02,-2.53131e-01,5.86008e-01,1.73143e-01,3.22193e-01,6.02991e-01,-2.16687e-01,2.61384e-01,4.96128e-02,7.17747e-01,-5.62218e-01,-1.93413e-01,-3.09268e-02,9.44789e-02,1.93020e-01,-5.60683e-01,-2.11565e-01,2.64364e-01,5.64876e-01,-6.80450e-02,1.54453e-01,-3.37851e-01,-4.82408e-01,
-2.04707e-01,3.48236e-02,-4.68101e-01,-6.25624e+00,9.03027e-02,-5.31239e-02,-5.37068e-01,-7.25966e-02,1.89540e-01,-1.23582e-01,6.31083e-01,-8.03638e+00,-9.77429e-02,-1.77250e+00,4.57005e-01,6.19504e-02,-8.23547e-02,5.16108e-01,-5.84131e-01,-9.44392e-01,-2.33136e-01,3.57424e-01,1.81608e-01,4.86091e-01,6.23522e-01,
-7.37467e-01,-2.91737e-01,-8.49819e-02,-1.89246e+00,-4.60327e-02,-5.89198e-02,2.00779e-01,-6.73913e-01,-3.84912e-02,2.86815e-02,8.63408e-01,-2.33343e-02,2.10009e-02,-2.27234e-01,8.81086e-02,2.34914e-01,2.01592e-01,-1.08672e+00,1.36924e-01,-1.72924e-01,2.94104e-01,-2.07194e-01,5.01061e-01,-3.16640e-02,-5.28716e-01,
-4.35335e-01,-2.26943e-01,2.93984e-01,-2.82618e-01,1.48773e+00,-4.68844e-01,5.02667e-01,-8.49571e-01,-4.02072e-02,-1.84411e-01,3.21733e-01,4.35634e-02,-6.92950e-01,-8.27433e-01,1.35670e-01,-1.18191e-01,3.49435e-01,-1.42893e+00,-3.50005e-02,-3.81965e-01,1.09559e+00,-9.44741e-01,7.44424e-01,-3.29127e-01,-6.87495e-01,
-1.00578e+00,-1.32076e-01,-8.69008e-02,7.18095e-01,-9.81277e-02,1.73757e-01,-1.77325e+00,-4.52145e-01,1.47341e-01,-2.59570e-02,2.70095e-01,8.33867e-01,4.05843e-01,-2.05382e-01,5.29347e-01,1.66965e-01,-1.70767e-01,6.89049e-01,-3.96467e-01,-6.91134e-01,1.66314e-01,-8.27540e-03,6.62642e-02,-1.03411e-01,-1.02807e-01,
5.79297e-01,-2.11211e-01,1.26926e+00,8.44753e-01,-2.20179e-01,-3.75167e-01,-5.51790e-01,-5.19631e-01,1.76719e-01,-2.28944e-01,1.90727e-01,9.22256e-02,-3.13796e-01,-2.90811e-01,-8.65617e-02,1.74706e-01,-9.80659e-02,-1.82650e-01,5.77593e-01,1.19156e-01,-4.51089e-01,9.21591e-01,-2.92404e-02,-3.53135e-02,2.36591e-01,
4.28847e-01,-1.79924e-01,-2.42917e-01,1.23008e+00,3.80785e-01,2.22573e-01,7.50774e-03,4.16922e-01,-3.41514e-01,-8.55313e-02,-1.35413e-01,-2.11857e-01,5.09073e-01,1.70695e-01,-2.30687e-02,1.53866e-02,-1.38241e-01,-7.25708e-01,-2.83645e-01,2.97389e-01,4.16904e-01,-2.76438e-01,-3.24032e-01,-6.74428e-02,1.76995e-01,
-7.96664e-02,-2.51990e-01,-8.26525e-01,6.69402e-01,4.18981e-01,2.48915e-02,1.77713e-01,7.42494e-01,-6.63118e-02,-3.54654e-03,5.90841e-01,-6.44781e-01,1.50547e+00,4.49106e-01,-6.65625e-01,-9.03944e-02,2.45501e-01,-7.30897e-01,1.09547e-01,4.33752e-01,7.07021e-02,4.01374e-01,-6.83942e-01,-6.48366e-01,-1.78418e-01,
-8.51799e-01,2.86975e-01,-1.24909e-01,-3.74266e-01,5.05506e-01,4.48774e-01,9.08510e-01,-3.14055e-01,-9.15445e-02,1.03805e-01,-5.13770e-01,1.52365e-01,7.40013e-02,1.08823e-01,-3.64516e-01,3.31581e-01,-1.88320e-01,4.61042e-01,-1.11403e+00,-1.19344e+00,-1.42324e+00,-6.72768e-01,2.68383e-01,1.20874e+00,-4.56311e-01,
-1.13142e-01,1.79363e-02,1.19680e-01,1.53730e+00,-3.02978e-01,2.15897e-01,1.26640e-01,-1.16893e+00,1.05823e-01,-5.06166e-02,3.94006e-01,-2.99128e-01,5.83590e-02,-4.12435e-01,1.86780e-01,6.87118e-02,-9.93211e-02,1.76452e-01,-2.11479e-02,1.43901e-01,1.07839e-01,3.66147e-01,4.54413e-01,-2.79193e-01,-1.59748e-01,
-2.76937e-01,9.81923e-02,8.88210e-02,9.00960e-01,1.07899e-01,-1.11123e-01,-6.29734e-02,-3.76367e-01,-2.08928e-01,2.20523e-01,-6.53659e-02,4.62294e-01,-3.49277e-02,3.05778e-01,1.79966e-01,-1.94881e-01,6.77040e-02,1.88103e-02,-2.52223e-01,1.41110e-01,-1.35119e-02,9.96334e-02,-8.98567e-02,-2.98331e-01,-5.19420e-01,
-4.77688e-02,2.85752e-01,-3.18149e-01,4.34298e-01,7.05683e-01,4.28558e-01,-2.32272e-01,-3.95966e-01,-2.51635e-01,2.37276e-01,2.07692e-01,5.09285e-02,-4.82017e-01,3.53820e-01,7.87140e-01,-8.85464e-02,-1.73696e-01,-2.52245e-02,4.66172e-02,-2.16996e-01,-2.12476e-01,3.17859e-01,-1.16393e-01,-1.68916e-01,4.44046e-01,
-3.46844e-01,
-4.39263e-01,
-1.73533e-02,
-3.62032e-01,
-4.83298e-01,
-1.87810e-01,
1.07580e+00,
5.63596e-01,
3.54240e-01,
1.66866e-01,
-1.30396e+00,
4.55507e-01,
4.74788e-01,
-5.45320e-02,
-9.86482e-01,
4.38240e-01,
-8.12282e-01,
2.40444e-01,
-2.05833e-01,
4.55426e-01,
-1.53402e-01,
6.57144e-02,
-1.14117e-01,
7.14921e-01,
3.01566e-01,
-1.54410e-01,1.15512e-01,4.62419e-01,1.17097e+00,-4.04471e-01,-4.82564e-01,-3.78168e+00,2.37094e-02,2.30046e-01,-3.54791e-01,-3.73674e-01,1.14446e+00,7.72804e-01,-1.24010e+00,-8.17259e+00,6.08119e-01,-1.42825e+00,-6.26817e-01,-5.82446e-01,4.67817e-01,-6.12455e-01,-1.89216e-01,3.53056e-01,3.08304e-01,-1.09868e-01,
-2.26891e-01,6.30300e-01,-1.46809e-02,-2.53807e-01,-1.99260e+00,7.80788e-01,-2.74409e-03,3.20330e-01,4.53864e-01,-3.04020e-01,-7.53381e+00,-1.43446e+00,-9.38756e-01,4.23801e-01,-5.37252e-02,3.72795e-02,-4.19508e-01,2.44170e-01,-6.25929e-01,-1.30267e-01,-1.13625e+00,-2.60464e-01,1.86719e-01,-3.56891e-01,1.20932e-01,
1.59264e-01,-1.87225e-01,-6.05029e-01,9.65506e-01,1.83649e-01,2.78209e-01,5.77171e-01,-1.98370e-01,-2.53951e-01,3.91290e-01,-6.60588e-01,-7.20263e-01,-2.90804e-01,-1.14935e-02,1.22359e-01,6.39720e-02,-3.27171e-02,-6.69124e-01,-3.71545e-01,-4.35743e-01,2.58482e-02,-3.68695e-01,-1.75726e-01,2.00375e-01,3.46579e-01,
-2.59005e-01,-2.04360e-01,-1.85423e-02,-2.36244e-01,3.30347e-02,-2.52892e-01,4.99427e-02,-3.31912e-01,-9.07094e-02,-1.95092e-01,4.66909e-02,1.85222e-01,-2.69308e-01,-2.61100e-01,-2.72457e-01,-2.08682e-01,-6.94857e-02,-1.43207e-01,2.47139e-01,-2.38660e-01,1.27731e-01,-1.30790e-01,-1.34090e-01,1.47709e-01,-3.05229e-01,
-1.58100e-01,-1.21423e-01,1.19071e-01,2.80260e-02,-3.74454e-01,-2.50685e-01,-6.67043e-01,3.23321e-01,-4.09165e-01,2.02893e-01,3.65330e-01,4.16010e-01,2.05823e-03,-1.18347e-01,-1.41122e-01,6.82530e-02,-1.15044e-01,3.54457e-01,8.06225e-02,5.58917e-01,-4.56843e-02,2.05912e-01,-2.54079e-01,-1.22298e-01,2.15374e-01,
5.72550e-03,2.18288e-02,-2.83336e-02,2.35468e-01,-6.75287e-01,7.60247e-01,9.62485e-02,4.69395e-01,-1.52843e-02,2.60865e-01,-1.91863e-01,-2.06795e-01,4.95266e-02,-2.20104e-01,2.29237e-01,1.59502e-01,-5.47808e-01,-3.75716e-01,2.06987e-01,3.43331e-01,-6.53946e-02,2.88548e-01,-3.08113e-01,1.05275e+00,1.44561e-02,
1.98043e-01,2.12881e-02,3.97296e-01,-1.62946e-01,5.74297e-02,-2.68152e-01,2.19018e-01,2.90473e-01,2.81747e-01,-1.63301e-01,1.39081e-01,-5.91903e-01,-1.20536e-02,7.01713e-02,7.35516e-02,-1.40613e-01,3.88881e-01,5.37680e-01,-1.04490e-01,-2.46451e-01,-3.34952e-02,1.46942e-01,1.68025e-01,-3.84511e-01,-1.15166e-01,
3.35084e-01,-1.57969e-01,-1.06715e-01,-3.99626e-01,-2.21508e-01,4.11630e-01,4.61796e-02,9.82397e-02,7.22907e-01,1.49916e-01,-4.56326e-01,-4.34908e-01,1.70918e-01,8.24545e-02,3.71108e-02,7.32777e-02,-4.95121e-01,6.08976e-03,-5.51881e-02,-5.97325e-02,1.25561e-01,-4.21118e-02,2.11381e-01,-2.16449e-01,5.62502e-01,
-8.12455e-02,-1.21166e-01,-3.45513e-02,-1.62380e-01,2.43270e-01,-1.09992e-01,-6.59698e-02,-2.99281e-01,7.02539e-03,-2.05223e-01,-9.63794e-03,2.75347e-01,2.68016e-02,1.87892e-02,2.08136e-01,-2.35983e-01,3.14397e-01,-5.97760e-02,-1.30560e-01,-9.40150e-02,-1.25030e-01,-2.70021e-01,-2.50863e-01,-1.70980e-02,-3.45871e-01,
-2.68263e-01,8.33153e-02,9.94074e-02,5.69390e-01,1.48099e-01,1.84550e-01,-5.47229e-01,6.25942e-02,-9.21321e-02,1.58495e-01,6.48718e-02,-6.61722e-01,-8.81476e-02,-4.48048e-02,-3.49680e-01,-2.33238e-02,-2.06360e-01,-1.84715e-01,-1.64453e-02,6.17430e-02,-4.11257e-01,3.37292e-01,1.47304e-01,-1.31992e-02,8.50306e-02,
8.84172e-02,-1.07366e-01,9.93503e-02,-1.14064e-01,-8.82764e-02,2.05208e-02,6.35612e-02,5.34592e-01,-3.06635e-02,6.30448e-01,3.64098e-01,3.47812e-01,-8.17076e-02,-2.15704e-01,4.94759e-01,-1.46040e-01,5.77083e-02,5.99027e-01,1.70391e-01,-1.54141e-02,2.63997e-03,1.80722e-01,-1.78867e-01,1.62169e-01,1.44701e-02,
-2.59257e-01,-1.69077e-01,-5.56764e-01,-1.10642e-02,1.01022e-01,-1.90136e-01,3.06985e-01,4.55199e-01,-1.04610e-01,3.05716e-01,-8.85073e-02,-3.63682e-01,1.24102e-02,1.02789e-01,2.46231e-01,-2.04558e-01,1.57505e-01,1.86110e-01,-5.83337e-03,-2.61282e-01,9.97761e-02,1.72599e-01,9.06802e-02,4.88331e-01,-5.88899e-02,
-1.45664e-01,-2.85975e-02,4.48014e-01,-2.16910e-01,-8.37379e-02,1.86336e-02,4.95504e-02,4.00180e-01,5.88455e-01,-2.72256e-02,2.44863e-01,2.94105e-01,-1.44616e-02,-9.34328e-02,-2.50852e+00,-5.56501e-03,1.83317e-01,-6.20558e-03,7.18415e-02,7.73284e-02,-4.65508e-01,6.00536e-02,4.95281e-02,-7.52852e-02,-2.64946e-01,
8.10942e-02,9.31380e-02,-4.56466e-01,-3.43513e-01,5.62432e-01,2.04906e-01,8.44757e-01,-1.78454e-01,-1.29881e-01,-4.97949e-02,-2.57127e-01,-2.52472e-01,7.41940e-02,3.37577e-01,4.31599e-01,3.53979e-02,-9.43582e-03,1.02548e-01,-2.82328e-01,-9.10446e-01,-6.73165e-01,-1.85472e-01,2.26037e-01,1.22924e-01,5.31630e-02,
2.13802e-01,-2.62320e-01,-1.24223e-01,2.86596e-01,4.48293e-02,1.47846e-01,-2.68433e+00,-3.48120e-01,6.64635e-02,1.69895e-01,-4.25467e-03,-4.27796e-02,2.22868e-01,4.19387e-01,-5.05509e-01,-8.23648e+00,-5.46385e+00,8.11512e-02,-5.79438e-02,-4.92134e-01,9.71015e-01,-1.16196e-01,8.51708e-02,6.69686e-01,-2.75621e-02,
-7.54831e-02,9.91792e-01,-1.48052e-01,6.18272e-01,-8.59642e-01,6.11988e-01,1.78503e-02,2.06462e-01,6.23401e-01,2.26699e-01,-6.99855e-01,-2.64688e-01,-5.02784e-01,-1.59102e-01,-1.00617e-01,-3.05392e-03,-1.97775e-01,4.71820e-01,3.56082e-01,-5.05920e-01,-9.61794e-01,-4.44782e-01,-3.19611e-01,-1.96283e-01,2.45655e-01,
-2.54775e-01,1.30842e-01,-2.66026e-01,4.64644e-02,-4.02785e-01,1.19061e+00,1.45328e-01,1.22379e-02,6.90191e-02,-4.62472e-01,1.88035e+00,2.78044e-01,-2.08302e-01,-1.23944e-01,-4.14203e-01,-4.35323e-01,-4.92823e-01,-3.71301e-02,-5.89705e-01,5.13860e-01,5.03417e-01,7.31582e-01,-5.32535e-01,8.26973e-02,-8.42318e-03,
4.92953e-02,9.94350e-02,1.71534e-01,-5.42302e-01,-8.24114e-02,-3.14852e-01,-8.02024e-01,-8.60205e-02,6.42987e-01,1.76698e-01,-2.55720e+00,-8.17337e-02,1.15353e-01,-1.66239e-01,-1.71902e+00,1.35066e-01,3.06279e-01,-8.17689e-02,1.24081e-01,7.21025e-02,-1.77531e-01,3.29925e-03,1.82183e-01,-5.94239e-01,-1.76035e-02,
9.45477e-02,-2.87457e-02,8.96604e-01,2.80602e-02,-1.75672e-01,-1.33965e-01,1.60797e-01,2.57182e-01,8.92167e-02,1.70152e-01,7.64806e-01,4.28690e-01,2.37319e-01,-1.16786e+00,-5.72054e-01,-4.36506e-01,4.00662e-01,5.56081e-01,-1.83476e-01,-1.11707e-01,-4.75678e-01,1.41252e-02,-1.40070e-02,-4.55445e-01,3.59878e-01,
-5.04275e-02,-3.57242e-02,-4.65859e-01,6.02351e-02,4.09435e-02,9.81914e-02,-4.88642e-01,3.04294e-01,-1.75237e-01,5.37950e-01,1.79307e-01,-1.44205e-01,-3.40214e-02,-1.34916e-01,-5.14601e-02,3.16419e-01,-1.35287e-01,-6.09455e-02,2.18125e-01,1.97653e-01,2.36057e-01,1.14816e-01,1.05337e-01,1.95587e-01,2.57258e-01,
1.60023e-01,-4.51919e-02,7.53171e-01,-5.63697e-01,-3.26357e-01,7.25180e-02,3.20062e-01,-2.14133e-01,-5.13313e-01,2.58094e-02,5.46781e-01,9.37540e-01,2.06515e-01,-9.00765e-01,-4.12918e-01,-1.18548e+01,-1.10032e+00,-1.69870e-01,3.43786e-02,-3.09640e-01,-2.69235e+00,1.18162e-02,9.95407e-02,7.08704e-01,-3.08720e-01,
-8.15117e-02,2.20127e-01,-3.86216e-01,-9.64831e-01,-9.40791e-01,1.06364e-01,5.68333e-01,2.38530e-01,5.36498e-01,-1.42892e-01,1.97297e+00,5.23352e-01,-7.02763e-03,5.23996e-02,4.69202e-01,3.40699e-01,-1.86364e-01,-3.24487e-01,3.98778e-01,-3.18129e-01,-2.81085e-02,2.63751e-01,5.33234e-01,-1.30754e-01,5.18930e-02,
-3.03209e-01,1.30734e-02,1.21831e-01,7.77355e-01,-4.97405e-01,1.72193e-01,1.88147e-01,5.42648e-03,-4.34832e-01,-3.10382e-01,-5.31800e-01,8.67598e-02,-3.14418e-03,2.10170e-01,-4.80528e-02,9.85264e-02,-1.12486e+00,1.19954e-01,-3.25246e-01,2.62368e-02,5.15677e-01,-6.96380e-01,-5.84666e-01,1.82052e-01,1.16976e+00,
1.89494e-01,3.52498e-01,-3.70515e-01,5.75747e-01,-2.27638e-01,3.87550e-01,-5.54629e-03,3.80557e-01,6.32921e-01,1.89028e-01,-2.39238e-01,5.51534e-01,-3.43618e-01,-3.78536e-01,3.82027e-01,1.40046e-01,-9.33963e-02,3.49580e-01,1.20968e-01,-9.87779e-03,1.69681e-01,1.39254e-01,-4.37916e-01,-3.46733e-02,6.06941e-02,
-2.63495e-01,-1.26717e-01,5.51694e-02,5.03983e-01,1.34386e-02,-3.84892e-02,-2.35812e-01,8.75941e-02,6.90323e-01,9.76206e-02,-1.59635e-01,-5.43483e-01,-1.39362e-02,5.98805e-02,-2.96013e-01,7.00016e-02,5.24913e-03,-3.17466e-01,-5.75025e-01,-1.19381e-01,2.49976e-01,-1.22751e-01,1.14500e-02,3.87073e-02,1.96374e-01,
-1.14689e+00,
-3.71640e-01,
-1.81636e-01,
-2.79146e-01,
1.42123e-01,
-4.85506e-01,
9.90739e-02,
1.86884e-02,
-2.75524e-01,
2.17662e-02,
1.98431e-01,
9.95371e-02,
-4.28082e-02,
-3.86196e-03,
-1.82217e-01,
-7.16114e-01,
-7.56120e-02,
3.27826e-01,
-3.28283e-01,
7.50480e-02,
4.21425e-01,
-5.02994e-01,
-1.11971e+00,
-1.14228e-01,
2.25845e-01,
-6.69150e+00,1.25333e-01,-2.12968e-01,4.87327e-02,2.00075e-02,-1.85876e-01,-8.90028e-01,9.26475e-02,2.79872e-01,6.22271e-01,4.94120e-01,6.68473e-01,-3.49654e-01,-3.23868e-01,-1.21662e+00,-1.71977e-01,2.16546e-01,4.45907e-01,-8.51718e-02,-1.27469e+00,-2.02588e-01,-1.01729e+00,-8.26798e+00,-5.74940e-03,2.53828e-01,
1.13126e+00,1.51822e-03,-9.88832e-02,-8.24246e-02,-2.06742e-01,1.96343e-01,-3.79390e-02,4.21238e-02,2.53903e-01,-9.61026e-02,-2.52737e-01,1.34949e-01,-6.29149e-02,-1.05483e-01,1.61330e-01,-7.92193e-02,-1.78705e-02,-1.57667e-01,1.11049e-01,2.22223e-01,5.76914e-03,6.56225e-02,-1.58380e-02,-3.86254e-01,1.34662e-01,
-1.10495e+00,-1.81416e-01,-1.62083e-01,1.39428e-01,-1.25258e-01,-3.91347e-01,3.59801e-01,1.48707e-01,1.33323e-01,1.60957e-01,-5.07354e-01,3.34707e-01,3.22063e-01,-2.86548e-02,2.27670e-01,-7.37002e+00,-8.16062e+00,-5.32432e-01,3.46186e-01,5.02959e-01,-1.94814e-01,-5.16908e-01,2.74985e+00,-1.59694e-01,-1.97258e-01,
3.54150e-02,-4.34408e-01,2.73665e-01,6.47390e-02,1.41722e-02,-7.60385e-02,8.83888e-02,9.81342e-02,-2.77582e-01,-1.16181e-01,9.85064e-03,-7.65971e-02,-1.03949e-01,-1.27429e-01,1.35064e+00,-8.18626e-02,-2.86260e-02,1.44336e-01,7.77627e-02,-5.11336e-02,1.16698e-01,-4.08400e-02,4.03586e-02,1.22106e-01,-2.29768e-01,
-1.97073e-02,-1.67311e-01,2.83472e-02,-3.93005e-02,-9.45049e-02,-2.13561e-01,-1.95676e-01,8.21941e-03,-2.11735e-01,1.09209e-01,-2.54731e-01,-1.67202e-01,-6.51298e-02,2.45570e-01,1.45800e-01,-1.11915e-01,-7.37867e-03,3.87538e-02,2.68143e-01,-1.27693e-01,-2.00658e-01,-1.53118e-01,-6.90682e-02,8.18485e-02,-4.26764e-02,
3.22210e-03,1.59903e-01,-9.17053e-01,1.49043e-01,2.49555e-01,-4.03581e-02,3.69102e-01,-2.16768e-01,2.29813e-01,-6.77801e-02,-6.14474e-01,-1.82033e-01,-9.56173e-02,2.80004e-02,-3.38703e+00,-4.51650e-01,3.38140e-02,-2.23809e-01,7.17912e-01,3.45830e-01,-3.89096e+00,3.40047e-02,-3.68647e-02,-7.42128e-01,-1.57467e-01,
6.42030e-01,1.89741e-01,-4.10288e-02,2.55677e-01,-8.47730e-02,4.84593e-02,-3.61614e-01,7.05968e-02,-6.51202e-02,-5.97792e-02,1.52539e-01,-2.98429e-02,1.03491e-01,7.38373e-02,2.12019e-02,-6.22681e-01,-3.03883e-01,1.93604e-02,4.07950e-02,1.55268e-01,1.74362e-02,2.85261e-01,1.33091e+00,-1.26400e-01,2.59042e-01,
-6.00858e-01,-4.44667e-01,-1.30358e-01,2.43187e-02,-6.43096e-03,-1.77611e-01,2.27820e-01,-2.00087e-01,-3.16648e-01,1.48168e-01,3.40463e-02,-2.30228e-01,-1.96896e-01,8.10145e-02,1.19347e-01,3.43701e-01,-5.21457e-02,-6.78260e-03,1.81230e-01,1.93670e-02,1.07899e-01,8.61291e-03,2.84490e-01,4.17763e-01,-1.77704e-01,
4.45876e-01,-2.09954e-01,-2.16751e-01,2.94224e-01,7.01814e-01,4.00963e-01,2.23711e-01,1.86023e-01,-1.67691e-01,-2.27417e-01,-4.45400e-01,4.04805e-01,3.79326e-02,1.06483e-01,3.63415e-02,-5.93195e-01,-7.90736e-01,-3.69059e-01,-1.87799e-01,-1.27233e-02,-2.65486e-01,1.68453e-01,3.64524e-01,-2.74156e-02,2.35565e-01,
2.86876e-02,2.89586e-01,1.82470e-01,4.97633e-03,-4.37872e-01,-9.73168e-03,-4.17818e-01,-3.89889e-01,1.68656e-01,-5.91005e-01,-1.77355e-01,-4.39369e-01,3.56838e-02,1.83459e-01,-3.33312e-01,3.52622e-02,-1.45143e-01,-1.11495e-01,1.91595e-01,-6.13519e-01,-2.92462e-01,-2.60689e-01,-2.61803e-01,-2.12406e-02,-4.70567e-01,
-3.06230e+00,-1.07072e+00,3.69380e-01,-3.47815e-02,2.87433e-01,-8.47985e-01,-5.78707e-02,-1.15276e-02,-3.41709e-01,-2.16109e-02,1.25804e-01,-9.28498e-02,2.78511e-01,1.90697e-01,-7.79431e-03,1.05996e-01,3.82650e-01,-9.80454e-02,-1.26010e-01,-2.52449e-01,-7.39919e-01,1.73892e-01,1.59915e+00,-7.60843e-02,-3.74073e-01,
-3.15375e-01,-2.00050e-01,1.01876e-01,2.35811e-01,6.11690e-03,-9.42288e-02,1.29461e-02,-3.05373e-01,-1.14441e-02,5.60804e-02,3.91052e-02,-1.86888e-01,-2.03677e-01,-5.08108e-02,-2.93927e-01,-2.60835e-01,4.89794e-02,1.81972e-01,-3.47005e-02,-3.28305e-01,2.91448e-01,1.64019e-01,-1.86877e-02,-6.69249e-02,-2.74122e-01,
7.38828e-01,-5.48019e-01,3.22925e-01,-1.15724e-01,-6.34692e-02,-2.68140e-01,4.84183e-02,2.11341e-01,1.14263e-01,-2.03786e-01,1.11911e-01,4.74446e-02,-5.54863e-02,2.36989e-02,-4.72602e-01,2.01301e-01,1.56841e-01,-1.80015e-01,-3.23441e-01,2.91041e-02,6.02465e-01,-2.55824e-02,-2.77892e-01,-7.15435e-02,1.58791e-01,
3.48137e-01,-2.36029e-01,2.19700e-01,1.49345e-01,1.23798e-01,1.84787e-02,1.37665e-01,4.36937e-01,-1.65115e-01,-1.97825e-01,4.28038e-02,9.33801e-02,-3.72997e-02,-4.95766e-02,1.19944e+00,3.50365e-02,2.34549e-02,-1.57137e-01,-4.53646e-01,1.06883e-01,2.40188e-01,-2.35513e-02,1.18100e+00,3.75462e-01,-3.46156e-02,
2.88513e-01,1.39973e-01,-2.09887e-01,-2.35604e-01,-3.43510e-01,-1.76681e-01,1.91782e-02,-2.56015e-01,-2.95847e-01,-6.76416e-02,-2.69154e-01,-7.34458e-02,-2.68528e-01,-2.02674e-01,-3.22543e-01,-2.93124e-01,1.84775e-01,-7.93629e-02,-2.48425e-01,-2.66948e-02,4.42643e-02,3.33558e-01,-1.13666e-01,8.92742e-02,-6.77561e-02,
-2.66343e-02,5.05694e-02,1.57362e-02,2.29591e-01,-2.07197e-01,-2.76213e-01,-5.35601e-02,-2.44793e-01,8.03218e-02,2.01201e-01,-2.40741e-01,-8.12649e-02,-2.04886e-01,-2.46686e-01,-1.16567e-01,-6.79002e-02,-1.87462e-01,-1.39884e-01,2.12626e-01,-1.36371e-01,1.98531e-01,3.14734e-01,1.85005e-01,1.64020e-01,2.35449e-01,
7.11872e-01,3.41446e-01,-2.36972e-01,-1.42764e-01,-1.44166e-01,4.06578e-01,1.99602e-01,1.22312e-01,7.41393e-02,2.29017e-01,-3.02305e-01,1.82626e-01,-1.27667e-01,-9.39596e-02,1.65373e+00,3.07123e-01,-1.75120e-01,-1.00120e-01,4.06442e-01,3.34751e-01,3.03544e-01,-1.53374e-01,3.38090e-02,2.13104e-01,-9.45827e-02,
-1.14087e-01,-4.44878e-01,1.92378e-01,-2.21524e-01,1.70508e-01,-1.47192e-02,1.05920e-01,7.56705e-03,-3.45363e-01,1.58715e-01,7.22197e-02,-1.00397e-02,1.48973e-01,1.46769e-01,1.21898e+00,2.20429e-01,-3.07663e-02,-3.84671e-02,-9.23423e-02,-3.71383e-03,4.54917e-01,-5.49844e-02,5.74584e-02,3.73102e-01,-1.78143e-01,
1.12071e-01,-3.82315e-02,2.63236e-01,1.28246e-01,5.67839e-01,-2.65756e-02,-3.53126e-01,9.27968e-01,-1.29781e-01,3.46174e-01,2.05939e-01,-5.52283e-01,-2.91401e-01,-2.63917e-01,-2.43021e-01,4.81949e-02,-9.02451e-02,-1.64864e-01,2.19751e-01,-6.93900e-01,-1.59456e-01,3.70999e-03,-1.45551e+00,-3.62995e-01,-2.28534e-01,
1.72680e-01,3.27689e-01,-2.77029e-01,1.77543e-02,4.29310e-01,6.09300e-01,-1.98770e-02,2.58159e-01,3.59609e-02,-7.01868e-02,-1.55765e-01,1.97172e-01,1.47682e-01,1.56731e-01,-8.62788e-02,-8.35723e-02,6.31689e-02,-1.48169e-01,-3.71860e-01,-1.16083e-01,-2.14427e-01,2.31781e-01,3.00310e-01,1.41709e-01,2.41695e-01,
-1.30812e+00,-7.39960e-01,-1.05181e-01,2.82672e-01,7.05232e-02,-5.68138e-02,-6.81820e-02,-2.11062e-01,-3.69681e-02,-7.97567e-02,2.41754e-01,-7.55890e-02,-3.48712e-01,-1.96290e-01,7.82536e-01,7.54021e-01,1.37496e-01,1.45307e-01,3.86632e-01,-9.97618e-02,-2.62109e-01,5.53728e-02,7.94009e-01,-8.11073e-02,4.68912e-02,
-1.05360e-03,5.75157e-02,-2.12578e-01,4.79877e-03,-4.08319e-01,-3.67434e-01,1.17317e-01,-3.24072e-01,1.51779e-02,-1.93021e-02,-1.72535e-02,-2.35475e-01,1.97576e-01,-5.74711e-02,1.08668e-01,-8.32010e-02,-3.10629e-01,1.73115e-01,-6.32207e-02,-3.18563e-01,6.29293e-02,-3.41960e-01,-2.12214e-01,1.13143e-01,2.21260e-01,
8.75869e-01,-1.76854e-01,-1.64131e-01,1.21868e-01,1.17294e-01,1.64919e-01,-5.13124e-02,9.52525e-02,2.57054e-01,3.00317e-02,-1.41187e-01,1.36525e-01,7.07233e-02,6.10448e-02,1.10023e-01,3.81370e-01,1.42290e-01,2.10011e-01,-1.46422e-01,2.67352e-01,1.74885e-01,-2.94626e-01,2.99830e-01,2.37209e-02,7.04889e-02,
6.35607e-02,4.57882e-01,1.33660e-01,-2.11584e-01,6.12873e-01,1.47364e-02,1.65364e-01,-5.07083e-01,1.53038e-01,-2.53060e-01,-6.85946e-01,2.99698e-01,4.17200e-01,4.78959e-01,-6.25332e+00,-1.93746e+01,-9.82149e-01,-6.81675e-01,1.00051e+00,-1.31465e-01,7.53797e-03,4.22247e-01,1.01322e+00,-5.59055e-01,6.31784e-01,
-2.67795e-01,-1.76265e-01,2.25030e-01,-2.78608e-01,-2.88147e-01,-1.86609e-01,-3.17526e-01,-2.74000e-01,-1.34067e-01,-1.72710e-02,-3.24792e-01,1.17848e-01,-2.78777e-01,-2.44498e-01,-1.73461e-01,-3.35890e-01,2.91053e-01,-3.72213e-02,-9.06566e-02,-1.73332e-01,1.91552e-01,-2.78659e-02,2.45051e-01,5.26206e-03,9.33092e-02,
-7.93815e-02,
6.31446e-03,
-4.00046e-02,
-2.27833e-02,
-1.50788e-01,
-5.28444e-03,
-1.50813e-02,
-1.19028e-02,
2.45872e-03,
4.31090e-02,
9.24006e-02,
-1.95363e-01,
9.91871e-02,
-1.63412e-02,
-1.12097e-01,
-3.67669e-01,
4.96615e-02,
-2.63324e-02,
-1.11233e-01,
-2.94469e-02,
1.32686e-01,
-1.99437e-01,
-3.48826e-03,
-1.42698e-01,
-1.39758e-01,
1.11662e-02,1.40644e-02,-7.41656e-02,1.70463e-02,-9.85904e-02,-5.84221e-02,-5.61430e-02,-1.21210e-02,1.48459e-01,-3.90601e-01,1.24096e-02,1.12067e-01,-3.00389e-02,-7.74028e-02,2.04871e-01,2.37333e-01,6.23135e-02,3.06825e-02,-4.41835e-02,-1.89746e-01,-8.29285e-02,-5.71728e-01,-7.74004e-03,-1.22453e-02,3.74096e-01,
-6.76164e-02,2.14358e-01,2.99984e-02,-2.76177e-02,1.72771e-01,-3.51811e-02,-8.81499e-02,3.21677e-02,7.34098e-02,6.91947e-01,-3.07471e-02,1.11613e-01,5.36627e-02,3.90480e-02,-2.89608e-01,1.09547e-01,2.34552e-02,-4.41670e-02,-6.37584e-02,-1.29012e-01,-1.30773e-03,1.85202e+00,-2.11695e-01,-5.34700e-03,-3.98838e-01,
-3.71059e-01,1.68495e-01,-5.50079e-02,1.89702e-01,4.22853e-01,-3.10489e-04,-9.02889e-02,1.20598e-01,1.00408e-01,2.09437e-01,9.18495e-03,-4.09608e-01,-1.12698e-01,1.75212e-02,5.61932e-03,-2.70662e-01,-1.07886e-01,-1.11658e-01,6.62602e-03,-1.25994e-01,-9.22473e-02,-2.77960e-01,1.29111e-02,-4.37750e-02,1.29736e-01,
-1.49768e-02,2.19567e-01,1.98185e-02,6.30227e-02,4.03043e-01,-1.15806e-01,-7.62515e-02,7.35534e-03,5.70546e-02,4.49457e-01,-5.68944e-02,-3.39669e-01,-3.80886e-02,-1.52252e-02,2.87280e-01,-3.01018e-01,-5.47450e-02,1.76692e-02,-6.22382e-02,-9.59875e-02,-1.80243e-02,9.00679e-01,-1.19328e-01,1.60776e-02,1.24290e-01,
-2.09741e-01,1.26033e-01,-7.50182e-03,1.59594e-01,6.54930e-01,1.17287e-02,-4.55669e-02,1.16314e-01,9.43983e-02,4.10960e-01,-5.29454e-04,3.26203e-01,-3.90117e-02,-6.06546e-02,-3.32990e-02,8.66921e-02,-8.17493e-02,-5.98522e-02,-5.02310e-02,-8.15827e-02,-7.18195e-02,7.80449e-01,-1.78743e-02,-3.77056e-02,-1.42220e-02,
-1.77489e-02,3.54260e-01,3.07597e-02,-1.89144e-02,6.14828e-01,-1.53916e-01,-9.85122e-02,-7.18460e-02,1.89901e-02,3.96166e-01,-1.27116e-01,6.62629e-02,-1.42157e-01,1.70715e-02,3.94655e-01,-1.32016e-02,-1.60045e-01,1.30750e-01,-5.97739e-02,-6.14525e-02,2.99259e-02,-5.14747e-03,-1.16224e-01,9.53588e-04,2.23448e-01,
-2.08759e-01,1.21950e-01,-4.90261e-03,1.65197e-01,4.60212e-01,1.39329e-02,-4.11958e-02,1.15450e-01,9.53942e-02,5.14919e-01,-6.74750e-04,-2.81404e-01,-3.67027e-02,-6.47757e-02,-2.89039e-01,-2.08259e-01,-8.14560e-02,-6.01500e-02,-5.08638e-02,-8.02426e-02,-7.11792e-02,7.32396e-01,-1.86708e-02,-3.93967e-02,-2.45657e-01,
-3.53823e-03,2.13144e-01,1.77453e-02,6.09760e-02,3.78486e-01,-1.26506e-01,-7.92421e-02,8.88010e-04,5.60870e-02,7.72209e-01,-6.06216e-02,-3.12491e-01,-5.60707e-02,-1.92228e-02,-2.63974e-01,-3.21513e-01,-6.55197e-02,2.93870e-02,-5.60394e-02,-9.76737e-02,-1.76534e-02,5.29708e-01,-1.02644e-01,2.32882e-02,4.13516e-01,
-1.10119e-02,3.56346e-02,3.71724e-02,3.46933e-01,4.35353e-01,4.56319e-02,5.51022e-03,1.81032e-01,1.00051e-01,1.17464e+00,2.30807e-03,-3.66428e-01,7.13134e-02,-1.69324e-01,-2.91128e-01,2.75146e-01,-8.18738e-02,-8.53990e-02,-1.04494e-01,2.77117e-02,-6.72691e-02,1.78151e+00,-2.78871e-02,-6.29419e-02,-2.84480e-01,
2.11140e-01,
1.96371e-01,
2.30696e-01,
-2.30905e-01,
-2.31149e-01,
2.32454e-01,
-2.32103e-01,
-2.29740e-01,
1.97706e-01,
