// Neural Network File Format by Kyle Julian, Stanford 2016
6,4,9,25,
4,25,25,25,25,25,9,
0,
-8000.000000,-100.000000,-100.000000,0.000000
8000.000000,100.000000,100.000000,40.000000
0.000000,0.000000,0.000000,20.000000,-4.647677
16000.000000,200.000000,200.000000,40.000000,22.514692
-2.83035e+00,-9.96756e-02,1.46420e-01,-7.84658e-01,
-1.64766e+00,3.44173e-01,-4.67592e-01,1.61794e-01,
3.65164e+00,-5.43191e-02,1.06778e-03,-1.02903e-02,
-3.39309e-01,-4.61364e-01,-1.07072e-01,7.15380e-02,
4.01872e+00,3.57833e-02,-1.12601e-01,-9.82365e-01,
4.13495e+00,-3.54331e-01,1.08909e-01,-4.25930e-01,
-1.23219e+00,7.50407e-01,-2.49834e-01,-3.77744e-01,
2.54578e+00,-5.82078e-01,5.57389e-01,4.59307e-01,
5.29678e+00,2.41518e-03,-4.43577e-04,1.12608e-03,
-4.72611e-01,-1.31619e+00,-7.41232e-02,-1.68497e-01,
1.62559e-02,-8.88949e-02,1.79623e-01,-2.65978e-01,
-1.41257e+00,4.39509e-01,-4.50872e-01,-1.51041e-01,
3.91239e+00,-2.91991e-01,1.27574e-01,-6.94389e-01,
-1.02181e-01,-2.01056e-02,7.22896e-01,8.06069e-02,
1.54791e+00,4.65615e-01,2.25632e-01,-5.62833e-03,
4.14642e-01,7.12512e-02,-7.20879e-02,4.90769e-01,
3.12124e+00,-1.80437e-01,-4.15460e-01,2.47166e-01,
-8.38502e-01,9.95619e-01,3.67819e-03,6.37131e-02,
3.77504e+00,5.03569e-02,-1.24598e-01,-5.82655e-01,
1.04073e-01,-2.09000e+00,2.95097e-02,-2.92633e-02,
1.80295e+00,-1.16048e-01,2.74427e-01,-4.89125e-01,
-3.50905e+00,-9.30421e-02,8.72204e-02,-9.55918e-01,
8.43089e-01,-7.64118e-01,-2.06947e-01,2.32554e-01,
1.69562e+00,-4.87540e-01,7.97827e-01,1.51553e-01,
-1.43936e+00,-1.26288e-02,-4.22967e-01,-5.33819e-01,
-1.11500e-01,
9.06870e-02,
2.46948e-01,
2.41419e-01,
-3.84107e-01,
9.56894e-02,
-1.35604e-01,
2.95927e-01,
2.30056e-01,
3.95394e-01,
-2.95158e-01,
8.58420e-02,
-1.22381e-01,
3.11944e-01,
1.35298e-01,
2.28022e-01,
-1.39734e-01,
-1.31701e-01,
-1.22328e-01,
-2.60621e-01,
5.56593e-02,
-3.54443e-01,
2.44448e-02,
2.51068e-01,
1.49962e-01,
6.00446e-01,-3.28866e-01,4.35022e-01,-1.60190e-01,6.42105e-01,-1.62742e-01,2.96296e-01,4.66941e-01,1.95008e-01,9.01936e-01,3.36407e-01,-2.05635e-01,-2.85012e-01,-1.72095e-01,-1.63570e-01,-5.59721e-01,1.16023e-01,4.26210e-01,5.07214e-01,-6.83960e-01,2.39143e-01,-2.18531e-01,5.28731e-01,-1.66977e-01,1.76155e-01,
1.34495e-01,1.37538e-02,-1.06610e+00,1.19501e-01,-4.89836e-02,6.27004e-02,7.49189e-02,-2.59069e-02,-1.33371e+00,-2.91173e-02,5.28231e-02,-4.94349e-03,1.29559e-02,6.48699e-02,-3.42249e-02,7.43058e-02,-6.20862e-02,-1.92172e-02,-1.55409e-01,-1.23558e-02,6.33121e-02,-8.80541e-02,5.10503e-02,-2.40396e-02,1.14827e-01,
8.09909e-01,-2.73992e-01,1.42954e-01,-7.39720e-01,-2.44000e-01,-8.60701e-01,6.85724e-01,-4.63187e-01,8.80863e-02,4.85740e-01,1.18983e-01,3.14503e-01,-9.64403e-01,-6.18580e-01,-8.12450e-01,1.01423e+00,9.97166e-01,1.08243e-01,-5.89147e-02,-1.51347e-01,-5.82779e-01,3.37812e-02,-2.47353e-01,-9.29436e-01,5.09162e-01,
-1.08484e+00,-1.46625e+00,4.27003e-02,1.61520e-01,2.11659e-01,8.76577e-01,4.90589e-01,1.19113e+00,-3.32026e-01,-2.06938e-01,-1.53405e-01,-6.38092e-01,7.16982e-01,4.63539e-01,4.64422e-01,-5.10210e-01,-1.98797e-01,-4.44402e-01,7.47346e-01,7.39456e-01,7.14159e-02,-2.80569e-01,-4.47687e-01,-2.14973e-02,5.29761e-02,
8.21653e-02,-2.37290e-01,4.71451e-01,4.94580e-01,5.27987e+00,-1.81867e-01,-1.66936e-01,-1.18983e-01,-3.97258e+01,1.01383e+00,2.54868e-01,6.91685e-01,-2.37943e-01,3.93103e-01,-1.31446e-01,3.32078e-01,9.41832e-01,-1.43259e+00,4.03897e-01,-4.42256e-01,1.43749e-02,1.46107e-02,-2.23402e-01,-1.81030e-02,-4.39374e-01,
-5.34602e-01,3.99577e-01,-5.29855e-01,2.12167e-01,7.48413e-01,-1.50552e+00,6.75670e-02,2.76172e-01,-3.76786e-01,-1.56796e-01,-1.56620e-01,1.73964e-01,-5.12949e-01,-9.21215e-01,1.30894e+00,-3.07275e-01,1.79014e+00,9.69325e-02,6.75321e-01,-6.45350e+00,1.18148e+00,6.19125e-02,-7.72623e-01,4.28704e-01,-3.10090e-02,
2.28924e-01,-1.18281e-01,-1.64902e+00,-8.91019e-01,-2.51486e+00,8.79110e-01,1.24071e-01,-6.80117e-01,-1.50622e+00,-8.75433e-02,1.79215e-01,3.46264e-01,-2.35228e-01,1.90464e-01,8.85664e-01,7.31480e-01,-4.16712e-01,-6.29369e-01,-1.15735e+00,-1.51023e-01,6.18821e-01,1.08345e+00,8.65137e-01,-4.09250e-01,3.69151e-01,
-1.63117e-02,3.05833e-01,7.00910e-04,6.55600e-01,7.86461e-02,-9.85118e-02,1.79299e-01,2.40709e-01,1.04012e-01,-2.59602e-01,-1.70804e-02,-8.44716e-01,1.41397e-01,1.72509e-01,8.33326e-01,-7.05412e-01,-4.83931e-01,1.95238e-01,2.10581e-01,4.19565e-02,-3.17082e-01,-9.50164e-02,-1.75751e-02,4.43437e-01,-2.40983e-01,
-3.75417e-01,1.80391e-01,-4.71604e-01,-7.34060e-01,-1.05563e-01,1.17384e-01,-3.08502e-01,-1.00225e+00,-7.50324e-01,-1.91038e-02,2.60121e-01,-2.83063e-01,3.86012e-01,-4.19279e-01,1.17558e+00,5.58520e-01,5.81154e-01,-3.05197e-01,1.07089e-01,5.06050e-01,-8.06340e-02,-2.84092e-01,7.71727e-01,4.92052e-01,-3.28820e-01,
1.15622e-01,3.91371e-01,-2.29265e-02,-1.22318e+00,8.14853e-02,1.66824e-02,3.70811e-01,-3.43296e-01,4.58334e-02,-9.61199e-01,-1.04486e-01,5.36381e-01,1.89659e-02,6.86379e-02,-2.02245e-01,4.14181e-01,3.56613e-01,-6.63730e-01,-1.62086e-01,2.57714e+00,7.21903e-02,-2.62342e-01,-2.03574e-01,1.49099e-01,-2.21058e-02,
-7.02211e-01,-2.20922e+00,-2.46758e-01,3.14134e-01,6.64902e-01,7.89234e-01,-8.06654e+00,5.35795e-01,-8.43140e-01,1.72990e-01,-3.07784e-01,-3.70124e-01,5.60889e-01,-6.23669e-02,-5.59143e-01,1.02981e+00,1.16846e-01,-1.06946e+00,-2.01884e-01,3.54990e-01,3.27739e-01,1.43917e+00,-3.08629e-01,3.15256e-01,-3.24792e-01,
-5.35312e-01,-4.94144e-01,-4.17194e-02,1.73275e-01,1.19167e+00,4.29282e-01,-4.35747e-01,8.26609e-01,2.68975e-01,-2.04489e-01,2.80232e-01,3.54422e-01,3.90934e-01,5.76493e-01,1.29077e-01,-1.08774e+00,1.60635e-01,-1.94854e-01,7.59891e-01,5.20074e-01,8.79470e-01,-1.27723e+00,-2.08510e-01,2.97972e-01,-1.38140e-02,
-2.79843e-01,2.68823e-01,8.72175e-01,2.32857e-01,-2.42918e-01,-6.79641e-01,1.73354e-01,7.22081e-01,-7.54999e-01,1.51830e-01,-2.91973e-01,2.01533e-01,2.53197e-01,-3.70234e-01,3.50052e-01,2.06822e-01,6.98322e-01,-3.04355e-01,-2.37158e-01,-1.05863e-01,-5.12524e-01,-3.52076e-01,-9.93629e-02,2.42210e-01,-6.14838e-01,
1.55059e+00,7.70319e-02,9.65532e-02,3.79924e-02,6.10852e-01,1.64656e-01,-8.42335e-02,4.68795e-01,-3.56727e-02,-3.01600e-01,-1.87809e-02,4.32035e-01,2.56085e-01,-8.76462e-01,4.17874e-01,2.34416e-01,-1.92129e-01,-2.90850e-01,-2.92449e-01,4.19246e-02,6.31359e-01,-5.85542e-01,2.12687e-01,3.82308e-01,-6.15877e-01,
-7.36399e-01,-7.03136e-01,-2.04701e-01,1.09921e-01,1.07260e+00,9.68878e-01,-7.71963e-01,2.64941e-01,4.77912e-01,-4.47500e-01,-3.14172e-01,-8.12442e-01,6.76183e-01,8.87922e-01,2.91791e-01,-1.45396e-01,-7.52797e-01,-1.13253e-01,8.86746e-01,7.71830e-01,5.61732e-01,-8.79713e-01,-4.92730e-01,9.09616e-01,-5.83704e-01,
-1.82394e-01,-4.02084e-02,-4.36020e-01,-2.16362e-01,-4.79397e-01,3.73194e-02,-7.71420e-02,2.12886e-01,9.50329e-01,3.98495e-02,1.90934e-01,-3.45089e-01,4.07046e-01,2.44896e-02,3.97408e-01,-4.18898e-01,3.02030e-01,-2.72280e-01,7.88939e-01,2.96111e-01,-1.36316e-01,5.11336e-01,-5.32863e-01,3.12235e-01,1.34538e-01,
-2.70127e-01,-6.74982e-01,9.62237e-02,3.34535e-01,-3.00780e-01,-4.22075e-01,-5.95567e-01,5.34479e-01,1.56696e-01,3.22692e-01,2.60050e-01,5.16371e-02,-1.09573e+00,-3.35645e-01,3.60614e-01,4.09392e-01,-1.28531e+00,-4.73963e-01,2.62362e-01,-2.40475e-01,5.10945e-02,3.44341e-01,1.31727e-01,-1.36853e+00,5.34880e-01,
-1.29062e-01,1.59099e-01,1.92689e-01,-2.93497e-01,-1.36899e-01,1.66320e-01,1.14120e+00,-3.77822e-01,-3.18532e-01,4.01087e-02,7.52973e-02,7.10376e-01,-5.98178e-02,6.30350e-02,-4.67300e-01,4.30844e-01,3.17520e-01,-5.53659e-01,-6.86343e-02,2.61206e+00,1.56986e-01,-3.68557e-01,-2.18137e-01,1.61961e-01,-2.47393e-01,
7.89576e-01,2.23781e-01,-1.28845e+00,-3.74479e-01,-1.75193e+00,-1.32299e-01,-1.35331e-01,-4.82148e-01,-3.51341e-01,3.82965e-01,-2.36459e-01,1.02842e+00,-6.83879e-01,5.72212e-01,-3.16611e-01,3.34683e-01,1.39810e-01,-8.98766e-02,-1.43218e+00,-1.25741e-01,3.49757e-01,1.78788e+00,3.31902e-01,-4.31659e-01,3.40400e-01,
-2.18116e-01,1.20949e+00,-9.40845e-01,-8.04783e-01,1.03807e+00,3.15881e-01,-5.11227e-01,4.89266e-01,-8.30004e-01,1.48958e-01,1.54767e-01,9.95870e-01,1.27066e+00,3.85596e-02,2.78788e-01,-2.14542e-01,2.03544e-01,-5.77973e-01,-1.55104e+00,-5.36904e-01,6.00663e-01,2.58013e-01,1.40359e+00,7.92273e-01,-3.20556e-01,
2.61095e-02,-7.50874e-01,-1.73168e+00,-5.04161e-01,1.81087e+00,5.69553e-01,-1.77932e-01,-7.22842e-01,-2.23168e-02,-4.53903e-02,4.60297e-02,3.30902e-01,6.73187e-01,2.62267e-01,-7.69079e-02,-1.19050e-01,2.87815e-01,-2.37276e-02,4.93600e-01,-1.34776e-01,5.12930e-01,1.18955e+00,7.52627e-01,-2.37044e-01,2.10916e-01,
-7.87105e-02,-1.83793e-01,4.47695e-01,-2.40175e-01,3.24706e-01,-6.73163e-01,-3.06005e-01,-8.10395e-01,2.00545e-01,-5.80829e-01,1.13264e-01,-5.52165e-01,6.49646e-02,-1.11849e+00,3.26014e-01,6.16322e-01,2.77586e-01,1.09773e+00,2.86807e-01,1.10764e-02,-5.31944e-01,8.73560e-01,1.07942e-01,-5.47725e-01,1.58949e-01,
6.69409e-01,-8.18733e-01,3.82921e-01,-3.58030e-01,1.85089e-01,-1.87624e-01,3.24257e-01,-4.91149e-01,-5.52893e-01,-3.49516e-01,1.01562e-02,4.47901e-01,3.00952e-01,2.53945e-01,-2.75212e-01,2.54491e-01,7.71954e-01,-3.95617e-01,-5.66689e-01,9.25703e-02,7.01455e-01,6.52203e-01,2.18850e-01,2.16220e-01,4.84028e-01,
3.32831e-02,5.03709e-01,-5.31015e-01,2.00018e-02,-8.23423e-01,1.20843e+00,8.76239e-02,2.16854e-01,-5.17906e-01,-1.04011e-01,-8.44728e-02,-6.84948e-02,5.49676e-01,-2.05405e-01,-3.14805e-01,-2.44236e-01,8.79221e-01,8.52746e-01,-1.92570e-01,9.52337e-01,2.78955e-01,1.90813e-01,-5.48744e-01,9.75798e-01,2.55986e-01,
1.24815e-01,-5.15871e-02,-2.76447e-02,-3.09993e-01,1.21852e-01,7.27121e-02,2.84894e-01,-4.21567e-01,4.09351e-02,-1.74849e+00,-2.04827e-01,2.05826e-01,-2.48326e-01,4.41702e-01,9.78294e-01,2.46007e-01,-6.92891e-02,-9.69486e-01,3.04219e-01,-3.55166e+01,6.06509e-02,3.70063e-02,-6.93538e-01,-2.91076e-01,-1.30262e-01,
-1.75323e-01,
9.77558e-01,
4.66749e-01,
-4.03259e-01,
-4.32885e-01,
-8.19701e-02,
1.25731e-01,
2.58759e-01,
6.54802e-01,
6.11853e-01,
-6.03751e-01,
-1.03284e-01,
4.70506e-01,
-6.59698e-02,
-2.61003e-01,
1.57827e-01,
1.33974e-01,
-1.89046e-01,
6.48651e-02,
-1.47742e-01,
-1.09917e-01,
6.24713e-01,
3.87174e-01,
-4.64863e-02,
5.61662e-01,
8.01720e-02,-5.93597e-01,5.50711e-01,-3.53156e-01,-9.44672e-01,-1.12990e+00,-4.53628e-01,2.37439e-02,7.12689e-01,3.97488e-01,2.49440e-01,-3.86449e-01,3.89136e-02,1.31642e+00,-1.33872e-01,1.94930e-01,-3.73255e-01,-6.94323e-01,4.25048e-01,-1.63050e-01,6.07797e-01,-9.31542e-02,-4.47643e-01,8.45204e-01,-2.57956e-01,
2.48825e-01,7.48443e-04,9.69627e-01,-8.85914e-01,-8.98394e-02,-6.68815e-01,-1.37571e+00,1.10851e+00,3.58016e-01,1.94738e-01,7.83252e-01,5.45728e-01,1.19894e-01,2.11831e-01,-4.69500e-01,1.36580e-01,3.78715e-01,-5.31453e-01,-1.20239e+00,-2.97394e-01,2.42880e-01,-3.09426e-01,-2.36615e-01,5.43610e-01,-3.45376e-01,
-1.27411e-01,4.49724e-01,-4.09331e-01,-5.90500e-01,9.29162e-02,5.62912e-01,-2.12544e-01,-4.67755e-01,-3.07437e-01,-4.96018e-01,-4.42119e-01,7.14093e-01,-6.73495e-02,-1.83800e-02,-2.60989e+00,-8.59258e-01,-3.74923e-01,2.24676e-01,-1.42066e-01,-4.07092e-01,3.32730e-01,1.39114e+00,2.99411e-01,4.50744e-01,5.42588e-01,
-8.28098e-01,1.24382e-01,-6.80547e-02,-5.37179e+00,-1.10924e-01,-3.03673e-01,5.20329e-02,1.32308e+00,1.06045e-01,3.85918e-01,1.08123e-01,-9.19311e-02,-1.10156e+00,9.85649e-01,-1.20593e+00,-1.43502e+00,-1.61814e-01,-5.05520e-01,-4.17780e-01,-6.65811e-01,2.73008e-01,7.02919e-01,-3.40206e-01,8.90765e-01,8.65641e-01,
-1.37935e-01,-2.01065e-03,8.63924e-01,2.37422e-01,4.93572e-01,1.44506e-01,6.65407e-01,-8.12714e-01,3.22627e-02,-3.59921e-02,6.11841e-02,1.67564e-01,2.34425e-01,6.30755e-02,2.07095e-01,8.14101e-02,-3.49664e-03,-1.93242e-01,9.89519e-02,-1.26113e-01,-4.61888e-02,7.68707e-01,-5.52175e-01,1.43341e-01,9.12822e-02,
2.71909e-01,3.25162e-01,-6.74734e-01,-2.77130e-01,8.40686e-03,1.24839e-01,-5.86772e-01,2.12388e-01,-1.74452e-01,-4.21448e-01,-3.57390e-01,1.63093e-01,-8.52946e-01,-8.86343e-02,-8.46552e-01,4.49061e-01,1.17042e-01,2.99170e-01,-9.93948e-01,1.96667e-01,-4.57041e-01,1.50809e-01,1.02856e+00,4.39935e-01,2.79473e-01,
-3.37272e-01,1.26555e-01,-9.34530e-01,-3.77146e-01,9.37339e-01,-8.49311e-01,1.31648e-01,3.70011e-01,-3.23835e-02,-7.65445e-02,-2.46311e-01,9.82710e-01,-2.86503e-01,1.16169e-01,-9.56061e-01,1.97462e-01,2.92963e-01,-4.64442e+00,-1.94908e-01,4.04720e-02,-3.24029e-01,2.20680e-01,1.60832e-01,2.50441e-01,-8.77803e-02,
1.51627e-01,1.75246e-01,-3.14631e-01,4.33025e-01,-2.64914e+00,-1.96696e-01,-7.69955e-01,-1.69486e-01,8.62006e-01,4.26532e-01,-1.01256e+00,-3.75326e-02,1.20841e-01,3.27654e-01,-6.18598e-01,-6.36959e-02,7.06590e-01,-7.26943e-01,1.58753e-01,-2.35578e-01,-2.99794e-01,-8.63921e-02,7.22766e-01,1.57891e-01,-1.01916e+00,
-4.37731e-02,-3.46868e+01,1.62895e-01,-4.61513e-01,2.38451e+00,6.40253e-01,2.11025e+00,8.69009e-01,-3.55419e-01,6.24696e-01,-3.17238e-01,2.33747e-01,-1.26025e-01,-5.82858e-02,-1.83858e-02,3.26879e-01,1.12261e-01,8.03647e-02,-3.14468e+00,-2.29511e-01,-1.18513e-01,-4.36431e-01,4.54909e-01,-4.30777e-01,-3.22380e-01,
3.15307e-01,1.87966e-01,3.30552e-01,-1.14390e-01,-8.54163e-01,2.10493e-01,1.51918e-01,-3.77954e-01,3.72081e-01,7.00909e-01,-5.23401e-02,-5.73282e-01,-3.01133e-01,-2.24729e-01,1.93327e-01,3.01535e-01,5.37321e-01,-3.35076e-01,-2.44743e-01,4.76061e-01,-2.60855e-01,6.24472e-02,3.89971e-01,-1.15090e-01,-1.82829e-01,
-2.81075e-01,-4.46840e-02,2.40367e-01,1.25630e-01,-8.81868e-02,2.57283e-01,1.54666e-01,-6.30567e-02,1.81888e-01,-3.78819e-01,-8.33584e-02,1.17600e-01,9.09460e-04,-2.29932e-01,6.78672e-02,3.11639e-02,-1.91634e-01,8.44729e-02,-2.99412e-01,-3.33745e-01,-2.96578e-01,-2.48909e-01,1.30704e-01,-3.59186e-01,-2.09279e-01,
2.38601e-01,5.32623e-02,2.80631e-01,-4.02402e-01,1.73673e-01,-2.10990e+00,-3.56992e-01,-2.29626e-01,2.60806e-01,9.90249e-02,7.76653e-01,-4.34912e-01,1.12922e-01,-6.19620e-02,3.27376e-01,6.67541e-01,-5.67959e-01,-4.72400e-01,-3.14816e-01,1.01857e-01,3.47358e-02,-8.29976e-01,1.27427e-01,7.01521e-01,1.94793e-01,
-5.84728e-03,3.65521e-01,-5.42906e-02,-9.62233e-01,3.03878e-01,7.99025e-01,3.30314e-01,-2.79411e-01,4.16547e-01,-3.10741e-01,9.68848e-01,4.04415e-01,-1.03029e+00,1.69403e-01,-1.02544e+00,3.70486e-01,9.50732e-02,-2.44268e-01,-4.81772e-01,2.83310e-01,-3.96349e-01,-4.37617e-01,1.34096e-02,7.20198e-01,5.61617e-02,
1.96006e-01,-4.63827e-01,9.49204e-01,8.97036e-01,-1.88013e-01,7.42915e-01,1.84978e-01,-2.22027e-01,4.17574e-01,-3.21106e-01,-3.35021e-01,-2.42563e-03,1.68662e-01,4.83046e-01,-1.68113e-01,-1.20010e+00,2.43994e-02,-2.11849e-01,-7.21918e-02,-2.85494e-01,3.51513e-01,3.86559e-01,2.50460e-02,4.63968e-01,3.10160e-02,
-1.01982e+00,-1.65635e+01,3.93065e-01,2.82297e-02,-2.49290e-01,-5.03864e-01,-3.33741e-01,4.20878e-01,3.83841e-01,7.17590e-01,-5.61274e-02,-4.03431e-03,-3.61273e-01,6.25063e-01,-3.06790e-01,6.83580e-01,5.75660e-01,-2.33784e-01,-6.10313e+00,-2.35279e+00,4.40627e-01,4.26186e-01,-1.06604e-01,3.14692e-02,-8.34629e-01,
1.11082e-01,-9.63128e-02,2.64886e-02,-3.14763e-01,-2.38278e-01,-1.80419e-01,1.14793e-01,-1.95974e-01,1.39023e-01,-4.78875e-01,2.62234e-01,-2.93894e-01,1.10295e-01,4.64177e-02,4.62906e-02,-4.44798e-01,4.99724e-02,-2.23925e-01,-3.67140e-01,1.16729e-01,-1.82293e-01,-3.27476e-01,-4.53281e-01,-1.10815e-01,3.43888e-01,
5.72038e-01,5.60828e-02,-1.36155e-01,-1.59611e-01,8.34291e-01,3.04440e-01,-6.59264e-02,5.12118e-02,-3.90479e-01,7.74122e-02,-8.54459e-02,2.40454e-01,-4.02581e-01,3.43795e-01,-6.17782e-02,5.69581e-01,-9.93706e-02,6.45125e-02,-3.27457e-01,-1.50266e-01,-2.24424e-01,1.17511e-01,2.31592e-01,9.85890e-02,-3.37828e-01,
-9.56703e-02,-3.31099e-02,-3.88874e-01,1.33169e-01,1.09770e+00,-2.03155e-01,6.43040e-01,-1.32134e-01,-1.20145e-01,7.72587e-01,-2.82092e-01,2.37967e-01,2.48491e-01,-4.29055e-01,5.26139e-01,-5.19302e-01,2.31907e-01,-3.80031e-01,-3.54794e-01,2.86868e-02,9.17602e-02,5.40610e-01,1.43411e-01,1.23778e-01,-4.50868e-01,
-2.50444e-01,4.05060e-02,2.74757e-01,9.11988e-01,-4.67553e-01,-1.58395e-01,8.49061e-01,2.93918e-01,6.09938e-01,4.38321e-02,-8.23872e-01,1.96348e-01,-7.05136e-02,-5.91884e-01,-4.31281e-02,-1.20805e+00,-7.55185e-01,2.75644e-01,6.10188e-01,4.65715e-02,4.83759e-01,-7.60087e-01,-6.11432e-01,-1.00841e-01,1.60972e-01,
2.61711e-02,-1.72677e-01,4.11350e-01,-2.61609e-01,2.97549e+00,4.23061e-01,7.51591e-01,6.00641e-03,6.61884e-02,-2.16810e-01,-1.84887e-01,8.10799e-01,3.35857e-01,-3.53739e-01,-1.50387e-01,-3.79067e-01,1.01025e-02,-1.02742e-01,2.18299e-01,4.69771e-03,8.10509e-02,8.41626e-02,-5.32170e-01,4.26161e-01,2.75914e-01,
8.05604e-02,5.04595e-02,-9.48683e-02,7.43186e-02,-5.86982e-02,-1.24839e+00,-4.57957e-02,-8.23248e-02,3.32518e-01,1.46375e-01,1.56614e-01,2.21889e-01,-9.80866e-02,2.28182e-01,-3.48344e-01,6.80722e-02,-3.10835e-02,1.73735e-01,2.37124e-01,-2.03170e-01,-1.73911e-01,-4.57966e-01,-1.41681e-01,6.15116e-02,1.87205e+00,
6.04309e-01,1.00084e+00,-1.00661e+00,-3.51110e-01,-1.43679e-01,2.59027e-01,-7.58318e-01,5.20268e-03,3.09708e-02,5.43082e-01,-1.03922e+00,-1.10752e+00,-6.41586e-01,3.05656e-01,-1.02478e+00,1.57679e-01,9.00093e-01,-4.16311e-01,-4.54209e-01,-1.22613e+00,-2.80278e-01,-8.71876e-02,4.65358e-01,5.71546e-01,-6.94306e-02,
-1.85649e-01,-4.73538e-02,-2.14864e-01,-7.60937e-01,9.63513e-01,4.02342e-01,5.47141e-01,1.64106e-01,2.32983e-02,2.40662e-01,9.38826e-02,8.36722e-01,-4.07649e-01,4.34876e-02,-5.43148e-01,1.63979e-01,2.83447e-01,-2.98966e-01,-7.51240e-01,3.69966e-01,-2.23906e-01,4.34160e-01,3.86210e-01,3.96767e-01,-2.32963e-01,
-1.64460e-01,-2.45428e-01,-2.61116e-01,-7.67016e-02,1.31276e+00,6.54980e-01,1.32647e-01,3.91554e-01,1.67898e-01,9.81789e-01,-1.44521e-01,-8.88546e-02,-5.60635e-02,-1.51443e-01,3.82306e-01,-1.04813e-01,-5.00835e-01,-3.78492e-01,-1.30113e-01,-7.46808e-02,1.23126e-01,2.31193e-01,3.90645e-01,2.55195e-01,-2.99616e-01,
-4.43411e-01,-2.34622e-01,-1.19845e-01,1.60218e+00,2.49682e-01,8.76505e-01,3.46604e-01,-3.52983e-01,5.61642e-01,1.28446e+00,-1.07710e+00,5.05747e-01,-1.29126e-01,8.68358e-02,-1.54941e+00,1.71797e-01,-2.65648e-01,-7.31347e-01,6.84906e-01,-1.56738e-01,-5.02595e-03,-4.52428e-01,-4.02113e-01,-7.89830e-02,-6.29223e-01,
2.21842e-01,
-3.88440e-01,
1.74551e-01,
-6.97433e-01,
2.27206e-01,
2.15488e-01,
1.45304e-01,
4.26069e-01,
-1.12876e-01,
5.36968e-01,
-1.36257e-01,
-5.08824e-02,
5.96041e-01,
2.34520e-01,
-2.60921e-01,
-2.15727e-01,
4.97279e-01,
2.69478e-02,
-6.42589e-01,
-1.27352e-01,
1.42321e-01,
-4.13426e-02,
4.34430e-01,
-3.04973e-02,
3.25155e-02,
1.30363e-01,-8.19639e-02,-6.94713e-01,-1.15281e+00,-2.41172e-01,5.25995e-01,1.98336e-01,1.37042e-01,3.60724e-01,2.88606e-01,3.49092e-01,5.30331e-02,-6.49387e-01,1.43944e-01,2.35407e-01,-1.90703e-01,1.97578e-01,3.91478e-02,-3.64015e-01,-5.36829e-01,-1.66836e-01,-6.61344e-03,1.82416e-01,2.42852e-01,8.93553e-01,
3.82049e-01,4.88796e-01,-9.80685e-02,-2.44483e+00,-1.33048e-01,-2.82123e-01,3.56700e-02,5.55878e-01,-8.53872e-01,3.97661e-01,-2.49644e-01,3.56975e-02,5.59238e-02,-3.41749e-01,-1.57775e+00,7.43452e-02,3.01139e-01,1.60509e-01,1.20753e-01,-2.32423e-01,-5.97500e-01,3.08206e-01,-1.00112e-01,-5.61403e-01,2.84742e-01,
-1.17543e-01,-7.28471e-02,-2.01646e-01,-2.07438e-01,-2.18120e-01,-2.24210e-01,2.87786e-01,-5.98151e-02,-3.30311e-01,1.05059e-01,-2.22481e-01,-3.03837e-01,-2.06530e-01,4.78624e-02,3.34632e-01,-6.90590e-02,-2.97205e-01,-1.96219e-01,-3.25907e-01,-7.04981e-02,2.62158e-02,2.68199e-01,-2.43727e-01,-1.20747e-02,-2.34639e-01,
1.06741e-01,-2.03426e-01,-3.36650e-02,-2.42376e-01,-1.19167e-01,3.90400e-01,-4.68740e-01,5.60921e-01,1.47618e-01,4.63770e-02,-1.05894e-02,2.25710e-02,5.04738e-01,-3.32122e-01,2.49861e-01,2.46865e-01,3.33854e-02,-1.85380e-01,7.15921e-02,2.82974e-01,8.46942e-02,2.89524e-01,3.69271e-01,-2.09674e-01,-1.16611e-01,
5.31477e-01,-5.18738e-01,8.48725e-01,-1.00792e-02,-2.18170e-03,8.07159e-01,1.09611e-01,4.51222e-02,3.22609e-01,9.85954e-01,2.62180e-02,-1.94310e-01,-4.99035e-02,-6.21158e-01,6.21430e-01,2.05896e-01,-5.42164e-01,-7.07937e-01,-4.70987e-01,3.65627e-01,-2.00850e-01,2.99249e-01,-2.81714e-01,-3.16198e-01,4.95348e-01,
7.17068e-02,1.34992e-01,-4.42488e-02,-4.52635e-01,3.16110e-01,3.20599e-01,-3.78213e-02,-6.51149e-02,-1.67197e-01,4.14852e-01,-3.24492e-01,-1.58838e-01,-5.06266e-01,-2.65498e-01,-8.61580e-01,3.07928e-01,-1.49581e-01,1.51383e-01,9.83512e-02,1.44614e-02,-2.33619e-01,2.42555e-01,2.62856e-01,-2.26415e-01,-1.08686e-01,
5.77626e-03,-9.78785e-02,-2.56195e-01,1.57048e-01,-3.36544e-01,1.73364e-01,5.60864e-01,-2.02315e-01,-2.23110e-02,3.02941e-01,1.95708e-01,3.20323e-01,1.24084e-01,5.85705e-02,8.61089e-03,-6.56386e-02,1.28932e-03,-1.00249e-01,9.84601e-02,2.93403e-01,-4.68391e-02,1.46729e-02,1.18864e-01,7.94283e-02,-8.82607e-02,
8.03093e-02,7.04355e-02,4.41657e-02,-5.89457e-01,-2.02914e-01,2.46849e-02,5.87871e-01,-3.97339e-02,-3.05866e-01,1.09279e-01,-8.74339e-02,-4.12909e-02,2.90289e-01,4.02492e-03,3.74642e-01,-8.88769e-02,1.93345e-01,1.05810e-01,7.54083e-01,9.23177e-02,8.19437e-02,-1.90250e-01,-6.02347e-01,-4.59404e-01,-6.47652e-01,
-5.16386e-01,-1.66441e+01,9.74371e-02,-1.02478e-01,-1.40029e+00,4.28024e-01,1.55860e-02,5.53853e-01,-2.74287e+00,-1.41218e+00,4.46007e-03,2.15395e-02,3.67078e-01,1.99208e+00,-2.43060e-01,2.94571e-01,-1.34398e-01,6.92256e-01,-7.65050e-03,1.48444e-01,-2.43926e-03,-1.09270e-01,-1.11314e+00,-1.27062e-01,4.15285e-01,
6.98961e-01,-8.00965e-01,1.50701e-01,8.09006e-02,7.17437e-01,2.47129e-01,-3.41413e-02,-5.87660e-02,4.09920e-01,7.38808e-01,-3.53735e-01,1.16074e-01,9.84080e-01,-9.92394e-01,-4.56407e-01,-6.56728e-02,-4.69466e-01,-1.61138e-01,1.67108e-01,2.16560e-01,-3.04679e-01,1.89115e-01,-3.29267e-01,4.45031e-01,-3.08687e-01,
2.02928e-01,-1.62532e-01,-5.97502e-02,-3.06232e-01,-3.16572e-01,8.56784e-02,-4.87338e-01,3.09182e-01,6.73367e-01,-2.34805e-01,3.01295e-01,1.51729e-01,1.17909e-01,2.50870e-01,7.53730e-01,-3.29825e-02,5.90656e-02,6.74846e-01,3.28738e-02,1.21048e-01,1.46355e-01,3.68465e-02,4.83194e-01,-5.29053e-01,4.69835e-02,
2.15147e-01,8.04462e-02,5.04710e-01,-7.51896e-01,2.56113e-01,-2.44323e-01,6.14535e-01,-3.86891e-01,6.06782e-01,1.40696e-01,-4.67287e-02,-1.15769e-01,2.98175e-01,-2.06687e-01,8.98329e-01,1.06941e-01,-2.38907e-01,1.38210e-01,-1.49914e-01,-3.88222e-02,-9.30493e-02,4.23003e-01,-2.64527e-01,1.16661e-01,-5.25586e-01,
-3.96993e-02,-1.04669e-01,-2.42927e-02,-1.10293e-01,-8.51538e-01,-4.03800e-01,-1.06816e-01,-1.86599e-01,-2.22805e-01,2.92893e-01,3.23568e-02,7.10835e-02,-2.03702e-01,6.16267e-01,-3.66711e-01,2.15696e-01,-4.98511e-01,4.74109e-01,1.00016e+00,-2.18766e-01,-2.33132e-02,4.32001e-01,5.51598e-01,-3.51982e-01,-7.44207e-01,
2.35161e-01,5.68228e-01,-4.82619e-01,-1.12652e+00,3.22333e-01,1.57591e+00,-3.21879e-02,-2.53972e-01,2.39113e-01,-3.34529e-01,-1.46456e-01,4.89803e-02,-2.35504e-01,-2.39025e-03,-3.91602e-01,-8.08704e-02,-2.71173e-01,4.76915e-01,-4.44498e-01,-9.18885e-01,-2.36733e-01,1.06401e-01,-4.16927e-02,6.09909e-01,1.04416e+00,
1.08244e-01,5.18784e-03,-2.30973e-01,-6.21528e+00,-5.05866e-01,5.04802e-01,2.99951e-01,-7.22441e-01,4.95500e-01,-2.50383e-01,-9.23254e-02,-1.80504e-01,5.40453e-01,4.79122e-02,1.39041e+00,-3.16235e-01,-9.41172e-02,4.09413e-01,-3.84208e-01,-8.80757e-03,-3.58238e-01,1.67722e-01,-5.74843e-01,4.42800e-01,8.29322e-01,
6.04250e-02,-3.69840e-01,-4.52943e-02,-6.99830e-02,-7.68004e-02,7.37324e-01,2.89884e-01,-1.19703e-01,-3.80244e-01,2.04963e-01,-1.80797e-01,-1.83513e-01,-5.22221e-02,-4.28213e-02,-6.27125e-01,1.53771e-01,1.58842e-01,1.12058e-01,-2.46436e-01,-2.74633e-01,-1.63016e-01,9.86326e-02,-8.16864e-02,1.92262e-01,1.24447e-01,
-1.44989e-01,-9.96271e-02,-1.30414e+00,-1.37435e+00,-8.71847e-01,9.07099e-01,-4.52053e-02,1.72745e-01,4.16066e-01,-3.41326e-01,2.34703e-01,5.43485e-01,-5.85827e-01,6.59956e-01,6.58955e-01,5.84846e-02,5.73964e-01,3.04470e-01,5.13493e-01,4.40504e-02,6.38315e-02,-8.94663e-01,-2.29807e-01,-4.00771e-01,9.50690e-02,
1.13110e-01,-2.42651e-01,2.54018e-01,1.24012e-01,-8.06123e-03,8.26597e-02,-1.60750e-01,2.30571e-01,1.01687e-02,-2.75342e-01,-1.88822e-01,-3.37923e-01,-1.26265e-01,1.20645e-01,2.41670e-01,4.00204e-02,-6.57748e-02,-2.03156e-01,-3.07611e-01,-2.10689e-01,-1.39094e-01,-7.15036e-02,-3.17567e-01,2.75364e-01,-2.89909e-01,
-3.94057e-01,-6.94557e-01,-3.36862e-01,-2.39073e-01,8.59617e-02,3.91033e-01,-1.58694e-01,-4.78082e-01,1.19243e-01,-8.13669e-03,-1.53818e-01,-4.06998e-02,4.87565e-01,1.50757e-01,4.62746e-01,3.42664e-01,5.11407e-02,5.86623e-01,2.92858e-01,-4.50895e-01,5.14338e-02,8.10276e-02,1.42743e-01,-3.26706e-01,-3.66419e-01,
-2.98910e-01,4.21769e-01,-2.05698e-01,-1.10446e+01,-4.20529e-02,2.55550e-01,3.88078e-01,4.04918e-02,-4.59532e-01,4.93133e-01,-1.79850e-01,-4.57735e-01,3.51756e-01,-3.85277e-01,1.77333e+00,-3.41597e-01,-4.80896e-01,-1.63019e-01,5.50598e-01,-2.89092e-02,2.65895e-01,-2.34167e-01,-5.52125e-01,-9.75550e-01,-1.24918e+00,
-7.65284e-02,-4.86834e-01,-7.69866e-01,-1.91160e-01,-2.59700e-01,2.26976e-01,5.25923e-01,4.66322e-01,-1.13247e-02,-7.65407e-01,5.95164e-03,3.58482e-01,-1.17584e-01,-4.47332e-01,-9.00817e-01,2.78246e-01,4.43639e-01,-4.60056e-01,-2.01903e-01,3.30224e-01,-2.76218e+00,-3.31971e-01,1.97481e-01,-7.94681e-01,3.17022e-01,
-4.72755e-01,1.86746e-01,3.13534e-01,-3.10367e-01,-7.78857e-01,-1.68418e-01,6.24514e-02,-5.44731e-01,1.67125e-01,-6.71688e-01,-1.44617e-01,3.20668e-01,-2.17636e-01,5.37736e-01,1.95069e-01,-8.24699e-02,7.77424e-01,5.44261e-01,1.87504e+00,-1.00488e+00,2.04780e-02,-4.57327e-01,4.73816e-01,-1.14815e-01,-3.13948e-02,
-3.53537e-02,-2.60193e-01,1.51333e-01,3.76689e-01,-1.46799e-01,-4.04298e-01,-3.54326e-01,-3.19889e-01,2.59250e-01,1.26108e-01,2.36469e-01,-7.06917e-02,3.13035e-01,-1.53904e-01,1.01351e-01,3.23015e-01,3.64975e-01,2.73086e-01,-5.34709e-02,-2.39713e-01,-1.40635e-01,1.72013e-01,3.43457e-01,-4.68300e-01,-2.62222e-01,
-4.11795e-02,5.32789e-01,4.06968e-01,-5.82814e-02,-6.43892e-02,-1.98453e-01,-1.17145e-01,1.88257e-01,-3.86908e-01,1.88904e-01,-2.45688e-01,-9.99449e-02,-5.75759e-02,-1.12742e-01,-1.24893e+00,-1.40915e-01,2.00030e-01,-1.09148e-01,1.68171e-01,2.37968e-01,7.38138e-02,1.79669e-02,-1.88388e-01,-3.70664e-02,-5.53817e-01,
-1.24241e-01,3.39571e-03,-4.41884e-02,1.05937e-01,-2.71132e-01,5.60509e-01,3.81463e-01,7.77055e-03,1.05993e-01,-3.17574e-02,-5.56011e-02,1.77913e-01,1.29800e-01,4.16176e-01,-3.78503e-02,3.18799e-02,3.25009e-01,-2.80790e-01,-2.65268e-02,-3.95885e-01,2.58258e-01,-3.06124e-01,3.88694e-01,-6.05076e-02,-2.64477e-01,
2.45899e-01,
3.02138e-01,
-3.20253e-01,
1.55443e-01,
-1.38219e+00,
1.26970e-02,
1.97139e-01,
4.30095e-01,
5.58810e-01,
-9.64685e-01,
-2.33973e-01,
2.11345e-01,
5.73887e-01,
-6.76111e-01,
5.45253e-01,
3.84956e-01,
-2.89566e-02,
-1.08618e-01,
4.40138e-01,
-8.70554e-02,
3.52016e-01,
-9.78527e-02,
4.00575e-01,
-3.01471e-02,
1.61484e-01,
1.64934e-01,-2.74543e-01,-1.39378e-01,-5.19144e-01,-3.38715e-03,-2.75730e-01,1.25684e-02,2.21153e-02,-1.76465e-01,1.13632e-01,-3.84050e-01,-2.39584e-02,3.09139e-01,1.54446e-01,1.24046e-01,-3.05929e-01,-3.91362e-01,-2.89174e-02,-3.15680e-01,-5.79324e-03,1.08476e-01,-1.22402e-01,1.67872e-03,-3.52498e-02,-2.73492e-01,
3.05481e-01,-1.14963e-02,-1.65010e-01,-1.03202e-01,2.55934e-01,-1.27580e-01,1.16997e-01,-6.37044e-02,5.01642e-02,-2.11959e-01,3.56893e-02,-9.84031e-02,-1.48375e-01,2.05883e-01,1.39496e-01,-1.04301e-01,-1.54044e-01,3.64975e-02,4.27166e-02,-4.31000e-02,-1.86067e-01,-2.96248e-01,3.41968e-01,5.94389e-02,3.02161e-01,
-1.63379e-01,3.28512e-01,-1.26848e-01,1.11266e-01,-6.14129e-01,-1.12739e-01,2.13811e-02,-7.93339e-01,2.52122e-01,-3.85383e-01,-9.41737e-02,5.89971e-01,-4.70011e-01,-2.40297e-01,9.44367e-02,8.78457e-01,-5.24842e-01,-6.69946e-02,4.16685e-01,1.22529e+00,5.18150e-01,-7.09315e-01,1.72221e-01,4.28163e-01,2.45985e-02,
-1.84893e-01,1.27374e-02,-9.72096e-02,2.13673e-01,-3.06318e-01,8.93684e-02,1.73996e-02,-2.13239e-02,-1.49330e-01,-2.75841e-01,2.32161e-01,1.38719e-02,-3.10185e-01,1.47352e-01,6.12711e-02,1.06597e-01,-2.34169e-01,1.11986e-02,1.11895e-01,6.39307e-02,6.30055e-02,-2.16362e-01,-2.91887e-01,1.06839e-02,3.20485e-01,
2.60874e-02,-1.03794e-01,2.47193e-01,1.65759e-01,1.77409e-01,2.90842e-02,2.24760e-01,-1.42821e-01,-2.98069e-02,-1.17333e-01,1.08641e-01,-1.80114e-01,-1.38856e-01,1.81350e-01,-2.15612e-01,7.78921e-02,-2.74007e-02,-7.76085e-02,1.71036e-01,-5.72489e-02,-6.68472e-01,-2.08818e-01,-3.45838e-02,2.53333e-01,1.29851e-02,
1.18976e-01,-5.57869e-02,8.66135e-02,7.92390e-02,-6.07799e-02,5.75804e-03,3.40799e-03,1.04222e-01,2.86106e-01,-2.03619e-02,2.31697e-01,1.62330e-01,-1.25003e-02,-5.00814e-02,-7.16986e-02,-4.62729e-02,5.19971e-02,2.54078e-02,1.39842e-01,1.27052e-01,2.68415e-01,-1.39831e-01,9.78592e-02,-1.20273e-01,-4.59322e-02,
5.70544e-01,-1.31487e-01,3.70464e-02,1.04276e-01,-2.53598e-01,-2.94672e-01,1.72616e-01,5.75477e-02,-1.08479e+01,3.35751e-01,-1.67012e-01,-5.44960e-02,2.21190e-01,-1.16206e-01,5.34129e-02,-6.64450e-01,3.43342e-01,-3.31888e-01,2.44523e-01,-1.13903e-01,-2.69819e-02,-9.00228e-02,1.47682e-03,2.52940e-01,-3.92173e-01,
-5.45851e-01,4.18145e-02,1.53513e-01,2.33141e-01,2.37933e-01,1.51731e-01,1.81730e-01,-1.91815e-01,3.03986e-01,-1.82157e-01,3.16358e-01,-3.60445e-02,-1.53253e-01,1.35717e-02,-3.68478e-01,5.95939e-02,-4.59167e-02,-1.31926e-01,-1.82601e-01,8.69420e-02,6.18657e-02,-6.80203e-02,-2.04694e-01,-1.23096e-01,1.81204e-02,
-1.49119e-01,4.76990e-02,3.05139e-01,3.25219e-01,-1.50099e-01,1.93189e-01,-3.38165e-02,-7.63276e-02,-4.86393e-01,-5.63243e-02,-2.87386e-01,3.29427e-02,-1.76024e-01,2.49838e-02,3.26544e-01,-2.74560e-01,-6.63536e-02,-2.02327e-01,-4.03478e-02,-8.08048e-02,1.67038e-01,-4.20262e-02,2.23934e-01,-2.90705e-02,3.87519e-01,
-3.13915e-01,-3.13501e-01,-1.93785e-01,-2.32312e-01,-2.27362e-01,2.62006e-01,6.50620e-03,-1.18214e-01,3.32942e-03,4.27601e-02,-2.76492e-01,-3.31069e-01,4.94390e-02,-1.59789e-01,1.22948e-01,1.29527e-01,-2.29356e-01,-8.43499e-02,5.38567e-02,-3.29363e-02,1.93162e-01,-3.39998e-01,-7.02840e-02,4.73970e-02,-3.07818e-01,
-1.54914e-01,-1.08130e-01,4.22791e-03,3.52520e-01,-4.98030e-02,2.15594e-01,5.37450e-02,5.55048e-02,1.97476e-01,-1.95678e-03,8.73883e-02,7.02730e-02,-1.39961e-01,5.44350e-02,7.21944e-02,-2.12351e-02,5.80098e-02,2.59274e-01,-9.85631e-02,9.18749e-02,-1.47177e-01,-5.27121e-02,1.01978e-01,-2.15415e-02,6.22422e-03,
2.70988e-01,-4.42758e-03,-1.85490e-01,-2.28587e-01,5.69807e-01,-1.21365e-01,-1.03091e-01,2.30729e-01,2.91356e-01,-5.44863e-01,-4.10962e-02,-5.39262e-01,-1.09041e-01,3.54343e-01,2.13110e-01,-3.19821e-02,-1.94268e-01,1.54302e-01,1.33157e-01,-7.05956e-01,-8.35753e-02,-5.27763e-01,4.12689e-01,-3.50109e-01,4.67178e-01,
1.56342e-02,-6.93915e+00,-1.42736e-02,4.54323e-01,-2.24390e-01,4.58467e-01,-4.92490e-01,-1.86801e-01,-3.43038e+00,-2.92280e-01,-2.70835e-01,2.32301e-01,2.86402e-01,-1.53599e-01,3.10891e-01,-2.39691e-01,-1.68982e-01,-9.80681e-02,-4.77142e-01,1.37050e-01,-6.73719e+00,2.92222e-01,-6.45820e-02,-1.14173e+00,3.79098e-01,
-2.53588e-01,-5.76571e-02,-2.86673e-01,5.02965e-02,-2.61903e-04,-4.31264e-02,-6.51805e-02,-3.14956e-01,2.49258e-01,-9.69625e-02,-3.36999e-01,-9.19042e-02,4.41525e-02,1.87857e-01,-3.38050e-01,-2.39858e-01,-1.67290e-02,-9.36474e-02,1.34201e-01,-2.81735e-02,8.11318e-02,-2.44499e-01,2.72143e-01,-4.06044e-02,8.75133e-02,
2.06685e-01,-1.41839e-01,3.23454e-01,6.42632e-01,-2.53530e-01,3.17646e-01,-3.99827e-01,7.85023e-01,-8.86224e-01,-2.15987e-01,-8.96965e-02,-5.74344e-02,-2.90617e-01,-7.46197e-01,5.31797e-01,-9.77383e-02,-9.69782e-01,-7.08588e-02,-4.17022e-01,-1.12048e-01,-2.41023e-01,-6.46362e-01,2.42610e-01,-1.97778e-01,2.22444e-01,
-1.64183e-01,1.37830e-01,2.74371e-01,8.96835e-02,1.91945e-01,-4.39866e-02,2.38831e-01,-4.38270e-02,1.26726e-01,-1.27454e-01,-1.08310e-01,1.06653e-01,-1.25635e-01,1.50718e-01,-1.08088e-01,1.60464e-01,1.99917e-01,-1.02219e-01,2.32304e-01,-1.66864e-02,-1.44855e-01,-2.30614e-01,4.21517e-03,-1.80040e-01,3.62097e-01,
-1.30861e-01,-2.02513e-02,-1.58545e-01,-7.65106e-02,-1.02708e-01,8.40262e-02,3.05596e-01,1.42018e-01,-5.87800e-01,-8.00922e-02,2.02207e-01,-1.49009e-01,-1.24617e-01,-2.07043e-02,-7.85014e-03,2.44159e-01,-1.78309e-01,1.85327e-01,-4.03718e-02,-1.49908e-02,2.00359e-01,-3.29617e-02,6.00938e-02,5.68376e-03,-1.39499e-01,
-5.72016e-02,2.34569e-02,3.08403e-01,-2.32389e-01,-9.53940e-02,-1.21170e-01,-1.83605e-01,-6.71741e-02,-1.42621e-01,5.14627e-04,3.11314e-02,-3.54733e-01,2.86102e-01,1.60540e-01,-2.25517e-01,1.09171e-01,-1.23571e-01,-2.65104e-01,-1.44072e-01,-1.20066e-01,1.66470e-01,-3.94436e-02,-3.17501e-01,2.05816e-01,-1.18993e-01,
-6.24584e-01,5.84341e-02,-8.80825e-02,3.44298e-01,-1.30551e-02,1.34565e-01,-2.82147e-01,-7.08762e-02,1.83179e-01,-9.24133e-03,1.70037e-01,5.28985e-02,-1.09441e-02,-2.00483e+00,-6.79831e-02,1.12719e-01,-3.33327e-01,-1.24040e-01,-2.45798e-01,3.34687e-01,6.87012e-02,3.66278e-01,-6.34806e-02,-2.44652e-01,1.83138e-02,
3.77164e-01,-7.50270e-02,-1.22087e-01,2.24737e-01,-1.85684e-01,1.54216e-01,1.63057e-01,-3.96739e-02,-1.48458e+00,-1.23108e-01,-5.57046e-01,5.60483e-02,5.00213e-02,2.93480e-01,-1.53048e-01,-2.38745e-01,-3.00805e-01,-2.39487e-01,1.99916e-01,-4.47286e-02,4.21969e-01,-2.47442e-02,2.70205e-02,6.02628e-02,4.62419e-02,
-2.69281e-02,-2.62207e-02,5.22965e-02,-3.33509e-01,-4.93385e-02,-9.67743e-02,1.53690e-01,-7.44022e-02,-5.08069e-01,4.09446e-02,-1.82092e-01,-2.92472e-01,2.33477e-01,1.51659e-01,-1.68269e-01,9.44162e-02,4.49002e-01,-1.33054e-01,1.35986e-01,-2.76662e+00,2.72457e-02,-3.40558e-01,2.09625e-01,-1.70413e-01,-2.68144e-04,
-2.57462e-01,6.50913e-02,2.26017e-01,-3.10035e-01,-6.04846e-01,-5.71006e-02,2.80550e-02,2.03466e-01,-2.79864e+00,2.07344e-01,1.38162e-01,1.45101e-03,-6.10239e-02,-6.04335e-01,-1.83158e-01,3.66519e-01,-1.26742e-01,-2.27622e-01,1.42343e-01,-4.47761e-01,-5.44028e-02,1.87717e-01,-8.79825e-01,2.96593e-01,2.78429e-01,
7.18875e-02,-1.59912e-01,2.77821e-01,-2.50258e-01,-3.27429e-01,-5.50551e-02,-1.39329e-01,-1.69263e-01,1.32875e-01,2.86376e-01,2.25133e-02,-1.17105e-01,4.57761e-01,-4.08249e-01,-2.44873e-01,-2.80406e-01,4.59659e-01,3.54618e-01,8.38346e-02,6.34407e-02,1.71738e-01,1.89146e-01,-2.06965e-01,-9.82353e-03,-7.21394e-01,
-1.04822e-01,1.57568e-02,2.18408e-01,-1.46949e-01,-1.04869e-01,9.69068e-03,2.40795e-01,-1.95378e-01,4.48407e-01,1.02739e-01,4.34763e-02,-6.32221e-02,9.18855e-02,-3.72763e-02,-2.74909e-01,-8.25716e-02,6.10108e-01,8.62719e-02,4.79120e-01,-8.22992e-02,-2.33608e-01,-3.49270e-01,-1.38916e-01,-8.76169e-02,-1.01628e-01,
1.02238e-01,5.47812e-02,-7.33878e-02,-3.10995e-01,-2.16610e-03,2.10475e-01,1.45733e-01,-2.90489e-01,3.96787e-02,-1.08814e-02,-2.75880e-01,5.57385e-03,-4.04588e-02,-3.17697e-01,-1.59076e-01,9.42796e-02,2.52503e-03,7.81659e-02,-2.49958e-01,1.58930e-01,2.46345e-01,-1.86724e-01,1.09106e-01,-2.78076e-01,-2.65224e-02,
-2.74122e-01,
-1.33274e-01,
-1.37746e+00,
-4.05895e-01,
-2.77056e-02,
-6.61183e-03,
-1.96314e-01,
2.14962e-01,
-1.64239e-01,
-1.23775e-01,
1.58114e-02,
-1.88357e-01,
-5.81057e-03,
-2.44506e-01,
-5.30675e-01,
-5.95559e-02,
3.33652e-02,
-7.99545e-02,
1.37720e-01,
-3.12230e-01,
5.14678e-02,
-1.50652e-01,
2.75955e-01,
2.24287e-01,
-4.00514e-01,
-2.48535e-01,-3.78482e-02,-1.08269e-01,-1.33075e-01,-5.23954e-02,1.50613e-02,1.13539e-02,2.16412e-02,-3.67409e-02,-6.94242e-02,1.97252e-02,-1.34389e-01,5.01907e-02,3.37825e-01,-4.81856e-02,-7.97764e-02,-1.66143e-02,2.53918e-01,-2.33261e-02,-3.12730e-02,1.94612e-02,7.36755e-03,-2.59391e-02,3.88126e-02,2.00837e-01,
3.97798e-01,-4.11902e-02,-4.35018e-02,-1.75948e-01,-2.11335e-02,3.64132e-02,8.21515e-03,2.11208e-03,-9.47995e-03,-1.63867e-02,-1.05986e-01,-3.16851e-02,3.36081e-03,4.05524e-01,1.30688e-02,-7.73719e-02,-1.17265e-01,8.29232e-03,2.30962e-02,-2.27662e-02,4.60556e-02,-2.58646e-02,-4.57836e-02,8.27308e-03,-2.50992e-01,
5.15424e-01,-1.13795e-01,5.23184e-02,-1.86601e-01,-3.91837e-04,-1.40370e-01,3.77882e-02,4.07952e-03,1.21147e-02,4.17051e-01,-8.36704e-02,-9.50337e-02,-7.14812e-02,2.98600e-01,-4.40271e-02,-1.41573e-02,5.75299e-02,-1.04981e-02,7.60488e-02,-5.37220e-02,5.02340e-02,-4.18685e-02,-3.35152e-02,6.69620e-03,-2.25991e-01,
4.02802e-01,-3.19507e-02,-3.44547e-02,-1.61611e-01,-5.38820e-02,2.37226e-03,-2.16848e-02,-5.03059e-02,-5.07081e-02,3.30119e-01,-6.76140e-02,-3.25442e-02,-6.51790e-03,-3.68803e-01,-2.42440e-03,-5.50801e-02,-3.94446e-02,1.65765e-01,6.92233e-02,-3.05076e-02,6.38368e-03,-3.71506e-02,-2.59655e-02,2.66688e-02,-4.00539e-01,
3.67790e-01,-6.98217e-02,-8.93646e-03,-1.67184e-01,-4.22711e-02,-7.12428e-02,1.36158e-02,1.55276e-02,-3.90083e-02,4.23481e-01,-2.03344e-03,-8.10879e-02,-6.08645e-02,-2.49727e-01,1.65704e-03,-5.71099e-02,8.59923e-03,3.77120e-01,1.15392e-02,-1.97680e-02,1.32160e-01,-4.03804e-02,1.67785e-03,-3.40914e-02,3.10318e-01,
3.16121e-01,3.59588e-02,-5.48369e-02,-1.82418e-01,3.92908e-03,-2.85706e-02,-6.71810e-02,-1.47928e-01,-1.34213e-01,1.11611e+00,-3.87092e-02,2.18649e-02,1.37942e-02,-1.31647e-01,-1.09377e-03,-5.61506e-02,3.93434e-03,2.35585e-01,1.03501e-01,-9.10516e-02,9.06658e-04,-5.33014e-03,-2.24784e-02,4.20181e-02,1.13990e-01,
7.26299e-01,-6.32822e-02,-3.87461e-03,-1.42925e-01,-8.79250e-03,-4.93394e-02,3.95404e-03,2.39779e-03,-2.78635e-02,-1.66934e-01,4.05084e-02,-1.30385e-01,-1.52141e-01,2.31970e-01,6.20927e-02,-7.74783e-02,-1.12729e-02,-5.56445e-02,-2.33354e-02,5.60692e-03,1.66870e-01,-8.58819e-02,2.23282e-02,-7.84097e-02,3.05431e-01,
2.72422e-01,-2.50565e-02,-7.44657e-02,-1.54055e-01,-1.59578e-01,2.03129e-02,-3.56564e-02,-1.15394e-02,-5.02291e-02,-2.36391e-01,-6.36011e-02,4.48361e-03,-3.26083e-02,2.81884e-02,-4.23283e-02,-2.94491e-02,4.10270e-02,3.22225e-02,4.97099e-02,-3.95996e-02,1.97511e-02,-4.99360e-02,-2.67518e-03,-1.58348e-02,-3.40470e-01,
3.02727e-01,-5.78626e-02,-1.46789e-02,-1.46829e-01,-4.70145e-02,-5.46593e-02,1.29873e-02,1.83385e-02,-4.10249e-02,3.35943e-01,7.24236e-03,-1.01722e-01,-8.02716e-02,-4.58030e-02,5.91388e-04,-6.36085e-02,3.20232e-03,-3.34190e-02,1.14628e-03,-1.79119e-02,1.34827e-01,-4.61233e-02,1.08790e-02,-4.04827e-02,1.94805e-01,
2.02682e-01,
2.08480e-01,
2.05325e-01,
-2.40162e-01,
-2.42275e-01,
2.06478e-01,
2.05836e-01,
2.01321e-01,
-2.43377e-01,
