// Neural Network File Format by Kyle Julian, Stanford 2016
6,4,9,25,
4,25,25,25,25,25,9,
0,
-8000.000000,-100.000000,-100.000000,0.000000
8000.000000,100.000000,100.000000,40.000000
0.000000,0.000000,0.000000,20.000000,-4.647677
16000.000000,200.000000,200.000000,40.000000,22.514692
1.67648e-01,-1.81802e-01,2.67862e-01,-7.64436e-02,
2.03709e+00,5.46907e-01,-2.48234e-01,-9.96801e-02,
-2.31851e+00,2.78446e-02,3.28154e-02,-1.19397e+00,
1.05719e-01,6.74249e-01,2.33092e-01,-1.33163e-01,
-4.53869e+00,1.58882e-04,3.66673e-05,-6.79559e-04,
-5.60324e+00,3.63649e-02,2.04954e-02,-1.93916e-03,
1.91462e+00,-2.26872e-02,3.80934e-02,5.98424e-01,
-1.55643e+00,3.82660e-01,-4.74387e-01,5.85210e-02,
-1.83008e+00,3.15532e-01,2.55045e-01,-7.28495e-02,
-1.10321e+00,2.45051e-01,-2.79154e-01,-2.00232e-01,
3.01772e+00,6.55446e-02,-1.24298e-01,-1.07294e+00,
3.42015e+00,-1.39228e-01,-2.25660e-02,-6.36682e-01,
5.91075e-01,1.59514e+00,7.63253e-02,-1.86286e-02,
-3.50312e-02,-6.56714e-01,6.52188e-01,1.08931e-02,
3.05903e+00,-3.08015e-01,4.92268e-01,-3.31291e-01,
2.56373e+00,-3.27134e-01,5.06870e-01,5.47273e-01,
-1.63210e+00,-9.25599e-01,-9.85020e-02,-1.84979e-01,
-1.23118e-01,-5.42292e-04,-6.10591e-01,-4.13574e-02,
-2.77207e+00,7.81759e-02,-7.23151e-02,-6.07176e-01,
1.90273e+00,-9.17390e-02,-6.43662e-02,4.65370e-01,
-2.55220e-02,1.60164e+00,-6.36927e-03,-5.23817e-03,
3.45405e+00,-1.50140e-02,-1.22604e-01,-8.35616e-01,
-1.46938e-01,-1.73274e+00,-2.31084e-02,1.87618e-02,
-2.70002e+00,2.94263e-01,-4.58536e-01,-3.17654e-01,
6.03469e-02,-1.89251e+00,-1.02609e-02,-3.49329e-04,
-3.62496e-01,
1.51566e-01,
-2.71047e-01,
2.56014e-01,
-1.88756e-01,
2.60113e-01,
2.45827e-01,
1.75315e-01,
1.74262e-01,
1.24215e-01,
-4.55478e-01,
-8.25235e-03,
-4.05292e-01,
-8.99537e-02,
8.08640e-02,
3.57306e-01,
-1.52411e-01,
2.41493e-01,
7.37554e-02,
9.12487e-02,
-2.70692e-01,
-2.71451e-01,
-8.86547e-02,
1.05128e-01,
1.15770e-02,
-6.17962e-02,4.70117e-02,4.44843e-01,8.30997e-02,-1.58434e+01,-2.16691e+00,-1.04260e+00,-7.73896e-02,-3.63791e-01,-1.60313e-01,4.79745e-01,2.38284e-01,2.69636e-01,1.05249e-01,1.84705e-01,3.82249e-01,3.68793e-01,1.02745e-01,1.15050e+00,2.51612e-01,-1.68520e-01,-4.44367e-01,-1.38552e-01,1.82384e-01,-1.40694e-01,
1.26701e-01,-6.51958e-01,-2.59055e-01,1.56910e-01,4.42929e-01,-1.25335e-01,3.97442e-02,1.10761e-01,4.64806e-01,1.26425e-01,1.64555e-01,7.73412e-01,3.89477e-01,-1.75751e-01,1.17813e+00,2.98549e-01,3.81332e-01,-1.13108e-01,-2.09926e-02,-8.72427e-01,-5.12820e-01,1.30535e+00,-9.06914e-02,-1.10177e-01,-1.09019e-01,
-9.16943e-02,-3.23293e-02,-4.14154e-02,-6.94055e-02,-4.65603e+01,4.39769e-01,9.96417e-03,-1.88773e-01,-3.41537e-02,-1.76368e-01,4.19424e-01,1.11167e-01,7.98722e-01,3.82310e-01,1.37477e-01,-1.62087e-01,-1.75376e-01,-1.33443e-01,9.63240e-02,2.00435e-01,-8.00141e-01,6.49820e-02,1.35532e+00,1.84980e-01,-1.20868e+00,
-2.65895e-01,-1.06099e+00,1.01557e+00,5.54936e-01,1.29803e-01,-2.60223e-02,3.41035e+00,1.22795e-01,-9.49582e-01,-4.82542e-03,1.69289e+00,-8.39701e-01,4.22976e-01,2.94301e-01,1.62184e+00,-9.51028e-01,2.27491e+00,6.38613e-01,3.45659e-01,-2.86686e+00,-2.97611e+01,-1.27095e+00,-1.13478e+00,2.81561e-01,-1.87473e-01,
-1.59859e-01,-3.53904e-01,6.99348e-01,-2.11443e-01,-5.38991e-01,2.00881e-01,4.28050e-01,-4.16431e-01,3.48355e-01,1.50184e-01,-6.10447e-01,3.83989e-02,-1.00808e-01,-7.32366e-01,6.01673e-01,4.31494e-01,4.02559e-02,-7.13825e-01,3.54032e-01,-1.03465e+00,-3.63316e-01,-1.25842e-01,6.94051e-02,-1.05854e-01,-2.41118e-01,
-2.80593e-01,1.01243e+00,-3.14316e-01,6.72250e-01,2.39669e+00,-7.93865e+00,5.40463e-03,-4.44161e-01,-1.25233e+00,-4.66006e-02,1.92749e-01,-3.23612e-02,5.55119e-02,2.36284e-01,-3.83128e-01,5.10001e-01,-8.00714e-01,-3.43102e-01,-1.93351e-01,-8.32768e-01,-1.94217e-01,4.54748e-01,1.07023e+00,-4.22426e-01,-2.45344e-01,
-1.20572e-01,-2.52909e-01,-7.12097e-04,-5.02671e-01,9.63215e-01,3.18915e-01,-2.72966e-01,-2.96393e-01,6.58729e-01,1.22276e-01,-5.63257e-02,5.38543e-02,7.73456e-01,1.21884e+00,-4.15421e-01,6.75873e-02,4.78392e-01,4.13146e-01,-4.63549e-01,1.61465e-01,-4.27897e-01,2.11707e-01,6.98643e-01,-2.87097e-01,-1.26739e+00,
-3.11435e-01,1.93053e-01,-2.90472e-01,-2.72396e-01,-8.92759e-02,4.61624e-01,5.26882e-01,1.11779e+00,6.03853e-01,9.50297e-01,-2.51154e+00,-4.38733e-01,-5.52318e-01,4.80685e-01,-2.50903e-01,-7.26011e-01,-9.85895e-01,-2.19013e-02,1.33470e-01,2.30756e-01,5.06568e-01,-7.75548e-01,5.92630e-02,-4.20863e-01,7.08200e-02,
1.01583e-01,-5.97578e-01,1.46880e+00,1.35066e-01,2.47497e-02,5.92186e-01,2.22433e+00,4.33220e-01,-1.73912e-01,2.23003e-01,-9.98918e-01,2.78931e-02,1.06374e-01,1.64180e-01,9.31169e-01,-1.25018e+00,3.45425e-01,-9.48864e-02,4.04598e-01,-4.13738e-01,-1.58906e-01,-5.95090e-01,2.30511e-01,5.18332e-01,-3.59840e-01,
1.65798e-01,1.66329e-01,9.62897e-02,-1.11306e-01,-5.95037e-01,6.57334e-01,1.71003e-01,3.05614e-01,-1.85624e-01,-2.97039e-02,-3.47027e-02,-1.03185e-01,2.22818e+00,-8.29749e-03,3.60541e-01,-2.04497e-02,-1.31460e+00,2.09219e-01,1.48587e-02,-1.88727e-01,-2.30523e+00,6.98057e-02,1.65304e+00,-1.01359e-01,-1.17016e+00,
-7.18471e-02,-3.69085e-01,-4.62163e-01,7.10182e-01,4.62454e-01,-3.28108e-01,1.19698e-01,-2.61190e-01,2.92852e-01,-1.00667e+00,5.41906e-01,1.05005e+00,-4.20019e-01,1.34130e-01,9.86264e-01,6.79522e-01,3.74659e-01,-5.12471e-01,-5.77864e-01,-1.22869e+00,-1.08726e-01,1.24954e+00,1.62924e-01,-9.12863e-01,-2.48401e-02,
-1.02255e-01,-8.95104e-01,2.09539e-01,1.99474e-01,-5.16573e-01,8.08416e-01,1.33335e-01,6.95307e-02,-3.57286e-03,5.01673e-01,-3.47383e-01,6.98489e-01,-1.27370e+00,-2.90716e+00,-1.54771e-01,-5.34416e-01,8.63356e-01,2.82710e-01,-2.34952e-01,-4.40801e-02,1.65642e+00,-6.18280e-01,6.15872e-01,7.26847e-02,-1.14056e+00,
-1.54026e-02,-3.61220e-01,5.82710e-01,-9.15985e-02,-1.38004e-02,1.62115e-01,6.55954e-02,-3.47152e-01,-5.75177e-01,3.24330e-02,7.95407e-03,-1.14303e-01,5.98286e-02,4.84309e-02,2.89613e-01,1.23285e-01,4.40198e-01,1.24717e-01,-3.06278e-02,1.28211e-01,1.98437e-01,-2.55943e-01,-5.21867e-01,2.44360e-01,1.13394e+00,
2.31944e-02,-4.92795e-01,5.33662e-01,3.88462e-01,-4.95458e-01,1.66314e+00,-3.88637e-01,-1.40192e-01,-3.52456e-01,1.22012e-01,2.32556e-01,9.14525e-02,4.69185e-01,-2.62944e-01,2.03649e-01,2.24308e-01,1.71496e-01,3.51577e-01,1.21767e-01,1.79165e-01,-2.66049e-01,-1.37924e-01,-1.45954e+00,1.52840e-01,9.08614e-01,
2.63148e-01,2.41207e-02,-1.69925e-02,-3.63923e-01,-1.80524e+00,1.34027e+00,-4.37227e-01,4.42219e-01,7.61551e-01,5.13409e-01,-1.06976e+00,-9.32531e-01,-5.92002e-02,-4.12157e-01,-1.36753e-01,1.01199e+00,-5.88682e-01,-4.40198e-01,-2.56659e-02,-6.62394e-01,-5.35121e-01,2.12497e+00,-1.31646e+00,-7.00574e-01,-8.43748e-01,
2.89117e-01,-9.84004e-02,1.08546e+00,1.09000e-01,-3.14528e-01,-2.88826e-01,-1.22880e+00,3.83383e-01,4.36278e-01,-5.77149e-01,-6.39233e-01,2.84656e-01,6.77812e-02,6.56077e-01,-4.76026e-01,5.87984e-02,-6.12000e-02,2.95442e-01,8.75301e-01,5.64320e-02,2.11508e-02,-2.54048e-01,2.63757e-01,-4.48097e-01,-2.18899e-01,
-2.48540e-01,-4.38320e-02,-1.27042e-01,4.92724e-01,6.97256e-02,2.20356e-02,-7.13713e-01,2.10616e-01,-4.49506e-02,-4.60894e-01,2.11358e-02,8.04184e-01,-4.09861e-02,-5.52208e-02,3.10359e-01,3.73415e-01,3.30732e-01,-5.57188e-01,1.46477e-01,1.02703e-01,-5.12934e-01,-1.88695e-01,1.97867e+00,3.68658e-01,-1.13425e+00,
-2.38357e-01,1.66537e-01,-3.34399e-01,-6.99437e-01,-1.17563e+00,2.62951e-01,-4.86002e-01,1.14072e+00,9.51588e-01,-5.27125e-01,-1.61809e-01,-2.67548e-01,-9.45187e-02,1.13396e-01,-9.77873e-01,4.22277e-01,3.66867e-01,7.23109e-01,7.95961e-02,-1.48450e-01,4.06564e-01,-1.14889e-01,-4.38861e-01,-3.40606e-01,-1.04999e-02,
-4.06891e-02,-5.36606e-01,2.52202e-01,9.12865e-01,1.19065e+00,-4.26869e-01,2.32292e-02,-4.25975e-01,-6.96217e-01,1.54389e-01,-2.53702e-01,2.97801e-01,-1.70483e-01,4.33332e-02,2.53039e-01,7.70280e-02,-3.85684e-01,5.90307e-01,-3.03594e-01,1.16306e-01,4.97919e-01,2.51106e-01,8.20064e-01,-8.87609e-02,-9.57405e-01,
-5.54043e-02,-1.90620e+00,1.26459e-01,6.98401e-01,3.87002e-01,7.47101e-02,4.73090e-01,-2.26913e-01,-7.77178e-02,2.88406e-01,-8.77499e-01,-7.37604e-01,1.75027e-01,-5.75823e-01,-3.60584e-02,-6.54039e-02,-2.20361e-01,1.81836e-01,8.88768e-01,-7.52782e-01,1.07451e-01,2.26283e-01,9.26965e-02,7.21399e-01,-1.04651e-01,
1.58341e-01,-2.63005e-01,-9.91749e-02,1.74639e-01,2.65953e-01,-3.16217e-01,3.21974e-02,-1.44835e-01,-1.73861e-02,1.60054e-02,-2.86853e-01,-1.77781e-01,-3.30004e-01,-3.37881e-02,-2.24093e-01,-2.85700e-02,-5.40385e-02,5.74884e-02,-7.93760e-02,-2.29459e-02,2.87237e-01,7.46087e-02,2.55088e-01,-3.34388e-01,-2.44498e-01,
3.16998e-02,2.79402e-01,-3.60038e-01,-1.04482e-01,1.33216e+00,-4.41302e-01,-2.60042e-01,1.26394e-01,-5.13383e-02,-3.11224e-01,-1.12395e+00,7.86553e-01,1.32418e+00,1.84046e-01,-3.51578e-01,-2.28942e-01,5.32282e-01,-5.63622e-02,4.35533e-01,-2.91200e-01,-1.40777e+00,-6.85599e-01,3.58318e-02,-3.55952e-01,-1.40175e-01,
2.12785e-02,-1.14043e-02,-3.31177e-01,7.62149e-01,5.69738e-01,-4.89987e-01,-1.08427e+00,-4.67428e-01,5.43557e-02,1.21669e-01,-5.59137e-01,3.51426e-01,-8.72310e-01,-2.30913e-01,-9.05182e-02,1.12361e+00,-2.98344e-02,-7.93874e-01,-4.97642e-01,-5.69974e-01,1.44870e-01,8.62544e-01,2.08006e-01,-4.75600e-02,-5.78736e-02,
-7.91395e-02,1.31795e-01,2.42624e-01,3.75750e-01,-8.43473e-01,1.30711e+00,3.13434e-01,3.44860e-01,6.35066e-01,1.29305e-01,-7.90404e-02,-7.34953e-02,-4.83556e-01,-2.71852e-01,1.56291e-02,4.62927e-02,6.84731e-02,1.84504e-02,2.44085e-01,-2.76075e-01,-6.77304e-03,-3.21597e-01,-1.99810e-01,2.50725e-01,8.83155e-01,
-2.34915e-01,-2.22568e-01,1.29004e-01,6.87173e-01,8.08288e-01,-4.44226e-01,-6.84994e-02,-3.33884e-02,-6.24812e-01,2.12105e-01,3.69743e-01,-3.99922e-01,1.36737e+00,-1.57231e-01,-2.38274e-01,1.93704e-01,9.11471e-01,-3.13441e-01,-3.47032e-01,3.05711e-01,-1.61508e+00,-4.32354e-02,-9.04727e-01,1.75445e-01,-6.35988e-03,
3.48049e-01,
2.29622e-01,
2.14788e-01,
-8.27118e-01,
3.86875e-01,
-7.01352e-02,
3.81959e-01,
-6.28821e-02,
-5.43807e-01,
8.58651e-02,
1.02986e-01,
1.22373e-02,
2.07312e-01,
8.00029e-02,
-5.39751e-01,
1.53479e-01,
1.54809e-01,
1.52721e-01,
3.10904e-01,
-6.74837e-02,
-2.83708e-01,
5.57972e-01,
2.04506e-01,
-6.25365e-01,
4.97697e-01,
-5.89332e-01,-4.92727e-01,2.11490e-01,7.97108e-01,6.54143e-01,8.09347e-01,-9.55699e-01,-7.58717e-02,1.10544e+00,-2.23378e-01,3.20331e-01,4.43099e-01,-1.18405e-01,-8.92061e-02,-5.00160e-01,4.81995e-01,-7.05630e-02,9.34165e-01,-1.69448e-01,8.39641e-01,3.29470e-01,6.16831e-01,-7.10746e-01,7.32603e-03,9.24230e-02,
-3.35790e-02,2.10041e-01,-2.13994e-01,1.89297e+00,1.53678e-02,2.20624e-01,-1.06889e-02,-1.00556e-02,4.02881e-01,-3.33621e-01,-3.64500e-01,3.60087e-01,-1.06751e-01,5.17341e-02,-4.08528e-01,8.10807e-01,2.36392e-01,-1.65350e-01,-2.59420e-01,3.66524e-01,3.34560e-01,2.77225e-02,2.94728e-02,-1.56968e-01,-5.73702e-02,
3.06793e-01,-4.93921e-01,2.89043e-01,-1.86028e-01,-8.08167e-02,-4.33054e-01,9.30719e-02,2.02240e-01,1.75675e-01,-9.83780e-01,8.13406e-01,3.07313e-01,-1.83606e-01,-3.51031e-01,1.95939e-01,1.28038e-01,-5.62727e-01,-2.12899e-01,4.75369e-01,-1.54992e-01,2.05269e-01,-3.56288e-01,4.62577e-01,6.10142e-01,-3.51297e-01,
-2.12051e-01,7.93653e-02,2.36463e-01,-1.06628e+00,5.34373e-01,1.09873e-01,1.72752e-01,-9.93770e-02,-1.12283e-01,4.19462e-01,-2.34596e-01,-4.30677e-01,-8.58556e-01,9.17221e-01,-5.38265e-01,6.16422e-04,-1.37325e-01,-5.11946e-01,-1.71803e-01,-1.43511e-01,9.11945e-02,-8.72293e-02,-3.37469e-01,-1.38492e+00,-6.46353e-01,
-2.66392e-01,-2.61145e-01,9.67332e-02,8.38495e-02,9.31906e-02,-2.97925e-01,-5.03139e-02,-1.68615e-01,1.66204e-01,1.45151e-01,-2.03998e-01,-1.40717e-01,4.20257e-02,-3.20228e-01,2.61819e-01,-2.12242e-01,-1.17723e-01,-7.92601e-02,-1.23993e-01,5.11809e-02,-2.22937e-01,-2.10624e-01,-2.27740e-01,-1.17596e-01,9.19646e-03,
-2.68496e-01,-1.79633e-01,2.38070e-01,9.70038e-02,-1.03244e-01,-2.17616e-01,-3.28738e-01,-2.60333e-01,-3.42947e-01,-2.30350e-01,-1.67189e-02,-5.68999e-02,-1.13410e-01,6.33235e-02,3.25089e-01,2.75000e-01,-2.43347e-01,-9.18452e-02,-2.73183e-01,-2.80808e-01,2.17138e-01,1.95902e-02,2.90676e-01,1.94486e-01,-1.98556e-01,
7.86058e-01,-4.72611e-01,-1.40848e-01,-1.10573e+00,6.51326e-01,1.55801e-01,4.79002e-01,2.43330e-01,-3.24426e-01,-6.64277e-02,7.13785e-01,-1.14940e+00,2.22443e-01,-1.47792e-01,-1.30456e+00,-1.87709e-02,-2.00795e-01,-1.10448e-02,-8.68602e-02,1.06425e-01,-1.54235e-01,-4.03368e-01,3.45503e-01,5.53195e-01,2.48091e-01,
-2.41183e+00,2.50175e-01,-5.00281e+00,-6.34214e-01,3.28307e-01,-7.05936e-01,1.29632e-01,-1.49956e-01,-1.46813e-01,5.95562e-01,1.26209e-01,1.74430e+00,8.90270e-01,1.59048e-01,5.97232e-02,1.32856e-01,-4.51321e-01,3.21945e-01,-1.91774e+00,-5.12163e-01,9.52746e-02,-8.97379e-02,1.99380e-01,-1.98810e-01,-4.55109e-01,
2.95690e-01,3.19480e-01,-3.30850e-01,4.80376e-02,1.01284e-01,-2.97744e-01,2.46577e-02,-4.97855e-01,-1.65634e-01,1.16843e+00,-3.55638e-01,6.35507e-01,-1.45158e-01,-2.21927e-01,-2.16345e-01,3.36449e-01,5.52411e-01,-5.61277e-02,3.45389e-01,-4.55508e-01,2.55182e-01,-4.44220e-02,-3.96717e-01,5.06935e-01,4.24331e-01,
2.56442e-01,-4.71520e-03,-2.32190e-01,1.82311e-01,6.86325e-03,-2.16760e-01,9.73586e-02,-2.19940e-01,-1.18575e-01,2.98318e-01,-8.87346e-02,-1.59892e-01,1.43298e-01,7.53700e-02,1.75094e-01,-2.48411e-01,7.27837e-02,8.19498e-02,-2.57997e-01,1.57600e-01,-2.17339e-01,-6.93728e-02,-2.57798e-01,-3.45153e-01,-1.03735e-01,
5.76298e-02,5.95180e-01,1.85823e-01,-2.82222e-01,-6.99720e-02,1.16492e-01,7.26874e-02,-5.27461e-01,2.91122e-02,-2.32250e-02,-8.48337e-01,1.39736e-01,3.47503e-01,6.06852e-01,4.60720e-01,1.48517e-01,-1.46679e-01,2.69388e-01,-1.00033e-02,-1.57957e-01,3.22369e-01,-1.40052e-03,-9.28065e-03,-9.96445e-01,-6.45035e-01,
7.43038e-01,-4.53611e-01,-6.33962e-01,-2.06910e+00,3.77578e-01,4.39334e-01,7.14613e-01,-3.10503e-01,-4.39210e-01,2.38034e-01,8.41029e-01,-8.93632e-02,-1.07496e-01,-5.95537e-01,-1.31424e+00,-6.15793e-01,2.10509e-02,-1.48988e-01,-8.28567e-01,-1.54603e-01,1.05096e-01,-3.38724e-01,1.94988e-01,4.33687e-01,1.17837e-01,
6.99467e-01,4.51016e-01,2.36691e-01,-1.08909e+00,3.83944e-01,1.97531e-01,7.91124e-02,2.31681e-01,-5.14371e-01,-1.81509e-01,-4.70489e-02,-1.00327e-01,3.01408e-02,-1.73950e-01,7.86162e-02,8.19278e-02,6.30652e-01,-6.47172e-01,-1.18046e-01,-2.95855e-01,-7.42486e-02,-4.23676e-01,1.52324e-01,-2.09860e-02,4.53805e-01,
-5.66030e-02,3.39715e-01,7.23581e-01,1.04144e+00,2.03437e-01,3.84833e-01,6.67010e-01,-1.02210e-01,1.04078e-01,1.54308e-01,-2.80113e-01,6.22648e-01,1.03546e+00,-9.20861e-03,8.53010e-01,1.17552e-01,1.97526e-01,2.45859e-01,-6.32700e-01,-2.41043e-01,2.40054e-01,2.78067e-01,1.94210e-01,-1.24231e+00,2.15836e-01,
-7.14865e-01,8.06750e-02,3.05997e-01,1.84964e+00,-9.87367e-01,-5.26394e-02,-1.08647e-01,-2.97333e-01,8.31238e-01,-1.44887e-01,-1.40610e+00,3.80083e-01,-2.72265e-01,3.50566e-01,7.17930e-02,4.13849e-01,-4.04538e-02,5.79371e-01,2.57737e-01,6.81711e-01,3.36092e-01,-1.29733e-01,-1.26144e+00,-3.90761e-01,-5.49337e-01,
2.42789e-01,3.57401e-01,-3.84199e-01,-9.67411e-01,4.40075e-01,-3.89427e-02,-1.10762e+00,-6.48666e-02,3.21871e-01,3.11357e-01,-5.50599e-01,-1.20163e-01,-7.37141e-01,-1.31728e+00,-1.70660e+00,3.21985e-01,-8.06743e-01,5.71392e-02,6.03184e-01,-7.25347e-01,1.72393e-01,-1.73454e-01,-4.71708e-01,1.27239e+00,-9.90570e-02,
1.15201e+00,8.76577e-01,2.75190e-01,-1.81287e+00,-2.20395e-01,2.02589e-01,3.65791e-01,3.68223e-01,1.14249e+00,-1.61130e-01,-6.46559e-01,-1.32590e-01,4.06059e-02,-7.28700e-01,-3.61059e-02,4.81165e-01,-4.75937e-01,-4.99219e-01,-6.05476e-01,-2.05161e-01,-2.16227e-01,-1.09269e+00,2.86071e-01,3.40533e-01,2.68410e-01,
2.60257e-01,-6.40082e-01,2.10164e-01,-1.65347e+00,5.27991e-01,-7.62010e-01,5.84678e-01,3.97399e-01,-5.73798e-01,-3.28319e-01,8.73123e-01,1.33582e-01,3.17934e-01,-1.05654e-01,8.08823e-02,-1.65878e-01,-8.55721e-02,-3.18812e-02,4.67258e-01,-4.86731e-01,8.57098e-02,-5.84409e-02,3.32414e-01,1.87230e-01,4.10808e-01,
-1.88173e-01,-1.82540e-01,-8.01428e-02,-4.59265e-02,2.36428e-01,-2.37133e-01,-3.04429e-01,2.64654e-01,6.39270e-02,-1.30193e-01,-3.35314e-01,-2.00631e-01,1.66872e-01,-1.54527e-01,2.84190e-01,1.59994e-01,-1.38142e-01,-2.84932e-01,6.29568e-02,-2.93955e-02,2.74308e-01,2.25737e-01,2.00269e-01,-3.36596e-01,-1.78366e-01,
5.60663e-01,-2.05655e-01,1.49545e-02,-1.42272e+00,-1.04295e-01,8.55312e-01,-1.83543e-01,-3.15501e-01,-1.18239e+00,5.13632e-01,3.15776e-01,-5.30571e-02,1.74505e-01,5.78552e-02,2.72554e-02,3.09693e-01,3.14364e-01,5.68207e-01,-5.52641e-01,-1.20641e-01,-3.39161e-01,-6.69419e-01,3.95372e-01,-6.76685e-01,-9.27083e-02,
4.67282e-01,3.04454e-01,1.05165e-01,8.93235e-01,4.65666e-01,-1.08406e+00,-4.55920e-01,6.85993e-01,-5.21862e-01,-1.75466e-01,7.79679e-02,-3.14622e-01,5.88813e-01,3.47595e-01,-4.55884e-01,2.95342e-02,-5.80356e-01,-3.17200e-01,4.36504e-01,1.71762e-01,3.54150e-03,-2.75680e-02,4.99754e-02,4.41370e-01,5.64579e-01,
-1.96482e-01,7.35846e-02,9.43452e-01,2.79459e-01,-1.13451e-01,4.39694e-01,-8.66526e-04,5.20871e-01,3.55006e-01,-4.39503e-01,-4.16265e-01,4.67788e-01,3.21081e-02,-4.31281e-01,8.73337e-01,4.95709e-01,5.60877e-01,3.43461e-01,2.27275e-01,6.33042e-02,-1.50839e-01,-2.90226e-01,2.46554e-01,-5.29842e-01,5.97342e-02,
-1.64912e-01,-2.79927e-01,-5.54135e-01,6.72056e-01,-3.32041e-01,2.63118e-01,1.03596e-01,3.69553e-02,3.52053e-01,7.51267e-01,1.94483e-01,5.26642e-01,-2.61830e-01,3.65132e-02,7.69693e-01,-1.91796e-01,7.35550e-01,1.84466e-01,3.40637e-02,4.59425e-01,-3.01372e-01,-2.84935e-01,-4.05455e-02,-4.58534e-01,-2.14279e-01,
5.38078e-01,2.83679e-01,7.57875e-01,-1.83592e-01,5.93928e-02,3.18282e-01,3.19842e-01,-7.76143e-02,1.65386e-01,1.36105e-01,-7.56473e-01,-4.29460e-01,-9.02046e-02,-6.49870e-01,-3.75874e-03,5.14360e-01,-9.36198e-02,2.06812e-01,-2.67958e-01,1.97474e-01,2.54918e-01,2.33142e-01,4.39081e-01,2.46049e-01,3.25993e-01,
1.69511e-01,-1.77846e-01,-1.71683e-01,2.91929e-02,-2.13696e-01,-4.98623e-02,-3.43013e-01,-3.42156e-01,-2.61834e-01,7.18909e-02,1.47823e-02,8.54347e-02,-6.39962e-02,-2.36109e-01,-3.21949e-01,2.29423e-01,1.58912e-01,-2.74857e-01,-8.31238e-02,1.68521e-01,3.07676e-01,-1.89738e-01,-1.55332e-01,-3.30135e-01,-2.65889e-01,
-4.40944e-01,
4.41692e-01,
3.91345e-01,
7.11943e-01,
-2.56570e-01,
7.13381e-02,
-4.67127e-01,
-5.85797e-01,
-1.29410e-01,
-2.96557e-01,
3.53709e-01,
4.50063e-01,
5.31672e-03,
-7.74379e-02,
6.40152e-01,
2.11181e-01,
-1.58882e-01,
7.06292e-02,
-1.15747e-01,
4.03182e-01,
-6.59992e-01,
3.91564e-01,
3.68421e-01,
2.90969e-01,
7.49808e-02,
-4.60441e-01,3.96870e-01,-4.48766e-01,2.34750e-01,5.53949e-02,-2.50700e-01,3.19549e-01,4.64680e-01,1.36451e-01,-3.39303e-01,-4.86479e-02,9.04002e-01,-5.07156e-01,-3.10412e-01,8.50630e-02,-1.96625e-02,1.28044e-01,-2.77994e-01,-8.06055e-02,-2.78609e-01,1.25895e-01,6.71106e-01,-1.82202e-01,-1.91398e-01,1.26004e-01,
-2.65049e-01,-6.18408e-02,1.94686e-01,-3.00697e-01,-2.39771e-01,-1.03687e-01,-1.36921e-02,-2.97285e-01,-9.45440e-02,-3.22215e-01,-2.52324e-01,-6.50010e-02,-2.61246e-02,-2.27502e-01,-8.14610e-02,-6.00143e-02,2.33003e-01,-3.19460e-01,-1.86942e-01,-2.86443e-01,2.70795e-01,-2.08001e-01,2.51867e-01,-8.25278e-02,-1.73878e-01,
-2.09784e-01,3.93181e-01,-1.28255e-01,1.63465e-01,-2.59636e-01,2.54012e-01,7.68677e-01,3.66915e-01,1.97504e-01,-1.15221e-01,2.28648e-01,-2.06294e-01,2.45290e-02,2.02665e-02,-6.11097e-02,8.50273e-01,-1.68585e-02,-1.49238e-01,-1.46709e-01,-1.42551e-01,-2.42561e-01,1.10978e-01,-1.44885e-01,-3.83777e-01,-3.62618e-01,
-8.79445e-02,-1.05785e-02,8.98244e-02,-2.63667e-01,-1.82871e-02,-3.06585e-01,-5.43744e-01,1.97236e-01,1.84589e-02,2.17295e-01,2.79999e-01,3.20476e-01,2.00645e-02,-4.81956e-01,1.06493e-01,4.74694e-01,-1.73825e-01,2.17416e-01,1.94448e-01,-2.91025e-02,5.18125e-01,1.74864e-01,-1.94742e-01,-2.13880e-01,1.18901e-01,
-2.13128e-01,-1.47040e-01,2.03794e-01,-1.12090e-01,-7.28500e-03,2.31123e-02,1.90068e-02,1.88308e-01,2.85575e-01,-1.67418e-01,-3.51970e-01,6.20508e-01,-3.69711e-01,2.91450e-01,3.05871e-01,-1.63835e-03,1.30513e-01,-9.16560e-02,-5.23780e-02,-5.59428e-03,2.41343e-01,1.36787e-02,-3.72576e-01,2.62245e-01,2.05042e-01,
-5.60114e-01,2.50412e-01,4.02281e-01,-5.68488e-02,-1.55391e-01,2.53161e-01,-3.71500e-02,2.31156e-01,4.00853e-01,-2.52946e-01,3.19274e-01,-1.42555e-01,1.94105e-01,-5.17469e-02,-1.01576e-01,-2.86765e-01,-4.85385e-01,-3.55679e-01,-2.86624e-01,-3.18399e-01,9.61258e-02,1.00349e-02,-3.89551e-02,1.84608e-01,2.98176e-01,
-2.88837e-01,4.79510e-01,4.20729e-01,-1.10428e+00,-2.35919e-01,-3.75577e-02,-1.45115e-01,-2.27450e-01,6.52370e-01,2.86942e-01,2.09068e-01,4.65062e-01,-9.81419e-02,1.55971e-01,-3.28068e-02,4.26976e-01,-6.17682e-02,-1.72915e-01,9.97804e-02,-4.18685e-01,-3.95487e-01,-1.52356e-01,-3.02201e-01,-1.40933e-02,-1.07499e-01,
1.88737e-02,4.35924e-02,-7.02117e-02,-3.71084e-01,-6.09517e-04,-1.03800e-01,3.25687e-01,-1.11100e-01,1.38231e-01,1.17703e-01,3.66458e-01,1.20663e-01,2.71596e-01,2.40132e-02,8.76394e-02,6.95945e-01,-5.35289e-02,-1.25944e-01,1.17673e-01,-1.49712e-01,-4.63764e-01,1.25220e-01,-5.45437e-01,-1.16619e-02,3.04619e-01,
-1.13890e-01,3.56261e-01,-3.87352e-02,1.84190e-01,-2.06197e-01,-6.00275e-02,6.89657e-02,-8.79388e-02,-2.37807e-01,2.60929e-01,-4.14239e-02,-5.39030e-01,5.31596e-01,3.22392e-01,-2.69246e-01,1.92657e-01,-4.03824e-01,-1.92510e-01,2.75859e-01,-2.80034e-01,-1.91285e-01,3.11349e-02,-6.91471e-02,3.33615e-02,1.42663e-01,
6.81904e-02,-4.24131e-01,2.59179e-01,-1.85581e-02,-5.81024e-02,-8.00505e-02,-1.66825e-01,-7.17780e-01,3.68226e-01,2.40192e-01,-1.35914e-01,-3.25758e-01,3.08913e-01,3.18661e-01,3.15591e-01,-3.16098e-01,-2.20746e-01,-1.38442e-01,2.46106e-01,-7.21035e-02,-2.03771e-02,-1.11577e-01,-4.04465e-01,-2.57885e-02,3.44453e-01,
4.36948e-01,5.12479e-02,-1.96936e-01,3.84481e-01,-3.24633e-01,-1.45735e-01,-3.41664e-01,-2.80491e-01,-4.56929e-01,2.26763e-01,4.72686e-02,1.01769e-01,4.35640e-02,3.79978e-01,-2.03704e+00,-5.63294e+00,-5.19464e-02,4.52046e-01,5.84018e-02,1.58798e-01,-9.15416e-02,1.73070e-01,-2.83546e-01,4.26808e-02,2.75163e-01,
-1.20544e-01,6.40520e-02,2.12706e-01,1.95859e-01,-1.94162e-01,3.26451e-01,-1.20022e-01,2.08451e-02,1.88904e-01,3.32270e-01,1.15558e-01,7.23888e-01,1.98809e-03,-1.44361e-01,-2.80620e-01,-1.59361e-01,-9.76503e-02,-4.88482e-01,2.79895e-01,-3.32085e-01,2.73693e-01,3.00474e-01,-1.14318e-01,3.17682e-01,-2.98779e-01,
-2.73688e-01,3.06669e-01,4.02364e-01,-1.30076e-02,-9.03246e-02,3.08307e-01,-3.86531e-01,-1.44425e-02,2.69427e-01,-1.73203e-01,4.82187e-01,4.29699e-01,-4.75754e-01,-1.05387e-01,1.37524e-01,-6.79692e-02,-1.32993e-01,-4.27218e-01,8.20715e-02,-1.94883e-01,-3.33161e-01,-1.22477e-01,-2.50218e-01,3.51582e-01,-3.16984e-02,
6.64891e-02,-4.18435e-03,-1.30870e-01,5.58169e-02,-1.93120e-01,2.23002e-01,2.37252e-01,5.21291e-01,-1.31888e-01,-3.10743e-01,-3.14251e-01,-7.86664e-01,1.96668e-01,8.30484e-02,-3.36897e-01,1.10517e-01,-8.82876e-02,2.01861e-02,1.33084e-01,1.60535e-01,4.12197e-01,2.35376e-01,3.12110e-01,-1.11415e-01,2.48458e-01,
4.05539e-02,2.26963e-01,-5.74919e-01,6.60139e-01,1.76325e-01,1.61258e-01,5.53119e-01,5.39448e-02,-2.04518e-01,-1.70465e-01,4.02213e-01,-2.26067e-01,-3.06446e-01,3.58872e-01,-4.19522e-01,-6.75359e-01,3.35795e-01,6.69987e-02,-2.08428e-01,-1.63363e-01,4.75060e-02,-3.10637e-01,4.25858e-01,-1.29878e-01,-3.19796e-01,
2.05828e-01,-2.34903e-01,-2.38269e-01,-4.38516e-02,-8.10482e-02,-3.15054e-01,8.25754e-02,2.52592e-01,-1.74712e-01,1.66363e-01,8.65278e-03,4.06344e-02,-2.86997e-01,1.56429e-01,7.50948e-02,3.44788e-02,1.21898e-01,-1.41773e-01,-4.44840e-02,-2.74649e-01,9.04267e-02,-1.32370e-01,-3.61993e-01,-3.19884e-01,-8.35601e-02,
-1.18864e+00,-5.65138e-01,-1.20913e-01,-2.31372e-02,1.06340e-01,-2.10822e-01,-9.92731e-01,4.96727e-01,1.57666e-01,1.08449e-01,3.42935e-01,-1.63766e-01,8.18252e-01,-2.53251e-01,1.45000e-01,-7.43482e-01,-1.17329e-01,2.46318e-01,3.11459e-01,4.26763e-01,-9.47048e-02,2.87870e-01,-9.88368e-01,-3.34936e-01,-2.08256e-01,
-8.63257e-01,-4.41340e-02,-2.25562e-01,2.09507e-01,-2.19460e-01,3.11997e-01,4.76518e-02,-1.15361e+00,-4.48316e-02,3.22581e-01,4.89476e-01,-3.91116e-01,5.74305e-01,-7.56326e-01,-1.34371e+00,-8.17576e-01,-2.84047e-01,-3.16339e-01,1.07115e-01,-5.92370e-01,-4.61406e-01,1.29649e-01,1.34843e-01,-1.92346e-01,-3.14881e-01,
-5.76149e-01,1.19258e-01,2.83277e-01,-1.28599e-01,1.27693e-02,-2.70310e-01,-1.34024e-01,-5.86017e-01,6.06448e-01,2.59693e-01,4.72861e-01,1.14647e+00,-6.57585e-02,-4.68910e-02,-8.41205e-01,-6.10307e-01,-2.85452e-01,-7.88445e-01,2.86919e-01,-2.27642e-01,4.69520e-01,7.24767e-01,-5.87484e-01,-2.19945e-01,-2.00329e-01,
-1.60734e-01,-1.27753e-01,-2.17441e-01,3.22199e-01,3.43221e-01,-1.68763e-01,9.38817e-02,5.18499e-02,-3.03678e-01,1.81525e-01,2.28276e-01,-1.72096e-01,-2.73804e-01,-1.44654e-01,-1.36012e-01,2.36984e-02,-8.34953e-02,-2.73667e-01,3.19917e-01,9.20699e-02,-3.29534e-01,-2.20690e-01,-2.11232e-01,-6.64789e-02,2.92664e-01,
-4.53733e-01,2.81834e-01,6.23493e-01,-1.82753e-01,2.70236e-01,2.81458e-01,1.81021e-01,2.86223e-02,-2.52719e-01,8.55419e-02,9.13702e-01,-4.40864e-01,-7.93492e-01,-3.48708e-01,2.08799e-01,-1.33966e+00,2.58118e-03,-5.53688e-01,1.59200e-01,-6.82330e-01,3.83301e-02,1.07863e-01,-8.25169e-01,2.91731e-01,-3.05481e-01,
1.91155e-02,9.67882e-02,-1.56379e-01,-1.41048e-01,3.19439e-01,2.01315e-01,-8.59955e-02,1.61780e-01,-2.70158e-01,-2.12033e-01,1.32746e-01,-3.11354e-02,3.29109e-01,3.14848e-02,-2.59505e-02,-1.33578e-03,-9.08145e-03,-7.37661e-03,-2.18120e-01,-1.05413e-01,2.13245e-02,-1.60387e-01,-1.94397e-01,-1.51511e-01,3.57585e-02,
-1.81971e-01,5.00096e-01,-9.94596e-01,-1.23537e-03,4.98689e-02,8.50476e-02,9.85782e-02,-6.26815e-02,-1.51172e-01,2.99934e-01,4.89993e-01,1.38894e-01,1.94642e-01,-6.34344e-01,-3.36314e-01,-1.36991e-01,-3.15959e-01,-1.41852e-01,-8.49124e-02,4.41550e-01,-2.87949e-01,7.64842e-01,-3.09412e-01,-4.35763e-01,2.99649e-01,
-1.23716e-01,-9.16339e-01,1.80786e-01,-2.26797e-01,1.21739e-01,1.75516e-01,1.46982e-01,-2.06489e-01,9.37938e-01,1.27573e-01,-1.37240e-01,-9.63187e-03,1.71836e-01,-1.11688e+00,-3.28044e-01,9.38152e-01,-2.24889e-02,3.68535e-01,2.14909e-01,-3.16808e-01,-3.45675e-01,5.09045e-01,-9.62123e-02,7.90783e-01,2.31152e-01,
4.06454e-01,-2.60519e-01,7.70804e-02,-7.55737e-02,1.84846e-01,7.88333e-02,-3.13681e-01,-2.84068e-01,-1.25717e-01,-1.18874e-01,3.01913e-01,2.97974e-01,3.27010e-01,4.03371e-01,-1.21424e+00,-7.63027e-01,-3.72573e-01,-1.00759e-01,-1.04210e-01,-1.77782e-01,-1.27522e-01,-2.71326e-03,-5.28485e-01,5.16993e-02,1.66483e-01,
-3.82273e-02,
-3.36684e-01,
1.04191e-01,
6.54107e-02,
1.29026e-01,
2.57842e-01,
1.48932e-01,
3.62618e-01,
3.25809e-01,
1.98620e-01,
-4.87437e-01,
3.02765e-01,
1.44337e-01,
-3.30284e-02,
-4.70816e-01,
-2.29984e-01,
-2.97399e-01,
5.23410e-01,
-6.38283e-02,
-2.10489e-02,
1.56715e-01,
4.28822e-01,
9.45181e-02,
-7.51032e-01,
1.48392e-01,
-4.69160e-02,-6.93033e-02,3.66700e-01,1.03030e-01,-2.28776e-01,7.33023e-02,1.04580e-01,2.71975e-02,-2.84815e-01,-3.55708e-02,-6.72983e-01,1.27164e-01,-3.40234e-01,1.03166e-01,-1.39364e-01,2.52590e-01,-4.12441e-01,-2.11476e-02,2.24872e-01,-8.32274e-02,-9.65333e-02,-4.56300e-02,-2.12746e-01,1.82280e+00,5.47012e-01,
3.01961e-01,2.15306e-01,-3.86509e-02,7.44093e-03,1.33379e-01,-4.42626e-01,2.52514e-02,-1.22877e-02,-6.31870e-02,1.58323e-02,-3.10570e-01,-2.04211e-01,-1.25867e-01,-1.79027e-02,5.56764e-02,2.14476e-01,4.32142e-01,1.07981e-01,-4.01965e-01,7.33305e-02,-1.32277e-01,-1.60603e-01,-1.52709e-01,8.84480e-02,3.25085e-01,
-1.38840e-01,-1.66613e-01,1.38595e-04,-7.96521e-02,-1.01850e-01,6.24537e-01,-7.94087e-02,1.08035e-01,2.37033e-01,2.71711e-02,3.76363e-01,1.98974e-01,-6.26264e-02,1.26079e-01,-1.44228e-02,6.12040e-02,-5.40007e-01,8.04649e-01,6.40923e-01,2.67939e-01,5.20200e-01,1.67945e-01,1.27567e-02,-1.91695e-01,-6.70942e-01,
-1.71442e-01,7.81013e-02,-7.30377e-02,2.29434e-02,-4.74199e-02,-1.72921e-01,4.19247e-02,-3.34582e-03,-8.99146e-02,-1.08661e-01,-1.10690e-01,1.99486e-01,3.57750e-01,-7.16533e-02,5.95445e-02,-9.51299e-02,2.50400e-01,-4.03604e-01,-6.03939e-01,-2.47395e-01,-2.26531e-01,-5.85525e-02,2.19812e-01,-1.16547e-01,3.49400e-01,
1.00772e+00,2.74806e-01,-8.83287e-03,2.60746e-01,5.03878e-01,1.70523e-01,-2.41089e-02,3.72292e-01,-1.05149e-01,1.21121e-01,-9.97457e-01,1.60728e-02,9.37071e-02,-4.03575e-03,7.39351e-02,5.72897e-02,6.56971e-02,1.60131e-01,-3.39580e-01,1.91608e-01,-3.49080e-01,1.71262e-01,-1.43625e-02,-1.94549e-02,1.44388e-01,
2.68193e-02,-2.12550e-01,-1.22382e-01,2.74838e-02,9.76411e-03,4.86814e-02,-5.49998e-02,-1.13740e-01,2.05939e-01,-1.97539e-01,1.69685e-01,2.27457e-01,1.86434e-01,-8.08026e-02,-1.18675e-02,-1.43967e-01,-1.54937e-01,-3.19842e-02,-3.58107e-01,-2.98142e-01,3.11173e-01,-1.32085e-01,-2.27863e-02,5.99286e-03,-2.31827e-01,
2.00991e-01,-1.70572e-01,1.41996e-01,1.35463e-02,3.46852e-02,-3.63550e-01,2.56769e-02,-1.58018e-01,-3.26502e-01,2.30256e-01,3.62204e-01,-3.60091e-01,2.48358e-01,-3.37997e-01,-7.30285e-02,5.06202e-02,-9.14360e+00,9.83415e-01,-1.38760e-01,1.17546e-01,1.48169e-01,-1.33527e-01,-5.32123e-01,2.34882e-01,-3.19786e-01,
-6.84124e-01,9.11312e-02,4.75341e-02,-8.13106e-02,-1.35712e-01,-8.46399e-02,7.70718e-01,-3.45049e-01,-3.64374e-01,5.65236e-02,-2.38198e-01,-4.65676e-01,-9.37926e-02,7.62750e-01,-4.53175e-01,-2.49090e-02,-1.49858e-01,-8.74686e-01,-9.67082e-01,-1.60846e-01,-4.49396e+00,1.79723e-01,-2.03262e-01,-2.62340e-01,4.81118e-01,
-5.77680e-02,3.56157e-02,6.94164e-03,1.55729e-01,-7.35842e-02,2.01845e-01,-3.86649e-02,1.29326e-01,4.23334e-03,9.54153e-02,1.86612e-01,-6.14368e-02,1.15958e-01,4.25823e-02,-1.11929e-01,-1.24257e-01,6.36142e-02,2.41534e-02,4.19036e-02,3.39827e-01,4.49744e-01,3.23684e-01,-4.92004e-01,-2.52370e+00,-4.84254e-01,
-1.12840e-01,3.78592e-02,2.38446e-02,5.03763e-01,-2.32587e-03,-7.01586e-02,4.26982e-02,1.15865e-01,-6.41796e-02,-7.75779e-02,-1.55632e-01,6.24147e-02,-5.44477e-02,1.62323e-01,-7.98489e-02,6.15207e-02,6.79794e-02,2.71474e-03,-1.38044e-02,-7.15288e-03,6.76046e-02,4.01482e-01,1.03118e-01,-3.52142e-01,4.72459e-02,
-2.24093e+00,7.65234e-03,-4.11156e-01,-1.49063e-01,-2.67149e-01,-1.24365e-01,1.30457e+00,-4.27123e-01,1.31254e-02,-2.96211e-01,-5.35572e-01,-8.85561e-01,-1.13394e+00,5.03135e-01,-8.26819e-01,1.86007e-01,-2.26799e-01,-7.90173e-01,6.64736e-01,3.29573e-01,2.32026e-01,2.86319e-01,-3.99167e-01,9.06971e-01,5.93149e-01,
3.84527e-02,-1.18006e-01,-2.17219e-01,-6.62468e-02,-4.04860e-02,2.12315e-01,-2.23863e-02,4.19643e-01,-6.73147e-02,6.79668e-02,2.39577e-01,2.03138e-01,-5.19143e-01,2.22653e-01,5.95517e-02,2.11378e-01,6.73071e-02,-3.83651e-01,-1.34216e-02,-1.84914e-01,-7.42490e-01,3.42280e-01,2.99509e-02,-7.29474e-01,-6.33274e-01,
2.79826e-01,-2.89964e-01,-3.16702e-01,-2.62274e-01,1.66801e-01,9.49275e-02,-1.19181e-01,1.12740e-01,3.36643e-02,-2.68210e-01,6.71133e-02,-1.78703e-01,1.74115e-01,1.91328e-01,-1.06394e-01,1.78181e-01,1.28351e-01,2.94794e-02,-1.98320e-01,-2.52222e-01,-2.24011e-01,3.43260e-02,-2.04591e-01,-9.01906e-02,-1.51817e-01,
-8.58760e-02,-3.34280e-01,-8.50803e-02,-3.34921e-01,1.85066e-01,-9.56059e-04,3.52463e-02,-2.20088e-01,-2.42975e-01,-2.23261e-01,-1.29724e-02,-3.46000e-01,-1.77808e-01,-7.48640e-02,-3.22325e-01,-1.98672e-01,-3.06021e-01,1.62192e-01,2.87397e-01,-4.79919e-02,-2.66794e-01,3.16175e-01,2.76784e-01,-8.82238e-02,-1.69560e-01,
5.79440e-01,-1.43974e-01,-1.56082e-03,7.56083e-02,1.49283e-01,7.37231e-02,1.05522e-01,2.26958e-01,-9.56760e-02,1.59689e-01,-2.74194e-01,-1.27708e-01,1.81450e-01,-5.14037e-02,-5.47789e-02,2.85884e-01,1.58809e-01,-3.05772e-02,-2.62075e-01,-2.11201e-01,4.05170e-02,-9.05539e-02,-1.70784e-01,3.12610e-02,1.55496e-01,
4.40993e-02,3.12506e-01,-9.78634e-02,-1.80834e-01,5.96238e-02,6.58465e-02,9.24458e-02,-2.17876e-02,-1.11631e-01,8.73029e-02,6.19679e-02,2.66178e-01,9.59090e-02,-1.03847e-01,2.84872e-02,5.61888e-02,-5.16856e-02,-2.59152e-01,-8.62130e-02,-2.94847e-01,-3.69942e-01,-1.42010e-01,-1.02685e-01,1.16151e+00,1.00938e-02,
1.55485e-01,-2.67647e-01,1.88459e-01,-4.92623e-02,8.59905e-02,1.78029e-01,-6.66999e-02,-2.67155e-01,8.75110e-02,-2.15014e-01,1.24519e-01,1.13080e-01,-2.27811e-02,-1.11289e-01,3.16998e-02,1.69034e-02,7.56646e-02,2.38460e-01,-5.49464e-02,-2.41853e-01,-2.35253e-01,2.28987e-01,1.04505e-02,1.79213e-02,-1.86702e-01,
-1.93777e-01,-2.68022e-01,-1.41414e-01,-1.48338e-01,6.71380e-02,-3.32352e-01,-4.67756e-02,-6.10701e-02,8.83909e-02,4.00383e-02,1.26443e-01,1.48322e-01,-1.57353e-01,-3.22136e-01,-2.27292e-01,-6.34354e-02,-9.58691e-02,-2.81159e-01,-1.36800e-01,-3.22016e-01,-3.09570e-01,2.56756e-01,-3.15466e-01,-1.53868e-01,-1.00894e-01,
-1.00558e-01,2.23598e-01,1.19043e-01,5.23509e-01,-3.02410e-02,-1.39647e-01,-6.20364e-02,-8.18707e-03,-3.60137e-02,-1.00021e-01,-2.48544e-01,-1.19109e-01,-9.56891e-03,1.22173e-01,-8.15500e-02,-2.30927e-01,8.72039e-02,1.75232e-02,5.40830e-04,-1.03977e-01,9.96541e-02,3.77470e-01,1.27377e-01,-6.40942e-01,2.43759e-01,
-1.86156e-01,3.09112e-01,2.26996e-02,-5.30391e-02,-6.15909e-03,1.66265e-01,-1.28259e-01,3.87501e-01,-5.22786e-01,2.22170e-01,-6.85977e-02,3.32578e-01,-2.96634e-01,2.79006e-01,-8.65365e-01,-1.07117e-01,1.38032e-01,-6.08355e-02,-3.71030e-01,2.07638e-01,2.12808e-01,-5.87788e-01,-1.41348e-01,-4.31379e-01,1.85999e-02,
1.98780e-01,1.03557e-01,3.06540e-02,-1.34368e-01,-5.78928e-02,3.15285e-01,3.52425e-01,7.03694e-02,-6.43814e-02,-8.59697e-02,1.45568e-01,-6.60496e-03,4.34308e-01,-6.02039e-02,-5.68489e-02,-4.08857e-03,-1.51154e-01,-4.25540e-01,8.80015e-02,-6.43904e-02,2.53821e-01,8.99486e-02,1.03330e-01,2.21595e-02,-8.83460e-02,
9.99928e-02,-1.35479e-01,-2.55845e-01,-5.76083e-02,-9.96906e-02,3.78386e-01,-2.26286e-01,-2.83062e-01,-1.80571e-01,-1.31436e+00,4.54885e-01,-4.18769e-01,-8.01820e-02,-5.20943e-01,6.05401e-01,4.62814e-02,-2.88756e+00,2.30630e-01,-1.10087e+00,-3.15611e-01,-1.10436e+00,2.21241e-01,2.95710e-01,-9.82401e-01,-9.51093e-01,
5.55315e-02,-2.29267e-01,-2.17593e-01,5.09872e-02,-1.24606e-01,4.99672e-02,-2.72171e-02,1.94049e-01,1.50922e-01,-4.57615e-01,1.87325e-01,1.02704e-01,-1.85701e-01,-1.67547e-01,3.37708e-01,2.16010e-01,4.43332e-02,1.80436e-01,-4.58544e-02,6.43723e-02,2.19135e-01,-2.38332e-01,-7.78637e-02,5.61214e-01,-8.75621e-02,
2.75964e-01,-1.16586e-01,-3.15211e-01,3.23003e-01,-2.14499e+00,6.91929e-01,3.66169e-01,3.08491e-01,-2.20633e+00,-2.50094e-01,1.08419e+00,3.90331e-01,-3.38159e-01,-4.98353e-01,1.03668e+00,1.81305e-01,-1.29893e+00,-2.74868e-01,1.07030e-01,-2.97102e-01,2.89949e-02,6.89613e-01,6.87946e-01,-5.51764e+00,-4.17539e+00,
3.02654e-02,5.81004e-02,6.94363e-02,-6.96150e-03,-1.99648e-01,1.06555e-01,9.91414e-03,9.10057e-02,1.70108e-01,1.82370e-02,-4.99150e-02,3.11789e-01,-1.05948e-02,-5.90247e-03,-1.00707e-01,1.57199e-01,-3.91480e-01,-7.33227e-01,1.88668e-01,3.31734e-03,-7.48546e-02,1.50622e-01,-2.18725e-02,-1.93891e-01,-1.32932e-01,
-7.09586e-03,
2.85535e-01,
1.18458e-01,
1.71293e-01,
-3.42940e-01,
4.85786e-02,
6.58098e-02,
-9.28098e-02,
8.37995e-02,
1.20194e-02,
4.45872e-02,
-7.24643e-02,
-3.98285e-01,
-2.23722e-01,
-1.33979e-01,
8.57507e-02,
3.40065e-02,
-1.79022e-01,
4.69830e-02,
-2.37724e-02,
4.21491e-02,
6.36223e-02,
-4.77850e-01,
5.55053e-03,
-9.72817e-02,
1.71425e-02,-1.84915e-01,-2.43623e-01,-1.52961e-01,2.63840e-02,5.94660e-02,-4.89846e-02,6.67062e-02,-1.92137e-02,1.81391e-02,-5.14464e-02,3.85964e-02,2.05757e-01,-3.74767e-01,-2.95180e-02,-5.48282e-02,8.17555e-03,-2.55218e-01,-5.64848e-02,1.99348e-02,1.62714e-02,-1.29018e-04,8.75725e-01,-2.69378e-02,-1.19421e-01,
-4.39679e-02,-1.87048e-01,-1.20759e-01,-8.76184e-03,-3.38683e-03,3.17340e-02,-7.26173e-02,-1.36063e-01,3.82852e-02,-2.31183e-02,9.78257e-02,5.43807e-02,4.60941e-01,-2.31465e-01,1.51221e-01,-1.82188e-03,-1.76372e-01,-1.28454e-01,-3.09897e-02,-3.42649e-02,-1.49508e-01,-5.91118e-01,8.61133e-01,-4.16316e-02,-8.81676e-02,
-1.61946e-02,-1.13443e-01,-2.01018e-01,-3.64104e-02,-2.84178e-02,1.59545e-02,-9.37357e-02,2.21004e-02,1.09694e-01,-1.50713e-01,-5.65808e-03,7.93383e-02,8.21429e-01,-3.81889e-01,6.25485e-02,-9.62930e-02,3.19746e-02,3.92503e-01,6.35297e-03,-3.32061e-01,-8.33618e-03,-2.46722e-02,9.23977e-01,2.41477e-02,-1.31386e-01,
-3.83275e-02,-1.74854e-01,-1.38869e-01,-6.54115e-02,-1.00906e-01,2.60015e-02,-7.62992e-02,-4.28176e-02,1.76388e-02,-3.64474e-02,7.51047e-03,1.92231e-02,4.67047e-01,3.29827e-01,2.99441e-01,2.06930e-02,-8.05013e-02,1.18969e-01,-6.19272e-03,-2.70437e-02,-1.42743e-01,-6.53082e-02,7.47300e-01,-1.97783e-02,-7.35380e-02,
-8.04755e-02,-1.20053e-01,-1.91027e-01,-7.71803e-02,-2.38497e-02,4.00528e-02,-7.43904e-02,-2.27287e-03,1.24857e-01,-8.87352e-02,4.12733e-03,6.08891e-03,3.49216e-01,-2.95485e-01,7.87588e-02,-1.15855e-02,2.21817e-02,2.48898e-01,9.66779e-03,-1.02102e-01,-5.01420e-02,-4.90364e-02,1.01214e+00,4.10234e-03,-9.86707e-02,
-1.07881e-02,-1.64959e-01,-9.01398e-02,-5.27921e-03,-2.16029e-01,-2.30362e-02,-1.00226e-01,-3.88199e-02,2.84667e-03,-9.88914e-03,-2.21122e-02,2.51314e-02,2.81916e-01,-2.58329e-01,5.21203e-01,-4.22085e-06,1.98542e-02,2.29776e-01,-2.54007e-02,-3.58535e-02,-2.12587e-01,-4.24450e-04,-1.17583e+00,-7.69854e-03,-6.96189e-02,
-1.30853e-01,-1.23832e-01,-2.16816e-01,-1.15772e-01,-1.82936e-02,5.63351e-02,-2.21555e-02,7.00025e-02,1.85365e-01,9.08155e-02,-1.16349e-02,-7.00803e-02,1.88135e-01,-3.16951e-01,3.72961e-02,-2.28197e-02,2.23433e-02,-2.05218e-01,-1.83099e-01,-3.79949e-03,-3.70755e-02,-3.05616e-02,1.42278e+00,7.66655e-02,-7.19600e-02,
-2.97728e-02,-1.75939e-01,-1.40941e-01,-7.31197e-02,-1.11560e-01,1.91974e-02,-8.31528e-02,-4.46103e-02,9.83629e-03,-4.95411e-02,9.42649e-03,1.58091e-02,2.29180e-01,4.04184e-01,3.13956e-01,1.04127e-02,-5.49239e-02,2.26996e-01,6.20241e-03,-4.53190e-03,-1.36266e-01,6.28688e-04,7.47038e-01,-1.95080e-02,-7.65010e-02,
-1.35633e-01,-1.03032e-01,-1.69027e-01,-1.34453e-01,7.75241e-04,8.10353e-02,-6.04186e-02,1.55202e-02,1.25959e-01,-2.47512e-01,1.01148e-02,1.34328e-02,2.83549e-01,9.92363e-03,8.72159e-03,1.92923e-01,-7.59627e-03,2.44963e-01,2.13411e-01,1.43893e-02,-2.91620e-02,-2.54863e-02,8.78773e-01,-8.62136e-03,-1.10515e-01,
3.25697e-01,
2.81329e-01,
2.76699e-01,
-1.59332e-01,
-1.75368e-01,
2.71408e-01,
2.77325e-01,
-1.55983e-01,
2.45007e-01,
