// Neural Network File Format by Kyle Julian, Stanford 2016
6,4,9,25,
4,25,25,25,25,25,9,
0,
-8000.000000,-100.000000,-100.000000,0.000000
8000.000000,100.000000,100.000000,40.000000
0.000000,0.000000,0.000000,20.000000,-4.647677
16000.000000,200.000000,200.000000,40.000000,22.514692
1.69133e+00,3.44274e-01,1.43484e-02,3.06951e-02,
2.58150e+00,-6.69038e-02,-1.83149e-02,-7.83479e-01,
3.35470e+00,-5.04299e-01,6.22896e-01,-1.99315e-01,
-3.72013e+00,-1.16610e-01,6.41520e-02,-1.15098e-01,
1.88017e+00,-4.18428e-01,7.22555e-01,3.14748e-01,
-3.87891e-01,8.15066e-01,-7.92965e-01,2.93091e-02,
4.81731e+00,6.31867e-02,-1.27050e-01,-1.21893e-01,
2.45100e+00,-1.01967e-01,-7.15277e-03,-8.71915e-01,
2.19137e+00,-1.10706e-01,3.84102e-02,-5.68198e-01,
1.33604e+00,5.60427e-03,-2.47082e-02,-2.71715e-01,
1.24344e-01,-1.69465e-01,-6.87478e-01,5.12342e-03,
-3.59174e+00,1.99669e-01,-8.44364e-02,-6.00428e-01,
-4.40166e-02,1.38730e+00,-4.82394e-02,1.37342e-02,
-3.12087e+00,3.52823e-01,-2.00787e-01,2.61627e-01,
-7.93989e-01,-6.45383e-01,6.47686e-01,-2.52557e-02,
1.89789e+00,-2.73911e-01,7.91890e-01,-1.28132e-01,
-2.84341e+00,1.15434e-01,1.62886e-01,-7.55379e-02,
-3.28615e+00,3.14833e-01,-1.96250e-01,2.48368e-02,
-1.72274e-01,-1.02080e-01,1.30023e-01,5.54186e-01,
1.05956e-01,-1.27573e+00,3.76268e-01,2.81738e-01,
1.02045e+00,4.37327e-02,-1.64350e-01,5.09049e-01,
2.73359e-01,1.06433e+00,8.83462e-03,-2.42691e-03,
2.18102e-01,1.86176e-01,-1.87418e-02,7.79121e-02,
-2.87250e+00,1.77859e-01,-8.53699e-02,-3.85719e-01,
-2.38580e+00,5.09924e-03,2.03781e-01,-7.98784e-01,
2.47191e-01,
-1.30195e-01,
1.38284e-01,
6.38201e-02,
1.22738e-01,
-7.67042e-02,
1.51681e-02,
-3.97065e-01,
4.25052e-03,
1.88706e-01,
3.36290e-01,
-2.82645e-02,
-2.19657e-01,
-3.57987e-03,
-1.33976e-01,
1.04720e-01,
-2.16168e-01,
2.33456e-01,
2.24000e-01,
-1.42082e-01,
1.90910e-01,
1.30053e-01,
-2.53987e-01,
9.89776e-02,
-1.91913e-01,
6.82701e-01,2.19692e-01,4.48838e-01,6.39618e-01,-3.83435e-01,-3.84080e-01,-5.78657e-01,2.89149e-01,-2.67904e-01,7.12733e-01,-3.50165e-01,-3.77173e-01,-1.16088e+00,4.38938e-01,-4.38500e-01,-3.17162e-02,1.42230e-01,-6.44452e-01,3.07719e-01,-2.44093e-01,8.39646e-02,9.86988e-01,4.60861e-02,-3.36942e-01,-2.52514e-01,
8.03564e-02,-4.40468e-01,1.23595e-01,-2.60110e-01,2.86422e-01,2.26326e-01,-3.29318e-01,1.10037e-01,-3.18390e-01,-7.26150e-02,2.72321e-02,-1.75446e-01,-1.93777e-01,-1.29861e+00,6.31751e-02,8.72197e-02,2.11956e+00,2.19892e-01,-1.41648e-01,6.67612e-01,3.18255e-01,-1.36814e-02,-2.46207e-01,-4.13312e-01,-1.61126e-01,
-2.05224e-01,2.88777e-01,-1.45662e-01,7.94018e-01,-1.04454e+00,-1.04642e-01,-1.26910e+00,-1.10780e+00,1.25831e+00,-1.35586e-01,1.16805e-01,-1.95118e-01,4.51731e-01,2.80685e-01,2.54372e-01,5.64423e-01,-4.17495e-02,-2.84258e-01,-1.14722e-01,-1.88389e-01,1.62400e-01,-2.25722e-02,3.22816e-01,-4.95035e-02,5.37090e-01,
-2.27271e-01,1.88512e-01,1.21492e-01,2.76771e-01,-9.58486e-02,-6.16690e-01,-4.02082e-01,2.92504e-01,4.00358e-01,1.33143e-01,-7.35967e-02,3.99618e-01,-8.37711e-01,-3.34187e-01,-6.22148e-01,-1.21274e-01,4.75909e-01,-4.07115e-01,1.58302e-01,-1.40453e-01,3.32769e-01,1.40143e+00,-2.39806e-01,-1.33631e-01,-5.80331e-02,
4.57778e-02,-5.05663e-01,-8.98029e-01,7.92932e-01,-3.70576e-01,-2.09692e-01,6.91100e-02,-1.71061e-01,-1.55685e-01,4.22345e-01,6.50996e-01,3.75395e-01,1.65800e-01,-5.65350e-01,-8.36183e-01,-2.89832e-01,1.31669e-01,3.67574e-02,-7.02970e-03,-6.54263e-01,7.07860e-01,3.04051e-01,5.68417e-02,3.85011e-01,1.81062e-01,
-8.06446e-01,-3.83144e-01,1.16872e-02,2.73029e-01,-7.09773e-01,4.38535e-02,-8.60552e-02,-7.05115e-01,-3.45883e-01,1.77180e-01,6.49811e-01,5.81144e-01,-2.07625e+00,-6.97411e-01,8.56348e-02,-9.79007e-01,3.34983e-01,-2.26732e-01,6.54659e-02,-2.87336e-01,6.86313e-01,1.40039e-01,-2.29843e-01,7.47669e-01,3.92675e-01,
-2.89640e-01,2.46082e-01,3.64199e-01,-6.30191e-02,-2.21442e-02,-9.93705e-02,-1.68037e-01,6.14654e-01,3.58566e-01,-1.63463e-01,-4.45865e-02,-5.14027e-01,7.33300e-02,-9.24471e-02,-9.20099e-02,2.37984e-01,3.18356e-01,-1.17775e-02,1.95831e-01,-3.15757e-01,-3.69254e-01,-6.38037e-01,1.79107e-01,6.20497e-03,-2.85115e-01,
-1.95621e-01,1.67031e-01,-4.44016e-01,-2.32437e-01,-2.40383e-01,1.87931e+00,-6.89455e-01,-4.97775e-01,3.40435e-01,7.14605e-02,-1.35306e+00,-1.20174e-02,-1.08569e+00,-3.27172e-02,1.91500e-01,-3.51770e-01,-8.48046e-02,4.25982e-01,2.59250e-01,-3.79673e-01,-1.01224e-01,1.31003e-02,2.54949e-01,9.79147e-02,2.35892e-01,
6.01258e-01,8.62333e-03,7.43906e-02,-1.33189e+00,3.76573e-02,-2.62201e-02,-9.14591e-01,1.06820e+00,-6.39853e-03,1.07051e+00,1.76804e-01,-4.25314e-02,-1.43140e-02,-6.66224e-02,7.85653e-02,-6.79182e-02,1.03817e+00,-7.56310e-01,-6.53936e-02,-3.73927e-02,3.80161e-02,1.94555e-02,1.09494e-01,-4.12253e-01,1.78898e-02,
-2.46701e-01,2.88211e-03,4.63766e-01,-5.57494e-01,5.21798e-02,-3.86573e-01,-4.35528e-01,-3.41821e-01,-6.82196e-02,-2.00844e-03,1.47201e-02,-7.94062e-01,-1.37001e-01,5.03727e-01,3.56798e-01,7.35017e-01,-1.01002e-01,1.27241e+00,-1.63699e-01,-5.09202e-01,-1.39117e-01,4.28891e-01,-2.45462e-01,8.73192e-02,-5.51272e-02,
2.15451e-01,2.66804e-01,-4.37442e-02,5.34810e-01,-2.54286e-01,-3.29887e-01,2.65420e-01,-9.22291e-01,-1.50233e-01,4.39278e-01,-3.80867e-01,-6.50187e-01,-4.70751e-02,-1.69659e-01,6.89284e-01,-9.19383e-02,4.13393e-01,-2.21001e-03,-1.26912e+00,2.04208e-01,4.69445e-01,-1.46188e-01,-3.16592e-01,2.57846e-03,4.05649e-01,
7.10711e-01,1.16204e-01,-4.72646e-01,1.28052e-01,-3.74823e-01,-6.55950e-02,-2.22887e-03,-2.10395e-01,-3.21561e-01,7.69503e-04,-4.01015e-01,1.96370e-01,1.01868e-01,-3.27350e-01,-5.60886e-01,-3.59285e-01,1.24415e+00,6.66378e-01,-3.41869e-01,1.98129e-01,3.42023e-01,-1.64248e-01,5.59106e-03,-4.86121e-01,3.84722e-01,
3.15217e-01,-4.21336e-01,3.11315e-01,8.64945e-01,8.61126e-02,5.46167e-01,8.74939e-01,-1.11979e-01,-1.89618e-01,2.35072e-02,-1.34089e-01,-2.02540e-01,-1.20569e+00,-4.88766e-01,-7.14036e-02,-2.04475e-01,1.17181e-01,-2.93307e-01,2.78903e-02,-5.72297e-02,2.42910e-01,1.33810e+00,1.31689e-01,-5.82160e-04,-2.98203e-01,
4.81406e-01,1.28537e-01,7.31075e-01,4.27692e-01,-4.57997e-01,-8.41036e-01,1.77808e+00,1.75902e-02,9.31066e-02,3.04324e-02,2.69390e-01,-2.36991e-01,6.32087e-02,2.11027e-01,5.17381e-01,1.88801e-01,-3.09506e-01,-9.89152e-01,4.98153e-01,-3.69024e-01,2.81243e-01,1.00723e-01,-1.41253e-01,9.81662e-02,-1.62389e-01,
1.47201e-01,-4.72536e-01,-1.18048e-01,6.97176e-01,3.92808e-02,3.99093e-01,-7.82466e-01,2.14883e+00,2.52495e-01,4.40451e-01,-1.74985e-03,-6.43493e-02,-2.45618e-01,-1.12489e+00,4.45203e-01,-1.61950e-01,3.17425e-01,1.09374e-01,9.98378e-01,-4.17577e-01,1.29632e-01,1.52376e-01,-1.00084e-01,-5.91707e-01,3.22448e-01,
-3.03019e-01,-3.15249e-01,-2.24335e-01,-2.57665e-02,7.65314e-03,-7.03139e-01,-2.41112e-01,-4.00752e-01,-1.81151e-01,1.05131e-01,1.13714e+00,5.67374e-01,2.71901e-01,-2.01414e-01,5.44657e-02,-1.48915e-01,6.81389e-02,1.27726e-01,-6.79130e-01,3.99138e-01,3.53811e-01,4.43443e-01,8.68243e-03,5.43180e-01,-3.99509e-01,
2.20836e-01,-1.21938e-01,-1.68348e-01,-1.44709e-01,2.87398e-01,-2.91296e-01,-2.93032e-02,1.68892e-01,-2.73363e-01,-1.16740e-01,2.74776e-01,-1.32081e-01,2.35738e-01,-1.57648e-01,-2.22180e-01,-9.76785e-02,2.90489e-01,4.64253e-02,1.75034e-02,1.14727e-01,-2.80193e-01,-1.13013e-01,3.41578e-02,2.30328e-02,-2.70503e-01,
-2.31665e-01,1.25329e-01,1.40144e-01,1.21766e-01,-1.08156e-02,7.83613e-01,7.66122e-01,3.91864e-01,2.78279e-01,-7.04129e-02,4.88432e-01,1.35286e-01,3.84065e-01,-7.84905e-01,-1.18086e-01,-7.04834e-01,-2.97548e-01,5.15861e-02,3.01118e-01,-6.05199e-01,3.31870e-02,-4.98410e-02,1.04539e-01,8.49523e-01,3.86914e-01,
3.11689e-01,1.28091e-03,-7.91992e-03,-2.88742e-01,2.20609e-01,6.09770e-02,-1.02948e-01,1.78515e-01,-2.54922e-01,-4.59263e-01,8.34396e-02,-8.02670e-01,8.04939e-02,9.19387e-01,5.11061e-01,-1.95463e-01,-4.96217e-01,2.62272e-01,6.85770e-02,-1.42732e-01,-7.68510e-02,-6.26155e-02,-2.66939e-04,-1.22499e-01,-1.43248e-01,
-2.46366e-01,4.38584e-01,-2.61848e-01,2.40373e-01,7.88451e-01,9.45504e-01,3.26475e-01,-5.74395e-01,6.18701e-01,1.31264e-01,-5.94255e-01,-8.95295e-02,-6.89214e-02,5.20802e-01,-6.56348e-01,5.97708e-01,-4.34613e-02,-4.86378e-01,-2.40595e-01,1.29614e-01,-4.31572e-01,7.12503e-02,2.93211e-01,-2.45200e-01,-5.13359e-01,
-1.20166e-01,-8.16441e-01,-7.03139e-01,5.80953e-01,-5.41632e-01,3.11086e-01,-3.27182e-01,-5.55516e-01,-6.69860e-01,-7.81649e-02,5.96229e-01,1.05741e+00,6.53687e-01,-7.59102e-01,-3.82543e-01,-6.67523e-01,-5.71176e-01,-2.38958e-01,-5.79083e-01,2.89593e-01,8.63600e-01,-1.91868e-01,1.51149e-01,6.57510e-01,6.27280e-01,
-7.72088e-01,-4.88035e-01,9.26473e-02,1.62745e-01,-5.72181e-01,-9.36140e-01,4.45393e-01,9.85707e-01,-1.21170e-01,3.92916e-02,5.97216e-01,-2.36306e-01,-6.07992e-01,3.34855e-01,6.43292e-01,4.25267e-02,-7.25593e-01,-5.27746e-01,3.44358e-01,1.38585e+00,-2.15725e-01,1.37766e+00,1.98983e-01,2.75893e-01,3.80305e-01,
-2.52548e-01,6.80036e-01,1.75929e-01,-5.88343e-01,-4.01633e-01,3.05405e-01,4.24350e-01,-5.06874e-01,5.83391e-01,-7.60307e-01,-4.98323e-02,4.13996e-01,-2.30915e-02,5.48798e-01,-1.23384e+00,-8.04235e-01,-2.92389e+00,5.13405e-01,7.93779e-01,1.05911e-01,-1.20281e-01,-5.90453e-01,2.27738e-01,1.25950e+00,7.73111e-02,
-8.01964e-01,-8.64381e-02,8.97216e-01,5.29680e-01,-4.70231e-02,3.78739e-02,-1.40349e+00,9.37912e-01,9.23943e-01,-3.85031e-01,-1.60663e-02,3.14771e-01,-2.79595e-01,-2.97397e-01,-3.02900e-01,-1.63368e-01,-1.17980e+00,6.98724e-01,-1.21366e+00,1.03193e-01,1.36742e+00,2.02581e-01,-1.26366e-01,5.44706e-01,4.35613e-01,
-4.60372e-01,8.54785e-01,1.66170e+00,-2.23130e-01,-3.99514e-01,-4.30381e-01,3.90678e-02,-3.53817e-01,1.85415e-01,-5.21144e-01,1.23289e-01,-3.12914e-01,-1.23473e-01,8.38186e-01,-3.94628e-01,-7.89084e-02,-6.82351e-01,-4.27589e-01,-2.58585e-01,6.39361e-01,-3.79002e-01,7.17975e-01,3.18000e-01,-1.71541e-01,-3.01619e-01,
-2.67696e-01,
3.18058e-01,
1.29221e-01,
1.94255e-01,
-2.96758e-01,
1.47563e-01,
5.38358e-01,
4.40023e-02,
3.83041e-01,
1.19958e-01,
3.38333e-01,
3.57327e-01,
-1.57596e-01,
-2.18431e-01,
-6.19717e-02,
-3.37461e-02,
-2.56505e-01,
1.52893e-03,
3.95559e-01,
3.75938e-01,
6.49038e-02,
-7.75700e-02,
-2.13429e-01,
-3.36548e-01,
-2.29355e-02,
2.45309e-02,8.35326e-01,4.88609e-01,3.89750e-01,3.40549e-01,2.55191e-01,-6.25115e-01,-9.33447e-01,-4.86042e-01,-1.12140e-01,-2.08185e-01,2.90647e-01,-5.00305e-01,-2.28681e-01,-7.45609e-01,1.63500e-01,7.62444e-02,1.00050e+00,3.67301e-01,-6.52531e-01,8.35344e-02,-4.31359e-01,-3.96113e-01,1.67168e-01,-8.16885e-01,
4.00458e-01,-1.25897e-01,-1.32680e-01,3.94006e-01,3.66003e-01,-6.09343e-01,4.44351e-01,-3.24253e-01,1.78747e-01,-1.90047e-01,-1.77277e-01,-6.32466e-01,-9.42607e-02,1.40776e-01,2.39144e-01,-5.34208e-01,-4.85550e-02,3.74770e-02,-3.24566e-01,4.03280e-01,-3.53671e-01,1.58958e-01,1.01385e+00,-8.47295e-01,4.78101e-01,
2.20780e-02,1.51247e-01,1.10449e-01,-7.94888e-01,7.02150e-01,-9.32163e-02,2.71032e-02,-1.07291e+00,3.69101e-01,-2.00606e-02,2.83431e-01,5.90739e-01,4.49826e-01,-1.96187e-01,1.22875e-01,-5.23203e-02,-4.40178e-02,-5.36368e-02,2.32096e-01,-1.41670e-01,-2.19216e-01,-9.86890e-02,6.25936e-01,2.54497e-01,2.35000e-01,
-1.07569e-01,-2.61541e-02,1.90851e-01,-3.06562e-03,1.08336e+00,-8.08850e-02,5.35230e-01,-2.32840e+00,1.28550e-01,-4.56538e-01,-5.69400e-01,-2.91975e-01,4.41161e-01,-4.11128e-01,-3.96328e-02,4.14237e-02,-2.03486e-01,-5.70345e-01,1.64747e-01,1.20213e-01,1.20724e-01,1.59945e-01,-8.49128e-02,-1.29619e+00,2.59455e-01,
2.68035e-01,2.28455e-01,1.04939e-01,-3.70811e-01,-3.58984e-01,-3.40541e-01,7.80496e-02,2.39554e-01,-1.52158e-01,-2.73927e-01,-2.91811e-01,1.25992e-01,-3.65506e-01,-3.07020e-02,1.19696e-01,1.59437e-01,3.25266e-01,1.40532e-01,8.81223e-02,-6.51069e-02,2.25608e-01,-1.25871e-01,-1.00817e-01,-1.37299e-01,2.68137e-02,
-2.92178e-01,1.60168e-01,9.35499e-01,-4.85330e-02,-5.63086e-01,-1.05150e-01,2.87586e-01,-1.31723e+00,1.98643e-01,-3.80792e-01,-4.36036e-01,2.46402e-01,4.65596e-01,3.20019e-01,1.18896e-01,5.24583e-01,3.32174e-01,-3.25683e-01,-1.16795e+00,8.01392e-02,-6.84910e-01,-2.17751e-01,-3.03797e-01,-5.49772e-01,4.35294e-01,
-1.49491e+00,-5.83837e-01,9.45530e-01,2.39207e-01,-3.37302e-01,-1.52885e-01,-2.85476e-01,2.15616e+00,-4.61135e-01,-4.68701e-01,8.91929e-01,-7.62826e-01,5.73772e-01,-1.25151e+00,2.82015e-01,-1.55153e-01,-2.87051e-01,2.41457e-01,-2.03241e-01,4.47526e-02,-4.56654e-01,-2.09815e-02,1.97816e-01,4.64911e-01,4.04942e-01,
-9.78474e-01,-1.66227e-01,-3.14909e-01,1.74070e-01,6.22108e-01,-4.38716e-01,5.55612e-02,1.60429e-01,-9.84068e-02,4.12565e-01,3.22164e-01,7.41471e-02,6.92358e-01,-3.17315e-01,-3.49153e-01,3.63316e-01,1.60591e-01,-2.71264e-01,-1.97034e-02,-7.83144e-01,-5.61705e-01,1.60126e-01,7.03424e-01,8.52599e-01,6.14888e-01,
1.17923e-01,3.10687e-01,-7.90141e-01,1.43289e-01,1.95673e-01,-1.69405e-02,2.20591e-01,2.60266e-01,-1.12715e-01,-9.56380e-02,-1.46422e-01,-4.18006e-01,-4.64997e-01,5.64411e-01,1.03216e-01,-2.50796e-01,-8.96766e-02,-1.42088e-01,-1.85250e-01,9.32154e-02,2.14488e-01,-8.57844e-02,-1.19809e-01,-6.79549e-01,-1.09704e-01,
1.28079e+00,2.82866e-01,4.26131e-02,-4.61318e-01,8.04556e-01,-8.18362e-02,3.00216e-01,-3.41289e-01,-2.49413e+01,-5.27533e-01,8.62733e-02,1.55268e-01,-3.39140e-01,8.59511e-01,-3.68659e-01,-8.75503e-02,-1.45854e-01,2.29090e-01,1.54312e-01,-4.25105e-02,-5.03633e-01,1.27330e-01,-2.05544e-03,1.31930e-01,-5.81098e-01,
-8.67221e-02,1.66386e-01,2.59560e-01,-1.18871e-01,1.12342e-01,-2.18087e-01,-2.87175e-01,-1.33036e-01,-4.07149e-02,5.66810e-01,-1.18613e-01,2.95035e-03,-1.85517e-01,-4.75521e-02,-8.31507e-02,1.20436e-01,-3.06248e-01,4.02305e-01,6.75304e-01,-3.57184e-01,5.13536e-01,4.77737e-01,-1.21018e-01,-4.33918e-02,3.41924e-01,
7.44539e-02,4.89472e-01,-5.50999e-01,-4.80504e-02,2.09642e-01,3.62052e-02,-7.68862e-02,8.51135e-02,-6.39657e-02,3.60818e-01,-3.91947e-01,2.77698e-01,1.42258e-01,1.86710e-02,1.89563e-01,-2.70427e-01,2.69536e-02,-2.66874e-01,4.40565e-01,-2.19377e-01,-4.21507e-03,4.05901e-03,6.41471e-03,1.28642e-01,2.81401e-01,
-2.40638e-01,-3.32600e-01,2.93371e-01,-3.60580e-01,5.20404e-02,-1.12400e-01,-4.93525e-02,-2.59175e-01,-1.96021e-01,5.28266e-02,9.10812e-02,-3.88792e-02,-3.00081e-01,-8.96007e-02,-1.52131e-01,-1.97041e-01,-1.22704e-01,6.23899e-02,-2.90096e-02,8.63943e-02,1.47815e-01,5.76287e-02,-9.18971e-02,-6.40987e-02,1.30053e-01,
1.01523e-01,1.00444e-01,2.08003e-01,5.78495e-01,-1.55816e-03,6.68360e-01,4.67643e-01,-6.40202e-01,-3.86661e-01,1.23413e-02,3.91652e-01,2.82446e-02,6.75374e-01,-4.13851e-01,-1.48579e-01,-3.24103e-01,2.39243e-01,2.24290e-01,-1.45027e-01,-4.29923e-03,3.81768e-01,-1.13433e-01,-3.31206e-01,7.31634e-02,-1.22842e-01,
5.86487e-02,-3.66001e-01,4.05305e-01,3.56653e-01,7.03133e-02,-5.15192e-01,-8.32181e-01,7.87069e-02,1.76627e-01,-3.92567e-01,1.05577e-01,-2.20702e-02,8.65939e-01,5.84924e-01,-6.36844e-02,-1.13789e-01,1.23773e-01,2.04459e-02,-1.60836e-02,1.48858e-01,1.76360e-02,1.60780e-01,2.10230e-01,-1.05805e-01,1.16976e-01,
-2.58345e-01,-3.58640e-01,9.85404e-02,1.47735e-01,1.96530e-01,-1.51408e+00,-6.69667e-01,-2.38514e-01,8.04133e-01,-2.13351e-01,2.12474e-01,4.12537e-02,9.13664e-01,-3.27880e-01,3.16373e-01,-1.10701e-01,2.55616e-01,-5.10652e-01,5.53985e-02,2.58806e-01,4.70318e-01,4.14823e-01,1.09154e+00,1.61711e-01,2.49180e-01,
-3.64841e-01,-2.88231e-02,5.79481e-01,5.32970e-01,-1.44434e-01,6.28939e-02,-4.72807e-01,-2.01668e-01,-2.04815e-01,-3.45451e-01,2.37631e-01,1.54957e-01,-6.46170e-01,-1.57975e-01,-4.30983e-01,8.11017e-01,2.11621e-01,7.07321e-01,2.08448e-01,-4.10992e-01,-1.91579e-02,-3.51401e-01,-9.41289e-02,-1.11289e-01,-1.17866e+00,
2.34972e-02,1.01018e-01,1.61332e-01,-2.25766e-02,8.00790e-02,-7.07429e-02,2.61358e-01,-1.70578e-02,-2.65680e-01,-1.73366e-01,2.40423e-01,5.14215e-02,8.71419e-02,8.31514e-01,-2.23825e-02,-1.99515e-01,-1.59116e-01,1.33013e-01,5.19331e-01,3.97596e-01,1.36112e-01,1.61979e-01,-2.21904e-01,-2.71403e-01,-2.10198e-01,
-1.44395e+00,-7.75597e-01,3.70517e-01,1.44281e-04,-3.98815e-01,-1.69646e-01,2.21325e-01,2.26799e-01,-8.82977e-02,3.53696e-01,4.90927e-01,-2.04632e-01,9.62319e-01,-1.20544e+00,-5.21240e-01,6.38345e-01,1.53326e-02,-3.33329e-01,2.79824e-02,-9.42048e-01,4.40790e-01,-4.08720e-01,1.69277e-01,6.55775e-01,-7.12894e-01,
3.53721e-01,-1.18579e-01,-5.33502e-03,-6.17498e-01,9.45498e-02,5.88259e-02,-6.08753e-01,8.97858e-01,-4.94699e-02,-7.92060e-01,5.89312e-02,9.66164e-02,3.11956e-01,1.24917e+00,-3.28758e-02,-5.47845e-01,-1.60108e-01,7.87049e-02,6.90257e-02,4.29828e-01,-1.97297e-01,6.96633e-02,-2.10517e-01,-8.44877e-01,-8.60332e-02,
-1.68990e+00,8.39284e-02,2.56957e-01,-3.57028e-01,-2.70179e-01,2.45379e-01,-1.67221e+00,-5.58320e-01,-2.71207e-01,6.03901e-01,-6.24612e-01,-3.30797e-01,-7.05073e-01,-3.02104e+00,1.57384e+00,8.87645e-01,-1.07479e-01,5.68561e-02,-2.79128e-01,5.34211e-01,-2.32929e-01,-7.31275e-01,-3.88122e-01,4.52863e-01,-2.10007e+00,
-6.84310e-01,6.09277e-01,1.03901e-01,-1.30150e-01,6.35698e-01,-2.20639e-01,-3.36338e-03,7.69835e-01,-6.74162e-03,-4.70212e-01,-9.64904e-02,-4.73447e-01,4.29773e-01,-3.63123e-01,3.99243e-01,7.35949e-01,3.68270e-02,-5.64509e-02,9.91414e-02,-8.74220e-02,-3.19196e-01,5.19619e-01,-2.75291e-02,6.23328e-02,1.07498e+00,
5.45555e-01,-1.40232e-02,-1.83292e-01,9.48688e-02,-3.39868e-01,1.13866e+00,-2.64196e-01,-2.41944e-01,-5.42825e-02,-1.18281e-01,2.22240e-02,-6.23405e-01,6.85609e-02,6.86331e-02,2.91279e-01,-1.34944e-01,-1.50353e-01,-7.87763e-02,-3.85096e-01,1.53714e-01,-7.02820e-01,2.14180e-01,-2.75659e-01,-1.15815e-01,3.71907e-01,
1.67167e-02,-1.79753e-01,1.05930e-01,4.35363e-01,-7.66019e-01,-5.25863e-01,2.21059e-01,4.37090e-02,1.52158e-01,2.51816e-01,2.74095e-01,3.25615e-02,5.80977e-02,-1.95002e-01,2.08413e-01,3.60310e-01,-1.59361e-01,5.92834e-01,-6.99915e-01,2.23982e-01,-5.84804e-01,2.90706e-01,3.44516e-01,-6.87086e-01,2.74251e-01,
7.44762e-01,-1.11054e-01,-3.33642e-01,-4.05776e-01,1.49574e-02,1.33798e-01,2.82053e-01,-6.17804e-01,5.66646e-02,7.19449e-01,-3.69503e-01,3.16915e-01,4.66762e-01,1.45905e-01,-8.28565e-01,-8.19701e-01,-1.94285e-01,-2.58086e-01,7.72029e-01,-3.80455e-01,3.53559e-01,3.65875e-01,-6.04643e-01,1.57724e+00,4.81714e-01,
-2.63931e-01,
9.32122e-02,
-2.15175e-01,
-1.29419e-01,
-3.65167e-01,
-2.39443e-01,
-3.04806e-01,
1.56211e-01,
3.57269e-01,
4.07713e-01,
-1.92540e-01,
5.96334e-01,
-3.62759e-01,
-5.00580e-02,
3.27326e-02,
-4.67717e-01,
1.06883e-01,
-1.60581e-01,
-1.53040e-01,
-3.49470e-01,
-1.69914e-01,
2.99645e-03,
6.06077e-01,
-4.13361e-02,
-7.57954e-01,
-5.03582e-01,-5.56660e-02,3.63908e-02,1.08067e-01,1.14990e-01,7.83988e-02,-2.15413e-01,-2.10608e-02,5.05969e-01,4.94699e-01,3.64890e-02,-2.64413e-01,2.36203e-01,3.62930e-01,7.98240e-01,-7.52481e-02,3.75759e-01,-3.10628e-01,-2.31639e-01,-3.77956e-01,-8.15228e-02,7.73722e-02,-6.18995e-01,-1.32414e-01,1.07939e-01,
-1.24664e-01,2.40072e-01,4.26400e-01,-2.06938e-01,-3.14388e-01,4.84987e-02,4.53503e-02,-5.87067e-01,-1.08102e+00,4.99736e-01,-3.18619e-01,1.49426e-01,-1.27330e-01,-1.85078e-01,7.87089e-01,-1.22053e+00,-8.02577e-02,4.50387e-02,6.31539e-01,-5.42742e-01,-3.25217e-02,9.96764e-02,4.87796e-01,-1.37532e-01,5.81985e-02,
2.79498e-01,-6.92690e-02,-5.29523e-01,-4.03272e-01,3.07638e-01,3.22673e-01,-6.65397e-01,-3.77208e-01,-6.42629e-01,-1.65149e-02,-1.70549e-01,5.93587e-01,2.00269e-01,-1.84223e-02,-2.79052e-01,1.32734e-01,-1.89059e-03,1.83511e-01,5.92378e-01,1.69057e-01,-2.11436e-01,2.52910e-01,1.51063e-02,4.69221e-01,-3.02885e-01,
6.45996e-01,3.89654e-01,-3.24227e-01,1.62741e-01,-1.36784e-01,-7.62772e-02,-3.34583e-01,-5.40464e-02,-3.38198e-01,-3.30427e-01,-4.64607e-01,-2.68697e-01,-6.56106e-02,-1.56690e-02,2.04724e-02,3.00956e-01,-1.01192e+00,1.36738e-01,2.14138e-01,-9.22217e-02,1.05517e+00,2.99789e-01,7.67141e-02,-2.23660e-01,-5.62269e-02,
5.03620e-02,-2.89015e-01,-2.03716e-01,-3.25201e-01,1.74806e-01,-7.36637e-02,-3.43904e-01,-5.17784e-02,2.51055e-01,1.56867e-01,-3.20819e-01,-2.34134e-01,-2.59131e-02,5.65909e-02,-2.40920e-01,2.97443e-01,-1.98823e-01,-2.76666e-01,-2.70288e-01,2.69050e-01,-1.32003e-01,7.00638e-02,-9.41328e-02,1.63813e-01,1.28913e-01,
-1.47518e-02,2.39917e-01,-1.27039e-02,-2.08135e-02,1.68579e-01,-2.41735e-01,-4.06055e-01,2.42630e-01,-3.88286e-01,-2.24665e-01,3.43687e-02,2.02613e-01,1.54101e-01,4.55628e-01,-5.56172e-01,-5.26098e-02,-2.16443e-01,-3.68488e-01,-1.46028e-01,6.21381e-01,-2.80842e-01,-1.91034e-02,-2.39799e-01,1.78693e-01,6.89309e-02,
1.83249e-01,9.15961e-02,4.30694e-01,1.65756e+00,2.58766e-01,-3.28600e-01,2.61395e-01,-4.13112e-01,-1.46378e-01,1.42070e+00,-6.14895e-01,9.88563e-02,1.87955e-02,1.73299e-01,4.86964e-01,4.65635e-02,-1.89106e-01,1.09010e+00,-1.97124e-02,-9.12608e-01,-1.15501e+01,1.08185e-01,-3.69050e-02,4.95895e-02,-1.84207e-01,
-5.95259e-01,1.30652e-01,2.36660e-01,7.06986e-01,1.01257e-01,1.89966e-01,1.57204e-01,2.18794e-01,3.24339e-02,1.00736e-03,-1.64133e-01,-1.21722e-03,1.43589e-01,2.12486e-01,9.95678e-01,-9.27685e-01,4.40974e-01,2.74665e-01,-2.11927e-01,-9.11909e-01,3.59738e-01,2.39766e-02,-2.54155e-01,-4.38173e-01,4.03039e-01,
-7.53000e-01,3.47249e-01,8.91109e-02,-4.04573e-02,-5.18325e-02,2.27248e-01,8.71786e-03,-4.00093e-01,-2.07380e-01,1.67538e+00,5.24384e-02,-8.51156e-02,1.25183e-01,2.42487e-01,1.85873e-02,-5.41345e-01,3.02802e-01,1.25635e-01,8.68639e-04,-6.94028e-02,1.97556e-01,2.51991e-01,-3.27436e-01,-3.76470e-01,9.87289e-02,
-8.63611e-01,5.71126e-03,2.76821e-01,2.80613e-01,-2.76714e-01,-1.04774e+00,1.43681e-02,-1.04499e-01,1.51554e-01,3.41449e-02,2.34267e-01,-1.88373e-02,-2.98227e-01,3.23914e-01,-1.07304e-01,2.42827e-01,9.12405e-01,-1.93566e-01,-2.37673e-01,2.43181e-01,4.39309e-01,-2.03542e-01,1.76737e-01,-4.60594e-01,1.68659e-01,
-7.13623e-01,-1.89101e-01,2.77798e-01,-1.53199e+00,9.23102e-02,1.67442e-01,4.77955e-02,4.66821e-02,3.24089e-01,7.22402e-01,5.63447e-01,-3.41525e-01,-3.13475e-01,-8.40290e-02,2.12382e-01,-2.23195e-01,9.15577e-01,-2.28251e-01,-3.05406e-01,-3.94405e-02,-4.38157e-01,8.51836e-01,5.22252e-01,-1.80213e-01,7.02613e-03,
-4.17091e-01,2.18874e-01,3.85191e-01,6.17177e-01,1.65365e-01,-1.49606e-02,4.25288e-01,1.58033e-01,-4.17131e-01,6.77638e-01,5.13958e-03,4.84192e-01,-2.23922e-01,2.23618e-01,9.69343e-01,-8.71169e-01,3.36532e-01,-3.16521e-01,-2.37288e-02,-4.37324e-01,5.64632e-03,3.92293e-02,7.31573e-02,7.12965e-02,1.89390e-01,
1.74410e-01,-1.02022e+00,-6.61412e-02,-4.02074e-01,-4.67184e-02,-6.75423e-01,4.24844e-01,-1.78049e-01,-6.49758e-02,4.21700e-01,-8.52589e-01,4.30226e-01,3.89306e-02,3.83880e-01,-4.96667e-01,3.45516e-01,-9.19898e-04,4.35619e-01,-8.09790e-01,3.58615e-01,-8.06840e-01,3.88801e-01,-4.83644e-02,4.61273e-01,2.52934e-01,
2.54974e-01,-5.43642e-01,-7.68245e-02,-2.21989e+00,-3.16242e-01,-7.66785e-01,1.82962e-01,3.54568e-01,-7.35691e+00,-2.72241e+00,3.76226e-02,2.16708e-01,-3.15363e-02,-5.48042e-01,1.24025e+00,-4.95238e-01,1.36743e-01,-1.00044e+00,-2.84182e-01,-7.05807e-02,7.96816e-01,-3.07786e-01,-2.62402e+00,5.14024e-01,5.88642e-01,
-4.48711e-01,-6.00267e-01,5.71119e-01,-5.11059e-02,1.05709e-01,-7.23514e-01,-1.07186e-01,-9.20192e-02,3.01766e-01,-1.60618e-01,-1.14760e-01,-2.19928e-01,1.62681e-01,8.99462e-02,8.73998e-02,-2.23954e-01,5.89174e-01,7.65588e-02,-2.85094e-01,1.31563e-02,-1.30742e-01,-7.43868e-02,4.76218e-01,2.12322e-01,8.01591e-02,
-2.96660e-01,-3.16464e-02,-2.20330e-01,-2.26540e-01,2.66742e-01,-2.61885e-01,4.35985e-02,1.34235e-01,-2.80161e-01,2.35555e-03,3.57879e-02,-4.87339e-01,7.90450e-02,1.20046e-01,-1.60682e-02,-3.60388e-02,1.19309e-01,-7.16063e-02,-1.45821e-01,2.98445e-02,2.42582e-01,-1.80282e-02,1.25679e-01,-1.42434e-01,1.70072e-01,
-2.31064e-01,1.74555e-01,4.06330e-01,-2.20338e-01,1.02940e-01,2.45623e-02,-7.07601e-02,1.57394e-01,-2.77922e-01,-4.98226e-02,-1.35000e-02,2.27800e-01,-4.96170e-02,2.49619e-01,3.59102e-01,-9.47683e-01,-2.07199e-02,-3.96030e-01,-2.12739e-01,-8.50159e-03,-2.53551e-01,1.00696e-01,5.07230e-02,-3.57174e-03,-1.88665e-02,
6.00084e-02,6.26330e-02,1.97241e-01,5.05804e-01,-6.52282e-02,1.46035e-01,-1.81459e-01,1.84615e-01,1.05164e-01,-9.04172e-01,1.76027e-01,2.00043e-01,-2.23427e-01,3.32435e-01,-3.80207e-01,8.01435e-02,-2.34172e-02,-2.54626e-01,1.95749e-01,3.22232e-01,-3.48809e-01,-1.36392e-01,2.02937e-02,4.42043e-03,-3.19236e-02,
3.37505e-02,2.02172e-03,1.48395e-01,-2.06019e-01,2.71615e-01,-2.78127e-01,1.64892e-01,-8.26905e-02,3.36739e-01,-4.43224e-02,-2.86736e-01,-2.92891e-01,-2.68071e-01,-1.63821e-01,-2.12805e-01,1.24241e-01,-1.93159e-01,-5.70674e-02,-3.03395e-01,-1.47514e-01,1.50478e-01,8.31812e-02,-8.52761e-02,-6.87453e-02,2.20222e-01,
8.32096e-01,1.28288e-02,-4.11157e-02,-4.15039e-01,-2.82929e-01,1.41463e-01,3.16637e-01,-1.19335e-01,3.72080e-01,2.07960e-01,3.32822e-01,-1.89740e-01,1.58573e-01,-5.42617e-01,-7.33530e-03,3.43804e-01,-6.56679e-01,1.79405e-01,5.41311e-01,-2.76438e-01,-3.67879e-01,1.08293e-01,6.99268e-01,-1.11220e-01,-3.81855e-01,
-7.44042e-01,-6.57797e-01,1.00608e-01,7.52817e-03,-3.15223e-01,-6.93244e-02,-2.43809e-01,1.75986e-01,-6.27875e-02,-9.05566e-02,-4.17104e-01,-5.66975e-01,5.58949e-02,3.33407e-01,-1.41272e-01,3.48544e-02,2.47206e-01,-3.10791e-01,-4.50056e-01,1.88957e-01,3.49512e-02,5.22138e-02,-4.53772e-02,5.00904e-01,4.76521e-01,
-1.70888e-01,3.94432e-02,1.12760e-01,-7.04954e-02,-2.74644e-01,5.09687e-02,2.93403e-01,-3.19274e-01,-3.45276e-01,2.31053e-01,-3.25371e-01,2.60626e-01,-2.14395e-01,-2.92711e-02,-2.74413e-01,-7.81846e-02,-3.55291e-01,-1.26990e-01,2.47582e-01,-2.58830e-01,-2.04472e-01,-2.30301e-01,1.92117e-01,7.12766e-02,6.12148e-02,
-2.42779e-01,3.65053e-01,3.03975e-01,-1.06119e+00,-1.71029e-01,-4.31323e-01,5.03134e-01,-5.88309e-02,2.09678e-01,1.24965e-01,1.50776e-01,-2.27393e-02,-2.75432e-01,1.05646e-01,6.75502e-02,-5.03030e-01,2.96062e-01,-3.44240e-01,-3.55550e-01,3.58149e-01,6.47452e-02,1.81665e-01,7.16264e-03,-2.10180e-01,2.78857e-01,
-5.75804e-01,1.30896e-01,3.01928e-01,3.79392e-01,2.03373e-01,-1.32393e+00,6.00204e-02,-9.82697e-02,5.83112e-01,2.17117e-01,3.38368e-01,1.31792e-01,-2.09114e-01,4.25399e-01,1.89403e-01,6.10971e-02,4.94670e-01,-2.47559e-01,-8.14312e-02,8.65010e-02,3.10388e-01,-8.14813e-02,-6.63071e-01,-5.89810e-02,-1.55150e-01,
4.61490e-01,-4.77717e-01,-3.86995e-01,-4.29890e-01,-3.03819e-01,-5.66666e-01,8.51508e-02,8.28432e-02,6.78654e-02,1.28915e-01,-9.84212e-01,3.93109e-01,-7.98144e-02,-9.14877e-02,-2.23432e-01,3.48729e-01,9.21388e-02,-2.54529e-01,-1.12563e-01,4.58365e-01,-1.30778e-01,2.57581e-01,-6.56737e-01,1.13007e-01,-8.21215e-01,
3.93476e-01,
1.49476e-01,
-2.30257e-01,
3.70145e-01,
-2.76241e-01,
3.17785e-01,
-1.00275e+00,
1.39056e-02,
2.99042e-01,
-1.47868e-02,
-3.85238e-01,
-5.96500e-01,
-3.33914e-01,
-3.30708e-01,
9.20116e-02,
7.11404e-01,
1.22261e-01,
1.07483e-01,
-2.91057e-01,
6.69576e-02,
8.22601e-01,
-3.41727e-01,
-2.48490e-02,
-2.30416e-01,
2.77745e-01,
-3.21589e-01,2.03444e-01,-2.07033e-01,-2.33358e-01,-1.27903e-02,2.12685e-01,7.90654e-02,-3.42473e-01,-9.47917e-02,-1.16493e-02,-4.62418e-01,-9.35881e-02,-2.51222e-02,2.35803e-01,-1.52238e-01,-2.89045e-01,-6.46502e-02,-1.46599e-01,-1.58994e-01,-1.11561e-01,8.42229e-02,-1.40329e-01,-1.01508e-01,-3.11478e-02,2.22864e-01,
-1.10029e-01,-1.66300e-01,-1.24759e-02,2.51979e-02,3.23631e-01,1.10125e-01,-1.20919e-01,4.04066e-02,8.09530e-02,5.27970e-02,-2.31121e-02,-9.98404e-02,1.78626e-01,-1.43840e-01,-1.39835e-01,1.49816e-02,8.61463e-02,-3.56631e-02,-2.62675e-01,2.94033e-02,-1.06961e-01,2.73448e-01,-3.73046e-02,1.97041e-01,9.27499e-02,
2.37539e-01,2.45048e-02,1.36810e-01,2.83591e-02,3.04662e-01,3.16079e-01,-4.33958e-01,1.19473e-01,4.47205e-02,-1.47485e-01,-1.43467e-02,5.24900e-03,3.21326e-01,1.11498e+00,4.14539e-03,-2.85843e-03,-5.48588e-02,-1.38234e-01,2.64537e-01,7.62357e-02,-9.08199e-02,-2.16949e-03,-1.79475e-01,2.46289e-01,-2.66842e-01,
1.64114e-01,-6.09903e-02,-6.40726e-02,-2.41315e-01,-2.22928e-01,2.00127e-01,3.33681e-02,-4.52738e-02,2.52531e-01,2.81998e-01,-8.82495e-02,2.60671e-02,-5.68479e-03,1.08675e-01,2.05248e-03,2.81772e-01,1.67528e-01,-1.82279e-01,1.83552e-01,3.27510e-01,4.04441e-01,1.46845e-01,-4.14736e-02,-7.05900e-02,-9.43170e-02,
-2.01502e-01,-3.84093e-01,-2.14728e-02,-1.85367e-01,-1.45676e-01,5.93103e-02,-5.22655e-02,-3.60367e-01,-3.45088e-01,-5.05695e-01,-7.85948e-01,9.40192e-01,-1.33140e-01,-5.99182e-01,4.60754e-01,-4.57603e-01,-4.16698e-02,-7.36360e-01,2.78424e-01,-2.51188e-01,4.60543e-01,-2.15279e-01,-3.63827e-01,-1.11945e+00,6.03530e-01,
-2.20396e-02,3.84177e-02,9.50089e-02,-1.32544e-01,-1.08397e-01,2.22510e-01,3.00427e-01,1.97747e-01,-7.91013e-02,-1.47565e-01,-1.39488e-02,7.84727e-02,-1.13487e-01,-1.92385e-01,3.43641e-02,-5.40886e-02,-9.60820e-02,-2.98049e-01,1.19338e-01,1.73681e-01,-1.22421e-01,1.35259e-01,4.33312e-02,2.11849e-01,1.77255e-01,
1.27353e-01,1.91815e-01,-1.65936e-01,-2.30904e-03,-1.56109e-01,1.02037e-01,3.05087e-01,-9.14823e-02,1.36644e-01,1.03581e-01,1.14753e-02,-1.03930e-02,3.43198e-01,3.70977e-01,-4.10579e-01,1.84793e-01,-3.16938e-01,2.18236e-01,1.86446e-01,7.93922e-02,-3.27434e-02,2.52433e-01,-3.15853e-01,-1.85019e-01,-3.00966e-01,
-3.70106e-01,2.15038e-02,1.96177e-01,-1.65871e-01,-6.24880e-03,-1.77198e-01,2.71094e-01,-3.10158e-01,7.24222e-02,1.78663e-01,-1.38768e-01,-2.12444e-02,9.32096e-02,-5.29977e-02,-2.73671e-02,-3.26741e-01,4.24847e-02,-2.34247e-01,-3.22827e-01,-1.58933e-01,1.03659e-01,2.21101e-01,-3.64462e-01,-7.07130e-02,-2.93882e-01,
-6.28974e-01,5.52896e-01,-6.80677e-02,-3.94644e-01,-5.39299e-02,-2.25183e-01,-3.40275e-01,-2.45713e-01,2.11594e-01,9.52966e-02,-1.59740e-02,-2.65942e-01,-2.85072e-01,-5.99525e-01,3.95840e-01,8.92005e-02,1.06180e-01,3.04601e-01,-2.64607e-01,5.45211e-02,-1.07451e-01,2.66308e-01,1.01742e-01,-2.92219e-02,5.19103e-02,
-8.41921e-04,2.17707e-01,-2.19203e-01,-2.10681e-01,1.92379e-01,-1.71836e-01,1.10143e-01,-3.09564e-01,1.11743e-01,-2.79273e-01,-9.30990e-02,1.97901e-01,-1.53680e-01,-1.06733e-01,3.09628e-02,3.74780e-01,-7.81503e-02,1.01325e-01,7.59862e-02,-3.69380e-02,2.70543e-01,-1.42934e-01,-1.49860e-02,1.30238e-01,-1.13239e-02,
3.62191e-01,1.18245e-01,-8.49153e-01,3.38436e-01,-4.90910e-02,-9.26341e-02,2.52174e-01,-3.21950e-01,1.97579e-01,1.12149e-01,1.07377e-01,-9.75058e-02,-1.81714e-01,3.01895e-01,-6.53554e-03,-1.54576e-01,5.45153e-02,4.20517e-01,2.89642e-01,3.72217e-02,6.59190e-01,7.20510e-02,-2.18723e-01,-7.79894e-01,-2.83625e-01,
2.15241e-01,1.14467e-01,-3.57181e-01,-2.22530e-01,-1.76744e-01,5.59134e-02,2.18389e-01,5.06816e-02,-6.44758e-02,-8.26785e-01,3.89754e-02,-5.39852e-01,-1.74141e-01,-2.60623e-01,-1.76744e-01,5.53502e-02,4.21448e-02,-1.62740e-01,1.52401e-01,3.06257e-01,7.41767e-01,-2.03868e-01,5.74280e-03,4.10348e-01,-2.87999e-01,
-3.79707e-03,1.86495e-01,6.98339e-02,-5.01097e-01,6.25374e-02,-1.67309e-01,7.26770e-02,-3.08291e-03,9.33634e-02,-2.30348e-01,3.55621e-02,-2.21804e-01,-3.99477e-02,3.04361e-01,3.70658e-01,1.26757e-01,4.23484e-01,1.57821e-01,-2.78294e-01,-3.61772e-02,-3.04202e-01,9.91367e-03,-4.02318e-01,5.45598e-03,-1.51096e-01,
-4.10357e-03,3.10858e-02,-1.07382e-01,6.29410e-02,-7.88938e-02,5.02971e-02,2.81050e-02,-9.39538e-02,-2.94200e-02,-2.33898e-01,2.14671e-03,-7.05893e-02,-1.62816e-01,2.89037e-01,2.21390e-01,4.43340e-01,1.50408e-01,-1.56421e-01,1.55577e-02,-2.87705e-02,5.27866e-01,-5.30968e-02,-2.23398e-01,8.29687e-03,1.27398e-02,
-2.35651e-01,-1.25730e-01,2.06974e-02,1.63102e-01,1.11481e-01,3.91835e-01,-5.30687e-02,3.18340e-01,-5.69979e-02,-4.49307e-02,3.96265e-02,-7.72867e-02,3.22603e-01,-3.33693e-02,5.92010e-03,8.39610e-02,-3.47867e-02,-3.78117e-01,-1.50056e-01,-7.01799e-02,-1.00736e+00,1.70302e-01,-1.01757e-01,4.10909e-01,2.38542e-01,
-4.33600e-02,9.47173e-02,-3.83084e-01,-3.61649e-01,3.23096e-02,8.50454e-01,-8.41384e-02,-1.27248e-01,5.28224e-01,2.27909e-01,-2.24662e+01,-3.02543e-01,-5.22906e-02,-7.33676e+00,-3.04852e-02,-2.74991e-01,-3.65279e-01,-5.11755e-01,-1.70278e-01,2.80962e-01,8.04579e-02,1.93618e-01,-2.50312e-01,-1.70190e-01,2.67156e-02,
-1.82211e-02,5.03702e-01,9.75725e-03,-2.14353e-01,-3.10348e-01,-2.04578e-01,-5.61871e-01,-3.61097e-02,-6.84662e-02,1.12556e-01,-6.64086e-02,-2.88658e-01,5.72837e-02,2.95485e-01,6.99036e-02,9.73978e-02,3.78188e-01,2.89377e-01,8.29399e-02,8.22161e-02,-7.97795e-02,1.48178e-01,1.17332e-01,-1.20302e-01,-2.21212e-01,
7.45301e-01,-3.37704e-01,1.53997e-01,5.57867e-01,8.20813e-02,-9.79423e-02,-4.66395e+00,4.37729e-01,-5.23455e-01,2.54199e-01,9.86552e-02,-7.36139e-01,1.50614e-01,-3.02320e-02,2.58406e-01,2.60198e-01,3.21964e-01,1.42823e-02,2.41656e-01,-8.57018e-02,1.74877e-01,-1.77546e-01,1.71297e-01,-5.65227e-01,-2.28917e-01,
-2.68366e-01,-1.87820e-01,-5.33379e-01,-5.91602e-01,-3.32705e-01,1.30908e+00,1.39708e-01,6.30646e-01,-9.85936e-02,-4.69416e-02,-2.14615e-01,6.00344e-02,-2.27997e-03,-2.06910e+00,-1.98021e-01,-2.66734e-01,1.33633e-01,-1.49964e+00,-2.25036e-01,7.83620e-01,3.18387e-01,1.37404e-01,-3.99197e-01,-9.26279e-01,1.95038e-01,
1.73959e-01,-3.99239e-01,1.63118e-01,-1.13518e-01,-1.60254e-01,-1.79379e-01,-1.78063e-01,-4.40478e-01,2.86468e-01,-8.00181e-01,-1.04474e-01,4.69932e-01,-1.88431e-01,-2.11823e-01,4.90658e-01,5.34573e-01,2.05073e-01,-4.19622e-03,2.11340e-01,-5.83977e-02,1.67921e-01,2.00132e-01,-2.03115e-01,2.55368e-01,-2.15967e-02,
-2.72140e-01,-1.67697e-01,-5.27689e-01,-9.78579e-02,2.43517e-01,-3.27659e-01,1.99786e-01,-3.09254e-01,-1.40426e-01,-8.31026e-01,-9.52756e-01,3.07350e-02,-5.61223e-02,-1.60963e-01,-3.42999e-01,-3.06909e-01,8.58112e-01,-9.06150e-01,-1.30245e-01,-2.69855e-01,8.76275e-01,9.41211e-02,-3.01564e-01,-4.65727e-01,1.59860e-01,
2.12104e-01,7.79023e-02,-1.68114e-03,-5.12139e-01,-1.80557e-01,-3.11196e-01,-1.93127e+01,-1.05823e-02,-8.43812e-02,-1.87666e-01,5.48179e-02,1.07065e-01,2.41930e-02,1.25846e+00,-2.49289e-02,7.50512e-02,4.68841e-02,-7.82186e-02,-3.28030e-01,-2.28991e-01,-7.26567e-02,-2.01052e-01,-9.17325e-02,8.65181e-02,-2.43713e-01,
5.31770e-02,2.31164e-01,1.23215e-02,-2.50943e-01,-3.06081e-01,-3.22749e-01,-1.34172e-01,-2.76041e-01,2.83160e-01,3.24548e-01,-1.03823e-01,-2.75023e-02,-7.84729e-02,5.48053e-01,6.88729e-03,-6.81506e-02,2.10447e-01,1.57188e-01,-1.21448e-01,5.87579e-02,1.12444e-01,-1.21385e-02,6.16446e-02,-3.74136e-01,-3.78131e-02,
-3.02361e-01,-1.18295e-01,1.57358e-01,3.65449e-01,-1.43253e-01,-2.74212e-01,-1.49711e-01,-4.46974e-01,-2.76758e-01,-7.52699e-02,-1.08094e-03,2.28572e-02,-3.18134e-01,-3.17952e-01,-7.00245e-02,-3.54360e-01,3.25909e-03,-8.82085e-02,-1.31205e-01,-3.09276e-01,-3.07024e-01,3.10324e-01,2.24449e-01,4.65158e-02,2.18915e-01,
-3.33073e-01,-2.33298e-03,1.87598e-01,-2.75251e-01,2.44330e-01,-1.84642e-01,-3.24101e-01,-3.28105e-01,-6.11741e-03,-2.66702e-01,-6.96972e-02,-1.37948e-01,2.28043e-01,-1.93640e-01,-7.64348e-02,1.81530e-01,-2.06842e-01,-2.33442e-01,2.64384e-01,-1.21175e-01,2.35107e-01,-5.33595e-02,-2.92801e-01,7.04397e-02,-5.79570e-02,
-2.15710e-02,
2.45193e-01,
-3.74919e-02,
-1.27224e-01,
2.08529e-01,
1.12180e-01,
-3.85787e-01,
-4.73922e-02,
4.21352e-03,
1.68306e-01,
-2.00895e-01,
-1.19530e-01,
-7.34277e-02,
1.02828e-01,
8.97595e-02,
-1.91043e-02,
-4.78609e-02,
-8.01068e-01,
-1.39225e-01,
-1.77187e-01,
5.03547e-01,
2.53544e-01,
1.32765e-02,
-4.31840e-01,
-2.32328e-01,
3.67718e-01,9.79474e-02,8.70109e-03,4.44517e-03,-1.54138e-01,7.97588e-02,-1.77930e-01,-1.79622e-01,7.11063e-03,9.77473e-03,-2.60765e-01,-4.47552e-02,3.82899e-02,-1.26079e-01,-6.03991e-02,-1.08043e-02,5.20103e-03,-2.02190e-01,2.34924e-02,-3.34881e-03,-2.72483e-02,-1.42148e-03,-2.52366e-02,-5.09589e-01,-2.15687e-01,
5.22979e-01,3.34164e-02,-3.50280e-02,-7.93688e-02,1.04464e-01,-1.86828e-02,3.35659e-01,3.83594e-01,-2.42374e-02,-1.61322e-01,-1.83877e-01,1.16453e-01,3.56364e-02,-1.81317e-02,-6.23414e-02,-2.17662e-01,2.47538e-02,-1.39220e-01,-1.77040e-02,-2.27600e-01,-7.11038e-02,-9.40230e-04,-4.27894e-02,1.10907e-01,-3.41944e-01,
4.10006e-01,1.62345e-01,1.25719e-02,-4.44912e-02,-6.86851e-02,-1.35217e-01,6.42553e-01,-3.95702e-01,8.61310e-02,-1.93269e-02,-1.15137e-01,-1.02491e-01,-4.25919e-03,-1.03504e-01,-3.72466e-02,1.25653e-03,-1.06993e-01,-1.21882e-01,6.16610e-02,-1.19687e-01,2.60641e-03,5.50659e-03,2.97714e-02,2.57533e-01,2.69753e-01,
-3.63258e-02,3.88434e-02,-4.94529e-02,-7.28847e-02,-3.85713e-04,-1.78194e-02,2.08844e-01,-3.53164e-01,-4.48536e-02,-5.86035e-02,-1.53374e-01,-5.78442e-02,2.01083e-02,-7.51025e-02,-5.46935e-02,-2.54969e-03,3.63226e-02,-1.17915e-01,-3.04277e-02,-1.33529e-01,3.27175e-02,1.43596e-02,-4.22061e-02,3.00705e-01,1.67441e-01,
1.56673e-01,1.85435e-01,-1.51639e-02,-5.26389e-02,-9.09887e-02,-3.69101e-02,4.17358e-01,-4.06291e-01,-1.48527e-02,-2.60557e-02,-1.54734e-01,-1.05529e-01,-1.97520e-02,-7.58828e-02,-4.61952e-02,-1.17828e-02,3.72239e-02,-6.29789e-02,1.52029e-02,-1.03608e-01,-7.26415e-03,1.06071e-01,5.96557e-02,5.34894e-01,3.46748e-01,
-1.30307e-01,4.42221e-02,-3.56191e-02,-1.59300e-01,1.01749e-01,-1.12906e-02,3.39625e-01,-3.31262e-02,-4.45467e-02,2.22528e-02,-1.66954e-01,-5.93392e-02,7.69549e-03,-5.35250e-02,-5.94895e-02,1.12663e-01,3.48258e-02,-9.93881e-02,-1.14379e-01,-1.20726e-01,9.83549e-02,-1.88343e-03,-6.28437e-03,8.48273e-01,9.27660e-03,
4.91065e-01,1.84527e-01,-4.57217e-02,-3.16015e-02,-6.96470e-02,-3.52382e-02,3.26014e-01,-9.71485e-02,-1.97713e-02,-1.39908e-02,-1.32671e-01,-1.17286e-01,-9.09453e-03,-9.76265e-02,-5.45571e-02,-1.39717e-02,3.42209e-02,-8.28314e-02,2.75454e-02,-1.07779e-01,7.74806e-03,3.57990e-02,5.24231e-02,2.24363e-01,-2.00123e-01,
4.87910e-01,6.17235e-02,-4.05516e-02,-8.57915e-02,5.19669e-03,6.59447e-04,1.44613e-01,3.43020e-01,-4.53442e-02,-4.20202e-02,-1.85625e-01,-2.74590e-02,1.72787e-02,-7.52664e-02,-5.61866e-02,6.65752e-02,4.59709e-02,-1.00086e-01,-3.15360e-02,-1.21566e-01,2.69687e-02,9.62366e-03,-2.14304e-02,3.12742e-01,2.06121e-01,
2.55157e-02,1.26390e-01,-1.14844e-01,3.59399e-02,-9.41823e-02,-3.84588e-02,-1.35921e-01,-2.45007e-01,-1.26080e-01,-3.30097e-02,-8.30643e-02,-2.13647e-01,4.79973e-02,-8.41841e-02,-8.73404e-03,-1.03727e-02,1.21354e-01,-1.13493e-02,1.59882e-02,-1.09071e-01,-4.29639e-02,-5.18926e-03,8.27655e-02,1.07034e-01,-3.72182e-01,
1.66179e-01,
2.07222e-01,
1.71428e-01,
-2.43951e-01,
1.43986e-01,
2.03097e-01,
-2.99908e-01,
-2.55119e-01,
1.53268e-01,
