// Neural Network File Format by Kyle Julian, Stanford 2016
6,4,9,25,
4,25,25,25,25,25,9,
0,
-8000.000000,-100.000000,-100.000000,0.000000
8000.000000,100.000000,100.000000,40.000000
0.000000,0.000000,0.000000,20.000000,-4.647677
16000.000000,200.000000,200.000000,40.000000,22.514692
4.79877e+00,-1.74278e-02,-1.39443e-02,-1.09681e-01,
4.03642e+00,-4.05712e-01,4.25193e-01,-2.58491e-01,
3.60004e+00,6.82132e-01,2.37568e-01,2.09175e-01,
2.14172e+00,-1.39295e-01,5.69106e-02,2.27490e-01,
-7.54250e-01,-1.00838e+00,-1.27255e-01,-5.39647e-02,
-3.35264e+00,-5.49635e-02,2.02665e-01,-9.37751e-01,
4.24859e+00,-1.84615e-01,1.97022e-01,-2.74209e-01,
2.13726e+00,-3.58631e-01,5.83438e-01,5.39377e-01,
-1.16607e+00,1.12653e+00,5.28095e-02,1.27668e-02,
-1.60024e+00,9.16026e-01,-3.36439e-01,-1.92369e-02,
-3.16427e-01,6.72415e-01,2.53634e-02,1.60457e-01,
4.89406e-01,5.79736e-03,-2.80151e-02,7.80991e-01,
-7.23787e-01,3.66915e-02,4.37169e-02,4.63266e-01,
4.11829e+00,1.92291e-01,-1.76169e-01,-6.69205e-01,
-2.48048e+00,3.29277e-01,-6.46660e-01,1.55238e-01,
-3.49276e-03,-9.56622e-01,9.63728e-01,6.05268e-03,
-1.75826e-01,8.57109e-02,-2.44687e-01,-4.49081e-02,
-1.56435e+00,5.29540e-01,-7.57840e-02,5.26326e-01,
2.22482e+00,-4.06655e-01,6.11796e-01,1.12287e-01,
3.82942e-01,-9.02932e-02,8.72995e-02,5.55060e-01,
5.93958e+00,2.49590e-01,-3.66935e-01,8.00028e-02,
-4.07221e+00,1.84539e-01,4.39821e-02,-7.53352e-01,
7.59800e-01,-1.65617e-01,-1.09922e-01,-5.51071e-01,
-4.31369e+00,-2.93150e-01,3.68824e-01,-7.80885e-02,
-8.92290e-02,-1.30573e+00,1.42098e-01,-2.32786e-02,
2.74882e-01,
-7.52612e-02,
-9.24209e-02,
1.17400e-01,
2.48913e-01,
-3.06229e-01,
7.52503e-02,
2.42871e-01,
8.53608e-02,
3.91944e-01,
1.92775e-01,
3.74550e-01,
-5.43536e-02,
-1.43407e-01,
2.00162e-01,
-1.39443e-01,
-3.36108e-01,
-7.29725e-02,
1.92362e-01,
6.11127e-02,
-2.83435e-01,
-4.81023e-02,
-6.74969e-02,
2.47380e-01,
1.70884e-01,
-2.71816e-01,-5.39919e-02,-3.12182e-02,-1.23124e-01,-1.28501e+00,6.46326e-01,2.24832e-01,-4.88144e-01,6.77676e-01,4.51078e-01,-1.22352e-01,1.78449e-01,-2.72252e-01,-2.27885e-01,5.07428e-01,-1.49353e-01,2.32248e-01,3.65100e-01,-5.35446e-01,3.72681e-02,5.63487e-01,5.86966e-01,-1.56031e-01,-7.60066e-01,1.70632e+00,
8.01670e-01,-5.62007e-01,-1.85346e+00,5.80085e-01,2.44695e-01,2.84384e-02,2.08099e-01,-2.14002e-01,2.11410e+00,-4.68503e-01,-1.39842e-01,-2.15825e-01,-2.84525e-01,-1.68185e+00,1.90130e-01,1.35588e-01,1.55449e-01,2.12065e-01,1.74123e-01,1.80389e-01,2.19814e-01,-1.57435e-01,-1.52071e-01,-3.91702e-01,-6.89263e-01,
2.25361e-01,3.94214e-01,-3.72245e-02,-1.37667e-01,9.14469e-01,3.13893e-01,6.68155e-02,-4.71790e-01,-5.75485e-01,-4.95424e-01,1.02598e+00,-5.25379e-01,-8.74223e-02,-8.93992e-01,-1.80151e-01,-7.68867e-01,1.82113e-01,3.25348e-01,-1.01839e-01,4.21830e-01,7.84119e-01,2.93354e-01,-5.60484e-02,4.21852e-01,-9.21602e-01,
2.72415e-01,2.85343e-01,8.52065e-02,5.85910e-01,2.13700e-01,-7.51201e-01,-3.45068e-02,1.05367e+00,-7.28707e-02,3.16621e-01,7.90375e-02,9.00845e-01,-9.54168e-01,1.60304e-01,2.10623e-01,-1.06586e-01,-1.63616e-01,6.26799e-02,-2.49545e-01,-1.17270e+00,-1.16619e+00,-4.11247e-01,-2.12127e-01,4.08928e-01,-1.05021e-01,
-2.90414e-01,-3.34566e-03,3.39424e-01,-1.55015e-01,1.07671e-01,5.53780e-01,-5.60330e-01,-6.04807e-01,-4.67339e-01,1.08164e+00,-2.84608e-02,3.80451e-01,-5.70878e-01,-1.56697e+00,7.07548e-01,2.27659e-01,6.98133e-02,3.27643e-02,-1.02283e+00,3.33511e-01,1.13913e+00,1.04864e+00,1.14967e-01,-8.43715e-01,2.00916e-01,
1.41579e+00,9.69556e-01,-3.00165e-01,1.74738e-01,-2.53038e-02,2.80071e-01,-9.56521e-02,8.48881e-01,6.55010e-01,-9.41205e-01,3.69648e-02,3.40290e-01,-3.77966e-01,9.05559e-02,-9.73847e-02,-2.55783e-01,3.13137e-01,8.27152e-02,-5.70437e-03,-4.31200e-01,-1.00622e+00,1.39018e-01,1.10946e-01,6.06146e-02,-2.51156e-01,
-1.52017e-02,-1.56327e+00,3.61616e-01,-6.71213e-01,-7.64855e-02,-4.02743e-01,-3.53851e-01,-8.23481e-01,-5.59225e-01,2.98600e-01,7.30183e-02,2.94479e-01,1.04043e+00,-3.04527e-01,9.02920e-01,-9.64327e-01,2.46016e-01,-9.34305e-01,-3.70260e-01,-2.40835e-01,9.50960e-01,1.48305e-01,-8.06333e-01,-3.64899e-01,7.78419e-01,
3.86509e-01,-6.71532e-01,-1.81958e-01,2.27453e-01,5.11661e-02,-3.41178e-01,7.54077e-01,-3.58787e-02,-3.75170e-01,-4.45356e-01,7.33703e-01,5.21687e-01,-1.54785e-01,5.35657e-01,-5.33403e-01,-4.19996e-01,1.67082e-01,1.10711e-01,3.63631e-01,-8.27028e-02,2.17965e+00,6.72166e-02,-7.64169e-02,6.15861e-01,-4.60324e-03,
2.55023e-01,7.80320e-02,4.08856e-04,2.62710e-01,1.64816e-01,-7.62130e-01,8.90701e-01,-1.60801e-01,-2.81176e-02,-9.59905e-03,4.50235e-01,-1.26327e+00,-1.56433e+00,5.51722e-01,-3.44653e-02,-4.64782e-01,3.85696e-02,7.47244e-01,7.86715e-01,1.07665e+00,-5.10373e-01,3.07196e-01,7.54016e-01,-7.14839e-01,-1.18046e-01,
2.53603e-01,-1.07266e+00,-2.62781e-01,-1.20282e+00,2.86595e-01,-9.99328e-01,2.09434e-01,6.80723e-01,2.17457e-01,-1.39785e-02,-7.33146e-01,-6.37420e-01,1.38508e-01,-3.62892e-01,4.49634e-01,-4.50286e-01,1.08884e-01,1.44113e-01,-1.12820e-01,5.13068e-01,8.68761e-01,1.27756e+00,2.92077e-02,-6.86898e-01,-6.21624e-02,
1.07554e-02,-4.24885e-01,2.42271e-01,-1.31709e-01,-9.76408e-01,-1.38004e-01,9.70053e-01,2.24103e-01,-8.47633e-01,1.07295e+00,4.37542e-01,-4.40223e-01,3.47002e-01,3.27775e-01,-7.74100e-03,3.36798e-01,-1.87764e-01,-2.89723e-01,6.15737e-01,1.50687e-01,4.34313e-01,-2.20364e-01,8.57975e-02,1.62293e-01,5.89146e-01,
5.51122e-01,9.69511e-01,-2.76251e-01,4.69741e-02,4.41581e-01,-2.98382e-01,6.80629e-01,-2.67848e-01,4.55737e-02,-7.12423e-01,4.39866e-03,9.74050e-01,-2.84404e-01,4.71446e-01,-3.37149e-01,4.61360e-01,-1.31151e-01,8.64209e-02,2.27368e-01,-3.11927e-01,1.51629e+00,-3.45877e-01,4.53905e-01,8.02622e-01,-9.49018e-01,
-4.30643e-01,7.97005e-01,4.47752e-01,-6.17721e-01,5.25840e-01,-9.42365e-01,6.72377e-01,-3.15964e-01,-4.68108e-01,-5.77722e-01,6.73701e-01,-5.71102e-02,3.25774e-01,-3.26693e-01,-4.72102e-01,4.73843e-01,-3.37359e-01,-4.59123e-01,-7.37488e-01,6.15123e-01,-2.86396e-01,2.05447e-01,6.11101e-01,-4.25787e-01,-1.12402e+00,
-1.27468e-01,3.06087e-02,-3.54847e-01,-8.72966e-02,-2.83133e-01,4.17729e-01,-1.13092e+00,3.52897e-01,-2.04114e-02,-1.59975e-01,4.14696e-01,-6.02189e-01,-3.95747e-01,-8.38830e-01,4.77040e-01,1.44972e-01,-2.75795e-01,4.61590e-01,-3.13561e-01,1.68576e-01,6.12780e-01,4.43423e-01,1.04957e-01,9.92223e-01,2.61615e-01,
-4.84927e+00,-1.70233e+00,-2.23702e-01,-1.24707e+00,5.02390e-03,2.35557e-01,2.58493e-01,8.63313e-02,-5.37541e-02,2.18808e-01,-1.45480e-01,-3.29150e-01,-3.07916e-02,4.75224e-02,8.44198e-01,-9.87892e-02,6.64048e-02,-9.44317e-02,-2.23057e-01,1.22977e-01,4.55460e-02,1.33671e-01,7.28065e-03,1.43180e+00,1.04085e-01,
-8.79076e-01,3.66333e-01,-2.65193e-01,5.54147e-01,-3.75704e-02,6.81602e-01,4.04597e-01,1.89809e-01,5.46716e-01,4.91909e-01,-2.29590e-01,3.51050e-01,-1.18312e+00,6.43896e-02,2.20956e-01,-6.92021e-01,4.89516e-02,3.42307e-01,-2.12642e-01,1.83435e-01,-1.82057e-01,4.33952e-02,1.80300e-01,3.73400e-01,-1.92527e-01,
7.35201e-01,8.04758e-01,-3.64367e-02,-3.68927e-01,-5.90954e-01,-4.17698e-01,-3.05046e-01,-1.87366e-01,8.62876e-01,-3.37044e-01,8.97283e-02,-4.84778e-01,-1.38606e-02,-5.09635e-02,-3.29235e-01,-5.85737e-01,2.67349e-02,-2.52790e-01,4.63656e-01,1.05818e+00,-6.16125e-01,2.93877e-01,7.69727e-02,1.33432e-01,1.17536e+00,
3.26541e-01,-6.59682e-01,7.81092e-01,5.23858e-01,-1.01299e-01,5.20219e-02,1.89947e-02,-4.64478e-02,-1.86104e-01,-5.01706e-02,-4.10871e-01,-1.48698e-01,-2.13446e-01,4.23521e-01,2.94178e-01,3.39788e-01,-1.17252e-01,-5.01594e-02,-1.14962e+00,6.71650e-04,8.64433e-01,1.54591e-02,-1.56104e-01,4.79694e-02,6.42500e-02,
6.65440e-02,5.41863e-01,-4.75183e-01,-1.78062e-01,3.48127e-01,1.04832e+00,-2.38104e-01,3.76179e-01,6.30084e-01,-1.29938e+00,7.00915e-01,7.49948e-01,-9.97884e-01,5.43742e-01,7.27904e-01,-9.51721e-02,6.32255e-02,5.84772e-01,1.93776e-01,-7.66837e-01,-1.29210e-01,-5.39743e-01,-2.75362e-01,-1.99088e-01,-3.03091e-01,
-9.13921e-01,1.94779e-02,-5.01565e-02,-3.83584e-01,-4.67922e-01,-4.02193e-01,9.07968e-01,4.92695e-01,2.51637e-01,-3.58388e-01,1.07244e-01,-3.27714e-01,3.21807e-01,1.15796e-03,-3.72040e-01,8.46878e-01,-1.94051e-01,6.23296e-02,-9.37682e-02,-1.61747e-01,1.18131e+00,-9.01894e-01,5.27590e-01,8.27159e-01,2.82508e-01,
-1.77418e-01,-1.16788e+00,1.50483e+00,-8.17508e-02,-3.36089e-01,5.74859e-01,1.59343e-02,-4.97580e-01,-1.61686e+00,1.57176e-01,2.93005e-01,-3.17084e-01,5.03502e-01,9.62604e-02,2.94474e-01,1.03667e+00,1.52256e-01,-3.45064e-01,-2.65642e-01,7.22101e-01,-1.47233e+00,2.87049e-01,5.20562e-01,-1.40521e-01,3.83499e-01,
-3.85004e-02,-4.31687e-01,-1.05631e-01,-1.06637e-01,-4.19728e-02,-7.75441e-01,-9.49719e-01,6.61709e-01,-4.65766e-01,-8.50378e-02,1.03745e-01,3.15269e-03,-2.56264e-01,5.50461e-01,1.65212e-01,-8.99382e-02,-2.63478e-01,-3.10926e-02,-3.66661e-01,-4.57587e-01,4.54751e-01,3.15483e-01,-3.38176e-01,1.29240e+00,-4.40985e-01,
-9.80346e-02,-5.43924e-01,2.45955e-01,5.04770e-01,1.07170e+00,7.97355e-01,-7.22075e-01,-9.46976e-01,-1.52728e-01,9.30784e-01,-9.45925e-01,4.09081e-01,-3.15102e-01,-6.75272e-01,8.92863e-01,-2.44139e-01,8.11844e-02,-2.15700e-01,-2.06673e-01,2.30697e-01,1.16967e+00,9.78072e-01,-6.77235e-01,-4.49543e-01,-3.46575e-01,
9.81708e-01,-1.44077e+00,2.66868e-01,2.34984e-02,1.17511e+00,-5.34873e-01,-1.15941e-01,3.37926e-02,5.97906e-02,-9.87682e-01,-7.87989e-01,-7.17669e-02,-2.04574e-01,-3.31277e-01,-6.75623e-02,5.86307e-01,3.02209e-01,3.64911e-01,7.75051e-03,6.34678e-02,7.74566e-01,-4.52189e-01,4.24623e-01,1.23281e+00,-1.68639e+00,
-2.70065e-01,-8.68933e-01,-2.31011e+00,-3.89989e-01,1.94344e-01,4.57262e-02,2.06001e-01,2.10980e-01,1.20576e+00,5.50569e-01,8.99943e-01,-4.31599e-01,2.89645e-01,6.49214e-02,-2.37823e-01,-5.07633e-02,-1.64124e-01,-2.40773e-02,-6.56251e-02,-1.11331e-01,7.85754e-01,-7.25053e-02,-4.86716e-02,-4.59570e-01,1.96036e-02,
-5.86541e-01,
5.83112e-01,
5.18986e-01,
-2.17603e-01,
-5.08202e-02,
5.59865e-02,
3.09164e-01,
-2.61614e-01,
-3.39083e-01,
3.58753e-01,
-2.46869e-01,
-5.65331e-01,
8.60104e-01,
1.83309e-01,
-4.47972e-01,
1.91705e-01,
5.45951e-02,
4.19361e-01,
9.31769e-02,
4.80228e-01,
4.94358e-01,
4.02751e-01,
-2.45167e-01,
6.36431e-02,
-1.88855e-01,
-9.52137e-01,4.24891e-01,-9.78046e-01,1.01931e-01,2.48100e-01,-2.40427e-01,-5.23112e-01,-2.71165e-01,-9.26776e-02,3.94330e-01,-7.49509e-01,6.83676e-01,-7.07912e-02,-5.33543e-01,6.13479e-01,3.42319e-01,5.23591e-01,1.02962e-01,-1.67953e-01,1.03270e-01,4.64176e-01,8.56235e-02,1.74100e-02,1.70877e-01,-2.00154e-01,
6.84358e-02,2.81245e-01,7.36948e-03,-2.82024e-01,-8.74599e-01,7.12055e-01,1.22452e-01,1.52982e-01,1.27428e-01,6.14692e-02,-3.90068e-01,2.35380e-01,-5.96790e-01,3.16717e-01,3.71393e-02,-3.83531e-01,-1.11598e-01,-1.56638e-01,-5.39028e-01,-6.23774e-02,5.19628e-02,4.20746e-01,1.25554e+00,-7.02798e-01,1.55731e-01,
-9.63274e-01,-4.77434e-01,-1.44381e-01,-3.51940e-01,6.34674e-01,4.60227e-01,4.67278e-01,-2.84838e-01,-3.21867e-01,-2.40426e-01,5.47957e-02,9.38715e-02,4.67462e-01,3.08045e-01,-1.71034e-01,7.65552e-01,1.23673e-01,4.44045e-01,2.25899e-03,-2.95493e-01,2.56147e-01,-3.87976e-01,-1.29633e-01,8.19400e-02,1.22254e+00,
1.13096e-01,-1.96543e-01,-1.15113e-01,-6.25272e-01,-3.04021e-01,2.37972e-01,8.80065e-02,2.58305e-01,7.10231e-01,7.61641e-01,1.51809e-01,-3.65696e-01,2.60106e-01,-1.03766e+00,-6.85021e-01,2.20191e-01,5.22819e-01,-2.78697e-01,-9.38816e-02,-2.71467e-02,2.37424e-01,-3.26226e-01,2.64531e-01,2.59022e-01,-2.78458e-01,
-3.87788e-01,2.53317e-01,1.68350e-01,9.16039e-01,3.54049e-01,-3.76506e-01,4.84491e-01,3.26528e-01,-2.79528e-01,-3.89387e-01,-1.22930e-01,9.11081e-02,-2.26723e-01,1.92378e-01,1.33751e-01,-5.36924e-02,3.96059e-02,-4.61065e-01,-2.02455e-01,-8.81743e-02,1.54515e-02,6.21395e-04,-1.78392e-01,-3.41613e-01,-8.40890e-02,
-8.11964e-02,-3.12552e+00,-2.65793e-01,5.91693e-02,-2.76313e-01,-1.33645e+00,1.02623e-01,8.34756e-02,-7.81128e-01,1.45367e-02,7.33544e-02,-1.38677e-01,1.66274e-01,3.91963e-01,-1.16818e+00,6.33489e-01,-2.10884e-01,2.61772e-01,3.95679e-01,2.56126e-01,7.40530e-01,4.43209e-01,-8.57730e-02,3.89232e-01,-3.95981e-01,
-6.59243e-01,-1.63424e-01,3.50059e-01,1.65430e-01,8.50051e-01,5.07865e-01,6.37826e-01,-8.25354e-01,-4.51672e-01,-1.08042e-01,4.39538e-01,6.18595e-01,2.86728e-01,6.31428e-01,-1.27693e-01,1.08666e-01,5.21878e-01,5.61054e-01,-1.26569e-01,-7.91936e-01,3.12464e-01,-8.53978e-03,-1.22424e+00,6.99752e-02,5.84611e-01,
2.48636e-01,-1.30007e-01,8.19743e-02,1.09714e-01,6.76044e-01,1.77200e-01,6.98593e-01,3.94891e-01,-4.36675e-03,-1.00714e-01,-6.01779e-01,-6.71543e-01,3.27589e-01,1.33433e-01,4.44556e-02,1.35706e-02,3.96450e-01,3.44097e-01,1.17762e-01,4.23218e-01,4.18479e-01,-1.93687e-01,1.54438e-01,3.48449e-01,-2.17596e-01,
1.33573e+00,1.20520e-01,-2.55468e-01,2.53246e-01,-1.32338e+00,2.77837e-01,1.82881e-02,9.17362e-02,-4.16367e-02,5.52669e-01,-6.29737e-01,3.99021e-01,2.33336e-02,1.72662e-01,-7.22167e-01,-1.86361e-01,-4.66613e-01,-3.88145e-01,-7.73155e-04,-7.33117e-02,1.25198e-01,-4.82523e-02,8.16455e-01,-5.38348e-01,-2.84967e-01,
-2.02168e-01,4.61919e-01,5.21058e-01,-4.87196e-01,-6.15019e-01,3.07635e-01,-2.17866e-01,1.35244e-01,-2.92123e-01,4.80018e-01,1.59243e-01,-7.40094e-01,-2.04241e-01,-1.65077e-01,6.94945e-02,-5.76484e-02,-1.51161e-01,6.30540e-01,-1.60181e-01,4.11958e-01,-1.48134e-01,-1.61478e-01,-1.27010e-01,-1.75158e-02,-1.26738e-01,
6.96244e-02,4.24540e-02,6.47452e-02,3.64539e-01,-8.35584e-01,-1.53659e+00,-3.71725e-02,-2.70639e-01,-4.58921e-01,8.49423e-01,-2.28854e-01,9.27152e-01,-3.38615e-01,-2.51607e-01,-1.80326e-01,1.12130e+00,9.84237e-01,1.97163e-01,-1.72492e-01,-4.82031e-01,6.35841e-01,-3.35481e-02,3.32682e-01,1.87929e-02,-5.39354e-01,
4.85772e-02,5.95988e-01,-2.76092e-01,2.06657e-01,1.64516e-01,-8.26947e-02,-1.96657e-01,2.82752e-01,-1.49167e+00,-3.31368e-01,-2.18587e-02,-2.37016e-01,4.26511e-01,3.19546e-02,-2.65178e-01,-1.85150e-02,5.64653e-03,3.14479e-02,1.33656e-01,5.64333e-01,5.36941e-01,-1.37727e-01,9.28221e-01,5.09285e-02,-7.07019e-02,
-3.54282e-01,-1.61039e-01,1.68525e-01,2.30121e-01,-3.85119e-01,6.24328e-01,-6.02603e-01,-3.14147e-01,5.22739e-01,-5.09546e-03,-4.07270e-01,3.66138e-01,-1.63851e-01,-1.13554e-01,-9.10884e-02,-4.85143e-01,3.00136e-01,1.17272e-01,-3.89688e-01,8.48573e-02,4.37104e-02,4.60703e-01,6.20446e-01,-2.29982e-01,-3.23170e-01,
3.95245e-01,-1.82233e-01,6.20374e-01,1.70163e-02,1.04578e+00,2.34098e-01,4.35983e-01,1.69831e-01,-4.92085e-02,2.62036e-01,-5.94271e-01,-4.98473e-01,1.69384e-03,-2.46410e-01,9.42634e-02,-4.14944e-01,-1.02577e-01,-1.15829e-02,8.38596e-01,7.45501e-01,3.78054e-01,-3.89990e-01,4.82870e-01,-9.79355e-02,3.87240e-01,
-4.56744e-02,1.38926e-02,2.71085e-01,-1.58334e-01,1.86093e-02,-2.26747e-01,-2.72165e-01,-3.26741e-01,-2.22935e-01,-2.84969e-01,1.44309e-01,-1.94776e-01,-2.06193e-01,5.18979e-02,-3.09455e-01,7.36558e-02,5.75246e-02,-1.78069e-01,-1.39259e-01,-4.52156e-02,2.46908e-01,-3.48332e-01,-2.83810e-02,-1.86433e-01,-2.20052e-01,
-8.13104e-02,-2.25151e-01,4.59806e-02,-1.17522e-01,5.42130e-01,2.76278e-01,-2.36494e-01,2.72538e-01,9.02881e-01,-2.72167e-01,1.97006e-01,-8.75687e-01,-3.04059e-01,-1.35482e+00,4.17971e-01,-3.00050e-01,-3.08803e-02,5.63497e-01,3.92678e-01,7.36866e-01,-5.08319e-01,8.00802e-01,-1.22735e-01,3.57266e-01,-3.27274e-02,
3.70891e-01,1.83190e-01,-2.58826e-01,-3.78678e-01,8.87742e-02,6.32908e-02,1.59295e-01,-1.20275e-01,-9.90205e-02,3.48334e-01,6.77359e-01,-1.72455e-02,-7.36165e-01,-1.02175e-01,4.49526e-02,7.48058e-01,-1.75162e-01,-2.81672e-02,-8.31116e-01,-1.17118e-01,-1.57114e-01,-5.61206e-01,-3.22266e-01,7.18325e-01,-1.43177e+00,
5.59703e-01,-3.42868e-02,1.21361e-01,3.09179e-01,-6.28592e-01,-3.56987e-01,3.03546e-01,-7.04257e-02,-1.69917e-02,8.43011e-01,1.90373e-01,2.93420e-01,2.44396e-01,-1.48607e-01,2.02492e-01,-2.69774e-01,1.08043e-01,-2.25956e-01,9.39954e-01,-4.15517e-01,5.30666e-01,4.16105e-01,-1.36040e-01,-5.55554e-01,1.58251e-01,
-2.76280e-02,5.70247e-01,3.91316e-01,-1.03145e-01,-1.06352e+00,1.66132e-01,-1.22593e-01,5.52567e-01,4.38437e-01,-2.23452e-02,4.58365e-01,-7.33065e-01,2.89180e-01,-4.71776e-01,5.31616e-02,1.40795e-01,-1.61003e-01,-5.65718e-01,-5.60433e-01,8.13490e-01,3.98517e-01,2.21246e-01,-1.96115e+00,-9.36841e-02,-9.15960e-01,
9.23875e-01,-4.72435e-01,-7.73674e-01,-7.04258e-01,4.36740e-01,1.14332e+00,5.48747e-02,-1.80033e+00,7.63109e-02,1.22752e-01,-1.01683e+00,-1.08352e+00,-6.10436e-01,-5.62699e-01,-1.64494e+01,6.04813e-02,-6.99359e-01,9.35807e-02,-1.70294e-01,3.50246e-01,3.03234e-01,7.38860e-01,-1.04321e-01,-7.42850e-02,1.84444e-03,
2.77290e-01,4.26214e-01,6.93065e-01,-6.96455e-01,-7.86703e-01,-3.96471e-01,-1.53526e-01,-3.33098e-01,-4.48673e-01,2.36379e-01,3.39599e-01,3.16495e-02,-2.55834e-01,-4.60366e-01,-2.07003e-02,-1.63849e-01,2.87085e-01,5.91258e-01,2.11154e-01,1.67375e-01,3.56002e-01,2.32866e-01,-1.05191e+00,-2.07513e-01,-2.85067e-01,
1.41556e+00,-4.46500e-02,8.05073e-01,1.39591e-01,-1.22227e+00,-1.82660e-01,5.61421e-02,-1.04743e+00,-7.40327e-01,4.29179e-01,-6.91116e-01,1.04216e+00,1.07401e+00,-2.96980e-02,-2.22830e+01,4.52806e-01,-1.78119e+00,-1.26026e-01,4.22858e-01,-1.00878e+00,3.49927e-01,2.89214e-01,5.35427e-01,1.81483e+00,4.17024e-01,
-5.56610e-01,-2.03548e-02,-6.53158e-01,7.24860e-01,2.34039e-01,-3.20900e-01,2.30359e-01,-1.91597e+00,-2.71163e-01,7.18516e-01,-7.51003e-01,2.72663e+00,-7.79998e-01,2.12513e-01,-4.81222e-01,-1.15016e-02,-5.64203e-01,-2.13872e-01,-2.41681e-01,-1.45050e+00,1.29684e+00,-8.21256e-01,-4.94124e-01,6.78805e-01,8.86449e-01,
8.82960e-01,-1.11007e-01,2.42236e-01,-3.55403e-01,-5.70352e-01,-6.94378e-01,-2.15410e-01,-4.94259e-01,-2.44833e-01,8.02904e-03,-3.88268e-01,-1.00716e-01,-3.32840e-01,-1.33804e+00,1.26070e-01,5.82640e-01,1.86804e-01,-6.57809e-01,-1.76568e-01,7.38716e-01,2.85992e-01,1.09954e+00,1.54391e-01,-8.77548e-02,-4.57381e-01,
-4.56964e-02,-8.45124e-03,1.18865e+00,-1.86583e-01,2.22120e-02,-2.34237e-01,3.06125e-01,-1.84194e+00,-2.49976e-01,5.20392e-01,-6.22104e-02,-7.78811e-02,-6.71811e-01,-4.55966e-01,9.81492e-02,3.14062e-02,-2.85497e-01,3.85559e-01,3.37285e-02,5.02076e-01,-1.81196e-02,-9.36680e-02,-1.06332e+00,3.00637e-01,-1.84167e-01,
2.43041e-01,
-4.44371e-02,
-1.36252e-02,
1.89726e-01,
3.20831e-01,
-1.10695e+00,
-6.38890e-01,
-1.81655e-01,
4.06695e-01,
2.52364e-01,
-4.42357e-01,
-2.25764e-01,
4.04368e-01,
-4.26126e-01,
-2.59988e-01,
1.32558e-01,
6.91791e-01,
-1.47197e-01,
-2.69143e-01,
5.00262e-01,
2.81788e-01,
1.73693e-02,
8.51213e-01,
1.02048e+00,
3.46416e-01,
4.15931e-01,-1.35393e-01,-3.71765e-01,2.37311e-01,-5.95311e-01,-2.01280e+00,-2.26148e-01,-4.70934e-01,-3.14849e-01,2.26155e-01,3.91601e-01,5.12824e-02,-2.94270e-01,3.35829e-01,1.67965e-02,-1.06636e+00,1.59962e-01,4.43721e-01,1.18398e-01,-4.31669e-02,4.57679e-01,-1.01083e-01,-4.02458e-01,-1.26184e-01,1.06729e-01,
-3.96615e-01,-3.28223e-01,-3.35409e-02,-3.35917e-01,-1.25246e-01,7.60105e-02,-1.90442e-01,-3.02392e-01,-2.79832e-02,2.18530e-01,2.16145e-01,-4.57876e-02,-1.10941e-01,2.33668e-01,-1.05302e-01,-2.43638e-01,-5.87317e-02,-2.66890e-01,2.37170e-01,1.71694e-01,-3.81790e-01,-1.56896e-01,2.53561e-01,2.30296e-01,1.69484e-02,
2.11649e-01,7.78544e-02,-7.40326e-02,-4.22909e-03,-3.67645e-01,2.75117e+00,3.15063e-01,9.44543e-02,-2.11735e-02,1.44936e-02,-1.07395e-01,-2.08850e-01,-3.96267e-01,-4.00646e-02,-2.85028e-01,-1.95269e-01,1.65987e-01,1.85117e-02,-1.56454e-02,-2.75046e-02,-1.45176e-02,-1.07122e-01,-9.64394e-02,7.08520e-02,1.68424e-01,
-7.86473e-01,-3.78151e-02,4.28311e-01,-1.73927e+00,1.01825e+00,-8.96305e-01,-3.65491e-01,-8.20135e-01,7.51493e-02,-3.78153e-02,1.01864e+00,-9.61021e-01,-8.70501e-01,6.34658e-01,1.74027e-02,-7.43946e-02,4.95296e-01,4.39283e-02,5.58669e-03,-5.04738e+00,-5.01496e-01,-1.06736e+00,8.91913e-03,1.82512e-02,-3.90203e-01,
1.94304e-01,-2.94247e-02,5.35795e-01,-1.36752e-01,-5.82739e-01,4.69435e+00,6.74736e-02,5.63284e-01,4.45988e-01,2.75603e-01,-3.84485e-02,-2.55102e-01,-2.73063e-01,-5.65789e-01,-2.93835e-02,-2.70586e-01,-1.43201e-01,8.64429e-02,-5.12523e-01,-3.60054e-01,1.29866e-01,-1.67770e-01,-1.64453e-01,1.53528e-01,4.63674e-01,
-1.78766e-02,-2.90103e-02,9.29879e-02,1.71818e-01,-2.71109e-01,-3.62496e-01,-2.71998e-01,1.99496e-01,-2.62150e-01,4.37696e-01,-2.38849e-02,-6.75052e-02,1.39342e-01,-1.69121e-01,-1.51354e-01,-2.28897e-01,6.33015e-03,1.90963e-01,-7.38279e-02,-2.61453e-01,7.67605e-01,5.49444e-02,1.04066e-01,1.68170e-01,1.51227e-01,
-1.41062e-01,-8.77700e-03,3.49153e-01,-6.69095e-02,-1.43966e-01,3.17680e+00,1.37585e-01,2.42407e-01,1.73184e-01,-1.03656e-01,3.01353e-02,2.69901e-01,7.53138e-02,-2.84707e-01,-1.57957e-01,-1.63002e-01,5.27852e-01,6.15734e-01,9.58195e-02,-1.46011e-01,-1.18435e-01,-4.64185e-01,-4.96746e-02,5.41960e-01,6.34280e-02,
1.97545e-01,-2.50575e-01,7.25479e-02,-4.81320e-02,-1.69401e-01,3.27125e-01,4.29238e-01,-1.41617e-01,3.48172e-02,-1.10614e-01,-2.23591e-01,-5.41019e-01,2.15722e-02,8.88443e-02,-1.77610e-01,-2.43311e-01,2.90521e-01,-1.02779e-01,1.79762e-01,-6.83720e-02,4.48578e-01,-5.68891e-02,-2.47302e-01,1.24636e-01,-5.16411e-01,
-3.66646e-01,-1.06357e-01,2.37589e-01,-9.26604e-02,-8.86803e-03,1.44763e+00,1.77542e-01,-3.06415e-01,2.00888e-01,-2.33537e-01,-3.19451e-01,1.77336e-02,-2.84609e-01,3.48963e-02,-1.27738e-01,1.31653e-01,2.74934e-01,2.41486e-01,3.53866e-01,-2.70216e+00,-4.70589e-03,-1.65679e+00,-2.54004e+00,-5.84366e+00,2.42798e-01,
8.42102e-02,-2.59229e-01,6.59661e-01,-5.38670e-01,-3.80842e-01,1.78402e+00,4.85090e-01,4.19645e-01,-1.38003e-01,3.75461e-02,6.80127e-01,2.43097e-01,-4.40736e-01,-1.10728e+00,2.87657e-01,1.48574e-01,1.45915e-01,6.93149e-01,-1.16023e+00,-1.75229e-02,1.61151e-01,-3.01964e-01,-6.41527e-02,2.50619e-01,2.95987e-01,
-1.53831e-01,8.46531e-02,-2.49027e-01,-2.56989e-01,-1.20857e-01,5.90243e-02,-6.43665e-02,6.79591e-02,-9.50195e-01,-1.06810e-01,-1.24592e-01,1.72287e-01,2.24005e-01,-1.79773e-01,2.66299e-01,-9.29830e-02,5.46509e-02,6.88628e-01,-1.87125e-01,-3.27213e-02,-2.16701e-01,1.53953e-01,-1.35190e-01,-2.33310e-01,2.17162e-01,
-1.99343e-01,-1.40212e-01,-1.10638e-01,3.27894e-01,-3.37679e-01,1.38606e-01,8.38511e-02,6.50227e-02,-2.92037e-01,3.95817e-01,-1.45394e-02,-2.11595e-01,2.16611e-01,-5.01302e-02,1.64684e-01,-3.28976e-01,-4.14821e-03,-8.89914e-02,-2.36299e-01,5.24931e-02,1.60400e-01,1.22106e-02,8.96375e-02,1.01775e-01,-1.54165e-01,
-7.97053e-02,-4.54897e-01,4.11879e-02,-1.02600e-01,6.05850e-02,-2.45378e+00,2.59474e-02,2.72332e-01,-2.07487e-01,4.04689e-01,7.46169e-02,2.41306e-01,1.04844e-01,-2.80376e-01,3.16537e-01,4.62107e-01,-2.00468e-01,1.45082e-01,-1.96802e-01,4.03619e-01,6.15286e-02,-1.98210e-01,-1.88374e+00,-2.71611e-01,4.42626e-01,
-5.70734e-02,1.31695e-01,-1.21359e-01,-2.57613e-01,1.07494e-03,-3.47327e+00,2.55725e-01,1.30535e-01,-5.14029e-01,3.34768e-01,-1.31867e-01,-2.06460e-01,7.50529e-01,1.09839e-01,-9.19660e-02,-6.65826e-03,-8.78773e-02,1.88459e-01,2.20766e-01,-7.74513e-01,7.70536e-02,8.00969e-01,1.90275e-01,2.76787e-01,1.31358e-01,
6.15096e-02,-8.94269e-01,-1.82962e+00,-8.86534e-02,2.51026e-01,-3.02247e+00,-1.78738e+00,4.98833e-01,-6.96158e-01,4.53277e-01,-3.49293e-01,1.30382e-01,1.38625e-01,-6.07949e-01,2.54553e-01,4.24409e-01,-1.10408e+00,9.90763e-02,7.68998e-02,4.84392e-01,-4.78459e-02,-2.34983e+00,-1.70586e+00,-7.49815e-01,7.26889e-01,
2.04893e-01,-3.03789e-01,-7.67674e-01,4.59458e-01,1.65138e-02,6.43146e-02,7.32654e-01,2.00761e-01,3.50817e-01,-1.73927e-02,-5.84677e-01,-2.57598e-01,3.36498e-01,1.36971e-01,1.57084e-01,-1.74483e-01,-1.46647e-01,-3.03954e-01,3.40683e-01,-1.01343e-02,3.35021e-01,-1.23148e-01,-6.54823e-01,-5.53707e-02,-3.57547e-02,
-2.17941e-01,-2.16758e-01,-2.45873e-01,4.49267e-01,5.49399e-02,4.66950e-01,-2.23863e-01,-3.19948e-01,-1.96428e-01,1.42287e-01,-4.00474e-01,3.41716e-01,3.35718e-01,1.22905e-01,-2.42942e-01,1.11150e-01,1.30393e-01,1.36168e-01,-8.67873e-02,8.98892e-02,3.02063e-01,-1.97166e-01,1.95011e-01,9.50723e-02,-3.24036e-01,
9.45519e-02,1.10180e-01,-1.81718e-01,4.80620e-01,2.01780e-01,1.03314e+00,4.32069e-01,-8.01599e-01,2.65907e-01,2.68636e-01,-1.89735e-01,-5.07252e-01,-1.09923e-01,8.44052e-01,-2.84108e-01,-2.82982e-02,-1.03517e-01,-6.18364e-01,8.03382e-03,4.42509e-01,2.44811e-01,-2.91999e-02,-5.28301e-02,7.87380e-03,5.71069e-01,
-3.64791e-02,-1.24234e-01,1.83818e-01,3.24765e-01,4.18519e-01,-3.50106e+00,3.97756e-01,1.84342e-01,7.09641e-01,-3.46997e-01,3.57492e-01,1.49034e-01,-1.37544e-02,-1.75861e-01,1.92184e-01,2.88665e-01,-1.13133e-01,-6.20286e-01,4.57074e-01,1.10938e-01,6.44254e-03,1.15158e-01,-9.07960e-02,-2.94736e-01,3.32345e-01,
-1.61098e-01,-4.49271e-01,-1.00385e+00,3.98147e-01,2.99243e-01,1.95922e-01,4.43469e-01,-2.60692e-01,2.88559e-01,-7.25567e-03,-4.65562e+00,2.72340e-01,1.38505e-01,2.46439e-01,2.34706e-01,1.77599e-01,-1.74069e-01,-7.83645e-02,1.93385e-01,7.36975e-01,-6.87792e-01,-3.71617e-01,-2.90869e-01,-2.50191e-01,6.66073e-01,
-9.66645e-02,1.95285e-02,3.02857e-02,1.34936e+00,6.96875e-01,1.97666e+00,1.43566e-01,-4.31088e-01,-9.61407e-01,9.22367e-01,-1.99561e-01,-6.89152e-01,8.71181e-01,9.51904e-01,5.73199e-02,-4.29831e+00,5.67795e-01,-1.84747e-01,-3.60827e-02,-2.69475e-01,6.05542e-01,4.21008e-01,-1.24820e-01,7.16910e-02,-1.71960e+00,
2.91984e-01,-2.14708e-01,4.47265e-01,-2.67694e-01,-3.09032e-02,-3.19293e-01,-1.98328e-01,2.18163e-01,-1.51445e-01,-8.51532e-02,-1.24728e+01,1.64662e-01,-1.83821e-01,-3.06770e-01,-2.43940e-01,-3.45872e-01,2.88947e-01,4.83372e-01,4.33539e-01,-6.90010e+00,3.59515e-01,-1.00101e+00,-2.57061e+00,-8.70614e-01,-2.60215e+01,
3.31311e-01,-3.01044e-01,3.63372e-01,-7.63015e-01,-6.82668e-01,1.03569e+00,6.34112e-02,-3.57741e-01,-3.59868e-01,-2.75893e-02,3.89390e-01,-1.10096e+00,1.58011e-01,4.57521e-01,2.41095e-02,-2.67286e-01,2.01989e-01,2.64621e-01,2.12447e-01,-2.84744e-01,1.55418e-01,2.21250e-01,1.08187e-01,4.52993e-01,-8.94185e-01,
3.81701e-01,-2.51946e-01,-3.72391e-01,-2.12613e-01,-2.77906e-01,4.00693e+00,5.37829e-01,4.08206e-01,-8.58082e-02,3.43156e-01,9.69731e-02,-2.74342e-01,7.47370e-02,2.70118e-01,2.46337e-03,-7.93633e-02,-8.38792e-01,1.34662e-01,-4.32949e-01,1.85974e-01,4.47545e-01,-1.36901e-02,-4.04579e-01,3.57074e-02,1.18286e-01,
5.43359e-02,-1.18596e-01,2.72552e-01,-2.14115e-01,1.31595e-01,-7.04763e-01,8.94960e-02,3.04137e-01,2.14250e-01,-1.13252e-01,1.70953e-01,2.46479e-02,2.53245e-01,-2.61286e-01,-2.06514e-01,4.41818e-02,1.95302e-01,-1.40495e-02,8.68206e-02,-4.09139e-01,1.14848e-01,2.55568e-01,3.90813e-02,6.26787e-02,-3.62317e-02,
5.32228e-01,
-9.14891e-02,
7.33097e-01,
-7.64632e-02,
1.48729e-01,
4.00483e-01,
-9.67263e-01,
5.84431e-01,
1.83070e-01,
-6.48843e-01,
6.07062e-01,
5.46360e-01,
-3.61210e-01,
-9.99736e-01,
-4.58240e-02,
-1.30765e-01,
-2.52013e-01,
3.64091e-02,
-7.68381e-01,
-2.01828e-01,
-1.09218e+00,
-1.90680e-01,
1.46718e-01,
-1.31700e-01,
-4.40229e-01,
3.53473e-02,7.45186e-02,-4.84339e-02,2.22420e-01,3.06510e-01,-7.76503e-02,3.85197e-01,-5.74680e-02,-3.92246e-02,-3.09363e-03,2.17007e-01,-9.53743e-02,2.48416e-01,-1.94558e-01,-3.26939e-01,2.54198e-01,-2.13545e-02,6.49429e-02,1.06503e-02,5.69721e-04,8.39567e-02,1.20600e-01,1.27552e-01,-2.27327e-01,9.77488e-02,
3.53182e-01,3.76837e-02,7.13266e-02,-2.09616e-01,-1.17563e-02,2.32878e-01,-1.79492e-01,-2.32914e-01,6.82286e-02,1.28997e-01,5.29517e-02,1.36764e-01,-1.55304e-01,1.62833e-01,-4.17632e-03,-1.48120e-01,-1.84760e-01,8.73989e-02,1.73614e-02,7.67717e-02,9.12682e-02,-1.42509e-01,2.77022e-01,-1.08194e-02,-4.39667e-02,
3.36363e-01,-2.12049e-01,1.15456e-01,4.65516e-01,-1.18712e-01,-1.25666e-03,-1.65712e-01,-1.87816e-01,1.27050e-01,3.16015e-01,-3.27964e-03,3.31303e-03,-6.65347e-02,-8.46457e-02,8.79879e-02,2.20733e-01,5.68512e-05,-9.83544e-02,-2.44731e-02,3.09723e-02,1.92493e-01,-1.36044e-01,7.43185e-01,2.13322e-01,9.95714e-02,
-4.26513e-01,-1.73568e-01,-2.43161e-01,1.00357e-01,-1.17951e-02,2.20857e-01,1.34056e-01,-2.61342e-03,-6.08295e+00,2.05065e-01,1.31862e-01,-1.13109e-01,-2.17356e-01,-5.92464e-02,-1.18739e-01,2.40312e-01,-1.35779e-01,-1.44169e-01,1.06132e-01,-7.89863e-02,-8.56851e-02,1.52936e-01,1.75350e-01,-1.09007e-01,-1.91375e-01,
1.65096e-01,-3.91822e-02,-9.84248e-02,2.35908e-01,-3.51295e-02,-1.39780e-01,-2.12584e-01,2.41779e-01,1.48708e-01,-8.83444e-02,-6.88972e-02,-2.03702e-02,2.71800e-01,2.85666e-02,-2.22596e-01,1.22481e-01,-1.40163e-01,5.11011e-02,-1.76250e-01,-4.93142e-02,1.35412e-01,2.13059e-03,-1.27462e-01,-2.00795e-01,-1.95224e-01,
-1.81886e-01,-1.08563e-01,5.16851e-02,-4.07970e-02,-2.57097e-01,-2.12092e-02,1.64565e-01,-3.33914e-01,4.92570e-02,-3.02143e-01,-2.26661e-01,2.86922e-01,-2.48102e-01,2.03149e-02,2.88885e-01,2.43289e-01,-2.15818e-01,-2.32236e-01,5.68129e-03,1.74722e-01,-2.16779e-01,-3.28023e-01,3.22967e-01,-3.01771e-01,-3.46709e-01,
3.38130e-01,7.33209e-02,-1.75553e-01,3.07023e-01,-2.18854e-01,-1.47933e-01,1.13837e-01,2.34609e-01,-6.92208e-02,-8.06428e-02,5.82057e-02,-4.53774e-01,2.15078e-01,1.57603e-01,-3.12252e-01,7.25007e-02,-3.12586e-01,7.20490e-03,1.74515e-01,-1.59244e-01,-2.30340e-01,-2.53665e-01,1.98241e-01,-3.77950e-01,-1.57883e-01,
-7.85320e-02,-3.05096e-02,1.57651e-01,-1.32554e-01,-2.66555e-01,-3.91496e-01,-2.64190e-01,1.49297e-01,4.94649e-03,1.42237e-01,-1.48271e-01,-8.38931e-02,-1.23950e-01,6.80327e-02,-1.78754e-01,2.64743e-02,4.88537e-02,5.60180e-02,5.34597e-03,-1.26579e-01,-2.18666e-02,-2.14134e-01,2.47437e-01,2.73247e-01,-3.55510e-01,
1.21915e-01,2.29857e-01,-1.68395e-02,-3.67994e-01,1.88767e-01,-4.78374e-01,-1.87088e-01,-8.80644e-02,-2.73753e-01,-2.73542e-01,-1.18929e-01,-2.21022e-01,1.20610e-01,9.81333e-04,5.73290e-02,-3.06006e-01,7.59200e-02,1.04968e-01,-4.71077e-02,-7.48593e-02,-1.53285e-01,-2.63542e-01,-1.24293e-01,-1.40640e-03,-4.37055e-01,
4.79757e-01,-4.00706e-01,1.24299e-01,-7.79548e-02,6.47771e-03,-1.34531e-02,-3.56135e-01,-2.77634e-01,4.59653e-01,1.22540e-01,-7.94113e-02,-6.32460e-02,-1.83122e-01,-3.29071e-01,-2.21719e-01,9.69888e-02,5.47281e-02,3.25560e-01,-4.50284e-02,4.18310e-02,-1.81868e-01,1.11259e-01,-9.60526e-01,-1.48355e-01,-2.63484e-01,
-3.00103e-01,1.50610e-01,-2.49105e-01,-2.61998e-01,2.55289e-01,3.25524e-01,4.54248e-02,-4.36223e-01,1.07758e+00,-4.06085e-01,2.25937e-01,5.64517e-01,-5.68763e-01,-1.73882e-01,6.58799e-01,-9.35239e-01,-8.55575e-01,-2.36191e-01,6.71265e-02,-2.70782e-01,8.09024e-03,-3.65554e-01,7.08345e-01,-1.59438e-02,-5.40817e-02,
9.05152e-02,2.63701e-01,-1.95637e-01,-1.85264e-02,-3.40896e-01,2.06964e-01,1.58450e-01,9.72788e-02,2.63502e-01,2.07554e-01,1.15898e-01,2.14555e-02,1.26908e-01,-2.69714e-03,-5.29735e-02,-2.25859e-01,-3.42836e-01,-1.55885e-01,2.07022e-02,2.84464e-01,2.23554e-01,-5.72283e-02,-1.86175e-01,-2.99237e-01,-2.64346e-01,
1.27943e+00,4.68219e-02,-5.38322e-01,-3.02161e+00,-1.40267e+00,-1.74845e-01,-7.48839e-01,4.44154e-01,-5.45643e-01,-4.64210e+00,9.70583e-02,1.90815e-01,6.23671e-01,-2.47678e-01,-3.64930e-01,2.47077e-01,8.71938e-02,7.39453e-03,-2.27569e-01,3.75113e-01,-3.09706e-01,4.92969e-01,-8.10214e-01,5.72244e-01,6.98600e-01,
-2.58572e-01,-2.44893e-01,2.93301e-02,1.71310e-01,5.54247e-01,1.97775e-01,3.26833e-01,1.58502e-02,-3.63330e-02,5.99371e-02,-3.00169e-02,1.93597e-01,2.13394e-02,-3.31172e-02,-1.18140e-02,-3.25717e-02,-1.47061e-01,3.20402e-01,9.53313e-02,8.14072e-02,5.74285e-03,-1.43723e-01,8.63667e-02,1.71097e-01,-3.61445e-02,
5.02705e-01,2.00705e-01,5.79065e-02,-4.46695e-01,4.20722e-02,3.08130e-01,-8.85555e-02,2.41730e-01,-7.24597e-02,-2.73190e-01,-1.76454e-01,2.19560e-01,5.09118e-02,1.06903e-02,1.31321e-01,-2.31029e-01,-3.24185e-01,-1.14096e-01,4.06408e-02,4.59887e-01,2.87965e-01,1.18185e-02,8.27331e-02,3.58894e-02,-8.46506e-02,
1.40220e-01,-8.37389e-02,-4.25910e-01,2.71978e-01,-3.92623e-01,6.55096e-02,-4.86111e-01,8.78847e-02,-5.36569e-02,1.64557e-01,-5.67720e-02,4.50501e-01,2.52262e-01,-2.45056e-01,-1.89924e-01,1.77604e-01,-3.44815e-02,3.93334e-01,-3.07335e-02,2.74420e-01,7.09551e-02,5.99430e-02,-5.85158e-01,-8.36118e-02,1.69746e-01,
-7.16836e-01,-5.89421e-02,1.73741e-01,1.54473e-01,-8.16332e-02,6.45808e-02,6.48460e-02,-1.37536e-01,8.77389e-02,2.37334e-01,1.84787e-01,2.86251e-01,1.87068e-03,-1.63603e-01,-3.68899e-01,1.90653e-01,7.36506e-02,-4.39257e-01,-1.23631e-01,2.29444e-01,2.46772e-01,-1.19184e-01,8.84905e-02,-1.30991e-01,1.94153e-01,
1.80714e-01,1.36401e-01,-3.50857e-01,-1.54060e+00,4.28817e-01,2.80869e-01,-2.04250e-01,-3.76145e-01,-3.62250e+00,-3.64734e-01,3.79656e-01,3.95099e-01,6.96164e-01,-8.68368e-03,-4.60931e+00,-8.50703e-01,-7.45359e-01,-4.01403e-01,4.75834e-02,-5.28964e-01,2.86281e-02,-1.49782e+01,1.43970e-01,-1.04551e-01,-2.33889e-01,
-2.09270e-01,-1.43482e-01,-1.79045e-01,2.54290e-01,1.58203e-01,-3.71709e-02,-3.69754e-01,-5.00383e-02,-5.48228e-03,-2.87920e-02,1.31407e-01,-1.31836e-01,2.04480e-01,-4.04626e-02,-1.64426e-01,2.98623e-01,-8.95802e-02,-5.61089e-03,4.29488e-02,-2.31195e-01,1.65510e-01,1.61499e-01,4.75112e-02,4.78011e-01,-2.33070e-01,
2.81932e-01,1.97823e-01,-7.46185e-02,2.46602e-02,1.64286e-01,8.37841e-02,-2.27405e-01,6.36800e-02,2.21043e-01,-7.72033e-02,1.52448e-01,1.85802e-01,5.53823e-01,-5.46153e-03,-4.57019e-01,9.68091e-02,-2.92309e-01,8.80793e-02,1.85809e-01,1.77340e-01,7.38603e-02,4.58244e-01,1.38753e-01,-4.63786e-03,-1.38746e-01,
-1.72152e-01,2.52345e-01,5.09001e-02,8.97593e-02,2.04271e-01,-5.31943e-02,-1.40559e-01,-1.88557e-01,-2.68093e-02,1.69473e-01,-8.29852e-02,-6.98432e-02,-1.02374e-01,1.27303e-01,1.08479e-01,-2.68970e-02,5.93061e-02,-1.74150e-01,-3.17322e-02,-5.82704e-02,5.91039e-02,5.63594e-03,1.21214e-01,2.87105e-01,-6.16463e-02,
-1.32001e-01,3.52286e-01,1.24715e-01,5.68105e-02,2.94624e-01,-1.74950e-01,2.42636e-01,-5.61582e-02,-5.10430e-02,1.25893e-01,4.75189e-02,2.42647e-02,6.85091e-02,1.27099e-01,-4.57622e+00,1.74625e-02,5.11454e-02,-1.72273e-01,-3.93171e-02,-1.21875e-01,-9.04958e-03,-1.93007e-01,3.82800e-02,-1.67880e-01,1.66052e-02,
9.21670e-02,2.54169e-01,5.80693e-01,-6.05676e-01,-3.16642e-01,-8.08334e-01,-1.56009e+00,2.02533e-01,-4.87879e-01,1.08847e+00,-8.37131e-01,-6.19168e-02,-2.03536e+00,-1.28302e+00,-1.55336e-01,-9.76239e+00,-2.99218e-01,3.88994e-01,-5.73147e-01,1.41896e-01,-6.78314e-02,-2.55624e+00,4.51222e-01,-1.65996e-01,-1.28681e+00,
-1.49562e-01,6.45869e-02,-3.01325e-02,-1.36755e-01,5.62813e-01,-1.33161e-02,1.28069e-02,-9.94530e-02,-1.39488e-02,1.68216e-01,-1.57136e-01,-3.74713e-02,-1.99251e-01,7.61186e-02,3.05032e-02,-3.21715e-01,1.14961e-01,-2.08359e-01,-1.00080e-01,1.26995e-01,-1.04468e-01,1.08155e-01,-2.35936e-01,4.19328e-01,6.98533e-02,
3.01561e-02,-2.43003e-01,-1.48389e-01,1.52304e-03,4.78834e-02,1.23272e-01,-3.39957e-01,-2.47768e-02,-3.53275e+00,-6.02717e-02,3.41715e-02,-2.43710e-02,-1.59205e-01,-1.34521e-01,-5.75196e-02,-4.05653e-02,-5.28362e-02,-4.27063e-03,1.12449e-02,2.28985e-01,-2.09519e-01,-3.27474e-01,3.50496e-01,-3.41331e-01,1.19269e-01,
7.00758e-02,
2.49441e-02,
4.40458e-02,
4.46590e-02,
-2.94331e-01,
-3.03308e-01,
-2.42569e-01,
-1.11943e-01,
4.23456e-02,
1.16295e-01,
-1.20284e-01,
-3.56862e-01,
-3.55379e-01,
-4.75879e-02,
-2.29564e-01,
-2.01636e-01,
-1.21006e-01,
-1.13516e-01,
2.05856e-01,
-5.24630e-02,
4.67402e-02,
-2.87009e-02,
1.30350e-01,
1.06525e-01,
3.40160e-02,
1.01699e-01,-6.08989e-02,3.96390e-03,-4.44541e-02,4.79440e-01,3.56205e-01,-1.08524e+00,-6.79725e-01,-3.48119e-01,2.64876e-02,-6.21529e-02,-5.04910e-01,-2.05552e-02,-9.02772e-02,-2.29152e-01,6.20090e-02,-6.33931e-03,-1.67267e-02,2.83672e-02,-5.07286e-02,-1.39876e-02,-8.82414e-03,-6.11653e-02,5.79904e-02,-1.68369e-02,
-1.27167e-01,-3.10430e-02,-1.99226e-02,-8.05477e-02,8.59816e-01,3.87809e-01,4.05015e-01,1.03178e+00,2.16964e-01,-2.12256e-02,7.11839e-05,4.40104e-01,-2.87413e-02,-1.70687e-01,-1.38398e-01,1.18232e-01,-4.05013e-02,-3.82992e-03,1.87292e-01,-1.35221e-02,-1.05675e-01,4.61010e-01,-3.34165e-02,9.80948e-03,1.29521e-01,
5.17860e-02,-3.51149e-02,3.49346e-02,1.31000e-02,5.86155e-01,3.82135e-01,1.31536e+00,9.88518e-01,-6.72138e-02,-2.03842e-02,3.44137e-02,5.36593e-01,4.14566e-03,-1.34505e-01,-1.14647e-01,1.32540e-01,-7.35573e-02,-6.92571e-02,-3.45889e-02,-2.03103e-01,-5.19590e-03,2.19834e-02,8.46771e-02,1.13580e-01,-2.76398e-02,
-1.34305e-02,-6.20974e-02,-3.42293e-02,-2.95479e-02,4.57845e-01,5.17693e-02,3.36336e-01,6.57851e-01,4.07810e-01,-1.56985e-02,1.13223e-02,4.12467e-01,-3.82764e-02,-1.63784e-01,-1.17053e-01,1.14788e-01,-3.99530e-02,-1.46013e-02,3.51155e-02,-2.03922e-02,1.45065e-01,2.22154e-01,-1.89885e-02,-2.30122e-02,8.56360e-02,
8.90945e-02,-1.49358e-02,5.23609e-03,-2.63895e-02,6.23056e-01,-2.63576e-01,8.77768e-01,5.95450e-01,-1.02138e-01,-4.91595e-02,2.28070e-03,7.53988e-02,-2.05503e-02,-1.30315e-01,-1.44134e-01,1.33131e-01,-4.35456e-02,1.65380e-02,4.98512e-03,-1.67889e-01,9.85026e-03,3.89695e-02,-1.02237e-02,6.79979e-02,6.97795e-03,
9.14457e-03,-9.26950e-02,-1.16285e-01,3.79274e-02,-5.31632e-01,9.05561e-02,1.04259e+00,1.00806e+00,-3.19779e-02,-4.19134e-02,-4.45856e-02,9.66346e-01,-4.06138e-02,-1.31934e-01,-5.33814e-02,9.84443e-02,-4.60942e-02,-2.63274e-02,-8.93200e-02,4.39803e-03,5.06477e-01,8.47633e-02,-4.98791e-02,-1.33539e-01,1.06768e-01,
1.23443e-01,6.56846e-02,-2.22048e-02,-4.93247e-02,8.73907e-01,-1.39761e-01,6.23146e-01,7.28059e-01,-3.08561e-01,-4.92835e-02,2.33049e-02,-2.77940e-01,-2.28014e-02,-1.32440e-01,-1.84146e-01,1.47388e-01,-3.52234e-02,9.34662e-02,1.90239e-02,-1.88419e-01,-3.03721e-02,4.67242e-03,-2.54239e-02,8.73662e-02,7.04377e-03,
-2.31056e-03,-6.01120e-02,-4.19871e-02,-3.32315e-02,5.08891e-01,8.91726e-02,3.59676e-01,5.84530e-01,-3.40589e-02,-3.24642e-02,6.89319e-03,3.33474e-01,-3.98130e-02,-1.55450e-01,-1.20525e-01,1.11869e-01,-3.72674e-02,-2.96557e-02,2.67142e-02,-2.16295e-02,1.60721e-01,2.11197e-01,-2.77884e-02,-3.59040e-02,7.69730e-02,
1.00666e-01,-1.99820e-02,3.69176e-03,-2.82715e-02,7.65884e-01,-3.73680e-01,7.43027e-01,4.86718e-01,4.08802e-01,-6.31697e-02,-3.32032e-02,5.04872e-02,-3.08863e-02,-1.23366e-01,-1.64614e-01,1.30743e-01,-4.08930e-02,6.50993e-02,-2.18916e-03,-1.50775e-01,1.45652e-02,1.67218e-02,-7.39407e-03,7.05389e-02,1.97413e-02,
1.90606e-01,
1.84508e-01,
1.94460e-01,
-2.48517e-01,
-2.60646e-01,
2.21791e-01,
1.76453e-01,
-2.47524e-01,
-2.61720e-01,
