// Neural Network File Format by Kyle Julian, Stanford 2016
6,4,9,25,
4,25,25,25,25,25,9,
0,
-8000.000000,-100.000000,-100.000000,0.000000
8000.000000,100.000000,100.000000,40.000000
0.000000,0.000000,0.000000,20.000000,-4.647677
16000.000000,200.000000,200.000000,40.000000,22.514692
2.94955e+00,-2.86636e-02,-5.22568e-02,6.78321e-01,
-3.79518e+00,2.24808e-01,-1.46533e-01,-5.17665e-01,
2.73992e+00,-2.89857e-02,-1.04502e-01,-7.80564e-01,
-6.22227e-01,-1.23973e-01,2.08791e-01,7.48078e-01,
-3.64248e-01,-1.62674e-01,-4.30063e-01,-1.92028e-02,
-2.83185e-01,1.44884e+00,-1.25430e-02,-1.81380e-02,
1.51588e+00,-3.56986e-01,4.09717e-01,-3.99147e-01,
3.68224e+00,-2.82204e-01,3.15189e-01,-3.71194e-02,
3.78457e+00,-3.42866e-01,2.94314e-01,8.58122e-02,
-9.39673e-01,-4.02023e-01,4.48001e-02,2.53808e-01,
4.86721e-01,1.51701e+00,2.20642e-03,-1.03856e-02,
5.92614e+00,-2.65103e-03,-3.84585e-03,1.40408e-03,
-3.13248e+00,3.29640e-01,-7.62928e-01,-1.68820e-01,
-7.97489e-02,1.35503e+00,-3.02371e-02,-5.24852e-02,
6.54645e-01,9.93507e-01,1.99273e-01,-7.74469e-02,
-7.77553e-01,5.37869e-01,-7.39072e-01,1.57467e-01,
-8.49255e-01,9.65741e-01,-5.22919e-01,-1.13120e-01,
1.60197e+00,-9.98975e-02,1.55531e-01,-4.11114e-01,
1.35165e+00,-8.77710e-01,1.22585e-01,-3.57352e-01,
3.04952e+00,1.09731e-01,-1.85995e-01,-1.09847e+00,
-4.39544e+00,9.20021e-02,-1.33711e-01,-6.46076e-01,
-3.71085e+00,1.18711e-01,-4.94274e-02,-6.13237e-01,
8.26738e-01,-4.18827e-02,7.13619e-01,-1.75060e-01,
3.72343e+00,-1.74671e-01,5.35912e-02,-6.94836e-01,
-1.88107e+00,2.23246e-01,-3.87472e-01,-3.65599e-01,
1.70400e-01,
9.28787e-02,
-1.68147e-01,
3.59239e-01,
1.94952e-01,
-1.93798e-01,
-1.93697e-01,
1.32893e-01,
1.97365e-01,
3.66992e-01,
1.98668e-01,
2.58689e-01,
2.88450e-02,
2.67276e-01,
2.47590e-01,
4.60061e-02,
3.69569e-01,
7.68903e-02,
-1.45904e-01,
-4.15859e-01,
-2.49324e-01,
-5.07627e-02,
2.03860e-01,
-6.07214e-03,
1.01582e-01,
7.91866e-01,6.47811e-01,-5.49156e-01,-9.15694e-01,1.58001e-01,1.24073e+00,6.97202e-01,5.08062e-01,6.47201e-01,-4.26597e-01,-1.25693e-01,-6.79072e-01,7.99804e-01,-7.03224e-01,-5.93250e-01,7.42761e-01,9.23965e-01,-1.24725e-01,8.17379e-03,-3.18734e-01,8.47233e-02,6.15415e-01,-3.93290e-01,-8.70749e-01,7.61016e-01,
1.37406e+00,7.71731e-01,-1.00384e+00,-8.79792e-01,8.25770e-01,5.91970e-01,1.17812e+00,-1.37733e+00,8.05778e-01,-1.09411e+00,3.17693e-02,-6.52783e-01,6.65782e-01,-7.24209e-01,-1.79474e-01,-2.20229e-01,7.55907e-01,-7.25196e-01,-8.28910e-01,-7.47320e-01,2.91504e-01,8.05928e-01,-1.09743e+00,-7.44944e-01,6.15352e-01,
-4.87984e-01,-1.09006e-02,-3.10131e-01,2.20595e-01,8.38741e-01,1.41835e+00,3.21019e-01,-2.95228e-02,-8.02119e-01,4.59501e-01,1.18423e-01,2.14517e-01,-9.49714e-01,-1.70140e-01,-1.22207e+00,2.79704e-01,6.63973e-01,-4.98863e-01,-1.29596e+00,-4.39712e-01,-2.98630e-01,2.89982e-01,-7.17472e-01,1.24898e-01,-5.53081e-02,
-3.26741e-01,4.05625e-02,-2.09061e-01,-1.49880e-02,-5.63669e-01,4.94876e-01,-1.05846e-01,6.69885e-01,5.62647e-01,3.90162e-01,-1.18216e-01,-9.32244e-03,5.72809e-01,-3.14736e-01,-2.65731e-02,2.23572e-01,-3.65872e-01,1.64387e-01,-1.49952e-01,-8.28242e-01,-9.59020e-01,1.75778e-01,6.54494e-01,4.24099e-01,-3.24026e-02,
7.87452e-01,3.87541e-01,-8.66817e-01,-6.38842e-01,-5.51134e-01,4.77369e-02,3.61190e-01,4.04809e-02,-5.72733e-01,6.55679e-01,-3.08069e-02,-6.13123e-01,3.29813e-01,9.19212e-02,-2.39292e-01,-1.92368e-01,-5.99967e-03,7.14062e-02,8.88554e-02,-1.61339e+00,2.19766e+00,6.96590e-01,1.45575e-01,-5.56865e-01,6.48993e-01,
9.22698e-01,8.29847e-02,-1.51397e-01,-3.84611e-01,-5.61632e-01,6.26786e-01,-5.97624e-01,7.29807e-01,-4.66224e-01,7.48549e-02,-3.15236e-01,-1.17477e+00,4.80195e-01,-5.95025e-01,8.46315e-02,1.34902e+00,7.99696e-01,-5.73817e-01,-4.07252e-02,3.49413e-01,2.75395e-01,7.80251e-01,-6.79978e-01,-7.29519e-01,5.75864e-01,
-2.51472e-01,-1.12778e-01,3.45345e-01,4.66886e-01,2.04886e-01,-4.27209e-01,-1.31676e+00,-1.48952e+00,8.11921e-01,8.02211e-01,3.62590e-02,2.25392e-01,-4.95288e-01,-1.40722e-01,9.92286e-02,-1.67739e+00,-7.87168e-01,3.43655e-01,1.92660e-01,3.50887e-01,8.70007e-01,1.56809e-01,3.81849e-01,5.04262e-01,-7.03565e-01,
-9.38076e-01,-4.53100e-01,-8.25131e-01,3.21964e-01,3.52062e-01,2.69589e-02,3.47510e-01,-3.49233e-02,8.26914e-01,9.89399e-01,-8.90291e-02,1.98844e-01,1.62488e-01,2.87240e-01,8.50170e-02,5.85808e-01,2.21934e-01,-7.70706e-01,-6.49713e-01,-1.36595e+00,-5.51833e-01,-9.74946e-02,-2.24426e-01,-3.13390e-02,-6.89307e-01,
-8.19199e-01,-3.53477e-01,4.24488e-01,4.53308e-01,5.16384e-01,-4.26984e-01,-3.06429e-01,6.65284e-01,-4.93958e-01,3.66133e-01,1.54296e+00,3.42185e-01,-9.21253e-01,-1.30936e+00,5.88954e-02,-1.42396e-01,-7.87805e-01,5.47437e-01,2.24316e-01,4.66323e-01,-8.02262e-01,-3.35823e-01,5.32748e-01,5.52657e-01,-4.24422e-02,
-7.64408e-01,1.62397e-01,-4.09945e-02,9.61680e-01,-8.35961e-02,3.73615e-01,-1.97479e-01,-2.65839e-01,4.48923e-01,2.53858e-01,-3.34435e-01,9.86889e-01,4.23031e-01,4.99543e-01,-4.26102e-01,-2.01532e-01,2.07944e-02,-2.28896e-01,-1.60873e-01,1.53527e+00,-8.75654e-01,-9.87536e-01,1.42586e-01,-7.25693e-01,-5.86826e-01,
1.36790e-01,3.83488e-01,-5.81718e-01,2.09548e-02,4.46920e-01,-1.24027e+00,6.30238e-01,-1.81474e-01,-6.37100e-01,3.68785e-01,1.48277e+00,3.74655e-01,-4.90658e-01,5.27538e-01,3.44261e-01,3.75724e-02,-5.20548e-02,-2.93552e-01,-1.47406e-01,1.11733e+00,-4.37728e-02,-1.69972e-01,-1.10270e-01,-2.55532e-01,-1.34724e-01,
1.10521e+00,5.80036e-01,-4.37061e-01,-1.43321e+00,-4.07452e-01,1.72215e-01,4.91125e-01,-1.22947e+00,-1.17066e+00,9.34238e-01,-4.85647e-01,2.27566e-01,9.51411e-01,2.50182e-02,3.97098e-01,-5.42323e-01,-1.66613e-01,1.07985e+00,1.39449e-01,-1.46309e+00,5.68686e-02,1.03583e+00,5.48675e-01,5.77170e-01,6.80722e-03,
1.34331e+00,6.00198e-01,-6.66066e-01,-1.02137e+00,5.87230e-01,-4.11994e-02,5.06459e-01,-2.98077e-01,-5.81307e-01,-2.72209e-01,-3.75089e-02,-3.54532e-01,3.43557e-01,-6.32311e-01,-1.75953e-01,1.17894e-01,7.30769e-01,-6.66116e-01,-8.04040e-01,-7.96471e-01,2.54861e-01,1.06582e+00,-1.19559e+00,-7.40808e-01,6.68926e-01,
3.95822e-02,-4.32704e-01,-3.47098e-02,3.86127e-01,-9.28022e-02,-1.95449e-01,-9.80086e-01,-5.18368e-01,7.68111e-01,4.57275e-01,-1.92780e-01,-5.32883e-01,-2.77155e-01,5.83531e-01,-1.89906e-01,-6.81887e-01,8.75013e-01,-4.60355e-01,3.20071e-01,-4.00367e-01,1.85198e+00,3.64543e-01,-1.39469e-01,2.09874e-01,-7.43297e-02,
2.25558e-01,-6.72102e-01,3.09707e-01,-3.48591e-01,5.02495e-01,-3.69730e-02,2.07410e-01,2.11068e-01,-2.62477e-01,2.14952e-01,-2.26432e-01,-1.18319e-01,5.27459e-01,1.44564e+00,-7.20662e-01,4.96405e-01,-1.39864e+00,-7.70891e-02,8.58322e-02,-2.67167e-01,-1.22716e-01,3.32811e-01,5.63446e-01,-7.94303e-02,5.38312e-01,
-1.19092e-01,1.05105e+00,-5.38088e-01,2.33397e-03,4.99885e-01,-3.51503e-01,4.86904e-01,6.20242e-03,-3.85492e-01,8.10416e-02,5.86890e-01,9.53019e-01,8.77966e-01,-1.91010e-01,-1.49858e-01,-1.11026e+00,-3.20769e-01,-2.12651e-01,-4.77398e-01,5.92973e-01,-4.88306e-01,2.41325e-01,-2.00233e-01,-4.23641e-01,3.39927e-01,
8.75577e-01,-3.38148e-01,6.66601e-01,-4.13706e-01,6.63999e-01,-1.15384e-01,-8.21254e-01,1.28420e-02,-1.86712e-01,-5.47619e-01,1.02861e-02,5.87764e-01,8.24602e-01,-2.70458e-01,1.10294e-01,-1.52211e+00,3.10874e-01,6.12858e-02,2.74000e-01,-5.41623e-01,-1.83566e+00,4.12079e-01,1.00858e+00,3.87184e-01,-8.70933e-02,
3.93630e-01,6.11859e-01,-1.00391e-01,-8.89281e-02,8.29683e-01,4.36352e-01,1.65872e-01,8.20690e-01,-6.04597e-01,-2.03573e-01,1.36343e+00,-8.89307e-01,-3.65600e-01,-3.53849e-01,-1.32364e+00,-3.21826e-01,-7.52506e-02,-1.58994e-01,-1.77234e-01,-5.69855e-01,-5.79149e-01,4.35233e-01,8.30617e-02,6.81723e-01,6.91697e-02,
-2.78344e-01,-1.86213e-01,-2.47000e-01,-1.74029e-01,5.44229e-02,5.93446e-02,2.24546e-02,-3.38260e-01,2.09048e-01,-1.95412e-01,-2.63163e-01,8.54020e-02,-1.80009e-01,-6.46326e-02,2.29758e-01,2.79397e-01,6.84564e-02,-1.27576e-01,6.39895e-02,-3.30180e-01,1.49464e-01,-1.07378e-01,-1.05689e-01,6.44994e-02,1.91676e-01,
-6.68836e-02,-7.47703e-01,7.78572e-01,-1.36450e-02,-2.35880e-01,-9.16398e-01,-1.70053e+00,-1.92696e-03,-1.36172e-01,-1.04782e+00,7.67167e-01,6.08942e-01,-1.13390e+00,2.54505e-01,-2.93405e-01,6.82520e-01,2.31278e-01,1.40616e-01,1.04475e+00,2.19307e-01,-1.86623e+00,-3.65025e-01,-7.83017e-01,-8.36933e-02,-1.41200e-01,
9.15064e-02,2.41827e-01,-3.57232e-01,2.52063e-01,1.58497e-01,-2.52993e+00,5.43357e-01,-7.81808e-01,-2.58628e-01,3.73104e-01,1.43573e+00,-7.04514e+00,-5.42009e-01,3.15738e-01,5.73795e-01,3.60308e-01,4.25902e-01,-2.51574e-01,-4.65270e-02,1.17133e+00,-7.59131e-02,-1.50676e-01,-2.56830e-01,-2.06270e-01,1.59927e-01,
-1.28939e-01,-3.59539e-01,1.80092e-02,2.74109e-01,4.66854e-01,-1.26945e-02,5.32490e-01,-5.55367e-01,-8.31119e-01,5.79968e-01,-8.03368e-01,-8.48271e-01,-4.79558e-01,2.31853e-01,8.58815e-01,-9.88746e-01,7.18488e-01,3.01156e-02,-1.17784e-01,-2.48657e-01,-6.22475e-01,-1.18241e-01,5.85493e-02,-6.58524e-02,2.32839e-01,
-8.05336e-01,7.88083e-02,-7.68252e-02,-1.05163e-01,6.83798e-01,1.02750e+00,1.35692e-01,6.58587e-01,-5.37913e-01,4.34715e-01,-9.27311e-01,4.96835e-01,-1.24479e+00,6.93564e-01,2.69063e-01,4.68198e-01,-4.97743e-02,9.75990e-01,-4.96010e-01,6.07649e-01,6.35264e-02,2.58073e-02,-3.54147e-01,-2.80575e-01,2.83904e-01,
-7.69719e-02,7.60516e-02,-7.34258e-02,4.44913e-02,-1.51294e-01,1.69230e-02,1.54718e-01,1.74294e-01,-7.71450e-01,5.47505e-01,3.80141e-02,-1.78592e+00,7.73179e-03,-9.72511e-02,5.94611e-02,-7.33723e-02,2.99868e-04,1.02068e-01,-1.56774e-03,-1.78810e-02,2.03435e-01,3.26348e-02,6.65524e-02,-5.91081e-02,8.53934e-02,
5.64155e-01,7.82882e-01,-4.80659e-01,1.23308e-01,-1.25890e+00,-8.94258e-01,-9.52547e-01,-5.67172e-02,3.39438e-02,-2.57229e-01,-1.10858e+00,-7.31143e-01,3.15071e-01,2.05190e+00,1.03275e+00,-2.16102e-01,8.20309e-01,-2.11536e-01,1.48257e-01,5.73351e-02,-4.05799e-01,-2.50717e-01,-2.39671e-01,5.32668e-01,-3.96504e-01,
4.76341e-01,
5.02005e-01,
4.12058e-01,
2.49066e-01,
4.50951e-02,
1.41261e-01,
-2.08413e-01,
1.65746e-01,
-1.62649e-01,
1.57635e-01,
6.66148e-02,
-4.89912e-01,
5.43334e-01,
-3.26250e-03,
2.33056e-01,
6.28939e-02,
-4.82372e-01,
1.26835e-01,
-2.77278e-01,
-1.16666e-01,
5.67301e-01,
4.08193e-01,
-4.79999e-03,
9.75348e-01,
-2.72324e-01,
-7.81269e-01,7.88566e-01,1.78469e-01,1.46589e-01,-1.58696e-01,-1.24498e-01,-9.04835e-01,-4.58880e-02,2.95138e-01,1.41212e-02,5.34169e-01,5.74609e-02,-3.40943e-01,2.98987e-02,5.49148e-01,2.85170e-01,-4.25036e-01,-7.54127e-02,-1.70477e-01,1.14410e-01,1.88416e-01,-8.16277e-01,-4.41541e-01,3.32606e-01,-2.93210e-01,
-5.73559e-01,2.31011e-01,-9.69368e-02,-1.87194e-01,2.99824e-01,-4.09146e-01,-2.92921e-01,9.72528e-02,3.74471e-01,3.02954e-02,-2.10616e+00,3.96473e-02,2.81732e-01,-4.31728e-01,2.33521e-01,1.91536e-01,-1.29766e+00,-7.58406e-02,-1.18329e-01,1.11639e+00,1.99218e+00,-1.08978e-01,-2.89283e-01,1.58826e-01,-5.13184e-01,
-3.34972e-01,1.01895e-01,1.43782e-01,-1.18294e+00,7.46793e-01,2.95545e-01,-2.80047e-01,5.46894e-01,8.36676e-01,2.25289e-01,-8.72047e-01,-1.68982e-01,5.81813e-01,-1.14651e+00,-1.34015e-01,-4.93973e-01,-5.29039e+00,-3.09992e-01,-3.20132e-01,1.15583e+00,-3.17307e-02,8.44233e-01,-4.79308e-01,2.68820e-01,4.95559e-01,
1.15474e+00,-1.44696e+00,4.34332e-01,9.07887e-02,-2.02021e-02,-1.45229e-01,9.92387e-02,-3.93114e-01,1.09862e+00,-3.23969e-01,-3.90604e-01,6.38573e-01,4.15250e-02,1.52161e-01,-1.02354e+00,2.50820e-01,-6.93647e-01,7.36412e-01,3.24014e-01,2.96976e-01,-5.94004e-02,1.70116e-01,-9.65169e-01,-1.39286e-01,5.04000e-01,
-1.54039e-02,2.87258e-01,3.25646e-01,-4.71815e-02,-1.16160e-01,5.19968e-01,3.97289e-01,-1.62394e-01,4.82611e-01,-6.45853e-01,3.88764e-01,-2.17447e-02,-9.62458e-01,-2.00089e-01,2.15033e-01,-9.13007e-03,4.25181e-01,2.96542e-01,2.30870e-01,-7.76518e-01,-3.27693e-02,-5.06556e-01,8.15677e-02,2.30760e-01,-2.89519e-01,
-1.38609e-01,-1.59024e-01,-1.32748e-01,-2.25234e-01,1.96837e-01,3.25075e-02,-4.85326e-02,3.08160e-01,-2.49687e-02,1.56706e-01,-2.28449e-01,-1.67992e-01,-7.44770e-02,1.22476e-02,-7.27731e-03,-2.97827e-01,-2.32106e-01,9.54941e-02,-3.04591e-01,-2.40787e-01,-7.48980e-02,-2.29715e-01,-1.21687e-01,-1.17135e-01,-1.45795e-01,
2.18414e-01,-2.38312e-02,-1.01071e-01,-8.78394e-04,-1.45149e-01,-1.31510e-01,-7.21370e-01,9.80977e-01,-2.60053e-03,-2.51585e-01,-5.11778e-02,8.33695e-01,4.27089e-01,2.00855e-01,3.21049e-01,-3.20077e-01,-3.40979e-01,1.48826e-02,-4.93436e-02,7.65714e-01,8.47711e-02,2.32224e-01,-1.19591e-01,1.51084e-01,1.72981e-01,
-1.19625e-02,-1.58487e+00,-1.86081e-01,9.87637e-01,2.18224e-01,8.50212e-02,-9.41112e-02,-2.71545e-01,-4.34332e-01,2.85844e-01,-5.94823e-01,2.19172e+00,1.06532e+00,-1.81289e-01,-4.77421e-01,-1.24225e-02,-9.95657e-01,4.60363e-01,-2.62881e-01,5.91358e-01,-2.95570e-01,9.39916e-01,8.35363e-02,-2.86029e+01,-1.52260e-01,
1.50772e-02,2.84143e-01,-1.62530e-01,5.05120e-01,-3.66450e-02,-4.31435e-01,3.96514e-01,-1.01285e-01,-1.85461e-01,3.71504e-02,-4.84025e-01,-1.72933e-01,5.65854e-02,-4.97287e-03,2.72340e-01,-2.28366e-01,-8.86796e-01,4.47614e-01,-3.26404e-01,-7.35739e+00,2.20831e+00,-7.64903e-01,-3.83759e-02,-6.04432e-01,-1.54420e+01,
1.63576e-01,-1.15534e+00,1.18554e-01,5.03770e-01,-5.03512e-01,4.86579e-02,-2.12910e-01,-3.56474e-01,-4.66820e-01,-8.16071e-01,-1.74056e-04,5.75562e-01,4.35769e-01,1.92464e-01,1.38250e-01,4.70976e-01,-5.83819e-01,-1.98322e-01,2.66455e-01,1.35623e-01,7.80840e-03,3.73046e-01,2.24538e-01,-3.98635e-02,-4.92722e-02,
-3.27599e-01,7.56293e-01,-3.39978e-01,7.11262e-01,-2.52785e-02,1.36767e-01,-1.01985e+00,2.58141e-01,1.01788e+00,-1.29053e-01,-1.63595e-01,-3.63812e-02,-4.59896e-01,5.24440e-01,-3.30674e-02,7.09335e-02,-1.27249e-01,1.86472e-01,8.52128e-02,-1.55796e-01,3.13094e-01,-1.12885e-02,5.41287e-01,-6.15933e-01,3.45249e-02,
6.34137e-03,2.65741e-01,6.16125e-01,-5.15785e-01,3.20317e-01,-3.73152e-01,-2.33776e-01,-1.02761e-01,-7.05240e-01,-3.20844e-01,-9.08938e-02,1.78741e-02,-9.49008e-01,-3.86896e-01,2.92562e-01,-2.57528e-01,4.40109e-01,1.08304e-02,1.54051e-01,5.34134e-02,-6.12717e-02,-1.26456e-01,1.80400e-01,-1.14307e-02,2.55329e-01,
1.49429e+00,-1.01529e+00,7.17309e-01,-5.30238e-01,-3.67831e-01,-8.15360e-01,-5.53452e-01,-2.93960e-02,-1.88538e+00,-3.87778e-01,2.23205e-01,5.22754e-01,-8.81018e-02,5.46956e-01,8.83826e-02,2.43098e-01,-7.75968e-01,3.04239e-01,2.69246e-01,1.46836e-01,-1.46726e-01,7.18894e-01,4.47124e-02,1.52988e-01,-8.40359e-02,
1.68921e-01,-9.30250e-02,-5.96611e-01,1.92520e-02,4.83139e+00,1.88272e-01,5.92847e-01,4.05020e-02,-2.41049e-01,-3.60261e-01,7.22652e-01,-6.04147e+00,9.85959e-03,-4.70506e-01,-3.32495e-01,-5.08907e-01,-2.78542e-01,5.62259e-01,1.85787e-01,-1.20529e-01,-4.98952e+00,2.15995e-01,-2.45391e-01,-2.52035e+01,-3.14110e-01,
3.38067e-01,3.39739e-01,2.25547e-01,3.84807e-01,-7.66738e-01,-5.17121e-02,6.51973e-01,-7.08845e-01,-9.01707e-01,-5.68811e-01,2.48411e-01,9.19814e-02,-5.03993e-01,4.28810e-01,4.94928e-01,-6.45947e-01,2.63606e-01,2.25065e-01,2.63814e-01,-5.17121e-03,-2.09077e-01,5.42853e-01,-1.49734e-01,9.90885e-02,-1.28057e-01,
3.60727e-01,-1.51957e+00,-1.22114e-01,6.54422e-02,-8.65439e-01,-8.93095e-01,-2.50516e-01,-2.58999e-01,-2.38413e-02,-2.56689e-01,-9.44874e-02,2.22435e-01,1.57858e+00,4.06306e-01,5.61728e-01,5.05431e-02,-4.23687e-01,-8.14207e-02,-2.39533e-01,3.87206e-01,1.73080e-02,-3.45495e-01,-1.59671e-01,6.10289e-01,1.71923e-01,
-3.31522e-01,-6.80671e-02,1.37526e-01,-3.26017e-01,7.57631e-02,-2.98960e-01,3.47465e-02,-3.42839e-01,2.54011e-01,7.21883e-02,-3.98539e-01,9.87484e-02,-5.48139e-02,2.29037e-01,-1.52776e-01,3.83594e-02,-3.56883e-01,-2.44952e-01,6.41502e-02,1.64823e-01,-2.43217e-02,-2.78414e-01,-1.78318e-01,-3.18158e-03,-1.35751e-01,
-9.96899e-01,-1.29495e-03,2.88824e-01,1.05092e-01,1.38044e+00,7.45560e-02,-2.06340e-01,1.49969e-01,8.92697e-02,4.09208e-01,1.64071e-01,-4.77175e-01,3.62545e-02,-1.03794e+00,-8.45169e-01,-3.63118e-01,-1.42240e-01,1.14673e+00,5.86849e-02,5.21245e-01,-4.69283e-02,8.44919e-01,-2.52514e-01,1.64640e-02,7.94172e-02,
-2.96402e-01,-2.09203e+00,2.21557e-01,-4.26565e-01,2.21932e-01,1.09328e+00,2.24233e-01,1.38133e-01,2.37987e-01,-6.61293e-02,2.28639e-01,-6.97225e-01,-3.40813e+00,-5.16678e-01,1.21968e+00,-3.05505e-01,6.09084e-01,1.03057e+00,5.05743e-02,-7.42891e-01,-3.99765e-01,-6.45340e-02,3.80511e-02,-5.47031e-01,1.31316e-01,
-7.94968e-02,9.92059e-01,-2.98267e-01,2.95910e-02,-1.84040e+00,-3.88907e-01,-6.85421e-02,3.92558e-01,-4.21949e-02,-2.71713e-01,-8.14457e-02,1.73070e+00,-5.16589e-01,-1.65627e-02,-9.76417e-01,3.96694e-01,6.11091e-02,8.76306e-01,3.32503e-01,2.77286e-01,8.57085e-01,-1.56525e+00,2.28563e-01,1.62450e-02,1.78999e-02,
-4.86817e-02,-3.59132e-02,4.31477e-01,4.30539e-01,5.59887e-01,3.51870e-01,7.58433e-01,-1.34600e-01,3.38837e-01,-1.98941e-02,2.13367e-01,9.06701e-03,-2.21310e-01,-3.57649e-01,-7.54163e-02,-3.94592e-01,-4.44112e-01,-1.18937e-01,1.30170e-01,-2.81419e-01,-3.19938e-01,6.98712e-01,-5.97322e-01,1.68864e-02,-1.66627e-01,
-3.41300e-01,7.04941e-01,1.75237e-01,4.36770e-01,1.34359e+00,-4.38080e-01,2.08806e-01,1.87739e-01,6.24646e-01,6.38206e-01,9.45981e-02,-1.01652e+00,-1.43111e-01,-1.25213e+00,-3.71390e-02,-6.88250e-01,3.35434e-02,-1.51535e+00,4.17956e-02,-3.33571e-01,5.13233e-01,-4.07608e-01,3.92224e-01,-2.68036e-01,-2.35143e-01,
-1.94580e-01,5.15889e-01,-4.61648e-01,4.12185e-01,-9.03531e-02,-6.08024e-01,-1.53137e-02,-8.04532e-02,6.86785e-01,7.40968e-02,1.99417e-01,-3.15382e-01,5.09798e-01,1.94068e-01,-1.86612e-01,-7.91838e-01,4.63199e-01,-2.71492e-01,-2.92274e-01,-4.45412e-01,2.36131e-01,-3.20010e-01,5.00341e-01,-7.69999e-02,-3.66312e-01,
-1.55709e-01,-1.41533e-01,3.65512e-01,1.53411e-01,4.95341e-01,8.60003e-02,-3.25468e-01,1.89336e-02,-4.58013e-02,5.27530e-01,-2.09835e-01,-7.51914e-02,8.29563e-01,-7.28120e-02,-7.41469e-01,-3.22149e-01,-7.57338e-02,6.89265e-01,3.21782e-02,-2.52504e-01,-2.84238e-02,-1.57991e-01,-9.80613e-02,-9.76645e-02,-5.10930e-02,
6.33008e-01,1.31534e+00,5.98665e-01,-3.23780e-01,-7.19798e-01,-2.07461e+00,3.20108e-01,-9.85269e-01,-7.27382e-01,-1.79717e-01,2.20174e-01,1.03747e+00,1.55056e-01,-4.01035e-01,7.03555e-02,-7.25195e-01,-2.15893e+00,1.43471e-01,-2.78550e-01,-1.02802e-01,-1.70507e-01,1.07710e-01,-9.27240e-01,7.70830e-01,1.98115e-01,
4.18170e-01,
-6.42258e-01,
-2.78498e-01,
2.67378e-01,
7.21844e-01,
-3.46176e-01,
-4.01279e-01,
2.66144e-01,
-5.48568e-01,
9.13472e-01,
3.31280e-01,
9.23556e-01,
-1.25738e+00,
4.37457e-01,
6.27247e-01,
2.11796e-01,
6.62906e-03,
-5.67855e-01,
3.68786e-01,
2.28664e-01,
2.86352e-01,
2.64581e-01,
1.17695e-01,
2.85491e-01,
-3.44079e-02,
-2.91722e-01,2.17045e-02,2.25269e-01,-1.03987e-01,1.46753e-01,-1.09150e-01,-5.86348e-02,3.00630e-01,7.57117e-02,-3.55062e-01,-5.38863e-03,1.54472e-01,2.90626e-01,6.88444e-02,1.39067e-01,-3.35249e-01,-2.76764e-02,8.50194e-02,-5.01455e-02,2.25186e-01,2.22916e-01,-3.29619e-01,-1.13181e-01,-2.54524e-01,4.56439e-02,
9.29655e-02,5.30022e-01,-4.32545e-01,-2.09504e-01,-7.43623e-02,-2.47066e-01,5.26718e-01,7.60423e-01,4.95051e-01,-2.42538e-02,-1.31336e-01,3.18482e-01,-2.16363e-03,1.08538e+00,-3.71186e-02,-2.81610e-01,-1.58306e-01,2.48512e-01,-2.56913e-01,-5.04299e-01,3.79808e-01,1.03593e-01,2.14503e-01,1.55780e-01,-6.65714e-02,
-5.37052e-01,1.45109e+00,-1.91986e-01,-2.90528e-01,-1.99799e-01,2.75827e-01,-1.26521e-01,-4.64596e-01,-3.85468e-01,1.01681e+00,-1.97785e-01,2.15386e-01,-4.13582e-01,3.13342e-01,-1.17418e-01,-4.61140e-02,-2.70531e-01,-5.69209e-02,-1.96742e-01,-1.01031e-01,-4.32004e-02,2.01567e-01,1.75331e-01,-9.26881e-03,-1.36854e-01,
1.87437e-01,-2.81996e-01,7.81333e-02,2.45648e-01,3.22226e-02,-1.51667e-01,-3.68235e-01,8.47252e-02,1.22193e-01,7.37558e-01,-2.21794e-01,3.32923e-01,4.26028e-01,-3.08704e-02,8.15696e-02,9.98349e-02,4.78586e-02,-1.84813e-01,-2.22356e-01,1.79444e-01,-1.66106e-01,3.17059e-02,1.28056e-01,3.62274e-01,-3.59614e-01,
1.36072e-01,-4.90617e-02,6.15800e-01,3.34632e-01,1.78032e-01,2.01459e-01,-5.51609e-01,6.43496e-02,5.72222e-01,6.80713e-01,6.23705e-02,-4.50066e-02,-5.55021e-01,-2.19928e-01,7.23620e-01,1.27656e-01,6.84011e-02,-8.19340e-02,2.17283e-01,4.54830e-01,-5.80633e-01,3.19500e-01,-9.17054e-01,1.87487e-01,-5.30364e-01,
3.57010e-02,1.28879e-01,2.60869e-01,-4.24692e-02,4.90157e-01,2.31063e-01,-2.13844e-01,2.07908e-01,1.82967e-03,6.05251e-01,-7.59838e-02,3.43078e-01,-5.05216e-01,8.44914e-02,1.13757e-03,1.24218e-01,-4.55739e-02,4.84521e-01,-1.21213e-01,3.39058e-01,-2.20466e-01,-5.26485e-02,-4.14346e-02,-1.30391e-01,3.06044e-01,
2.79514e-01,-5.73784e-01,-3.59218e-02,-2.75464e-01,-3.81128e-01,2.26045e-01,-1.19710e-01,1.48681e-01,2.34266e-02,7.50229e-01,-5.38172e-01,-1.59404e-01,-5.91177e-01,1.59069e-02,-2.40661e-01,5.04669e-01,-2.03624e-01,9.47715e-02,7.28286e-01,2.21524e-01,5.31072e-02,1.33624e-01,3.53680e-01,1.76671e-01,2.36738e-01,
-9.77287e-02,8.80084e-01,-9.80055e-02,-8.34704e-02,-1.10796e-01,3.20767e-01,1.56914e-01,2.86594e-01,1.47811e-01,-7.10159e-03,2.73692e-01,-3.45249e-01,6.73004e-01,4.01964e-01,1.12269e-01,-5.81515e-02,2.64939e-01,1.31871e-01,9.85050e-03,-2.02805e-01,1.82722e-01,4.19291e-01,-4.31677e-01,-7.94638e-02,-1.26309e-01,
-3.68817e-03,-6.77444e+00,5.65705e-01,-3.75162e-01,-5.24288e-01,3.28011e-01,-5.49184e-02,-1.42403e-01,-1.70218e+00,4.54136e-02,-2.22613e-01,5.43012e-01,-1.70278e+00,-5.82801e-03,-2.35852e-02,-1.39299e+00,2.72745e-01,-1.60408e+00,-1.94458e-01,5.78106e-01,4.77708e-01,4.50828e-01,-3.37839e-02,-5.91182e-01,9.99136e-01,
-7.18300e-02,7.52367e-01,-4.91600e-01,-1.77403e-01,2.92963e-01,-2.62067e-01,7.02110e-01,3.38862e-01,-3.97828e-01,-2.14064e-02,-1.82115e-01,7.62595e-01,-9.20878e-02,4.14219e-01,-4.69185e-01,-4.44685e-01,-2.74226e-01,5.42906e-01,-4.38023e-01,5.29614e-01,4.06946e-01,-9.27000e-01,-3.33654e+00,-1.99129e-01,2.94338e-02,
2.74841e-01,-4.78702e-01,2.55975e-01,-3.96079e-01,-2.00404e-02,2.24455e-01,-8.19236e-02,-1.44460e-01,-7.05346e-01,3.92304e-01,-1.10013e-01,6.82021e-02,3.71177e-01,-9.34504e-02,3.79823e-01,-4.62967e-01,-8.63788e-02,-7.13471e-02,-1.24878e-01,4.13879e-02,-1.87175e-01,-7.72341e-02,9.24378e-02,1.27260e-01,5.80052e-02,
-1.59457e-01,8.13972e-01,6.99691e-02,-4.00962e-01,1.52024e-01,-1.47638e-01,-4.69085e-01,4.63097e-02,2.32413e+00,7.86166e-02,4.70996e-01,1.57236e-01,-2.06484e+00,4.03790e-02,5.63660e-01,1.60868e-02,-1.09943e-01,7.06336e-01,1.88264e-01,-8.44957e-02,9.70929e-02,-1.88166e-01,-2.31089e-01,4.81006e-01,4.66898e-01,
4.73826e-02,1.47671e+00,1.95374e-01,1.89430e-01,7.16003e-02,-3.17219e-01,-1.73846e-01,8.80922e-02,1.52247e+00,9.76237e-04,6.79783e-02,2.06091e-02,-8.66998e-02,-7.86890e-01,8.18136e-02,3.32446e-01,-2.03589e-01,3.43979e-01,3.64354e-01,6.26453e-03,-3.69459e-01,1.56459e-01,-5.76362e-01,4.26473e-02,1.82470e-01,
3.86837e-01,-3.71281e-01,1.10949e+00,-7.05877e-01,1.09923e-01,-1.50487e-01,-6.81920e-01,-1.56806e-01,-3.27518e+00,3.68403e-01,1.39388e-01,3.49953e-01,-8.04682e-01,3.67879e-01,6.10288e-01,-6.17669e-01,3.06672e-01,2.00233e-01,-6.91177e-01,2.82972e-01,-1.27896e-01,7.96044e-02,-1.99723e-01,-4.10283e-01,7.65340e-01,
1.88739e-01,8.53768e-01,3.11005e-01,2.75914e-01,2.43727e-01,-2.70695e-01,-1.24157e-01,3.60129e-01,1.29810e+00,2.96869e-02,-2.65949e-01,-1.14642e-02,-9.44490e-02,1.79200e+00,-1.08164e-01,3.23652e-01,9.13059e-02,1.92488e-01,4.76053e-02,-2.80168e-01,-3.11851e-01,-7.53978e-02,1.66995e-01,-6.43840e-02,1.66321e-01,
-7.52218e-02,-5.60998e-01,-5.91557e-01,-1.32358e-01,2.79468e-01,3.05497e-01,4.68406e-01,4.92375e-01,-1.78147e-01,3.18561e-02,-7.61265e-01,1.12493e-01,-3.88272e-01,1.92347e-01,-5.78131e-01,-3.42904e-01,8.27562e-02,-1.21406e-02,-9.69902e+00,-5.23260e-02,2.05278e-01,-6.03790e-01,1.37257e+00,6.64017e-02,-2.28067e-02,
2.78913e-01,1.79598e+00,-5.58190e-02,5.67985e-01,-4.98351e-01,3.36779e-01,3.00939e-01,1.89213e-02,8.50229e-01,3.12572e-01,-4.28115e-01,1.03138e-01,-4.00136e-01,1.30625e+00,-4.51942e-01,9.90029e-02,1.18365e-01,8.86689e-02,-1.15589e+01,1.70003e-01,-1.59254e-01,-1.21321e+00,3.71686e-01,-2.67487e-01,-1.85325e-01,
3.56845e-01,-8.27649e+00,-2.53521e+00,-4.61663e-01,2.84590e-01,-2.18575e-02,-3.25659e-01,8.49955e-02,-6.76712e+00,-1.35776e-01,-3.38303e-01,1.35564e-01,4.68057e-01,-3.46513e-01,1.21673e-01,1.23815e-03,1.57560e-01,5.25570e-01,3.75718e-01,6.64208e-01,-1.37723e-01,8.32607e-02,2.26831e-02,6.22299e-02,3.14621e-01,
-2.67138e-01,6.87982e-01,-1.26688e-01,-5.46135e-02,4.11150e-01,7.98159e-02,3.20163e-02,-7.05914e-01,7.07206e-01,4.03350e-03,-2.40082e-01,1.37414e+00,-1.19479e+00,-5.07706e-02,-2.07370e+00,-1.74687e-01,-2.82832e-02,-3.05417e-01,-8.11712e-01,5.42928e-01,2.73089e-01,9.03563e-03,3.04646e-01,7.46043e-02,2.13803e-01,
-1.47921e-01,1.47208e+00,-1.08175e-01,2.57533e-01,5.02480e-02,-2.97194e-01,2.11484e-01,-7.87862e-02,2.10552e+00,-5.85464e-02,-2.60624e-01,-2.44472e-01,2.54521e-01,1.52891e-01,-9.54792e-02,2.24794e-01,-3.23948e-01,1.31638e-01,-1.89587e-02,-2.17883e-02,1.55969e-02,7.18479e-02,2.10554e-01,1.07474e-01,-5.51554e-02,
3.03152e-01,-3.85341e+00,-1.68440e-01,-1.46596e-01,-2.08001e-01,1.08434e-01,4.09050e-01,-1.64404e+00,2.06060e+00,1.63347e-01,-1.04042e+00,3.62165e-01,-5.62242e-02,3.44536e-01,-1.84654e-02,-3.92658e-01,8.88035e-02,5.08589e-01,1.42725e-01,5.62809e-01,-4.52765e-01,-1.18104e+00,-5.25445e-01,-1.43349e-01,-1.83216e-01,
4.96836e-03,-1.54774e+00,5.21106e-01,5.35023e-02,-1.12160e-01,-3.15868e-01,-1.24683e-01,1.33603e-01,2.54997e+00,5.07113e-02,8.96566e-02,-7.35246e-02,-6.96019e-01,-6.44035e-01,9.73578e-02,2.99176e-01,5.73113e-02,7.15257e-02,2.98177e-02,1.67479e-01,2.00980e-01,1.69930e-01,-1.73094e-01,-2.89506e-01,2.13985e-02,
2.84789e-01,3.88455e-02,-2.93035e-01,-3.08613e-01,6.86126e-02,-1.11286e-01,1.31485e-01,8.81917e-01,8.54358e-01,2.49986e-01,-2.35898e-01,1.50607e-01,-3.25133e-01,-2.76480e-01,-3.36166e-01,4.36284e-01,-3.47149e-02,2.08274e-01,2.27451e-01,-2.20666e-02,-3.17798e-02,-4.16347e-01,5.63955e-01,2.36297e-01,2.27086e-01,
1.89144e-02,-1.22026e+00,-3.08614e-01,-1.76038e-01,1.30880e-01,-5.56047e-02,-4.02704e-02,1.61735e-01,1.94460e-01,1.14270e-01,-1.57847e-01,-3.35976e-01,6.10131e-01,1.18321e-01,8.93518e-03,2.33830e-01,2.20196e-03,1.55891e-01,1.55475e-01,-1.11299e-01,-2.14258e-01,1.59192e-01,3.51491e-02,3.72355e-01,-2.35686e-02,
2.29702e-01,2.63499e-01,-2.52378e+00,1.30379e-01,6.31759e-01,-1.05249e-01,6.74308e-01,-8.03462e+00,-4.62704e-01,5.32154e-01,-2.77633e-01,6.83812e-02,-1.16704e+00,-1.10669e+01,-1.87590e-01,1.88986e-02,2.94708e-01,3.79790e-02,1.91502e-01,4.83823e-01,2.50784e-01,-8.78715e-02,2.78383e-01,-2.54005e-01,-1.81760e+00,
-3.92944e-01,
-4.76899e-01,
-3.18571e-01,
-2.45367e-01,
-7.41126e-01,
-7.63360e-03,
-6.69549e-02,
-1.27557e-01,
2.51102e-02,
-5.44128e-01,
-1.03601e-01,
-9.49610e-01,
2.79713e-01,
4.78527e-02,
2.97016e-01,
-3.44259e-02,
-6.17031e-01,
-1.91932e-01,
-5.17328e-01,
2.08770e-01,
1.82473e-01,
1.74095e-01,
-4.72130e-02,
1.77077e-01,
-1.19682e+00,
-1.00326e-01,6.50162e-02,8.57755e-02,1.50555e-01,-9.20746e-02,3.21018e-02,-1.39124e-01,2.81186e-02,2.08021e-02,4.03225e-01,-2.46156e-01,1.69607e-01,1.28506e-01,-1.32958e-01,1.83590e-01,1.37082e-01,7.80791e-03,1.36579e-01,-3.36284e-01,-5.71004e-02,1.84753e-02,1.70974e-01,-2.66203e-01,2.11821e-01,-1.23112e-01,
-2.30376e-01,-8.10757e-02,1.21530e-01,5.48524e-03,-2.27362e-01,1.23454e-01,1.96036e-01,2.01762e-01,-7.63541e-02,-2.57523e-01,6.90450e-02,-6.18725e-01,-2.72025e-02,-1.66255e-01,-1.62378e-02,1.62813e-01,-5.38682e-01,1.16466e-01,-7.57556e-01,2.14220e-01,5.25736e-03,-2.16456e-01,-1.41816e-01,-3.70532e-01,-2.37118e-02,
-2.26465e-01,-1.28544e-01,-2.93053e-02,1.81893e-01,-9.04382e-01,1.60284e-01,-6.76174e-02,-1.55564e-02,3.37611e-01,3.10818e-01,-2.44443e-01,7.43872e-02,5.99346e-02,-3.04890e-01,-8.07432e-02,1.80083e-01,-5.18860e-02,-9.03311e-02,-6.18558e-01,5.74709e-02,-7.34059e-02,4.54681e-02,-1.64707e-01,7.52637e-02,-3.12046e-01,
3.10596e-01,-8.48255e-02,-2.22890e-02,-5.27282e-01,-2.03929e-02,2.73906e-01,1.19117e-01,1.25842e-01,-2.48366e-01,-4.04815e-01,2.19257e-01,-8.25683e-01,-1.54195e-01,-5.67527e-02,1.96342e-01,-7.51413e-01,1.76496e-01,-1.16039e-01,3.32646e-01,1.00712e-01,-7.25875e-02,-1.77736e-01,-3.25751e-01,-1.74112e-01,2.43174e-01,
-3.42034e-01,1.23046e-01,-6.62122e-02,5.66998e-01,-1.16435e+00,2.67573e-01,3.26653e-02,-8.38361e-02,1.24268e-01,-3.58119e-01,-1.30277e-01,6.81979e-03,1.61619e-01,-2.24020e-01,7.29460e-02,-2.30938e-01,1.35180e-01,-1.35049e-01,-3.56840e-01,-3.33832e-01,-9.67294e-02,2.77617e-01,-1.64492e-01,-5.75638e-01,2.03293e-01,
2.60575e-01,-2.57370e-01,-6.23264e-02,3.19049e-01,1.26114e-01,2.69437e-02,-5.26766e-01,1.65172e-01,-2.29744e+00,4.69599e-01,-6.28809e-02,2.80300e-02,-3.12666e-02,-2.90711e-01,1.15810e-01,4.34288e-01,-3.37787e-01,4.36931e-01,4.03510e-01,-6.80272e-01,-3.07696e-01,-5.54090e-01,-3.05250e-02,4.27063e-01,-1.29698e+00,
-1.10627e-01,2.78796e-01,4.19935e-01,1.90387e-01,1.02153e-01,-2.36302e-01,-5.34029e-01,-1.72581e-01,4.34658e-01,1.50795e-01,-1.02244e-01,-6.27756e-02,-5.34858e-01,4.63596e-01,-4.67526e-01,7.15574e-01,2.34176e-02,7.71668e-01,-8.68366e-02,-2.96721e-01,1.85950e-02,-3.00819e-01,-9.47655e-01,-2.85882e-01,3.44921e-02,
2.48270e-01,-6.77530e-01,-6.84391e-02,6.05043e-01,-2.58697e-01,-5.52173e-01,4.14618e-01,-3.15693e-01,-3.65210e+00,-1.83441e-02,8.02129e-01,1.92523e-01,3.56659e-01,-1.01754e+00,3.57321e-01,-7.83715e-02,9.92900e-02,5.10271e-01,-2.42968e-01,-3.64684e-02,-2.64067e-01,-1.43021e-01,-2.13389e-01,-4.52229e-01,-2.67343e-01,
2.24364e-01,2.37676e-02,7.19719e-02,-3.29395e-02,2.56131e-01,1.53319e-01,5.58358e-02,-1.09941e-01,6.63885e-03,-5.54164e-02,-4.55509e-02,-4.03193e-01,1.42755e-01,1.26581e-01,-8.62415e-03,-8.95905e-02,-1.54901e-01,-3.14280e-01,1.30226e-01,-1.25912e-01,-2.11907e-02,-1.07744e-01,-9.47372e-02,2.03751e-01,2.67572e-01,
1.47253e-01,-7.57121e-02,-2.73945e-01,-8.61987e-03,4.07071e-01,2.23138e-01,-1.83775e-01,8.98748e-02,5.62137e-02,-7.93047e-02,-2.32127e-01,-5.99506e-02,-4.97683e-02,-7.56326e-02,5.93775e-02,-1.00941e-01,3.01651e-02,-5.39138e-02,-1.06924e-01,2.50383e-02,2.56254e-01,-1.54766e-01,1.28190e-01,-1.57790e-01,-1.03443e+00,
2.53664e-01,-3.17733e-01,3.66119e-01,-1.87927e-01,1.41931e-01,3.12496e-01,-6.79875e-01,2.08670e-01,-1.81760e-02,-1.00763e+00,3.72658e-01,-2.53950e-02,-7.74926e-02,-3.23153e-01,5.08286e-01,1.22522e-01,1.90913e+00,2.59963e-01,3.26537e-01,-6.34558e-01,7.13431e-01,4.64533e-01,-1.91030e-01,-2.10304e-01,-7.44580e-02,
-1.06931e-01,-1.61200e-01,-2.53444e+00,-4.59089e-01,8.57863e-01,3.47173e-01,5.82199e-02,1.56273e-01,-1.05396e-01,-3.08488e-01,1.78439e-01,-1.76996e+00,1.13195e-01,-3.85660e-01,2.13484e-01,7.41782e-01,-2.91770e-01,1.93683e-01,-7.46361e-02,-1.36529e-01,5.81422e-03,1.10856e-01,-4.99435e-01,-3.83246e-01,3.54892e-01,
-2.64513e-01,-1.88222e-01,1.13782e-01,2.07257e-01,-1.29629e+00,-4.57929e-01,-2.82641e-01,1.32925e-01,3.06639e-01,5.95498e-01,4.36592e-01,-1.11219e+00,3.99042e-01,-1.75415e-01,3.73845e-01,3.26895e-01,-1.77421e+00,5.15083e-01,-1.33266e-01,-6.19940e-01,2.81755e-01,1.22664e-01,3.92515e-02,6.60315e-01,-4.78067e-02,
2.42191e-01,-7.18279e-03,7.65604e-02,8.66887e-02,-1.73672e-01,1.55240e-01,5.98638e-02,-5.42180e-02,-8.34116e-02,-3.75267e-02,1.89098e-01,-1.26604e-01,-2.89576e-01,-3.14642e-01,1.97356e-01,-1.13119e-01,-1.64239e-01,-1.87172e-01,-3.16261e-01,1.74285e-01,-9.55233e-02,-1.01528e-02,-2.53797e-02,5.50451e-02,-7.04868e-02,
2.30898e-01,8.51739e-02,1.62502e-01,5.21790e-01,4.10186e-02,-3.66099e-01,1.46503e-01,-5.32572e-01,-4.56809e-02,4.63907e-02,4.86015e-01,-3.40269e-01,3.15847e-01,-3.02915e-01,2.62593e-01,-5.07039e-01,-1.68080e-01,1.47576e-01,-7.38957e-01,-2.67938e-02,5.66826e-02,4.76593e-02,-1.05976e-01,-1.37278e-01,1.11442e-01,
1.83953e-01,-1.77672e-01,-3.04231e-01,-1.53509e-01,-2.82329e-02,7.46646e-02,3.61868e-03,1.92345e-01,-1.08600e-01,2.36568e-01,-2.39280e-01,2.58933e-01,-1.90636e-01,-2.82294e-01,-5.97828e-02,-1.13638e-01,2.31078e-01,5.13593e-02,-2.36973e-01,3.67658e-02,7.91154e-02,-1.50676e-01,2.96047e-02,-2.51275e-01,3.59488e-02,
6.38734e-02,-3.02082e-01,2.15575e-01,2.45256e-01,-1.58433e-01,-1.35052e-02,-1.49583e-01,7.62928e-02,3.14740e-01,2.16787e-01,-1.12859e-01,6.29275e-02,2.55140e-02,-2.10950e-01,-3.11996e-02,2.00668e-01,1.08109e-02,1.32177e-01,-8.68901e-02,2.68209e-01,2.96441e-02,-2.88962e-02,2.25256e-01,-2.56608e-01,6.04976e-02,
-2.17638e-01,-4.15239e-01,-6.36975e-02,9.59162e-02,3.78307e-01,-1.36972e-01,-2.77700e-01,7.57660e-01,-1.23052e+00,-6.45333e-01,-4.81226e-01,2.41786e-01,2.91638e-01,1.26765e-01,1.42038e-01,6.22733e-01,3.84159e-01,4.71154e-01,-2.36522e-01,-3.67268e-01,2.67714e-01,-4.73692e-01,4.75181e-01,-4.19196e-01,-2.00350e-01,
-2.28333e-01,3.41295e-02,-4.68971e-02,6.06508e-03,1.53686e-01,5.63977e-02,6.11468e-04,-6.38543e-02,1.16204e-01,-1.00343e-01,-3.91612e-02,-1.09749e-01,-1.15868e-01,5.61638e-02,2.93482e-01,2.24146e-01,-5.96613e-01,2.01668e-01,1.86739e-01,-1.95262e-01,-5.23017e-02,-2.98481e-02,-1.26707e-01,5.40451e-02,-8.90891e-02,
9.12147e-02,1.97452e-02,3.38921e-01,2.74258e-01,1.04665e+00,6.21676e-02,-1.96511e-02,-4.08732e-02,1.02775e-01,-4.56072e-02,1.22195e-01,-1.63363e-01,2.23712e-01,7.85011e-02,6.73525e-02,1.85639e-01,-2.12429e-01,1.31500e-02,1.95948e-01,5.15204e-02,-6.49559e-02,7.03424e-02,3.96873e-02,-1.43835e-02,5.50119e-02,
-2.78817e-01,1.31679e-01,-4.39871e-02,3.20420e-01,2.19867e-01,-2.29132e-01,3.63735e-02,2.14796e-01,1.82911e-01,1.94462e-01,6.46864e-02,-1.99726e-01,9.22423e-02,-2.04628e-01,-2.89607e-01,1.42888e-01,2.48574e-01,8.04592e-02,3.79963e-01,-4.28044e-01,2.93438e-01,-9.34617e-02,1.02775e-01,-1.27110e-01,3.41883e-03,
3.11085e-01,-2.55078e-01,-1.68259e-01,2.49366e-01,2.23369e-02,-1.94243e-01,-4.74488e-01,-3.37174e-01,-1.88457e-01,1.55959e-01,-2.69173e-01,1.83980e-01,-3.83384e-01,-3.59311e-01,-3.86653e-01,2.43645e-03,2.64775e-01,-1.83081e-01,-2.05942e-01,4.56001e-02,-9.26907e-03,-3.51186e-01,-2.71144e-02,1.38740e-01,-7.80706e-02,
-1.84599e-01,2.31634e-02,4.70376e-01,-1.46101e-01,-1.04926e-01,2.11778e-01,1.36394e-02,-3.00302e-02,-4.41409e-02,-1.73143e-01,-1.95165e-01,2.16223e-01,-1.23372e-02,9.43951e-02,-2.43854e-01,7.17589e-02,2.85955e-01,-6.09945e-02,4.91373e-02,-2.83703e-01,-1.56092e-01,-2.93209e-01,-2.05728e-01,-3.06525e-02,2.31963e-01,
-6.60288e-03,9.52891e-02,-9.33904e-02,1.68256e-01,-1.07026e-01,-1.53161e-02,-1.55366e-01,-3.27620e-01,-1.54989e-01,-2.44933e-02,-1.82369e-01,2.47366e-01,3.54064e-02,6.49138e-02,3.59829e-02,1.39353e-01,-1.38473e-01,2.76140e-02,-2.14027e-01,-2.27848e-03,-1.59238e-01,-2.73742e-01,-1.31076e-01,-2.50203e-01,1.09257e-01,
-3.30501e-01,5.10960e-01,-6.55689e-01,3.68834e-01,1.22328e-01,-7.39747e-02,-1.10681e+00,-3.94354e-02,2.54793e-01,-3.47618e-02,2.38516e-01,-4.94238e-01,4.75370e-01,1.71892e-01,1.42933e-01,2.46136e-02,-1.88690e-01,4.89535e-01,-1.34877e+00,-4.02183e-01,3.43331e-02,-1.58736e+00,-3.73547e-01,1.56852e-01,7.93408e-02,
2.25678e-02,
1.04561e-01,
7.65224e-02,
1.22615e-01,
-8.84999e-02,
8.58981e-02,
-7.42417e-01,
-2.05537e-01,
-1.87663e-02,
1.02511e-01,
2.51832e-02,
1.61494e-01,
-2.76503e-01,
3.70825e-02,
-2.11530e-01,
3.02356e-01,
9.58843e-02,
8.40899e-02,
8.64819e-02,
-1.31641e-02,
-4.54120e-01,
-8.13467e-02,
2.00357e-01,
-1.55647e-01,
-9.82826e-02,
6.20581e-02,2.37915e-02,-6.52764e-02,-4.31332e-03,-6.14873e-02,4.44596e-02,-2.53300e-01,-1.55485e-02,-9.32753e-02,2.58612e-02,2.67558e-03,-5.13027e-03,4.39100e-03,-6.28301e-03,-6.20636e-02,-9.00088e-02,7.89607e-02,2.55236e-02,-2.46691e-02,-1.58583e-01,-1.26591e-01,6.24025e-02,-1.40755e-02,-3.28906e-01,-2.33009e-02,
-4.66755e-02,-6.18604e-02,1.61176e-02,-7.31666e-02,-5.84662e-02,-7.02291e-02,5.91455e-01,6.05700e-02,-4.43824e-02,-3.82840e-02,6.62081e-03,9.57157e-02,-3.71446e-02,1.92057e-02,-6.29867e-02,-7.49457e-02,-1.83371e-03,1.09485e-02,1.35713e-02,-1.37271e-01,9.15092e-01,8.24488e-01,-6.26968e-02,-1.52931e-01,2.83131e-02,
-5.27263e-02,-2.06645e-02,2.51821e-02,4.99931e-02,-6.10186e-02,1.35075e-02,1.62886e+00,4.92767e-02,-2.34489e-02,-5.30408e-02,-2.07633e-02,5.50217e-03,-6.72638e-02,-5.04451e-02,-5.08840e-02,-7.49900e-02,7.68430e-02,-1.47291e-02,-2.19523e-01,-1.06748e-01,6.53381e-04,1.42127e-01,-3.27039e-02,-2.05790e-01,1.29088e-01,
-3.12791e-02,2.86894e-02,1.05952e-03,-3.54563e-02,-7.63896e-02,-4.43881e-02,9.55036e-01,4.09293e-02,-6.07613e-02,-3.62120e-02,-1.97185e-02,2.53456e-02,-7.80011e-03,-4.32580e-03,-8.39545e-02,-4.12309e-02,1.24673e-04,-1.22070e-02,1.47860e-02,-1.21364e-01,1.17193e+00,8.88764e-01,1.14564e-02,2.30257e-01,2.67156e-02,
-2.31836e-02,-1.24565e-02,2.10282e-03,1.02564e-02,-7.26270e-02,1.97029e-03,1.37093e+00,2.09456e-02,-4.99057e-02,-4.47873e-02,-6.99531e-02,9.16246e-04,-4.95438e-02,-1.09468e-02,-2.30112e-02,-4.82993e-02,7.72426e-02,-2.54454e-02,-9.40704e-02,-1.18152e-01,6.31215e-01,2.01231e-01,1.00152e-03,-2.45771e-01,4.96860e-02,
-3.74934e-02,6.55121e-02,3.30347e-03,-1.80719e-02,-5.84099e-02,-8.84628e-02,8.03909e-01,1.10739e-01,-2.47013e-02,-7.25380e-02,8.95336e-03,-1.37602e-02,-2.20250e-02,-4.76527e-02,-1.88655e-01,-1.35733e-02,-2.49315e-02,-5.20612e-03,3.17319e-02,-9.21896e-02,1.10831e+00,9.59264e-01,4.24644e-02,1.15282e-01,4.08454e-02,
-4.92958e-02,-3.12726e-02,-8.58155e-03,1.72228e-02,-7.81234e-02,1.41610e-02,2.72293e+00,-5.20253e-02,-7.53883e-02,-2.49951e-02,-2.13003e-01,-1.59239e-02,-5.45526e-02,7.64635e-02,7.85656e-02,-4.51024e-02,9.35534e-02,-7.13662e-02,-6.50211e-03,-9.79001e-02,1.49055e+00,-1.59979e-01,1.71199e-02,3.98501e-01,3.54044e-03,
-2.65060e-02,4.39580e-02,-3.19967e-03,-2.74132e-02,-7.71445e-02,-3.97414e-02,7.82862e-01,4.01982e-03,-5.70249e-02,-2.92569e-02,-2.14080e-02,2.24360e-02,-2.19402e-03,-5.89548e-03,-9.20145e-02,-3.97302e-02,5.35479e-03,-5.00093e-03,1.62835e-02,-1.24396e-01,1.06377e+00,8.68330e-01,2.13683e-02,2.89640e-01,2.72622e-02,
-1.88680e-02,2.08616e-03,-7.14368e-03,5.55308e-03,-7.11116e-02,6.43802e-03,1.36973e+00,7.79871e-03,-4.89385e-02,-5.53753e-02,-6.41606e-02,-2.82311e-03,-4.04971e-02,-3.76134e-03,-1.25737e-02,-4.85968e-02,7.91346e-02,-2.51133e-02,-7.17674e-02,-1.21434e-01,7.74907e-01,1.59108e-01,-1.34353e-02,2.10233e-01,3.43042e-02,
2.23357e-01,
2.24837e-01,
2.21130e-01,
-2.31634e-01,
-2.32464e-01,
2.13869e-01,
2.03156e-01,
-2.32165e-01,
-2.33668e-01,
