// Neural Network File Format by Kyle Julian, Stanford 2016
6,4,9,25,
4,25,25,25,25,25,9,
0,
-8000.000000,-100.000000,-100.000000,0.000000
8000.000000,100.000000,100.000000,40.000000
0.000000,0.000000,0.000000,20.000000,-4.647677
16000.000000,200.000000,200.000000,40.000000,22.514692
5.05728e+00,-3.12055e-02,-3.01223e-03,-1.05796e-01,
4.16366e+00,-4.06887e-01,4.39495e-01,-2.53388e-01,
3.72926e+00,7.34239e-01,2.40952e-01,2.01770e-01,
2.39685e+00,-1.58867e-01,5.15388e-02,2.45043e-01,
-6.53164e-01,-1.09174e+00,-1.09227e-01,-5.34787e-02,
-3.57145e+00,-6.13480e-02,2.16019e-01,-9.85723e-01,
4.54593e+00,-2.17587e-01,2.30293e-01,-2.76161e-01,
2.33910e+00,-3.95690e-01,6.22700e-01,5.97777e-01,
-1.11770e+00,1.14740e+00,5.80532e-02,1.76746e-02,
-1.50536e+00,9.01602e-01,-3.31132e-01,-3.54205e-02,
-2.54588e-01,6.62321e-01,4.13730e-02,1.60547e-01,
5.50240e-01,5.57522e-03,-2.69038e-02,7.69321e-01,
-8.02186e-01,5.54266e-02,3.32947e-02,4.44599e-01,
4.37812e+00,2.08367e-01,-1.79588e-01,-7.10984e-01,
-2.68169e+00,3.54181e-01,-6.70781e-01,1.43804e-01,
-1.17324e-02,-9.66570e-01,9.68993e-01,7.16675e-03,
-1.75826e-01,8.57109e-02,-2.44687e-01,-4.49081e-02,
-1.57965e+00,5.55178e-01,-7.62932e-02,5.60130e-01,
2.27576e+00,-4.31085e-01,6.32364e-01,1.12566e-01,
4.27471e-01,-9.24729e-02,9.00469e-02,5.71046e-01,
6.20719e+00,2.75070e-01,-3.79030e-01,8.58448e-02,
-4.23951e+00,1.90519e-01,4.66837e-02,-8.01598e-01,
7.40249e-01,-1.81647e-01,-1.30597e-01,-5.51736e-01,
-4.39227e+00,-3.03985e-01,3.67193e-01,-6.78654e-02,
-7.35956e-02,-1.37836e+00,1.75760e-01,-1.97877e-02,
2.85782e-01,
-7.33391e-02,
-9.34178e-02,
1.30949e-01,
2.66770e-01,
-3.27338e-01,
7.44260e-02,
2.70708e-01,
8.91686e-02,
3.83078e-01,
1.90129e-01,
3.71133e-01,
-5.63537e-02,
-1.56239e-01,
1.98362e-01,
-1.41627e-01,
-3.36108e-01,
-7.53412e-02,
2.03328e-01,
6.27340e-02,
-2.96867e-01,
-4.88101e-02,
-6.68980e-02,
2.54758e-01,
1.84568e-01,
-3.96167e-01,3.78013e-02,-1.36240e-02,-6.09560e-01,-1.26764e+00,7.41880e-01,6.36170e-01,-4.44429e-01,6.65187e-01,4.67311e-01,-1.09746e-01,3.26367e-01,-2.69241e-01,-3.09616e-01,5.50191e-01,-1.96623e-01,2.32248e-01,1.84122e-01,-7.66365e-01,3.08757e-01,6.40976e-01,5.16315e-01,-2.34710e-01,-8.21711e-01,1.65586e+00,
7.40427e-01,-6.57538e-01,-1.97189e+00,4.78925e-01,2.75481e-01,3.12398e-02,4.32353e-01,-1.74004e-01,2.49379e+00,-4.39009e-01,-1.88273e-01,-2.81721e-01,-3.00817e-01,-1.78797e+00,1.78282e-01,1.75133e-01,1.55449e-01,1.93044e-01,1.03215e-01,1.82903e-01,2.78250e-01,-1.80105e-01,-2.51367e-01,-4.64141e-01,-7.09348e-01,
3.63078e-01,6.06221e-01,-8.20302e-02,-2.06027e-01,8.93232e-01,3.03673e-01,-1.96091e-01,-3.61993e-01,-6.09966e-01,-5.80793e-01,1.18687e+00,-5.75492e-01,1.39664e-01,-9.53202e-01,-1.56662e-01,-9.07316e-01,1.82113e-01,1.88377e-01,-8.46123e-02,3.08862e-01,9.09470e-01,3.35407e-01,-3.68537e-02,4.12641e-01,-9.28078e-01,
3.58054e-01,2.38605e-01,7.35747e-02,5.28198e-01,2.03743e-01,-7.32157e-01,-1.27140e-01,1.08681e+00,-7.59835e-02,3.00598e-01,6.34712e-02,9.71496e-01,-7.73123e-01,2.04225e-01,1.98034e-01,-1.27738e-01,-1.63616e-01,-4.37033e-02,-2.45368e-01,-1.26704e+00,-1.22380e+00,-3.88001e-01,-1.92150e-01,4.11509e-01,-1.13006e-01,
-3.49495e-01,1.16798e-01,3.21371e-01,-3.65008e-01,1.60226e-01,5.41963e-01,-5.30175e-01,-6.95542e-01,-4.13498e-01,1.14468e+00,-5.55949e-02,5.61179e-01,-7.39305e-01,-1.75553e+00,7.10056e-01,2.75450e-01,6.98133e-02,3.52285e-02,-1.13663e+00,5.41029e-01,1.32364e+00,1.08345e+00,1.62218e-01,-9.33982e-01,1.42698e-01,
1.43793e+00,1.00607e+00,-2.24557e-01,4.03136e-01,-3.13943e-02,2.94928e-01,-2.50794e-01,9.89179e-01,6.96363e-01,-9.41490e-01,-1.40248e-02,1.90361e-01,-3.76243e-01,2.08997e-01,-6.39094e-02,-1.91798e-01,3.13137e-01,6.64837e-02,-1.23037e-01,-4.51093e-01,-1.22804e+00,1.29314e-01,1.57236e-01,5.28970e-02,-2.68870e-01,
-5.72218e-03,-1.49807e+00,2.56636e-01,-6.48461e-01,-4.13422e-02,-3.76779e-01,-3.21711e-01,-9.19246e-01,-5.98014e-01,1.75360e-01,2.87493e-01,4.11075e-01,1.15116e+00,-3.26744e-01,8.87401e-01,-9.56852e-01,2.46016e-01,-9.50369e-01,-4.35430e-01,-3.03149e-01,9.90521e-01,6.54445e-02,-1.00187e+00,-3.81081e-01,7.22517e-01,
3.98557e-01,-7.04732e-01,-1.52272e-01,1.94545e-01,-1.23881e-02,-3.65193e-01,7.75213e-01,-8.37279e-02,-4.09351e-01,-3.02516e-01,6.90223e-01,5.17010e-01,-8.17815e-02,4.74253e-01,-5.33839e-01,-3.77236e-01,1.67082e-01,5.37970e-02,3.91345e-01,1.83586e-02,2.04628e+00,5.68729e-02,-7.91316e-02,6.25970e-01,6.59677e-02,
2.80038e-01,4.85653e-02,-5.75457e-02,3.31683e-01,1.53412e-01,-8.94092e-01,8.91923e-01,-2.68607e-01,-1.91373e-02,1.92171e-02,5.81997e-01,-1.51239e+00,-2.04996e+00,4.49446e-01,-5.36307e-02,-3.92195e-01,3.85696e-02,8.20598e-01,8.39566e-01,1.22617e+00,-3.86924e-01,2.65336e-01,7.23531e-01,-7.72822e-01,-8.17486e-02,
3.97605e-01,-1.15381e+00,-2.27730e-01,-1.34532e+00,3.76409e-01,-1.06271e+00,7.47208e-02,5.39894e-01,2.13960e-01,4.96443e-03,-8.11188e-01,-6.26804e-01,2.84739e-01,-3.18507e-01,4.80239e-01,-5.22046e-01,1.08884e-01,2.62341e-02,-7.37947e-02,6.57863e-01,9.04263e-01,1.39092e+00,-5.66305e-02,-7.58974e-01,-6.80866e-02,
1.14246e-01,-5.14075e-01,1.78873e-01,-3.08647e-01,-1.05733e+00,-1.68985e-01,8.39324e-01,2.31902e-01,-9.49848e-01,1.21201e+00,4.39574e-01,-4.92313e-01,3.85760e-01,3.16242e-01,-7.14575e-02,3.32304e-01,-1.87764e-01,-2.27894e-01,6.18244e-01,2.05759e-01,4.86726e-01,-1.86870e-01,2.31203e-02,1.21504e-01,7.17411e-01,
5.14103e-01,9.93326e-01,-3.75133e-01,-6.66609e-02,6.46366e-01,-2.75198e-01,8.89988e-01,-2.41804e-01,6.90816e-02,-6.00921e-01,-1.94452e-02,1.00530e+00,-2.63854e-01,4.23238e-01,-4.24792e-01,4.53674e-01,-1.31151e-01,1.15606e-01,3.22240e-01,-2.29002e-01,1.75926e+00,-3.13592e-01,3.57166e-01,7.99853e-01,-1.05155e+00,
-4.11348e-01,9.87359e-01,5.26502e-01,-6.48335e-01,5.66715e-01,-9.07829e-01,5.58252e-01,-4.58299e-01,-4.36949e-01,-8.30665e-01,7.86131e-01,-1.03577e-01,3.04837e-01,-3.08194e-01,-3.86619e-01,5.39584e-01,-3.37359e-01,-4.77780e-01,-6.86711e-01,8.65586e-01,-3.83968e-01,1.05704e-01,6.75344e-01,-4.36937e-01,-1.25350e+00,
-1.44218e-01,5.61920e-03,-3.29423e-01,-2.91236e-01,-3.46950e-01,4.25212e-01,-1.02161e+00,4.41325e-01,-7.52615e-02,-2.16949e-01,3.06392e-01,-6.06916e-01,-2.49267e-01,-6.72371e-01,3.79806e-01,1.38377e-01,-2.75795e-01,5.22588e-01,-3.87631e-01,1.66789e-02,6.75712e-01,3.66389e-01,-6.99294e-02,9.89467e-01,2.99193e-01,
-5.04430e+00,-1.64538e+00,-2.35233e-01,-1.14651e+00,5.73628e-03,1.68003e-01,1.99268e-01,7.08814e-02,-1.14070e-01,1.93271e-01,-1.44051e-01,-3.62563e-01,-9.40940e-02,2.08654e-01,8.40233e-01,-1.24921e-01,6.64048e-02,2.35081e-02,-2.03320e-01,1.08295e-01,4.55460e-02,1.63350e-01,-5.15093e-03,1.57435e+00,1.26759e-01,
-9.83492e-01,2.98005e-01,-2.53522e-01,6.43737e-01,-1.47328e-03,5.84769e-01,4.61931e-01,2.74520e-01,4.92048e-01,5.80892e-01,-2.54095e-01,3.79745e-01,-1.37505e+00,1.11747e-01,1.28586e-01,-8.13063e-01,4.89516e-02,4.09131e-01,-1.81873e-01,6.36081e-02,-2.69170e-01,4.39030e-03,1.93196e-01,3.77835e-01,-2.09376e-01,
7.18935e-01,8.99047e-01,-4.60742e-02,-2.35560e-01,-7.11015e-01,-4.32890e-01,-4.60783e-01,-2.23930e-01,8.35533e-01,-2.11811e-01,1.41516e-01,-5.04797e-01,9.30774e-03,-5.33276e-02,-3.05688e-01,-7.23996e-01,2.67349e-02,-2.98108e-01,4.86151e-01,1.03425e+00,-4.41620e-01,3.19356e-01,1.29098e-01,1.00524e-01,1.40943e+00,
2.27891e-01,-8.25637e-01,7.65144e-01,6.99651e-01,-8.65468e-02,7.69924e-02,2.16762e-01,3.48080e-02,-2.30554e-01,-5.04102e-03,-4.37928e-01,-2.01488e-01,-3.81593e-01,4.52386e-01,3.42982e-01,4.16012e-01,-1.17252e-01,-2.70490e-02,-1.27104e+00,4.63631e-02,7.66570e-01,-1.67222e-02,-1.32175e-01,2.67725e-02,5.11833e-02,
-1.54845e-01,6.08659e-01,-5.39051e-01,1.33925e-01,3.29131e-01,1.06790e+00,-1.54694e-01,3.07425e-01,8.03429e-01,-1.26240e+00,5.70443e-01,8.77422e-01,-1.30675e+00,5.73753e-01,6.39251e-01,-1.83956e-01,6.32255e-02,7.05058e-01,2.43328e-01,-8.63908e-01,-9.74276e-02,-5.91684e-01,-2.04208e-01,-1.86553e-01,-2.49933e-01,
-1.01878e+00,-7.71206e-02,-5.27653e-02,-6.43005e-01,-5.02607e-01,-4.75784e-01,1.11244e+00,5.55325e-01,2.03807e-01,-4.82691e-01,-1.59992e-02,-3.02798e-01,3.00650e-01,6.18231e-02,-4.79051e-01,8.17279e-01,-1.94051e-01,7.60890e-02,-1.00797e-01,-1.04228e-01,9.47946e-01,-8.93818e-01,5.10976e-01,9.25714e-01,2.25371e-01,
-1.46047e-01,-1.28818e+00,1.60831e+00,-2.03328e-01,-3.31893e-01,5.95055e-01,2.19846e-01,-4.92705e-01,-1.77337e+00,5.84882e-02,3.77292e-01,-2.42480e-01,5.45937e-01,-5.51142e-03,3.82807e-01,1.08819e+00,1.52256e-01,-4.49667e-01,-3.22208e-01,8.18249e-01,-1.43629e+00,2.88592e-01,6.63850e-01,-6.86260e-02,3.18929e-01,
5.81681e-02,-5.79338e-01,9.27230e-03,-1.51539e-01,-2.43767e-03,-8.01058e-01,-9.78367e-01,7.28593e-01,-6.25696e-01,-2.46864e-02,1.01804e-01,-7.76199e-02,-2.13492e-01,5.85789e-01,1.29240e-01,-6.44674e-02,-2.63478e-01,1.06359e-02,-3.66058e-01,-4.88521e-01,4.02004e-01,3.71515e-01,-4.93547e-01,1.38511e+00,-4.54146e-01,
-1.45721e-01,-5.26280e-01,2.19586e-01,5.26912e-01,1.13027e+00,7.37625e-01,-7.61156e-01,-9.49955e-01,-2.61357e-01,1.07021e+00,-9.36365e-01,5.04035e-01,-4.13244e-01,-7.92318e-01,9.31363e-01,-1.71931e-01,8.11844e-02,-1.85020e-01,-3.47762e-01,2.15936e-01,1.31470e+00,1.00049e+00,-6.68311e-01,-4.86746e-01,-3.61149e-01,
1.13699e+00,-1.61784e+00,2.69182e-01,-1.35401e-02,1.28932e+00,-4.82661e-01,-1.06538e-01,1.09877e-01,2.47003e-01,-1.10370e+00,-1.14731e+00,-1.60449e-01,-2.13826e-01,-3.78581e-01,-7.32994e-02,5.94699e-01,3.02209e-01,3.42313e-01,1.94049e-02,8.76212e-02,9.77872e-01,-4.49529e-01,3.25015e-01,1.42743e+00,-1.89966e+00,
-2.93036e-01,-1.06440e+00,-2.52682e+00,-4.64150e-01,3.06783e-01,6.64961e-02,3.29522e-01,2.13293e-01,1.40887e+00,5.96284e-01,1.01432e+00,-4.80168e-01,4.99797e-01,2.15418e-02,-1.79233e-01,-3.44296e-02,-1.64124e-01,-1.56289e-01,-9.50089e-03,-4.65364e-02,8.57487e-01,2.46781e-02,-1.67486e-01,-5.93963e-01,-9.75762e-02,
-5.71342e-01,
6.58814e-01,
5.67027e-01,
-2.28648e-01,
-1.79231e-02,
5.30950e-02,
3.78067e-01,
-3.11338e-01,
-3.22915e-01,
3.70759e-01,
-2.28641e-01,
-6.99530e-01,
9.90816e-01,
2.64319e-01,
-4.89231e-01,
2.13883e-01,
-1.57009e-02,
4.55731e-01,
1.01825e-01,
6.14619e-01,
5.28802e-01,
3.95682e-01,
-2.63978e-01,
5.77340e-02,
-2.19411e-01,
-1.02770e+00,4.08682e-01,-1.13996e+00,-5.33352e-02,3.22590e-01,-1.77106e-01,-3.51019e-01,-4.29497e-01,-2.50493e-01,3.35013e-01,-7.13030e-01,8.28124e-01,7.79724e-02,-4.16438e-01,6.04348e-01,4.34356e-01,5.05565e-01,7.67388e-02,-5.83065e-02,-1.18281e-01,5.32339e-01,5.19563e-02,-3.33698e-01,2.01135e-01,-2.50404e-01,
4.81271e-01,2.75651e-01,-5.07368e-02,-4.32566e-01,-9.61533e-01,8.56228e-01,2.53414e-01,2.23351e-01,1.74777e-01,1.65929e-02,-6.28682e-01,2.33934e-01,-5.54633e-01,3.18642e-01,-1.41987e-02,-3.24661e-01,-1.56418e-01,-1.35104e-01,-5.50934e-01,-5.35036e-02,-6.15540e-02,4.98699e-01,1.22209e+00,-6.75305e-01,-5.25455e-02,
-8.82069e-01,-4.06516e-01,-1.38366e-01,-3.77760e-01,5.64241e-01,4.72741e-01,5.06337e-01,-2.60804e-01,-4.48950e-01,-2.79103e-01,1.01295e-01,6.18585e-02,3.76685e-01,3.06424e-01,-1.36512e-01,7.21731e-01,1.84436e-01,4.79818e-01,-5.98115e-02,-3.10552e-01,2.49099e-01,-2.95665e-01,-1.86889e-01,7.23024e-02,1.11410e+00,
1.12037e-01,-2.22015e-01,-9.56065e-02,-6.87744e-01,-1.51336e-01,4.14628e-01,-2.97473e-02,1.38705e-01,5.84834e-01,6.91921e-01,1.52545e-01,-2.69981e-01,2.51130e-01,-1.10324e+00,-1.90348e+00,1.08707e-01,5.60590e-01,-2.21767e-01,-1.54342e-01,-1.52509e-01,1.62610e-01,-2.03333e-01,1.32720e-01,3.38409e-01,-3.81295e-01,
-3.34636e-01,2.78122e-01,1.54588e-01,1.00340e+00,4.02894e-01,-4.23212e-01,4.86420e-01,3.94329e-01,-1.91781e-01,-3.52952e-01,-1.74719e-01,8.32373e-02,-2.39170e-01,2.43064e-01,9.11781e-02,3.10666e-02,1.71678e-02,-5.01257e-01,-2.32790e-01,-6.27099e-02,1.10572e-01,-8.25275e-02,-1.28904e-01,-3.30250e-01,-1.00777e-01,
-8.11964e-02,-3.03673e+00,-3.13725e-01,-6.62788e-03,-2.18765e-01,-1.42046e+00,1.45569e-01,-5.19519e-04,-7.81128e-01,6.15601e-02,1.06214e-01,-1.31900e-01,1.44496e-01,5.16011e-01,-1.13354e+00,6.21594e-01,-1.23785e-01,2.62363e-01,4.18753e-01,3.06798e-01,6.99485e-01,4.29698e-01,-1.57633e-01,3.17466e-01,-3.95981e-01,
-6.50388e-01,-1.75525e-01,3.92451e-01,1.63513e-01,9.41514e-01,5.66150e-01,7.01944e-01,-9.61649e-01,-4.91439e-01,8.38741e-03,5.10571e-01,5.97802e-01,3.28307e-01,6.14375e-01,-1.09002e-01,8.34680e-02,5.00716e-01,5.14779e-01,-1.52657e-01,-7.74850e-01,3.40874e-01,2.58879e-02,-1.27922e+00,1.25009e-01,6.54748e-01,
2.11265e-01,-1.70772e-01,1.04342e-01,1.09858e-01,6.96432e-01,2.24763e-01,5.80665e-01,4.10119e-01,1.38012e-01,-1.48065e-01,-5.60740e-01,-6.26783e-01,2.36817e-01,1.10569e-01,-2.05378e-03,-1.54898e-02,3.93897e-01,2.36282e-01,-4.03401e-02,4.55053e-01,4.41654e-01,-1.78450e-01,2.51521e-01,3.00727e-01,-1.60145e-01,
1.40963e+00,2.04231e-01,-3.01743e-01,2.84804e-01,-1.38797e+00,1.55798e-01,-4.85484e-02,1.02860e-01,5.57882e-02,6.23834e-01,-6.85198e-01,4.82451e-01,2.97657e-02,2.24672e-01,-7.22411e-01,-2.09226e-01,-5.13190e-01,-5.08927e-01,1.70352e-02,-8.93522e-02,8.24336e-02,-1.08939e-01,9.06820e-01,-4.69918e-01,-3.18855e-01,
1.30890e-02,5.94616e-01,6.42888e-01,-4.67165e-01,-7.73971e-01,2.79624e-01,-2.69498e-01,1.07054e-01,-2.78152e-01,4.45709e-01,9.59532e-02,-6.54604e-01,-2.28644e-01,-1.97499e-01,6.21207e-02,-1.11301e-01,-1.74483e-01,7.05518e-01,-1.80346e-01,5.10995e-01,-1.14870e-01,-1.65400e-01,-3.78606e-02,-6.53069e-02,-1.94787e-01,
1.28683e-01,7.39053e-02,-4.13886e-03,1.60700e-01,-8.27154e-01,-1.60058e+00,-9.01732e-02,-6.71080e-01,-5.43984e-01,9.75075e-01,-1.08371e-01,9.53489e-01,-2.88314e-01,-4.43011e-01,-1.02474e-01,1.23353e+00,1.02552e+00,1.96763e-01,9.44201e-02,-4.36012e-01,6.70643e-01,1.26013e-01,2.52691e-01,1.42757e-01,-6.62716e-01,
6.73178e-02,7.13132e-01,-3.07868e-01,1.85820e-01,1.67320e-01,-1.34008e-01,-2.23421e-01,2.90506e-01,-1.55908e+00,-3.84138e-01,-2.77234e-02,-1.42420e-01,3.37766e-01,-2.34221e-03,-2.20210e-01,-1.29801e-01,1.24969e-01,1.13465e-01,1.24050e-01,5.85781e-01,5.43650e-01,-2.60680e-02,9.32947e-01,-2.81756e-03,-1.65942e-01,
-3.43249e-01,-1.53751e-01,1.59455e-01,1.73481e-01,-4.56564e-01,4.98640e-01,-5.78306e-01,-3.71504e-01,4.24909e-01,-6.86194e-02,-4.37433e-01,4.20032e-01,-7.55074e-02,-2.63336e-01,-5.99384e-02,-4.15604e-01,3.77544e-01,1.04917e-01,-3.38082e-01,1.95024e-01,1.70345e-02,5.16633e-01,6.55987e-01,-2.09963e-01,-3.79094e-01,
4.87186e-01,-1.64880e-01,6.61833e-01,-1.20335e-02,1.04271e+00,2.78607e-01,4.87046e-01,1.29134e-01,-4.06093e-02,3.21413e-01,-5.80169e-01,-4.49083e-01,-1.03313e-01,-2.57878e-01,8.36797e-02,-4.82957e-01,-6.01460e-02,4.45562e-02,8.87733e-01,7.13375e-01,4.35434e-01,-3.54289e-01,4.32295e-01,-8.18128e-02,3.50980e-01,
-4.56744e-02,1.38926e-02,2.71085e-01,-1.58334e-01,1.86093e-02,-2.26747e-01,-2.72165e-01,-3.26741e-01,-2.22935e-01,-2.84969e-01,1.44309e-01,-1.94776e-01,-2.06193e-01,5.18979e-02,-3.09455e-01,7.36558e-02,5.75246e-02,-1.78069e-01,-1.39259e-01,-4.52156e-02,2.46908e-01,-3.48332e-01,-2.83810e-02,-1.86433e-01,-2.20052e-01,
-9.64235e-02,-2.24736e-01,1.41266e-01,-6.18779e-02,4.41090e-01,4.44665e-01,-1.84386e-01,3.08317e-01,9.98953e-01,-3.64100e-01,2.03289e-01,-9.15273e-01,-3.33518e-01,-1.40921e+00,4.26399e-01,-3.62328e-01,-9.82003e-02,7.02352e-01,4.09938e-01,7.69203e-01,-5.42337e-01,7.53589e-01,-1.03767e-01,2.49539e-01,-1.49983e-02,
4.81386e-01,2.45616e-01,-2.11777e-01,-4.25210e-01,1.52504e-03,7.87690e-02,2.34421e-01,-1.15474e-01,-1.58888e-02,3.78275e-01,7.41958e-01,-5.81437e-02,-7.05110e-01,-9.91561e-02,4.67441e-02,8.09238e-01,-2.04764e-01,-1.36168e-01,-7.73072e-01,-1.33243e-01,-5.16221e-02,-5.88338e-01,-3.42571e-01,7.44825e-01,-1.55328e+00,
5.99125e-01,-7.59754e-02,1.12918e-01,3.34758e-01,-6.24866e-01,-3.38180e-01,3.46536e-01,-1.79153e-01,-9.82563e-02,8.67038e-01,1.64190e-01,3.25584e-01,3.39032e-01,-1.44360e-01,1.11148e-01,-1.86351e-01,8.31226e-02,-2.22229e-01,9.77057e-01,-3.84950e-01,5.39367e-01,3.97078e-01,-1.79033e-01,-4.64053e-01,1.61283e-01,
-1.96338e-01,5.80489e-01,4.47232e-01,-6.53416e-02,-9.72090e-01,8.47417e-02,-2.21972e-01,6.39265e-01,5.06679e-01,-1.55927e-01,4.56458e-01,-6.69628e-01,3.84532e-01,-5.51765e-01,3.44938e-02,1.43847e-02,-1.41021e-01,-4.43769e-01,-5.19424e-01,9.25687e-01,3.44572e-01,2.62577e-01,-1.92738e+00,-2.06254e-01,-8.17942e-01,
9.66295e-01,-3.88894e-01,-7.81765e-01,-8.48754e-01,3.53247e-01,1.15898e+00,7.09363e-02,-1.80988e+00,6.57529e-02,8.11097e-02,-1.06864e+00,-1.27630e+00,-8.17423e-01,-7.81016e-01,-2.23771e+01,1.31136e-01,-7.20551e-01,8.35573e-02,-1.76031e-01,4.84242e-01,3.27352e-01,8.15407e-01,-5.34673e-02,-2.74182e-01,-1.29109e-02,
1.40621e-01,4.43004e-01,6.94450e-01,-7.13518e-01,-7.36491e-01,-4.81873e-01,-1.70753e-01,-3.23718e-01,-3.64060e-01,2.03553e-01,3.91987e-01,-2.37645e-02,-1.97153e-01,-4.74180e-01,-4.61611e-02,-2.99597e-01,2.42428e-01,5.56837e-01,2.44289e-01,1.67062e-01,3.43278e-01,2.49762e-01,-1.05087e+00,-1.52868e-01,-2.79189e-01,
1.92269e+00,-8.21894e-02,9.32114e-01,7.01196e-02,-1.32018e+00,-1.83441e-01,1.52130e-01,-1.30907e+00,-7.08865e-01,4.81105e-01,-7.10771e-01,8.42959e-01,1.36290e+00,-6.54902e-02,-2.70117e+01,5.05712e-01,-2.20052e+00,-2.10906e-01,5.53508e-01,-1.05038e+00,3.19253e-01,3.67546e-01,6.26571e-01,2.06516e+00,4.70442e-01,
-3.89677e-01,-6.80121e-02,-7.79744e-01,7.31006e-01,3.49566e-01,-3.39223e-01,1.20863e-01,-2.16367e+00,-2.20130e-01,6.59022e-01,-8.99284e-01,2.57846e+00,-1.00681e+00,1.06161e-01,-6.96555e-01,7.17674e-02,-5.82970e-01,-2.75938e-01,-3.39750e-01,-1.64419e+00,1.45069e+00,-6.67774e-01,-5.46778e-01,7.46404e-01,8.73642e-01,
9.35045e-01,-2.12134e-02,5.11739e-02,-4.17520e-01,-6.00674e-01,-7.48300e-01,-1.71345e-01,-5.99953e-01,-1.56949e-01,-2.49799e-02,-4.22915e-01,-8.86511e-02,-3.75499e-01,-1.36362e+00,2.21759e-01,6.75336e-01,1.96514e-01,-6.64136e-01,-1.65046e-01,7.88875e-01,3.76874e-01,1.08251e+00,7.20194e-02,-2.69790e-01,-4.27945e-01,
-1.42465e-01,-2.06488e-02,1.24861e+00,-1.19270e-01,1.16747e-01,-3.86112e-01,3.21054e-01,-1.91022e+00,-2.31342e-01,5.09247e-01,-4.81118e-02,-8.45248e-02,-6.35910e-01,-4.33004e-01,1.10766e-01,1.94794e-02,-2.53911e-01,3.85097e-01,1.13508e-02,4.90053e-01,7.01843e-02,-2.07539e-01,-1.18668e+00,3.97708e-01,-1.64537e-01,
3.45493e-01,
-2.29948e-03,
-6.56791e-02,
2.91491e-01,
2.97301e-01,
-1.27313e+00,
-7.36247e-01,
-1.13801e-01,
5.10405e-01,
1.86577e-01,
-4.88576e-01,
-2.83076e-01,
4.83688e-01,
-5.50066e-01,
-2.59988e-01,
9.70376e-02,
7.18116e-01,
-2.05705e-01,
-3.07261e-01,
6.03694e-01,
3.51733e-01,
3.12951e-03,
1.08551e+00,
1.14864e+00,
3.53859e-01,
2.83881e-01,-2.79795e-01,-2.30289e-01,1.27334e-01,-6.78166e-01,-7.09335e-01,-1.87921e-01,-4.85473e-01,-1.87046e-01,3.38704e-01,3.19908e-01,5.84532e-02,-7.12681e-02,2.13564e-01,1.67965e-02,-9.62416e-01,1.01617e-01,4.08882e-01,8.40846e-02,1.34159e-01,3.55675e-01,-6.83167e-02,-4.30534e-01,-6.05426e-02,4.55565e-03,
-4.14393e-01,-3.47114e-01,-4.29737e-02,-3.35917e-01,-1.39690e-01,7.60105e-02,-1.90442e-01,-3.18479e-01,-3.34165e-02,2.03377e-01,2.16145e-01,-6.02719e-02,-1.26732e-01,2.33668e-01,-1.05302e-01,-2.58499e-01,-5.87317e-02,-2.84325e-01,2.22659e-01,1.71694e-01,-3.91177e-01,-1.56896e-01,2.53561e-01,2.16155e-01,1.69484e-02,
2.33951e-01,6.53446e-02,-5.41567e-02,-5.57486e-02,-3.78573e-01,3.48261e+00,2.74161e-01,1.60727e-01,1.40746e-02,-1.54322e-02,-4.63720e-02,-2.03642e-01,-3.96455e-01,-5.05243e-02,-2.85028e-01,-1.78219e-01,1.76416e-01,-3.84451e-02,-1.64523e-03,-1.08200e-01,4.82505e-02,-8.76087e-02,-7.01716e-02,1.00545e-01,1.56225e-01,
-8.60023e-01,-5.39923e-02,4.84163e-01,-2.78402e+00,1.18131e+00,-9.62854e-01,-3.19189e-01,-7.96513e-01,1.09164e-01,-1.02909e-01,1.08793e+00,-1.16655e+00,-9.73521e-01,6.09641e-01,1.74027e-02,4.79544e-02,4.01886e-01,-1.41757e-01,-2.05657e-02,-7.40239e+00,-3.41167e-01,-1.14608e+00,5.45062e-02,6.04906e-02,-4.91846e-01,
2.12382e-01,-1.80861e-02,5.13321e-01,-1.25392e-01,-5.83590e-01,4.92974e+00,5.22043e-02,6.06958e-01,4.87422e-01,2.54498e-01,7.09299e-03,-2.50621e-01,-3.42599e-01,-5.15842e-01,-2.93835e-02,-2.14110e-01,-1.59721e-01,5.47780e-02,-5.39975e-01,-3.17664e-01,1.57932e-01,-1.53349e-01,-1.34881e-01,1.45446e-01,4.21163e-01,
6.21349e-03,-2.67435e-02,7.94955e-02,2.17214e-01,-2.84288e-01,-2.82761e-01,-2.35180e-01,2.04120e-01,-2.26272e-01,4.04288e-01,-7.90830e-03,-8.29835e-02,8.82026e-02,-1.47616e-01,-1.51354e-01,-2.09091e-01,2.52116e-02,1.89278e-01,-7.39700e-02,-2.68209e-01,6.85244e-01,6.59899e-02,8.25953e-02,1.42460e-01,1.60015e-01,
-1.98647e-01,-2.51866e-02,3.40596e-01,-1.33362e-02,-1.39173e-01,3.28072e+00,1.72526e-01,2.67633e-01,1.33826e-01,-1.26248e-01,-2.68597e-02,3.07679e-01,1.22319e-01,-2.57881e-01,-1.57957e-01,-1.86937e-01,5.95709e-01,6.94143e-01,7.07434e-02,-1.55631e-01,-9.99082e-02,-3.95775e-01,-1.54246e-02,5.04049e-01,1.65419e-03,
2.53284e-01,-2.58806e-01,2.46840e-02,-4.00421e-02,-1.47398e-01,2.46047e-01,4.59549e-01,-1.67696e-01,4.18259e-02,-1.12526e-01,-2.76368e-01,-5.62137e-01,1.78945e-03,1.56899e-01,-1.77610e-01,-2.17732e-01,2.70186e-01,-1.82233e-01,1.85988e-01,-7.90979e-02,3.99349e-01,-8.44036e-02,-2.61139e-01,1.36515e-01,-5.46419e-01,
-3.78074e-01,-1.33622e-01,3.14873e-01,-8.78524e-02,-1.33359e-02,1.44763e+00,1.96330e-01,-3.58287e-01,1.96460e-01,-2.68609e-01,1.22583e+00,2.82965e-02,-3.14781e-01,1.24618e-02,-1.27738e-01,1.25919e-01,2.74564e-01,2.31133e-01,3.63973e-01,-2.90149e+00,2.28029e-02,-1.05226e+00,-3.01763e+00,-7.21043e+00,-1.99252e+00,
6.11373e-02,-2.41142e-01,6.97558e-01,-4.76223e-01,-3.77735e-01,1.98467e+00,4.63213e-01,4.22567e-01,-1.69547e-01,-2.92274e-03,8.71612e-01,2.47416e-01,-4.81348e-01,-1.10118e+00,2.87657e-01,1.81155e-01,1.46894e-01,6.40066e-01,-1.21709e+00,-2.29844e-01,1.16018e-01,-2.18804e-01,-7.97323e-03,2.30692e-01,2.84047e-01,
-1.32326e-01,1.31438e-01,-3.10558e-01,-2.33761e-01,-1.19791e-01,-3.47457e-01,-3.99821e-02,-4.71424e-03,-1.00871e+00,-1.05374e-01,-9.53426e-02,1.55516e-01,2.20449e-01,-1.72817e-01,2.66299e-01,-1.32943e-01,9.28382e-02,7.01461e-01,-1.62916e-01,-7.76181e-02,-3.21897e-01,1.73907e-01,-1.20067e-01,-2.52994e-01,1.75875e-01,
-1.49939e-01,-1.48378e-01,-1.26380e-01,2.42980e-01,-3.63209e-01,1.72586e-01,8.42124e-02,3.88011e-02,-2.95305e-01,3.68885e-01,-8.15145e-02,-2.74947e-01,1.82396e-01,8.02340e-03,1.64684e-01,-3.39244e-01,4.43465e-02,-7.74948e-02,-2.28607e-01,5.62317e-02,2.34725e-01,5.44089e-03,8.00968e-02,6.85840e-02,-1.69936e-01,
-1.04482e-02,-3.72519e-01,9.76378e-02,-1.67168e-01,-3.35374e-02,-2.56047e+00,-2.07206e-02,2.95717e-01,-2.90799e-01,4.62453e-01,6.60461e-02,2.39429e-01,1.08856e-01,-3.00596e-01,3.16537e-01,4.86632e-01,-1.53570e-01,2.09672e-01,-2.26539e-01,5.03076e-01,-9.19390e-04,-1.40521e-01,-2.31648e+00,-2.69225e-01,3.67216e-01,
-1.65186e-02,9.14474e-02,-6.68120e-02,-2.64054e-01,-1.04430e-01,-2.92367e+00,2.58796e-01,2.31847e-01,-4.92387e-01,3.92433e-01,-1.09564e-01,-1.85488e-01,7.39258e-01,1.12709e-02,-9.19660e-02,6.24003e-03,-1.52031e-02,2.31795e-01,1.65762e-01,-8.32280e-01,-3.17525e-02,7.02740e-01,1.06166e-01,2.16069e-01,1.44529e-01,
1.72298e-01,-7.04886e-01,-1.68668e+00,-1.87667e-01,2.44569e-01,-3.57478e+00,-1.94899e+00,5.02767e-01,-8.43231e-01,5.94460e-01,-2.91881e-02,1.50175e-01,2.65727e-02,-5.32235e-01,2.54553e-01,4.70427e-01,-1.00566e+00,1.87769e-01,3.81506e-02,6.90798e-01,-1.38666e-01,-1.54452e+00,-2.21242e+00,-7.29658e-01,8.06328e-01,
1.93498e-01,-3.32791e-01,-8.78825e-01,4.43053e-01,8.13820e-02,1.56545e-01,7.19841e-01,2.45834e-01,3.72183e-01,3.22940e-02,-5.29028e-01,-2.66404e-01,3.18795e-01,1.26973e-01,1.57084e-01,-1.69902e-01,-6.60896e-02,-2.69807e-01,3.06622e-01,9.71983e-03,3.01381e-01,-1.01572e-01,-6.23960e-01,-7.67348e-02,-2.07810e-02,
-2.48377e-01,-3.13646e-01,-2.74132e-01,5.00742e-01,1.88707e-02,5.32615e-01,-2.37919e-01,-3.58774e-01,-1.81199e-01,1.05950e-01,-4.32555e-01,3.63915e-01,3.30624e-01,1.26009e-01,-2.42942e-01,1.37941e-01,1.21233e-01,1.26653e-01,-1.05956e-01,1.08720e-01,3.92335e-01,-1.63328e-01,1.89118e-01,8.81452e-02,-3.38607e-01,
1.84617e-01,-4.07897e-03,-1.86267e-01,6.05764e-01,7.93947e-02,5.38015e-01,4.21919e-01,-8.47872e-01,2.47330e-01,3.08257e-01,-1.60221e-01,-4.72379e-01,-1.17431e-01,8.89596e-01,-2.84108e-01,-1.47504e-01,-1.45763e-01,-6.45486e-01,6.80666e-02,3.44070e-01,2.44670e-01,-2.60233e-02,-1.41894e-01,6.49036e-02,5.95583e-01,
-1.23165e-01,-1.36249e-01,2.09729e-01,3.05914e-01,4.65693e-01,-8.28067e+00,3.65553e-01,1.98959e-01,7.39040e-01,-3.93716e-01,2.89643e-01,1.96774e-01,1.33341e-02,-2.15848e-01,1.92184e-01,1.79457e-01,-6.05948e-02,-6.16615e-01,4.18714e-01,2.30505e-01,-2.39014e-02,6.49698e-02,-1.02462e-01,-3.28684e-01,4.36379e-01,
-1.95945e-01,-4.50390e-01,-9.15035e-01,3.46211e-01,2.65841e-01,3.46243e-01,3.33064e-01,-2.66528e-01,2.44092e-01,6.96016e-02,-1.89384e+00,2.73520e-01,1.24776e-01,1.60188e-01,2.34706e-01,1.67997e-01,-1.22436e-01,5.99380e-02,1.99242e-01,7.57887e-01,-7.45285e-01,-3.81149e-01,-2.28322e-01,-1.99215e-01,5.66644e-01,
2.36670e-02,5.69263e-03,1.14485e-01,1.22148e+00,5.91590e-01,1.46166e+00,2.03863e-01,-3.67953e-01,-5.03563e-01,1.18323e+00,-9.52101e-02,-6.55544e-01,8.84990e-01,8.65545e-01,5.73199e-02,-3.66264e+00,5.70804e-01,-3.59482e-01,-4.23798e-02,-3.65966e-01,5.04438e-01,3.15822e-01,-5.52887e-02,1.31595e-01,-1.84214e+00,
3.87423e-01,-3.84291e-01,4.25896e-01,-5.91212e-01,7.47891e-02,-3.19293e-01,-2.11752e-01,3.48460e-01,-8.08386e-02,-4.72433e-02,-1.23028e+01,7.00808e-02,-1.41897e-01,-1.94151e-01,-2.43940e-01,-3.51453e-01,3.01128e-01,5.35347e-01,5.36439e-01,-7.02789e+00,4.57292e-01,-6.72244e-01,-2.56723e+00,-1.00551e+00,-2.67698e+01,
5.53997e-01,-2.02170e-01,4.61594e-01,-8.83521e-01,-9.24598e-01,1.81199e+00,-7.13319e-02,-3.05910e-01,-5.38000e-01,1.15521e-01,1.30422e-01,-1.13019e+00,2.11185e-01,4.65689e-01,2.41095e-02,-4.55050e-01,2.58232e-01,3.47767e-01,2.43090e-01,-3.98470e-01,5.80677e-02,1.47330e-01,9.67559e-02,4.65165e-01,-8.56268e-01,
3.25383e-01,-2.54741e-01,-4.55860e-01,-2.07637e-01,-2.03504e-01,3.87729e+00,5.04519e-01,4.32468e-01,-2.05283e-02,3.99245e-01,9.63019e-02,-2.63487e-01,1.23801e-01,2.67851e-01,2.46337e-03,-4.72984e-02,-8.13485e-01,8.50684e-02,-4.77313e-01,1.06656e-01,5.23916e-01,-4.36743e-02,-3.94717e-01,6.58662e-02,5.16395e-02,
9.52838e-02,-1.07212e-01,3.19711e-01,-2.81427e-01,1.49114e-01,-4.43490e-01,7.26162e-02,2.70936e-01,2.74982e-01,-1.34585e-01,1.92263e-01,-3.71867e-02,2.78277e-01,-1.99317e-01,-2.06514e-01,3.44872e-02,2.67253e-01,-4.10060e-02,7.03841e-02,-4.40016e-01,1.01086e-01,2.28665e-01,3.19258e-02,6.54418e-02,-6.52346e-02,
4.81588e-01,
-1.06014e-01,
7.97473e-01,
-1.07787e-01,
2.25335e-01,
4.95536e-01,
-1.12873e+00,
6.93934e-01,
2.33467e-01,
-7.26776e-01,
7.44700e-01,
7.17136e-01,
-4.38465e-01,
-1.06007e+00,
-1.76508e-01,
-1.98889e-01,
-2.56608e-01,
1.00673e-01,
-8.21847e-01,
-2.76052e-01,
-1.35507e+00,
-3.89487e-01,
1.04520e-01,
-2.38414e-01,
-4.60849e-01,
3.14505e-02,5.74737e-02,-4.39632e-02,2.90913e-01,3.49586e-01,-7.42235e-02,3.75257e-01,-7.73929e-02,-4.20401e-03,-3.87164e-03,1.94663e-01,-9.86980e-02,3.12512e-01,-1.65514e-01,-3.21232e-01,2.25866e-01,-3.10062e-02,3.85006e-02,1.87473e-02,-1.25541e-02,1.11402e-01,2.26094e-02,2.00920e-01,-2.02180e-01,5.54946e-02,
1.26697e-01,5.45194e-02,4.21067e-02,-2.27013e-01,1.30377e-03,2.43489e-01,-1.36665e-01,-2.21914e-01,5.24968e-02,1.51509e-01,4.72391e-02,1.19950e-01,-1.20790e-01,1.22708e-01,-3.59267e-02,-1.44766e-01,-1.79143e-01,1.15792e-01,2.08651e-02,8.00802e-02,6.06990e-02,-1.46072e-01,2.20628e-01,4.95019e-03,-4.68272e-02,
2.14750e-01,-2.10298e-01,1.33303e-01,4.79930e-01,-1.41884e-01,5.51130e-03,-1.73441e-01,-2.19914e-01,7.47671e-02,3.67714e-01,-4.16532e-02,-1.50470e-02,-7.88423e-02,1.50883e-02,2.54289e-01,2.20497e-01,-2.70715e-02,-9.22691e-02,-3.39789e-02,-6.33723e-02,2.25915e-01,-6.12675e-02,5.21226e-01,3.53358e-01,-6.45022e-02,
-2.69498e-01,-1.75574e-01,-1.82683e-01,9.70119e-02,-4.38099e-02,2.23739e-01,1.49325e-01,-4.46611e-02,-5.67395e+00,2.46045e-01,7.62119e-02,-9.22454e-02,-1.84231e-01,-6.23428e-02,-7.85611e-02,2.38239e-01,-1.61455e-01,-1.48147e-01,7.02347e-02,-5.13965e-02,-3.26283e-02,1.10788e-01,4.90842e-02,-1.12163e-01,-1.87589e-01,
1.62837e-01,-3.91822e-02,-1.00034e-01,2.35908e-01,-3.80518e-02,-1.40833e-01,-1.97813e-01,2.40461e-01,1.48708e-01,-8.83444e-02,-6.88972e-02,-2.16462e-02,2.71800e-01,3.68884e-02,-2.22596e-01,1.20904e-01,-1.38100e-01,4.95528e-02,-1.76250e-01,-4.93142e-02,1.32702e-01,2.13059e-03,-1.29404e-01,-2.00795e-01,-1.97566e-01,
-1.81886e-01,-1.08563e-01,5.16851e-02,-4.07970e-02,-2.57097e-01,-2.12092e-02,1.64565e-01,-3.33914e-01,4.92570e-02,-3.02143e-01,-2.26661e-01,2.86922e-01,-2.48102e-01,2.03149e-02,2.88885e-01,2.43289e-01,-2.15818e-01,-2.32236e-01,5.68129e-03,1.74722e-01,-2.16779e-01,-3.28023e-01,3.22967e-01,-3.01771e-01,-3.46709e-01,
3.38130e-01,7.33209e-02,-1.97483e-01,2.96326e-01,-2.18854e-01,-1.80056e-01,1.01656e-01,2.26346e-01,-6.92208e-02,-8.06428e-02,4.57574e-02,-4.53774e-01,2.15078e-01,1.49499e-01,-3.12252e-01,6.43989e-02,-3.20721e-01,-9.35793e-04,1.50070e-01,-1.67375e-01,-1.83847e-01,-2.53665e-01,1.98241e-01,-3.77950e-01,-1.81000e-01,
-7.85320e-02,-3.05096e-02,1.57651e-01,-1.32554e-01,-2.66555e-01,-3.91496e-01,-2.64190e-01,1.49297e-01,4.94649e-03,1.42237e-01,-1.48271e-01,-8.38931e-02,-1.23950e-01,6.80327e-02,-1.78754e-01,2.64743e-02,4.88537e-02,5.60180e-02,5.34597e-03,-1.26579e-01,-2.18666e-02,-2.14134e-01,2.47437e-01,2.73247e-01,-3.55510e-01,
1.21915e-01,2.29857e-01,-1.76900e-02,-3.67994e-01,1.88767e-01,-4.78374e-01,-1.87088e-01,-8.80644e-02,-2.73753e-01,-2.73542e-01,-1.21443e-01,-2.21022e-01,1.15842e-01,9.81333e-04,5.73290e-02,-3.06006e-01,7.59200e-02,1.04968e-01,-5.14256e-02,-7.48593e-02,-1.53285e-01,-2.63647e-01,-1.24293e-01,-1.40640e-03,-4.39462e-01,
3.58980e-01,-3.87630e-01,7.02637e-02,-1.48620e-01,-5.76029e-02,-4.03115e-03,-2.76439e-01,-1.66585e-01,4.36482e-01,1.48887e-01,-5.95289e-02,-7.26036e-02,-4.26693e-01,-3.08675e-01,-3.12710e-01,1.27060e-01,2.06075e-02,2.95088e-01,-3.74943e-02,-1.04510e-03,-4.69124e-01,2.47418e-01,-7.08046e-01,-8.07989e-02,-2.14790e-01,
-2.43595e-01,1.50610e-01,-2.18073e-01,-1.54553e-01,2.78985e-01,2.98905e-01,4.88238e-02,-4.53991e-01,8.72480e-01,-3.36340e-01,2.45358e-01,4.90209e-01,-5.42522e-01,-1.35216e-01,7.76833e-01,-8.87159e-01,-5.89367e-01,-1.83081e-01,5.83873e-02,-3.19213e-01,5.23593e-02,-2.49929e-01,8.69516e-01,-3.75711e-02,-3.82949e-02,
3.67282e-02,2.63701e-01,-2.88752e-01,1.59285e-01,-3.50564e-01,5.02023e-01,1.20338e-01,-4.98092e-02,2.38964e-01,1.85352e-01,3.93876e-02,-1.39797e-01,1.08365e-01,-1.22457e-01,-5.29735e-02,-1.37746e-01,-3.99385e-01,-1.79647e-01,1.05928e-01,2.84464e-01,2.29097e-01,-7.43022e-02,3.82885e-02,-2.91724e-01,-2.11264e-01,
8.83141e-01,4.68219e-02,-5.96327e-01,-3.95355e+00,-1.03225e+00,-1.26573e-02,-2.21298e-01,3.75864e-01,-4.27850e-01,-6.63515e+00,1.91276e-01,1.00552e-01,4.40438e-01,-2.84698e-01,-3.60305e-01,2.51486e-01,6.70412e-03,2.26341e-02,-8.17351e-02,2.66696e-01,-3.06648e-01,3.00337e-01,2.86327e-02,5.22470e-01,6.08118e-01,
-1.28210e-01,-2.26710e-01,2.72215e-02,1.99492e-01,4.97605e-01,1.79189e-01,2.84887e-01,3.16349e-03,1.57925e-02,3.80294e-02,-2.95978e-02,1.85543e-01,2.04983e-02,-1.65317e-02,-1.79979e-02,-2.18427e-02,-1.44802e-01,3.05433e-01,8.87441e-02,7.61676e-02,-5.75681e-04,-1.19845e-01,1.82530e-01,7.69790e-02,-4.68224e-02,
4.85054e-01,2.00705e-01,3.81512e-02,-4.14993e-01,5.61592e-02,2.80254e-01,-8.54736e-02,1.95879e-01,-8.30999e-02,-2.55283e-01,-1.55417e-01,2.45700e-01,4.03747e-02,2.48396e-03,1.44790e-01,-2.17537e-01,-2.54258e-01,-1.02405e-01,4.07405e-02,4.26375e-01,2.41478e-01,2.78833e-02,-3.83544e-02,9.41980e-03,-4.13592e-02,
2.02463e-02,-8.37389e-02,-4.98989e-01,2.15915e-01,-4.05729e-01,7.92269e-02,-3.65712e-01,9.51837e-02,-6.19532e-02,1.51160e-01,-3.30255e-02,4.46669e-01,2.07813e-01,-1.76485e-01,-1.42439e-01,2.14270e-01,-8.81273e-02,3.98527e-01,-6.63289e-03,2.02872e-01,8.44074e-02,1.45161e-01,-4.34979e-01,-1.26141e-01,8.95792e-02,
-6.90558e-01,-5.07366e-02,1.27204e-01,1.25277e-01,-3.32589e-02,5.95218e-02,3.69001e-02,-1.07984e-01,-9.11440e-04,1.60180e-01,2.03830e-01,3.02382e-01,3.22445e-02,-1.39365e-01,-4.70247e-01,2.03124e-01,-2.54357e-03,-3.61128e-01,-7.41392e-02,2.49932e-01,2.09565e-01,-5.55911e-02,-2.30904e-01,-1.26601e-01,1.12506e-01,
2.06453e-01,1.36401e-01,-3.12369e-01,-1.61272e+00,3.97110e-01,2.58830e-01,-1.51894e-01,-3.65408e-01,-7.31645e+00,-2.88252e-01,3.21413e-01,3.52084e-01,7.20011e-01,1.92564e-02,-3.69277e+00,-8.30868e-01,-6.04305e-01,-3.51553e-01,1.23822e-01,-8.17798e-01,1.82123e-02,-1.61750e+01,2.12917e-02,-6.55728e-02,-1.85776e-01,
-1.95278e-01,-1.26979e-01,-1.27656e-01,1.13157e-01,1.83164e-01,-3.58390e-02,-3.48710e-01,-2.83153e-02,-1.29214e-02,-7.73523e-02,6.88798e-02,-1.49493e-01,1.39785e-01,-1.32008e-02,-1.20359e-01,2.19894e-01,-5.76690e-02,-6.89491e-02,1.29429e-02,-2.44054e-01,1.41205e-01,-2.92417e-02,-2.92337e-01,5.15192e-01,-2.43109e-01,
1.35556e-01,1.97823e-01,-4.28837e-02,-1.43993e-02,1.25586e-01,8.49022e-02,-1.80135e-01,3.54780e-02,2.08797e-01,-4.89771e-02,1.15654e-01,1.55049e-01,6.03825e-01,3.16535e-02,-4.22285e-01,8.86714e-02,-2.47151e-01,1.04880e-01,1.53352e-01,1.15636e-01,9.75511e-02,3.54877e-01,9.71326e-02,1.72028e-02,-1.20819e-01,
-1.32433e-01,2.41691e-01,5.10669e-02,8.46622e-02,1.84246e-01,-6.00516e-02,-1.37564e-01,-1.69891e-01,-7.78853e-03,1.45471e-01,-9.45874e-02,-7.85432e-02,-8.84878e-02,1.20036e-01,1.11622e-01,-3.95788e-02,6.79668e-02,-1.57051e-01,-4.27055e-02,-6.03755e-02,3.65666e-02,-4.01129e-02,1.12674e-01,2.65798e-01,-6.13322e-02,
-6.97692e-02,3.52286e-01,9.62378e-02,1.16969e-01,2.92016e-01,-1.90122e-01,2.35872e-01,-3.84094e-02,-9.35488e-02,1.09938e-01,6.13577e-02,4.29598e-02,5.31472e-02,9.97998e-02,-4.50809e+00,-2.07168e-02,4.05838e-02,-1.57384e-01,-3.23852e-02,-1.39022e-01,-8.47940e-03,-2.50748e-01,2.68692e-02,-1.86515e-01,4.39192e-03,
4.92496e-02,2.54169e-01,5.57078e-01,-7.44001e-01,-3.69954e-01,-9.43860e-01,-1.61997e+00,3.36621e-01,-7.33642e-01,1.07821e+00,-9.08650e-01,2.91900e-02,-1.66895e+00,-1.60528e+00,-1.55336e-01,-1.07589e+01,-1.70488e-01,3.02888e-01,-3.03998e-01,-4.37688e-02,-9.20686e-02,-1.70422e+00,4.31349e-01,-2.52335e-01,-1.22386e+00,
-4.29599e-02,6.42620e-02,-3.40390e-02,-7.48118e-02,5.45408e-01,-2.73692e-02,-7.23003e-03,-8.68133e-02,-9.96822e-04,1.40764e-01,-1.24010e-01,2.05924e-03,-1.94263e-01,5.14742e-02,-1.22084e-02,-2.73305e-01,8.23279e-02,-1.62694e-01,-8.84799e-02,1.37708e-01,-1.23256e-01,1.07190e-01,-3.51575e-01,3.34808e-01,8.28278e-02,
2.33902e-02,-2.44471e-01,-1.80793e-01,5.32826e-02,6.95313e-02,1.28706e-01,-3.44086e-01,-2.81502e-02,-3.01592e+00,-7.31870e-02,3.22434e-02,-2.41931e-02,-1.17285e-01,-7.42874e-02,-1.17288e-02,-3.36006e-02,-8.86684e-02,-5.86111e-03,2.33501e-02,1.82851e-01,-2.50735e-01,-2.51275e-01,3.21235e-01,-3.29893e-01,9.06097e-02,
9.14145e-02,
2.20283e-02,
9.97658e-02,
5.32801e-02,
-2.95137e-01,
-3.03308e-01,
-2.64421e-01,
-1.11943e-01,
3.52816e-02,
1.07216e-01,
-1.42011e-01,
-4.49040e-01,
-3.61264e-01,
-4.43852e-02,
-2.38179e-01,
-1.88612e-01,
-1.22829e-01,
-1.28041e-01,
2.29640e-01,
-5.90008e-02,
6.00326e-02,
-2.51055e-02,
1.89963e-01,
9.91246e-02,
4.22355e-02,
9.71975e-02,-5.62006e-02,6.02940e-03,-3.43038e-02,4.77463e-01,3.56205e-01,-9.65540e-01,-6.79725e-01,-3.48156e-01,3.45349e-02,-5.90482e-02,3.58569e-01,-2.12376e-02,-9.54024e-02,-2.29846e-01,5.59323e-02,-6.22560e-03,-1.92094e-02,1.57713e-02,-3.67024e-02,-1.73036e-02,-1.53671e-02,-5.50953e-02,5.53133e-02,-1.00171e-02,
-9.49664e-02,-2.65450e-02,2.61023e-03,-8.11822e-02,8.83506e-01,3.87809e-01,4.41013e-01,1.03178e+00,2.16969e-01,-3.39403e-03,-4.66249e-03,5.38595e-01,-2.97342e-02,-1.69162e-01,-1.44766e-01,1.07876e-01,-3.59884e-02,-2.85363e-03,1.52251e-01,1.32860e-02,-8.69667e-02,4.05484e-01,-2.46543e-02,-2.46188e-03,1.40364e-01,
4.30156e-02,-2.99216e-02,1.56950e-02,1.02990e-02,5.95032e-01,3.82135e-01,1.20659e+00,9.88518e-01,-6.55362e-02,-2.94616e-02,3.43203e-02,7.24168e-01,-7.17654e-03,-1.30634e-01,-1.24229e-01,1.22260e-01,-7.52879e-02,-7.24297e-02,-3.61833e-02,-1.93816e-01,8.73037e-04,1.20243e-02,7.19981e-02,1.03851e-01,-1.80669e-02,
-8.77697e-03,-5.77003e-02,-3.15590e-02,-3.11077e-02,4.54116e-01,5.17693e-02,3.69214e-01,6.57851e-01,4.08093e-01,4.78366e-03,3.57467e-03,4.46773e-01,-2.67022e-02,-1.56674e-01,-1.19217e-01,9.71649e-02,-3.19040e-02,-9.07889e-03,2.19085e-02,-1.17660e-02,1.56050e-01,1.96232e-01,-9.62014e-03,-3.08270e-02,9.76514e-02,
7.37139e-02,-8.46776e-03,-4.42045e-03,-2.78413e-02,6.33528e-01,-2.63576e-01,7.67817e-01,5.95450e-01,-1.01095e-01,-5.34069e-02,-9.86762e-03,6.82056e-01,-2.84409e-02,-1.26662e-01,-1.49104e-01,1.26010e-01,-4.03076e-02,2.29738e-02,-2.33287e-03,-1.58218e-01,1.48284e-02,4.47862e-02,-5.35791e-03,5.29158e-02,1.91492e-02,
-1.77862e-02,-8.62094e-02,-1.18181e-01,4.15423e-02,-5.37293e-01,9.05561e-02,1.05855e+00,1.00806e+00,-3.15571e-02,-3.52679e-02,-4.63935e-02,5.77079e-01,-4.05311e-02,-1.06890e-01,-5.71507e-02,7.75240e-02,-3.73051e-02,-2.05383e-02,-7.08762e-02,-3.35865e-03,4.71412e-01,9.19117e-02,-4.44664e-02,-1.33803e-01,9.66483e-02,
1.07341e-01,7.15791e-02,-2.25275e-02,-4.74446e-02,9.00311e-01,-1.39761e-01,6.43201e-01,7.28059e-01,-3.07749e-01,-4.58337e-02,2.02178e-02,7.27887e-01,-2.27197e-02,-1.37612e-01,-1.82850e-01,1.42019e-01,-3.77174e-02,9.60510e-02,1.52801e-02,-1.78225e-01,-2.71437e-02,7.78645e-03,-2.73226e-02,7.26701e-02,-5.00950e-03,
-1.37866e-04,-5.51865e-02,-4.38493e-02,-4.40966e-02,5.05327e-01,8.91726e-02,3.92767e-01,5.84530e-01,-3.36744e-02,-6.82979e-03,1.34754e-03,5.07095e-01,-2.69688e-02,-1.46208e-01,-1.24374e-01,9.27933e-02,-2.69127e-02,-2.41430e-02,1.50621e-02,-1.68426e-02,1.74637e-01,1.83947e-01,-1.23774e-02,-4.70619e-02,8.64947e-02,
8.31243e-02,-1.29134e-02,-2.33261e-03,-3.04556e-02,7.93439e-01,-3.73680e-01,6.42658e-01,4.86718e-01,4.09581e-01,-5.26708e-02,-3.27161e-02,7.91317e-01,-3.61882e-02,-1.22488e-01,-1.67689e-01,1.21338e-01,-3.35530e-02,5.44878e-02,-1.02001e-02,-1.43962e-01,1.54975e-02,1.70456e-02,-3.29916e-03,5.69892e-02,2.36115e-02,
1.90824e-01,
1.83662e-01,
1.96896e-01,
-2.49090e-01,
-2.58513e-01,
2.20458e-01,
1.79555e-01,
-2.47441e-01,
-2.59254e-01,
