// Neural Network File Format by Kyle Julian, Stanford 2016
6,4,9,25,
4,25,25,25,25,25,9,
0,
-8000.000000,-100.000000,-100.000000,0.000000
8000.000000,100.000000,100.000000,40.000000
0.000000,0.000000,0.000000,20.000000,-4.647677
16000.000000,200.000000,200.000000,40.000000,22.514692
4.57989e+00,-1.50437e-03,-2.80115e-02,-1.05277e-01,
3.76028e+00,-3.89965e-01,4.18889e-01,-2.63524e-01,
3.21819e+00,6.63628e-01,2.26631e-01,2.06712e-01,
1.49940e+00,-8.88742e-02,4.28491e-02,1.74386e-01,
-7.54669e-01,-9.39366e-01,-1.32824e-01,-5.19359e-02,
-3.07762e+00,-4.20556e-02,2.00285e-01,-8.66796e-01,
4.06544e+00,-1.46045e-01,1.69577e-01,-2.77466e-01,
1.98050e+00,-3.26697e-01,5.35137e-01,4.91698e-01,
-1.27404e+00,1.10511e+00,5.40862e-02,1.37011e-02,
-1.43716e+00,9.18417e-01,-3.37421e-01,-1.17980e-02,
-4.09622e-01,7.52634e-01,2.72867e-02,1.67943e-01,
2.97443e-01,9.92784e-03,-1.32870e-02,7.79846e-01,
-5.95862e-01,7.96898e-03,5.96641e-02,4.34841e-01,
3.80878e+00,1.78147e-01,-1.75638e-01,-6.25610e-01,
-1.91875e+00,3.19978e-01,-6.27750e-01,2.06932e-01,
-1.11340e-02,-9.57328e-01,9.58682e-01,4.28224e-03,
-1.75826e-01,8.57109e-02,-2.44687e-01,-4.49081e-02,
-1.36477e+00,4.12805e-01,-1.04279e-01,4.65621e-01,
2.12365e+00,-3.73131e-01,5.93412e-01,1.28011e-01,
2.74965e-01,-6.42746e-02,5.62581e-02,5.34386e-01,
5.56191e+00,2.25209e-01,-3.48310e-01,7.54356e-02,
-3.83177e+00,1.59240e-01,-1.26553e-03,-6.91028e-01,
8.03333e-01,-1.90279e-01,-1.08323e-01,-5.71681e-01,
-4.18926e+00,-2.40626e-01,2.86506e-01,-7.17787e-02,
-1.04026e-01,-1.23896e+00,1.13402e-01,-3.02718e-02,
2.61429e-01,
-7.56465e-02,
-9.00826e-02,
8.56897e-02,
2.30504e-01,
-2.85799e-01,
7.74350e-02,
2.18195e-01,
7.78381e-02,
4.04630e-01,
2.16293e-01,
3.72503e-01,
-4.47003e-02,
-1.25187e-01,
2.23798e-01,
-1.38084e-01,
-3.36108e-01,
-7.08229e-02,
1.87567e-01,
6.42654e-02,
-2.62696e-01,
-4.90557e-02,
-6.26024e-02,
2.33885e-01,
1.64143e-01,
-3.49779e-02,-1.81165e+00,-2.11238e-01,5.32373e-01,-1.08997e+00,5.63049e-01,2.64850e-01,-4.24754e-01,7.33876e-01,4.01281e-01,-1.32207e-01,-8.96706e-02,-5.29995e-01,-3.35228e-01,4.09028e-01,-1.97264e-01,2.32248e-01,6.04604e-01,-8.52608e-01,2.82444e-01,4.17315e-01,5.11326e-01,-2.08402e-01,-5.77937e-01,1.50060e+00,
7.47017e-01,-4.28396e-01,-1.55835e+00,5.03579e-01,2.68849e-01,1.27081e-01,-4.49537e-02,-1.92731e-01,1.80656e+00,-4.23878e-01,-1.23607e-01,-1.23955e-01,-2.32242e-01,-1.42779e+00,2.26553e-01,-5.30461e-03,1.55449e-01,2.24988e-01,3.21193e-01,-6.66502e-02,2.04469e-01,-2.15190e-01,-3.89817e-02,-3.16952e-01,-6.38726e-01,
4.61525e-02,2.48521e-01,-4.58841e-02,7.40979e-02,8.67885e-01,2.91457e-01,2.28808e-01,-4.12038e-01,-5.67708e-01,-4.53422e-01,9.47845e-01,-4.37562e-01,-2.48768e-01,-8.37254e-01,-2.32770e-01,-6.28045e-01,1.82113e-01,4.07283e-01,-1.47505e-01,2.68946e-01,6.80498e-01,1.18267e-01,5.17011e-03,3.97304e-01,-8.16075e-01,
1.36097e-01,3.52608e-01,1.83381e-01,5.72304e-01,2.20008e-01,-8.10122e-01,7.07759e-02,9.26552e-01,-9.26846e-02,2.98590e-01,7.05218e-02,8.35415e-01,-9.20034e-01,1.26322e-01,1.60178e-01,-5.48403e-02,-1.63616e-01,-1.48509e-01,-2.98222e-01,-9.54279e-01,-1.09665e+00,-4.58629e-01,-2.28096e-01,4.14948e-01,-1.00647e-01,
-1.96073e-01,-7.33908e-02,3.91084e-01,-2.39661e-02,7.32749e-02,5.76377e-01,-5.44404e-01,-5.47061e-01,-4.67361e-01,9.73280e-01,4.34475e-02,1.07518e-01,-5.75762e-01,-1.43467e+00,7.90568e-01,1.00702e-01,6.98133e-02,-3.03487e-02,-9.19276e-01,4.30310e-01,9.52975e-01,9.29738e-01,2.50439e-02,-6.22690e-01,2.25479e-01,
1.38646e+00,7.82507e-01,-2.67462e-01,-2.14000e-01,2.85842e-02,3.40718e-01,6.88470e-02,6.64192e-01,4.74987e-01,-7.56053e-01,4.53038e-02,4.20786e-01,-1.66737e-01,9.20204e-03,-2.18876e-01,-3.13827e-01,3.13137e-01,3.25128e-02,4.75276e-02,-4.32586e-01,-9.40549e-01,1.01067e-01,2.16730e-02,1.25495e-02,-2.44480e-01,
-5.94781e-02,-1.39767e+00,2.74620e-01,-4.01960e-01,-6.35042e-02,-4.51374e-01,-4.02540e-01,-7.94505e-01,-4.72834e-01,4.13023e-01,-8.16026e-02,1.27755e-01,1.11152e+00,-2.83763e-01,6.80672e-01,-8.31035e-01,2.46016e-01,-7.05631e-01,-5.04463e-01,-2.60356e-01,7.93675e-01,2.85344e-01,-6.75793e-01,-3.84654e-01,7.96774e-01,
3.65208e-01,-4.63094e-01,-1.38082e-01,2.50081e-01,1.16593e-01,-5.22406e-01,6.24842e-01,1.82684e-02,-2.90387e-01,-5.91759e-01,7.29084e-01,4.83322e-01,-3.57589e-01,5.77645e-01,-5.94302e-01,-4.08546e-01,1.67082e-01,2.32553e-01,3.96860e-01,-2.69288e-02,2.19773e+00,7.62754e-02,-1.97661e-02,5.98393e-01,-3.76303e-02,
2.29524e-01,2.97257e-01,4.14788e-02,6.79502e-02,1.94667e-01,-6.42143e-01,8.23289e-01,-1.79945e-01,-8.47019e-02,-3.82371e-02,4.48582e-01,-8.58683e-01,-1.17967e+00,6.06183e-01,-8.27232e-02,-4.29599e-01,3.85696e-02,7.10385e-01,7.00280e-01,9.48533e-01,-6.94228e-01,3.15416e-01,7.00013e-01,-7.00682e-01,-1.00703e-01,
8.46497e-02,-7.31932e-01,-9.14697e-02,-1.14523e+00,1.44400e-01,-1.04482e+00,2.87822e-01,7.81861e-01,1.00466e-01,1.13965e-01,-6.76208e-01,-6.80476e-01,-7.54349e-04,-2.44780e-01,3.87977e-01,-3.95414e-01,1.08884e-01,2.36397e-01,-1.81916e-01,4.44171e-01,5.16248e-01,1.20200e+00,9.97499e-03,-5.13939e-01,-6.78821e-02,
-6.51728e-02,-5.18059e-01,2.76235e-01,-9.91619e-02,-8.72172e-01,-2.13804e-01,1.03079e+00,2.28055e-01,-7.86613e-01,8.94358e-01,3.83907e-01,-3.08580e-01,1.45959e-01,2.58742e-01,9.49091e-03,2.71449e-01,-1.87764e-01,-1.85091e-01,6.10914e-01,6.18692e-02,4.76940e-01,-1.23244e-01,1.43266e-01,2.34972e-01,4.99705e-01,
5.85352e-01,8.51614e-01,-1.88302e-01,1.88742e-01,4.20089e-01,-2.59515e-01,6.87908e-01,-3.08891e-01,-4.23435e-03,-7.63800e-01,5.63661e-02,8.39163e-01,-3.07662e-01,3.03620e-01,-3.37203e-01,3.32320e-01,-1.31151e-01,2.61658e-01,2.87328e-01,-2.72395e-01,1.43057e+00,-3.77580e-01,5.14565e-01,6.94617e-01,-9.78275e-01,
-3.76499e-01,8.27776e-01,3.28494e-01,-4.58186e-01,3.26609e-01,-8.02689e-01,7.92710e-01,-2.30141e-01,-4.87602e-01,-3.67111e-01,4.16695e-01,1.52275e-01,1.70387e-01,-5.47125e-01,-3.66800e-01,5.38995e-01,-3.37359e-01,-3.29360e-01,-7.69354e-01,2.66844e-01,-3.33969e-01,3.02804e-01,6.45281e-01,-4.54290e-01,-9.99893e-01,
-1.81716e-01,1.77364e-01,-3.71397e-01,-1.93205e-01,-2.35802e-01,2.79336e-01,-1.25770e+00,4.83163e-01,3.24862e-02,-1.64472e-01,4.37263e-01,-6.09828e-01,-3.15163e-01,-6.30017e-01,2.54514e-01,1.39882e-01,-2.75795e-01,5.43902e-01,-2.81107e-01,1.67442e-01,7.50479e-01,4.10903e-01,1.32735e-01,9.70157e-01,2.23533e-01,
-4.50082e+00,-1.04875e+00,-1.79772e-01,-8.12378e-01,-5.55310e-02,1.64994e-01,6.88975e-02,-4.01699e-02,-6.66751e-02,1.85085e-01,-7.36640e-02,-2.80784e-01,-1.51878e-01,-4.01268e-04,7.73452e-01,-1.59480e-01,6.64048e-02,-4.42471e-02,-1.20369e-01,1.17772e-02,4.55460e-02,2.34333e-01,1.05591e-01,1.40491e+00,8.61264e-02,
-7.60717e-01,3.31156e-01,-3.32052e-01,3.27919e-01,-6.84348e-02,6.92903e-01,4.59252e-01,9.01432e-02,5.29851e-01,4.23432e-01,-3.61276e-02,2.62526e-01,-8.91585e-01,1.31565e-02,3.52315e-01,-6.60711e-01,4.89516e-02,-5.11989e-02,-2.01445e-01,2.83908e-01,-6.06794e-02,-3.19912e-02,6.26658e-02,4.76267e-01,-1.24078e-01,
6.46179e-01,5.91070e-01,-1.09549e-01,-3.18831e-01,-4.06396e-01,-4.68819e-01,-1.24981e-01,-1.52054e-01,9.14897e-01,-4.28387e-01,1.93725e-01,-5.74489e-01,2.41862e-01,-1.11821e-01,-4.06473e-01,-4.89397e-01,2.67349e-02,-4.44495e-01,2.96568e-01,1.02837e+00,-4.76922e-01,1.59296e-01,-8.53534e-02,1.86418e-01,8.95488e-01,
4.73388e-01,-5.79897e-01,7.61767e-01,3.96375e-01,-1.82420e-02,-3.98419e-03,-1.31984e-01,-1.34186e-01,-1.45177e-01,-6.50593e-02,-3.52680e-01,-7.11655e-02,-3.22049e-01,3.97292e-01,2.39061e-01,2.22096e-01,-1.17252e-01,1.02264e-01,-9.11591e-01,1.66045e-02,7.45254e-01,9.38667e-02,-1.81135e-01,8.47932e-02,3.95600e-02,
1.28892e-01,4.67416e-01,-4.18433e-01,-4.77775e-01,4.54499e-01,8.43032e-01,-9.86350e-02,2.30132e-01,3.91212e-01,-1.19846e+00,8.65629e-01,7.43853e-01,-5.99834e-01,5.94059e-01,6.05706e-01,3.56527e-02,6.32255e-02,1.75180e-01,1.25486e-01,-7.87040e-01,-2.83226e-01,-4.92554e-01,-2.99048e-01,-1.81371e-01,-2.91545e-01,
-9.01551e-01,2.91910e-01,2.86057e-02,-1.71870e-01,-4.50915e-01,-4.46087e-01,6.95390e-01,4.31036e-01,1.37595e-01,-2.75565e-01,1.62113e-01,-1.98017e-01,1.52997e-01,-6.47750e-03,-2.98647e-01,8.81947e-01,-1.94051e-01,3.70472e-02,-1.63988e-01,-1.14968e-01,1.20233e+00,-8.51231e-01,5.18247e-01,7.39757e-01,2.42905e-01,
-2.61246e-01,-7.83851e-01,1.41387e+00,-7.81061e-02,-2.10286e-01,4.90197e-01,-3.34804e-01,-5.24048e-01,-1.42391e+00,2.40949e-01,2.12881e-01,-3.60935e-01,2.19019e-01,1.89763e-01,2.02786e-01,9.67190e-01,1.52256e-01,-9.59040e-02,-1.20402e-01,8.04800e-01,-1.34689e+00,3.64573e-01,5.22962e-01,-2.54824e-01,3.35578e-01,
-9.79198e-02,-1.32638e-01,-1.13695e-01,3.91453e-02,-6.52946e-02,-5.38423e-01,-9.22558e-01,5.90111e-01,-3.34384e-01,-1.66873e-01,9.46262e-02,5.53408e-02,-2.49638e-01,5.73988e-01,1.23901e-01,-1.76049e-02,-2.63478e-01,7.64747e-02,-4.97470e-01,-4.89396e-01,3.54953e-01,7.76069e-02,-2.22186e-01,1.09466e+00,-4.41183e-01,
1.04997e-02,-6.88942e-01,2.42051e-01,3.87490e-01,1.01391e+00,8.36327e-01,-6.64567e-01,-9.68864e-01,-7.92489e-02,7.96485e-01,-8.38314e-01,3.28224e-01,-1.84482e-01,-5.65406e-01,7.38877e-01,-3.24904e-01,8.11844e-02,-1.82222e-01,-1.74544e-01,2.20225e-01,1.04167e+00,9.67941e-01,-6.18373e-01,-3.38565e-01,-3.28166e-01,
8.57755e-01,-1.31621e+00,3.67914e-01,-1.58805e-01,1.05693e+00,-4.53659e-01,-6.78899e-02,5.29486e-02,2.07519e-02,-8.89413e-01,-4.94287e-01,7.41065e-02,-2.22310e-01,-2.57898e-01,-1.78760e-03,4.23454e-01,3.02209e-01,2.78416e-01,7.31341e-02,-1.01653e-01,5.26063e-01,-4.40539e-01,4.66295e-01,1.05719e+00,-1.49734e+00,
-3.03842e-01,-6.70694e-01,-2.07092e+00,-7.42702e-02,1.55188e-01,-1.49612e-01,6.35697e-02,2.12436e-01,9.81833e-01,5.19141e-01,7.78183e-01,-4.56807e-01,2.40124e-01,6.62823e-02,-2.29206e-01,-7.52844e-02,-1.64124e-01,-1.63215e-02,-9.84211e-02,-5.87771e-03,6.28258e-01,8.69731e-03,6.76076e-02,-3.81748e-01,-2.34081e-03,
-5.38945e-01,
4.60427e-01,
4.70469e-01,
-1.44592e-01,
-1.10351e-01,
6.74256e-02,
2.71425e-01,
-1.87595e-01,
-3.36212e-01,
3.33997e-01,
-2.86423e-01,
-4.48118e-01,
6.82990e-01,
2.15537e-01,
-4.43951e-01,
1.44589e-01,
1.46444e-01,
3.22676e-01,
3.31462e-02,
3.83792e-01,
4.41687e-01,
4.20209e-01,
-2.02831e-01,
3.81668e-02,
-1.75148e-01,
-8.67902e-01,3.40347e-01,-8.64925e-01,2.70324e-01,3.35731e-01,-2.16217e-01,-7.26579e-01,-9.15632e-02,3.77280e-02,5.38912e-01,-7.29527e-01,4.18660e-01,-1.73712e-01,-5.73109e-01,4.75316e-01,2.71115e-01,4.42076e-01,-4.74143e-02,-5.14377e-02,2.34591e-01,4.06872e-01,1.61310e-01,2.47061e-01,8.23810e-02,-8.18564e-02,
2.49836e-01,3.13094e-01,-9.96077e-02,-1.94323e-01,-7.02119e-01,6.75274e-01,2.15320e-01,8.38663e-02,3.32715e-02,1.14996e-01,-2.75014e-01,1.91644e-01,-5.37686e-01,2.73550e-01,1.56023e-01,-3.24162e-01,-1.97929e-01,-1.19745e-01,-4.85918e-01,6.38646e-02,1.70705e-01,2.63466e-01,1.13622e+00,-6.63080e-01,3.45839e-01,
-9.91875e-01,-4.93404e-01,-2.27726e-01,-1.78970e-01,5.60519e-01,4.56206e-01,2.88733e-01,-2.11100e-01,-2.15067e-01,-3.79335e-01,-3.80839e-02,8.00031e-02,5.02391e-01,3.18967e-01,-3.21569e-01,7.25465e-01,3.79242e-02,5.04821e-01,-2.95586e-02,-2.33355e-01,2.33144e-01,-4.31098e-01,8.79985e-02,8.32523e-02,1.35767e+00,
4.52947e-01,-2.20385e-01,-1.32448e-01,-5.09278e-01,-3.99875e-01,8.45314e-02,1.41256e-02,2.77449e-01,7.70467e-01,7.10790e-01,1.54218e-01,-4.43020e-01,2.92788e-01,-9.23485e-01,-9.45801e-03,1.73078e-02,5.07378e-01,-2.60976e-01,1.23792e-02,-3.81539e-02,2.14519e-01,-3.02509e-01,3.91722e-01,1.53491e-01,-1.43545e-01,
-4.29185e-01,2.08461e-01,2.00812e-01,8.22824e-01,4.14792e-01,-3.03309e-01,3.82546e-01,2.84334e-01,-2.60260e-01,-3.63389e-01,-1.06577e-01,5.77001e-02,-1.94227e-01,2.14804e-01,1.79849e-01,-7.77483e-02,5.86745e-03,-4.23495e-01,-1.30574e-01,-1.60865e-01,-2.68048e-02,8.56635e-02,-1.60245e-01,-2.41778e-01,-8.44546e-02,
-8.11964e-02,-2.95951e+00,-1.17841e-01,-1.98529e-02,-1.00246e+00,-1.18554e+00,1.04306e-01,-3.29163e-02,-7.79286e-01,-6.04876e-02,1.12008e-02,-1.05797e-01,-2.71353e-01,1.99075e-01,-1.15295e+00,5.63504e-01,-4.80947e-01,2.90920e-01,2.90045e-01,2.53457e-01,8.06319e-01,5.36842e-01,-8.86841e-02,5.02771e-01,-3.95981e-01,
-7.42148e-01,-1.56351e-01,1.87060e-01,8.49200e-02,7.47219e-01,4.50462e-01,6.33697e-01,-6.95609e-01,-4.42603e-01,-2.45225e-01,3.48891e-01,6.94978e-01,3.97147e-01,5.58976e-01,-8.58442e-02,1.09337e-01,5.63390e-01,4.73496e-01,-3.94898e-02,-7.72825e-01,3.36149e-01,3.91404e-02,-1.10586e+00,8.77029e-02,6.20020e-01,
3.63186e-01,-1.29800e-01,6.45389e-02,2.36122e-02,6.36709e-01,1.81690e-01,5.70954e-01,4.57763e-01,-9.37399e-02,-2.21419e-01,-5.86460e-01,-7.21367e-01,4.56839e-01,1.32267e-01,8.78370e-02,3.88142e-02,3.13382e-01,3.64784e-01,-7.16154e-03,3.77871e-01,4.40905e-01,-1.26826e-01,3.36691e-02,3.76670e-01,-2.78615e-01,
9.58649e-01,1.14180e-01,-2.11307e-01,2.55739e-01,-1.18096e+00,2.56847e-01,1.32824e-01,1.99902e-01,-7.40303e-02,5.01848e-01,-6.02198e-01,2.11231e-01,-5.79783e-02,1.21787e-01,-7.26853e-01,-2.24758e-01,-3.65121e-01,-3.38640e-01,7.06634e-02,5.68762e-03,4.19691e-02,-7.41440e-02,7.16368e-01,-6.12066e-01,-2.83911e-01,
-4.33411e-01,3.65090e-01,4.52969e-01,-4.94561e-01,-4.81768e-01,2.46581e-01,-1.41578e-01,2.27664e-01,-1.16667e-01,4.57309e-01,-1.35658e-04,-7.33680e-01,-1.87408e-01,-4.50599e-02,-2.91268e-02,3.92248e-02,-6.73569e-02,5.19465e-01,-1.81384e-01,3.40789e-01,-1.84054e-01,-2.54711e-01,-1.46852e-01,6.77557e-02,5.67388e-03,
1.25121e-01,9.60765e-02,2.96772e-02,4.57106e-01,-7.78110e-01,-1.22219e+00,-1.74926e-01,-2.05209e-02,-3.48613e-01,7.00641e-01,-3.18070e-01,5.23982e-01,-2.26203e-01,-1.01097e-01,-2.80895e-01,9.55396e-01,7.19533e-01,1.91242e-01,-3.96151e-01,-4.22511e-01,5.72875e-01,-1.92954e-01,4.78037e-01,1.58019e-01,-5.84858e-01,
1.01531e-01,4.68674e-01,-1.15635e-01,2.76799e-01,1.38459e-01,2.31615e-02,-2.20422e-01,3.22093e-01,-1.23423e+00,-3.23813e-01,4.23732e-03,-3.80256e-01,4.34292e-01,9.72354e-03,-4.64061e-01,-2.23184e-02,-1.38524e-01,-2.94602e-02,7.34657e-02,5.04782e-01,4.44433e-01,-2.07674e-01,8.51119e-01,9.10408e-03,3.35900e-02,
-5.76717e-01,-1.94853e-01,1.73726e-01,2.30612e-01,-2.30617e-01,6.55668e-01,-5.47402e-01,-3.04687e-01,4.83458e-01,1.62181e-02,-3.88158e-01,3.53503e-01,-1.15315e-01,4.96589e-02,-1.48281e-01,-5.34733e-01,3.20447e-01,1.51796e-01,-4.85373e-01,5.83245e-02,-4.58936e-02,4.65831e-01,5.56238e-01,-2.24256e-01,-2.12730e-01,
1.82828e-01,-1.05812e-01,4.81673e-01,5.29920e-02,1.00146e+00,1.20720e-01,2.47030e-01,2.80416e-01,-1.67516e-01,3.51470e-01,-7.16899e-01,-5.06190e-01,-6.17625e-02,-2.72920e-01,1.30016e-01,-1.98318e-01,-1.60982e-01,8.84034e-02,7.59696e-01,7.08368e-01,3.97246e-01,-4.23263e-01,3.09173e-01,-8.50414e-02,4.25505e-01,
-4.56744e-02,1.38926e-02,2.71085e-01,-1.58334e-01,1.86093e-02,-2.26747e-01,-2.72165e-01,-3.26741e-01,-2.22935e-01,-2.84969e-01,1.44309e-01,-1.94776e-01,-2.06193e-01,5.18979e-02,-3.09455e-01,7.36558e-02,5.75246e-02,-1.78069e-01,-1.39259e-01,-4.52156e-02,2.46908e-01,-3.48332e-01,-2.83810e-02,-1.86433e-01,-2.20052e-01,
1.00885e-01,-2.17766e-01,6.72308e-03,-1.89721e-01,4.94124e-01,1.90054e-01,-2.58239e-01,2.05223e-01,7.70009e-01,-1.36167e-01,1.64569e-01,-7.66248e-01,-3.44215e-01,-1.31057e+00,3.21244e-01,-5.80511e-02,-4.15696e-03,3.60077e-01,1.99229e-01,8.50216e-01,-4.27862e-01,7.83647e-01,-1.50998e-01,4.84648e-01,-6.34882e-02,
2.25622e-01,1.14171e-01,-3.30793e-01,-2.81811e-01,1.76246e-01,1.23932e-01,1.96763e-01,-1.49319e-01,-1.24999e-01,1.70395e-01,5.12315e-01,1.15641e-01,-5.86689e-01,1.51712e-01,-1.36369e-01,5.00083e-01,-5.46083e-02,-7.88980e-02,-9.44793e-01,-1.29512e-01,-2.22599e-01,-5.32832e-01,-2.82171e-01,5.95356e-01,-1.38318e+00,
5.63168e-01,-4.38704e-02,2.54061e-01,1.24397e-01,-5.01832e-01,-3.07106e-01,3.72096e-01,1.84236e-01,7.26671e-02,7.45677e-01,3.06713e-01,-1.50115e-01,3.79151e-02,-1.58517e-01,3.13900e-01,-2.77030e-01,1.30137e-01,-1.75048e-01,1.06855e+00,-3.95370e-01,4.01545e-01,2.95975e-01,-1.60094e-01,-4.86873e-01,2.16864e-01,
-4.03400e-01,4.88106e-01,4.60035e-01,-1.30336e-01,-1.12399e+00,3.33340e-01,-1.03766e-01,5.03215e-01,2.52344e-01,2.56290e-02,4.32593e-01,-8.47680e-01,1.39207e-01,-4.44646e-01,1.63462e-01,1.28270e-01,-1.28928e-01,-4.91199e-01,-5.90905e-01,7.12522e-01,4.84426e-01,2.21510e-01,-1.77575e+00,-1.74020e-01,-7.11109e-01,
7.02094e-01,-3.69143e-01,-8.71421e-01,-3.67692e-01,3.05338e-01,5.93348e-01,-3.10735e-01,-1.62253e+00,-3.73313e-01,2.43341e-01,-1.01067e+00,-1.28060e+00,-4.18628e-01,-4.60876e-01,-1.23396e+01,-8.53679e-02,-4.16173e-01,9.09019e-02,-1.29994e-02,2.72833e-01,5.20933e-01,6.01583e-01,6.94125e-02,-2.52130e-01,1.51663e-01,
4.56786e-01,4.11927e-01,7.08122e-01,-6.68646e-01,-7.89325e-01,-2.37625e-01,-1.00060e-01,-3.27067e-01,-4.87948e-01,1.77504e-01,3.78037e-01,-1.92942e-03,-2.60304e-01,-3.99045e-01,4.92478e-02,-1.73912e-01,2.34205e-01,5.35686e-01,1.13195e-02,2.29677e-01,3.05276e-01,2.46931e-01,-8.65966e-01,-2.97586e-01,-2.55212e-01,
1.12711e+00,2.27307e-02,5.94686e-01,2.36956e-01,-9.72889e-01,-3.33946e-01,7.43032e-02,-7.64247e-01,-7.54928e-01,5.64034e-01,-7.10762e-01,1.08956e+00,7.87555e-01,-4.12857e-02,-1.80296e+01,5.20179e-01,-1.35456e+00,-5.82279e-02,2.72447e-01,-8.51413e-01,3.01052e-01,2.54222e-01,3.81179e-01,1.60943e+00,2.68078e-01,
-5.08911e-01,-9.10515e-02,-5.41688e-01,6.23682e-01,1.46856e-01,-3.20597e-01,3.21863e-01,-1.72956e+00,-4.22992e-01,6.31049e-01,-6.99848e-01,2.58490e+00,-3.20612e-01,2.17181e-01,-2.03608e-01,4.68765e-02,-5.63130e-01,-2.02894e-01,9.05093e-02,-1.17887e+00,9.36119e-01,-9.26208e-01,-5.40470e-01,6.59553e-01,7.71018e-01,
9.12370e-01,-2.28729e-01,4.37452e-01,-3.21575e-01,-6.73104e-01,-6.45854e-01,-1.96714e-01,-3.47265e-01,-3.95040e-01,2.83888e-01,-1.68627e-01,-5.13244e-02,-4.12282e-01,-1.28323e+00,7.52223e-02,6.47192e-01,2.00638e-01,-6.65374e-01,-1.81899e-01,6.79878e-01,2.10085e-01,9.49319e-01,2.35875e-01,1.04261e-01,-5.42638e-01,
1.20203e-01,4.32508e-04,9.56091e-01,-2.22296e-01,-1.29598e-01,-1.96678e-01,2.90611e-01,-1.85285e+00,-3.59225e-01,5.56982e-01,-1.90195e-01,-2.73930e-03,-3.00953e-01,-3.96418e-01,9.81786e-02,1.49992e-01,-4.89210e-02,2.97391e-01,6.04687e-02,4.92269e-01,-4.09708e-02,7.43165e-02,-9.66415e-01,3.76432e-01,-2.88354e-01,
1.56886e-01,
-9.42864e-02,
-6.05474e-02,
2.32987e-01,
2.80350e-01,
-9.00504e-01,
-5.17885e-01,
-1.35843e-01,
3.45658e-01,
2.41699e-01,
-4.16335e-01,
-1.46138e-01,
3.09756e-01,
-3.54284e-01,
-2.59988e-01,
1.33088e-01,
5.94854e-01,
-7.55579e-02,
-2.33297e-01,
4.42409e-01,
2.56227e-01,
-8.74755e-02,
6.73662e-01,
8.13837e-01,
2.48959e-01,
4.11497e-01,-1.15495e-01,-4.58173e-01,2.31582e-01,-6.49448e-01,-3.67291e+00,-1.04770e-01,-4.08354e-01,-4.21140e-01,5.69559e-02,4.33752e-01,-3.67936e-02,-3.50599e-01,3.34728e-01,1.67965e-02,-1.19032e+00,1.26911e-01,3.52466e-01,1.32216e-01,-2.16351e-01,4.91845e-01,4.00197e-02,-4.09129e-01,-7.68466e-02,8.03007e-02,
-3.96615e-01,-3.21301e-01,-3.08873e-02,-3.35917e-01,-1.17149e-01,7.60105e-02,-1.90442e-01,-2.95449e-01,-2.21972e-02,2.27098e-01,2.16145e-01,-3.79193e-02,-1.02701e-01,2.33668e-01,-1.05302e-01,-2.37730e-01,-5.09826e-02,-2.66249e-01,2.45873e-01,1.71694e-01,-3.73561e-01,-1.56896e-01,2.53561e-01,2.38963e-01,2.33332e-02,
1.80249e-01,7.06371e-02,-7.01512e-02,2.80513e-04,-3.29926e-01,2.69483e+00,3.19636e-01,7.52527e-02,-1.06477e-01,6.32680e-02,-1.46507e-01,-1.94227e-01,-3.66633e-01,-1.56790e-02,-2.85028e-01,-2.10304e-01,1.49212e-01,3.94641e-03,-1.25592e-02,-8.21562e-02,-8.27342e-02,-1.28431e-01,-7.46709e-02,6.46655e-02,1.36013e-01,
-7.10005e-01,-1.35072e-01,2.40822e-01,-7.93207e-01,8.15313e-01,-8.11303e-01,-2.65651e-01,-9.11496e-01,9.74096e-02,1.41153e-02,7.72761e-01,-7.46367e-01,-6.69468e-01,7.66839e-01,1.74027e-02,-1.72394e-01,4.21811e-01,1.24185e-01,-1.23827e-01,-4.81573e+00,-7.30922e-01,-7.25136e-01,1.20746e-01,7.67492e-02,-3.17314e-01,
2.19524e-01,-3.39159e-02,5.47651e-01,-1.40227e-01,-5.39650e-01,4.15166e+00,8.06271e-02,4.66623e-01,3.75898e-01,2.54859e-01,-4.59640e-02,-2.53296e-01,-2.13165e-01,-5.05520e-01,-2.93835e-02,-2.89285e-01,-7.31482e-02,1.13034e-01,-5.40671e-01,-3.32580e-01,8.78756e-02,-2.28352e-01,-1.53413e-01,2.09927e-01,5.03223e-01,
5.49380e-02,-2.85344e-02,1.04752e-01,9.94651e-02,-2.81118e-01,-5.66114e-01,-1.97122e-01,2.36399e-01,-2.72865e-01,3.98134e-01,-4.06670e-02,-1.51271e-02,2.44558e-01,-2.37138e-01,-1.51354e-01,-2.48974e-01,4.77365e-02,2.80204e-01,-9.45833e-02,-3.33793e-01,7.33337e-01,1.50450e-01,8.60512e-02,2.21079e-01,1.11316e-01,
-1.40699e-02,1.88657e-03,3.47007e-01,-5.50517e-02,-3.52373e-02,2.71577e+00,1.09346e-01,2.76389e-01,1.77951e-01,-1.63990e-01,8.61625e-02,2.49853e-01,2.06537e-02,-3.81709e-01,-1.57957e-01,-1.51389e-01,3.77519e-01,4.48723e-01,9.29165e-02,-3.13766e-02,-6.01925e-02,-4.56928e-01,-3.56266e-02,5.52958e-01,9.55401e-02,
2.26057e-01,-4.20185e-01,4.13070e-02,5.43363e-02,-1.38601e-01,4.36731e-01,4.95129e-01,-1.51891e-01,7.69325e-02,-9.51852e-02,-2.83545e-01,-5.24325e-01,6.18108e-03,1.01974e-01,-1.77610e-01,-2.57891e-01,2.85411e-01,-1.50739e-01,2.35664e-01,3.44315e-01,4.30275e-01,-7.23049e-02,-3.02993e-01,1.09470e-01,-4.74750e-01,
-4.17222e-01,-1.50385e-01,1.64742e-01,2.31402e-02,1.41893e-02,1.44763e+00,2.25082e-01,-2.88188e-01,2.11519e-01,-2.11713e-01,-9.18989e-01,1.90421e-02,-3.11335e-01,9.56479e-02,-1.27738e-01,1.59464e-01,1.58556e-01,1.82773e-01,3.15523e-01,-1.30030e+00,4.28514e-02,-1.45802e+00,-2.30232e+00,-3.83971e+00,2.00184e+00,
1.67864e-01,-1.96119e-01,6.55017e-01,-4.89594e-01,-3.23979e-01,1.80996e+00,5.24111e-01,3.01205e-01,-1.56989e-01,-2.07173e-02,6.28266e-01,1.68582e-01,-4.01492e-01,-1.02540e+00,2.87657e-01,-9.34963e-03,1.79502e-01,8.24916e-01,-1.08657e+00,2.70811e-01,1.19845e-02,-3.83035e-01,-1.68014e-01,3.40019e-01,3.77657e-01,
-1.08624e-01,7.53105e-02,-2.11928e-01,-2.13846e-01,-1.02581e-01,1.95780e-01,-1.19020e-01,1.01576e-01,-8.08176e-01,-1.57475e-01,-7.45316e-02,1.99276e-01,1.96213e-01,-2.41957e-01,2.66299e-01,-1.10553e-01,-5.58386e-04,6.16575e-01,-1.93442e-01,2.60462e-02,-2.01076e-01,1.48049e-01,-1.52740e-01,-1.72631e-01,2.31966e-01,
-2.07658e-01,-1.44717e-01,-5.91087e-02,3.63399e-01,-3.30987e-01,1.12124e-01,1.10399e-01,4.65093e-02,-2.71428e-01,4.25226e-01,8.40831e-03,-1.18005e-01,2.72305e-01,-8.04723e-02,1.64684e-01,-3.09527e-01,-2.76746e-02,-7.50274e-02,-2.72801e-01,3.36132e-02,3.00851e-01,5.99970e-03,7.67112e-02,1.71982e-01,-1.16585e-01,
-7.84289e-02,-3.85678e-01,-4.10270e-02,-1.93261e-01,1.15757e-01,-1.73295e+00,1.30131e-01,2.30023e-01,-2.39906e-01,3.49316e-01,-7.66338e-03,1.20514e-01,1.27134e-01,-1.53716e-01,3.16537e-01,4.61057e-01,-1.77866e-01,2.71056e-01,-1.17600e-01,2.39164e-01,4.04607e-02,-2.22092e-01,-2.24238e+00,-3.76343e-01,4.23203e-01,
-9.30068e-02,8.71719e-02,-4.26078e-02,-2.63884e-01,1.23639e-01,-5.02351e+00,2.45593e-02,3.24029e-02,-3.97216e-01,3.54435e-01,-1.19843e-01,-1.53631e-01,8.03315e-01,1.45629e-01,-9.19660e-02,-4.12943e-02,-6.50064e-02,1.41526e-01,2.83372e-01,-6.97389e-01,7.63905e-02,7.83601e-01,1.88368e-01,2.76412e-01,1.39409e-01,
4.50711e-02,-8.80694e-01,-2.32360e+00,-1.51704e-01,3.60667e-01,-2.20612e+00,-2.67098e+00,5.09279e-01,-5.04751e-01,3.82813e-01,-2.42853e-01,4.84105e-02,4.47760e-02,-3.63898e-01,2.54553e-01,3.92647e-01,-9.51500e-01,-2.54550e-02,2.17305e-01,4.53851e-02,-1.24704e-02,-1.63335e+00,-7.32024e+00,-9.53824e-01,6.78521e-01,
1.51572e-01,-3.29403e-01,-7.00845e-01,5.07763e-01,-2.42325e-03,3.45783e-01,7.03641e-01,1.48533e-01,3.80413e-01,1.56804e-02,-7.13238e-01,-1.47385e-01,3.30266e-01,2.58477e-01,1.57084e-01,-1.52935e-01,-7.01729e-02,-3.83540e-01,2.37967e-01,1.21281e-02,2.42413e-01,-1.44765e-01,-6.52160e-01,-5.29068e-02,-6.97712e-03,
-1.37601e-01,-8.30406e-02,-3.23773e-01,4.47922e-01,1.19726e-01,4.58970e-01,-1.72522e-01,-3.26312e-01,-1.94203e-01,1.18276e-01,-3.82902e-01,3.98193e-01,2.55437e-01,6.98362e-02,-2.42942e-01,1.88947e-01,4.04408e-03,1.07872e-01,-1.97518e-02,1.83383e-01,3.38257e-01,-2.23562e-01,2.20337e-01,4.82071e-02,-2.76403e-01,
-1.63409e-01,8.96655e-02,-1.29957e-01,3.97640e-01,2.42099e-01,7.01273e-01,1.97165e-01,-7.12957e-01,1.68295e-01,3.52148e-01,-3.28135e-02,-5.43614e-01,6.79053e-02,7.35467e-01,-2.84108e-01,4.97296e-02,-1.96131e-01,-6.71813e-01,-2.93052e-03,2.46313e-01,2.41569e-01,-6.93574e-02,5.07922e-02,-5.06272e-02,4.46454e-01,
-8.33379e-02,-1.26030e-01,2.51199e-01,3.45943e-01,3.97522e-01,-6.30861e+00,3.70494e-01,1.45056e-01,7.69483e-01,-3.76269e-01,4.23916e-01,3.07335e-02,-7.12915e-02,-5.48488e-02,1.92184e-01,3.96851e-01,2.47609e-02,-5.35754e-01,4.22414e-01,-2.06638e-02,1.18835e-01,1.18427e-01,-5.92887e-02,-2.96974e-01,2.00000e-01,
-2.24591e-01,-4.06025e-01,-9.39043e-01,3.46373e-01,3.40519e-01,-9.10015e-02,5.00379e-01,-1.62418e-01,3.63724e-01,-7.58618e-02,-1.98546e+00,2.60458e-01,8.85769e-02,2.76939e-01,2.34706e-01,2.79967e-01,-1.56529e-01,-2.31967e-01,2.16244e-01,8.47095e-01,-6.58620e-01,-2.89353e-01,-1.16538e-01,-3.88309e-01,7.69349e-01,
-2.29199e-01,-4.64695e-02,-3.46764e-02,1.65952e+00,7.13782e-01,2.44354e+00,2.50813e-01,-4.76316e-01,-9.05759e-01,5.38454e-01,-2.91815e-01,-4.13741e-01,6.32434e-01,9.62835e-01,5.73199e-02,-4.39237e+00,5.47463e-01,-3.11073e-02,-8.52111e-02,-1.18843e-01,8.87012e-01,2.75139e-01,-2.11248e-01,2.83576e-02,-1.33527e+00,
2.17324e-01,-1.41208e-01,4.54138e-01,-2.87503e-01,-2.24665e-01,-3.19293e-01,-7.52006e-02,1.49792e-01,-1.92164e-01,-1.65164e-01,-8.54165e+00,2.32585e-01,-7.24955e-02,-2.64466e-01,-2.43940e-01,-3.10985e-01,3.44811e-01,4.26177e-01,3.42402e-01,-1.58434e+00,3.54499e-01,-9.41879e-01,-2.40729e+00,-6.24574e-01,-2.16445e+01,
2.33206e-01,-4.86293e-01,2.88133e-01,-4.74080e-01,-7.27032e-01,-8.80755e-02,2.49844e-01,-2.59863e-01,-3.17208e-01,-9.30152e-02,3.77144e-01,-1.05195e+00,2.06975e-01,5.09949e-01,2.41095e-02,-4.85644e-01,-3.25633e-02,1.82175e-01,5.96104e-02,-1.75236e-01,1.98575e-01,2.24384e-01,4.29907e-03,3.08573e-01,-6.45546e-01,
2.13063e-01,-2.28792e-01,-4.49883e-01,-1.89722e-01,-2.53357e-01,3.06219e+00,6.17451e-01,4.13882e-01,1.80701e-02,2.41562e-01,2.39195e-01,-2.19324e-01,9.51186e-02,2.56646e-01,2.46337e-03,-1.62147e-01,-9.98001e-01,9.10601e-02,-4.19232e-01,3.14412e-01,4.24547e-01,-7.43152e-02,-3.40972e-01,3.01604e-02,1.36660e-01,
5.98946e-02,-1.03512e-01,2.55206e-01,-2.47605e-01,9.50523e-02,-1.02071e+00,7.14198e-02,2.59017e-01,1.50362e-01,-1.32271e-01,1.48552e-01,7.31235e-02,2.85176e-01,-2.46948e-01,-2.06514e-01,2.79167e-02,2.18366e-01,1.46877e-01,1.60039e-02,-3.94167e-01,3.66106e-02,2.69864e-01,-3.72318e-03,6.31335e-02,-2.80479e-02,
5.76007e-01,
-8.27884e-02,
6.00873e-01,
1.94081e-02,
5.36014e-02,
2.42366e-01,
-7.91342e-01,
4.50986e-01,
1.40506e-01,
-5.36204e-01,
4.82941e-01,
3.75691e-01,
-1.91146e-01,
-8.52146e-01,
2.39379e-02,
-1.19149e-01,
-2.00142e-01,
2.24996e-02,
-6.72543e-01,
-1.68439e-01,
-9.59907e-01,
-1.24673e-01,
1.63782e-01,
-2.74895e-02,
-2.20969e-01,
2.02179e-02,7.44088e-02,-5.22536e-02,2.35405e-02,4.76253e-02,-7.56583e-02,3.01404e-01,4.22618e-02,-8.37556e-02,-6.15952e-02,1.13919e-01,-1.02791e-01,1.41525e-01,-1.09148e-01,-1.94267e-01,1.33872e-01,7.60850e-03,6.36096e-02,-1.18916e-02,-2.68551e-02,1.14868e-02,1.55430e-01,-6.83029e-02,-2.52674e-01,1.03367e-01,
5.51481e-01,3.76940e-02,8.70529e-02,-1.55694e-01,-3.84658e-02,1.97528e-01,-2.95977e-01,-2.55292e-01,3.23846e-02,1.03991e-01,1.24053e-01,2.20034e-01,-1.99338e-01,1.84531e-01,-3.44791e-02,-1.16160e-01,-1.24285e-01,-7.47262e-02,4.97828e-02,6.49238e-02,1.61985e-01,-2.06702e-01,-8.42739e-02,3.75518e-02,-1.00998e-01,
2.09011e-01,-2.12078e-01,1.77533e-01,1.92941e-01,-5.73085e-02,-1.05760e-01,-2.15967e-02,-1.27074e-01,1.89647e-01,1.32661e-01,1.46305e-02,-3.63040e-03,-5.59769e-02,-7.42559e-02,6.47385e-03,9.84685e-02,1.07981e-01,-1.14558e-01,-5.78725e-02,5.39440e-02,-7.12915e-03,-1.14213e-01,6.48535e-02,-2.45496e-02,1.93427e-01,
-5.17358e-01,-1.73514e-01,-3.09336e-01,1.43786e-01,-7.18470e-02,1.75589e-01,5.85458e-02,7.26478e-02,-4.37177e+00,4.33181e-01,5.60660e-02,-2.25699e-01,-1.47065e-01,9.59837e-03,-2.25013e-01,2.52777e-01,-3.09164e-02,-1.05541e-01,8.05218e-02,-1.04616e-01,-4.17031e-01,1.42642e-01,9.90345e-02,-4.97853e-02,-1.70741e-01,
1.50423e-01,-3.91822e-02,-9.80481e-02,2.35908e-01,-4.10720e-02,-1.32279e-01,-2.72203e-01,2.51571e-01,1.77347e-01,-8.22833e-02,-8.73909e-02,-1.27623e-02,2.97646e-01,-1.21955e-01,-2.22596e-01,1.28812e-01,-1.73507e-01,6.42197e-02,-1.47370e-01,-4.93142e-02,1.23113e-01,-7.34916e-03,-1.35547e-01,-1.91692e-01,-2.08728e-01,
-1.81886e-01,-1.08563e-01,5.16851e-02,-4.07970e-02,-2.57097e-01,-2.57286e-03,1.64565e-01,-3.22147e-01,4.92570e-02,-3.02143e-01,-2.26661e-01,3.05570e-01,-2.31587e-01,4.05724e-02,2.88885e-01,2.63819e-01,-1.94922e-01,-2.11935e-01,2.60803e-02,1.95055e-01,-2.16779e-01,-3.28023e-01,3.22967e-01,-3.01771e-01,-3.29616e-01,
3.38130e-01,7.33209e-02,-1.75553e-01,3.07023e-01,-2.18854e-01,-1.47933e-01,1.13837e-01,2.40293e-01,-6.92208e-02,-8.06428e-02,6.42794e-02,-4.53774e-01,2.15078e-01,1.63268e-01,-3.12252e-01,7.81556e-02,-3.06896e-01,1.28800e-02,1.80176e-01,-1.53575e-01,-2.30340e-01,-2.53665e-01,1.98241e-01,-3.77950e-01,-1.52196e-01,
-7.85320e-02,-3.05096e-02,1.57651e-01,-1.32554e-01,-2.66555e-01,-3.84649e-01,-2.64190e-01,1.49297e-01,4.94649e-03,1.42237e-01,-1.48271e-01,-7.47884e-02,-1.17281e-01,7.44345e-02,-1.78754e-01,3.28740e-02,5.52642e-02,6.24257e-02,1.17440e-02,-1.20172e-01,-2.18666e-02,-2.14134e-01,2.47437e-01,2.73247e-01,-3.49099e-01,
1.21915e-01,2.29857e-01,2.81897e-02,-3.67994e-01,1.88767e-01,-4.68853e-01,-1.87088e-01,-8.80644e-02,-2.73753e-01,-2.73542e-01,-7.56749e-02,-2.21022e-01,1.61638e-01,9.81333e-04,5.73290e-02,-3.06006e-01,7.59200e-02,1.04968e-01,-6.02121e-03,-7.48593e-02,-1.53285e-01,-2.36380e-01,-1.24293e-01,-1.40640e-03,-3.95549e-01,
6.20659e-01,-4.00706e-01,3.79592e-02,-1.29276e-01,1.56724e-01,-3.92771e-02,-3.84453e-01,-2.30409e-01,4.18365e-01,7.66539e-02,-4.56041e-02,-1.12088e-01,-2.18396e-01,-3.35196e-01,-2.31829e-01,2.33712e-02,2.44467e-01,9.90909e-02,1.16909e-02,-2.62241e-02,-3.90572e-02,2.50248e-01,-8.49589e-01,-3.84441e-03,-3.36676e-01,
-4.16413e-01,1.50610e-01,-3.25955e-01,-2.79254e-01,2.57107e-01,3.08064e-01,1.17900e-01,-5.35387e-01,9.50976e-01,-4.95142e-01,2.87324e-01,5.66450e-01,-6.37655e-01,-1.49582e-01,5.28562e-01,-9.06899e-01,-9.56429e-01,-1.51862e-01,1.23344e-01,1.48591e-01,1.79435e-02,5.27898e-02,1.24782e+00,-2.30491e-02,-2.03694e-01,
2.21827e-01,2.63701e-01,-3.18445e-02,-2.21351e-02,-2.26368e-01,-2.99115e-01,1.97320e-01,2.31214e-01,2.63502e-01,2.07554e-01,1.74488e-01,1.53890e-01,1.26908e-01,1.14965e-01,-5.29735e-02,-1.04615e-01,-2.24745e-01,-2.23618e-02,-1.25700e-01,2.84464e-01,2.86573e-01,-5.72283e-02,-1.22535e-01,-3.09552e-01,-1.71781e-01,
1.15596e+00,4.68219e-02,-2.92663e-01,-2.39769e+00,-1.33830e+00,-2.94929e-01,-1.37648e+00,4.82830e-01,-6.74697e-01,9.49210e-01,9.75865e-02,1.69464e-01,6.88944e-01,-3.30839e-01,-3.35319e-01,3.24669e-01,2.29119e-01,-9.04715e-02,-1.46442e-01,2.04519e-01,1.22542e-01,7.23784e-02,-6.54380e+00,3.75179e-01,5.94372e-01,
-2.10654e-01,-2.44759e-01,6.73819e-02,3.15257e-01,6.32251e-01,2.06701e-01,4.93041e-01,-1.76170e-02,3.24707e-02,2.28378e-01,-2.54609e-02,4.25945e-03,-2.24598e-02,-9.31962e-02,-4.63982e-02,6.96130e-02,-1.61428e-01,3.66468e-01,2.40835e-02,1.03353e-01,1.21488e-02,-1.26179e-01,3.66324e-01,2.66801e-01,-2.56167e-02,
6.48568e-01,2.00907e-01,-1.64275e-02,-6.74855e-01,4.15932e-02,3.82098e-01,-3.06481e-02,2.85046e-01,-5.18015e-02,-2.86923e-01,-2.56078e-01,2.09717e-01,1.12762e-01,-1.23046e-02,1.23424e-01,-2.83597e-01,-4.03292e-01,-1.31261e-01,-8.17894e-03,4.99314e-01,3.19293e-01,-4.92917e-02,1.29923e-01,5.86988e-02,-1.98197e-01,
4.84778e-02,-8.38677e-02,-4.12614e-01,2.45412e-01,-3.65920e-01,3.64097e-02,-3.95198e-01,9.22216e-02,-4.69447e-02,1.84503e-01,-6.77239e-02,4.44626e-01,2.96968e-01,-2.90737e-01,-2.10643e-01,1.58506e-01,3.34854e-02,3.37848e-01,-9.88803e-02,3.05234e-01,5.45890e-02,3.74217e-02,-3.02351e-01,-1.63289e-02,1.88080e-01,
-8.06525e-01,-5.89421e-02,2.63753e-01,1.50837e-01,-1.79801e-01,-5.93768e-02,8.62926e-02,-2.15312e-01,-7.91234e-02,2.86163e-01,1.66955e-01,3.63844e-01,2.84216e-01,-1.41629e-01,-6.27005e-01,2.59562e-01,2.30541e-01,-5.34395e-01,-1.37699e-01,2.19577e-01,3.08275e-01,-1.05363e-01,4.58096e-01,-1.59550e-01,2.37169e-01,
1.94078e-01,1.36401e-01,-3.69610e-01,-2.32273e+00,4.60598e-01,2.07156e-01,-2.20381e-01,-4.40802e-01,-4.00027e+00,-4.92349e-01,4.02480e-01,3.66769e-01,8.29896e-01,-4.49751e-02,-4.92587e+00,-7.93673e-01,-8.55850e-01,-4.46555e-01,1.43061e-01,-2.97843e-01,-6.63618e-02,-1.16664e+01,1.98078e-01,-1.14971e-01,-2.96865e-01,
-1.14780e-01,-1.43563e-01,-2.25451e-01,3.67354e-01,9.13809e-02,-6.38697e-02,-3.31482e-01,2.58791e-02,-5.70622e-02,6.06404e-02,9.62172e-02,-1.80044e-01,2.06312e-01,-4.71789e-02,-1.42123e-01,3.06597e-01,-1.07289e-01,9.69807e-02,4.06593e-02,-1.81747e-01,9.67416e-02,2.02744e-01,-8.44941e-03,3.51670e-01,-1.16077e-01,
2.70225e-01,1.97972e-01,-1.14106e-01,1.60385e-02,2.18696e-01,8.51353e-02,-3.09028e-01,1.10657e-01,1.47993e-01,-1.06992e-01,1.89701e-01,1.99356e-01,5.78044e-01,-2.97275e-02,-4.75789e-01,9.68195e-02,-3.72285e-01,1.04839e-01,2.12965e-01,2.71977e-01,2.00239e-02,5.50442e-01,1.52330e-01,-4.71279e-02,-1.90186e-01,
-2.14287e-01,2.52345e-01,5.50059e-02,1.10450e-01,2.29884e-01,-8.35058e-02,-1.58860e-01,-2.16344e-01,-3.98882e-02,1.76915e-01,-6.92624e-02,-5.01881e-02,-1.38206e-01,1.61464e-01,1.21777e-01,-7.06222e-03,6.38507e-02,-2.46774e-01,-4.18411e-02,-6.91282e-02,5.69032e-02,-2.43865e-02,1.25685e-01,3.37652e-01,-5.66459e-02,
-1.66722e-01,3.52286e-01,1.43991e-01,1.23703e-02,2.66447e-01,-1.72220e-01,2.97221e-01,-8.86633e-02,-8.86028e-02,1.45313e-01,1.44203e-02,1.29001e-02,8.93377e-02,1.81047e-01,-6.81034e-01,5.03182e-02,2.56185e-02,-2.04640e-01,-7.52436e-02,-1.33550e-01,-2.32294e-02,-1.93791e-01,5.25452e-02,-1.13257e-01,7.41246e-02,
2.10780e-02,2.54169e-01,4.66063e-01,-8.38578e-01,-2.93562e-01,-6.90219e-01,-1.96461e+00,1.02391e-01,-1.14461e-01,1.13166e+00,-7.50647e-01,-7.47767e-03,-1.00156e+00,-1.77737e+00,-1.55336e-01,-5.10798e+00,-4.36531e-01,2.62131e-01,-6.71203e-01,2.02118e-01,-1.98415e-01,-1.95896e+00,3.68745e-01,-5.90912e-03,-1.15331e+00,
-8.34257e-02,6.45869e-02,4.89105e-02,-3.00770e-01,5.28138e-01,6.47269e-03,1.37283e-02,-1.54369e-01,-6.17807e-02,2.60648e-01,-2.24559e-01,-1.11283e-01,-2.14897e-01,1.73624e-01,2.17910e-02,-4.60891e-01,2.31348e-01,-5.00882e-01,-1.54184e-01,1.30821e-01,-4.28905e-02,6.61700e-02,7.83272e-02,5.09655e-01,3.05641e-02,
7.20463e-02,-2.43008e-01,-3.14069e-02,-9.60700e-02,1.23151e-02,1.31612e-01,-2.37604e-01,1.57048e-02,-3.11187e+00,-6.48235e-02,4.09791e-02,-1.54385e-01,-1.62621e-01,-1.73354e-01,-1.60762e-01,-5.55181e-02,4.30809e-02,1.95042e-02,6.99146e-03,2.61381e-01,-4.12743e-01,-6.28241e-01,6.19782e-01,-2.49367e-01,2.92945e-02,
2.24370e-01,
5.84256e-02,
8.21992e-02,
9.67624e-02,
-2.83687e-01,
-2.82465e-01,
-2.36908e-01,
-1.05535e-01,
7.78056e-02,
1.76267e-01,
-3.73756e-02,
-3.22998e-01,
-4.12020e-01,
-3.96251e-02,
-1.79199e-01,
-2.14693e-01,
-1.05785e-01,
-3.28350e-02,
2.53876e-01,
-2.49995e-02,
5.23258e-02,
-3.76586e-02,
2.29515e-01,
1.25646e-01,
4.81206e-02,
1.93797e-01,-4.25319e-02,6.40658e-02,-5.73217e-02,4.08381e-01,3.68085e-01,-1.09475e+00,-6.79191e-01,-3.66410e-01,2.37178e-02,-5.98456e-02,2.91588e-02,-3.11902e-02,-5.15736e-02,-2.31142e-01,6.41904e-02,7.65924e-03,-1.67511e-02,9.70364e-02,-7.01721e-02,-1.00220e-02,-7.60244e-03,-8.07632e-02,6.34011e-02,-1.22714e-02,
-1.38199e-01,-1.55157e-02,-4.18539e-02,-6.98086e-02,7.43104e-01,3.92770e-01,4.02833e-01,1.03140e+00,2.81380e-01,-1.41061e-02,7.00329e-03,-2.78012e-01,-4.85866e-02,-2.45609e-01,-1.37178e-01,1.21174e-01,-2.96897e-02,-1.71037e-02,2.76538e-01,-3.05992e-02,-1.29989e-01,5.88794e-01,-5.11924e-02,5.70935e-02,1.07001e-01,
9.62307e-02,-4.73897e-02,1.53676e-01,2.78544e-02,5.78083e-01,3.63921e-01,1.31430e+00,9.86138e-01,-6.41532e-02,-3.18204e-02,3.30358e-02,-2.93891e-01,3.14869e-02,-1.01764e-01,-1.13972e-01,1.41428e-01,-7.46426e-02,-7.66173e-02,1.25244e-02,-2.30512e-01,-5.58698e-03,1.58933e-02,1.05467e-01,1.13558e-01,-1.66482e-02,
7.01925e-02,-3.40169e-02,2.34444e-02,-5.18642e-03,4.46257e-01,4.26941e-02,3.33131e-01,6.56851e-01,4.03873e-01,-2.15396e-02,1.19166e-02,2.44134e-01,-5.87705e-02,-2.09429e-01,-1.28584e-01,1.28270e-01,-4.32845e-02,-2.20909e-02,7.60587e-02,-2.97263e-02,1.56171e-01,3.10233e-01,-3.07940e-02,4.31947e-03,7.36267e-02,
1.56528e-01,-6.04925e-03,1.15115e-01,-8.41723e-03,6.14941e-01,-2.77915e-01,8.76491e-01,5.94243e-01,-1.03449e-01,-6.24607e-02,3.19751e-03,1.23476e-02,-7.25554e-03,-1.05163e-01,-1.39432e-01,1.48390e-01,-4.87932e-02,2.28406e-02,6.23700e-02,-1.92023e-01,1.51704e-02,7.23874e-02,-1.34543e-02,8.38905e-02,2.11450e-02,
1.38480e-01,-7.70016e-02,-6.92215e-02,5.80367e-02,-4.52147e-01,7.39943e-02,1.03922e+00,1.00713e+00,-3.90373e-02,-4.67570e-02,-4.54595e-02,-1.72918e-01,-6.51469e-02,-2.03842e-01,-7.51737e-02,1.28519e-01,-6.05343e-02,-2.86704e-02,-1.43871e-01,6.25601e-03,5.37825e-01,1.46593e-01,-7.87526e-02,-9.11876e-02,9.13995e-02,
2.35985e-01,6.60297e-02,8.68936e-02,-4.23784e-02,8.59609e-01,-1.53774e-01,6.21003e-01,7.26769e-01,-3.09529e-01,-4.24605e-02,3.32949e-02,-1.83385e-01,-8.97516e-03,-9.15663e-02,-1.90245e-01,1.43929e-01,-4.12111e-02,1.09667e-01,6.27358e-02,-1.94407e-01,-3.78447e-02,1.51095e-02,-4.61446e-02,1.17269e-01,3.99610e-02,
9.57592e-02,-3.72162e-02,1.49418e-02,-1.36892e-02,4.95296e-01,7.82313e-02,3.56661e-01,5.93465e-01,-4.01508e-02,-2.91534e-02,3.26435e-03,1.77171e-01,-5.68133e-02,-1.99224e-01,-1.27742e-01,1.26677e-01,-3.70958e-02,-3.34536e-02,5.49112e-02,-3.17178e-02,1.78417e-01,2.77894e-01,-3.50261e-02,1.97270e-03,6.23979e-02,
1.72294e-01,-3.49326e-03,1.10039e-01,-1.82848e-02,6.22412e-01,-3.87340e-01,7.41387e-01,4.85384e-01,3.95993e-01,-7.15984e-02,-2.08899e-02,-1.24890e-01,-1.63780e-02,-1.02980e-01,-1.53580e-01,1.46065e-01,-4.00145e-02,6.00353e-02,6.19940e-02,-1.79350e-01,1.20378e-02,5.20433e-02,-6.98157e-03,9.17520e-02,2.58040e-02,
1.26138e-01,
1.78537e-01,
1.49645e-01,
-2.86512e-01,
-3.19903e-01,
2.02812e-01,
9.94385e-02,
-2.86362e-01,
-3.24334e-01,
