// Neural Network File Format by Kyle Julian, Stanford 2016
6,4,9,25,
4,25,25,25,25,25,9,
0,
-8000.000000,-100.000000,-100.000000,0.000000
8000.000000,100.000000,100.000000,40.000000
0.000000,0.000000,0.000000,20.000000,-4.647677
16000.000000,200.000000,200.000000,40.000000,22.514692
1.67648e-01,-1.81802e-01,2.67862e-01,-7.64436e-02,
2.19373e+00,5.03943e-01,-2.56459e-01,-8.37418e-02,
-1.93052e+00,-1.60656e-02,3.12563e-02,-1.01566e+00,
1.76801e-01,6.01639e-01,2.26530e-01,-1.25930e-01,
-3.99637e+00,-3.57863e-03,4.22662e-03,-8.36821e-04,
-4.63773e+00,4.08500e-02,2.84687e-02,-2.31927e-03,
1.87031e+00,-1.13084e-02,2.47081e-02,5.56356e-01,
-9.47055e-01,1.85714e-01,-3.91980e-01,4.86960e-02,
-1.72042e+00,3.01737e-01,2.45385e-01,-5.79225e-02,
-7.49087e-01,1.71577e-01,-2.13764e-01,-1.97154e-01,
2.21985e+00,3.72999e-02,-9.47342e-02,-8.85997e-01,
3.24229e+00,-1.41472e-01,2.16894e-02,-5.60820e-01,
3.11111e-01,1.32425e+00,6.40970e-02,1.73490e-02,
-1.44282e-01,-6.35801e-01,6.05664e-01,-3.06276e-03,
2.64123e+00,-2.72818e-01,4.60926e-01,-2.57294e-01,
2.45874e+00,-2.92737e-01,4.28111e-01,5.04639e-01,
-1.56633e+00,-8.29282e-01,-1.04550e-01,-1.60377e-01,
5.29923e-02,-3.79284e-02,-4.97020e-01,-3.25907e-02,
-2.66981e+00,6.50724e-02,-1.34281e-01,-6.23741e-01,
1.71329e+00,-1.75862e-01,8.06193e-03,3.79477e-01,
-1.72450e-02,1.29076e+00,-7.50743e-03,-4.76499e-03,
2.78916e+00,-1.48686e-02,-1.21417e-01,-6.98965e-01,
-1.28903e-01,-1.56359e+00,-1.37021e-02,1.24516e-02,
-2.03513e+00,2.33285e-01,-3.76973e-01,-2.53530e-01,
8.00001e-02,-1.72887e+00,-5.43371e-03,4.79098e-03,
-3.62496e-01,
1.47069e-01,
-2.15287e-01,
2.50292e-01,
-1.63104e-01,
2.25662e-01,
2.30317e-01,
1.20947e-01,
1.58025e-01,
1.10319e-01,
-3.82229e-01,
-3.41681e-03,
-3.25242e-01,
-8.94937e-02,
7.04581e-02,
3.53532e-01,
-1.31357e-01,
2.10786e-01,
6.51066e-02,
9.51599e-02,
-2.18233e-01,
-2.25857e-01,
-7.51980e-02,
9.05998e-02,
9.24573e-03,
-6.17962e-02,1.52244e-01,4.85480e-01,2.88002e-01,-6.70582e+00,-2.01555e+00,-6.74913e-01,-1.10932e-01,-4.60398e-01,-3.17244e-01,7.01290e-01,3.43432e-01,4.24433e-01,-8.88214e-02,1.79348e-01,5.03486e-01,4.18085e-01,-1.00197e-01,1.10692e+00,-1.47930e-01,-4.19374e-01,-3.83532e-01,1.39800e-01,-4.52026e-02,-2.44503e-01,
1.26701e-01,-4.10300e-01,-3.41266e-02,8.39131e-02,3.83450e-01,-1.29988e-01,2.29812e-02,-1.38522e-01,5.37762e-01,3.27802e-02,5.44708e-01,5.34670e-01,2.25847e-01,1.15966e-01,1.08510e+00,1.79042e-01,-9.48145e-03,-1.53000e-01,-6.33000e-02,-6.72579e-01,-4.14966e-01,1.07281e+00,1.27602e-01,2.52105e-02,-2.95366e-02,
-9.16943e-02,-1.89610e-02,-5.66370e-02,2.85582e-02,-3.08904e+01,2.90692e-01,-6.24642e-02,-2.23926e-01,-1.09270e-01,-1.74085e-02,1.01450e-01,2.47232e-01,4.58986e-01,4.06384e-01,-1.62852e-01,-6.32868e-02,-2.19352e-01,-1.33746e-01,6.97354e-02,2.66395e-01,-4.96236e-01,-2.92428e-02,1.08362e+00,1.86479e-01,-8.17817e-01,
-2.65895e-01,-3.82279e-03,9.21184e-01,5.42623e-01,1.89902e-01,-1.38602e-01,2.88668e+00,4.57720e-01,-8.74304e-01,3.24578e-02,-5.14718e-01,-2.58453e-01,1.20924e+00,-3.30827e-02,1.19753e+00,-2.10378e+00,1.65431e+00,-8.41528e-02,2.84144e-01,-3.62293e+00,-7.19301e+00,-1.36099e+00,-2.57418e-01,2.25263e-01,-3.54847e-01,
-1.59859e-01,-6.51778e-01,7.10480e-01,1.89214e-01,-5.22134e-01,2.89628e-01,1.76286e-01,-5.52187e-01,1.05896e-01,4.85323e-01,-8.81543e-01,6.66024e-02,-3.63269e-01,-6.85481e-01,6.64099e-01,4.70270e-01,3.51355e-01,-5.90203e-01,3.38757e-01,-5.92528e-01,-2.91139e-01,-1.87052e-01,-1.83781e-01,-2.33991e-01,-1.60796e-02,
-2.80593e-01,8.02708e-01,-2.42172e-01,6.66307e-01,2.39669e+00,-5.72004e+00,8.77500e-03,-8.90775e-01,-9.75229e-01,1.89992e-01,1.84393e-01,4.38760e-02,-8.65870e-02,3.79198e-01,-1.24090e-01,5.05561e-01,-7.42726e-01,4.71927e-02,-1.00913e-01,-5.24283e-01,-1.20703e-02,9.42876e-02,1.00772e+00,-2.21420e-01,-2.70311e-01,
-1.20572e-01,-6.45290e-02,2.72359e-01,-3.97584e-01,4.97048e-01,4.34430e-01,-1.41075e-01,-1.20001e-01,8.89632e-02,-1.22602e-01,-4.82656e-02,9.66532e-02,7.72556e-01,1.22622e+00,-3.21539e-01,5.45033e-02,2.94073e-01,3.63797e-01,-3.82428e-01,9.67410e-02,-3.04845e-01,-1.56905e-01,6.14875e-01,-3.56751e-01,-1.14397e+00,
-3.11435e-01,2.74064e-01,-2.92523e-01,-3.53275e-02,4.43986e-02,7.13182e-01,5.46871e-01,6.47419e-01,2.64248e-01,8.79502e-01,-2.22539e+00,-5.11853e-01,-2.31323e-01,1.19793e-01,-2.04712e-01,-7.32381e-01,-7.64640e-01,1.98190e-02,-6.90893e-02,2.14215e-01,3.67115e-01,-8.53395e-01,1.26242e-01,-2.13207e-01,1.68646e-02,
1.01583e-01,-3.48739e-01,1.25326e+00,-9.14060e-02,-3.55613e-01,6.27371e-01,1.71929e+00,2.71048e-01,-7.12790e-03,1.11829e-01,-8.67129e-01,2.21178e-01,-1.60210e-02,1.03262e-01,6.16202e-01,-1.24032e+00,3.17483e-01,-2.80191e-01,7.69036e-02,-2.11495e-01,-4.60651e-02,-4.57374e-01,4.07161e-01,4.29298e-01,-4.89678e-01,
1.65798e-01,9.06301e-02,-2.87657e-01,-1.04653e-02,-3.41662e-01,6.05110e-01,1.19504e-01,2.56900e-02,-4.16399e-02,6.77618e-02,-2.97204e-01,-2.15175e-01,1.81719e+00,-2.80285e-01,2.39192e-01,-1.27240e-01,-1.47431e+00,1.94964e-01,1.93733e-01,-5.14012e-02,-2.07060e+00,1.26522e-01,1.19474e+00,-3.72131e-02,-6.73699e-01,
-7.18471e-02,-2.26762e-01,-3.67169e-01,4.87521e-01,3.98051e-01,-3.59364e-01,5.69908e-02,-4.73888e-01,2.89052e-01,-5.71009e-01,7.91961e-01,9.63138e-01,-1.49233e-01,2.59414e-01,8.66800e-01,6.97252e-01,1.70568e-01,-3.51903e-01,-5.32804e-01,-1.04411e+00,-2.84009e-01,8.53302e-01,2.05447e-01,-6.79618e-01,7.32757e-02,
-1.02255e-01,-4.27566e-01,1.25847e-01,2.92768e-01,-4.65950e-01,6.98043e-01,3.60861e-01,3.47058e-01,5.85709e-03,7.58645e-02,-7.67724e-02,5.82966e-01,-7.20472e-01,-2.26707e+00,-2.77121e-02,-7.40303e-01,5.45777e-01,-1.54322e-01,-1.85877e-01,2.08953e-02,9.00612e-01,-6.86355e-01,8.66983e-01,3.14555e-01,-1.00955e+00,
-1.54026e-02,-4.17685e-01,2.65108e-01,-4.45111e-01,-2.14431e-02,2.47796e-02,-1.75194e-02,-6.94468e-02,-3.81937e-01,1.91853e-01,-3.01963e-01,-1.76366e-01,-1.00054e-01,2.21856e-01,5.30742e-01,4.41783e-02,1.72247e-01,4.11746e-02,5.93587e-02,3.04771e-01,5.46516e-01,8.52712e-02,-1.95116e-01,4.19477e-02,6.93418e-01,
2.31944e-02,-5.32377e-01,4.45503e-01,1.80114e-01,-2.06792e-01,1.23472e+00,-3.13198e-01,-2.88151e-01,-3.82959e-01,-2.75002e-01,5.10501e-01,2.32344e-01,6.86865e-01,-2.77499e-01,1.24505e-01,2.06675e-01,2.45000e-02,4.21100e-01,3.07571e-01,1.11924e-01,-3.70627e-01,-4.04692e-01,-1.45914e+00,2.79046e-01,7.83234e-01,
2.63148e-01,-2.63752e-01,-1.89124e-01,2.10028e-01,-1.40078e+00,9.78451e-01,-2.11142e-01,3.71882e-01,7.68935e-01,-5.10419e-01,-1.80790e+00,-9.48951e-01,-2.33417e-01,-4.50769e-01,-1.86025e-01,4.94390e-01,-3.94558e-01,-2.25308e-01,-2.77295e-02,-5.42566e-01,-6.55143e-01,3.12075e+00,-4.41909e-01,-2.61454e-01,-9.90920e-01,
2.89117e-01,-4.59869e-01,9.63806e-01,3.91799e-01,-3.13272e-01,-2.41839e-01,-8.32166e-01,-1.50074e-01,2.49744e-01,-2.10882e-01,-9.48393e-01,6.04249e-01,7.77357e-02,5.03828e-01,-5.78845e-01,2.03686e-01,-1.81273e-01,2.24843e-01,5.55254e-01,-2.85951e-01,2.37315e-01,-2.84952e-01,7.34483e-02,2.90137e-01,6.11490e-03,
-2.48540e-01,-3.96250e-02,1.13654e-01,3.10262e-01,-2.73196e-01,1.04879e-01,-7.33107e-01,3.86989e-01,-3.48974e-01,-3.09635e-01,1.55025e-01,5.16387e-01,5.87182e-02,-2.11985e-01,1.53461e-02,4.58618e-01,1.70007e-01,-5.68933e-01,1.24263e-01,1.81128e-01,-3.11672e-01,-1.44875e-01,1.70934e+00,1.23060e-01,-1.12378e+00,
-2.38357e-01,3.42432e-01,-2.46245e-01,-5.61025e-01,-9.92079e-01,4.75246e-01,-1.71363e-01,6.54053e-01,7.20667e-01,-6.39968e-01,2.44950e-01,-2.24235e-01,2.15855e-01,-2.84543e-01,-1.01754e+00,4.00144e-01,-3.27291e-01,5.19725e-01,-1.40011e-01,-6.76620e-01,1.02648e-01,-3.82009e-01,1.87374e-01,-5.25370e-02,-1.51898e-01,
-4.06891e-02,-2.69667e-01,1.13146e-01,7.19458e-01,9.16984e-01,-3.18314e-01,2.71818e-01,-5.09081e-01,-4.63744e-01,2.72849e-01,-6.93696e-02,2.81788e-01,-1.10963e-01,3.89533e-02,4.00613e-01,-6.65083e-02,-8.96528e-02,6.58871e-01,-4.23996e-01,2.10788e-01,3.94146e-01,1.54501e-01,4.94140e-01,-1.91937e-02,-7.77317e-01,
-5.54043e-02,-1.43087e+00,1.03374e-01,5.01855e-01,-1.21572e-01,2.62965e-01,6.90095e-01,-1.80408e-01,1.37534e-01,4.34388e-01,-9.74913e-01,-5.10175e-01,4.39817e-02,-3.27159e-01,1.10077e-02,-3.18307e-01,4.77784e-02,2.20250e-01,8.77547e-01,-3.33274e-01,6.30203e-02,9.90615e-02,-6.00551e-02,3.12587e-01,-5.09152e-02,
1.58341e-01,-2.63005e-01,-9.91749e-02,1.74639e-01,2.65953e-01,-3.16217e-01,3.21974e-02,-1.44835e-01,-1.73861e-02,1.60054e-02,-2.86853e-01,-1.77781e-01,-3.30004e-01,-3.37881e-02,-2.24093e-01,-2.85700e-02,-5.40385e-02,5.74884e-02,-7.93760e-02,-2.29459e-02,2.87237e-01,7.46087e-02,2.55088e-01,-3.34388e-01,-2.44498e-01,
3.16998e-02,3.19997e-02,-2.28145e-01,-1.05401e-01,6.63239e-01,-4.64804e-01,-2.27008e-01,-1.46000e-01,-1.68907e-02,1.13968e-01,-8.85766e-01,8.74582e-01,1.15710e+00,-1.23272e-01,-4.37817e-01,1.21355e-01,6.35042e-01,1.57502e-01,3.62931e-01,-4.96782e-01,-1.17950e+00,-9.76002e-01,1.66726e-02,-2.09305e-01,-1.23378e-01,
2.12785e-02,-2.52121e-01,-4.01684e-01,5.65622e-01,3.52130e-01,-3.21029e-01,-5.91801e-01,-2.64488e-01,2.14924e-02,-1.03744e-01,-4.94923e-01,7.16763e-01,-5.32646e-01,-1.98566e-01,-3.76956e-02,9.17426e-01,-2.48873e-01,-7.72771e-01,-2.81207e-01,-6.31955e-01,-1.57946e-02,4.86097e-01,-1.30107e-01,2.18164e-02,2.14612e-01,
-7.91395e-02,-1.50685e-01,2.35665e-01,2.83596e-01,-4.27919e-01,1.04808e+00,3.71513e-01,3.41307e-01,4.86240e-01,1.35637e-01,-9.57018e-02,-1.21271e-01,-3.60851e-01,-2.13392e-01,-1.00817e-01,-6.68599e-02,9.19976e-04,-1.63353e-01,2.63508e-01,-4.27685e-01,6.59908e-02,-3.46425e-01,-3.11705e-01,3.50459e-01,8.57430e-01,
-2.34915e-01,-3.67267e-01,2.99297e-01,4.54865e-01,7.83598e-01,-6.34192e-01,1.09835e-01,-5.64299e-02,-2.58119e-01,1.77664e-02,3.70632e-01,-4.75799e-01,1.10543e+00,-1.49991e-01,1.66168e-02,-1.53084e-01,1.02507e+00,5.10021e-02,-2.54832e-01,4.21283e-01,-1.35509e+00,-4.18176e-02,-6.66014e-01,1.88181e-01,-3.85403e-01,
1.96099e-01,
2.53114e-01,
1.29405e-01,
-6.16392e-01,
2.56332e-01,
-2.52503e-01,
3.44429e-01,
-4.19546e-02,
-2.08090e-01,
1.38764e-01,
7.71826e-04,
6.17279e-02,
2.57100e-01,
2.59121e-01,
-3.03486e-01,
9.47103e-03,
1.83295e-01,
2.03710e-01,
2.17183e-01,
-1.56212e-01,
-2.83708e-01,
3.46656e-01,
8.90192e-02,
-3.49872e-01,
4.63275e-01,
-3.81510e-01,-2.23752e-01,8.76679e-02,1.19561e-01,5.29165e-01,1.56312e-01,-4.75318e-01,-6.04776e-02,7.25797e-01,3.31665e-02,2.57717e-01,4.18509e-01,-1.69143e-02,1.96625e-02,-5.16818e-01,4.59353e-01,-3.28146e-01,8.28010e-01,-1.16986e-01,4.94797e-01,3.29470e-01,5.06582e-01,-5.17913e-01,8.03608e-02,1.23145e-01,
-2.20867e-01,1.57667e-01,-5.19025e-01,1.59307e+00,1.00726e-01,1.35352e-01,6.47352e-02,4.88541e-02,3.47732e-01,-1.78009e-01,-1.47489e-01,4.47546e-01,-6.09838e-02,1.38188e-01,-2.73875e-01,4.79638e-01,3.18036e-01,-2.71151e-01,-3.20061e-01,2.90780e-01,3.34560e-01,3.17081e-01,-2.10402e-01,-1.53224e-01,-1.79819e-01,
1.60262e-01,-5.50450e-01,-1.87236e-02,1.71186e-01,-2.99644e-02,-4.59452e-01,1.26591e-01,1.75625e-01,-1.16967e-01,-6.67505e-01,7.61752e-01,4.39291e-01,-1.79883e-01,-3.32120e-01,-9.76463e-02,2.16854e-01,-3.44085e-01,-1.82993e-01,3.25632e-01,1.08044e-01,2.05269e-01,-4.33761e-01,4.07417e-01,3.26406e-01,-4.94347e-01,
-2.04847e-01,2.78855e-01,2.45238e-01,-4.77048e+00,4.63782e-01,3.44758e-01,4.09390e-01,-1.54555e-01,-6.55340e-02,6.29181e-01,-3.67275e-01,-3.49753e-01,-7.73201e-01,6.74235e-01,-7.00117e-01,4.78579e-02,-4.42842e-02,-1.12701e-01,-1.79759e-01,-1.82775e-01,9.11945e-02,-3.76375e-03,-3.14090e-01,-1.30562e+00,-5.76208e-01,
-2.66392e-01,-2.61145e-01,9.67332e-02,8.38495e-02,9.31906e-02,-2.97925e-01,-5.03139e-02,-1.68615e-01,1.66204e-01,1.45151e-01,-2.03998e-01,-1.40717e-01,4.20257e-02,-3.20228e-01,2.61819e-01,-2.12242e-01,-1.17723e-01,-7.92601e-02,-1.23993e-01,5.11809e-02,-2.22937e-01,-2.10624e-01,-2.27740e-01,-1.17596e-01,9.19646e-03,
-2.68496e-01,-1.79633e-01,2.38070e-01,9.70038e-02,-1.03244e-01,-2.17616e-01,-3.28738e-01,-2.60333e-01,-3.42947e-01,-2.30350e-01,-1.67189e-02,-5.68999e-02,-1.13410e-01,6.33235e-02,3.25089e-01,2.75000e-01,-2.43347e-01,-9.18452e-02,-2.73183e-01,-2.80808e-01,2.17138e-01,1.95902e-02,2.90676e-01,1.94486e-01,-1.98556e-01,
7.57915e-01,-3.74523e-01,-7.14226e-02,-3.89997e+00,5.05600e-01,-1.20634e-01,4.02424e-01,7.22224e-02,-2.07540e-01,-1.65412e-01,6.90605e-01,-9.26198e-01,1.48904e-01,-1.29809e-01,-1.05461e+00,-1.10233e-01,-1.62099e-01,3.07687e-01,-1.24095e-01,-1.85000e-01,-1.54235e-01,-4.23645e-01,4.66078e-01,4.24074e-01,1.21764e-01,
-5.81836e-01,1.69417e-01,-3.03779e+00,-3.77049e-01,1.48313e-01,-7.05936e-01,-5.91975e-03,-3.49462e-01,-2.86948e-02,-5.48063e-02,3.32103e-01,1.31040e+00,5.72707e-01,1.36502e-01,-1.61209e-01,1.64577e-01,-5.65330e-01,7.29737e-01,-1.09407e+00,-4.93163e-01,9.52746e-02,-1.85774e-01,-2.47513e-01,-7.23879e-02,1.40233e-01,
3.35615e-01,2.62042e-01,-1.01405e-01,8.55960e-02,3.02480e-02,-8.07758e-02,5.39576e-02,-5.08207e-01,-4.20068e-02,9.70746e-01,-3.22493e-01,4.98563e-01,-3.76354e-02,-6.80992e-02,-1.76992e-01,2.47847e-01,6.98964e-01,1.69736e-02,3.38568e-01,-5.10589e-01,2.55182e-01,2.14309e-01,-4.07400e-01,3.33519e-01,4.26292e-01,
2.56442e-01,-4.71520e-03,-2.32190e-01,1.82311e-01,6.86325e-03,-2.16760e-01,9.73586e-02,-2.19940e-01,-1.18575e-01,2.98318e-01,-8.87346e-02,-1.59892e-01,1.43298e-01,7.53700e-02,1.75094e-01,-2.48411e-01,7.27837e-02,8.19498e-02,-2.57997e-01,1.57600e-01,-2.17339e-01,-6.93728e-02,-2.57798e-01,-3.45153e-01,-1.03735e-01,
-1.50811e-01,5.57891e-01,-3.94652e-01,-6.15055e-01,-7.05971e-02,1.15604e-01,-3.15904e-02,-4.93134e-01,-3.68818e-02,-1.34274e-01,-7.13484e-01,1.07911e-01,1.71747e-01,6.25200e-01,-1.22185e-01,3.31410e-01,-6.85911e-02,3.20922e-01,1.94859e-01,-3.90643e-01,3.22369e-01,-3.88684e-02,-2.12041e-01,-5.88311e-01,-6.76096e-01,
4.57417e-01,-2.26339e-01,-5.19258e-01,7.11268e-01,1.86904e-01,1.37476e-01,5.02840e-01,-5.05079e-01,-1.55496e-01,2.74139e-01,7.77968e-01,2.61134e-02,-1.72830e-01,-5.79092e-01,-7.24397e-01,-7.14444e-01,-1.39312e-01,-7.78485e-02,-7.51454e-01,-3.10398e-01,1.05096e-01,-2.12023e-01,2.42864e-01,3.12178e-01,1.78438e-03,
5.78096e-01,5.61277e-01,1.30170e-01,-2.53233e+00,7.92785e-02,1.02699e-01,-1.02677e-01,1.19589e-01,-4.80727e-01,-2.27264e-02,-2.40810e-01,-1.43901e-02,-3.27333e-02,-1.29807e-01,1.39865e-01,5.37204e-02,4.56475e-01,-6.72364e-01,-1.27765e-02,-3.63457e-01,-7.42486e-02,-3.77759e-01,6.57167e-01,-1.30422e-02,9.45128e-02,
-4.19556e-01,3.82620e-01,5.78323e-01,6.51759e-01,-2.64433e-03,4.04188e-01,5.67752e-01,1.01916e-01,3.31444e-01,-6.38694e-02,1.14383e-01,3.87876e-01,6.36984e-01,3.64766e-02,1.03232e+00,-9.22917e-02,5.04102e-01,2.99641e-01,-4.77269e-01,7.59640e-02,2.40054e-01,1.52809e-01,9.51729e-03,-1.07093e+00,2.43882e-01,
-7.11842e-01,-1.71257e-02,2.51479e-01,1.08881e+00,-8.62215e-01,2.00266e-01,-9.59316e-02,-2.69050e-01,6.33782e-01,-1.25835e-01,-1.39718e+00,2.44054e-01,-4.38364e-02,4.70471e-01,-5.32729e-02,3.79965e-01,-2.32351e-02,3.90606e-01,3.75455e-01,6.87718e-01,3.36092e-01,-1.46915e-01,-1.05845e+00,-2.09369e-01,-4.47208e-01,
6.42948e-01,-2.43619e-01,-3.53424e-01,-9.67411e-01,2.63857e-01,-2.37886e-01,-4.13349e-01,-1.50735e-01,3.74013e-01,-2.67831e-01,-2.27013e-01,-1.07992e-01,-3.43249e-01,-1.03268e+00,-1.49380e+00,6.05498e-02,-5.23420e-01,7.02664e-02,6.46787e-01,-6.73475e-01,1.72393e-01,1.27816e-01,-8.13311e-01,1.22994e+00,-2.20276e-01,
7.69806e-01,6.40269e-01,3.53283e-01,-1.62831e+00,-1.46183e-01,9.80492e-02,-2.15814e-01,1.82556e-03,1.21450e+00,-2.95593e-02,-5.61111e-01,-2.69543e-01,4.56735e-02,-2.91690e-01,1.17907e-01,1.68383e-01,-2.39082e-01,1.24696e-01,-1.35845e-01,-1.79151e-01,-2.16227e-01,-7.13852e-01,-5.12562e-02,1.09859e-01,2.11873e-01,
2.79659e-01,-4.82719e-01,1.46005e-01,4.38218e-01,5.34194e-01,-7.32611e-01,6.98721e-01,2.62800e-01,-7.30363e-01,-2.88219e-01,6.89179e-01,1.47681e-01,2.06995e-01,-2.32186e-01,-4.26172e-02,3.33483e-02,9.36472e-02,2.14996e-01,3.56608e-01,-3.61759e-01,8.57098e-02,1.94169e-02,2.14952e-01,2.01591e-01,2.81927e-01,
-1.88173e-01,-1.82540e-01,-8.01428e-02,-4.59265e-02,2.36428e-01,-2.37133e-01,-3.04429e-01,2.64654e-01,6.39270e-02,-1.30193e-01,-3.35314e-01,-2.00631e-01,1.66872e-01,-1.54527e-01,2.84190e-01,1.59994e-01,-1.38142e-01,-2.84932e-01,6.29568e-02,-2.93955e-02,2.74308e-01,2.25737e-01,2.00269e-01,-3.36596e-01,-1.78366e-01,
3.64340e-01,-2.37338e-01,-2.53451e-01,-3.04203e+00,-4.40423e-02,6.38368e-01,-2.38710e-01,-2.31770e-01,-8.63355e-01,3.99431e-01,6.30509e-01,2.09873e-02,1.58465e-01,1.17160e-01,1.39121e-01,4.70341e-01,2.25274e-01,4.98616e-01,-5.67767e-01,-6.87801e-01,-3.39161e-01,-3.87656e-01,7.37932e-02,-5.58803e-01,2.08866e-01,
7.15133e-01,1.65243e-01,9.31265e-02,7.90722e-01,6.10111e-01,-7.55968e-01,-5.10964e-01,5.82895e-01,-5.23088e-01,7.37957e-02,-3.88881e-02,-3.93543e-01,3.96068e-01,1.98107e-01,-5.06141e-01,1.60587e-01,-5.23291e-01,-8.59630e-02,2.39242e-01,-2.15520e-01,3.54150e-03,-2.24544e-01,-5.35419e-02,4.43189e-01,3.30496e-01,
-2.60419e-01,1.24657e-01,8.28336e-01,-1.48608e-01,-2.93409e-02,2.57432e-01,-6.36188e-03,5.73497e-01,3.60533e-01,-6.11659e-01,-3.34934e-01,3.47992e-01,-5.04760e-02,-4.14520e-01,1.04816e+00,5.79565e-01,6.81256e-01,3.33359e-01,2.79211e-01,3.55208e-01,-1.50839e-01,-2.41565e-01,5.41159e-02,-5.51555e-01,1.50481e-01,
-8.94922e-02,-1.07904e-01,-8.17539e-01,4.68484e-01,-3.38643e-01,-6.03476e-02,2.45354e-01,6.33635e-02,3.14228e-01,7.44213e-01,1.16156e-01,3.79183e-01,-2.02575e-01,-2.94081e-01,8.74493e-01,7.87309e-03,7.03844e-01,2.03242e-01,3.10973e-01,5.30637e-01,-3.01372e-01,-2.35396e-01,-6.50744e-02,4.70490e-02,-1.06906e-01,
5.01278e-01,4.48756e-01,6.68940e-01,-4.63027e-02,2.71590e-02,4.83048e-02,3.73013e-01,-3.72424e-01,-4.90351e-03,3.75642e-01,-6.70295e-01,-1.38835e-01,-3.72958e-02,-4.62726e-01,-1.65700e-02,5.50925e-01,-2.51080e-01,1.46299e-01,-3.05816e-02,-9.16468e-02,2.54918e-01,4.07651e-01,6.88889e-02,3.88348e-01,5.78025e-01,
1.69511e-01,-1.77846e-01,-1.71683e-01,2.91929e-02,-2.13696e-01,-4.98623e-02,-3.43013e-01,-3.42156e-01,-2.61834e-01,7.18909e-02,1.47823e-02,8.54347e-02,-6.39962e-02,-2.36109e-01,-3.21949e-01,2.29423e-01,1.58912e-01,-2.74857e-01,-8.31238e-02,1.68521e-01,3.07676e-01,-1.89738e-01,-1.55332e-01,-3.30135e-01,-2.65889e-01,
-6.35946e-01,
3.86037e-01,
4.12963e-01,
2.81197e-01,
-2.56570e-01,
7.13381e-02,
-3.30435e-01,
-2.55124e-01,
-2.58977e-01,
-2.96557e-01,
2.36087e-01,
5.00646e-01,
2.05198e-01,
-1.80940e-01,
3.41350e-01,
1.11311e-01,
-2.89877e-01,
-6.70702e-02,
-1.15747e-01,
2.57922e-01,
-3.65512e-01,
2.27145e-01,
2.20144e-01,
-3.74426e-03,
7.49808e-02,
-5.71639e-01,4.40001e-01,-4.73298e-01,2.68124e-01,5.53949e-02,-2.50700e-01,3.95782e-01,6.26649e-01,7.60799e-02,-3.39303e-01,-2.35472e-02,5.21697e-01,-2.48321e-01,-4.12409e-01,1.58435e-01,-1.77059e-01,7.34014e-02,-1.70666e-02,-8.06055e-02,-1.96538e-01,-6.66738e-02,5.02723e-01,-1.02133e-01,-2.64610e-01,1.26004e-01,
-2.65049e-01,-6.18408e-02,1.94686e-01,-3.00697e-01,-2.39771e-01,-1.03687e-01,-1.36921e-02,-2.97285e-01,-9.45440e-02,-3.22215e-01,-2.52324e-01,-6.50010e-02,-2.61246e-02,-2.27502e-01,-8.14610e-02,-6.00143e-02,2.33003e-01,-3.19460e-01,-1.86942e-01,-2.86443e-01,2.70795e-01,-2.08001e-01,2.51867e-01,-8.25278e-02,-1.73878e-01,
-1.28127e-01,3.17631e-01,-5.03110e-02,4.60946e-01,-2.59636e-01,2.54012e-01,7.66507e-01,3.25377e-01,3.02773e-01,-1.15221e-01,4.34574e-01,3.31765e-02,6.67074e-02,1.34311e-01,-1.73408e-01,9.73803e-01,-1.25350e-01,-2.90854e-01,-1.46709e-01,-5.16106e-01,-2.83005e-01,7.46969e-02,-3.84289e-02,-2.56980e-01,-3.62618e-01,
-8.05114e-02,9.57899e-05,1.77665e-01,-2.94904e-01,-1.82871e-02,-3.06585e-01,-5.45678e-01,9.68155e-02,1.30986e-01,2.17295e-01,1.71719e-01,3.71281e-01,3.64606e-02,-4.39445e-01,8.01221e-02,4.05510e-01,-1.56951e-01,3.40557e-01,1.94448e-01,-8.40529e-02,5.95323e-01,1.49350e-01,-1.19591e-02,-2.89062e-01,1.18901e-01,
-2.50943e-01,-7.35499e-02,3.63905e-01,-1.96771e-01,-7.28500e-03,2.31123e-02,-3.12179e-02,4.27611e-01,3.76795e-01,-1.67418e-01,-2.21161e-01,5.73987e-01,-5.11576e-01,7.27183e-02,2.42214e-01,2.33795e-01,5.41694e-02,-3.77986e-02,-5.23780e-02,1.44811e-01,5.00811e-01,-9.39350e-02,-3.10211e-01,2.07496e-01,2.05042e-01,
-8.56768e-01,2.36462e-01,5.59511e-01,-1.81809e-01,-1.55391e-01,2.53161e-01,-1.69867e-01,3.44452e-01,3.79208e-01,-2.52946e-01,3.18764e-01,-2.07783e-01,1.22628e-01,5.07100e-02,-5.54011e-02,-9.74963e-01,-5.52573e-01,-2.86621e-01,-2.86624e-01,-2.66734e-01,1.94328e-01,-7.84567e-03,-2.74673e-02,4.67497e-01,2.98176e-01,
-5.12003e-01,5.78746e-01,8.34402e-02,-1.03643e+00,-2.35919e-01,-3.75577e-02,-1.37269e-01,9.58553e-02,4.87853e-01,2.86942e-01,2.23891e-01,3.45435e-01,-1.45840e-01,-1.22506e-01,-6.36442e-02,-2.19658e-02,9.41269e-02,1.23742e-01,9.97804e-02,-1.09919e-01,-4.12314e-01,8.50545e-02,-2.45011e-01,1.12923e-01,-1.07499e-01,
-1.90627e-01,-5.49338e-02,-2.11258e-01,-6.05867e-01,-6.09517e-04,-1.03800e-01,4.11309e-01,-1.42629e-01,1.97100e-01,1.17703e-01,2.80077e-01,2.97687e-01,-1.03910e-02,-1.05946e-01,1.41980e-01,4.65109e-01,-9.66119e-02,-1.85403e-01,1.17673e-01,6.14022e-03,-1.73953e-01,2.70514e-01,-5.66265e-01,2.16869e-01,3.04619e-01,
-1.91271e-01,3.95811e-01,-1.49322e-01,2.30608e-01,-2.06197e-01,-6.00275e-02,-1.12697e-02,-7.35532e-02,-2.17285e-01,2.60929e-01,-1.43356e-01,-5.43367e-01,4.33694e-01,2.87504e-01,-2.67687e-01,9.98534e-02,-2.97926e-01,-9.69716e-02,2.75859e-01,-1.76141e-01,-2.22808e-01,3.85306e-02,-1.97232e-01,1.09259e-01,1.42663e-01,
6.81119e-02,-2.96850e-01,2.24860e-01,-1.33642e-02,-5.81024e-02,-8.00505e-02,-3.87693e-02,-6.26634e-01,4.01946e-01,2.40192e-01,-1.20127e-01,-3.70799e-01,1.12480e-01,4.29765e-01,3.09852e-01,-9.13275e-02,-1.19147e-02,-1.12654e-01,2.46106e-01,-2.41099e-01,-8.06886e-02,-1.78121e-01,-2.90693e-01,-1.33127e-01,3.44453e-01,
5.47304e-02,-5.79573e-02,-3.37460e-01,3.93034e-01,-3.24633e-01,-1.45735e-01,-5.24442e-01,3.31784e-01,-4.32014e-01,2.26763e-01,3.19577e-02,2.62598e-01,9.65183e-02,3.16415e-01,-1.63197e+00,-4.36045e+00,-1.93661e-01,4.88392e-01,5.84018e-02,2.24633e-01,1.58660e-01,3.35050e-01,-4.73002e-01,-4.83289e-02,2.75163e-01,
-1.08538e-01,-9.66571e-02,3.27670e-01,5.15463e-02,-1.94162e-01,3.26451e-01,-4.68780e-02,7.04305e-02,2.79113e-01,3.32270e-01,8.78280e-02,4.17389e-01,6.41542e-02,-1.25030e-01,-2.67541e-01,-1.72895e-01,-9.69919e-02,-4.46455e-01,2.79895e-01,-2.93510e-01,2.37388e-01,1.65624e-01,-6.77879e-02,4.62082e-01,-2.98779e-01,
-3.27660e-01,2.10907e-01,4.69720e-01,5.56850e-02,-9.03246e-02,3.08307e-01,-1.47802e-01,5.66310e-02,1.75968e-01,-1.73203e-01,5.31921e-01,5.34813e-01,-5.02003e-01,-1.39719e-01,6.02448e-02,7.60803e-02,-1.02508e-02,-5.60200e-01,8.20715e-02,-2.91161e-01,-3.00222e-01,6.04609e-02,-9.17604e-02,4.72110e-01,-3.16984e-02,
1.55887e-01,-5.44610e-02,6.37992e-02,6.27115e-02,-1.93120e-01,2.23002e-01,8.35423e-02,6.74786e-01,4.86651e-02,-3.10743e-01,-3.76401e-01,-6.48797e-01,2.21541e-01,1.07747e-01,-3.26154e-01,7.04842e-01,-1.83851e-01,3.72988e-02,1.33084e-01,-3.94736e-02,4.02801e-01,8.43163e-02,2.16726e-01,-1.40882e-01,2.48458e-01,
-6.14358e-01,4.22113e-01,-7.44053e-01,5.73048e-01,1.76325e-01,1.61258e-01,3.78832e-01,-1.75350e-01,-2.02814e-01,-1.70465e-01,4.97646e-01,-1.79993e-01,-2.20265e-01,3.18332e-01,-3.81438e-01,-4.31583e-01,-1.01428e-02,2.63224e-01,-2.08428e-01,-3.31073e-01,-3.66414e-02,-1.04867e-01,1.69641e-01,-3.41388e-01,-3.19796e-01,
2.41883e-01,-1.99225e-01,-2.07537e-01,-4.38516e-02,-8.10482e-02,-3.15054e-01,8.25754e-02,2.82679e-01,-1.66872e-01,1.66363e-01,8.65278e-03,4.06344e-02,-2.86997e-01,1.59466e-01,1.11009e-01,3.44788e-02,1.56112e-01,-1.41773e-01,-4.44840e-02,-2.74649e-01,1.20320e-01,-9.98734e-02,-3.27953e-01,-3.00437e-01,-8.35601e-02,
-2.32313e+00,-5.70840e-01,-2.54093e-02,-1.04402e-01,1.06340e-01,-2.10822e-01,-8.59772e-01,6.90156e-01,3.48465e-01,1.08449e-01,3.40743e-01,-3.68459e-01,7.84668e-01,-4.05837e-02,1.34795e-02,-6.12645e-01,-5.14234e-02,3.19553e-01,3.11459e-01,4.05890e-01,-9.13594e-02,9.87831e-02,-6.72479e-01,-1.90645e-01,-2.08256e-01,
-1.09312e+00,4.60851e-02,-2.13246e-01,2.66167e-01,-2.19460e-01,3.11997e-01,5.95272e-02,-2.04138e+00,1.97101e-01,3.22581e-01,3.26532e-01,-7.64446e-01,5.94548e-01,-6.15977e-01,-1.19336e+00,-2.81628e-01,-2.33043e-01,-1.76752e-01,1.07115e-01,-5.49759e-01,-7.96020e-01,2.01424e-02,1.85759e-01,-3.43017e-01,-3.14881e-01,
-8.13096e-01,9.35666e-02,2.57524e-01,-2.64716e-01,1.27693e-02,-2.70310e-01,9.51443e-02,-4.50378e-01,6.85396e-01,2.59693e-01,4.05021e-01,8.65389e-01,-1.82346e-01,2.26042e-02,-9.21179e-01,-4.89598e-01,-4.06712e-01,-6.33698e-01,2.86919e-01,-1.49912e-01,4.86912e-01,6.77211e-01,-5.37095e-01,5.18779e-02,-2.00329e-01,
-1.60734e-01,-1.27753e-01,-2.17441e-01,3.22199e-01,3.43221e-01,-1.68763e-01,9.38817e-02,5.18499e-02,-3.03678e-01,1.81525e-01,2.28276e-01,-1.72096e-01,-2.73804e-01,-1.44654e-01,-1.36012e-01,2.36984e-02,-8.34953e-02,-2.73667e-01,3.19917e-01,9.20699e-02,-3.29534e-01,-2.20690e-01,-2.11232e-01,-6.64789e-02,2.92664e-01,
-5.00502e-01,1.71073e-01,5.86780e-01,-7.55530e-02,2.70236e-01,2.81458e-01,-2.05568e-01,4.11727e-02,-4.61876e-01,8.55419e-02,6.47592e-01,-6.62312e-01,-3.80053e-01,-5.54865e-01,3.17329e-01,-1.23381e+00,-3.42989e-02,-3.43832e-01,1.59200e-01,-7.96975e-01,-2.79550e-01,-1.15737e-01,-6.96806e-01,6.73241e-01,-3.05481e-01,
1.32056e-01,-4.73593e-02,-1.43291e-01,-1.78727e-01,3.19439e-01,2.01315e-01,-1.64447e-01,2.71880e-01,-2.41031e-01,-2.12033e-01,1.95436e-01,-8.23806e-02,3.60577e-01,8.30091e-02,-3.51159e-02,4.17429e-02,-6.91190e-02,-8.30896e-02,-2.18120e-01,-1.46807e-01,1.21035e-01,-2.29917e-01,-1.54149e-01,-7.96211e-02,3.57585e-02,
-2.83731e-01,2.32356e-01,-8.03985e-01,-4.22233e-02,4.98689e-02,8.50476e-02,-1.18811e-01,1.08255e-01,-1.67049e-01,2.99934e-01,3.91020e-01,3.60557e-01,3.51163e-01,-5.30403e-01,-1.77320e-01,-3.07863e-02,-1.52097e-01,-2.52751e-01,-8.49124e-02,4.18076e-01,-1.02514e-01,7.73812e-01,-2.14295e-01,-2.11001e-01,2.99649e-01,
-2.38874e-01,-9.58603e-01,1.27626e-01,-2.18651e-01,1.21739e-01,1.75516e-01,1.72098e-01,-2.06489e-01,5.26232e-01,1.27573e-01,-2.59391e-01,1.12795e-01,2.48678e-01,-8.50253e-01,-3.33917e-01,8.55737e-01,6.09319e-04,3.54112e-01,2.14909e-01,-4.41416e-01,-2.61597e-01,4.73675e-01,2.58400e-01,5.72147e-01,2.31152e-01,
4.68528e-01,-2.25250e-01,-8.41683e-02,-4.36910e-02,1.84846e-01,7.88333e-02,-2.38110e-01,-1.61881e-01,-1.34814e-02,-1.18874e-01,3.67461e-01,9.91110e-02,2.87755e-01,5.31891e-01,-1.26620e+00,-2.23718e+00,-5.88024e-01,1.58174e-01,-1.04210e-01,-2.07878e-01,-1.24406e-01,-7.17503e-02,-5.70463e-01,4.44053e-02,1.66483e-01,
-6.20618e-02,
-3.36684e-01,
3.44072e-02,
-4.01879e-02,
1.65147e-01,
5.19748e-03,
-8.11974e-02,
3.68020e-01,
2.36846e-01,
2.51389e-01,
-2.92861e-01,
2.09376e-01,
5.33027e-03,
5.22946e-02,
-4.21633e-01,
-2.01899e-01,
-3.64447e-01,
2.14303e-01,
-1.33296e-01,
-2.10489e-02,
1.04892e-01,
4.09369e-01,
-3.70313e-02,
-5.96678e-01,
6.90557e-02,
-5.41717e-02,-6.93033e-02,4.64643e-01,2.48303e-01,-3.75892e-01,-5.81894e-02,1.81594e-01,7.32861e-02,-3.03765e-01,-2.34090e-02,-1.05243e+00,2.13529e-01,-4.90140e-01,1.07798e-01,-1.89592e-01,2.53664e-01,-4.72328e-01,-2.13010e-01,3.94602e-01,-8.32274e-02,-6.39997e-01,1.73063e-01,-3.28411e-01,2.17651e+00,4.01386e-01,
4.11903e-01,2.15306e-01,-3.04341e-01,5.59794e-03,8.32656e-02,-4.41571e-01,5.65518e-02,6.89232e-02,-1.23780e-01,-1.41014e-02,-4.28818e-01,-1.67642e-01,-5.94321e-02,-7.22748e-02,2.15513e-01,2.16448e-01,6.35357e-01,1.16246e-01,-4.99272e-01,7.33305e-02,-1.89343e-01,-1.70312e-01,-2.82710e-01,1.96884e-01,5.11123e-01,
-2.96016e-01,-1.66613e-01,2.24824e-01,-8.39979e-02,-1.67971e-01,5.74313e-01,-9.73724e-02,-5.23096e-02,1.88057e-01,-1.51953e-01,5.00213e-01,1.65948e-01,-1.39009e-02,1.99994e-01,6.42938e-02,6.33610e-02,-6.29643e-01,9.13407e-01,7.43045e-01,2.67939e-01,7.22781e-01,8.32674e-02,1.24363e-01,-1.57627e-01,-6.15748e-01,
-9.69136e-02,7.81013e-02,-6.74020e-02,8.08411e-02,1.94959e-02,-1.92313e-01,-3.31396e-03,1.20037e-01,5.22496e-02,1.18586e-01,-1.68831e-01,1.70785e-01,1.81026e-01,-1.36016e-01,-7.78545e-02,-9.40981e-02,1.60915e-01,-4.65140e-01,-5.66369e-01,-2.47395e-01,-3.80483e-01,-9.04455e-02,8.04505e-02,-2.96496e-01,1.61105e-01,
1.11356e+00,2.74806e-01,-5.02938e-02,1.91230e-01,2.49271e-01,1.38893e-01,-3.17771e-02,7.03724e-01,8.89608e-03,7.76449e-02,-6.18167e-01,1.87110e-01,2.51502e-01,6.71979e-02,4.47228e-02,5.81440e-02,1.30662e-02,-3.21442e-02,-4.90256e-01,1.91608e-01,8.52997e-02,4.70812e-03,-1.21700e-01,4.74045e-02,1.83321e-01,
-9.56009e-03,-2.12550e-01,-7.52483e-02,-3.87722e-02,-7.12014e-02,1.22558e-01,4.39586e-02,-5.34171e-02,1.23822e-01,-4.08606e-01,2.07204e-01,7.99743e-02,2.14237e-01,-1.47890e-01,1.42144e-02,-1.44556e-01,-3.08153e-01,-1.11693e-01,-1.38590e-01,-2.98142e-01,1.68940e-02,-3.57772e-01,-1.88615e-01,2.46242e-02,-8.47025e-02,
2.66755e-01,-1.70572e-01,-5.18075e-02,-1.69992e-01,1.06475e-01,-4.16821e-01,2.28429e-01,-1.51484e-01,-6.77090e-01,2.81114e-01,3.98673e-01,-2.61259e-01,1.54989e-01,-3.88256e-01,-1.87895e-01,5.10402e-02,-1.97440e+00,1.83387e+00,-2.96164e-01,1.17546e-01,3.75631e-01,-7.45330e-02,-6.14490e-01,-2.50126e+00,-1.78104e-01,
-1.17530e-01,9.11312e-02,-4.46686e-01,-4.44502e-02,-2.20017e-01,-3.49871e-01,5.00199e-01,-3.96525e-04,-2.02640e-01,1.24451e-01,-4.08196e-01,-6.84925e-02,-3.06851e-01,6.13057e-01,-6.15970e-01,-2.45797e-02,-6.66526e-01,-1.09530e+00,-1.41605e-01,-1.60846e-01,-3.96616e-01,1.70633e-01,-3.97040e-01,-2.54618e-01,3.45765e-01,
-1.88122e-01,3.56157e-02,3.03614e-02,2.12026e-02,-1.66097e-01,1.62073e-01,1.90502e-01,1.00651e-01,-1.05623e-01,3.30537e-01,1.65550e-01,-1.04679e-01,2.53782e-01,1.38924e-01,-2.17956e-01,-1.25667e-01,7.85020e-02,-2.14171e-01,2.27533e-01,3.39827e-01,5.50071e-01,2.33394e-01,-5.30449e-01,-2.90726e+00,-2.57005e-01,
-1.51405e-02,3.78592e-02,3.80986e-02,3.04856e-01,1.85394e-01,6.38372e-02,-1.00048e-02,9.00412e-02,9.82737e-02,-3.96649e-02,-8.20657e-02,2.36323e-02,7.41953e-02,9.55820e-02,-7.35224e-02,6.30089e-02,-1.19046e-01,1.35952e-01,-3.50018e-02,-7.15288e-03,-6.65923e-02,5.34152e-01,5.48071e-02,-6.42489e-01,-9.53157e-02,
9.33787e-02,7.65234e-03,-6.96067e-01,-6.65484e-02,-3.87769e-01,-2.91936e-01,9.47596e-01,-2.12394e-01,1.80923e-01,-1.25583e-01,-6.51552e-01,-4.94366e-01,-7.33590e-01,3.35164e-01,-8.81032e-01,1.85890e-01,-1.70194e-01,-1.46518e+00,1.00524e+00,3.29573e-01,2.63856e-01,4.08187e-01,-5.37770e-01,7.91659e-01,2.69984e-01,
-2.09456e-01,-1.18006e-01,-6.72530e-02,-7.09368e-02,-1.70735e-01,1.07995e-01,-8.02360e-02,3.09134e-01,-9.51643e-02,1.11863e-01,1.01918e-01,1.61847e-01,-2.85377e-01,2.90318e-01,2.62289e-01,2.11076e-01,-2.24318e-01,-1.87797e-01,2.75422e-01,-1.84914e-01,-8.27437e-01,3.77809e-01,-8.66836e-02,-1.08460e+00,-2.86577e-01,
2.89354e-01,-2.89964e-01,-3.07320e-01,-2.62274e-01,1.76330e-01,1.04456e-01,-1.09652e-01,1.12740e-01,4.31929e-02,-2.68210e-01,6.71133e-02,-1.78703e-01,1.83644e-01,1.91328e-01,-1.06394e-01,1.78181e-01,1.28351e-01,2.94794e-02,-1.98320e-01,-2.52222e-01,-2.24011e-01,4.38529e-02,-2.04591e-01,-9.01906e-02,-1.51817e-01,
-8.58760e-02,-3.34280e-01,-8.50803e-02,-3.34921e-01,1.85066e-01,-9.56059e-04,3.52463e-02,-2.20088e-01,-2.42975e-01,-2.23261e-01,-1.29724e-02,-3.46000e-01,-1.77808e-01,-7.48640e-02,-3.22325e-01,-1.98672e-01,-3.06021e-01,1.62192e-01,2.87397e-01,-4.79919e-02,-2.66794e-01,3.16175e-01,2.76784e-01,-8.82238e-02,-1.69560e-01,
5.36201e-01,-1.43974e-01,-7.74671e-02,4.03606e-02,6.92534e-02,7.94017e-02,8.28719e-02,4.02154e-01,-1.67428e-01,1.36230e-01,-3.58292e-01,1.20664e-03,2.91144e-01,5.21776e-02,-1.52238e-02,2.83507e-01,-4.06386e-03,-2.04634e-01,-3.03575e-01,-2.11201e-01,-6.18124e-02,-1.10507e-01,-2.32482e-01,3.87311e-02,2.30836e-01,
-1.79169e-02,3.12506e-01,-5.06743e-02,-1.74037e-01,2.91501e-02,3.12647e-02,-2.29828e-02,7.80386e-03,-1.24470e-01,3.50977e-01,9.47887e-05,3.63331e-01,1.76412e-02,-1.05290e-01,-4.26654e-02,5.57533e-02,-1.50225e-01,-2.43203e-01,-3.60786e-02,-2.94847e-01,-4.10081e-01,-1.39880e-01,-1.53435e-01,1.08519e+00,-2.87477e-02,
1.45740e-01,-2.67647e-01,1.20745e-01,-1.53646e-01,9.59693e-02,2.17270e-01,-6.46190e-02,-1.53460e-01,6.48264e-02,-1.98678e-01,2.63865e-01,-2.90966e-02,9.34399e-02,-1.18297e-01,6.13688e-02,1.72807e-02,4.17126e-02,3.24860e-02,-5.32330e-02,-2.41853e-01,2.75431e-02,8.99260e-02,-6.70013e-02,-9.74668e-02,-3.04083e-01,
-1.93777e-01,-2.68022e-01,-1.09991e-01,-1.47547e-01,8.13080e-02,-3.45158e-01,-2.39453e-02,-4.63016e-02,1.07003e-01,6.05901e-02,1.39918e-01,1.69704e-01,-1.57353e-01,-3.15244e-01,-2.29205e-01,-6.34354e-02,-1.02123e-01,-2.81159e-01,-1.07271e-01,-3.22016e-01,-3.09570e-01,2.72251e-01,-3.15466e-01,-1.53868e-01,-8.77771e-02,
8.31642e-03,2.23598e-01,3.43567e-02,3.96572e-01,1.50737e-01,-1.51188e-01,-4.68789e-02,6.65098e-03,4.07716e-02,-1.09443e-01,-3.59347e-01,-2.68515e-01,-3.75257e-02,1.60441e-01,-1.43806e-01,-2.31317e-01,1.52791e-02,9.89717e-02,-7.99415e-02,-1.03977e-01,1.44109e-01,4.56625e-01,2.39497e-01,-8.75193e-01,3.44860e-01,
-8.81819e-02,3.09112e-01,4.80854e-02,-5.37172e-02,-3.10251e-01,3.93644e-02,4.12037e-02,4.07596e-01,-6.39978e-01,2.65880e-01,-2.40983e-02,5.60167e-01,-3.58688e-01,3.08324e-01,-7.16538e-01,-1.06384e-01,2.30632e-01,-1.70492e-01,-4.02715e-01,2.07638e-01,-1.49876e-01,-5.76605e-01,-2.72425e-01,-6.44973e-01,1.40721e-01,
-4.78431e-02,1.03557e-01,1.31484e-01,-1.65073e-01,-6.21170e-02,3.30947e-01,4.40597e-01,1.18028e-01,-8.00644e-02,1.37025e-01,1.16469e-01,-1.43633e-02,5.21311e-01,3.62201e-02,-1.94569e-01,-3.12995e-03,-3.75479e-01,-4.02098e-01,2.55764e-01,-6.43904e-02,-4.98519e-01,8.52559e-02,1.42462e-01,3.86963e-01,-1.43139e-01,
6.92721e-03,-1.35479e-01,-6.29424e-02,4.87208e-02,-3.72368e-01,4.46407e-01,-1.64360e-01,-3.25175e+00,-1.91986e-01,-8.17303e-01,3.29291e-01,-5.57951e-01,-2.11214e-01,-5.87282e-01,7.13525e-01,4.62814e-02,-2.88756e+00,-1.15861e-01,-6.70937e-01,-3.15611e-01,-6.93765e-01,1.22250e-01,-6.86063e-02,-1.02404e-01,-2.21077e-01,
6.64521e-02,-2.29267e-01,-1.53508e-01,3.97425e-02,-1.48732e-01,8.63277e-02,-3.60108e-02,2.46251e-01,1.88046e-01,-4.22675e-01,2.36391e-01,1.38459e-01,-2.50365e-01,-1.34388e-01,3.52338e-01,2.16010e-01,2.32529e-02,1.01044e-01,1.79943e-02,6.43723e-02,2.28663e-01,-1.62156e-01,-1.09645e-02,5.31873e-01,-1.51303e-02,
4.61337e-02,-1.16586e-01,9.10163e-02,4.38829e-01,-1.41374e+00,1.89262e-01,1.58320e-01,1.11400e-01,-1.92092e+00,-5.21074e-01,2.68523e-01,3.84991e-01,-6.78944e-02,-1.70822e-01,-8.36677e-01,1.81391e-01,-1.34911e+00,-1.65666e-01,-1.22538e-01,-2.97102e-01,-8.69275e-02,2.66448e-01,7.42637e-01,-7.91792e+00,-2.93366e+00,
2.18951e-03,5.81004e-02,1.55434e-01,3.14089e-02,-2.21161e-01,4.80200e-02,1.31886e-03,2.48790e-02,2.93171e-01,-6.64684e-02,-7.63721e-02,4.01708e-01,6.23526e-02,-3.12143e-02,-3.00024e-01,1.57199e-01,-6.33890e-01,-8.56573e-01,3.26472e-01,3.31734e-03,1.01024e-04,2.40333e-01,3.61038e-02,-3.89720e-01,-1.82316e-01,
-3.72925e-03,
2.78741e-01,
1.82368e-01,
1.68821e-01,
-3.60364e-01,
1.60654e-01,
6.76730e-02,
-3.77971e-02,
1.10305e-01,
-3.32742e-02,
3.63222e-02,
-1.81890e-02,
-3.88756e-01,
-2.23722e-01,
-1.65117e-01,
1.22164e-01,
1.05515e-01,
-1.67246e-01,
1.62529e-02,
-2.73713e-03,
2.21784e-02,
1.35125e-01,
-4.10624e-01,
4.31454e-02,
-1.10994e-01,
7.49712e-03,-1.86074e-01,-2.64243e-01,-1.92194e-01,3.93333e-02,5.82286e-02,-3.08634e-02,6.61733e-02,-1.97315e-02,4.75723e-03,-6.15055e-02,4.55410e-02,2.15174e-01,-3.74767e-01,-4.06707e-02,-5.56629e-02,-4.32702e-02,-3.20735e-01,-7.32697e-02,2.76687e-02,-1.73396e-02,-1.32134e-02,6.83814e-01,-5.29291e-02,-1.20621e-01,
-4.88975e-02,-1.85559e-01,-1.26599e-01,-7.29459e-03,-7.08081e-03,2.73347e-02,-5.52075e-02,-1.77829e-01,6.92905e-02,-1.12374e-01,1.35457e-01,1.03748e-01,4.59353e-01,-2.31465e-01,1.52558e-01,5.12182e-02,-1.66376e-01,-1.37170e-01,6.11467e-03,-4.51835e-02,-1.35473e-01,-6.38428e-01,6.07267e-01,-8.19030e-02,-1.01300e-01,
-1.47036e-02,-1.04612e-01,-2.00190e-01,-1.42647e-02,-2.15105e-02,-5.04375e-03,-8.36374e-02,2.24539e-02,1.17392e-01,-1.23923e-01,-1.85415e-03,9.99496e-02,8.21603e-01,-3.81889e-01,4.46067e-02,-9.01628e-02,1.74523e-01,2.82930e-01,-2.93889e-02,-3.43543e-01,-6.12189e-02,-2.90478e-02,7.45396e-01,1.41537e-02,-1.38137e-01,
-4.25926e-02,-1.61131e-01,-1.34445e-01,-7.99321e-02,-1.25594e-01,1.66029e-02,-7.46076e-02,-6.42357e-02,4.94350e-02,-7.65413e-02,2.57970e-02,2.08734e-02,4.65900e-01,3.29827e-01,3.39182e-01,6.14587e-02,-9.88703e-02,2.06697e-02,1.93562e-02,-2.81868e-02,-1.29849e-01,4.12439e-02,5.63178e-01,-2.82150e-02,-7.95964e-02,
-7.42560e-02,-1.19857e-01,-1.96807e-01,-9.48090e-02,-4.17329e-02,4.03738e-02,-5.74308e-02,4.30431e-02,1.10456e-01,-4.65318e-02,1.82650e-03,1.92666e-02,3.48746e-01,-2.95485e-01,9.23314e-02,1.80398e-02,1.14028e-01,1.47745e-01,1.29349e-02,-9.95681e-02,-8.73403e-02,-4.67786e-02,9.35556e-01,-1.33831e-03,-1.04557e-01,
-2.30459e-03,-1.39068e-01,-8.52326e-02,-5.46466e-02,-3.16625e-01,-2.46865e-02,-9.26594e-02,-3.09475e-02,-9.80807e-03,-1.80333e-03,-2.41346e-02,1.84228e-02,2.80804e-01,-2.58329e-01,6.91098e-01,2.07553e-02,-2.54992e-02,1.48270e-01,-2.85563e-02,-3.75166e-02,-1.84823e-01,-1.51940e-02,-1.38939e+00,-4.50804e-03,-4.71737e-02,
-1.14020e-01,-1.26408e-01,-2.29195e-01,-1.19986e-01,-1.52756e-02,7.54191e-02,-2.96564e-02,1.08986e-01,1.66454e-01,1.40570e-01,-3.03203e-02,-4.63969e-02,1.97553e-01,-3.16951e-01,2.71193e-02,-5.37973e-02,2.22854e-02,-3.12829e-01,-1.89125e-01,1.43192e-02,-1.11004e-01,-1.31440e-02,1.30901e+00,1.22867e-01,-7.17295e-02,
-2.75719e-02,-1.57182e-01,-1.37675e-01,-7.83233e-02,-1.36445e-01,1.15861e-02,-7.80561e-02,-7.13589e-02,3.63382e-02,-8.62743e-02,3.47925e-02,2.68759e-02,2.28240e-01,4.04184e-01,3.54539e-01,5.15506e-02,-6.05023e-02,1.66051e-01,2.59566e-02,-1.55292e-02,-1.29060e-01,1.84212e-02,5.25696e-01,-3.45101e-02,-8.74580e-02,
-1.37382e-01,-9.95703e-02,-1.66553e-01,-1.54486e-01,3.09466e-03,1.77572e-01,-4.82683e-02,4.80517e-02,9.21174e-02,-1.65273e-01,-3.90432e-03,4.08520e-02,2.92967e-01,9.92363e-03,-8.39993e-03,2.98870e-01,1.40811e-01,1.73068e-01,2.24921e-01,2.01776e-02,-5.92116e-02,-2.33740e-02,9.48374e-01,8.00490e-03,-1.24545e-01,
3.52452e-01,
2.77386e-01,
2.59205e-01,
-1.62733e-01,
-1.89918e-01,
2.75022e-01,
2.88734e-01,
-1.62719e-01,
1.95973e-01,
