// Neural Network File Format by Kyle Julian, Stanford 2016
6,4,9,25,
4,25,25,25,25,25,9,
0,
-8000.000000,-100.000000,-100.000000,0.000000
8000.000000,100.000000,100.000000,40.000000
0.000000,0.000000,0.000000,20.000000,-4.647677
16000.000000,200.000000,200.000000,40.000000,22.514692
-1.34069e+00,-9.26624e-01,-9.82890e-02,-2.13736e-03,
3.38022e+00,1.27534e-01,-7.77411e-02,-2.51634e-01,
3.44131e+00,-9.25581e-02,7.32339e-02,2.71252e-03,
-3.71058e+00,4.23830e-02,6.25770e-03,2.18121e-02,
1.63228e+00,-3.77482e-01,6.15138e-01,1.07535e-01,
-2.15581e+00,2.60192e-01,-3.04574e-01,-1.88067e-02,
2.84302e-02,-3.06002e-01,-2.43940e-01,-2.39188e-01,
-2.92195e-01,-3.33287e-01,-3.51907e-02,3.36871e-02,
3.73475e+00,2.28955e-02,-5.90867e-03,-2.95237e-03,
-1.79394e+00,1.46559e-01,-9.12790e-02,3.72139e-01,
1.16883e+00,-3.44031e-01,6.15600e-01,-9.12879e-03,
5.22823e-03,3.22179e-01,3.79014e-01,-1.14293e-02,
-2.38977e+00,1.10612e-01,5.23785e-02,-2.87569e-01,
-2.05347e-01,-1.17356e+00,1.11053e-02,-1.27558e-02,
1.25180e+00,-3.89549e-01,6.00376e-01,-2.59686e-01,
-7.45551e-02,-1.42293e-01,2.65495e-01,3.90633e-01,
9.05882e-01,1.25129e-01,-1.10820e-01,1.79403e-01,
9.59443e-01,1.92949e-01,-2.33379e-01,3.71450e-01,
-7.58155e-01,6.59429e-02,-9.88247e-02,-8.33103e-01,
-1.05581e+00,1.00430e-02,1.97438e-02,5.82947e-01,
3.88684e-01,9.62451e-01,-2.05192e-01,-3.26170e-02,
9.21767e-01,1.70716e-01,-6.13040e-01,5.35668e-02,
3.06423e-01,6.44775e-02,-9.62948e-02,4.15958e-01,
1.96726e-01,7.83456e-01,-3.99539e-02,3.46852e-01,
2.28964e+00,-1.27512e-01,8.65159e-02,-6.54059e-01,
8.33681e-02,
-4.22131e-02,
2.32994e-01,
1.75331e-01,
7.66397e-02,
4.16243e-02,
-4.12498e-01,
1.74026e-01,
1.44575e-01,
-9.47390e-03,
2.35714e-01,
2.15359e-01,
1.52385e-02,
-1.83854e-01,
-1.36509e-01,
1.55477e-01,
2.27111e-01,
1.05423e-01,
-8.57282e-02,
2.80706e-01,
-2.06456e-01,
-3.63283e-02,
1.89046e-01,
3.07743e-02,
-1.21689e-01,
1.94313e-02,-1.24928e-01,2.45208e-02,4.01251e-01,1.35676e-01,3.78585e-04,2.83638e-01,-3.81940e-02,8.98237e-01,1.60072e-01,-4.30538e-01,-2.58083e-01,-2.58916e-02,-1.47802e-01,1.58413e-01,2.72607e-01,5.63322e-01,-1.34990e-01,-2.27801e-01,-7.96987e-02,1.06161e-01,-7.33919e-02,-7.34988e-01,-9.08333e-02,4.00446e-01,
2.51384e-01,-9.08930e-01,-1.62192e-01,5.77342e-01,-5.44294e-01,-4.59355e-01,-1.51302e-01,9.93316e-02,-3.68672e-01,-4.50086e-02,-4.09215e-02,-2.20038e-01,2.48144e-01,-5.15119e-01,4.40240e-01,-4.56927e-01,8.80663e-02,5.65423e-01,-1.09466e-01,-8.65815e-01,2.76762e-01,-1.15239e-01,-1.50187e-01,4.60886e-01,-2.42966e-02,
2.51946e-03,-4.15333e-02,1.47344e+00,-6.93286e-01,7.38148e-02,1.17063e-01,-3.06584e-01,-3.38670e-01,-1.98893e+00,1.12876e-03,2.42029e-02,-7.00704e-02,-8.62116e-02,2.88128e-02,-1.65690e-01,2.76660e-02,4.09522e-01,8.38270e-02,-8.87868e-04,-2.50815e-01,-8.07536e-02,-5.34177e-03,1.26968e-01,-6.22668e-02,-5.62570e-02,
-1.31629e-01,-3.67683e-01,-4.42679e-02,2.36177e-01,-6.18696e-01,2.53522e-01,1.91707e-01,1.64210e-01,-2.52190e-02,-4.36533e-01,1.22083e-02,2.43470e-01,5.85232e-01,2.57624e-01,-1.70876e-01,-6.91921e-02,-2.66722e-01,1.39963e-01,3.79353e-01,-2.87334e-01,-2.22979e-01,8.33385e-02,2.48885e-01,2.48210e-01,-2.12404e-01,
-2.84470e-01,-1.37532e+00,2.13218e-01,3.15260e-01,-3.91125e-01,3.14221e-01,-2.43666e-01,1.98130e-01,5.01203e-02,-7.00913e-01,-7.62229e-02,-5.04254e-02,4.94099e-01,2.16676e-01,4.32817e-01,-2.08396e-01,2.21095e-01,2.85795e-01,-6.99212e-01,-5.01605e-02,-1.18779e-01,3.08810e-01,3.27553e-01,4.41014e-01,-4.82483e-01,
6.16656e-01,-5.77580e-02,3.24658e-02,-2.10075e-02,2.42021e-01,-7.48437e-01,8.21404e-02,-1.10875e-01,1.32259e-01,6.70355e-01,1.96204e-01,-7.11880e-03,1.42236e-01,-3.29451e+00,-5.19948e-01,9.21587e-02,-4.07972e-01,3.14588e-02,7.07806e-02,-4.22643e-01,3.97525e-01,-3.20793e-01,-5.11815e-03,-1.40664e-01,-7.24314e-02,
2.73977e-01,-9.07044e-01,4.02618e-01,-3.51159e-01,1.35651e-01,1.05947e+00,2.92083e-02,-2.56278e-01,1.62538e-01,-7.88909e-01,7.99447e-01,-6.38610e-02,5.49548e-02,-1.67365e-01,-9.41349e-01,-4.66796e-02,2.23045e-01,-1.36507e-01,-1.32495e-01,-7.24400e-02,2.58258e-01,-1.39917e-01,-2.64621e-02,-2.73227e-01,1.59707e-01,
-2.07431e-01,3.60082e-03,2.85684e-01,-1.80927e-01,-2.57169e-01,5.13955e-01,-2.02901e-01,5.86374e-03,-9.17436e-02,-3.96806e-01,-6.33881e-01,-3.09313e-02,8.61479e-02,-1.44499e-01,1.04983e+00,-3.22425e-01,7.56395e-01,-3.27199e-02,7.09424e-02,2.85409e-01,3.95468e-01,-7.48006e-01,-5.79737e-02,2.68201e-01,-2.23475e-02,
3.33655e-01,1.24692e-01,5.91442e-02,-9.70437e-01,-7.18508e-01,-1.08609e+00,-1.02533e-01,-2.13702e-02,9.88702e-01,1.18419e-01,3.69027e-01,-1.48441e-01,1.29676e+00,-2.24316e-01,3.79035e-02,9.12638e-02,3.79819e-01,-8.11346e-01,1.05011e-01,8.47350e-01,5.74118e-01,1.06612e-01,-4.62933e-01,-4.37839e-01,3.92304e-01,
8.46572e-01,2.62699e-02,1.09850e-01,-4.21286e-01,-3.76690e-01,-2.72007e-02,-4.29087e-02,1.38926e-01,2.32215e-01,3.22823e-01,-3.06996e-02,2.39166e-02,-5.92611e-02,-2.38400e-01,-5.48472e-02,-2.22705e-04,-6.20118e-02,-1.30970e-01,4.65822e-01,-4.47886e-02,-1.30269e-01,-4.07641e-01,-7.97363e-02,-1.96840e-01,-1.20044e-01,
-1.57966e+00,2.05025e-01,-2.12060e-01,-2.33287e-01,4.51696e-01,7.88268e-01,1.62325e-01,3.87493e-01,4.77406e-01,2.71709e-01,3.44097e-02,2.21846e-02,1.83267e-01,1.14789e+00,3.29024e-01,-1.20426e-01,-3.32431e-02,-5.69063e-02,-2.27982e-02,2.32438e-01,-1.04316e+00,-1.12553e-01,-6.20806e-02,-1.43748e-01,2.33778e-01,
8.84441e-02,5.98477e-01,6.21095e-01,-2.98374e-01,-3.17133e-01,-3.71711e-01,1.00170e-01,2.78722e-01,-8.87557e-03,-3.97228e-01,7.35517e-02,1.50937e-01,-2.21299e-02,-4.83790e-02,-1.55674e-01,1.53287e-01,1.45266e-01,1.99591e-01,4.97146e-02,4.45606e-01,3.35168e-01,1.94705e-01,-6.26106e-01,2.35600e-02,-9.42120e-02,
2.99170e-01,-1.10914e-01,5.81976e-02,4.30420e-01,4.35274e-01,-4.77455e-01,2.25603e-02,2.41503e-01,2.53095e-01,-2.54069e-01,5.46493e-01,2.64686e-01,-5.82190e-01,1.89824e-01,-5.85986e-01,3.56228e-01,1.15664e-01,-4.32612e-01,-3.39771e-01,3.54533e-02,-1.13337e-01,1.89211e-01,-4.38007e-01,1.19478e-01,-4.08716e-01,
1.43132e-01,-7.17507e-01,1.26517e-01,2.85099e-01,-4.91303e-01,3.99087e-01,1.99288e-01,1.08345e-02,-5.11274e-01,-4.61074e-01,-3.95829e-01,-6.21738e-01,2.63056e-01,-3.94984e-01,6.48174e-01,-3.71988e-01,3.79490e-01,3.86398e-01,4.39812e-01,-3.39482e-01,6.68825e-01,-2.14912e-01,3.24481e-01,-4.35287e-02,-3.66215e-01,
5.23443e-01,-5.10284e-01,2.40825e-01,-3.10829e-01,-2.95109e-01,3.32865e-01,2.56293e-01,-4.36614e-01,-3.09206e-01,-3.29611e-01,-4.97158e-01,2.33601e-01,8.70846e-01,-2.90278e-01,-5.68832e-01,-4.71519e-01,3.45835e-01,4.38914e-01,-3.19585e-01,1.15386e-01,7.30235e-01,2.71445e-01,1.78217e-01,9.98691e-02,1.85293e-02,
-2.95257e-01,6.20890e-01,-1.18990e-01,-2.84206e-01,4.30693e-01,4.74051e-01,2.46109e-01,1.22525e-01,-1.16955e-01,-1.78113e-01,1.29833e-01,1.10723e-01,-1.48666e-01,2.09240e-01,-6.28262e-01,1.81019e-01,3.31844e-01,4.33296e-02,-3.54797e-02,1.80532e-01,-7.61716e-01,-7.51560e-01,-2.41875e-01,4.05459e-01,-2.63331e-01,
2.93244e-01,-1.11712e-03,-2.94751e-01,-6.87677e-01,-2.09629e-01,1.37881e-02,-3.16155e-01,-3.06208e-01,4.07458e-01,5.86845e-01,2.53923e-01,4.07699e-01,4.18119e-01,-9.42150e-02,-8.69571e-02,-2.11749e-01,1.10917e-01,-9.74393e-02,3.28131e-01,-1.45096e-01,-5.16718e-01,7.53903e-02,1.37248e-01,-3.04439e-01,2.59646e-01,
-2.73239e-01,-2.01205e-01,-8.75801e-02,-2.19327e-02,1.97845e-01,2.42794e-01,3.02988e-01,3.05483e-01,1.51012e-01,7.23972e-02,-3.22004e-01,-5.71219e-02,-1.62646e-01,8.71569e-04,-2.91442e-01,-1.54385e-01,-3.29732e-01,5.10616e-02,8.42620e-02,2.92941e-01,-3.05898e-01,2.21051e-01,-2.73998e-01,-5.93208e-02,-1.32908e-01,
-2.81336e-01,-2.67019e-01,-8.77343e-02,-2.41077e-02,-1.83968e-01,1.28893e-01,-2.34616e-01,-2.31973e-01,-5.63613e-02,-2.65530e-01,7.64228e-02,-3.93660e-02,-7.08760e-02,2.16569e-01,9.78512e-02,-3.36775e-01,-2.34961e-01,-2.81510e-01,-2.58059e-01,8.14861e-02,1.22148e-01,1.08570e-02,-1.17859e-01,-1.69660e-01,2.13104e-01,
4.82211e-01,6.07904e-02,3.82447e-02,2.83090e-02,2.87137e-03,4.38943e-01,-1.03774e-01,-5.15189e-01,2.53997e-02,-1.89647e-02,-3.61019e-01,9.43644e-01,-1.04116e-01,4.40108e-02,2.74613e-03,-3.69479e-01,3.60990e-01,-4.16667e-02,1.75867e-01,-8.64442e-02,2.04604e-01,-5.17692e-01,1.06116e-01,3.36355e-01,2.23538e-01,
4.85856e-01,-8.49173e-03,2.73201e-01,-6.56856e-01,-2.89996e-01,8.53110e-01,1.56254e-01,-6.80342e-01,8.06292e-02,2.50464e-01,4.84132e-01,2.87772e-01,3.41647e-02,-3.18546e-01,-3.78883e-01,1.03449e-01,-4.06540e-02,-5.46055e-01,1.46203e-01,-1.02726e-01,-3.64852e-01,6.39157e-01,-4.08517e-01,3.29484e-01,-7.53003e-01,
2.67525e-01,3.78786e-01,-5.32771e-01,-5.45028e-01,4.36638e-01,1.14788e+00,-4.10594e-02,-3.53481e-01,2.90713e-02,-1.15439e-01,-2.50756e-01,2.20007e-01,2.70066e-01,-8.18810e-02,-6.61608e-01,6.90778e-02,2.43563e-01,-7.48598e-02,2.03591e-01,1.15290e-04,7.40204e-01,3.25238e-01,1.18059e-02,-2.52040e-01,1.39598e-02,
1.08691e-01,3.54039e-01,-5.12208e-01,-7.46047e-01,2.69298e-01,1.74760e-01,8.05404e-02,2.05768e-01,4.10082e-01,3.60334e-01,1.66213e-01,-5.23179e-01,-1.46806e-01,-4.03019e-01,2.71422e-01,1.87114e-02,2.05839e-01,-3.33518e-01,-5.81794e-01,1.41317e-01,-3.11273e-01,-1.46077e-01,1.67793e-01,4.10809e-01,1.73827e-01,
4.08810e-01,4.52681e-03,8.31986e-02,7.07819e-01,3.14219e-01,1.47824e-01,-1.61129e-01,6.81303e-02,-5.23257e-01,1.31810e-01,1.23759e-01,9.40707e-02,1.13893e-01,-3.93245e-01,-2.95642e-01,-3.15437e-01,6.65807e-02,6.21820e-02,3.24861e-01,-3.55113e-01,-2.33063e-01,3.27045e-01,3.87072e-01,-6.26377e-02,-2.92198e-01,
-4.08161e-01,-2.07119e-01,4.59110e-01,-9.35535e-02,-6.11141e-02,-4.95609e-01,2.47733e-01,-7.85150e-03,9.41060e-02,1.11394e+00,3.65231e-01,2.19040e-01,-1.47472e-01,5.74228e-01,-3.12842e-01,-2.58011e-01,-9.87573e-02,-3.68692e-02,1.06559e-01,-3.99314e-01,-9.12593e-02,2.45150e-01,-3.63179e-01,6.77705e-01,7.00951e-01,
1.12941e-01,
4.86173e-01,
1.55969e-01,
3.48844e-01,
1.53627e-01,
2.22945e-01,
-1.39101e-01,
6.24818e-02,
-2.73767e-01,
1.88643e-01,
1.71316e-02,
7.35385e-02,
-6.10293e-04,
2.46773e-01,
1.89158e-01,
2.04315e-01,
1.56487e-01,
-3.31496e-01,
9.83901e-02,
-3.54470e-02,
2.28729e-01,
1.84591e-01,
1.71537e-01,
6.72223e-02,
2.79966e-01,
-7.64249e-02,-4.49708e-01,5.47056e-02,-5.81041e-01,2.17097e-01,5.77369e-02,1.64812e-01,1.68334e-01,1.68365e-01,-6.54844e-02,1.38334e-01,3.27881e-01,4.09061e-01,5.57879e-01,-8.66100e-02,2.18908e-01,3.41868e-02,-2.48976e-01,-1.38347e-01,-7.41246e-02,4.55098e-01,-1.64061e-01,-3.92492e-02,-7.41359e-03,5.26618e-02,
-3.28980e-01,4.65577e-01,2.96099e-01,4.27389e-01,-5.10589e-01,-8.08152e-02,3.85098e-01,-8.41611e-02,-9.32453e-01,1.45343e-01,1.99197e-01,-1.60485e-01,-5.10495e-01,1.50265e-01,8.36231e-02,-5.69592e-01,5.89861e-03,3.63544e-02,-1.47938e-01,5.41375e-01,-2.28819e-01,2.89585e-01,5.51518e-01,7.96631e-02,-2.50313e-02,
-7.43255e-02,-1.75920e-01,4.79058e-01,2.10583e-01,1.97205e-02,-8.71007e-01,-2.23563e-01,-2.90724e-01,2.86474e-01,3.35154e-01,2.84904e-01,-2.28325e-01,1.30439e-01,-3.72483e-01,-9.88504e-02,8.14776e-02,1.17000e-01,-2.68987e-01,3.05804e-01,-8.35126e-04,8.24079e-02,3.77141e-01,-2.81014e-01,4.65287e-02,3.26918e-01,
1.87603e-01,1.41760e-01,-9.03640e-02,-3.00454e-01,-1.62134e-01,-9.71573e-01,-1.91190e+00,3.45444e-01,7.79451e-02,1.00753e-01,2.19805e-01,2.42766e-01,-1.02698e+00,-1.30917e+00,1.05764e-01,1.05869e-02,-4.78194e-01,1.04649e-02,3.36546e-01,-4.78870e-01,1.00678e-01,2.23509e-01,-1.73891e-01,-7.94485e-01,9.05606e-02,
1.06387e-03,4.43676e-01,8.27888e-01,-2.57031e-01,-1.45031e-01,-2.58380e-01,4.36466e-01,5.67614e-01,6.35231e-01,4.77503e-01,-4.03777e-01,1.98657e-01,2.34940e-01,-1.23443e+00,-5.77263e-01,8.51543e-02,7.79440e-02,1.61551e-01,-2.70743e-01,1.53197e-01,-3.41366e-01,-5.64716e-01,-5.70549e-01,-5.48927e-03,6.25001e-01,
-2.75284e-01,8.87387e-03,1.72614e+00,-2.62063e-01,2.23866e-01,2.27162e-01,2.19099e-01,1.47193e-01,8.75021e-03,-3.75435e-01,3.12396e-02,1.49357e-02,1.86860e-01,-1.55665e-01,-5.22658e-01,-4.00163e-01,1.82752e-01,2.30998e-02,-3.10396e-01,1.14911e-02,2.57150e-01,1.76135e-01,-1.14051e-01,-1.82763e-01,2.35263e-01,
3.10958e-01,3.39299e-01,-6.64353e-02,-1.92244e-02,-2.92148e-01,2.24921e-01,4.16023e-01,1.19075e-01,-2.39575e-02,1.40127e-01,-2.40508e-01,4.09335e-02,-1.55089e-01,-1.56821e+00,-5.70137e-01,4.04334e-01,-4.71776e-02,3.27495e-01,1.82436e-01,3.23308e-02,-5.58952e-02,-3.54757e-01,-6.72666e-01,-3.92636e-01,5.13959e-01,
-1.24385e-01,-3.49928e-01,1.84315e+00,2.71496e-01,4.77428e-01,-3.29626e-01,-3.40609e-01,1.56579e-01,5.13010e-01,-1.36262e-01,5.56282e-01,-3.41763e-02,9.49865e-03,2.54041e-02,-1.86880e-01,-1.12848e-02,4.59953e-02,1.87511e-01,-2.56485e-02,-4.48948e-03,2.77900e-01,2.27104e-01,-8.24995e-02,-1.79285e-01,7.40992e-02,
-3.21458e-01,2.48438e-02,1.07506e+00,1.78503e-01,-1.73048e-01,6.10748e-01,-2.02437e-01,3.15002e-01,-1.36981e-01,-3.18650e-01,2.12298e-01,1.16699e-01,-8.71224e-02,-9.50941e-02,-4.67212e-01,-4.01503e-02,-5.26398e-03,3.23105e-02,9.69402e-02,6.36379e-02,-3.36456e-01,3.05774e-01,-3.09278e-01,8.74978e-02,2.47443e-01,
-2.27060e-01,-1.20015e+00,5.42582e-01,-3.26222e-01,2.01723e-01,6.22642e-01,7.99459e-01,3.93496e-01,-9.08365e-01,2.45209e-01,1.99777e-01,2.97630e-01,-7.71244e-01,-3.11350e-01,8.69570e-02,5.47885e-02,5.36897e-01,-9.80123e-02,-1.90208e-01,-3.24773e-01,5.44290e-01,6.05320e-01,5.74292e-01,-1.48090e+00,1.98807e-01,
5.16842e-02,-7.31853e-01,1.70247e-01,-1.51970e-01,-4.08538e-02,1.51301e-01,-3.79250e-01,2.81776e-01,7.59559e-01,-6.29968e-02,-1.23878e-01,-2.05968e-02,1.02061e-01,3.73152e-01,3.28257e-01,3.42726e-01,-4.80997e-01,-4.54234e-02,-3.28985e-01,-1.99698e-01,-1.95363e-01,-6.36723e-02,-2.07634e-01,-7.73290e-02,-3.21372e-02,
4.52293e-02,-1.94167e-01,8.35738e-01,-6.13782e-02,3.79766e-02,1.47211e-01,-3.53430e-01,-6.30381e-02,-4.79754e-01,-4.79429e-02,1.90565e-01,-1.92480e-01,-2.98617e-01,3.57504e-01,5.34591e-01,2.36820e-01,-1.71350e-01,1.62444e-01,2.09901e-01,3.40198e-01,-5.32817e-02,2.78947e-01,1.11012e-01,2.04335e-01,-6.26613e-01,
-4.71885e-01,6.23678e-01,6.63431e-01,4.66151e-01,-9.13719e-02,1.38376e-02,2.73202e-01,-4.53937e-01,-2.06530e+00,2.76577e-02,-2.56166e-01,-4.06680e-01,-4.68652e-01,1.87028e-01,2.13174e-01,-2.98987e-02,1.02245e-01,1.30195e-01,1.34743e-01,2.27362e-01,-5.11050e-01,-2.04985e-03,3.25007e-01,-1.93274e-02,2.02851e-02,
-7.02305e-01,4.71763e-01,-6.54687e-01,2.40811e-01,-3.90316e-02,3.71718e-02,2.24620e-01,-3.89242e-02,-8.77114e-01,3.81506e-01,1.10697e-01,-7.56415e-01,-4.85717e-01,5.55747e-02,1.12688e-01,-2.65813e-01,1.83060e-01,1.23585e-01,2.15370e-01,1.56232e-01,-1.19026e-01,-1.04669e-01,1.81094e-01,1.46058e-01,9.58211e-02,
-5.41583e-01,-1.35987e-01,1.52463e+00,3.36324e-02,5.33345e-01,6.24683e-02,-3.61845e-01,-3.27901e-02,-2.62158e-01,2.74826e-01,-4.29762e-01,-6.00238e-01,-5.21696e-01,-7.85492e-02,3.45586e-01,-5.05527e-01,3.97578e-02,1.22862e-01,1.28917e-01,2.86435e-01,-1.13019e-01,3.21617e-01,5.82660e-01,2.41061e-01,2.15764e-01,
-2.62814e-01,7.43697e-02,2.41331e-02,-5.75184e-02,1.73669e-01,2.30917e-01,1.48153e-01,9.28926e-02,-3.30209e-02,1.78257e-02,-9.98357e-02,4.14562e-02,-2.02928e-01,-9.06791e-02,-1.00365e-01,2.84524e-01,-2.99563e-01,-7.39561e-02,-8.91877e-02,-2.24012e-01,1.00230e-01,-7.27666e-02,2.26115e-01,2.36289e-01,-1.38022e-01,
2.78599e-01,-1.98668e-01,-1.09450e-01,1.11787e-01,-3.69711e-02,-6.90662e-02,5.24945e-02,-1.26409e-01,-2.00343e-01,-1.31364e-01,-2.95177e-01,-2.30770e-01,-1.81117e-01,-1.94444e-02,-3.01190e-01,-1.89018e-01,3.40005e-02,-3.78890e-02,5.58729e-02,-6.21707e-02,5.79837e-02,1.02508e-02,-1.92532e-01,-9.02136e-03,1.71920e-01,
-8.72942e-02,-7.29433e-01,7.40276e-01,-2.34045e-01,5.30867e-02,-2.36594e+00,-1.13760e+00,1.97076e-01,-6.19136e-01,1.34987e-01,9.67388e-01,3.52021e-01,-6.79543e-01,-4.60697e-01,-5.32559e-01,-8.26836e-02,3.68879e-01,2.87602e-01,6.34885e-02,-2.39033e+00,-1.66888e-02,-3.49230e-01,-1.19573e-01,2.51952e-01,-3.43355e-01,
9.03417e-02,7.68444e-01,1.14255e+00,2.42162e-01,-6.73134e-01,-7.47179e-02,4.21279e-01,6.78148e-02,-5.56477e-01,2.12386e-01,2.89819e-01,2.27305e-01,-2.38021e-01,-3.28800e-02,1.56766e-01,-6.85377e-02,1.25720e-02,-2.36709e-02,1.13140e-01,-3.11906e-01,-1.95714e-01,-1.46762e-01,1.41761e-02,1.64121e-01,7.13332e-02,
-3.47410e-01,-1.46105e-02,6.95147e-01,-4.02516e-01,5.48359e-03,-6.27505e-01,1.37825e-01,4.12746e-01,6.66059e-01,6.96042e-02,-4.50110e-01,3.80106e-01,8.91466e-02,7.32369e-01,-1.44623e-01,-4.47680e-01,4.44948e-03,-1.01493e-01,2.50644e-01,-4.40803e-01,-9.94910e-03,-5.34283e-01,-5.31185e-02,1.41437e-01,1.47648e-01,
5.29401e-01,-8.71147e-02,-3.31460e-01,1.13917e-01,-2.76637e-01,6.44157e-02,-6.81822e-02,-1.84838e-01,-8.30755e-01,-7.30775e-02,-5.47661e-01,2.99297e-01,-6.53573e-02,1.23801e-01,1.24320e-01,2.00728e-01,4.51717e-01,-2.15403e-01,2.45899e-01,1.85071e-01,-2.81113e-01,-3.51538e-01,-1.13139e-02,-3.27862e-01,-3.99286e-02,
-9.39575e-02,6.56861e-01,-7.12726e-01,9.61256e-02,-2.89406e-01,-2.30769e-01,2.86212e-01,-3.02407e-01,-8.92613e-03,3.16283e-01,-1.68188e-02,6.07491e-02,6.11503e-02,-1.76810e-01,-7.43470e-02,3.59081e-01,3.86559e-01,2.68216e-01,-5.54542e-02,3.13678e-01,4.83346e-01,2.81780e-01,3.90840e-02,3.94196e-02,2.92546e-01,
9.95043e-02,-3.50754e-02,-1.23337e+00,-1.83157e-02,3.03793e-01,1.18147e-01,2.48155e-02,-5.69967e-01,-1.39647e-01,-3.91096e-02,2.04462e-02,-7.19107e-02,-5.85317e-01,5.70073e-01,3.75864e-01,1.07666e-02,-2.87161e-01,-1.36312e-01,7.15576e-02,-1.69641e-01,-5.43986e-01,1.13098e-01,4.16737e-01,-2.71233e-02,-1.76517e-01,
4.21831e-01,-1.34121e-01,2.96517e-01,3.86868e-01,-1.87168e-01,5.60324e-02,-5.41357e-02,1.57568e-01,5.30695e-01,6.43277e-02,-1.11013e-01,-2.42559e-01,-1.93007e-01,-2.02295e-01,-1.33637e-01,-1.19930e-01,1.20437e-01,-2.70831e-01,2.84645e-01,1.70632e-01,-1.31698e-01,4.41780e-01,2.70039e-01,1.33494e-01,-2.84703e-01,
-7.39735e-02,-8.61036e-02,1.62974e+00,3.22299e-01,2.69181e-01,-2.46465e-02,-2.40280e-01,1.41658e-01,-6.19397e-02,-1.80963e-01,4.66262e-01,1.89639e-01,-2.63621e-01,3.39375e-01,5.30883e-02,-1.25403e-02,-2.72071e-01,1.10875e-01,2.16913e-01,-4.02424e-02,2.41156e-01,7.43624e-02,8.96975e-03,-7.62389e-02,1.58303e-01,
6.86509e-02,
7.95697e-02,
-5.93702e-04,
1.62308e-02,
-2.73915e-01,
2.59010e-01,
1.00009e-01,
-2.84322e-01,
2.58780e-01,
-4.98633e-01,
1.02639e-01,
2.62446e-01,
-2.43586e-02,
-5.00314e-02,
-3.62839e-01,
-3.32830e-01,
-9.62857e-02,
4.08914e-01,
1.58847e-01,
2.60951e-02,
2.48759e-01,
-1.33827e-01,
2.45072e-01,
2.25587e-01,
9.27127e-02,
-2.66790e-01,-9.93247e-02,-5.70140e-02,-2.61695e-01,9.49024e-02,-8.74363e-01,-3.62826e-01,-4.41516e-01,-6.15897e-01,1.39813e-01,3.15708e-01,-2.36170e-01,1.77368e-01,1.96770e-01,1.61956e-01,3.31244e-01,2.36617e-01,-2.42198e-01,5.78810e-03,-2.44486e-01,-7.65631e-02,-8.40776e-02,-1.65242e-01,-2.27361e-01,-2.83863e-01,
-2.21185e-01,2.14514e-01,4.72999e-02,-1.80237e-01,4.63105e-01,2.83627e-03,-4.75026e-01,-1.32179e-01,1.06389e-01,1.56877e+00,-4.48893e-02,-1.62034e-01,-2.72504e-01,-2.03596e-01,-2.79377e-01,-2.70696e-01,-1.44769e-01,-2.60560e+00,-2.06642e-01,7.76629e-02,5.76360e-01,5.31670e-01,5.87938e-01,-1.32157e-01,6.59344e-02,
-5.99533e-01,5.70057e-02,9.29562e-02,-2.31858e-02,-6.25553e-01,-2.70395e-01,4.08287e-01,1.76331e-01,2.25950e-01,-1.28317e+00,1.94705e-01,-2.47401e-01,-6.50349e-01,3.76248e-01,3.00908e-01,-2.48015e-01,-4.31127e-02,-1.43488e-02,6.46400e-02,5.92976e-01,-7.42681e-01,1.79588e-01,1.93964e-02,-5.46502e-01,7.85200e-03,
-1.89613e-01,-4.95919e-01,1.78274e-01,-2.90647e-01,1.62998e-01,5.46485e-02,-3.62057e-01,-1.32439e-01,1.14850e-01,4.65826e-01,4.20782e-01,-4.74654e-01,-2.04581e-01,-2.16335e-01,-5.65186e+00,2.82579e-01,1.09298e-02,1.16067e-01,5.61581e-01,-2.63484e-01,-8.65162e-03,2.72847e-01,-9.58611e-02,4.62146e-02,2.39313e-01,
2.63061e-01,-5.78328e-01,3.78484e-01,-2.52198e-01,3.00210e-01,3.07912e-01,1.06377e-01,-4.75557e-02,2.35813e-01,-3.50249e-01,3.56724e-02,-4.15842e-01,-2.31333e-01,2.22487e-01,-8.86599e-01,-1.18057e-01,1.50679e-01,6.03531e-02,1.75407e-01,-1.23330e-01,1.37141e-01,-1.61923e-01,4.68838e-01,-1.29485e-02,-4.40882e-01,
-1.01535e-01,1.05235e-01,1.88252e-01,-2.90721e-01,-6.89684e-02,-2.53663e-01,-3.38477e-01,-2.46698e-01,1.94114e-01,-3.74593e-02,2.43120e-01,6.62826e-02,-1.23178e-01,-2.15302e-01,2.80744e-01,2.24009e-01,-2.64870e-01,2.80803e-01,-1.19964e-01,1.58273e-01,-4.14616e-01,-2.51450e-01,-2.86482e-01,-3.83341e-02,-6.42583e-02,
-1.46569e-02,2.59914e-02,-1.46650e-01,-4.28768e-01,-2.72643e-01,-5.91154e-02,3.23337e-01,3.78966e-02,4.86646e-01,3.58986e-01,-4.22050e-01,-3.48039e-01,-2.35295e-01,-4.71912e-02,2.31897e-01,-1.39792e-01,-8.13036e-02,5.71016e-02,2.89554e-01,5.48184e-01,2.63390e-01,1.42818e-01,1.55098e-01,3.91800e-01,-1.43954e-01,
2.76387e-01,1.18708e+00,5.16610e-01,-1.90399e-01,3.47807e-01,1.26838e-01,-1.12714e-01,2.17185e-02,2.45047e-01,-2.38376e-01,1.22188e-01,-1.60287e-01,-3.32604e-01,-1.25411e+00,-9.48554e-02,-3.27825e-01,8.51198e-02,-1.37101e-01,-4.28392e-02,3.71268e-02,3.08815e-02,-1.89511e-01,4.47270e-02,-2.60824e-01,-4.39458e-01,
-3.87090e-01,3.54932e-01,-2.54947e-01,2.90267e-01,-9.69167e-01,-2.95343e-01,-1.49150e+00,1.59836e-01,-2.39485e-01,-1.26669e-01,2.89728e-01,-2.13086e-01,-1.62314e-01,-3.24222e-01,1.84970e-01,3.26400e-01,-1.13720e-01,7.92988e-04,4.75421e-01,-2.04314e-01,1.00353e-01,6.11140e-02,-3.11201e-01,2.20868e-01,3.06090e-01,
3.66993e-02,-4.33599e-02,-2.73894e-01,2.12049e-01,1.61624e-01,1.98963e-02,-3.07561e-01,6.09612e-01,-2.50716e-01,1.30049e+00,6.01633e-02,-7.39998e-02,-2.56560e-01,6.02319e-02,4.85183e-02,6.27749e-02,1.20632e-01,-9.81870e-02,-2.57184e-02,-5.11498e-01,-1.77873e-01,2.66551e-01,6.05503e-03,2.57245e-01,-2.24650e-01,
-8.34070e-01,2.98204e-01,2.41038e-01,-2.90045e-01,-1.36383e+00,1.53472e-01,9.18413e-02,6.05237e-01,2.72837e-01,2.50981e-01,9.25867e-02,-4.25335e-01,-1.44438e-01,9.15694e-02,-1.48639e-01,1.48780e-01,2.22965e-02,-8.60242e-01,-2.70342e-01,-1.49696e-01,-3.70901e-01,3.65700e-01,5.70596e-01,5.61276e-01,-5.02068e-01,
1.92479e-01,-2.57642e-01,1.98115e-01,2.46669e-01,-3.49426e-01,-3.71993e-01,8.57346e-01,-3.20005e-01,1.38052e-02,7.10308e-01,-1.84972e-01,5.31215e-01,2.19793e-01,6.52961e-01,-3.41418e-01,3.30945e-01,2.56030e-02,-4.33347e-01,-1.25891e-01,-5.04347e-01,-4.41374e-01,-2.31790e-01,1.60991e-01,-3.42426e-01,2.35848e-01,
-8.81509e-02,-7.80694e-02,8.49051e-02,2.31637e-01,-1.76565e-01,3.40693e-01,1.91616e-01,-3.36344e-01,-3.11634e-01,-2.34694e-01,-2.21662e-02,-2.98277e-01,2.81365e-01,4.13307e-02,-3.45451e-01,-2.89757e-01,-2.30668e-02,-4.37312e-02,2.12513e-01,8.06151e-02,-3.02038e-01,7.31503e-03,-1.62581e-01,2.12406e-02,-3.25964e-01,
2.72836e-02,3.97324e-01,1.90900e-01,-4.09675e-01,1.04886e-01,-1.27692e-01,-4.70603e-01,1.44294e-01,-3.70791e-01,8.38551e-01,1.74065e-01,-2.05324e-01,-1.09602e-02,-2.51188e-01,-2.52540e-01,-1.69556e-01,2.65095e-01,-1.10367e-01,1.51114e-01,-2.24014e-01,-2.45296e-01,3.75532e-01,1.95583e-01,1.91524e-01,-8.29045e-02,
2.81593e-01,-8.75260e-01,1.21139e-01,-1.99357e-02,7.00647e-01,-3.73011e-02,-9.56234e-02,7.32578e-02,2.96678e-01,-5.98521e-01,-1.65767e-01,7.77572e-03,1.21097e+00,5.66969e-02,-2.85707e-01,2.42832e-01,3.16059e-01,-4.24029e-02,-1.89534e-01,-3.14840e-01,-1.95042e-01,-2.95877e-02,2.53176e-01,-3.03929e-01,-1.09274e-01,
-1.79461e-01,4.94751e-01,3.17153e-01,-1.80614e-01,1.70188e-01,4.44601e-02,2.54215e-01,2.79646e-01,3.14787e-01,9.01015e-01,3.82337e-02,-7.92518e-02,-5.09567e-02,-5.62402e-04,-1.17108e-01,-2.78776e-01,-3.28503e-01,-4.55690e-02,-1.17073e+00,-1.08410e-01,-1.00989e+00,-3.41324e-02,9.76561e-02,-1.28106e-02,1.03785e-01,
-7.59649e-02,-4.81861e-01,-5.44660e-01,-3.43674e-01,-3.68469e-02,2.89664e-01,2.54102e-01,-2.00631e-01,-3.47243e-01,-3.60799e-01,2.11745e-02,-7.88783e-01,9.20353e-01,6.50238e-02,1.07517e-01,1.76251e-01,8.59618e-03,7.03731e-03,1.49230e-01,5.07713e-01,1.90548e-01,-2.13832e-01,-7.92807e-01,5.59081e-01,1.14773e-01,
-1.60016e-01,-1.95791e-01,6.16687e-02,-2.81892e-01,-2.92247e-01,-5.76964e-01,2.30707e-01,4.39253e-01,-5.06224e-01,9.72353e-01,2.65571e-01,-3.21394e-01,3.72353e-01,1.43434e-01,-5.87634e-02,-9.89303e-02,-1.84867e-01,1.52217e-02,-1.63899e-01,-4.66882e-01,1.54127e-01,2.82047e-01,1.04782e-01,4.06755e-01,1.44854e-01,
-3.00298e-01,9.04663e-02,-2.51885e-01,-2.59862e-01,1.35984e-01,2.35890e-01,-1.36431e-01,-1.51877e-01,4.83767e-02,-1.26904e-01,1.73862e-01,-2.65635e-01,-9.58074e-02,-3.89630e-03,-1.93434e-01,-1.41646e-01,-2.54549e-01,1.75239e-01,-3.18387e-01,-1.53752e-01,3.64629e-02,-2.22767e-01,-1.49185e-01,-3.39907e-01,3.08533e-02,
-3.18954e-01,-3.07355e-02,2.48925e-01,-2.69388e-01,-1.86639e-01,8.46179e-02,1.82273e-01,-4.01244e-01,2.38046e-02,7.82262e-01,4.95026e-01,-3.20890e-01,-9.51216e-02,-3.40508e-01,2.25990e-01,-2.47705e-02,-7.67564e-02,1.30871e-01,4.13595e-01,-1.92851e-01,1.49570e-02,6.03818e-02,1.12442e-02,8.28933e-02,3.91124e-01,
1.19395e-01,6.16077e-01,1.27098e-01,-4.34187e-01,-1.08836e+00,-9.35572e-01,-1.27623e+00,-1.55672e-01,-4.53189e-02,1.62505e-01,2.10666e-02,9.37623e-02,7.82057e-02,-3.27459e-01,-1.97260e-01,-1.90168e-02,-2.00360e-01,-1.51623e-01,4.68327e-01,-5.85015e-01,-1.90452e-01,-2.44861e-01,-1.26820e-01,-1.08498e-01,2.76173e-01,
-2.49815e-01,-5.52712e-02,-6.14958e-02,2.72268e-02,1.53168e-01,-2.15961e-01,2.34238e-01,-2.51111e-01,1.35574e-01,-7.84468e-02,2.67629e-02,1.24219e-01,-3.82506e-02,-6.35634e-02,2.64269e-01,3.22268e-01,8.16632e-02,2.90533e-01,-3.07912e-01,-1.47106e-01,-3.47075e-01,2.53852e-01,9.71869e-02,-2.22348e-01,1.25242e-02,
3.01754e-01,-3.66969e-01,8.27397e-02,-2.15359e-01,3.24277e-01,-2.36774e-01,1.68640e-01,-9.31131e-02,1.32316e-01,1.37655e+00,-1.39395e-01,2.24282e-01,2.76423e-01,4.85111e-01,4.69989e-02,-1.32892e-01,2.84587e-01,-4.63118e-02,-9.15097e-02,1.30271e-01,-1.44585e-02,-1.99580e-01,-7.11573e-02,-5.53755e-02,1.35448e-01,
4.17211e-01,1.68479e-01,1.43784e-01,1.88831e-02,6.46152e-01,-4.25630e-02,7.03607e-02,-7.92334e-02,-7.88147e-02,-1.31367e-01,-5.60458e-02,4.27501e-01,1.05103e+00,-2.59234e-01,-6.19286e-01,-3.20485e-01,-4.50405e-02,-9.36415e-02,-2.97376e-01,-3.44189e-02,1.40448e-02,-4.61570e-01,-3.10312e-01,-4.78153e-01,-8.61654e-02,
3.03493e-01,-5.58057e-02,1.71859e-01,-2.95892e-01,2.82788e-01,3.74169e-01,-3.08372e-03,-5.68294e-01,-2.40327e-02,-1.18831e-01,-2.12463e-01,-1.96776e-01,6.37830e-02,1.01251e-01,-3.39454e-01,-3.42232e-01,3.20415e-01,-4.25276e-02,-2.48632e-01,1.17216e-01,-1.21018e-01,2.77175e-02,1.64940e-01,3.44885e-01,4.41072e-01,
3.41091e-01,
-1.55882e-01,
3.25499e-01,
-1.62071e-01,
-4.69566e-03,
-9.70796e-02,
1.57844e-02,
-1.49360e-02,
5.35094e-02,
1.96584e-01,
-1.45652e-01,
-9.11030e-02,
-2.09489e-01,
9.46133e-02,
-5.99699e-02,
-3.11331e-01,
-1.46072e-01,
-1.60440e-02,
5.33697e-02,
-1.32122e-02,
-4.74950e-02,
-3.62714e-01,
2.41140e-01,
3.38867e-02,
-1.23724e-01,
-2.58773e-01,2.47031e-01,-1.81439e-02,-1.99053e-01,-2.72788e-02,3.05509e-02,1.18009e-01,-4.07730e-01,7.40909e-02,2.95599e-01,-1.34033e-01,2.36183e-01,-3.96270e-02,4.60508e-01,3.64715e-01,-4.44117e-02,-1.87578e-02,-5.81128e-01,-2.94972e-01,4.14680e-01,-4.26006e-01,2.06295e-01,-1.81157e-01,2.50266e-01,-5.36981e-02,
5.17675e-01,4.13523e-03,-9.01537e-02,-3.50453e-01,-8.63529e-02,9.76996e-02,3.13311e-01,-3.48918e-01,2.79168e-01,1.41217e-01,-3.04906e-01,1.11212e-01,-1.60982e-01,-2.83537e-01,3.40070e-01,-6.56185e-02,2.98061e-01,3.25765e-01,-1.24318e-01,-5.86200e-02,-3.40229e-02,-1.73728e-01,-3.33039e-01,5.88509e-01,-4.87753e-02,
2.04715e-01,-1.55988e-01,2.90293e-01,3.90507e-03,1.97432e-01,9.87569e-02,-3.92621e-01,-3.80836e-01,1.29823e-01,5.75140e-02,-2.09852e-02,7.19889e-02,-3.22024e-01,1.92885e-01,2.12644e-01,-2.61542e-01,-7.71861e-02,-1.46866e-01,-2.07881e-02,-4.02020e-01,-1.39175e-01,7.92312e-02,-2.23250e-01,5.54560e-02,1.95547e-01,
1.76833e-01,4.25917e-01,5.18456e-01,-3.37529e-01,-3.01571e-02,-2.51750e-01,-4.35362e-01,4.28336e-01,2.86300e-01,-2.12393e-01,2.46616e-01,1.80568e-01,7.96468e-02,-1.26866e-01,1.99992e-01,-4.78617e-02,3.87673e-01,4.18294e-01,-1.48525e-01,-7.69935e-02,-3.13889e-01,1.13169e-01,-2.06578e-01,-5.73175e-01,1.90467e-02,
-1.24665e-01,2.25635e-01,-7.45968e-02,1.28600e-01,5.00052e-02,2.10179e-01,-1.65645e-01,1.93581e-01,-2.77603e-01,-9.34973e-02,6.23699e-02,-2.59550e-01,-2.35645e-01,-3.99392e-01,-2.76849e-01,5.52946e-02,-1.84578e-01,-2.40074e-02,1.25845e-01,8.55871e-02,4.18015e-01,6.70845e-02,4.14201e-01,-1.23891e-01,3.72169e-04,
3.36652e-01,-1.54520e-01,-2.04319e-02,2.32265e-01,6.31091e-02,7.67487e-02,-1.15770e-01,-2.48543e-01,3.33035e-01,-8.93559e-02,-2.05415e-01,2.12227e-01,1.13027e-02,-1.70720e-01,3.96520e-02,-3.66389e-02,3.25063e-01,-2.90998e-01,2.13460e-01,-3.06670e-01,-1.45437e-01,-9.06720e-02,-1.14934e-01,-2.38824e-01,-2.49603e-01,
-2.97737e-01,-9.72800e-02,-4.50266e-02,1.17604e-03,-6.23610e-02,-2.58291e-01,-1.21040e-01,-5.23131e-02,-1.48868e-01,-5.47975e-02,1.14648e-01,-6.11574e-02,2.58735e-01,1.11931e-01,-2.69964e-02,4.51546e-02,-5.25947e-02,1.61985e-01,-3.25721e-02,1.55648e-01,5.77595e-02,5.76361e-02,-4.83428e-02,-2.53149e-01,4.17288e-01,
1.49607e-01,9.16039e-01,-1.24583e-01,2.06328e-01,-9.64197e-02,3.68939e-01,8.40007e-02,9.75339e-02,-1.61955e-01,1.49950e-02,-1.20952e-01,3.14167e-02,-1.54634e-01,5.90010e-02,-3.34863e-01,1.65908e-01,-1.01185e-01,2.20323e-03,-3.19641e-01,-1.09623e-01,-2.23886e-01,2.89615e-01,-1.10253e-01,-2.92470e-02,2.09400e-01,
-4.73460e-01,6.70660e-02,-3.40627e-01,2.11435e-01,-4.12947e-02,1.87704e-01,5.91724e-02,2.04715e-03,-5.64932e-01,2.63099e-01,5.12555e-01,9.86207e-02,-2.54246e-01,-6.46182e-02,-4.15722e-01,8.62706e-02,-2.07443e-01,6.27173e-02,-1.29280e-01,5.73140e-02,2.23299e-01,-1.87281e-01,-3.68254e-01,-1.10811e-01,3.74766e-02,
2.85125e-01,-7.87807e-02,3.16578e-01,-3.27004e-02,-3.32477e-01,-1.82458e-01,-3.30522e-01,1.19422e-01,5.94894e-02,-2.09898e-01,2.88397e-01,-1.92837e-01,-1.89145e-01,1.07062e-01,5.06172e-02,1.31138e-01,-1.06143e-02,9.24330e-02,1.87780e-01,-1.53922e-01,-1.27052e-02,-1.28077e-01,-1.85338e-01,1.55419e-01,2.59828e-01,
-5.12680e-01,-7.34608e-02,2.79756e-01,-1.49754e-01,-2.63720e-01,-3.10251e-02,4.23510e-01,1.84464e-01,-3.74277e-01,5.49177e-01,-2.90121e-01,1.50150e-01,-1.14021e-01,-4.55537e-01,-6.37808e-02,-1.68658e-01,1.78093e-01,2.39315e-01,7.81610e-02,4.58687e-01,6.05285e-01,1.46099e-01,-3.74035e-01,1.09296e-01,6.13228e-02,
-5.57543e-01,1.61114e-01,-1.44257e-01,3.49850e-02,3.90598e-01,7.14819e-02,-3.43186e-01,-6.99058e-02,-2.75154e-02,-5.09103e-01,3.38079e-01,1.78486e-01,-2.53831e-01,7.49296e-01,-1.36503e-01,3.32595e-01,2.88058e-02,-4.39263e-01,-7.04244e-02,1.06157e-02,-5.01944e-01,-2.64511e-01,-1.40287e-01,-4.20557e-01,-1.99417e-01,
-2.56413e-01,5.46848e-01,2.25720e-01,-1.04934e-01,4.23931e-01,8.76558e-03,-5.13997e-02,-1.20318e-01,-2.01545e-01,-1.95005e-01,-1.88380e-01,-1.40109e-01,2.64091e-01,-2.05795e-01,-4.04374e-01,1.84611e-01,7.84833e-02,1.95857e-01,2.76042e-01,1.52441e-01,3.28430e-01,-1.03875e-01,2.37488e-01,2.38650e-01,-3.88300e-02,
-5.14408e-01,-5.11951e-02,7.66556e-01,8.59164e-02,6.93610e-01,1.59225e-01,-2.07562e-01,2.32375e-01,-3.03527e-01,3.93787e-01,-1.07513e+00,-1.69050e-01,-1.11252e-01,6.03470e-02,-3.35718e-01,8.80487e-02,3.58243e-01,2.45042e-01,-2.14929e-01,3.54901e-01,-1.57275e-01,-3.14860e-01,-8.77771e-02,-1.26589e-01,-2.03919e-01,
1.04086e-01,1.60728e-01,-3.73847e-02,-3.09664e-01,2.14040e-01,-1.78958e-01,-6.52428e-02,-3.13440e-01,5.27472e-02,-1.75891e-01,1.15740e-02,-1.63194e-02,-1.48032e-01,1.70453e-01,-5.60156e-02,-3.06660e-02,-1.93875e-01,-1.27037e-01,3.27903e-01,-2.41072e-01,-5.60471e-02,1.75558e-01,2.20284e-02,5.46327e-02,1.58477e-01,
1.03613e+00,2.39410e-01,3.34410e-01,2.15694e-01,-7.84986e-03,-3.24321e-01,3.73551e-01,5.43851e-02,4.94485e-01,2.10572e-01,8.36159e-02,-1.31212e+00,-1.41580e-01,-6.09460e-02,1.02507e+00,-7.55543e-01,-1.04973e-02,-8.83647e-02,-2.01609e-01,5.38500e-02,-2.63916e-01,-5.45097e-02,-3.15213e-01,-1.63878e-01,-8.76418e-01,
2.59534e-01,-3.46288e-01,1.90124e-03,-2.34122e-01,-1.68212e-01,2.94870e-01,2.01134e-01,2.10587e-01,-1.08924e-01,-3.19742e-01,8.76162e-02,-2.20827e-01,-2.42743e-03,-2.10331e-01,-1.78891e-01,1.28933e-01,1.05376e-01,3.44983e-01,-3.53318e-02,9.29834e-02,4.50070e-02,2.42289e-01,-8.23310e-02,-1.10335e-01,-2.69003e-01,
-2.21241e-01,3.09445e-01,-2.95619e-02,2.39570e-01,8.03570e-02,-2.10635e-01,-1.92511e-01,4.10867e-01,-2.94035e-01,-1.02529e-01,-1.58199e-01,-8.14715e-02,-1.62538e-01,2.86995e-01,-3.14266e-01,1.68317e-01,-1.52127e-01,-5.04451e-02,-1.47384e-01,-4.05915e-01,1.37293e-04,2.38533e-01,2.24759e-01,-7.75566e-01,8.55434e-02,
-2.47903e-01,-3.92616e-02,7.03521e-02,1.91739e-01,-5.31964e-01,1.20575e-02,3.93260e-01,5.64420e-01,-5.05943e-01,1.55277e-01,-2.35619e-01,-1.07314e-01,3.75720e-02,-1.09078e-01,-3.49332e-02,-3.52359e+00,1.89777e-02,5.82841e-02,1.84037e-02,2.91999e-01,3.96624e-02,1.61591e-01,-6.21134e-01,6.06237e-01,4.12411e-02,
5.39450e-02,3.87522e-02,9.31528e-02,2.86139e-02,-3.14176e-02,-2.97746e-01,-1.72193e-02,1.32323e-01,1.60597e-01,1.46818e-01,1.20102e-01,1.62488e-01,2.10450e-01,2.18925e-02,6.07395e-02,-5.88386e-02,2.34640e-01,6.95127e-02,-1.93116e-01,1.81241e-01,-1.81842e-01,1.09743e-02,-2.15935e-02,2.80966e-02,-5.03987e-02,
-4.12375e-01,2.85120e-01,6.03284e-01,-3.73404e-01,4.88174e-01,1.14018e-01,-2.53164e-02,-2.01435e-01,-3.59034e-01,2.77510e-01,-5.01131e-02,3.43643e-02,1.90492e-01,4.05652e-01,5.59173e-01,-5.47281e-01,4.57197e-01,-1.92050e-01,-8.86514e-02,-6.39478e-01,1.72417e-01,1.75446e-01,-1.90232e-01,-1.11988e-01,-1.16680e+00,
6.11071e-01,1.52298e-01,-6.98420e-02,4.91058e-01,-6.20674e-01,3.66436e-01,2.16054e-01,3.39492e-01,2.70683e-01,-2.81673e-01,5.31675e-02,5.31357e-01,2.86952e-01,5.81636e-02,2.48760e-01,-1.18717e+00,4.57835e-01,-6.84963e-02,1.52519e-01,2.95372e-01,-4.60673e-01,-1.64764e-02,-4.63663e-01,2.27583e-01,-3.52931e-01,
-4.04354e-01,-1.21557e-01,1.00438e+00,5.57071e-01,-5.70933e-02,2.02452e-01,5.17350e-02,-2.90344e-01,2.14548e-01,-4.53987e-03,-2.46813e-01,-8.83877e-02,1.84693e-02,1.37411e-01,2.06038e-01,-2.09493e-02,1.71987e-01,-2.09065e-01,-1.96727e-01,3.24731e-01,-1.31655e-01,7.01730e-02,8.43614e-02,6.46935e-02,-2.40783e-01,
-1.39911e-01,-8.11604e-02,-2.29717e-01,-2.87816e-01,2.05004e-02,-2.13715e-01,-1.89069e-01,-2.53549e-01,1.99843e-01,-1.87619e-01,-3.39110e-01,9.61611e-03,1.00947e-01,-1.65388e-01,2.77333e-01,-1.11828e-02,-3.46249e-01,5.86088e-02,-1.38700e-01,-1.54278e-01,-1.41985e-01,1.78330e-02,1.68446e-01,1.93776e-01,2.14400e-02,
8.14021e-02,-2.46436e-01,1.05031e-01,2.23525e-02,-2.09690e-01,1.19378e-01,-4.83040e-03,-1.16091e-02,3.87321e-02,-6.37971e-02,9.81065e-02,1.29911e-02,-1.60559e-01,1.55152e-01,3.97595e-02,-4.87115e-02,-1.67335e-01,-1.54212e-01,1.94192e-01,1.80505e-01,-1.40923e-01,-3.17839e-01,-1.93805e-01,3.29266e-02,1.99741e-01,
-2.56501e-02,
1.62745e-01,
-2.57751e-01,
2.24799e-01,
1.57835e-01,
-5.66306e-02,
6.82384e-02,
5.25150e-02,
1.69153e-01,
-2.41568e-01,
-1.75080e-01,
1.25072e-01,
-1.76674e-01,
-1.85957e-01,
2.62822e-01,
-2.60780e-01,
-2.37472e-01,
7.00469e-02,
1.08643e-01,
2.02382e-01,
8.25756e-02,
1.34333e-01,
-1.50721e-02,
-1.95359e-01,
2.60390e-01,
2.77651e-02,-1.50011e-01,-2.03332e-02,3.52793e-02,3.33474e-02,-3.37386e-01,-4.30576e-02,-8.63314e-02,2.48623e-02,4.84070e-02,-2.32745e-01,-5.63718e-02,-1.56105e-02,5.91344e-02,1.83391e-01,-2.87706e-01,3.71449e-01,-5.95483e-02,-2.09360e-01,1.68486e-01,2.15584e-02,-2.30024e-01,-6.42743e-02,-9.41510e-02,-1.50263e-01,
-7.75797e-02,1.33137e-01,-3.82562e-01,-6.90703e-03,4.52791e-01,-1.09410e-01,1.94000e-01,-8.55103e-02,-7.21753e-02,-3.44589e-01,-2.09276e-01,-2.52504e-01,-6.66445e-02,9.46835e-02,3.10739e-01,-1.39156e-01,1.31173e-01,9.10260e-02,-1.22419e-01,3.79761e-01,-5.91450e-03,-2.28673e-01,2.27706e-02,-1.38141e-01,3.39553e-01,
-1.26593e-01,-7.54855e-02,-1.74657e-01,2.31344e-01,-1.47969e-01,-2.87499e-02,-2.24904e-01,2.18006e-02,-2.98398e-02,-5.51822e-02,-1.22612e-01,-1.48382e-02,2.19307e-01,3.76226e-01,1.70224e-01,-6.86740e-02,7.88766e-03,-2.12160e-01,-2.53639e-01,-3.63044e-01,-2.38541e-01,-1.58213e-01,-1.71314e-01,7.12607e-01,2.17350e-01,
-1.87762e-01,1.81687e-01,-1.37919e-01,-9.93511e-02,2.79952e-01,3.01365e-01,-7.15658e-02,-5.54360e-02,-6.71155e-02,6.32411e-02,-1.21019e-01,1.27328e-02,-2.87940e-02,5.01287e-02,9.76554e-02,-2.01303e-01,-3.34845e-02,2.19448e-01,-1.16453e-01,2.13100e-01,-7.41718e-01,-2.72446e-01,5.40955e-03,1.36411e-02,1.81012e-01,
-8.71566e-02,-1.32267e-01,-7.05779e-02,8.12673e-02,-8.69842e-02,4.50270e-02,-7.14090e-02,-1.61377e-01,-5.95437e-02,-3.77915e-01,-1.25174e-01,-2.61759e-02,2.77400e-01,1.40029e-01,-3.33700e-03,-1.30092e-01,-2.04816e-01,-1.36815e-01,-2.30843e-01,-2.25884e-01,-7.55702e-02,-1.05119e-01,-1.20495e-01,5.22401e-01,-2.59826e-02,
-3.59006e-02,7.67268e-02,-3.11692e-01,-1.78865e-02,2.38027e-01,-9.53865e-02,4.29762e-02,-1.15605e-01,-6.29446e-02,-1.64144e-01,-4.66720e-02,-1.08931e-01,8.15075e-03,7.96394e-02,1.16098e-01,-1.78330e-01,2.02952e-01,7.43480e-02,-1.54776e-01,6.58878e-02,-3.86914e-01,-2.28444e-01,-2.61000e-02,-1.47836e-02,5.29294e-02,
-9.45431e-02,-8.37165e-02,3.82801e-01,-4.66077e-02,-7.15581e-02,-3.60404e-01,-3.70753e-02,-3.40015e-01,-1.04745e-01,3.19651e-01,-2.09442e-01,2.34886e-02,5.41640e-01,-2.49763e-02,-1.78102e-01,-4.37255e-02,1.54677e-01,-4.98279e-02,-3.61022e-01,-6.80414e-02,-3.15759e-02,4.24046e-02,-1.03504e-01,3.17271e-01,7.89975e-02,
-8.39787e-02,7.45880e-02,-7.08429e-02,-2.05622e-02,1.09253e-01,3.22014e-01,9.03631e-02,-1.98512e-02,2.92195e-02,-2.13294e-02,2.06844e-03,-4.49464e-01,2.48255e-03,3.71073e-02,-7.32105e-02,-2.17384e-01,2.32006e-01,-1.15936e-02,-2.87788e-02,-2.33410e-01,2.84672e-03,-2.57926e-01,-4.00714e-02,1.20956e-01,-1.18102e-01,
-8.39129e-02,-1.27632e-01,-3.35385e-01,2.49885e-02,-6.28291e-02,3.14106e-02,-4.38336e-02,-1.74163e-01,-7.37776e-02,1.89299e-01,-1.56366e-01,-3.78367e-02,2.52153e-01,6.86062e-02,-6.15099e-02,-1.04782e-01,3.93228e-01,-9.76286e-02,-2.32109e-01,-1.36518e-01,-3.04759e-02,-1.25797e-01,-1.22330e-01,2.88874e-01,-4.11112e-02,
1.60977e-01,
-2.11645e-01,
2.62766e-01,
-5.63152e-03,
-1.37879e-01,
-3.82863e-01,
2.92603e-01,
2.53439e-01,
-1.47199e-01,
