// Neural Network File Format by Kyle Julian, Stanford 2016
6,4,9,25,
4,25,25,25,25,25,9,
0,
-8000.000000,-100.000000,-100.000000,0.000000
8000.000000,100.000000,100.000000,40.000000
0.000000,0.000000,0.000000,20.000000,-4.647677
16000.000000,200.000000,200.000000,40.000000,22.514692
1.50560e+00,1.54656e-01,-1.95697e-01,5.99528e-01,
3.43811e+00,-2.79139e-03,-4.58137e-03,1.22616e-03,
-9.90564e-01,5.45182e-01,-1.18664e-01,1.40033e-01,
-6.49292e-02,-6.13137e-01,-6.01712e-02,1.27840e-03,
-2.67383e+00,4.10635e-01,8.17873e-02,1.43448e-02,
8.64972e-02,2.69018e-01,1.55622e-01,1.83384e-02,
-4.76225e-01,-1.21507e+00,7.76544e-02,5.80428e-02,
-1.91168e+00,2.77280e-01,-4.02178e-01,2.98390e-01,
1.87186e+00,-1.07566e+00,-8.13575e-03,-1.23597e-02,
-3.24994e+00,7.83903e-02,-4.96957e-02,-1.91114e-01,
2.46284e-01,1.05714e+00,-1.72813e-03,-3.80442e-02,
-3.26816e+00,2.18777e-01,-8.92910e-02,-4.00239e-01,
1.63421e+00,2.60548e-01,4.60632e-02,-5.26989e-02,
-1.01306e+00,3.35449e-01,-5.60890e-01,2.76540e-01,
-3.16892e+00,7.76592e-02,1.29401e-02,-7.11464e-01,
3.32915e+00,1.00298e-02,-5.82565e-02,-1.49226e-01,
-3.36617e-01,5.34782e-03,-7.09660e-01,-1.27772e-01,
1.78850e+00,-4.13134e-01,5.61934e-01,-1.24357e-01,
1.19159e+00,-4.71273e-01,6.05392e-01,1.31377e-02,
-2.06181e-01,9.88635e-01,-1.88840e-02,-3.65371e-03,
-1.70364e+00,1.49076e-01,-6.27734e-03,5.05338e-01,
-1.76791e+00,-2.60391e-02,3.46846e-02,7.80233e-01,
-2.26383e+00,-2.85028e-01,1.98203e-01,1.65330e-02,
1.70557e-01,2.06060e-02,1.83233e-01,-3.82127e-01,
2.96944e+00,-9.49616e-02,1.28381e-01,-4.53986e-01,
2.46645e-01,
1.50873e-01,
1.88213e-01,
3.06858e-01,
-7.84945e-02,
-3.05651e-01,
-1.67129e-01,
2.18605e-01,
-6.31099e-02,
-2.43370e-02,
-1.09402e-02,
8.99281e-02,
2.10267e-01,
-1.00929e-02,
-1.46861e-01,
-3.47907e-02,
2.58627e-01,
1.43959e-01,
-1.76665e-02,
-2.22545e-01,
1.23590e-01,
3.61555e-01,
2.04255e-01,
2.27420e-01,
-1.77455e-01,
3.39240e-01,2.10270e-01,-6.79228e-01,6.37392e-01,-2.96777e-01,2.14291e-01,-7.36068e-01,2.91898e-02,-2.74706e-01,4.56070e-01,9.42645e-01,-1.94779e-01,-4.92685e-01,3.24966e-01,-6.57421e-01,5.98020e-02,8.97759e-02,-3.88482e-01,6.63439e-01,1.89146e-01,-1.13430e-01,8.66984e-02,-5.43341e-02,-3.95596e-01,3.45816e-01,
3.93344e-02,-3.34047e-01,2.58116e-02,4.08269e-02,-4.72781e-02,-3.44002e-01,-1.04020e-01,-1.44167e-01,1.99227e-01,1.53252e-01,7.56592e-02,1.92555e-01,-2.49320e-01,2.74645e-01,-2.97399e-01,-2.47840e-01,-3.58548e-01,1.25316e-01,-3.10895e-01,-9.60596e-02,-2.70191e-01,6.71775e-02,1.84865e-01,1.76808e-01,-2.14696e-01,
9.19726e-01,-4.89078e-01,4.19933e-01,-2.16623e-01,-3.73301e-02,2.14187e-01,-5.38681e-03,3.73808e-01,2.58473e-02,-8.97353e-02,-7.87642e-02,1.07092e+00,1.23893e-01,3.91262e-01,7.26632e-01,-7.60758e-01,5.02610e-01,-6.54705e-01,-6.24960e-01,-9.38933e-02,-9.90275e-01,-4.48622e-01,5.61442e-01,-1.00655e-01,-7.19994e-01,
-2.25316e-01,-1.38234e+01,-7.33513e-03,4.74987e-01,-8.54705e-01,-3.17390e-01,4.55683e-01,-4.33077e-03,-8.72536e-01,2.81242e-01,6.16192e-01,2.00983e-01,-3.51248e-01,1.35209e-02,2.15154e-01,-9.47738e-01,3.05412e-02,4.36559e-02,1.46345e-02,3.37995e-02,5.29361e-02,2.65068e-01,6.13369e-02,-1.54279e-01,6.10678e-01,
5.00574e-01,-5.76037e-02,-1.42272e-01,1.00327e-01,-5.05145e-01,1.78359e-01,4.25846e-01,-4.09448e-01,-3.46682e-01,-1.00819e+00,4.20142e-01,9.55524e-01,-2.76695e-01,-3.03321e-01,3.69585e-01,-1.55114e+00,6.47970e-02,1.34699e-01,-3.96719e-01,-2.50849e-01,6.35000e-01,-1.12814e+00,3.09416e-01,4.63566e-01,-1.89270e-01,
3.04899e-01,1.10631e-02,9.77166e-02,2.13949e-01,7.08132e-01,-3.30038e-01,5.10254e-01,4.11677e-01,-4.59076e-01,2.09537e-01,-4.68292e-02,2.61705e-01,3.61846e-01,-2.97092e-01,-8.66138e-02,8.37298e-03,-1.99044e-01,-5.47432e-01,-6.46703e-01,-1.76492e-01,-5.17230e-01,-8.08221e-01,2.35559e-01,-7.16353e-02,-1.11885e+00,
4.13356e-01,-4.77443e-01,-1.67725e-01,4.68848e-01,-5.19002e-01,1.36695e-01,-1.01549e-01,4.49009e-01,-2.41445e-01,3.88938e-01,1.80942e-01,6.38562e-01,-5.09170e-01,-5.05695e-02,6.72304e-01,-4.49538e-01,7.01564e-01,-3.22983e-01,-4.94584e-01,1.29834e+00,-3.13944e-01,-2.41934e-01,-1.63587e-01,-1.21070e-01,-1.01591e+00,
-2.45741e-01,1.34397e-02,2.70703e-01,1.37893e-01,-1.23247e-01,1.22506e-01,2.37069e-01,-1.35872e-01,-3.56539e-01,-2.36504e+00,-2.81995e-01,6.14922e-01,4.07949e-01,7.00424e-01,7.26196e-01,-8.16717e-03,4.61589e-01,-4.68829e-01,7.02600e-01,3.33504e-01,-3.68484e-02,1.65530e-01,-5.60636e-01,1.29978e-01,1.72196e-01,
-1.92784e-01,-6.89578e-02,-8.66419e-02,-1.67738e-01,2.55436e-02,-5.95690e-02,1.20198e-02,-1.71746e-01,1.40649e-01,-1.83633e-03,6.14763e-02,-2.71824e-01,2.55658e-01,3.39791e-01,3.21861e-01,-2.67713e-01,-1.89028e-01,1.81437e-01,2.17460e-02,9.59320e-02,-2.19986e-02,6.29389e-03,-3.28040e-01,-1.41313e-01,1.86749e-01,
-1.37899e-01,-3.08251e-01,1.61985e-01,1.57329e-01,1.77884e-01,2.94962e-01,-3.34428e-01,-3.96267e-02,4.91030e-02,2.49463e-01,-1.06553e-01,-2.44510e-01,-3.46226e-01,-2.96752e-01,-3.08895e-01,-2.12134e-01,2.55043e-01,-1.43382e-01,-2.25873e-01,9.30462e-02,-3.07901e-01,9.06292e-03,-1.61186e-01,-1.49814e-01,-2.47394e-02,
-4.07991e-01,-2.49170e-01,-7.30780e-02,2.12351e-01,-8.08409e-01,-1.45997e-01,2.04611e-01,-2.67601e-01,9.95005e-02,-2.50162e-01,6.81855e-01,3.70499e-01,3.13151e-01,-4.00040e-03,2.63364e-01,-5.44921e-01,2.85691e-01,3.98982e-01,-2.76392e-01,-4.64896e-01,7.55678e-02,-1.06511e-01,3.58175e-01,4.77699e-01,6.35906e-01,
-2.68177e-01,-6.59012e-01,-1.12721e-01,-2.51891e-01,4.78062e-01,2.27518e-01,-1.93025e+00,-1.40875e-01,9.80241e-01,-1.55648e-01,8.07652e-01,-5.54421e-01,8.19921e-03,3.07004e-01,2.02397e-01,4.98883e-01,-1.05403e-01,6.35986e-01,-5.31300e-01,-7.73266e-01,2.73337e-01,6.61496e-02,3.78964e-01,2.48445e-01,-5.19350e-01,
-2.26195e-02,-5.14867e-01,9.42933e-02,5.19373e-01,-3.26794e-02,-2.75404e-02,-2.96803e-01,2.33380e-01,-3.32687e-01,2.32728e-02,-1.97828e-01,-5.07912e-01,-2.91891e-01,1.85702e-01,5.04511e-01,8.23973e-01,-5.23831e-02,3.67620e-01,-7.49692e-01,9.13366e-01,-4.16012e-01,6.34025e-01,1.38848e-01,-2.94483e-02,-3.51876e-01,
5.36143e-01,-9.73508e-01,-9.75219e-02,2.25144e-01,1.90250e-01,9.00580e-02,-2.58206e-01,-5.10384e-01,-4.89453e-02,1.00262e-01,2.18351e-01,9.27861e-02,4.99674e-01,-1.69604e-01,6.34529e-01,2.12003e-01,-4.15115e-01,5.53640e-01,-2.70693e-01,4.67907e-01,4.98867e-01,-4.78416e-02,1.14371e-01,-3.10536e-01,-3.73847e-01,
-2.10771e-01,4.63595e-01,9.05722e-02,6.49334e-01,6.55989e-03,-3.38680e-01,1.11596e-01,-4.52172e-01,-7.84911e-03,-4.62379e-01,-4.17896e-02,1.97389e-01,1.81852e-02,9.42057e-01,1.01249e-02,-4.02247e-01,1.99032e-01,4.29867e-01,-7.86957e-01,4.98854e-01,6.42555e-01,-1.12076e+00,1.39401e-01,3.07682e-01,-1.91020e+00,
2.75143e-01,-3.41581e-02,-3.84574e-02,5.51780e-01,-7.26411e-01,1.31985e-01,-5.57225e-01,-1.58992e-01,-5.52548e-01,-6.14630e-01,5.48365e-01,-3.12483e-01,-1.52316e-01,-5.46199e-01,-6.75973e-02,-4.40151e-01,-1.69637e-01,2.74471e-02,-1.93895e-01,-1.05382e-01,-4.27037e-01,-5.87271e-02,4.15257e-01,-2.07424e-01,4.31354e-01,
-3.30315e-01,-1.92713e-01,-3.98237e-01,1.40244e-02,2.55254e-01,1.79327e-01,1.52886e-01,-1.00880e-01,3.25260e-03,7.75975e-02,-2.03467e-01,-3.30849e-01,-2.94068e-01,-3.59428e-02,-1.35038e-01,5.38711e-02,2.02832e-01,1.04875e-01,-3.27001e-01,7.73083e-02,-4.27110e-02,1.63294e-01,-5.70574e-02,2.14392e-01,5.21536e-02,
1.08065e-01,8.85726e-01,-4.10461e-01,-2.89858e-01,-4.49240e-01,6.99975e-02,3.77598e-01,-3.96344e-01,-2.06239e-01,-3.13635e-02,5.27737e-01,2.56115e-01,2.80513e-01,-3.37324e-01,8.06432e-02,6.46380e-01,1.09233e-01,4.32679e-01,-4.83059e-01,-4.38476e-01,-1.10874e-01,1.56468e-01,1.46524e-01,-4.31264e-01,7.81055e-01,
-3.65390e-01,-1.88827e-02,-2.28156e-01,-2.57548e-01,2.70145e-01,9.36140e-02,-1.00187e+00,-5.05289e-02,8.83293e-01,-3.99539e-02,-1.20210e-01,8.51277e-02,2.74991e-01,1.20482e-01,-2.09387e-01,6.05703e-02,3.23833e-01,-5.26105e-01,5.65113e-01,2.24350e-01,-1.58614e-01,7.85662e-02,-1.11209e-01,-2.39187e-01,-2.98137e-02,
-2.14240e-01,-2.64322e-01,4.54341e-01,1.83918e-01,-4.32462e-01,2.96679e-01,4.35199e-01,-9.91569e-01,-1.79301e-01,-2.63894e-01,7.73123e-02,-3.84260e-01,-2.87597e-01,-1.69109e-01,-3.71466e-01,6.59227e-01,-5.26062e-01,5.81269e-01,-1.73929e-01,-5.29507e-01,5.40572e-01,4.83655e-01,-6.45729e-01,7.72416e-01,6.06951e-01,
4.34987e-01,-3.69869e-01,-1.62463e-01,-9.18529e-02,-2.58844e-03,5.09060e-02,-9.55817e-02,-5.16844e-01,7.66400e-02,1.16504e+00,-1.77613e-01,-8.23084e-03,4.24534e-02,1.07272e-01,1.03845e-02,1.24141e+00,-1.11955e-01,-5.67566e-01,4.00908e-01,1.96143e-02,-9.79113e-02,3.09930e-02,4.96598e-02,-3.22766e-03,3.52082e-01,
-2.52744e-01,2.66118e-01,-3.37891e-01,6.60918e-01,3.17149e-01,-1.77110e-02,1.78741e-01,-3.95983e-02,-1.52149e-03,-9.21403e-02,2.64202e-01,1.74907e-01,1.05348e-01,7.04479e-01,-4.98039e-01,-3.40036e-01,-1.20915e-01,2.96179e-01,2.26629e-01,1.34857e-01,-3.75610e-02,3.64622e-01,-1.62031e+00,2.29853e-01,4.83108e-01,
-1.29445e-01,-2.84413e-01,1.76952e-01,1.03134e-01,3.24543e-01,-3.10622e-01,6.50008e-02,4.27845e-01,-2.06996e-01,-1.25765e+00,-4.66726e-02,-3.57402e-01,1.56169e-01,-2.39224e-01,-1.67091e-01,-6.43751e-02,-2.23437e-02,-2.65962e-01,1.49526e-01,1.25191e-02,1.91285e-02,7.56486e-01,1.40095e-01,-3.39486e-01,1.32328e-01,
-4.88252e-01,3.64505e-01,1.53582e-01,2.17642e-01,-3.98832e-01,1.96760e-01,4.36931e-01,-8.89840e-01,-4.37536e-01,4.65031e-01,6.71038e-02,-7.30332e-01,2.71792e-01,-1.53987e-02,-6.94182e-01,4.58374e-02,-4.04713e-01,4.13356e-01,7.21153e-02,7.07910e-02,6.52156e-01,1.72185e-01,-1.50554e-01,-2.05397e-01,-5.94687e-01,
-9.70371e-04,-4.48920e-02,2.38003e-01,3.55828e-02,4.10599e-01,2.84377e-01,4.49635e-02,-1.75584e-01,5.22436e-01,-7.18866e-01,6.63709e-02,-4.90347e-01,-2.24224e-01,-3.66899e-01,-1.19942e-01,3.39907e-01,-2.63391e-01,6.61592e-01,-9.79095e-01,-5.36083e-01,-2.48250e-01,3.40415e-01,4.86570e-01,1.05598e-01,4.74150e-01,
1.93698e-01,
-2.45517e-01,
-1.50228e-01,
-1.49944e-01,
1.22257e-02,
3.57511e-01,
-5.97826e-02,
-9.49060e-02,
-2.54213e-01,
-3.45512e-01,
3.52805e-01,
1.81385e-01,
-2.48388e-01,
-4.20828e-01,
-1.02845e-01,
3.33151e-01,
-2.10436e-01,
-3.75489e-02,
3.52997e-01,
-6.79241e-02,
5.41656e-02,
-2.51293e-01,
3.26027e-01,
2.68350e-01,
1.08931e-01,
-5.52247e-02,3.24948e-01,-2.84533e-01,-2.99278e-01,1.94609e-01,-2.69605e-01,-3.46129e-01,1.10238e-01,-1.72085e-01,-2.18598e-01,-2.14463e-01,-5.59210e-02,7.06983e-02,2.78818e-01,5.67498e-02,1.32442e-01,-3.37834e-01,2.08660e-01,-2.60975e-01,-3.31655e-01,-3.45761e-01,1.29443e-02,-2.29925e-01,-1.08938e-02,2.90543e-01,
1.25211e-01,-1.59002e-01,-4.44443e-01,3.87376e-01,2.97502e-01,3.87503e-01,9.20646e-02,5.95052e-01,-3.07534e-02,-2.24417e-01,2.01416e-01,-2.32972e-01,6.30608e-01,5.94071e-01,1.27065e-01,-2.03441e-01,1.54200e-01,-2.66330e-01,1.72058e-01,-3.96202e-01,4.63591e-01,-1.39569e-02,-1.22623e-01,1.03589e+00,4.18450e-01,
-8.60883e-03,-1.00184e-01,-4.64128e-01,2.22120e-02,-1.71781e-01,-4.06657e-01,4.08233e-01,-3.64203e-02,9.38216e-02,3.07045e-01,3.81672e-01,-7.70075e-02,-1.53673e-01,-5.16110e-02,-2.84664e-01,2.50547e-01,3.17310e-01,-5.26953e-01,1.30953e-01,-2.32063e-01,1.13027e+00,2.66131e-01,9.71334e-02,4.13497e-01,-2.84307e-02,
3.72399e-01,1.95773e-01,4.89721e-01,-5.74654e-01,-5.09636e-01,2.62573e-01,-6.87217e-01,-2.22214e-02,2.17627e-01,-3.24581e-01,2.81109e-01,-2.39120e-01,2.50356e-01,6.74122e-02,-2.20052e-01,2.40209e-01,3.40848e-02,3.92436e-01,-3.85036e-01,-5.04221e-01,-3.52863e-01,6.36429e-01,-3.19088e-02,4.78484e-01,5.78694e-02,
-4.53347e-01,2.47499e-01,-8.29272e-01,-3.35351e-01,1.13548e-01,-3.15777e-01,-5.62100e-01,9.13940e-01,-2.94773e-01,1.25987e-01,2.43539e-01,1.16238e-01,7.20402e-02,-2.08933e-01,5.87743e-01,-6.89144e-02,1.28789e-01,3.97968e-01,-1.11402e-01,-8.90233e-01,-4.14194e-01,5.04225e-01,-5.93500e-02,6.68489e-01,6.45903e-01,
-2.91065e-01,2.07592e-01,-4.24558e-01,-3.41361e-02,4.67935e-01,4.67521e-01,-1.09060e-01,2.62157e-01,3.27760e-01,-1.26696e-01,4.47337e-01,2.41683e-01,4.49793e-01,-3.01685e-01,1.69767e-01,3.22053e-01,-1.02576e-03,1.96276e-01,2.30230e-01,-8.13377e-01,-1.77080e-01,6.29829e-01,-8.24485e-01,-6.71236e-01,-2.20598e-01,
-1.83861e-01,7.45542e-02,-2.88024e-01,-4.13389e+00,-2.28444e-01,8.07930e-03,2.21046e-01,2.16905e-02,-2.71237e-01,-2.67763e-01,-7.44198e-02,-3.21042e-01,1.22428e-01,-1.36256e-01,-1.61108e-02,1.38827e-01,-3.36443e-01,-9.58411e-01,3.21394e-01,2.42153e-01,1.34344e+00,1.47876e-01,-7.36154e-02,-2.32068e-02,1.83294e-01,
1.58610e-01,2.62019e-02,-7.40536e-01,-2.54485e-01,1.38937e-01,-3.36973e-02,2.73196e-01,5.50243e-01,-5.83060e-02,2.74884e-01,2.00074e-01,1.51156e-01,4.18385e-01,2.49295e-01,4.79387e-01,-1.40465e-01,2.70706e-01,-3.44463e-02,5.13330e-02,-6.77552e-01,1.96880e-01,-3.29131e-01,-2.29946e-01,3.10638e-02,-3.84662e-01,
-1.02508e-01,2.28351e-02,-1.18055e+00,2.70615e-01,-2.32898e-01,4.15420e-01,-3.13482e-01,3.03354e-01,-2.71434e-01,-3.39714e-01,6.08161e-01,-5.66903e-02,1.77412e-01,-2.21144e-01,5.81665e-01,2.38652e-01,1.59697e-01,-3.69327e-01,9.73115e-02,-9.41929e-01,1.18424e-01,-7.19639e-01,-4.45291e-01,-3.60444e-01,-3.82775e-01,
-3.71735e-01,3.02104e-01,-6.36131e-01,-7.42496e-01,-3.05717e-01,3.43017e-01,-2.93922e-01,6.77320e-01,2.48121e-02,2.40658e-01,5.20639e-01,-2.81808e-03,3.66640e-01,-7.49008e-01,1.09507e-01,2.59259e-02,3.22946e-01,-6.44834e-02,3.59506e-01,-7.87240e-01,4.26584e-01,-5.34200e-01,-2.97749e-01,2.52121e-01,-5.98420e-03,
-2.79240e-01,2.49638e-01,-1.69867e-01,-3.21381e-01,1.68152e-01,-2.32742e-01,-6.68509e-02,1.95164e-01,2.69629e-01,2.17913e-01,-1.33150e-01,-2.54923e-01,-1.36217e-01,1.33164e-01,-3.62316e-02,1.34111e-01,-9.23319e-02,1.52778e-02,-1.89381e-01,9.97978e-02,2.72270e-01,-1.95585e-02,-1.32336e-01,1.16425e-01,-2.88312e-01,
-8.50928e-01,-2.53459e-01,-1.00533e+00,-2.56858e-01,-1.06673e-01,1.50265e-01,-1.25568e+00,4.98438e-01,-2.89049e-01,5.24577e-02,1.35840e-02,3.19198e-01,-1.73961e-01,1.91901e-01,3.14992e-01,1.21066e+00,9.80962e-02,8.88352e-02,2.46682e-01,-8.22392e-01,1.49527e-01,-3.63339e-01,-4.80642e-01,-8.27738e-02,-1.59134e-01,
1.09347e+00,3.25854e-01,-6.23025e-01,1.28214e+00,3.87477e-01,1.50301e-01,-6.33253e-01,-2.05522e-01,9.15193e-02,1.94777e-01,-1.72603e-02,-5.27286e-01,-1.54246e-01,8.18731e-02,-1.76316e-01,1.94243e-01,-1.23563e-01,-3.08707e-01,-2.97801e-01,8.07415e-01,-1.01424e-01,2.75646e-02,-4.21894e-01,-5.44232e-01,-1.14419e-01,
5.04964e-01,-3.88202e-02,3.91128e-01,-4.00931e-01,1.91565e-01,1.23667e-01,-3.42828e-03,4.21445e-01,-2.16712e-01,2.61384e-01,1.37233e-01,4.75180e-01,-3.19688e-01,2.71665e-01,-1.37439e-01,7.13082e-02,1.93020e-01,-6.18794e-02,-3.16414e-01,2.32465e-01,4.62727e-01,-3.93435e-01,1.97093e-01,-2.91478e-01,-4.94081e-01,
-5.61444e-02,3.48236e-02,1.66616e-01,-9.25744e-01,-2.04533e-01,-1.98659e-01,-5.70477e-01,2.85621e-01,1.89200e-01,-1.23582e-01,3.26990e-01,-1.54825e+00,-3.44577e-01,8.35324e-01,3.71140e-01,-2.55154e-01,-8.23547e-02,1.39369e-01,-3.25208e-01,-3.77514e-01,-6.61830e-03,3.45455e-01,-1.46685e-02,1.68853e-01,4.34266e-01,
-3.34228e-01,-2.88621e-01,6.13426e-02,-1.02340e+00,2.11909e-01,-1.58967e-02,1.06630e-01,-2.72832e-01,-3.84912e-02,2.86815e-02,6.99032e-01,-6.75234e-03,1.60007e-01,-1.10605e-01,5.68832e-02,-5.07009e-02,2.01592e-01,-8.36418e-01,-1.74812e-01,-4.99259e-02,4.80493e-01,-3.62583e-01,4.58084e-01,-3.97706e-02,-1.85447e-01,
-2.44534e-01,-2.39466e-01,3.91901e-01,-4.66734e-02,8.93952e-01,7.64729e-02,5.95418e-02,-7.22806e-01,-4.02072e-02,-1.84411e-01,2.79304e-01,6.64858e-02,7.57009e-02,-5.93580e-02,1.55383e-01,-1.16478e-01,3.49435e-01,-1.00810e+00,-1.19178e-01,1.31448e-01,3.67882e-01,1.00445e+00,4.78358e-01,-1.80176e-01,-5.16052e-01,
-4.02822e-01,-1.32076e-01,-4.61508e-01,3.95233e-01,-1.10247e-02,3.60411e-01,-1.45054e+00,1.33603e-01,1.47341e-01,-2.59570e-02,2.87625e-01,6.19932e-01,3.42933e-01,-1.75303e-01,5.81182e-01,7.71815e-02,-1.70767e-01,5.02769e-01,-7.09246e-01,-8.62582e-01,-6.48669e-02,6.31748e-02,5.26028e-02,-6.74073e-02,-6.48089e-02,
4.54259e-01,-2.19272e-01,7.56156e-01,3.92440e-01,7.87398e-02,-3.30975e-01,-2.85827e-01,-5.78708e-01,1.78409e-01,-2.28944e-01,1.11106e-01,-9.30771e-02,6.63604e-02,-3.36849e-01,-2.31385e-01,6.79292e-02,-9.80659e-02,-9.81546e-02,6.15473e-01,1.60938e-01,-2.49739e-01,5.07108e-01,-5.84721e-02,6.53669e-02,1.95720e-02,
4.79974e-01,-1.82150e-01,-2.09451e-01,9.67415e-01,-4.15876e-02,2.88036e-01,1.40647e-01,-2.70310e-01,-3.42381e-01,-8.55313e-02,9.83104e-03,-3.97339e-01,5.30948e-01,4.59504e-01,-3.42891e-02,2.71014e-01,-1.38241e-01,-5.82317e-01,8.16260e-02,1.77351e-01,4.03936e-01,5.88237e-01,-2.73447e-01,-1.95267e-02,8.69400e-02,
-8.34469e-01,-2.64087e-01,-3.28147e-01,3.32658e-01,1.71882e-01,-8.29160e-02,-3.90045e-02,4.02692e-01,-6.63118e-02,-3.54654e-03,3.19149e-01,-7.92074e-01,9.51725e-01,-1.06974e-01,-7.69948e-02,1.75788e-01,2.45501e-01,-5.51752e-01,-3.21799e-01,3.50866e-01,3.49843e-01,3.12405e-01,-7.80136e-01,-9.38183e-01,6.73853e-02,
-7.68388e-01,2.82160e-01,2.56257e-01,-3.37353e-01,4.04445e-01,9.13713e-02,4.54826e-01,-4.16471e-01,-9.15445e-02,1.03805e-01,-1.28109e-01,-7.06214e-02,2.49904e-01,5.64753e-02,-7.55782e-01,2.64606e-01,-1.88320e-01,6.27016e-03,-4.75335e-01,-1.85479e-01,-8.81329e-01,7.51630e-01,3.24869e-01,5.36876e-01,-1.75152e-01,
-2.26900e-01,1.90288e-02,2.87065e-02,-8.37066e-02,-9.07691e-02,6.24507e-02,3.68425e-01,-8.62959e-01,1.06275e-01,-5.06166e-02,2.10399e-01,-3.30322e-01,-1.60316e-01,3.06254e-01,-2.29360e-01,-4.08590e-01,-9.93211e-02,2.18709e-01,-1.34946e-01,-2.89846e-01,-6.11670e-02,6.48763e-02,3.86233e-01,-1.45963e-01,1.20030e-01,
-1.95572e-01,1.09023e-01,5.33473e-01,5.95738e-01,5.00850e-01,3.30571e-01,-4.22808e-01,-5.03001e-01,-2.08928e-01,2.20523e-01,1.37793e-01,2.45063e-01,1.89052e-01,2.63476e-01,2.93910e-02,-2.62464e-01,6.77040e-02,1.26346e-01,-2.72077e-01,-8.18593e-03,-1.83975e-01,3.46423e-01,1.19726e-01,-2.02992e-01,-5.02081e-01,
3.86727e-01,2.96497e-01,2.37168e-02,4.09348e-01,8.31912e-01,2.16269e-01,-4.20371e-01,-4.17953e-01,-2.51419e-01,2.37276e-01,2.54418e-01,2.25963e-01,-5.69571e-01,4.69092e-01,6.95675e-01,5.11568e-02,-1.73696e-01,-2.72269e-01,-1.40705e-01,-2.25905e-01,1.54350e-01,4.21235e-01,-1.41440e-01,-3.55217e-01,3.26008e-01,
-3.41931e-01,
-4.74321e-01,
1.15884e-01,
-9.81685e-02,
-3.11784e-01,
-1.21938e-01,
3.77199e-01,
2.36649e-01,
-4.16057e-02,
-8.03433e-02,
-1.46736e-01,
-2.70267e-02,
1.46586e-01,
-1.69982e-02,
-3.17560e-01,
-1.08390e-01,
-5.42586e-01,
-2.47354e-02,
-7.00170e-02,
2.04447e-01,
-5.61881e-02,
-1.36817e-01,
1.01012e-01,
2.78606e-01,
6.33701e-02,
-1.54410e-01,1.98747e-01,5.86150e-01,2.29163e-01,-3.64947e-01,-1.29271e-01,-3.16777e+00,4.13488e-01,-1.41723e-01,6.27633e-02,-2.05786e-01,5.25771e-01,1.03163e+00,-1.92128e+00,-3.31405e-01,4.06598e-01,-7.77965e-01,-4.99610e-02,-2.25825e-01,2.74004e-01,-1.18610e+00,5.32072e-01,-3.01177e-01,3.53636e-02,-3.32846e-01,
-2.26891e-01,8.53326e-02,-9.46215e-01,-3.70422e-01,-8.05825e-01,5.96060e-01,4.91440e-01,3.72055e-01,-2.48114e-01,-2.65041e-01,-2.04774e-02,-6.88450e-01,6.40766e-01,5.35066e-02,1.42777e-01,8.17638e-02,-4.96915e-01,-1.69524e-01,-4.87920e-01,1.86255e-01,2.83793e-01,1.00861e+00,-7.29743e-02,-1.61542e-01,4.06283e-02,
1.55536e-01,3.56245e-01,-4.74863e-01,5.69424e-01,2.63482e-01,1.03251e-01,6.09587e-01,-2.72638e-01,1.64685e-01,4.23379e-01,-1.48121e-01,-7.06732e-01,1.65500e-01,7.03598e-02,-4.78857e-02,-3.60232e-01,-2.44871e+00,-5.59601e-01,-4.04174e-01,-3.88138e-01,-5.89920e-02,-8.79623e-01,4.13377e-01,4.05701e-01,-1.17270e-01,
-2.59005e-01,-2.04360e-01,6.49927e-02,-1.45907e-01,1.23075e-01,-2.52892e-01,1.31098e-01,-3.31912e-01,-9.07094e-02,-1.95092e-01,7.13522e-02,1.85222e-01,-2.11504e-01,-2.40242e-01,-2.64337e-01,-2.08682e-01,-6.94857e-02,-1.43207e-01,3.42450e-01,-2.25387e-01,1.27731e-01,-1.30790e-01,-7.99665e-02,1.47709e-01,-2.57114e-01,
-1.68434e-01,-1.98675e-01,-1.59982e-01,9.91040e-02,-3.20594e-01,-2.99504e-01,-6.88507e-01,3.85632e-01,1.88403e-01,6.35854e-03,9.62015e-02,1.23799e+00,-4.74963e-01,-2.01216e-01,3.44438e-01,3.02039e-01,-1.87861e-01,4.23668e-01,1.01053e-01,5.00326e-01,-4.81260e-02,1.17697e-01,-3.60843e-01,-7.53437e-02,2.45248e-01,
5.72550e-03,-2.03784e-02,4.20922e-02,-7.67622e-02,-1.32930e+00,5.60134e-01,-2.49438e-01,1.35314e-01,1.18166e-01,4.30024e-01,-3.16236e-01,-1.12278e-01,1.41722e-01,-1.75279e-01,3.02917e-01,2.09830e-01,-8.12334e-01,-3.12332e-01,1.85672e-02,2.73201e-01,-4.87055e-01,5.48827e-02,-2.09247e-01,4.32994e-01,1.51242e-01,
2.16188e-01,-2.88272e-01,2.76662e-01,-1.57465e-01,3.66093e-01,7.02505e-02,-4.25030e-02,1.43507e-01,-3.24483e-01,-1.47196e-01,-2.15880e-01,-7.34084e-01,2.62562e-01,9.76837e-02,-1.56842e-04,-1.45960e-01,3.82835e-01,7.64554e-01,-2.93775e-01,1.76018e-01,2.31427e-01,2.32907e-01,1.75067e-01,-4.03429e-01,2.21622e-03,
3.35084e-01,-8.69719e-02,-3.65360e-01,-2.69218e-01,-3.83037e-01,3.89156e-01,8.40383e-02,2.70684e-01,7.93082e-01,1.97490e-01,4.63228e-02,-4.11136e-01,3.98450e-01,-2.63905e-01,-2.35333e-01,1.00979e-01,-7.24391e-01,4.53463e-02,2.31085e-02,-4.84036e-02,1.62419e-02,1.65581e-01,1.66965e-01,-1.78990e-01,4.70178e-01,
-8.12455e-02,-1.21166e-01,6.60956e-03,-1.09686e-01,2.94151e-01,-1.09992e-01,-6.59698e-02,-2.99281e-01,7.02539e-03,-2.05223e-01,3.11114e-02,2.75347e-01,7.15347e-02,6.79708e-02,2.56129e-01,-2.35983e-01,3.14397e-01,-1.12062e-02,-1.10899e-01,-9.40150e-02,-1.25030e-01,-2.70021e-01,-2.34352e-01,-1.70980e-02,-3.45871e-01,
-2.86029e-01,2.71662e-01,2.46222e-01,3.67394e-01,8.75110e-02,4.71347e-01,-5.92449e-01,-1.11858e-01,-2.99135e-01,1.61242e-02,5.73336e-02,-2.38076e-01,-1.60165e-01,1.55261e-01,-1.10102e-01,3.52620e-02,-6.11356e-01,-2.58064e-01,1.77909e-01,5.22038e-02,-7.03384e-01,2.82690e-01,2.60267e-03,-3.85340e-02,9.68972e-02,
7.25458e-02,-3.85502e-01,-4.18065e-02,1.31480e-01,6.09166e-01,-8.41362e-02,-3.67885e-02,1.23659e-01,2.72883e-01,7.13688e-01,-8.55261e-02,8.38243e-01,-2.11739e-01,-1.76103e-01,-4.01884e-02,-2.27915e-01,-7.30292e-03,6.49061e-01,8.69883e-02,-3.62328e-02,2.71205e-02,7.38587e-02,-3.50915e-02,1.04448e-01,1.62322e-01,
-2.57403e-01,-7.48709e-01,-5.19392e-01,2.44650e-02,3.11206e-01,-9.10204e-02,3.45867e-01,1.27643e-01,-1.88509e-01,8.56970e-02,4.41261e-02,-5.63534e-01,-8.72423e-02,7.03017e-02,7.99966e-02,-5.29209e-01,-3.02216e-02,4.16991e-01,-1.80252e-01,1.10957e-01,2.69027e-01,1.53745e-02,7.44019e-02,4.28700e-01,-6.17165e-02,
-1.45664e-01,-1.48768e-01,1.91388e-01,3.28124e-01,-2.43317e-01,-2.66007e-01,2.34128e-01,7.56371e-01,4.97185e-01,-1.34200e-01,3.32042e-01,2.37670e-01,-3.94788e-01,-1.00122e-01,-3.98481e-01,1.67852e-01,3.13004e-01,9.50899e-02,-2.82951e-02,-3.10540e-02,-1.72759e-02,-1.93233e-01,-7.58065e-03,1.74844e-01,-1.44472e-01,
6.78775e-02,2.51421e-01,-2.50573e-01,-3.12761e-01,5.33852e-01,1.66011e-01,9.36429e-01,-3.04953e-01,-2.29617e-01,1.40867e-01,2.90916e-01,1.99497e-01,5.03050e-01,6.28138e-02,-5.04073e-02,-1.72686e-01,7.94790e-02,-1.29746e-01,-1.69808e-01,-8.49830e-01,2.12108e-01,-6.59983e-02,3.11655e-01,2.80756e-01,-1.82733e-01,
2.10476e-01,-5.80465e-01,3.43167e-01,1.10493e-01,-4.83395e-01,4.62563e-01,-1.80258e+00,-2.35552e-01,-2.79267e-01,-7.43933e-02,-2.16447e-01,1.85254e-01,-1.54456e-01,4.74765e-01,1.01463e-01,-7.54543e+00,-5.44997e+00,2.19484e-01,4.07961e-01,-3.05407e-01,-2.62257e-01,-1.08712e+00,-4.22117e-01,1.03932e-01,-1.76211e-01,
-7.54831e-02,1.24055e+00,-3.01641e-01,3.17997e-01,-9.84596e-01,6.62684e-01,1.24368e-01,2.52264e-01,1.66794e-01,6.49678e-03,-5.76003e-02,2.86589e-02,-3.64541e-01,-2.73109e-01,-2.89540e-01,7.52056e-02,-7.69393e-01,1.15541e-02,9.20111e-02,-4.93905e-01,-4.16289e-01,-7.19236e-01,-1.14132e-01,-1.49916e-01,8.70431e-02,
-2.54775e-01,1.41926e-01,-3.77584e-03,1.09144e-01,1.01541e-01,7.35255e-02,2.58215e-01,-8.74139e-03,-1.80263e-01,-1.67877e-01,1.00685e-01,2.89047e-01,-6.23507e-02,2.27660e-01,1.23349e-01,-1.93576e-01,-2.02597e-01,-3.06660e-01,-2.07294e-01,-6.95365e-03,-2.82108e-01,-2.53722e-01,-1.98510e-01,-1.56896e-01,-1.63343e-01,
4.92953e-02,2.65095e-01,1.90947e-02,-2.52898e-01,-3.89041e-01,-3.72333e-01,-5.87211e-01,1.51612e-01,4.98025e-01,5.05701e-01,2.66877e-01,-3.98934e-01,5.52325e-01,-1.47352e-01,-2.29072e+00,3.55998e-01,8.41771e-01,2.96334e-02,3.05867e-01,-7.62138e-02,1.79454e-02,-7.12311e-01,2.64873e-01,-4.63453e-01,-5.45441e-02,
9.45477e-02,-1.44969e-01,4.33214e-01,-3.11080e-02,-6.65987e-03,-4.92215e-01,1.59968e-01,5.15529e-02,5.94955e-01,8.20465e-02,3.34185e-01,7.00777e-01,5.26391e-02,-5.38983e-01,-7.95134e-02,-3.73813e-01,1.15990e+00,5.77184e-01,-2.51546e-01,3.40538e-02,-1.42637e-01,3.08725e-02,-9.28341e-02,-3.08430e-01,3.04377e-01,
-3.11880e-02,2.29897e-01,-4.83664e-01,1.08764e-01,5.33768e-01,-1.15986e-02,-7.71488e-02,-1.56387e-01,-4.46234e-01,4.00022e-01,-4.16127e-02,-1.50331e-02,-5.84349e-02,-1.14698e-01,-2.81988e-01,2.22614e-01,-2.60071e-01,-1.86333e-01,3.71902e-01,-2.36928e-02,-1.95410e-01,-1.75025e-01,1.31239e-01,3.24417e-01,1.29254e-01,
1.60023e-01,-2.37137e-01,2.79224e-01,-3.81398e-01,-2.60393e-01,-5.01409e-02,1.45413e-01,-7.58784e-02,-2.57716e-01,-1.13862e-01,-3.26073e-01,8.22171e-01,1.67832e-01,-7.40345e-01,2.65310e-01,-3.36606e+00,-1.00034e+00,2.01885e-01,-8.81452e-03,-2.77505e-01,1.76000e+00,1.47396e-02,-2.28944e-01,2.46428e-01,-3.25692e-01,
-8.15117e-02,-1.96605e-01,-2.03165e-01,-2.73886e-01,-1.12701e-02,-3.38180e-01,-4.61781e-03,-2.06799e-01,5.24131e-02,-3.29748e-01,-5.50446e-02,1.80246e-01,1.48523e-02,-7.45194e-02,-1.13359e-01,-4.93590e-02,1.17031e-01,-1.19246e-01,-2.09219e-02,-1.01507e-01,-2.65588e-01,1.04823e-01,8.26388e-02,1.13697e-01,-6.09274e-02,
-3.03209e-01,6.88735e-02,-3.73942e-01,5.13526e-01,-2.69729e-01,-8.57218e-02,9.00092e-02,2.44047e-01,-1.74939e-01,-5.25078e-02,-1.09063e-01,2.64824e-01,3.27939e-01,-2.07401e-01,-2.07775e-02,3.26264e-01,-1.11068e+00,-3.00299e-01,-5.36215e-01,-6.65009e-01,3.47044e-01,-2.13087e-05,-5.54168e-01,-2.10888e-03,7.66654e-01,
1.87544e-01,4.80739e-01,-3.22054e-01,5.33165e-01,2.17734e-01,4.73631e-01,1.84597e-02,-1.12655e-02,1.75126e-01,2.92340e-01,-3.02497e-01,4.19003e-02,-9.53036e-01,-7.14868e-02,3.94242e-01,2.10062e-01,-4.88908e-01,5.50678e-01,2.36622e-01,7.04795e-02,4.16769e-01,7.54521e-01,-7.68201e-02,-2.91643e-01,9.17577e-02,
-2.52290e-01,1.01208e-01,-2.48097e-01,4.15725e-01,3.42475e-01,1.88588e-01,-3.08649e-01,2.84325e-01,5.23585e-01,-2.66983e-02,-8.74568e-02,-6.27455e-01,1.79983e-01,9.32284e-02,-5.01903e-02,2.64307e-01,-4.03040e-01,-4.04276e-01,-5.76180e-01,1.18553e-01,8.90803e-02,-1.66618e-01,3.58341e-01,4.67542e-02,1.29494e-01,
-4.01399e-01,
-1.32719e-01,
-8.52760e-02,
-1.86595e-01,
1.50989e-01,
-5.91107e-02,
8.08613e-02,
1.67566e-01,
-2.24549e-01,
8.75455e-02,
1.37216e-01,
1.40408e-01,
-1.83850e-01,
8.94251e-02,
-1.11143e-01,
-1.22055e-01,
-2.63387e-01,
9.01703e-02,
-1.40886e-01,
1.14310e-01,
3.23601e-01,
-3.34917e-01,
-3.19974e-01,
-1.76847e-01,
1.02211e-01,
-2.72256e+00,7.71397e-02,-9.64776e-02,4.87327e-02,-2.06978e-01,-2.63371e-01,-4.95574e-01,-1.89947e-01,2.81470e-01,4.87903e-01,4.05834e-01,6.30881e-01,-2.75234e-01,-1.59343e-01,-9.93357e-01,1.85950e-01,-2.38314e-01,3.72510e-01,2.01171e-02,-6.76555e-01,-9.36569e-02,-3.29646e-01,-2.59416e+00,-2.99916e-01,2.00231e-01,
1.20964e+00,2.83099e-01,-4.10240e-02,-8.24246e-02,-2.40992e-01,1.90268e-01,-3.58719e-01,7.73904e-02,2.53903e-01,1.01089e-01,-4.64313e-01,2.47790e-01,1.61302e-01,-1.66660e-01,1.71078e-01,-1.28182e-02,1.10207e-01,-5.35296e-02,1.35756e-01,3.96111e-01,6.53488e-01,1.43384e-01,-4.23299e-03,-5.89524e-01,2.44026e-01,
-6.48884e+00,-5.39002e-02,1.24847e-01,1.53049e-01,-1.27580e-01,-5.05292e-01,2.05005e-01,1.60690e-01,1.33359e-01,2.97226e-01,-5.65220e-01,1.92439e-01,4.74086e-01,8.27785e-02,4.40099e-02,-2.67508e+00,5.42395e-02,-2.37491e-01,9.04786e-01,5.83234e-01,-8.04357e-02,-2.84265e-02,8.34335e-01,-1.14959e-01,-1.81112e-01,
1.09385e-01,-8.40354e-01,3.41621e-02,6.47390e-02,7.57200e-02,-1.38173e-01,7.74528e-02,-4.42563e-02,-2.80005e-01,-3.98206e-02,-5.60058e-02,-3.93839e-02,-1.20382e-01,-1.38773e-01,1.08500e+00,2.20284e-01,-1.55560e-01,-7.62580e-02,3.00225e-02,1.12418e-01,2.79829e-01,1.57883e-01,-1.04152e-01,6.24668e-02,8.73464e-02,
-1.97073e-02,-1.67311e-01,-3.13502e-02,-3.93005e-02,-1.01079e-01,-1.97293e-01,-1.25028e-01,1.12438e-03,-2.11735e-01,1.49966e-01,-2.07812e-01,-2.26421e-01,-1.28205e-01,2.54947e-01,2.08481e-01,-1.16840e-01,-2.28903e-02,3.87538e-02,2.60770e-01,-7.51571e-02,-2.00658e-01,-1.53118e-01,-7.68412e-02,1.36577e-01,-5.69288e-03,
4.93321e-02,-5.49389e-01,-3.23244e-01,1.49043e-01,1.95412e-01,-2.60015e-01,4.70905e-01,-2.75382e-01,2.29813e-01,1.40361e-01,-9.20645e-01,-1.23728e-01,1.38892e-02,7.71695e-02,-3.28033e+00,-3.14853e+00,-1.02561e-02,-1.39848e-01,1.44964e-01,6.84542e-01,-1.94984e+00,1.69463e-01,-2.62673e-02,-7.47614e+00,-1.51915e-01,
7.91012e-01,2.96092e-01,-1.11324e-01,2.52188e-01,-2.31451e-02,2.12738e-01,-1.99801e-01,1.36876e-01,-6.40468e-02,1.91078e-01,-1.33685e-02,1.01901e-01,2.03953e-01,-6.85838e-02,1.36781e-01,-2.41710e-01,2.98957e-01,-3.82701e-02,-1.58712e-01,2.16598e-01,8.00011e-01,-2.72254e-01,7.38797e-01,-3.20142e-02,2.42529e-01,
-1.52831e+00,6.06234e-01,-4.16315e-02,3.65258e-02,7.98578e-02,-3.06578e-01,1.31548e-01,-1.91746e-01,-3.18999e-01,7.75170e-02,1.40860e-01,-2.06556e-01,-1.46632e-01,9.47585e-02,6.64190e-02,-2.37366e-01,-2.56401e-01,-1.91691e-02,2.38453e-01,1.08862e-03,-1.45383e-02,-7.15452e-02,3.71922e-01,6.22443e-01,-1.19509e-01,
4.87164e-01,6.10578e-03,-2.36396e-01,2.94224e-01,4.78465e-01,8.91478e-02,2.23894e-01,4.97815e-02,-1.67691e-01,-4.12640e-02,-3.75849e-01,2.85727e-01,3.06328e-01,3.83540e-02,-2.90309e-02,-6.60423e-01,2.69157e-01,-2.48343e-01,-2.27501e-01,1.38324e-01,-1.51081e-01,2.97514e-01,3.38164e-01,-2.57160e-01,1.62973e-01,
2.86876e-02,2.89586e-01,1.82470e-01,4.97633e-03,-4.28404e-01,-9.73168e-03,-3.41619e-01,-3.61343e-01,1.68656e-01,-5.25619e-01,-1.20322e-01,-4.39369e-01,1.11884e-01,2.59617e-01,-3.33312e-01,3.52622e-02,-1.45143e-01,-1.11495e-01,1.91595e-01,-5.58213e-01,-2.92462e-01,-2.60689e-01,-2.61803e-01,-2.12406e-02,-4.04099e-01,
-3.23072e+00,-2.42920e+00,7.14066e-01,-3.39492e-02,2.41069e-01,-5.15241e-01,2.86340e-01,1.53840e-02,-3.41254e-01,-1.68872e-01,8.86432e-02,-3.84827e-01,1.07081e-01,4.01422e-02,-1.34944e-01,7.46058e-01,3.21424e-01,-9.09319e-02,-3.21036e-01,-2.23238e-01,-1.04827e+00,3.27600e-01,-4.02635e-01,3.41746e-02,-7.18400e-01,
-3.15375e-01,-2.00050e-01,1.01876e-01,2.35811e-01,6.11690e-03,-9.42288e-02,1.29461e-02,-3.05373e-01,-1.14441e-02,5.60804e-02,3.91052e-02,-1.86888e-01,-2.03677e-01,-5.08108e-02,-2.93927e-01,-2.60835e-01,4.89794e-02,1.81972e-01,-3.47005e-02,-3.28305e-01,2.91448e-01,1.64019e-01,-1.86877e-02,-6.69249e-02,-2.74122e-01,
4.08613e-01,-1.36913e-01,-7.20418e-02,-1.15664e-01,-1.61588e-01,-1.04984e-01,-9.00405e-03,2.15239e-01,1.14716e-01,-3.01312e-01,9.60117e-02,1.20213e-01,4.35626e-02,1.24927e-01,-3.14586e-01,-1.27011e-01,7.27530e-02,-2.83191e-01,-3.44187e-01,-8.32907e-02,3.44550e-01,-1.04965e-01,-2.82439e-02,-2.82054e-01,2.33254e-01,
2.14610e-01,-1.59365e-01,1.52269e-01,1.32562e-01,2.66251e-01,1.06320e-03,-8.19353e-02,2.70431e-01,-1.64080e-01,-3.86471e-01,5.05700e-02,2.60894e-03,-1.20609e-01,-1.39001e-01,1.26978e+00,-1.40855e-02,-3.04341e-01,-1.54787e-01,-4.70873e-01,8.60193e-02,2.57784e-01,-2.51361e-02,1.51365e+00,3.98060e-01,7.78631e-03,
2.97674e-01,1.39973e-01,-2.09887e-01,-2.35604e-01,-3.34695e-01,-1.68087e-01,3.61637e-02,-2.56015e-01,-2.95847e-01,-5.09674e-02,-2.63237e-01,-6.42823e-02,-2.59436e-01,-2.02674e-01,-3.22543e-01,-2.93124e-01,1.84775e-01,-6.10911e-02,-2.48425e-01,-9.41962e-03,4.42643e-02,3.42840e-01,-1.13666e-01,8.92742e-02,-5.95967e-02,
-2.66343e-02,5.05694e-02,4.28232e-02,2.29591e-01,-2.07197e-01,-2.76213e-01,-3.05139e-02,-2.44793e-01,8.03218e-02,2.28646e-01,-2.19231e-01,-6.49331e-02,-2.04886e-01,-2.44679e-01,-9.13950e-02,-6.79002e-02,-1.87462e-01,-1.39884e-01,2.12626e-01,-1.17133e-01,1.98531e-01,3.14734e-01,1.85005e-01,1.86560e-01,2.62056e-01,
5.74049e-01,6.31142e-01,-1.63000e-01,-1.53981e-01,-2.24103e-01,8.65813e-02,1.16923e-01,2.41323e-02,7.54369e-02,3.01670e-01,-1.87673e-01,2.36471e-01,9.18872e-02,-6.72820e-02,1.29181e+00,-1.50951e-01,-1.23149e-01,4.19300e-02,5.02720e-01,2.71592e-01,5.37944e-01,-2.40451e-01,-5.02394e-01,2.64652e-01,1.71982e-01,
-5.28493e-02,8.81554e-02,9.95549e-02,-2.35804e-01,1.82515e-01,7.35992e-03,3.29438e-01,1.74410e-02,-3.44137e-01,2.73695e-01,8.79347e-02,5.57490e-02,2.63629e-01,2.33689e-01,1.62850e+00,-1.40320e-01,-1.69379e-01,-2.07889e-02,1.20936e-01,8.62764e-02,2.65898e-01,-8.01801e-02,-3.67121e-01,5.49464e-01,-2.15974e-01,
-3.72294e-02,2.32338e-01,4.98187e-01,1.28246e-01,5.73515e-02,-3.34878e-01,2.58384e-01,6.82933e-01,-1.29781e-01,2.81169e-01,2.12331e-01,-1.61793e-01,-5.37115e-01,-1.81890e+00,-7.52808e-01,1.03872e-01,-1.04731e-01,1.73641e-01,-1.41984e-01,-2.43653e-01,2.08990e-02,3.17849e-01,-1.55248e-01,-4.71393e-01,-2.42780e-01,
5.60873e-01,9.33265e-01,-1.92652e-01,1.77543e-02,3.81819e-01,5.24659e-01,-3.10739e-02,2.51659e-01,3.59609e-02,6.45722e-02,-1.29644e-01,1.69522e-01,3.34271e-01,1.05226e-01,-1.35550e-01,3.90766e-04,-2.04597e-01,-7.45865e-02,-5.06270e-01,-1.25630e-01,-1.48275e-01,2.17471e-01,6.60509e-01,-9.66031e-02,2.12045e-01,
-8.12144e-01,-5.65114e-01,-1.04629e-01,2.70190e-01,1.91855e-01,-2.53679e-01,-4.48677e-02,-3.24474e-01,-3.63251e-02,-1.94322e-01,1.91030e-01,-5.08906e-02,-1.92175e-01,-3.58479e-01,3.06432e-01,7.17177e-01,2.80927e-01,-1.50833e-01,2.07367e-01,9.72820e-02,-3.00127e-01,1.37225e-01,4.77469e-01,2.28203e-01,7.41166e-02,
-1.05360e-03,5.75157e-02,-2.12578e-01,4.79877e-03,-3.98809e-01,-3.67434e-01,1.26846e-01,-3.24072e-01,1.51779e-02,-1.93021e-02,-1.72535e-02,-2.25947e-01,2.07105e-01,-5.74711e-02,1.08668e-01,-8.32010e-02,-3.10629e-01,1.82644e-01,-6.32207e-02,-3.09035e-01,6.29293e-02,-3.41960e-01,-2.12214e-01,1.13143e-01,2.21260e-01,
1.32295e+00,-2.35422e-01,-1.70324e-01,1.28237e-01,1.91276e-01,2.47931e-01,-1.90550e-01,2.06510e-01,2.58129e-01,-3.06501e-02,-1.93138e-01,3.32849e-01,-5.85702e-02,2.20345e-02,2.20724e-01,5.16746e-01,1.01221e-01,3.54969e-02,3.07886e-02,2.91063e-01,2.27075e-01,1.94956e-01,4.93733e-01,-1.54224e-01,2.64792e-01,
9.29629e-02,-4.11281e-01,-3.49680e-01,-2.11584e-01,-9.93854e-02,-2.37293e-01,4.45194e-01,-2.67872e-01,1.53038e-01,2.81017e-01,-5.28940e-01,3.97547e-01,6.29167e-01,3.91120e-01,-1.79599e-01,-4.68127e-01,1.50160e-01,-1.95169e-01,2.97544e-01,9.76309e-02,-9.98757e-02,2.45833e-01,2.47764e+00,-1.58758e+00,2.63095e-01,
-2.67795e-01,-1.76265e-01,2.67752e-01,-2.78608e-01,-2.88147e-01,-1.86609e-01,-2.96157e-01,-2.74000e-01,-1.34067e-01,2.50264e-02,-2.89506e-01,1.45455e-01,-2.78777e-01,-2.24300e-01,-1.37724e-01,-3.35890e-01,2.91053e-01,-3.72213e-02,-9.06566e-02,-1.42287e-01,1.91552e-01,-2.78659e-02,2.45051e-01,4.01651e-02,1.34693e-01,
-6.55182e-02,
-7.01357e-02,
-7.91834e-02,
-8.90223e-02,
-1.16915e-01,
-9.11659e-02,
-7.64594e-02,
-2.62600e-02,
1.72160e-03,
1.19342e-01,
1.34046e-01,
-1.95363e-01,
2.01967e-01,
1.02463e-01,
-9.36288e-02,
-3.40302e-01,
-5.26934e-02,
-1.04499e-01,
-1.59824e-01,
-1.62742e-02,
1.36661e-01,
-1.89908e-01,
4.54111e-02,
-2.03914e-01,
-9.59668e-02,
2.02241e-03,3.36505e-02,-7.41053e-02,-1.79902e-02,2.95372e-01,-9.86256e-02,-1.58581e-02,1.43060e-02,2.90999e-01,-4.18939e-01,-3.43245e-03,1.12067e-01,-1.00389e-01,-9.37599e-02,2.06271e-01,2.37805e-01,6.86757e-02,2.31943e-02,1.30966e-02,-2.94536e-01,-8.85177e-02,-5.71708e-01,2.05567e-02,-2.36830e-02,3.76509e-01,
-9.35982e-02,2.13857e-01,-4.47918e-03,-1.26156e-01,-3.48322e-01,-4.72623e-02,-3.61232e-02,-1.76970e-02,1.46947e-01,6.91502e-01,3.35796e-03,1.11613e-01,1.66992e-01,6.36408e-02,-2.92618e-01,1.08728e-01,1.82569e-01,-1.02614e-01,-1.55165e-01,-1.98364e-01,8.19201e-02,1.85076e+00,-2.37357e-01,-8.56698e-02,-4.01255e-01,
-4.58503e-01,2.09502e-01,-1.00486e-01,2.06312e-01,-3.35079e-01,3.44527e-03,-1.94697e-01,2.07724e-01,2.10542e-01,2.63120e-01,-1.29122e-02,-4.09608e-01,-9.89982e-02,-1.82660e-02,3.08830e-03,-2.71476e-01,-2.99872e-02,-1.47302e-01,3.54214e-05,-1.24903e-01,-1.30066e-01,-2.78912e-01,-5.58287e-02,-1.24583e-02,1.26260e-01,
-9.75557e-03,2.80397e-01,3.08364e-02,4.33496e-02,3.96139e-01,-1.53967e-01,-7.14599e-02,4.49933e-03,1.56737e-01,4.48837e-01,-7.52206e-02,-3.39669e-01,-3.46323e-02,1.15881e-02,2.86038e-01,-3.01613e-01,1.64143e-02,-4.70784e-02,-7.58993e-02,-1.58120e-01,1.58062e-03,9.00499e-01,-2.03317e-01,5.44272e-03,1.22605e-01,
-2.64774e-01,1.27952e-01,-5.34150e-02,2.22953e-01,7.47943e-02,-1.31630e-03,-7.29904e-02,2.19563e-01,2.28589e-01,4.10665e-01,-2.26017e-02,3.26203e-01,-4.89281e-02,-9.73223e-02,-3.49669e-02,8.58063e-02,-2.61682e-02,-1.28553e-01,-1.14144e-01,-1.27609e-01,-7.78937e-02,7.79792e-01,-7.25803e-02,-2.69373e-02,-1.82050e-02,
-4.64944e-03,4.79032e-01,1.48287e-02,-2.82753e-02,1.34448e-01,-1.55692e-01,-8.96702e-02,-1.46181e-01,9.62336e-02,3.95446e-01,-1.78068e-01,6.62629e-02,-1.03636e-01,4.14425e-02,3.93329e-01,-1.41232e-02,-1.52875e-01,1.02894e-01,-6.93640e-02,-1.20262e-01,2.74256e-02,-5.40954e-03,-2.70160e-01,5.15622e-02,2.20829e-01,
-2.62337e-01,1.22633e-01,-4.92285e-02,2.46823e-01,-3.37258e-01,3.42986e-03,-6.89235e-02,2.26357e-01,2.29337e-01,5.14660e-01,-2.37200e-02,-2.81404e-01,-4.76753e-02,-1.01649e-01,-2.90961e-01,-2.09152e-01,-3.25581e-02,-1.29702e-01,-9.19307e-02,-1.25463e-01,-8.08382e-02,7.31775e-01,-7.14517e-02,-2.83119e-02,-2.49679e-01,
2.82012e-03,2.95946e-01,1.88861e-02,4.36778e-03,3.06348e-01,-1.56341e-01,-9.09196e-02,-2.47167e-02,1.72173e-01,7.71463e-01,-9.20929e-02,-3.12491e-01,-7.00354e-02,2.07270e-02,-2.66135e-01,-3.22119e-01,1.77096e-02,-3.40742e-02,-6.18353e-02,-1.58131e-01,6.59382e-03,5.39121e-01,-2.07346e-01,5.94812e-03,4.11991e-01,
2.43020e-02,2.25871e-02,2.66063e-02,6.28581e-01,4.06894e-01,7.82448e-02,-1.03814e-02,3.96814e-01,2.22052e-01,1.19317e+00,-8.10686e-03,-3.66428e-01,9.00745e-02,-2.52906e-01,-2.92466e-01,2.74524e-01,-5.05106e-02,-1.94002e-01,-2.35841e-01,4.39662e-03,-6.33458e-02,1.78122e+00,-7.03194e-02,-1.26123e-01,-2.89628e-01,
2.22653e-01,
1.68128e-01,
2.32482e-01,
-2.27556e-01,
-2.27469e-01,
2.44004e-01,
-2.26503e-01,
-2.24159e-01,
1.89456e-01,
